tree
version=v4
num_class=1
num_tree_per_iteration=1
label_index=0
max_feature_idx=13
objective=regression
feature_names=forecast_high forecast_low forecast_diurnal_range day_sin day_cos forecast_precip forecast_wind forecast_radiation forecast_evap lag_high_1d lag_high_2d roll_high_7d_mean roll_high_14d_mean roll_high_7d_std
feature_infos=[18.699999999999999:108.5] [8.9000000000000004:82.900000000000006] [2.3999999999999986:41.399999999999999] [-0.99999942202469239:0.99998555065071859] [-0.99997919295908244:0.9999907524084426] [0:6.6890000000000001] [4.9000000000000004:42.299999999999997] [262:8607] [0.01:0.374] [-12.5:11.5] [-12.5:11.5] [-5.1857142857142851:6.1571428571428566] [-4.2785714285714294:4.4642857142857144] [0.58837953413629707:6.7176030305601167]
tree_sizes=2340 2383 2472 2451 2438 2457 2483 2523 2496 2500 2483 2510 2454 2460 2504 2493 2500 2523 2528 2457 2524 2519 2546 2546 2463 2495 2497 2513 2555 2570 2497 2516 2549 2541

Tree=0
num_leaves=26
num_cat=0
split_feature=0 0 2 4 1 7 12 7 0 3 6 7 2 8 1 10 2 4 12 3 11 1 3 13 7
split_gain=1772.39 322.568 102.399 119.44 124.765 99.4771 72.1014 50.1869 45.4771 42.7216 60.9149 51.7726 33.0713 28.7351 25.425 24.5442 28.1585 30.8637 20.812 35.831 17.2974 14.7466 7.75932 4.4852 0.894644
threshold=80.050000000000026 95.40000000000002 23.550000000000001 0.29958852271690523 32.45000000000001 2533.5000000000005 -0.24999999999999914 3655.0000000000005 83.050000000000011 -0.082689790342551792 12.050000000000002 6946.5000000000009 16.900000000000006 0.10550000000000001 48.550000000000004 2.7500000000000004 29.750000000000004 0.75438814418115718 0.40357142857142925 0.82414472752956958 0.54285714285714148 40.45000000000001 -0.67803021058859214 1.7586520812420887 5753.5000000000009
decision_type=2 2 2 2 2 2 2 2 2 2 2 2 2 2 2 2 2 2 2 2 2 2 2 2 2
left_child=2 6 3 7 -5 14 8 -1 -2 10 24 -11 -9 21 -6 16 17 -4 20 -20 23 -7 -3 -8 -10
right_child=1 22 15 4 5 13 18 12 9 11 -12 -13 -14 -15 -16 -17 -18 -19 19 -21 -22 -23 -24 -25 -26
leaf_value=0.20079546514434868 0.19515930098383422 0.059524246372185868 0.31859357719145609 0.2658076350831125 0.25266546194698009 0.4037674324717746 0.22572410625268169 0.39217223837810627 0.13489488346095893 -0.033596817614969687 0.24791106043935185 0.14833341559675745 0.26045891566947132 0.40288012812669693 0.37264561108761007 0.22254056690714785 0.36660686117929964 0.18830748394882835 0.21943372056021154 0.093909754280723984 0.17231251595329189 0.55675123926371273 -0.029557616965267097 0.27400838824465445 0.070869824932483394
leaf_weight=22 28 27 16.000000000000004 28 14.999999999999998 14.999999999999998 17 18 15.999999999999998 21 15.999999999999998 14.999999999999998 20 35 23 29 18 14.999999999999998 24 18 17 32 61 19 22
leaf_count=22 28 27 16 28 15 15 17 18 16 21 16 15 20 35 23 29 18 15 24 18 17 32 61 19 22
internal_value=0.220302 0.103144 0.343573 0.368931 0.402241 0.432618 0.150765 0.283056 0.11499 0.0913885 0.136682 0.0329446 0.329154 0.475889 0.329842 0.273622 0.302454 0.257606 0.196736 0.161645 0.225956 0.51898 -0.00721693 0.25282 0.0911033
internal_weight=587 301 286 208 148 120 213 60 118 90 54 36 38 82 38 78 49 31 95 42 53 47 88 36 38
internal_count=587 301 286 208 148 120 213 60 118 90 54 36 38 82 38 78 49 31 95 42 53 47 88 36 38
is_linear=0
shrinkage=1


Tree=1
num_leaves=26
num_cat=0
split_feature=0 0 9 9 1 2 2 6 1 9 0 13 6 8 1 3 6 8 3 1 13 2 0 3 7
split_gain=1553.41 280.124 197.7 81.7199 63.4251 59.6425 71.7618 55.3321 53.4909 37.022 34.9918 31.126 29.4012 38.238 38.5197 30.9414 36.7511 25.1095 24.3922 19.4854 18.1425 13.5856 9.84307 6.38594 3.70017
threshold=80.050000000000026 95.40000000000002 4.0999999999999988 1.7000000000000013 40.45000000000001 20.350000000000009 11.050000000000006 14.250000000000002 32.45000000000001 0.84999999999999798 68.050000000000011 1.2525208304523596 7.9500000000000011 0.26850000000000007 60.850000000000001 0.51297097409535064 14.450000000000001 0.12150000000000001 0.98667101781630184 50.650000000000013 1.9174013455578558 27.450000000000006 86.65000000000002 -0.67803021058859214 2598.5000000000005
decision_type=2 2 2 2 2 2 2 2 2 2 2 2 2 2 2 2 2 2 2 2 2 2 2 2 2
left_child=2 3 5 11 -4 6 7 -1 -8 17 -11 -2 -13 14 -14 16 20 -7 24 -6 -16 -12 -5 -3 -10
right_child=1 23 4 22 19 9 8 -9 18 10 21 12 13 -15 15 -17 -18 -19 -20 -21 -22 -23 -24 -25 -26
leaf_value=-0.042754957658844892 -0.017502110001701408 -0.15250791831125249 0.11014275496242464 -0.010271246230403481 0.34504008614122073 -0.077393980033295368 0.020588812501544162 0.11991167222249155 0.11846350578125026 0.12822363989512645 -0.019762104622201342 -0.016442571109000405 -0.031186243058231988 -0.014630340125893503 -0.087056003191845879 -0.2117419728569504 -0.014674565165371148 0.037881700443742165 0.069578246370942939 0.18098287361982088 -0.18849450774325405 0.064403559258139717 0.053425548019416791 -0.23514550861867622 0.19589961064339911
leaf_weight=22 26 27 20 28 19 15.999999999999998 15.999999999999998 14.999999999999998 19 25 18 18 18 17 25 27 14.999999999999998 15.999999999999998 15.999999999999998 17 22 14.999999999999998 17 61 52
leaf_count=22 26 27 20 28 19 16 16 15 19 25 18 18 18 17 25 27 15 16 16 17 22 15 17 61 52
internal_value=-0.00192503 -0.111608 0.113479 -0.0672229 0.228601 0.0834026 0.111543 0.0264409 0.14083 0.0378897 0.0699971 -0.0892219 -0.101851 -0.113707 -0.12879 -0.147209 -0.112341 -0.0211189 0.161811 0.283539 -0.14131 0.0202476 0.0152616 -0.214457 0.179675
internal_weight=587 301 286 213 56 230 140 37 103 90 58 168 142 124 107 89 62 32 87 36 47 33 45 88 71
internal_count=587 301 286 213 56 230 140 37 103 90 58 168 142 124 107 89 62 32 87 36 47 33 45 88 71
is_linear=0
shrinkage=0.0694391


Tree=2
num_leaves=27
num_cat=0
split_feature=0 0 9 9 1 2 2 6 1 13 9 0 0 10 1 4 7 9 0 8 11 0 6 8 0 3
split_gain=1360.84 245.116 174.693 67.7472 55.9345 52.1727 64.1709 48.819 41.8783 30.8573 28.1655 27.4057 26.8712 26.8526 32.0596 22.5054 26.235 20.219 20.2103 18.518 15.1914 37.1621 14.1133 13.5287 12.1447 11.8666
threshold=80.050000000000026 93.050000000000011 4.0999999999999988 1.7000000000000013 40.45000000000001 19.850000000000001 11.050000000000006 14.250000000000002 32.45000000000001 1.2525208304523596 0.84999999999999798 68.050000000000011 69.200000000000003 -1.5499999999999969 66.250000000000014 0.29958852271690523 5488.5000000000009 -0.54999999999999705 95.850000000000009 0.10750000000000001 2.25 60.750000000000007 10.950000000000001 0.24950000000000003 82.450000000000017 0.48314048284850658
decision_type=2 2 2 2 2 2 2 2 2 2 2 2 2 2 2 2 2 2 2 2 2 2 2 2 2 2
left_child=2 3 5 9 -4 6 7 -1 -8 -2 12 -12 -7 22 24 16 -10 -16 23 -6 21 -17 -11 -3 -15 -5
right_child=1 18 4 25 19 10 8 -9 15 13 11 -13 -14 14 17 20 -18 -19 -20 -21 -22 -23 -24 -25 -26 -27
leaf_value=-0.040074932162434886 -0.0004413120815147089 -0.15978462684763936 0.10330515184441622 0.063526770460380522 0.31780561779937466 -0.067668899559607809 0.022401542857596306 0.11272163848284747 0.02931806971381563 -0.08429011795257893 0.11466784888593648 0.020437203132258348 0.050094064146767717 -0.019236891463669442 -0.21677017184168015 0.10567515075996001 0.15131203263527829 -0.089557714816559525 -0.20432221661786104 0.16023069836326084 0.10222760207583374 0.27668252930324233 -0.002405684798795773 -0.057830935513427037 -0.094282174731007085 -0.0082104171088478641
leaf_weight=22 22 18 20 17 21 18 14.999999999999998 14.999999999999998 17 15.999999999999998 26 34 14.999999999999998 17 17 14.999999999999998 18 17 82 14.999999999999998 15.999999999999998 19 23 14.999999999999998 32 25
leaf_count=22 22 18 20 17 21 18 15 15 17 16 26 34 15 17 17 15 18 17 82 15 16 19 23 15 32 25
internal_value=-0.00170058 -0.104361 0.106313 -0.0539443 0.214522 0.078047 0.105098 0.0249275 0.133496 -0.0762952 0.0365758 0.0640773 -0.0143704 -0.0897045 -0.111831 0.151961 0.0976774 -0.163149 -0.183167 0.266108 0.183817 0.213045 -0.0389048 -0.120425 -0.0703357 0.0226691
internal_weight=587 301 286 186 56 230 137 37 100 144 93 60 33 122 83 85 35 34 115 36 50 34 39 33 49 42
internal_count=587 301 286 186 56 230 137 37 100 144 93 60 33 122 83 85 35 34 115 36 50 34 39 33 49 42
is_linear=0
shrinkage=0.0694391


Tree=3
num_leaves=27
num_cat=0
split_feature=0 0 9 3 11 12 7 7 0 3 8 7 0 1 12 8 6 10 10 0 9 12 9 4 12 9
split_gain=1069.82 179.774 122.976 84.0479 57.1735 53.5722 77.3826 50.8967 47.7305 45.4783 96.1133 71.4397 79.3801 57.0727 39.5693 46.5885 35.2718 25.4599 19.1272 16.667 16.4809 16.2032 14.2956 12.9482 11.7592 11.4488
threshold=80.050000000000026 95.40000000000002 3.7500000000000004 0.83376496542330847 2.0785714285714314 0.3857142857142864 3281.5000000000005 5428.0000000000009 72.550000000000011 -0.082689790342551792 0.19949999999999998 6321.5000000000009 85.15000000000002 70.350000000000009 1.3178571428571433 0.097500000000000017 14.750000000000002 1.3499999999999981 2.2500000000000004 55.750000000000007 -0.24999999999999992 2.6750000000000007 -1.2499999999999998 -0.88620506325989179 2.8428571428571439 -2.2499999999999996
decision_type=2 2 2 2 2 2 2 2 2 2 2 2 2 2 2 2 2 2 2 2 2 2 2 2 2 2
left_child=2 9 3 5 -4 -1 19 8 -5 10 13 12 -11 20 -8 18 -13 -9 -16 -7 -2 -17 23 -3 -6 -12
right_child=1 22 4 7 24 6 14 17 -10 11 25 16 -14 -15 15 21 -18 -19 -20 -21 -22 -23 -24 -25 -26 -27
leaf_value=0.20232140156297659 -0.062949470061663515 -0.1306830971040463 0.070832693911839814 -0.12281540954775245 0.26284267013086665 0.043991451794848153 0.020497260564947117 0.11203969339399193 0.025722990103465244 -0.054629959643610664 -0.14767090877255987 -0.09651405813631099 -0.23632533010136944 0.11419356643630144 0.24594135713991008 0.023409135035574982 0.0050958707524647187 0.00097067448858076616 0.1086501801130221 -0.044442944358214352 0.021883317555263022 0.11582520395803578 -0.094012919250403157 -0.22115369003491445 0.13847150046407478 -0.066916193279839595
leaf_weight=19 19 27 20 18 25 15.999999999999998 19 20 20 24 14.999999999999998 27 24 22 18 18 37 18 14.999999999999998 21 21 20 15.999999999999998 44 15.999999999999998 34
leaf_count=19 19 27 20 18 25 16 19 20 20 24 15 27 24 22 18 18 37 18 15 21 21 20 16 44 16 34
internal_value=-0.00463228 -0.0934058 0.0925789 0.0672841 0.178674 0.0977065 0.0786342 0.00765325 -0.047718 -0.0592655 -0.0269015 -0.0901179 -0.152326 0.03028 0.112627 0.135823 -0.0396873 0.0625751 0.195003 -0.00585473 -0.0196799 0.0759951 -0.177021 -0.192084 0.224531 -0.0973118
internal_weight=593 310 283 222 61 146 127 76 38 223 111 112 48 62 90 71 64 38 33 37 40 38 87 71 41 49
internal_count=593 310 283 222 61 146 127 76 38 223 111 112 48 62 90 71 64 38 33 37 40 38 87 71 41 49
is_linear=0
shrinkage=0.0694391


Tree=4
num_leaves=27
num_cat=0
split_feature=0 0 9 3 6 11 12 7 7 12 2 0 12 8 3 4 7 6 7 1 0 12 9 4 9 12
split_gain=939.356 156.909 107.901 74.1111 54.4275 48.9019 47.1156 68.1271 44.8128 43.3541 51.1805 42.1819 34.8754 41.1512 25.4247 25.3906 31.1899 24.5323 21.8852 20.1095 14.6821 14.2468 12.2197 11.1107 9.35611 14.0511
threshold=80.050000000000026 95.40000000000002 3.7500000000000004 0.83376496542330847 11.350000000000003 2.6214285714285732 0.3857142857142864 3281.5000000000005 5428.0000000000009 -0.24999999999999914 15.300000000000004 74.050000000000011 1.3178571428571433 0.097500000000000017 0.82414472752956958 -0.26037106507032776 6146.5000000000009 12.15 6214.0000000000009 35.000000000000007 55.750000000000007 2.6750000000000007 -1.2499999999999998 -0.88620506325989179 0.84999999999999798 0.17857142857142802
decision_type=2 2 2 2 2 2 2 2 2 2 2 2 2 2 2 2 2 2 2 2 2 2 2 2 2 2
left_child=2 9 3 6 -4 -6 -1 20 11 10 -2 -5 -9 19 24 16 -12 -10 -16 -14 -8 -15 23 -3 25 -11
right_child=1 22 4 8 5 -7 7 12 17 14 15 -13 13 21 18 -17 -18 -19 -20 -21 -22 -23 -24 -25 -26 -27
leaf_value=0.18983106910231132 0.0002529944393308989 -0.12234113805061801 0.263006186860407 -0.10580792221282578 0.024899664059523586 0.17584580822200743 0.041330978333414654 0.019231863644669989 0.0036232505927312913 0.020680773678882734 -0.21302629072729387 0.034288176170127339 0.098616701516828539 0.021972823245812075 -0.12442939174212629 -0.057639297581979845 -0.092732181526387805 0.11233350436660226 -0.0084829787528767665 0.2338516646631188 -0.041669956713041446 0.10863483775396326 -0.088327296984182457 -0.20658219835400976 0.029542644251921196 -0.060450607349541906
leaf_weight=19 28 27 19 21 19 23 15.999999999999998 19 20 19 17 17 14.999999999999998 18 15.000000000000002 39 40 18 14.999999999999998 18 21 20 15.999999999999998 44 32 18
leaf_count=19 28 27 19 21 19 23 16 19 20 19 17 17 15 18 15 39 40 18 15 18 21 20 16 44 32 18
internal_value=-0.00424575 -0.0874309 0.0868451 0.0631492 0.167494 0.11254 0.0917166 0.0738279 0.00715525 -0.0555329 -0.0825554 -0.0448005 0.105723 0.127499 -0.0205471 -0.106132 -0.135684 0.0586908 -0.0713239 0.183112 -0.00545007 0.0712859 -0.16555 -0.179536 0.0031657 -0.020052
internal_weight=593 310 283 222 61 42 146 127 76 223 124 38 90 71 99 96 57 38 30 33 37 38 87 71 69 37
internal_count=593 310 283 222 61 42 146 127 76 223 124 38 90 71 99 96 57 38 30 33 37 38 87 71 69 37
is_linear=0
shrinkage=0.0694391


Tree=5
num_leaves=27
num_cat=0
split_feature=0 0 9 3 6 11 12 10 12 7 3 8 7 0 3 6 12 8 2 7 11 8 12 9 12 12
split_gain=825.185 136.922 94.7392 65.2419 48.0307 42.917 41.7298 56.9109 41.4376 59.9776 39 81.3044 58.7493 67.1362 51.4585 31.257 30.7376 36.3466 29.3116 27.6134 18.8275 13.5932 12.5266 10.4402 10.0876 9.35167
threshold=80.050000000000026 95.40000000000002 3.7500000000000004 0.83376496542330847 11.350000000000003 2.6214285714285732 0.32142857142857095 -1.0499999999999969 0.3857142857142864 3281.5000000000005 -0.082689790342551792 0.19949999999999998 6321.5000000000009 85.15000000000002 -0.88622299073327826 14.750000000000002 1.3178571428571433 0.097500000000000017 21.650000000000009 4858.0000000000009 2.5214285714285718 0.025500000000000005 2.6750000000000007 -1.2499999999999998 -0.8214285714285704 -0.24999999999999914
decision_type=2 2 2 2 2 2 2 2 2 2 2 2 2 2 2 2 2 2 2 2 2 2 2 2 2 2
left_child=2 10 3 8 -4 -6 7 -5 -1 21 11 14 13 -12 19 -14 -11 20 -8 -2 -18 -10 -19 -3 -13 -17
right_child=1 23 4 6 5 -7 18 -9 9 16 12 24 15 -15 -16 25 17 22 -20 -21 -22 -23 -24 -25 -26 -27
leaf_value=0.17811183179203613 -0.074302868294248398 -0.16780697657433691 0.24676947752364956 0.038101753613430898 0.023362479406593445 0.16477636835435497 0.10486491733839637 -0.12149590984647225 0.039928815278672335 0.018044580632312811 -0.047501962110762783 -0.10728935847424596 -0.088422487071224298 -0.21415633220020647 0.11551629662702832 -0.023921624099875465 0.23087104293972513 0.020624638866584062 -0.016257209587493729 0.033513823139206263 0.10168338988126564 -0.039932614613630991 0.10189084591627595 -0.082985527052596542 -0.032490201442227952 0.042065443078543742
leaf_weight=19 18 71 19 20 19 23 22 19 15.999999999999998 19 24 34 27 24 20 20 14.999999999999998 18 14.999999999999998 24 18 21 20 15.999999999999998 14.999999999999998 17
leaf_count=19 18 71 19 20 19 23 22 19 16 19 24 34 27 24 20 20 15 18 15 24 18 21 20 16 15 17
internal_value=-0.00388001 -0.0818466 0.0814955 0.0592897 0.157068 0.10547 0.00675175 -0.0421579 0.0860933 0.0693147 -0.0520466 -0.0221593 -0.0805935 -0.136987 0.0303613 -0.0349152 0.0992416 0.119685 0.0577394 -0.0141946 0.171945 -0.00507303 0.0668685 -0.154823 -0.0869481 0.00710414
internal_weight=593 310 283 222 61 42 76 39 146 127 223 111 112 48 62 64 90 71 37 42 33 37 38 87 49 37
internal_count=593 310 283 222 61 42 76 39 146 127 223 111 112 48 62 64 90 71 37 42 33 37 38 87 49 37
is_linear=0
shrinkage=0.0694391


Tree=6
num_leaves=27
num_cat=0
split_feature=0 9 9 6 4 4 3 0 4 4 11 11 3 6 6 2 2 5 2 0 6 7 8 6 11 0
split_gain=677.74 117.269 80.8353 54.9127 53.4948 59.4321 51.4562 44.6541 41.3837 73.1867 71.002 39.9005 36.3543 50.4405 43.0166 33.0844 30.9336 28.2209 40.1549 24.8854 22.5798 19.3138 18.3139 14.8621 12.389 6.70057
threshold=86.350000000000009 3.6500000000000026 -0.59999999999999776 11.450000000000001 0.97832380634958016 -0.6652727025667432 0.46800856592688467 93.15000000000002 0.45082531555062549 0.90070004940655357 2.2928571428571418 2.1500000000000008 0.94425825643485939 9.8500000000000032 11.550000000000002 14.050000000000002 18.650000000000002 0.030000000000000002 20.699999999999999 81.15000000000002 11.750000000000002 6070.5000000000009 0.074500000000000011 10.15 0.52857142857142969 69.600000000000009
decision_type=2 2 2 2 2 2 2 2 2 2 2 2 2 2 2 2 2 2 2 2 2 2 2 2 2 2
left_child=1 4 6 -3 5 -1 7 23 12 10 15 -5 13 -7 -14 -10 -4 18 -15 24 -12 -18 -11 -2 -16 -17
right_child=2 3 16 11 -6 8 -8 -9 9 22 20 -13 14 17 19 25 21 -19 -20 -21 -22 -23 -24 -25 -26 -27
leaf_value=0.14594361998435207 -0.084426428328060465 0.20989986086088361 0.024740224034731115 0.0038055591980143606 0.12903951509161476 0.048982568047334599 -0.24884560192959657 -0.14077230399685794 0.20197162419302045 -0.088199682771718052 0.049755345747018072 0.1305796770743097 -0.07106310708116198 0.041721907207097668 0.1228030980104219 0.11090290783133583 -0.018609409069932609 -0.1484588962803256 -0.10487759665834298 -0.018574914551828269 -0.057737991678781901 -0.11251683324244226 0.0070661586142269665 0.0040067683862053593 0.037708875693797994 0.048495605426217996
leaf_weight=15.999999999999998 17 26 23 20 24 18 15.999999999999998 84 15.999999999999998 15.999999999999998 15.999999999999998 28 14.999999999999998 14.999999999999998 18 20 20 17 17 14.999999999999998 17 23 20 17 19 24
leaf_count=16 17 26 23 20 24 18 16 84 16 16 16 28 15 15 18 20 20 17 17 15 17 23 20 17 19 24
internal_value=-0.00081455 0.0539297 -0.10343 0.131019 0.0342316 0.0250574 -0.134105 -0.113952 0.0164648 0.0441779 0.076186 0.0804227 -0.0105184 -0.0459098 0.0252324 0.119772 -0.038661 -0.0814201 -0.0380213 0.0548976 -0.00577832 -0.0720941 -0.0381079 -0.042831 0.0840086 0.0810828
internal_weight=577 377 200 74 303 279 134 118 263 129 93 48 134 67 67 60 66 49 32 52 33 43 36 34 37 44
internal_count=577 377 200 74 303 279 134 118 263 129 93 48 134 67 67 60 66 49 32 52 33 43 36 34 37 44
is_linear=0
shrinkage=0.0694391


Tree=7
num_leaves=27
num_cat=0
split_feature=0 9 8 4 0 12 4 4 9 4 4 11 5 0 1 13 8 3 0 1 8 8 12 3 4 12
split_gain=593.444 104.054 78.2519 87.7498 72.8509 59.7295 49.5659 57.2139 43.6643 38.3852 63.1375 45.1901 44.067 31.4688 39.0096 29.2158 47.5204 61.9684 22.3729 15.8705 13.6308 12.0537 10.5842 8.59026 13.5859 6.65179
threshold=86.350000000000009 2.5999999999999983 0.14250000000000002 0.89309379682046119 95.850000000000009 2.4178571428571436 -0.6652727025667432 0.95691861501572217 1.7000000000000013 0.90070004940655357 0.45082531555062549 2.2928571428571418 0.12650000000000003 81.350000000000009 60.850000000000001 1.2847037755920707 0.26250000000000007 -0.96235977360714686 76.050000000000011 74.15000000000002 0.18450000000000003 0.20550000000000002 2.0285714285714289 -0.67803021058859214 -0.85225707553516283 0.32142857142857095
decision_type=2 2 2 2 2 2 2 2 2 2 2 2 2 2 2 2 2 2 2 2 2 2 2 2 2 2
left_child=1 6 3 5 8 -3 -1 9 15 10 12 22 13 14 18 -2 17 -17 25 -6 -15 -19 -12 -21 -25 -8
right_child=4 2 -4 -5 19 -7 7 -9 -10 -11 11 -13 -14 20 -16 16 -18 21 -20 23 -22 -23 -24 24 -26 -27
leaf_value=0.1371173865115968 -0.0028808100283109817 0.24312482210340011 -0.0064059301591114556 0.026881773876291301 -0.2161355101634756 0.092665213405881117 0.064476151390003913 0.10641235727541502 0.041953925942394124 -0.074422091815535441 0.13351323622667052 -0.0063951526522276056 -0.10767912590734675 -0.081325549162187372 0.11699194385269657 -0.027475564574187684 -0.0089561661365155747 -0.23462174351904419 -0.059123617151911244 -0.068890624767882241 -0.0045909257866969351 -0.12158059558661734 0.057237807745266274 -0.10105952236296148 -0.19870527919985315 0.0011644938516923084
leaf_weight=15.999999999999998 21 33 23 26 15.999999999999998 27 15.000000000000002 29 15.999999999999998 23 27 27 18 19 17 21 23 14.999999999999998 17 19 24 22 21 31.999999999999996 15.000000000000002 14.999999999999998
leaf_count=16 21 33 23 26 16 27 15 29 16 23 27 27 18 19 17 21 23 15 17 19 24 22 21 32 15 15
internal_value=-0.000694519 0.050532 0.107042 0.136741 -0.0967172 0.181515 0.0268113 0.0185949 -0.0598535 0.00617527 0.0162073 0.0655451 -0.0140644 0.00367679 0.0340693 -0.0764136 -0.0948535 -0.127227 -0.000101985 -0.146592 -0.0409751 -0.178778 0.104408 -0.122823 -0.140269 0.0352243
internal_weight=577 377 109 86 200 60 268 252 118 223 200 75 125 107 64 102 81 58 47 82 43 37 48 66 47 30
internal_count=577 377 109 86 200 60 268 252 118 223 200 75 125 107 64 102 81 58 47 82 43 37 48 66 47 30
is_linear=0
shrinkage=0.0694391


Tree=8
num_leaves=27
num_cat=0
split_feature=0 9 9 13 6 3 11 4 2 7 7 9 0 6 0 8 12 13 0 4 6 13 7 0 8 3
split_gain=521.727 92.1192 64.4109 60.992 51.2794 46.4409 43.3164 43.1708 48.708 40.4057 45.5928 39.2915 36.5919 29.6358 25.0056 21.9329 39.66 17.9525 16.6933 30.7257 16.6691 15.0554 15.8979 13.5671 8.91504 0.932065
threshold=86.350000000000009 3.6500000000000026 -0.54999999999999705 4.2603931015273027 11.450000000000001 0.46800856592688467 -0.70714285714285641 0.97832380634958016 19.750000000000007 2533.5000000000005 1836.5000000000002 5.900000000000003 81.850000000000009 7.6500000000000012 93.950000000000017 0.17350000000000002 0.68214285714285683 2.6506509925934183 58.20000000000001 -0.15101602693478736 13.750000000000002 1.2106660937441853 5647.0000000000009 68.950000000000017 0.12650000000000003 -0.04836157422433459
decision_type=2 2 2 2 2 2 2 2 2 2 2 2 2 2 2 2 2 2 2 2 2 2 2 2 2 2
left_child=1 7 5 4 -3 6 21 8 9 10 -1 -6 18 -10 17 16 -15 -4 -11 -20 -17 -2 -23 -18 -21 -24
right_child=2 3 14 -5 11 -7 -8 -9 13 12 -12 -13 -14 15 -16 20 23 -19 19 24 -22 22 25 -25 -26 -27
leaf_value=0.046921783805002483 -0.17701548768780151 0.15747046915348764 -0.033790463225918776 0.22857066629243075 0.082710419067255278 -0.22536482842924233 0.0035855120776720041 0.11499761590003345 0.070074088144389479 0.029399836546186799 -0.088324108406289445 -0.053472927349015778 -0.0024639525385757315 -0.13240224949506871 -0.09064545065016813 -0.032161260767619625 0.032209004011346763 0.053726179054501576 0.046562932206739079 0.18596404724384327 0.046055545561409866 -0.029915355327933279 -0.12010435722577567 -0.046557186507058777 0.093784199965379539 -0.070119136098592563
leaf_weight=27 18 21 27 15.999999999999998 21 15.999999999999998 17 24 15.999999999999998 20 18 15.999999999999998 27 18 20 23 17 15.999999999999998 29 18 25 15.999999999999998 55 21 20 14.999999999999998
leaf_count=27 18 21 27 16 21 16 17 24 16 20 18 16 27 18 20 23 17 16 29 18 25 16 55 21 20 15
internal_value=-0.000731179 0.0473007 -0.0907647 0.11562 0.0767077 -0.117204 -0.0988455 0.0298473 0.0216152 0.0465467 -0.0088896 0.0241465 0.0681647 -0.0116807 -0.0311038 -0.02554 -0.0541594 -0.00012019 0.0895678 0.10591 0.00882692 -0.115296 -0.0979748 -0.0114975 0.145806 -0.112041
internal_weight=577 377 200 74 58 137 121 303 279 159 45 37 114 120 63 104 56 43 87 67 48 104 86 38 38 70
internal_count=577 377 200 74 58 137 121 303 279 159 45 37 114 120 63 104 56 43 87 67 48 104 86 38 38 70
is_linear=0
shrinkage=0.0694391


Tree=9
num_leaves=27
num_cat=0
split_feature=0 9 0 7 2 6 12 3 11 2 7 0 4 11 13 13 11 7 6 2 12 8 11 9 13 3
split_gain=475.53 121.109 116.323 110.731 78.249 49.7831 46.7109 46.2657 43.4726 51.2215 33.3602 32.5151 44.2637 30.7025 26.3097 28.1126 21.7872 21.0688 20.6596 17.8111 17.6114 29.3248 14.6432 13.9827 13.2409 12.0224
threshold=80.050000000000026 3.7500000000000004 99.950000000000017 2232.5000000000005 19.850000000000001 11.350000000000003 0.68214285714285683 0.19337368024598431 -0.70714285714285641 15.300000000000004 3843.0000000000005 60.45000000000001 0.29137697329261131 2.6214285714285732 2.3445062967808505 1.6496030495218068 1.4714285714285718 7086.0000000000009 12.65 14.400000000000004 -1.2249999999999996 0.21550000000000002 0.17142857142857082 -2.0499999999999967 1.4535670318311673 0.27694220057652758
decision_type=2 2 2 2 2 2 2 2 2 2 2 2 2 2 2 2 2 2 2 2 2 2 2 2 2 2
left_child=1 3 8 18 11 -3 -6 -8 9 -2 -10 19 22 -7 15 24 -9 25 -1 -5 21 -11 -13 -23 -12 -16
right_child=2 5 -4 4 6 13 7 16 10 20 14 12 -14 -15 17 -17 -18 -19 -20 -21 -22 23 -24 -25 -26 -27
leaf_value=-0.12230581700741538 0.034585096507831849 0.23346655192700286 -0.18729076562562724 -0.011563240973285371 -0.076946102892036933 0.022597762564479189 0.093623286515034571 0.037782415323743754 -0.11260649808871415 0.015165449827127263 0.018443194172750317 0.11508699511603687 0.21109313477412464 0.13921624434742627 -0.022955768404429117 0.062555293973744944 -0.061721609005803667 0.0058585820928783588 -0.016028108309321169 0.086527760468142062 -0.13181550475184214 -0.11492429304368575 0.020667047604525198 -0.038924419403498382 -0.065851510900460875 -0.10544325585975362
leaf_weight=18 15.999999999999998 19 31 14.999999999999998 20 19 34 18 14.999999999999998 14.999999999999998 15.999999999999998 18 21 27 15.999999999999998 34 20 27 17 18 40 39 14.999999999999998 21 15.999999999999998 21
leaf_count=18 16 19 31 15 20 19 34 18 15 15 16 18 21 27 16 34 20 27 17 18 40 39 15 21 16 21
internal_value=-0.00481968 0.0605276 -0.0642157 0.0345214 0.0566321 0.14192 0.0113668 0.0375693 -0.0489146 -0.0776075 -0.0221604 0.102927 0.135476 0.0945166 -0.00989418 0.0205388 -0.0151373 -0.0408908 -0.0749773 0.0441545 -0.0936003 -0.0698039 0.0764312 -0.0908153 -0.0253393 -0.0733037
internal_weight=586 279 307 214 179 65 92 72 276 131 145 87 54 46 130 66 38 64 35 33 115 75 33 60 32 37
internal_count=586 279 307 214 179 65 92 72 276 131 145 87 54 46 130 66 38 64 35 33 115 75 33 60 32 37
is_linear=0
shrinkage=0.0694391


Tree=10
num_leaves=27
num_cat=0
split_feature=0 9 7 0 8 6 9 2 12 2 6 1 3 12 7 2 12 0 0 2 0 7 7 6 2 6
split_gain=418.426 121.712 96.792 93.7915 71.2758 39.952 38.0701 37.2205 36.7551 36.1867 32.9326 30.1452 27.4645 35.7332 24.9324 21.9627 48.6768 19.0404 35.4618 19.7707 17.7907 19.9287 15.4022 13.1241 10.639 10.2423
threshold=81.450000000000017 3.7500000000000004 2232.5000000000005 99.950000000000017 0.082500000000000018 20.150000000000002 -4.450000000000002 27.400000000000002 -0.58214285714285796 29.050000000000001 11.350000000000003 32.45000000000001 0.81428061195174062 -0.34999999999999903 3582.0000000000005 18.250000000000004 -1.5892857142857129 61.800000000000004 76.350000000000009 19.950000000000006 87.950000000000017 7792.5000000000009 1293.0000000000002 12.950000000000001 18.950000000000006 15.250000000000002
decision_type=2 2 2 2 2 2 2 2 2 2 2 2 2 2 2 2 2 2 2 2 2 2 2 2 2 2
left_child=1 2 22 5 11 6 -2 8 -6 -9 -3 -4 13 15 -12 16 -8 -10 19 -19 -15 -22 -1 -17 -16 -20
right_child=3 10 4 -5 7 -7 12 9 17 -11 14 -13 -14 20 24 23 -18 18 25 -21 21 -23 -24 -25 -26 -27
leaf_value=-0.025935095675567316 -0.1368577551757274 0.20576272977833521 0.033535678246752541 -0.1752095028435019 -0.048301993308829803 0.053660999601004414 0.06874292350272318 -0.11281905876616299 -0.0025309817781245959 0.020752807117149174 0.02606066497560592 0.15138956323090197 -0.10515766041061549 -0.03181118880036192 0.17193357111206425 -0.093137143589609964 -0.089086280192563316 0.16880766316230364 -0.024042002635552482 0.065032475893510966 0.085320140154946503 -0.016213052448171193 -0.11822035330777224 -0.02970461712786299 0.07082544778352895 0.049808367662089598
leaf_weight=19 24 20 17 31 17 14.999999999999998 17 14.999999999999998 20 21 19 34 31 29 15.000000000000002 60 15.999999999999998 17 14.999999999999998 26 18 15.999999999999998 17 25 14.999999999999998 17
leaf_count=19 24 20 17 31 17 15 17 15 20 21 19 34 31 29 15 60 16 17 15 26 18 16 17 25 15 17
internal_value=-0.00447708 0.0518447 0.0274114 -0.0651189 0.0464366 -0.0500096 -0.0570671 0.0212486 0.0408315 -0.0384344 0.131385 0.11534 -0.0466204 -0.0353646 0.0929302 -0.0575478 -0.0086224 0.0575695 0.0731827 0.112738 0.00676529 0.0395976 -0.0741266 -0.0757929 0.13027 0.0159205
internal_weight=586 304 235 282 199 251 236 148 112 36 69 51 212 181 49 118 33 95 75 43 63 34 36 85 30 32
internal_count=586 304 235 282 199 251 236 148 112 36 69 51 212 181 49 118 33 95 75 43 63 34 36 85 30 32
is_linear=0
shrinkage=0.0694391


Tree=11
num_leaves=27
num_cat=0
split_feature=0 9 7 0 2 12 12 0 6 9 6 11 3 12 12 2 1 6 0 0 7 6 0 2 1 1
split_gain=366.416 107.561 85.1163 82.1641 59.4797 47.8996 39.2631 41.2712 35.1076 33.5227 29.0878 27.9145 24.0992 31.2454 20.07 41.043 16.8428 16.2784 21.8156 15.6287 17.5639 14.9784 11.9626 10.9215 10.311 10.1319
threshold=81.450000000000017 3.7500000000000004 2232.5000000000005 99.950000000000017 19.850000000000001 2.4642857142857149 -0.11071428571428518 60.45000000000001 20.150000000000002 -4.450000000000002 10.950000000000001 2.2928571428571418 0.81428061195174062 -0.34999999999999903 -1.8392857142857133 18.250000000000004 53.850000000000001 11.950000000000001 69.050000000000011 87.950000000000017 7792.5000000000009 12.65 73.450000000000017 14.6 80.050000000000026 61.750000000000007
decision_type=2 2 2 2 2 2 2 2 2 2 2 2 2 2 2 2 2 2 2 2 2 2 2 2 2 2
left_child=1 2 21 8 6 17 -4 23 9 -2 -3 -12 13 14 15 -11 -9 18 -6 -15 -21 -1 -7 -8 -5 -14
right_child=3 10 4 24 5 22 7 16 -10 12 11 -13 25 19 -16 -17 -18 -19 -20 20 -22 -23 -24 -25 -26 -27
leaf_value=-0.11069361983548574 -0.12820892284861149 0.19828024948044998 0.0058442947171112036 -0.20678093777840015 0.055153542000270395 0.10633463202422765 -0.0017547611688704125 0.20622408990731556 0.050443426543379785 0.069098183187703582 0.026100118210479414 0.13161147418605199 -0.046247634988332884 -0.02976920145819691 -0.080360114357550888 -0.057575305934149182 0.097245153269889695 -0.062694880688421856 -0.04529119246730854 0.080085159297439396 -0.01523253513501213 -0.020401251530947549 0.021946950876501687 0.077832000999400103 -0.096193630463460356 -0.13496709426105918
leaf_weight=18 24 18 25 16.000000000000004 18 18 15.000000000000002 17 14.999999999999998 14.999999999999998 22 29 15.000000000000002 29 62 41 24 31 19 18 15.999999999999998 18 15.999999999999998 15.999999999999998 14.999999999999998 15.999999999999998
leaf_count=18 24 18 25 16 18 18 15 17 15 15 22 29 15 29 62 41 24 31 19 18 16 18 16 16 15 16
internal_value=-0.0041207 0.0485844 0.0256172 -0.0608689 0.0434587 0.00606257 0.0816996 0.107012 -0.0467282 -0.0533447 0.123356 0.0892783 -0.0435452 -0.033004 -0.0537476 -0.0222164 0.151235 -0.0275195 0.00395247 0.00638945 0.0371608 -0.0695978 0.0706424 0.0419337 -0.163908 -0.0983744
internal_weight=586 304 235 282 199 102 97 72 251 236 69 51 212 181 118 56 41 68 37 63 34 36 34 31 31 31
internal_count=586 304 235 282 199 102 97 72 251 236 69 51 212 181 118 56 41 68 37 63 34 36 34 31 31 31
is_linear=0
shrinkage=0.0694391


Tree=12
num_leaves=27
num_cat=0
split_feature=0 0 11 8 1 7 2 6 9 0 7 6 7 4 7 10 12 6 4 8 0 1 0 6 11 11
split_gain=389.793 84.0189 60.9796 45.1609 63.4529 43.039 29.8838 58.5791 29.1284 28.5632 36.521 40.9675 24.1505 22.7259 24.2837 22.0471 35.7 21.6075 27.5405 16.5553 14.7966 16.2904 9.67342 4.46393 4.1923 0.693891
threshold=81.550000000000011 97.600000000000009 -0.4785714285714297 0.13949999999999999 43.050000000000004 4549.5000000000009 17.700000000000003 14.050000000000002 0.65000000000000224 73.250000000000014 3428.5000000000005 11.750000000000002 3843.0000000000005 -0.28519997588938983 7419.0000000000009 0.75000000000000011 2.6607142857142869 13.750000000000002 0.29958852271690523 0.26700000000000007 85.450000000000017 67.950000000000017 89.850000000000009 10.65 -0.66428571428571292 -2.1214285714285701
decision_type=2 2 2 2 2 2 2 2 2 2 2 2 2 2 2 2 2 2 2 2 2 2 2 2 2 2
left_child=2 6 5 4 8 -1 7 24 -4 10 11 -6 -11 14 23 -10 -17 -5 -19 -3 -15 22 -22 -8 -2 -21
right_child=1 19 3 17 9 -7 13 -9 15 12 -12 -13 -14 20 -16 16 -18 18 -20 25 21 -23 -24 -25 -26 -27
leaf_value=-0.090067602402558164 0.095471209719541136 -0.18990108743230827 -0.0208171343263393 -0.02902966970781428 0.16691661869590471 0.046779031707025451 -0.067297378533534 -0.067702885937590218 0.0073224332754763732 0.10159845294425857 0.19910577823835163 0.036178765870488183 -0.009065288607084299 0.018643617954918531 -0.027632752056132102 0.13433943000711035 0.0095756579877109057 -0.0087331131753214906 0.098657520065955004 -0.11037726264682692 -0.091299663090849831 0.010660028631868925 -0.021237564338336758 -0.13303847956228351 0.035591543980896694 -0.066640227987793663
leaf_weight=21 15.000000000000002 15.999999999999998 28 29 19 19 17 25 25 22 30 29 14.999999999999998 24 29 28 18 22 21 30.999999999999996 26 18 17 26 14.999999999999998 19.000000000000004
leaf_count=21 15 16 28 29 19 19 17 25 25 22 30 29 15 24 29 28 18 22 21 31 26 18 17 26 15 19
internal_value=0.00160921 -0.0585312 0.0529469 0.0641239 0.0799981 -0.0260851 -0.0364517 0.00738347 0.037913 0.11473 0.138699 0.0933502 0.0588906 -0.0516893 -0.0799361 0.0609985 0.0883813 0.0158959 0.0461283 -0.12573 -0.0262427 -0.0439397 -0.0661581 -0.111923 0.0703313 -0.0975267
internal_weight=604 278 326 286 214 40 212 55 99 115 78 48 37 157 72 71 46 72 43 66 85 61 43 43 30 50
internal_count=604 278 326 286 214 40 212 55 99 115 78 48 37 157 72 71 46 72 43 66 85 61 43 43 30 50
is_linear=0
shrinkage=0.0694391


Tree=13
num_leaves=27
num_cat=0
split_feature=0 0 8 1 12 3 8 2 4 4 0 9 7 12 10 0 6 6 9 8 6 2 6 8 8 12
split_gain=342 73.9799 43.805 43.6723 52.6706 42.1272 66.2635 47.3095 41.9318 48.5148 29.9322 29.3324 29.0582 27.8294 26.5918 26.5143 30.3993 45.1342 25.0764 24.372 18.6807 18.6678 17.3519 14.7964 13.6097 11.4195
threshold=81.550000000000011 97.600000000000009 0.16350000000000003 43.050000000000004 -0.11071428571428518 -0.082689790342551792 0.20049999999999998 17.950000000000003 0.90070004940655357 0.97832380634958016 85.15000000000002 -1.1500000000000019 6060.5000000000009 2.9142857142857155 -0.54999999999999705 72.90000000000002 11.750000000000002 14.250000000000002 1.7500000000000002 0.22050000000000003 12.250000000000002 24.949999999999999 13.65 0.26700000000000007 0.20149999999999998 -0.24999999999999914
decision_type=2 2 2 2 2 2 2 2 2 2 2 2 2 2 2 2 2 2 2 2 2 2 2 2 2 2
left_child=2 5 3 8 11 7 10 -2 13 -10 -7 -5 -4 18 -6 16 -16 -18 -1 -8 24 -14 -17 -3 -9 -21
right_child=1 23 12 4 14 6 19 20 9 -11 -12 -13 21 -15 15 22 17 -19 -20 25 -22 -23 -24 -25 -26 -27
leaf_value=0.028748478361722771 0.066443224172128043 -0.17841643529441101 -0.056433028695269019 -0.048926612946360727 0.17208826222363921 -0.063872707821688177 0.04015426815886055 -0.01478085463890572 -0.057856151592112902 0.071644554853518033 -0.208154345544702 0.07395785262148788 0.084078378162742787 -0.0065268211746073029 0.16786599795072757 -0.015626719690143946 -0.025591983594506002 0.1297359295963027 0.1390211607635628 -0.081986110775538593 0.01386326069483854 -0.013971927154752725 0.081263709351849053 -0.091311074106108364 -0.083427572474785591 -0.01337539564142781
leaf_weight=18 30 15.999999999999998 26 18 25 15.999999999999998 18 26 38 19 15.999999999999998 14.999999999999998 17 17 26 17 14.999999999999998 18 25 24 28 17 14.999999999999998 50 31 23
leaf_count=18 30 16 26 18 25 16 18 26 38 19 16 15 17 17 26 17 15 18 25 24 28 17 15 50 31 23
internal_value=0.00150507 -0.0548278 0.0495926 0.0615856 0.0863311 -0.0341109 -0.0672313 -0.00538065 0.0289833 -0.0135519 -0.145396 0.00814328 -0.0038965 0.0683708 0.107966 0.0864268 0.113422 0.0621495 0.0967752 -0.0249873 -0.0318455 0.0373383 0.0322634 -0.117883 -0.0539559 -0.0506655
internal_weight=604 278 326 266 149 212 97 115 117 57 32 33 60 60 116 91 59 33 43 65 85 34 32 66 57 47
internal_count=604 278 326 266 149 212 97 115 117 57 32 33 60 60 116 91 59 33 43 65 85 34 32 66 57 47
is_linear=0
shrinkage=0.0694391


Tree=14
num_leaves=27
num_cat=0
split_feature=0 0 11 3 1 12 3 8 2 7 6 6 7 0 9 11 8 12 6 6 13 4 8 8 12 4
split_gain=300.581 64.6903 50.2384 39.6015 45.7064 46.784 37.1388 58.5898 41.4137 35.6754 35.2344 69.0439 35.8823 26.4213 25.4649 24.5294 21.4278 17.2907 17.1629 16.3551 15.738 25.3088 13.3496 11.905 10.0206 9.41508
threshold=81.550000000000011 97.600000000000009 -0.4785714285714297 0.9550229469509578 43.050000000000004 -0.26785714285714124 -0.082689790342551792 0.20049999999999998 17.950000000000003 4549.5000000000009 15.050000000000002 11.250000000000002 4128.0000000000009 85.15000000000002 0.65000000000000224 0.51428571428571457 0.22050000000000003 2.9821428571428572 13.65 12.250000000000002 2.5859048700204208 0.92843842216862604 0.26700000000000007 0.20149999999999998 -0.24999999999999914 0.92191100909954782
decision_type=2 2 2 2 2 2 2 2 2 2 2 2 2 2 2 2 2 2 2 2 2 2 2 2 2 2
left_child=2 6 9 4 14 -6 8 13 -2 -1 11 12 -7 -8 25 -5 -9 20 -13 23 -16 -22 -3 -10 -18 -4
right_child=1 22 3 15 5 10 7 16 19 -11 -12 18 -14 -15 17 -17 24 -19 -20 -21 21 -23 -24 -25 -26 -27
leaf_value=-0.083366452398841759 0.062167404632315244 -0.16762634287064218 0.018245195699659746 0.058854730465947032 -0.0019430511893808299 0.20035166849283673 -0.060009877802103206 0.037690523973179117 -0.013840260908188511 0.041280552574267444 0.18186574035453174 -0.014390702122881913 0.056814271739266543 -0.1955657973323979 0.009753473939476183 -0.038407583562039056 -0.076804935611551384 -0.0070971626323736913 0.07038692336911373 0.012975761317042651 0.12735498240669346 0.017145042455750045 -0.08525757990081094 -0.078046044365355907 -0.012533418471429357 -0.054722298313844925
leaf_weight=21 30 15.999999999999998 15.000000000000002 18 20 24 15.999999999999998 18 26 19 27 25 15.999999999999998 15.999999999999998 15.999999999999998 30 24 17 18 28 29 15.999999999999998 50 31 23 14.999999999999998
leaf_count=21 30 16 15 18 20 24 16 18 26 19 27 25 16 16 16 30 24 17 18 28 29 16 50 31 23 15
internal_value=0.00143004 -0.0513817 0.0465117 0.0566604 0.0681596 0.0956803 -0.0320073 -0.063105 -0.00503214 -0.0251622 0.113097 0.0862961 0.149329 -0.136603 0.033689 -0.00088065 -0.0233871 0.054148 0.0229213 -0.0297931 0.0708433 0.0909888 -0.110346 -0.0504816 -0.0474654 -0.0195744
internal_weight=604 278 326 286 238 130 212 97 115 40 110 83 40 32 108 48 65 78 43 85 61 45 66 57 47 30
internal_count=604 278 326 286 238 130 212 97 115 40 110 83 40 32 108 48 65 78 43 85 61 45 66 57 47 30
is_linear=0
shrinkage=0.0694391


Tree=15
num_leaves=27
num_cat=0
split_feature=0 9 13 0 1 9 2 8 2 3 7 8 1 13 13 13 2 11 13 3 6 3 10 1 2 10
split_gain=204.329 66.398 48.1332 44.9265 33.9321 32.1277 30.7028 25.5108 22.2631 51.1708 37.8823 35.1794 31.5952 27.393 35.5288 25.1705 24.0784 22.1804 22.0515 21.8063 15.3518 23.8361 13.6341 11.4449 8.3004 5.27467
threshold=84.90000000000002 3.6500000000000026 2.7283342123365721 97.750000000000014 29.700000000000006 -4.3500000000000005 15.399999999999997 0.13250000000000003 12.350000000000003 0.72695311118111527 2297.5000000000005 0.051500000000000004 48.550000000000004 2.3445062967808505 1.7066394538073963 2.4800153535024561 22.950000000000006 -0.70714285714285641 3.222945994820003 0.72695311118111527 14.65 -0.35041564478062465 3.9000000000000026 76.600000000000009 19.850000000000001 1.3499999999999981
decision_type=2 2 2 2 2 2 2 2 2 2 2 2 2 2 2 2 2 2 2 2 2 2 2 2 2 2
left_child=1 4 -3 6 -1 -6 -2 22 9 11 -10 -7 15 14 -14 -12 -17 20 -15 24 21 -8 -4 -5 -19 -18
right_child=3 2 7 23 5 8 17 -9 10 -11 12 -13 13 18 -16 16 25 19 -20 -21 -22 -23 -24 -25 -26 -27
leaf_value=-0.066979922324321386 0.057375406487832133 0.0078680689664227307 0.18820156632330481 -0.13633222688951868 -0.063534075657965497 0.040375754624363845 -0.042240001269468891 0.038178637630171521 -0.074883081510060179 -0.016599459454101611 0.0079970841549270449 0.19196139493656469 -0.019731082041959027 -0.074227465071252025 0.089689830220026898 0.16160782492379744 0.086310641097622182 0.037616293252772985 0.015586325527189969 -0.070464096021116182 0.0008530922412843218 -0.13256400618323133 0.091271766203112184 -0.064362391661222484 -0.012728515400442288 0.030182995331654482
leaf_weight=17 17 24 24 22 14.999999999999998 15.000000000000002 45 14.999999999999998 14.999999999999998 18 26 15.999999999999998 25 24 29 14.999999999999998 14.999999999999998 29 25 18 15.999999999999998 21 21 35 30 23
leaf_count=17 17 24 24 22 15 15 45 15 15 18 26 16 25 24 29 15 15 29 25 18 16 21 21 35 30 23
internal_value=0.00641054 0.0389623 0.0922402 -0.0440465 0.02222 0.0285807 -0.0260099 0.124407 0.0347503 0.0757187 0.0237809 0.126694 0.032771 0.00704899 0.0403328 0.0651247 0.0916071 -0.0356374 -0.0297996 -0.0084086 -0.060251 -0.07458 0.1498 -0.0964755 0.0125144 0.0561066
internal_weight=595 362 84 233 278 261 176 60 246 49 197 31 182 103 54 79 53 159 49 77 82 66 45 57 59 38
internal_count=595 362 84 233 278 261 176 60 246 49 197 31 182 103 54 79 53 159 49 77 82 66 45 57 59 38
is_linear=0
shrinkage=0.0694391


Tree=16
num_leaves=27
num_cat=0
split_feature=0 9 13 0 1 9 2 2 9 11 2 11 4 5 12 13 11 7 12 4 4 6 9 11 11 6
split_gain=179.42 58.2742 42.29 39.3881 29.9168 28.3672 27.027 24.8524 34.5105 19.8659 52.1549 47.6329 32.7443 21.6821 21.442 29.0896 19.4007 18.9367 29.8119 17.8626 15.0708 14.1687 12.3981 11.4589 12.2273 10.9424
threshold=84.90000000000002 3.6500000000000026 2.7283342123365721 97.750000000000014 29.700000000000006 -4.3500000000000005 15.399999999999997 15.950000000000005 5.900000000000003 -0.10714285714285808 20.699999999999999 -1.0214285714285711 0.38838672039864403 1.0000000180025095e-35 2.9821428571428572 2.3228163665353709 -0.70714285714285641 6863.5000000000009 0.37142857142857144 0.86004965528756494 -0.71502926860092908 12.550000000000002 -1.7499999999999998 1.7214285714285744 3.0285714285714289 11.850000000000003
decision_type=2 2 2 2 2 2 2 2 2 2 2 2 2 2 2 2 2 2 2 2 2 2 2 2 2 2
left_child=1 4 -3 6 -1 -6 -2 -4 -9 10 11 -7 13 -11 15 19 20 18 -18 -14 22 -22 -8 -17 -25 -5
right_child=3 2 7 25 5 9 16 8 -10 12 -12 -13 14 -15 -16 23 17 -19 -20 -21 21 -23 -24 24 -26 -27
leaf_value=-0.062898190187332254 0.053878968921212272 0.0073708410673589018 0.1811106939169472 -0.04999113782431145 -0.059724504928074337 0.017105794765914124 -0.046195724277405259 0.13316289801295944 0.0073483514885099152 0.0052546482584824835 -0.028716920823957704 0.16155083784897406 0.040261262115391314 -0.085250112528760968 -0.025346952339947354 0.10493400061229159 0.0061883335624318501 0.029668819680170308 -0.10912397924290197 -0.051897519465033987 -0.054509544572709845 0.022811094427851224 -0.13436032435225612 0.0030837888485581314 0.085174379995176214 -0.11821187678791664
leaf_weight=17 17 24 19 26 14.999999999999998 19 21 22 19 41 19 26 22 15.999999999999998 19 36 28 34 14.999999999999998 14.999999999999998 30 15.999999999999998 14.999999999999998 18 14.999999999999998 31
leaf_count=17 17 24 19 26 15 19 21 22 19 41 19 26 22 16 19 36 28 34 15 15 30 16 15 18 15 31
internal_value=0.00603993 0.036543 0.0864557 -0.0412418 0.0208578 0.0268303 -0.0243535 0.116607 0.0784478 0.0326278 0.065318 0.104472 0.0204402 -0.0225401 0.040094 0.052122 -0.0333867 -0.00791926 -0.0376374 0.00202415 -0.0564067 -0.0278155 -0.0889635 0.0780263 0.043606 -0.0903329
internal_weight=595 362 84 233 278 261 176 60 41 246 64 45 182 57 125 106 159 77 43 37 82 46 36 69 33 57
internal_count=595 362 84 233 278 261 176 60 41 246 64 45 182 57 125 106 159 77 43 37 82 46 36 69 33 57
is_linear=0
shrinkage=0.0694391


Tree=17
num_leaves=27
num_cat=0
split_feature=0 9 13 0 3 7 8 4 4 11 8 8 7 7 8 3 0 4 12 13 3 10 3 2 7 3
split_gain=157.414 51.4069 37.2022 34.3846 26.9738 55.9902 46.4907 23.5781 26.5675 22.5981 22.3626 22.0349 20.5874 51.0409 28.8038 22.0576 17.6186 15.9867 15.8441 36.816 14.7768 12.9783 12.809 11.2742 10.7898 10.2494
threshold=84.90000000000002 3.6500000000000026 2.7283342123365721 97.750000000000014 0.3261394409934788 6407.5000000000009 0.19150000000000003 0.98174098242282859 -0.54219087765047058 -0.4785714285714297 0.21050000000000002 0.13250000000000003 4549.5000000000009 4317.5000000000009 0.098500000000000018 -0.42180583328916638 80.050000000000026 0.86869874770991873 1.9107142857142863 3.1764007244158665 0.93845596220871974 3.0499999999999976 0.21022171450811272 26.150000000000006 5488.5000000000009 -0.67803021058859214
decision_type=2 2 2 2 2 2 2 2 2 2 2 2 2 2 2 2 2 2 2 2 2 2 2 2 2 2
left_child=1 7 -3 4 6 -6 -2 8 -1 10 -8 17 13 14 15 -10 21 -4 19 -17 -18 24 -16 -7 -14 -5
right_child=3 2 11 25 5 23 9 -9 12 -11 -12 -13 16 -15 22 18 20 -19 -20 -21 -22 -23 -24 -25 -26 -27
leaf_value=0.083452555162048525 0.068442696455434729 0.0069050349458958825 0.16204441194791561 -0.036442357506659452 -0.14791863100360655 0.037170653642996508 -0.11195650889792524 0.0820737159192578 0.088708476638454728 0.020451287831835831 -0.023685801411000452 0.030347401169695094 0.025043604877179819 -0.12252606638452973 -0.0014677676570335825 -0.025758819176544746 -0.046570760254831652 0.060336156022502599 -0.049510835326917448 0.098164644600682027 0.038434708600470352 0.0023219914563115851 -0.071644747077063281 -0.041953086369785224 0.10221226261538262 -0.10501645446850133
leaf_weight=21 29 24 30 19 20 15.000000000000002 18 24 20 30 49 14.999999999999998 15.999999999999998 14.999999999999998 25 25 19 14.999999999999998 14.999999999999998 18 15.999999999999998 17 23 14.999999999999998 24 38
leaf_count=21 29 24 30 19 20 15 18 24 20 30 49 15 16 15 25 25 19 15 15 18 16 17 23 15 24 38
internal_value=0.00562953 0.0342009 0.0810794 -0.0386577 -0.0228762 -0.0647718 -0.00536168 0.0194703 0.0128506 -0.0285335 -0.0504164 0.109359 0.00571078 -0.0109309 0.00437196 0.0300993 0.0308498 0.132859 0.00719899 0.0285351 -0.00773802 0.0539068 -0.0368839 -0.00256629 0.0744736 -0.0845267
internal_weight=595 362 84 233 176 50 126 278 254 97 67 60 233 141 126 78 92 45 58 43 35 57 48 30 40 57
internal_count=595 362 84 233 176 50 126 278 254 97 67 60 233 141 126 78 92 45 58 43 35 57 48 30 40 57
is_linear=0
shrinkage=0.0694391


Tree=18
num_leaves=27
num_cat=0
split_feature=4 0 1 0 7 8 1 1 3 12 0 1 4 13 8 10 1 9 9 12 1 3 3 4 12 8
split_gain=166.395 48.6533 62.6216 41.5202 40.0169 38.0504 48.3976 34.3025 43.3382 33.0415 31.184 29.1647 31.337 27.6102 21.5725 20.6691 18.9682 20.1335 18.89 18.6141 18.4762 18.1122 14.3532 53.4443 13.9931 12.3438
threshold=0.29137697329261131 80.050000000000026 60.850000000000001 93.700000000000003 2401.0000000000005 0.061500000000000006 32.850000000000001 70.350000000000009 -0.082689790342551792 2.1428571428571437 66.250000000000014 68.750000000000014 -0.57077231802681661 2.5095995803111384 0.21150000000000002 2.9000000000000026 49.000000000000007 0.54999999999999727 0.24999999999999997 -0.72857142857142965 40.45000000000001 -0.005375728450543499 -0.67803021058859214 -0.85225707553516283 0.15714285714285683 0.12950000000000003
decision_type=2 2 2 2 2 2 2 2 2 2 2 2 2 2 2 2 2 2 2 2 2 2 2 2 2 2
left_child=3 2 4 7 9 -6 -7 11 -9 -2 20 12 -1 19 -10 21 -15 -18 -3 -14 -8 -12 -5 -24 -21 -17
right_child=1 18 -4 22 5 6 10 8 14 -11 15 -13 13 16 -16 25 17 -19 -20 24 -22 -23 23 -25 -26 -27
leaf_value=0.048275049068075629 0.048222498279663475 -0.082046078169439957 0.18233338301274996 -0.026520589392398802 0.15351684856744474 -0.041564894522878426 0.061477732548131783 0.09290684540991756 -0.076752334296286209 -0.080589937696266309 0.01121674091053527 -0.10455416366192663 -0.0553663949246559 0.0025852471765047519 0.033312338962157961 0.03067431944900658 -0.046620028344877655 -0.14763936616282392 0.017604113640078706 0.052532155884009467 0.15475601169610886 0.10394209458275566 -0.040182360366203561 -0.17429982566585805 -0.011704486267555997 -0.049062091883165418
leaf_weight=28 15.999999999999998 14.999999999999998 15.999999999999998 38 17 23 28 28 15.000000000000002 18 18 18 22 14.999999999999998 14.999999999999998 18 29 14.999999999999998 18 26 21 23 50 19 37 14.999999999999998
leaf_count=28 16 15 16 38 17 23 28 28 15 18 18 18 22 15 15 18 29 15 18 26 21 23 50 19 37 15
internal_value=0.00293347 0.0465781 0.0586674 -0.0274188 0.0465745 0.0607205 0.0476349 -0.0115774 0.0342396 -0.0207803 0.0647851 -0.0258133 -0.0162634 -0.0293912 -0.0233108 0.0345448 -0.0648882 -0.0868466 -0.0301549 -0.00365982 0.106752 0.0660721 -0.0630882 -0.0816768 0.0157497 -0.00642869
internal_weight=601 246 213 355 197 163 146 248 58 34 123 190 172 144 30 74 59 44 33 85 49 41 107 69 63 33
internal_count=601 246 213 355 197 163 146 248 58 34 123 190 172 144 30 74 59 44 33 85 49 41 107 69 63 33
is_linear=0
shrinkage=0.0694391


Tree=19
num_leaves=27
num_cat=0
split_feature=4 0 1 2 7 4 4 8 6 9 7 9 10 0 10 10 10 3 9 6 9 12 6 3 1 10
split_gain=146.39 42.8904 55.3639 36.3096 35.3923 33.5941 30.5745 47.4238 42.001 29.802 27.6044 25.4602 27.9179 34.4811 24.7951 20.4075 19.8754 25.3574 16.6833 16.6299 16.4184 11.3752 10.3408 10.3097 10.5922 5.77975
threshold=0.29137697329261131 80.050000000000026 60.850000000000001 19.300000000000011 1587.5000000000002 -0.26037106507032776 0.90070004940655357 0.10250000000000001 12.15 1.9500000000000031 3071.5000000000005 1.3499999999999981 -0.15000000000000205 86.350000000000009 2.2999999999999994 2.9000000000000026 1.9500000000000031 0.54219432480460406 0.24999999999999997 14.65 -1.9500000000000026 -0.19999999999999926 13.65 0.9916835347852474 67.550000000000011 -0.74999999999999989
decision_type=2 2 2 2 2 2 2 2 2 2 2 2 2 2 2 2 2 2 2 2 2 2 2 2 2 2
left_child=3 2 4 10 -2 16 7 9 14 -6 -1 12 13 -12 -8 -9 17 22 -3 20 -15 -13 -5 24 25 -7
right_child=1 18 -4 5 6 23 8 15 -10 -11 11 21 -14 19 -16 -17 -18 -19 -20 -21 -22 -23 -24 -25 -26 -27
leaf_value=-0.068629379674617783 -0.036331820031989072 -0.077126504353645403 0.1713064047371757 -0.073912109051664648 0.058489021405101628 -0.0082707734629259393 0.11359988550537349 0.066891828821896815 -0.04874803687015767 0.17414151091209187 0.079406895091439958 0.10052118618541397 -0.060834103445375612 0.0047559002475205279 -0.0035036229222515543 -0.0092026038506134184 -0.0049643250859839486 -0.15305832945606437 0.016523979700387093 0.03398064836467321 -0.093703188979031946 0.018469351089444842 -0.011245234533832716 0.034404833038052855 0.018764153761668331 -0.059181209725591655
leaf_weight=22 22 14.999999999999998 15.999999999999998 62 23 18 18 37 27 26 25 15.999999999999998 29 15.000000000000002 14.999999999999998 29 20 18 18 17 14.999999999999998 17 17 17 19 28
leaf_count=22 22 15 16 62 23 18 18 37 27 26 25 16 29 15 15 29 20 18 18 17 15 17 17 17 19 28
internal_value=0.00274518 0.0436822 0.0550331 -0.025724 0.0436646 -0.0452054 0.0540726 0.0747153 0.0131712 0.125061 -0.00056803 0.0116052 -0.00601562 0.0172995 0.0637042 0.0342967 -0.0687323 -0.0814482 -0.0283609 -0.0179632 -0.0477311 0.0623236 -0.0611475 -0.0106483 -0.0232276 -0.0406417
internal_weight=601 246 213 355 197 199 175 115 60 49 156 134 101 72 33 66 117 97 33 47 30 33 79 82 65 46
internal_count=601 246 213 355 197 199 175 115 60 49 156 134 101 72 33 66 117 97 33 47 30 33 79 82 65 46
is_linear=0
shrinkage=0.0694391


Tree=20
num_leaves=27
num_cat=0
split_feature=4 8 4 12 2 13 4 8 7 9 9 9 13 1 7 10 3 6 6 12 13 3 1 10 13 3
split_gain=128.319 34.0985 48.3748 43.5839 31.7841 29.7891 29.4238 28.9517 24.266 22.4734 25.4685 22.1757 21.8767 19.7051 19.17 17.3838 22.7495 15.0386 15.922 10.0437 9.89618 9.06554 9.29736 8.94676 10.3152 5.42728
threshold=0.29137697329261131 0.10250000000000001 0.8852232634113919 2.5967032967032977 19.300000000000011 2.9186591822130601 -0.26037106507032776 0.046500000000000007 3071.5000000000005 1.3499999999999981 -2.5499999999999967 1.5499999999999974 2.2602669881897572 61.650000000000013 6626.0000000000009 1.9500000000000031 0.48314048284850658 17.650000000000002 15.750000000000002 -0.19999999999999926 1.7586520812420887 0.9916835347852474 67.550000000000011 2.5499999999999976 2.6934221629726554 -0.75015329512557205
decision_type=2 2 2 2 2 2 2 2 2 2 2 2 2 2 2 2 2 2 2 2 2 2 2 2 2 2
left_child=4 2 7 5 8 -4 15 -2 -1 10 -10 -9 20 17 -14 16 25 18 23 -11 -12 22 -8 24 -3 -6
right_child=1 13 3 -5 6 -7 21 11 9 19 12 -13 14 -15 -16 -17 -18 -19 -20 -21 -22 -23 -24 -25 -26 -27
leaf_value=-0.064327455941357067 0.021446162548622499 0.014625562492176418 0.098543047265017947 -0.071745413987365197 -0.023813713441839982 -0.01767838066076587 -0.038049168671597883 0.073060877773945765 0.045792135901482782 0.094441964460009103 -0.020214999510353764 0.17748674438573883 -0.11117406477658939 -0.052357310886926967 -0.0082829436498175289 -0.0046561417731917857 -0.13811766039875029 0.083052985731310619 -0.041349198126983532 0.017343833828747823 0.048504055848039081 0.032308212478656714 0.017605746206417607 -0.0012872262458637511 0.082771595780247259 -0.067520235746866594
leaf_weight=22 15.999999999999998 24 26 15.999999999999998 23 15.999999999999998 46 24 30 15.999999999999998 22 25 18 15.999999999999998 15.999999999999998 20 21 15.999999999999998 18 17 14.999999999999998 17 19 30 19 53
leaf_count=22 16 24 26 16 23 16 46 24 30 16 22 25 18 16 16 20 21 16 18 17 15 17 19 30 19 53
internal_value=0.00260436 0.0409313 0.0664558 0.0190978 -0.02405 0.0556894 -0.0422769 0.106554 -0.000514063 0.010899 -0.00565587 0.132072 -0.0281718 0.0146327 -0.0664512 -0.064295 -0.0761872 0.0255678 0.0136082 0.0585498 0.00888731 -0.00993678 -0.0217337 0.0280338 0.0474886 -0.0554139
internal_weight=601 246 123 58 355 42 199 65 156 134 101 49 71 123 34 117 97 107 91 33 37 82 65 73 43 76
internal_count=601 246 123 58 355 42 199 65 156 134 101 49 71 123 34 117 97 107 91 33 37 82 65 73 43 76
is_linear=0
shrinkage=0.0694391


Tree=21
num_leaves=27
num_cat=0
split_feature=8 0 12 11 7 3 5 8 0 9 13 10 12 7 3 8 1 2 8 8 3 3 1 8 6 7
split_gain=104.529 48.7111 27.6371 45.0765 37.3324 42.2599 56.7797 39.0673 58.0057 20.9609 19.655 19.0234 18.2262 17.8885 29.235 29.7029 27.4089 22.6752 22.0824 17.2755 15.5872 14.9271 14.5163 12.653 10.0802 9.868
threshold=0.14050000000000004 95.40000000000002 -0.72857142857142965 -0.66428571428571292 2232.5000000000005 -0.24372957273992743 0.071500000000000008 0.067500000000000018 57.650000000000013 1.7500000000000002 3.3237600529401017 2.2999999999999994 -2.214285714285714 7061.5000000000009 -0.082689790342551792 0.19550000000000003 64.050000000000011 22.000000000000007 0.16849999999999998 0.20249999999999999 0.9550229469509578 0.9053161325100999 76.600000000000009 0.22650000000000003 13.850000000000003 3624.0000000000005
decision_type=2 2 2 2 2 2 2 2 2 2 2 2 2 2 2 2 2 2 2 2 2 2 2 2 2 2
left_child=2 13 -1 -4 5 -5 -7 -6 -9 11 25 -10 -3 14 15 17 18 -2 21 -18 -20 -16 -14 -15 -25 -11
right_child=1 12 3 4 7 6 -8 8 9 10 -12 -13 22 23 16 -17 19 -19 20 -21 -22 -23 -24 24 -26 -27
leaf_value=0.11464458978427711 0.093883340559145129 -0.037831778557488094 -0.082885680766494801 -0.10674699218535751 0.12155234714848343 0.10423905850334764 -0.062220045348680211 -0.058381875123916377 0.12048312975496492 -0.04480669629463619 0.075930541109218458 0.026945025559356975 -0.13990559850465523 0.068649143181892552 -0.10665070217062604 -0.03145435291487237 -0.12550562532285384 -0.0020361018990415159 0.051274076649498582 -0.028036670935275957 -0.025226263406123304 -0.010275238730680966 -0.048412549830856084 -0.038957270408599518 0.030458499044606218 0.023159400678914706
leaf_weight=15.999999999999998 22 44 14.999999999999998 14.999999999999998 28 18 17 25 30 14.999999999999998 21 18 23 17 15.000000000000002 43 23 23 22 15.999999999999998 25 14.999999999999998 18 15.999999999999998 20 23
leaf_count=16 22 44 15 15 28 18 17 25 30 15 21 18 23 17 15 43 23 23 22 16 25 15 18 16 20 23
internal_value=-0.00256209 -0.02717 0.0322832 0.0252919 0.033858 -0.0178747 0.0245695 0.0500494 0.0330049 0.0551598 0.0258072 0.0883258 -0.0719926 -0.0118228 -0.0211367 0.0089548 -0.0436869 0.0472097 -0.0185457 -0.089417 0.0113251 -0.0627452 -0.104581 0.0233968 -0.00089377 -0.00472513
internal_weight=583 342 241 225 210 50 35 160 132 107 59 48 85 257 204 88 116 45 77 39 47 30 41 53 36 38
internal_count=583 342 241 225 210 50 35 160 132 107 59 48 85 257 204 88 116 45 77 39 47 30 41 53 36 38
is_linear=0
shrinkage=0.0694391


Tree=22
num_leaves=27
num_cat=0
split_feature=8 0 12 7 9 1 12 11 6 11 4 2 4 1 2 9 10 8 8 12 8 13 13 6 13 9
split_gain=92.6073 51.5917 40.1231 30.8332 28.5449 24.9357 31.5617 23.3821 34.3043 20.9462 18.8348 18.3274 19.8026 19.213 16.6937 15.6325 15.5528 29.0267 14.7766 13.9424 11.9681 19.7226 11.537 8.67166 6.35275 6.20115
threshold=0.11050000000000001 95.40000000000002 2.882142857142858 3614.0000000000005 4.0999999999999988 43.050000000000004 -0.24999999999999914 2.450000000000002 9.9500000000000011 -0.18571428571428628 0.30778899014954286 15.000000000000005 -0.80417042486635371 70.350000000000009 20.250000000000007 0.65000000000000224 1.0999999999999981 0.062500000000000014 0.05649999999999996 -2.214285714285714 0.22550000000000003 2.6423733944008005 2.5512364514720063 14.850000000000003 2.3445062967808505 -1.4500000000000026
decision_type=2 2 2 2 2 2 2 2 2 2 2 2 2 2 2 2 2 2 2 2 2 2 2 2 2 2
left_child=2 3 4 -2 7 -5 11 8 -1 -8 20 22 -13 15 -3 25 17 -10 -4 -16 21 -11 -7 24 -12 -14
right_child=1 14 18 5 -6 6 9 -9 16 10 23 12 13 -15 19 -17 -18 -19 -20 -21 -22 -23 -24 -25 -26 -27
leaf_value=0.12741923256109805 -0.094810650717855799 -0.016278769782281204 -0.0704261994682506 -0.062087578521940703 0.12421219828082031 -0.018935783201219053 0.076310493834852222 -0.024051616902365788 -0.068824396047831304 0.0098490697683629239 0.04474411164690132 -0.086960672296305969 -0.024326487643911137 0.046723931559837763 -0.043245431057016899 0.02453049149319883 0.069480844868682723 0.045940646669095954 0.014822383199606758 -0.11523094631432558 0.028710867390107066 -0.077270257959661762 0.057734484620041757 0.074893250229704778 -0.012904574677935559 -0.077891867862543263
leaf_weight=22 15.999999999999998 24 14.999999999999998 28 24 15.999999999999998 29 20 14.999999999999998 26 17 24 22.999999999999996 15.999999999999998 27 14.999999999999998 25 25 21 34 22 21 18 21 15.999999999999998 23.000000000000004
leaf_count=22 16 24 15 28 24 16 29 20 15 26 17 24 23 16 27 15 25 25 21 34 22 21 18 21 16 23
internal_value=-0.00241741 -0.0199456 0.0409136 -0.00736157 0.0585325 -0.00224457 0.00405465 0.0414272 0.0567185 0.0255696 0.0123893 -0.0201928 -0.0348467 -0.0164909 -0.0674196 -0.0341996 0.0291469 0.00146066 -0.0228547 -0.0861787 -0.0115837 -0.030918 0.0227719 0.0422203 0.0178018 -0.0536145
internal_weight=583 416 167 331 131 315 287 107 87 152 123 135 101 77 85 61 65 40 36 61 69 47 34 54 33 46
internal_count=583 416 167 331 131 315 287 107 87 152 123 135 101 77 85 61 65 40 36 61 69 47 34 54 33 46
is_linear=0
shrinkage=0.0694391


Tree=23
num_leaves=27
num_cat=0
split_feature=8 0 9 10 12 7 8 0 11 12 8 3 7 2 10 7 11 10 0 3 0 7 13 11 3 8
split_gain=83.1393 36.5268 27.4448 26.8389 27.2562 35.6116 47.3889 39.5205 17.8845 17.4455 16.5938 19.4158 18.7017 14.0655 21.3173 26.9444 18.7825 16.6256 17.8905 15.8548 23.9509 12.8704 12.3725 11.4211 10.2584 9.94636
threshold=0.14150000000000001 97.600000000000009 -4.450000000000002 6.049999999999998 -0.72857142857142965 2232.5000000000005 0.066500000000000017 57.650000000000013 2.7500000000000009 -2.214285714285714 0.11050000000000001 0.29342972903661901 3559.0000000000005 22.650000000000002 -2.5499999999999967 6511.0000000000009 1.542857142857142 3.2500000000000004 89.950000000000017 0.84313847884979054 80.700000000000003 4118.0000000000009 1.7003483382373921 -2.871428571428571 0.12545942051955486 0.22050000000000003
decision_type=2 2 2 2 2 2 2 2 2 2 2 2 2 2 2 2 2 2 2 2 2 2 2 2 2 2
left_child=3 2 -2 4 -1 8 -7 -8 -6 23 11 12 -9 14 15 -4 22 18 19 -16 -21 24 -15 -3 -12 -24
right_child=1 9 13 -5 5 6 7 10 -10 -11 21 -13 -14 16 17 -17 -18 -19 -20 20 -22 -23 25 -25 -26 -27
leaf_value=0.099499014263879873 -0.097933034520857179 -0.068501428745882109 -0.10399990881901726 0.097933202859884466 -0.067735493661522136 0.12042316771618107 -0.060466028968876533 -0.032220882761299134 0.017725032409748605 -0.10584909891586725 0.012389061462194586 0.10855352153187457 0.065421821089828178 -0.048262903117956418 0.081320130135290436 0.020380168200227537 -0.085358704520844278 -0.038410842976169 -0.0063575009774269409 0.069282558663256777 -0.046196459424802175 0.041966511233617922 0.033743792839841712 0.012552459888878516 -0.061092579898727149 -0.021170864530767365
leaf_weight=17 14.999999999999998 15.000000000000002 15.000000000000002 22 31 21 26 14.999999999999998 17 32 18 20 19 28 35 14.999999999999998 19 19 42 15.000000000000002 14.999999999999998 23 29 14.999999999999998 14.999999999999998 30
leaf_count=17 15 15 15 22 31 21 26 15 17 32 18 20 19 28 35 15 19 19 42 15 15 23 29 15 15 30
internal_value=-0.00226301 -0.0244411 -0.0133637 0.0284886 0.0206445 0.0130425 0.0289995 0.013061 -0.0380586 -0.0716166 0.0313493 0.0579531 0.0230518 -0.00768704 0.00558507 -0.0448722 -0.0269144 0.0182056 0.0288738 0.0510612 0.0123885 0.00438352 -0.0122248 -0.0300234 -0.0228679 0.0060819
internal_weight=583 339 277 244 222 205 157 136 48 62 110 54 34 262 156 30 106 126 107 65 30 56 87 30 33 59
internal_count=583 339 277 244 222 205 157 136 48 62 110 54 34 262 156 30 106 126 107 65 30 56 87 30 33 59
is_linear=0
shrinkage=0.0694391


Tree=24
num_leaves=27
num_cat=0
split_feature=1 2 6 0 11 7 7 12 0 1 9 13 13 4 13 4 12 11 1 4 9 8 11 0 8 8
split_gain=79.6666 48.2489 37.0057 38.6177 30.1184 30.905 27.0426 58.9844 38.6366 32.8968 27.2521 21.8576 24.375 18.7867 18.418 18.3677 23.8819 24.7713 17.9644 14.8223 12.9852 12.6631 12.2697 21.8933 8.91035 6.73777
threshold=53.750000000000007 19.300000000000011 9.7500000000000018 71.250000000000014 3.0714285714285703 4014.0000000000005 3428.5000000000005 2.3321428571428577 69.050000000000011 40.70000000000001 1.2500000000000002 3.6240265757651096 2.2134324659890381 -0.54219087765047058 2.7369602600804286 -0.35846086284744716 -2.214285714285714 -0.85714285714285798 46.45000000000001 0.43540432083943431 0.65000000000000224 0.18550000000000003 -1.0000000180025095e-35 90.15000000000002 0.18750000000000003 0.21050000000000002
decision_type=2 2 2 2 2 2 2 2 2 2 2 2 2 2 2 2 2 2 2 2 2 2 2 2 2 2
left_child=4 2 -2 -4 6 -6 7 14 9 10 -8 12 22 -14 -1 16 -3 -18 -10 24 -19 -20 23 -5 -17 -26
right_child=1 15 3 11 5 -7 8 -9 18 -11 -12 -13 13 -15 -16 19 17 20 21 -21 -22 -23 -24 -25 25 -27
leaf_value=-0.024924551561428341 0.093516142764620988 -0.022008181795390765 -0.095217295414658995 0.096640034956900392 0.1328015725310189 0.013767294561201864 -0.017302655576002232 -0.12507745912642151 -0.056339486173135139 0.1302646366484255 0.074671005427239326 0.061588252091070064 0.008226843705625389 -0.075787271712046328 0.074609349640114286 0.03315477593755238 -0.13971014975201929 -0.083577400135099636 0.057370614113908314 -0.07657099314191497 0.0021513387643319008 -0.02398916086207023 -0.011392393807631454 -0.0089529705583786413 -0.048523480410124123 -0.0023943155079793645
leaf_weight=14.999999999999998 18 40 18 18 23 19 27 15.999999999999998 22 23 32 26 21 29 17 17 27 17 18 17 14.999999999999998 14.999999999999998 29 17 23 39
leaf_count=15 18 40 18 18 23 19 27 16 22 23 32 26 21 29 17 17 27 17 18 17 15 15 29 17 23 39
internal_value=-0.00117134 -0.0209536 0.00541146 -0.00585997 0.0310424 0.082566 0.0184484 -0.0255208 0.0340257 0.0635677 0.033539 0.00702322 -0.00642271 -0.0417264 0.0294519 -0.0445289 -0.0652805 -0.0926339 -0.0108255 -0.0220712 -0.0460157 0.0212598 0.0216636 0.0480379 -0.00845392 -0.0206638
internal_weight=598 371 176 158 227 42 185 48 137 82 59 140 114 50 32 195 99 59 55 96 32 33 64 35 79 62
internal_count=598 371 176 158 227 42 185 48 137 82 59 140 114 50 32 195 99 59 55 96 32 33 64 35 79 62
is_linear=0
shrinkage=0.0694391


Tree=25
num_leaves=27
num_cat=0
split_feature=1 2 3 6 0 1 0 9 6 12 0 9 0 0 4 1 4 8 6 11 3 4 8 11 0 6
split_gain=69.81 42.4037 39.8119 32.5886 34.0417 26.9789 36.6113 34.9448 23.2852 21.7267 21.3487 33.5169 34.8847 34.7813 25.0364 15.9461 44.2613 27.6959 23.1024 15.4936 14.9753 20.2316 13.7209 39.0657 5.81645 5.28061
threshold=53.750000000000007 19.300000000000011 -0.67803021058859214 9.7500000000000018 71.250000000000014 44.550000000000004 71.500000000000014 -1.5499999999999969 11.550000000000002 2.0714285714285725 77.300000000000026 -1.6499999999999984 87.750000000000014 90.950000000000017 -0.36648370705903521 34.350000000000009 0.8852232634113919 0.063500000000000015 12.450000000000001 1.7214285714285744 0.93544191479114935 -0.96234030595689413 0.26950000000000007 -0.14999999999999852 89.050000000000011 12.050000000000002
decision_type=2 2 2 2 2 2 2 2 2 2 2 2 2 2 2 2 2 2 2 2 2 2 2 2 2 2
left_child=5 3 24 -2 -5 7 8 -1 -7 -8 -6 13 14 -12 -13 17 18 -9 -17 -10 21 -4 23 -23 -3 -26
right_child=1 2 20 4 10 6 9 15 19 -11 11 12 -14 -15 -16 16 -18 -19 -20 -21 -22 22 -24 -25 25 -27
leaf_value=-0.073188812321370658 0.087778281815266659 -0.02855051845223389 -0.011046135129788737 -0.089375054518028296 0.06054558700412313 0.15108244773816851 -0.033789672821772809 0.12469160675679979 0.0018593078435828563 0.060494976207474287 0.100265741004488 -0.1299000869743128 0.025523132796979604 -0.031350374249904354 -0.02649984446711498 -0.00073399866045569082 -0.069807381549856051 0.011174672715466922 0.093849974408111159 0.096850051244800783 -0.014177072363445741 -0.20610155613627243 -0.055179639227828911 -0.062372959158176221 -0.0063351116741812144 0.038703050488764497
leaf_weight=19 18 31 17 18 26 20 24 14.999999999999998 16.000000000000004 19 21 17 30 14.999999999999998 31 28 24 27 20 14.999999999999998 21 14.999999999999998 31 26 38 15.999999999999998
leaf_count=19 18 31 17 18 26 20 24 15 16 19 21 17 30 15 31 28 24 27 20 15 21 15 31 26 38 16
internal_value=-0.00109905 -0.0196172 -0.0417184 0.00509904 -0.00547862 0.0290561 0.0570523 0.00861666 0.0954903 0.00885519 0.00661685 -0.00666566 -0.0320316 0.0468771 -0.0675116 0.0234643 0.00317773 0.0562132 0.0412385 0.0514382 -0.0688478 -0.081045 -0.0966934 -0.123349 -0.00569411 0.00807609
internal_weight=598 371 195 176 158 227 94 133 51 43 140 114 78 36 48 114 72 42 48 31 110 89 72 41 85 54
internal_count=598 371 195 176 158 227 94 133 51 43 140 114 78 36 48 114 72 42 48 31 110 89 72 41 85 54
is_linear=0
shrinkage=0.0694391


Tree=26
num_leaves=27
num_cat=0
split_feature=1 2 3 6 0 11 6 5 6 2 0 2 12 8 4 13 1 8 8 11 2 12 13 0 12 0
split_gain=61.5609 37.2007 35.0878 28.7445 29.9555 24.4659 19.5893 27.2454 23.0417 20.4612 18.6125 33.8396 36.2042 35.4074 24.168 17.9913 17.1214 15.7141 13.5231 44.243 16.2833 13.4177 14.3044 11.1537 10.8168 10.2294
threshold=53.750000000000007 19.300000000000011 -0.67803021058859214 9.7500000000000018 71.250000000000014 3.0714285714285703 21.600000000000005 0.16300000000000003 17.850000000000005 13.9 69.050000000000011 14.050000000000002 2.8428571428571439 0.067500000000000018 0.94066717844141279 3.4778889870773333 46.45000000000001 0.10650000000000001 0.26950000000000007 -0.38571428571428296 23.050000000000001 -1.278571428571428 1.8145565374824604 64.500000000000014 1.2142857142857142 100.70000000000002
decision_type=2 2 2 2 2 2 2 2 2 2 2 2 2 2 2 2 2 2 2 2 2 2 2 2 2 2
left_child=5 3 -3 -2 -5 10 7 8 9 -6 11 15 13 -13 23 -1 -12 -7 19 -4 -21 -11 -23 -15 -18 -20
right_child=1 2 18 4 6 17 -8 -9 -10 21 16 12 -14 14 -16 -17 24 -19 25 20 -22 22 -24 -25 -26 -27
leaf_value=-0.065344030853354745 0.082392478292103499 -0.0052915234240463304 -0.15776179141165139 -0.083891280526710701 0.087185374580024566 0.10648935176569624 0.073085893656428202 -0.079534898452141192 -0.061543789335155724 -0.037601316869868284 -0.059487735513917998 0.15898688121112606 -0.03681025178325914 0.035670158179668128 -0.025074620657506881 0.0281131377451256 -0.019916418560503198 0.018407856716333579 -0.0077922587383135065 0.00027223540025508831 -0.086564483140574466 -0.021398619014609939 0.050926757230142963 0.1121770093446658 0.051256011185363548 -0.073243305054194296
leaf_weight=20 18 85 23 18 17 25 15.999999999999998 17 15.999999999999998 21 23 15.999999999999998 15.999999999999998 24 15.999999999999998 15.999999999999998 20 17 30 24 15.999999999999998 19 34 17 17 17
leaf_count=20 18 85 23 18 17 25 16 17 16 21 23 16 16 24 16 16 20 17 30 24 16 19 34 17 17 17
internal_value=-0.00101879 -0.0184085 -0.0391094 0.00474218 -0.0051914 0.0272987 0.00615575 -0.00368962 0.00982353 0.0236158 0.0159588 0.0310287 0.0536002 0.0739508 0.044685 -0.0246369 -0.0154228 0.0737261 -0.0645783 -0.0854458 -0.0373627 0.00675861 0.0251927 0.0717909 0.0139018 -0.0338467
internal_weight=598 371 195 176 158 227 140 124 107 91 185 125 89 73 57 36 60 42 110 63 40 74 53 41 37 47
internal_count=598 371 195 176 158 227 140 124 107 91 185 125 89 73 57 36 60 42 110 63 40 74 53 41 37 47
is_linear=0
shrinkage=0.0694391


Tree=27
num_leaves=27
num_cat=0
split_feature=4 6 13 8 12 4 7 12 13 6 6 10 12 12 9 13 6 7 4 13 6 9 4 4 7 10
split_gain=59.6256 34.197 27.6843 18.4394 31.0463 22.5347 33.8359 17.3497 24.1306 26.4279 16.8576 19.3536 17.8256 28.4178 26.2175 22.8729 36.5651 32.8923 21.5828 11.8214 9.64279 16.5944 8.71998 8.3921 8.23258 9.73765
threshold=0.29137697329261131 17.050000000000004 4.5024846498236384 0.16350000000000003 2.3321428571428577 0.73136292505298039 3428.5000000000005 0.68214285714285683 2.3445062967808505 12.050000000000002 7.9500000000000011 -5.950000000000002 0.046428571428571305 1.3178571428571433 2.5499999999999976 2.2602669881897572 14.450000000000001 6321.5000000000009 -0.6652727025667432 1.0119075105227504 13.350000000000003 -1.6499999999999984 -0.73865259438682551 0.58307701883076835 6188.5000000000009 0.4500000000000029
decision_type=2 2 2 2 2 2 2 2 2 2 2 2 2 2 2 2 2 2 2 2 2 2 2 2 2 2
left_child=10 2 3 4 7 -6 -7 -2 -9 -10 -1 -12 14 18 15 19 17 -17 -14 -13 21 -21 -18 -3 25 -20
right_child=1 23 -4 -5 5 6 -8 8 9 -11 11 12 13 -15 -16 16 22 -19 24 20 -22 -23 -24 -25 -26 -27
leaf_value=0.028202318718538649 -0.010181591428691641 0.12021095272790468 0.082271847504483769 -0.049285907152886388 0.034560691126106283 -0.098065740981631788 0.012833505673491766 0.0017067528162394458 0.13602785309511758 0.024711520670589342 -0.095059657808977155 -0.072058838859495059 0.072706901827158124 -0.074617222304753275 0.045454244892842277 -0.18289446876412144 0.024645684022474166 -0.054741443572576015 0.0082040935776370779 0.0063635771298903299 0.018771391206987984 -0.065166914529745351 -0.04259310739900319 0.045530506272282494 0.030271902067185705 -0.061278843020839094
leaf_weight=29 25 15.999999999999998 22 25 22 26 24 25 22 20 15.999999999999998 14.999999999999998 24 15.999999999999998 17 15.999999999999998 14.999999999999998 27 21 34 35 26 18 20 20 14.999999999999998
leaf_count=29 25 16 22 25 22 26 24 25 22 20 16 15 24 16 17 16 15 27 21 34 35 26 18 20 20 15
internal_value=-0.00216984 0.0237297 0.0126096 0.00358194 0.0122286 -0.021534 -0.046663 0.0385288 0.0564311 0.0871732 -0.0208015 -0.0254899 -0.0210485 0.00356849 -0.0325969 -0.0402129 -0.0689964 -0.109492 0.0209034 -0.0192899 -0.0094062 -0.0259319 -0.0124266 0.084099 -0.00334961 -0.0227447
internal_weight=591 247 211 189 164 72 50 92 67 42 344 315 299 96 203 186 76 43 80 110 95 60 33 36 56 36
internal_count=591 247 211 189 164 72 50 92 67 42 344 315 299 96 203 186 76 43 80 110 95 60 33 36 56 36
is_linear=0
shrinkage=0.0694391


Tree=28
num_leaves=27
num_cat=0
split_feature=0 4 13 4 3 8 7 12 8 4 7 11 7 2 12 9 7 4 11 7 7 3 3 0 6 8
split_gain=54.6075 37.3103 38.003 35.1913 32.5138 32.451 32.8076 24.4996 26.128 20.0383 31.1537 17.4973 17.3115 17.27 15.7403 14.8862 12.2538 28.4964 20.5578 13.1451 11.2272 10.1935 23.2666 7.94892 7.83046 6.10317
threshold=86.100000000000009 -0.6652727025667432 4.5024846498236384 -0.031174269516803247 0.46800856592688467 0.11549999999999996 5647.0000000000009 2.3321428571428577 0.079500000000000015 0.73136292505298039 3428.5000000000005 -1.0785714285714281 6523.0000000000009 11.700000000000001 2.8428571428571439 3.2500000000000004 4168.0000000000009 0.45082531555062549 0.628571428571428 5949.0000000000009 3071.5000000000005 -0.66528616069191593 -0.26866367175705824 64.850000000000009 12.950000000000001 0.26700000000000007
decision_type=2 2 2 2 2 2 2 2 2 2 2 2 2 2 2 2 2 2 2 2 2 2 2 2 2 2
left_child=1 -1 3 5 11 -3 -7 8 13 14 -11 21 -6 -5 -9 -4 23 18 19 -18 -15 -2 -23 -10 -13 -26
right_child=4 2 15 7 12 6 -8 9 16 10 -12 24 -14 20 -16 -17 17 -19 -20 -21 -22 22 -24 -25 25 -27
leaf_value=0.11355783174726243 -0.011200127578434258 -0.11442882867993748 0.026845181849293465 0.1164045628091385 -0.13708279357108127 0.067275109211482678 -0.053955825941393698 -0.026149354330875712 -0.055972057160061511 -0.090199768947385739 0.013359077669597264 -0.0096172385480290511 -0.03833810177538801 -0.00033868613698783469 0.059083610899134234 0.12491800679034493 -0.015710867058183905 0.079150680605939244 -0.055823419145159599 0.071015919913700154 0.072920562718271562 -0.10246063374610841 -0.01379532907569541 0.0043292271758892491 0.06345164095557275 0.0025631566486575895
leaf_weight=14.999999999999998 53 19 16.000000000000004 19 15.999999999999998 14.999999999999998 26 17 15.999999999999998 28 25 42 21 21 21 14.999999999999998 15.000000000000002 27 21 14.999999999999998 17 24 33 24 15.000000000000002 14.999999999999998
leaf_count=15 53 19 16 19 16 15 26 17 16 28 25 42 21 21 21 15 15 27 21 15 17 24 33 24 15 15
internal_value=-0.00205066 0.0141241 0.00922454 0.00198525 -0.0293826 -0.0450146 -0.00834986 0.0128908 0.0279584 -0.0160596 -0.0428709 -0.0167602 -0.0867225 0.0655592 0.0216567 0.0798037 0.0088617 0.0246456 -0.00644442 0.0296779 0.034793 -0.0339066 -0.0537291 -0.0215736 0.00968143 0.0354251
internal_weight=591 372 357 326 219 60 41 266 175 91 53 182 37 57 38 31 118 78 51 30 38 110 57 40 72 30
internal_count=591 372 357 326 219 60 41 266 175 91 53 182 37 57 38 31 118 78 51 30 38 110 57 40 72 30
is_linear=0
shrinkage=0.0694391


Tree=29
num_leaves=27
num_cat=0
split_feature=0 13 13 10 2 11 11 0 4 11 5 13 9 3 11 1 13 10 7 2 13 1 3 2 4 6
split_gain=49.145 37.3551 29.1921 23.779 26.5814 18.7276 22.2257 32.5771 25.5927 26.5006 18.723 17.9999 15.8858 13.8964 11.4958 11.441 10.6472 29.0441 16.9622 12.8494 22.161 14.1798 11.8732 11.6367 10.4279 6.96174
threshold=81.350000000000009 4.5024846498236384 4.5838962339471063 -3.4000000000000017 25.750000000000007 -0.84999999999999931 1.2214285714285718 56.350000000000009 0.53312596302726967 0.17142857142857082 0.030000000000000002 4.1091921879178015 0.84999999999999798 0.49812943072827087 1.4714285714285718 49.850000000000001 2.2602669881897572 -3.4500000000000024 6863.5000000000009 20.750000000000007 1.8256114389014668 65.40000000000002 -0.66528616069191593 19.650000000000009 0.91511078773075505 11.250000000000002
decision_type=2 2 2 2 2 2 2 2 2 2 2 2 2 2 2 2 2 2 2 2 2 2 2 2 2 2
left_child=1 3 11 -1 5 -5 8 -8 9 -7 12 16 -9 15 -6 -14 19 -18 25 20 23 -21 -23 -2 -10 -19
right_child=2 -3 -4 4 14 6 7 10 24 -11 -12 -13 13 -15 -16 -17 17 18 -20 21 -22 22 -24 -25 -26 -27
leaf_value=-0.05980928693898642 -0.038405733085585154 0.090228829281898099 -0.11036651186085851 -0.041448441284773742 0.0032584832223519311 0.077334682052641116 -0.049644792955021097 -0.0055200290891149958 0.13671462974024406 -0.029041802015925905 -0.021395581564981645 0.051728300677463153 0.077354159830260269 0.120957352009049 -0.057131527648317963 -0.002591595637740442 0.041820790014425693 -0.1258407765263658 -0.018734411908847837 0.0049759288944065281 0.069089657488622641 -0.016844847071121279 -0.081232113052250504 0.029525244704466849 0.050236565910514376 -0.05655951041081074
leaf_weight=20 31 28 14.999999999999998 15.999999999999998 31 19 28 17 19 22 21 14.999999999999998 15.999999999999998 15.999999999999998 27 15.999999999999998 14.999999999999998 14.999999999999998 31 39 20 29.999999999999996 26.000000000000004 17 15.999999999999998 25
leaf_count=20 31 28 15 16 31 19 28 17 19 22 21 15 16 16 27 16 15 15 31 39 20 30 26 17 16 25
internal_value=-0.00188334 0.0169928 -0.0229575 0.00908505 0.0147902 0.0264383 0.0325954 0.0127252 0.0611141 0.0217874 0.0338188 -0.0170528 0.0517826 0.0713818 -0.0259938 0.0399599 -0.0216451 -0.0411084 -0.059414 -0.010934 0.0118785 -0.0271545 -0.0488243 -0.0140895 0.102877 -0.0881281
internal_weight=591 312 279 284 264 206 190 114 76 41 86 264 65 48 58 32 249 86 71 163 68 95 56 48 35 40
internal_count=591 312 279 284 264 206 190 114 76 41 86 264 65 48 58 32 249 86 71 163 68 95 56 48 35 40
is_linear=0
shrinkage=0.0694391


Tree=30
num_leaves=27
num_cat=0
split_feature=0 8 10 10 9 10 5 7 12 10 11 8 2 2 8 2 2 9 12 8 0 3 3 1 7 1
split_gain=63.3421 21.1466 19.8185 20.326 25.1351 29.206 31.6414 32.2643 28.7531 24.4646 25.846 25.4909 19.3454 59.0065 17.3997 15.7603 24.8797 14.5006 13.8408 13.5666 10.7076 9.77619 18.424 8.67028 7.16842 6.69301
threshold=93.300000000000026 0.26700000000000007 6.049999999999998 2.9500000000000033 1.4500000000000031 0.24999999999999997 0.20199999999999999 3614.0000000000005 -0.36785714285714372 0.65000000000000224 -0.14999999999999852 0.080500000000000016 14.85 20.550000000000001 0.11850000000000001 16.550000000000001 24.450000000000006 -1.0499999999999969 2.2535714285714286 0.14250000000000002 99.950000000000017 0.94425825643485939 0.37446826358596375 52.650000000000013 5740.0000000000009 70.500000000000014
decision_type=2 2 2 2 2 2 2 2 2 2 2 2 2 2 2 2 2 2 2 2 2 2 2 2 2 2
left_child=2 17 3 4 5 6 7 -1 -7 10 -6 -11 -12 -14 -10 -5 19 -2 -4 -17 -3 22 25 -13 -16 -9
right_child=1 20 18 15 9 8 -8 21 14 11 12 23 13 -15 24 16 -18 -19 -20 -21 -22 -23 -24 -25 -26 -27
leaf_value=0.10925424473991814 -0.11859635789473381 0.0021903838992889846 0.11047553644990465 -0.060082863597084674 0.074036770461303136 -0.08885017176041618 -0.047365068331498131 -0.0051393311640516625 -0.04316579013794343 0.14457950843038575 0.040568956442682109 0.071677334880480031 -0.13034753780058098 0.044626700651998211 0.064003334213089541 0.060913805405563161 -0.06538935070394751 -0.025880953683521158 0.01904103028396539 -0.017493179848623669 -0.04960856590293361 -0.01554058149410884 0.079471076411228678 0.01024456309474628 -0.0013214726600657119 0.039817455440687453
leaf_weight=21 21 45 14.999999999999998 27 22 24 25 45 23 15.999999999999998 19 22 15.999999999999998 17 15.000000000000002 25 15.999999999999998 14.999999999999998 17 15.999999999999998 31 28 24 22 14.999999999999998 22
leaf_count=21 21 45 15 27 22 24 25 45 23 16 19 22 16 17 15 25 16 15 17 16 31 28 24 22 15 22
internal_value=0.00485987 -0.0417328 0.0156156 0.0117481 0.0186379 0.00514894 0.0215547 0.0344457 -0.0296 0.0424856 0.0149429 0.0745955 -0.0121967 -0.04326 -0.000113995 -0.018757 0.00243606 -0.0839514 0.0665654 0.0310323 -0.0197997 0.0193678 0.0302307 0.0430554 0.0336364 0.0104789
internal_weight=604 112 492 460 376 242 165 140 77 134 74 60 52 33 53 84 57 36 32 41 76 119 91 44 30 67
internal_count=604 112 492 460 376 242 165 140 77 134 74 60 52 33 53 84 57 36 32 41 76 119 91 44 30 67
is_linear=0
shrinkage=0.0694391


Tree=31
num_leaves=27
num_cat=0
split_feature=0 8 4 6 1 4 1 6 6 1 8 1 7 3 0 7 6 11 6 11 2 0 4 8 1 13
split_gain=55.6914 18.6347 17.9858 24.1847 24.3508 23.4466 25.3311 26.3237 24.5064 19.1234 53.0616 49.4179 37.7391 17.3728 17.3506 11.2793 10.0179 12.9026 21.568 17.2358 19.2704 9.3695 9.35659 12.625 7.16957 5.03134
threshold=93.300000000000026 0.26700000000000007 -0.82413948779581736 22.300000000000001 70.350000000000009 0.36447543099728857 44.150000000000006 11.350000000000003 13.350000000000003 38.95000000000001 0.057500000000000009 32.850000000000001 3783.5000000000005 0.3261394409934788 72.550000000000011 7176.5000000000009 18.850000000000005 0.64285714285714401 13.050000000000002 -0.9928571428571431 15.550000000000002 99.950000000000017 0.74298546529340237 0.11850000000000001 76.050000000000011 1.7586520812420887
decision_type=2 2 2 2 2 2 2 2 2 2 2 2 2 2 2 2 2 2 2 2 2 2 2 2 2 2
left_child=2 24 13 4 5 15 9 14 -9 10 -7 -12 -11 -1 -8 16 17 19 -19 -4 -21 -3 23 -10 -2 -22
right_child=1 21 3 -5 -6 6 7 8 22 12 11 -13 -14 -15 -16 -17 -18 18 -20 20 25 -23 -24 -25 -26 -27
leaf_value=0.012694606569373851 -0.10387910014922225 0.0020458985241121812 -0.043048236122381275 0.097206911603003168 0.083070252784483475 0.10790581312049395 0.12198194523647155 -0.032032299105163239 0.11185810153521022 -0.11033161942147095 -0.07710189681946239 0.045422004006567221 0.022552335506533287 -0.068851964641357066 0.025244215090997883 0.031246602435428421 -0.065584036351739358 0.00063185706033276601 -0.10003897045757439 0.082595315616790163 -0.021782335393011738 -0.04640854500970297 0.0023009150973308636 0.027443574913368542 -0.034174102700692238 0.021143134166568978
leaf_weight=26 21 45 23 15.999999999999998 22 22 27 25 14.999999999999998 15.999999999999998 28 31 22 21 14.999999999999998 27 14.999999999999998 25 14.999999999999998 17 23 31 14.999999999999998 21 14.999999999999998 25
leaf_count=26 21 45 23 16 22 22 27 25 15 16 28 31 22 21 15 27 15 25 15 17 23 31 15 21 15 25
internal_value=0.00457729 -0.0391112 0.0146625 0.0189948 0.0155595 0.0114503 0.0254649 0.0479264 0.0223002 0.002691 0.0216369 -0.0134572 -0.0365926 -0.0252978 0.090628 -0.00816931 -0.0159998 -0.00910199 -0.0406052 0.00590726 0.0241354 -0.0185245 0.0491737 0.0673549 -0.0787418 0.000517495
internal_weight=604 112 492 445 429 407 237 118 76 119 81 59 38 47 42 170 143 128 40 88 65 76 51 36 36 48
internal_count=604 112 492 445 429 407 237 118 76 119 81 59 38 47 42 170 143 128 40 88 65 76 51 36 36 48
is_linear=0
shrinkage=0.0694391


Tree=32
num_leaves=27
num_cat=0
split_feature=8 1 5 1 0 1 1 0 2 1 9 0 7 1 2 6 13 2 6 2 8 0 6 10 11 9
split_gain=49.5981 20.4184 18.2967 17.7958 19.4396 23.1922 31.9676 31.7776 31.6901 19.0422 15.7054 14.6958 22.2416 24.617 20.548 14.6158 14.2407 11.9944 11.2837 13.4386 10.833 9.49738 14.3765 6.25539 6.12669 3.88849
threshold=0.18650000000000003 71.850000000000009 0.037500000000000006 68.750000000000014 59.350000000000001 52.100000000000009 56.850000000000001 77.300000000000026 9.3000000000000025 45.300000000000004 -1.2499999999999998 48.150000000000006 2232.5000000000005 32.050000000000004 13.950000000000005 15.450000000000001 2.4373568794526972 22.100000000000001 13.950000000000001 18.500000000000007 0.13050000000000003 84.550000000000011 17.550000000000004 3.0499999999999976 1.1357142857142883 -0.90000000000000202
decision_type=2 2 2 2 2 2 2 2 2 2 2 2 2 2 2 2 2 2 2 2 2 2 2 2 2 2
left_child=1 3 15 4 11 9 24 8 -8 23 -9 14 -13 -14 -1 18 -11 -18 19 -2 -12 -17 -23 -6 -7 -21
right_child=2 -3 -4 -5 5 6 7 10 -10 16 20 12 13 -15 -16 21 17 -19 -20 25 -22 22 -24 -25 -26 -27
leaf_value=-0.020308947435425159 0.032563950744611908 0.094424304557420694 -0.088527308859419979 -0.04816785007487228 0.0402644609603715 -0.07469878495945774 0.00022262518363663374 0.053236781765540961 0.12854180862536921 0.026078689675691411 -0.067231284420037882 -0.092045253564015883 -0.068549315491822208 0.031932959665776535 0.084846614205134424 0.055861365550878721 0.13007209179285867 0.043154905097689593 -0.066249421545102105 -0.033404733806968484 0.0043674952588622735 0.039401231459935661 -0.040419893224406443 -0.01018419298466296 -0.015161151365702383 -0.0077698213462961867
leaf_weight=17 21 14.999999999999998 14.999999999999998 17 26 14.999999999999998 14.999999999999998 14.999999999999998 22 19 14.999999999999998 14.999999999999998 14.999999999999998 34 14.999999999999998 17 26 14.999999999999998 24 85 24 18 21 19 19 45
leaf_count=17 21 15 15 17 26 15 15 15 22 19 15 15 15 34 15 17 26 15 24 85 24 18 21 19 19 45
internal_value=0.00428446 0.0207242 -0.0196094 0.016875 0.0205901 0.031454 0.0108897 0.0322225 0.0796668 0.0551541 -0.00226923 -0.00556862 -0.0245327 -0.000571047 0.0314354 -0.0142803 0.0801215 0.102371 -0.024089 -0.0164674 -0.0254453 0.0161053 -0.00343256 0.0195203 -0.0445851 -0.0248292
internal_weight=604 358 246 343 326 230 125 91 37 105 54 96 64 49 32 231 60 41 175 151 39 56 39 45 34 130
internal_count=604 358 246 343 326 230 125 91 37 105 54 96 64 49 32 231 60 41 175 151 39 56 39 45 34 130
is_linear=0
shrinkage=0.0694391


Tree=33
num_leaves=27
num_cat=0
split_feature=8 5 1 6 9 8 5 1 2 6 7 8 9 10 12 8 6 8 8 12 8 11 2 12 2 2
split_gain=51.8135 41.0212 43.3748 30.7684 26.0074 25.5678 24.125 20.2515 20.2202 33.6491 18.3885 16.2845 15.8572 14.8178 23.2902 14.3406 13.4089 13.844 11.9232 10.606 12.0846 10.7374 14.4535 7.29862 7.29531 6.48669
threshold=0.15150000000000002 0.083500000000000005 42.350000000000001 14.950000000000001 3.9000000000000026 0.16950000000000004 0.28850000000000003 65.250000000000014 22.950000000000006 11.350000000000003 2401.0000000000005 0.16350000000000003 0.65000000000000224 -0.24999999999999992 0.73928571428571443 0.079500000000000015 18.050000000000004 0.18000000000000002 0.10750000000000001 -0.34999999999999903 0.21450000000000002 -1.3999999999999984 18.450000000000003 2.882142857142858 29.750000000000004 19.250000000000007
decision_type=2 2 2 2 2 2 2 2 2 2 2 2 2 2 2 2 2 2 2 2 2 2 2 2 2 2
left_child=1 2 3 12 13 11 -3 16 19 -10 -8 -2 -1 -4 -15 -14 17 -7 -6 21 -21 22 -9 -16 -19 -23
right_child=5 6 4 -5 18 7 10 8 9 -11 -12 -13 15 14 23 -17 -18 24 -20 20 -22 25 -24 -25 -26 -27
leaf_value=-0.026560896091062665 -0.021869852669969981 -0.078083374418707246 0.084620405206496288 -0.070427997585678914 0.14516821646236797 0.058643369985016285 -0.04284776014867088 0.036814964869253036 -0.0056789892837819708 -0.11979452902186333 0.054528733607736128 -0.11112839447688463 0.076496478898997938 -0.048968838092676235 0.02254214579080966 0.0046517420861812552 0.068716309673799172 0.0024710750390799481 0.052487314349369915 0.048746113193718139 -0.015779586786833201 -0.085539057793379211 -0.027789193877357586 0.081918882999835102 -0.048208008787308347 -0.020188366510287131
leaf_weight=21 21 24 24 20 21 14.999999999999998 14.999999999999998 22 26 22 18 19 26 14.999999999999998 30 26 15.999999999999998 53 14.999999999999998 24 28 15.000000000000002 51 14.999999999999998 15.999999999999998 15.999999999999998
leaf_count=21 21 24 24 20 21 15 15 22 26 22 18 19 26 15 30 26 16 53 15 24 28 15 51 15 16 16
internal_value=0.000292927 0.0229519 0.0368855 0.00111097 0.064052 -0.0175271 -0.0285096 -0.0103953 -0.0228574 -0.0611589 0.0103614 -0.0681138 0.0223097 0.0409121 0.0208765 0.0423435 0.0149679 0.00312479 0.112181 -0.0103331 0.0148285 -0.022964 -0.00777377 0.045444 -0.0104917 -0.0556406
internal_weight=614 270 213 93 120 344 57 304 204 48 33 40 73 84 60 52 100 84 36 156 52 104 73 45 69 31
internal_count=614 270 213 93 120 344 57 304 204 48 33 40 73 84 60 52 100 84 36 156 52 104 73 45 69 31
is_linear=0
shrinkage=0.0694391


end of trees

feature_importances:
forecast_high=110
forecast_evap=85
forecast_wind=78
forecast_radiation=73
roll_high_14d_mean=70
lag_high_1d=68
forecast_diurnal_range=66
forecast_low=65
day_cos=63
day_sin=61
roll_high_7d_mean=52
roll_high_7d_std=48
lag_high_2d=33
forecast_precip=10

parameters:
[boosting: gbdt]
[objective: regression]
[metric: l2]
[tree_learner: serial]
[device_type: cpu]
[data_sample_strategy: bagging]
[data: ]
[valid: ]
[num_iterations: 34]
[learning_rate: 0.0694391]
[num_leaves: 27]
[num_threads: 2]
[seed: 42]
[deterministic: 0]
[force_col_wise: 0]
[force_row_wise: 0]
[histogram_pool_size: -1]
[max_depth: -1]
[min_data_in_leaf: 15]
[min_sum_hessian_in_leaf: 0.001]
[bagging_fraction: 0.75306]
[pos_bagging_fraction: 1]
[neg_bagging_fraction: 1]
[bagging_freq: 3]
[bagging_seed: 400]
[bagging_by_query: 0]
[feature_fraction: 0.935888]
[feature_fraction_bynode: 1]
[feature_fraction_seed: 30056]
[extra_trees: 0]
[extra_seed: 12879]
[early_stopping_round: 0]
[early_stopping_min_delta: 0]
[first_metric_only: 0]
[max_delta_step: 0]
[lambda_l1: 3.33975e-05]
[lambda_l2: 2.37103]
[linear_lambda: 0]
[min_gain_to_split: 0]
[drop_rate: 0.1]
[max_drop: 50]
[skip_drop: 0.5]
[xgboost_dart_mode: 0]
[uniform_drop: 0]
[drop_seed: 17869]
[top_rate: 0.2]
[other_rate: 0.1]
[min_data_per_group: 100]
[max_cat_threshold: 32]
[cat_l2: 10]
[cat_smooth: 10]
[max_cat_to_onehot: 4]
[top_k: 20]
[monotone_constraints: ]
[monotone_constraints_method: basic]
[monotone_penalty: 0]
[feature_contri: ]
[forcedsplits_filename: ]
[refit_decay_rate: 0.9]
[cegb_tradeoff: 1]
[cegb_penalty_split: 0]
[cegb_penalty_feature_lazy: ]
[cegb_penalty_feature_coupled: ]
[path_smooth: 0]
[interaction_constraints: ]
[verbosity: -1]
[saved_feature_importance_type: 0]
[use_quantized_grad: 0]
[num_grad_quant_bins: 4]
[quant_train_renew_leaf: 0]
[stochastic_rounding: 1]
[linear_tree: 0]
[max_bin: 255]
[max_bin_by_feature: ]
[min_data_in_bin: 3]
[bin_construct_sample_cnt: 200000]
[data_random_seed: 175]
[is_enable_sparse: 1]
[enable_bundle: 1]
[use_missing: 1]
[zero_as_missing: 0]
[feature_pre_filter: 1]
[pre_partition: 0]
[two_round: 0]
[header: 0]
[label_column: ]
[weight_column: ]
[group_column: ]
[ignore_column: ]
[categorical_feature: ]
[forcedbins_filename: ]
[precise_float_parser: 0]
[parser_config_file: ]
[objective_seed: 16083]
[num_class: 1]
[is_unbalance: 0]
[scale_pos_weight: 1]
[sigmoid: 1]
[boost_from_average: 1]
[reg_sqrt: 0]
[alpha: 0.9]
[fair_c: 1]
[poisson_max_delta_step: 0.7]
[tweedie_variance_power: 1.5]
[lambdarank_truncation_level: 30]
[lambdarank_norm: 1]
[label_gain: ]
[lambdarank_position_bias_regularization: 0]
[eval_at: ]
[multi_error_top_k: 1]
[auc_mu_weights: ]
[num_machines: 1]
[local_listen_port: 12400]
[time_out: 120]
[machine_list_filename: ]
[machines: ]
[gpu_platform_id: -1]
[gpu_device_id: -1]
[gpu_use_dp: 0]
[num_gpu: 1]

end of parameters

pandas_categorical:[]
