tree
version=v4
num_class=1
num_tree_per_iteration=1
label_index=0
max_feature_idx=13
objective=regression
feature_names=forecast_high forecast_low forecast_diurnal_range day_sin day_cos forecast_precip forecast_wind forecast_radiation forecast_evap lag_high_1d lag_high_2d roll_high_7d_mean roll_high_14d_mean roll_high_7d_std
feature_infos=[27.899999999999999:108.5] [13.699999999999999:82.900000000000006] [2.3999999999999986:41.399999999999999] [-0.99999942202469239:0.99998555065071859] [-0.99997919295908244:0.9999907524084426] [0:4.024] [4.9000000000000004:42.299999999999997] [262:8607] [0.010999999999999999:0.374] [-12.5:10.4] [-12.5:10.4] [-5.1857142857142851:5.4142857142857164] [-4.2785714285714294:4.4642857142857144] [0.75150642363316233:6.7176030305601167]
tree_sizes=1489 1630 1502 1696 1745 1602 2044 1878 1961 1761 1893 1936 1754 1878 1869 1637 1755 1747 1730 1855 1605 1818 1870 2121 1850 1839 2126 1956 1744 1753 2009

Tree=0
num_leaves=16
num_cat=0
split_feature=0 1 3 8 11 11 2 10 3 7 2 10 0 10 0
split_gain=1353.58 153.686 63.8169 80.9773 52.0448 65.8062 47.1514 25.8592 23.9265 41.0566 36.6159 23.4877 20.9213 14.627 8.93812
threshold=81.15000000000002 64.850000000000009 0.7090011537757156 0.06900000000000002 -0.092857142857142083 2.5571428571428583 21.050000000000001 -0.74999999999999989 -0.85671820900978868 6421.0000000000009 20.100000000000009 1.1500000000000024 60.95000000000001 2.2500000000000004 84.450000000000017
decision_type=2 2 2 2 2 2 2 2 2 2 2 2 2 2 2
left_child=2 14 4 -4 -1 12 7 -5 -3 -10 -11 -8 -6 -7 -2
right_child=1 8 3 6 5 13 11 -9 9 10 -12 -13 -14 -15 -16
leaf_value=-0.091662792363460532 -0.1388378336006385 -0.24593701781955124 -0.17818128235624889 -0.049993173656628892 0.039177524959056298 0.028045848189889949 -0.029303249334398929 0.074898018057805826 -0.42118048029840982 -0.21660670380658564 -0.33949018687719723 -0.14170801854972559 0.1930052667690578 -0.068675582305052371 -0.19821009540103163
leaf_weight=14.999999999999998 22 26 18 19 21 18 14.999999999999998 24 26 23 39 18 17 21 26
leaf_count=15 22 26 18 19 21 18 15 24 26 23 39 18 17 21 26
internal_value=-0.133432 -0.279063 -0.00638108 -0.0501711 0.0350965 0.057747 -0.0194745 0.0270584 -0.322285 -0.341349 -0.298576 -0.0869309 0.123238 -0.0172285 -0.172443
internal_weight=348 162 186 94 92 77 76 43 114 88 62 33 38 39 48
internal_count=348 162 186 94 92 77 76 43 114 88 62 33 38 39 48
is_linear=0
shrinkage=1


Tree=1
num_leaves=17
num_cat=0
split_feature=0 1 9 3 6 12 3 13 9 0 6 2 7 2 0 9
split_gain=1188.68 130.556 97.1715 63.0447 39.3156 38.9002 36.9204 32.4395 29.0462 21.8482 21.1671 14.595 8.39109 18.5423 7.56925 6.09847
threshold=81.350000000000009 64.850000000000009 3.7500000000000004 0.30164402523644185 18.450000000000003 1.0000000180025095e-35 0.69676570133721638 2.2134324659890381 -0.74999999999999989 66.550000000000011 12.850000000000003 17.850000000000005 6287.0000000000009 20.100000000000009 83.350000000000009 -1.0000000180025095e-35
decision_type=2 2 2 2 2 2 2 2 2 2 2 2 2 2 2 2
left_child=2 14 3 7 5 15 -7 -1 12 -8 -4 -10 -3 -14 -2 -5
right_child=1 8 10 4 -6 6 9 -9 11 -11 -12 -13 13 -15 -16 -17
leaf_value=0.073549577010849826 0.0012912399880849166 -0.24431013802585602 0.28324939692060574 0.056276174693627765 0.15723983223066215 -0.082497596597708583 0.094626965545979214 0.20288482970312813 -0.044714671320956197 -0.006332343840948133 0.13726841293619008 -0.14886461875102078 -0.088089372406703934 -0.19494767272500227 -0.056067367149257696 0.12493086295979008
leaf_weight=19 17 30 17 20 14.999999999999998 14.999999999999998 15.999999999999998 29 15.000000000000002 23 18 14.999999999999998 18 35 29 17
leaf_count=19 17 30 17 20 15 15 16 29 15 23 18 15 18 35 29 17
internal_value=0.00196866 -0.136859 0.119008 0.0926746 0.0604874 0.0409513 0.00256628 0.157562 -0.176397 0.0381362 0.221646 -0.103879 -0.198995 -0.163982 -0.0358453 0.0934443
internal_weight=348 159 189 154 106 91 54 48 113 39 35 30 83 53 46 37
internal_count=348 159 189 154 106 91 54 48 113 39 35 30 83 53 46 37
is_linear=0
shrinkage=0.0694391


Tree=2
num_leaves=16
num_cat=0
split_feature=0 1 9 3 6 6 7 5 13 6 9 2 2 9 3
split_gain=1047.03 117.428 87.4738 56.5808 39.2811 39.8822 37.9778 33.7026 31.7381 23.7003 23.6704 12.8972 11.9017 8.00699 5.15386
threshold=81.15000000000002 64.850000000000009 3.7500000000000004 0.30164402523644185 12.15 9.9500000000000011 5455.5000000000009 1.0000000180025095e-35 2.2134324659890381 12.850000000000003 -0.74999999999999989 17.850000000000005 22.950000000000006 0.24999999999999997 -0.69674959280705229
decision_type=2 2 2 2 2 2 2 2 2 2 2 2 2 2 2
left_child=2 13 3 8 5 -5 7 -6 -1 -4 12 -12 14 -2 -3
right_child=1 10 9 4 6 -7 -8 -9 -10 -11 11 -13 -14 -15 -16
leaf_value=0.069008988541792229 -0.055366432103922877 -0.094018779286614645 0.27798894649363787 0.06777361649066288 -0.010161315258181118 -0.069632014714099688 0.15715158248316882 0.10485798798189921 0.19670035338952335 0.12884604701009572 -0.042033527602896283 -0.13993853067780609 -0.23637075256124468 0.0010893905828244341 -0.17030076362791016
leaf_weight=19 28 17 15.999999999999998 18 24 18 23 22 28 18 15.000000000000002 14.999999999999998 26 20 41
leaf_count=19 28 17 16 18 24 18 23 22 28 18 15 15 26 20 41
internal_value=0.00195672 -0.126127 0.113697 0.0886537 0.0580862 -0.000986556 0.0879156 0.0472913 0.150874 0.212578 -0.163911 -0.0976504 -0.184245 -0.0328991 -0.152513
internal_weight=348 162 186 152 105 36 69 46 47 34 114 30 84 48 58
internal_count=348 162 186 152 105 36 69 46 47 34 114 30 84 48 58
is_linear=0
shrinkage=0.0694391


Tree=3
num_leaves=18
num_cat=0
split_feature=8 0 7 8 2 2 1 1 9 7 8 8 9 6 7 4 7
split_gain=564.92 168.884 92.645 62.6319 57.8701 52.1425 50.3513 44.4889 34.4453 28.5524 40.5331 23.9988 26.5249 22.0977 20.2262 11.3695 11.0276
threshold=0.16250000000000003 98.350000000000009 3691.0000000000005 0.11350000000000002 18.150000000000006 16.450000000000006 63.45000000000001 33.20000000000001 -1.0000000180025095e-35 6792.5000000000009 0.23850000000000002 0.20950000000000002 -0.95000000000000273 16.050000000000004 6394.0000000000009 -0.96466008222729427 6002.0000000000009
decision_type=2 2 2 2 2 2 2 2 2 2 2 2 2 2 2 2 2
left_child=2 4 5 7 14 6 8 -4 -1 11 -11 12 -6 -5 -2 -3 -13
right_child=1 15 3 13 9 -7 -8 -9 -10 10 -12 16 -14 -15 -16 -17 -18
leaf_value=-0.093844613768439319 -0.02415348007804546 -0.12259502937565857 0.103873888158782 0.128166609039118 -0.19191280280250583 0.1281971375533984 0.1069244935042524 0.28376374791283548 0.025464954328841525 0.05709379776912555 -0.07251274340707306 -0.0011019582382347259 -0.062438715140387999 0.025620142440406234 0.076192080097566922 -0.23651668099884254 -0.0791669187000172
leaf_weight=19 14.999999999999998 17 14.999999999999998 26 15.999999999999998 24 15.999999999999998 21 24 18 25 15.999999999999998 19 18 21 23 17
leaf_count=19 15 17 15 26 16 24 16 21 24 18 25 16 19 18 21 23 17
internal_value=0.00668476 -0.0752483 0.100413 0.152898 -0.0393275 0.046983 0.0102702 0.21986 -0.0294024 -0.0638214 -0.0181104 -0.0911428 -0.130048 0.0896709 0.0354724 -0.19767 -0.0439284
internal_weight=350 187 163 80 147 83 59 36 43 111 43 68 35 44 36 40 33
internal_count=350 187 163 80 147 83 59 36 43 111 43 68 35 44 36 40 33
is_linear=0
shrinkage=0.0694391


Tree=4
num_leaves=18
num_cat=0
split_feature=8 0 7 9 2 2 1 8 3 9 7 8 2 7 3 9 12
split_gain=496.858 148.365 81.4699 58.4667 50.9076 45.726 44.4345 33.5062 52.1593 30.3027 25.3232 40.1958 20.1063 17.8046 16.6199 12.9462 10.356
threshold=0.16250000000000003 98.350000000000009 3691.0000000000005 4.4499999999999966 18.150000000000006 16.450000000000006 63.45000000000001 0.10700000000000001 0.75580964594513067 -1.0000000180025095e-35 6944.0000000000009 0.23850000000000002 23.850000000000001 6394.0000000000009 -0.82897401153126982 -0.90000000000000202 -2.214285714285714
decision_type=2 2 2 2 2 2 2 2 2 2 2 2 2 2 2 2 2
left_child=2 4 5 7 13 6 9 -4 -9 -1 12 -12 14 -2 -6 -14 -3
right_child=1 16 3 -5 10 -7 -8 8 -10 -11 11 -13 15 -15 -16 -17 -18
leaf_value=-0.088051108437316408 -0.022705213217560052 -0.12895190819853372 0.16597313810244876 0.2501607064948882 -0.058716527457792073 0.12009561900166223 0.10045801970395671 -0.039420856670363713 0.11906674786990516 0.023855678959381781 0.065048683835734727 -0.067913704757334936 -0.090563916839522141 0.071438124783522156 -0.17216648185391073 -0.011045959658319584 -0.23650582633312947
leaf_weight=19 14.999999999999998 23 24 18 15.000000000000002 24 15.999999999999998 14.999999999999998 23 24 15.999999999999998 25 15.999999999999998 21 15.999999999999998 23 17
leaf_count=19 15 23 24 18 15 24 16 15 23 24 16 25 16 21 16 23 17
internal_value=0.00624443 -0.0705945 0.0941453 0.143363 -0.0369251 0.0440421 0.00966047 0.104285 0.0578648 -0.0276088 -0.0598981 -0.0153064 -0.0846589 0.0332326 -0.125344 -0.0469895 -0.185339
internal_weight=350 187 163 80 147 83 59 62 38 43 111 41 70 36 31 39 40
internal_count=350 187 163 80 147 83 59 62 38 43 111 41 70 36 31 39 40
is_linear=0
shrinkage=0.0694391


Tree=5
num_leaves=17
num_cat=0
split_feature=0 0 12 3 13 1 6 7 6 3 3 2 0 3 12 6
split_gain=445.061 117.397 52.8589 88.9413 64.649 64.9027 40.1687 37.6744 36.8605 29.8638 26.8888 24.4563 10.9973 14.0993 9.27685 4.68403
threshold=80.300000000000026 98.350000000000009 2.3357142857142867 0.83849049182116964 2.4273912352165552 36.850000000000001 16.250000000000004 5488.5000000000009 16.850000000000005 0.83849049182116964 0.22700754078277599 17.950000000000006 88.15000000000002 -0.39826117949089107 -2.214285714285714 12.850000000000003
decision_type=2 2 2 2 2 2 2 2 2 2 2 2 2 2 2 2
left_child=2 6 3 4 -1 -6 11 8 -5 -8 -4 -2 -13 -14 -3 -7
right_child=1 14 10 7 5 15 9 -9 -10 -11 -12 12 13 -15 -16 -17
leaf_value=0.026124824438368714 -0.0010055909117600299 -0.1208344257488473 0.05595168455691326 0.053524924485449848 0.062482538705349359 0.27429651928822635 0.068944451273564564 0.097863235892948874 -0.079251245076899596 -0.048647706778431249 -0.053600575989288683 -0.042430250575999737 -0.056853842526827028 -0.14308805675389505 -0.22209324318862605 0.1595703684598539
leaf_weight=15.999999999999998 23 23 24 20 17 22 22 28 15.999999999999998 15.999999999999998 15.999999999999998 27 23 22 17 18
leaf_count=16 23 23 24 20 17 22 22 28 16 16 16 27 23 22 17 18
internal_value=0.00581085 -0.0728896 0.0826794 0.102887 0.154248 0.187732 -0.04 0.0408866 -0.0067373 0.0194827 0.0115835 -0.0636882 -0.0830413 -0.104065 -0.173889 0.234488
internal_weight=350 173 177 137 73 57 133 64 36 38 40 95 72 45 40 40
internal_count=350 173 177 137 73 57 133 64 36 38 40 95 72 45 40 40
is_linear=0
shrinkage=0.0694391


Tree=6
num_leaves=21
num_cat=0
split_feature=0 5 1 8 6 0 10 10 6 7 7 3 8 2 12 8 2 6 10 9
split_gain=590.021 92.8799 64.8375 109.08 63.4574 62.2182 45.5393 35.4288 31.9617 29.4432 24.7179 23.1106 23.0529 19.3917 13.5439 12.4095 10.9698 10.0625 2.66462 0.243865
threshold=81.550000000000011 0.092500000000000013 32.850000000000001 0.11599999999999996 14.65 95.850000000000009 2.4000000000000026 -0.54999999999999705 15.450000000000001 5488.5000000000009 3731.0000000000005 -0.90529520250134576 0.20550000000000002 21.650000000000009 -0.85357142857142843 0.14050000000000004 25.150000000000002 12.850000000000003 -1.4500000000000026 -2.7499999999999996
decision_type=2 2 2 2 2 2 2 2 2 2 2 2 2 2 2 2 2 2 2 2
left_child=1 2 -1 7 -3 6 8 -4 11 15 17 18 -13 -11 -10 -5 19 -9 -2 -7
right_child=5 4 3 9 -6 16 -8 10 14 13 -12 12 -14 -15 -16 -17 -18 -19 -20 -21
leaf_value=-0.013267404831080571 -0.049299399732087759 -0.11935614529065024 0.26757363754767449 0.043378765808929041 0.057069179493715705 -0.15055232357039267 -0.17372663365237745 0.12370230359598705 0.050548481177618537 0.13512692897318809 0.20599386868067956 -0.17496342468119974 -0.048865965031469408 0.041994058585248163 -0.032045986707163923 -0.036318443505674189 -0.21827165921923142 0.039330822273291467 -0.0078449597258819122 -0.090313335305759024
leaf_weight=22 15.000000000000002 15.999999999999998 17 17 19 14.999999999999998 14.999999999999998 18 14.999999999999998 22 15.999999999999998 15.000000000000002 15.999999999999998 25 19 15.999999999999998 17 14.999999999999998 14.999999999999998 20
leaf_count=22 15 16 17 17 19 15 15 18 15 22 16 15 16 25 19 16 17 15 15 20
internal_value=-0.0030708 0.0754242 0.0966304 0.113138 -0.026038 -0.101101 -0.0690059 0.178009 -0.0486433 0.0560354 0.13602 -0.0777907 -0.117977 0.0899841 0.0053125 0.00489332 -0.163024 0.0905589 -0.030665 -0.124044
internal_weight=365 203 168 146 35 162 110 66 95 80 49 61 31 47 34 33 52 33 30 35
internal_count=365 203 168 146 35 162 110 66 95 80 49 61 31 47 34 33 52 33 30 35
is_linear=0
shrinkage=0.0694391


Tree=7
num_leaves=20
num_cat=0
split_feature=0 5 1 8 6 0 10 6 12 9 7 9 12 10 6 8 8 12 9
split_gain=520.263 81.9255 57.5486 87.8339 55.9644 54.7985 40.2552 28.9437 27.248 33.2342 26.2596 21.3474 20.8662 19.9029 18.763 14.1198 11.2368 8.92206 4.25415
threshold=81.550000000000011 0.092500000000000013 32.45000000000001 0.11599999999999996 14.65 95.850000000000009 2.4000000000000026 14.65 2.8500000000000001 3.0499999999999976 5533.5000000000009 0.4500000000000029 -0.59999999999999953 1.3499999999999981 9.6500000000000004 0.21300000000000002 0.14050000000000004 -2.214285714285714 -2.7499999999999996
decision_type=2 2 2 2 2 2 2 2 2 2 2 2 2 2 2 2 2 2 2
left_child=1 2 -1 8 -3 6 7 14 9 11 16 -4 -9 -12 -2 -16 -5 18 -7
right_child=5 4 3 10 -6 17 -8 12 -10 -11 13 -13 -14 -15 15 -17 -18 -19 -20
leaf_value=-0.023894353136292089 -0.017538117896955259 -0.11213784114849734 0.17762025560093783 0.043569726361265423 0.05354601022947552 -0.14678696901035318 -0.16330979401333087 0.041351898794243142 0.070030765340071979 0.26464994397210689 0.11868167219811286 0.058262471247645359 -0.055820085688482311 0.018115599143494008 -0.13991128752057133 -0.045166602696125199 -0.029449215312796324 -0.19968862528527237 -0.073953311516934184
leaf_weight=18 19 15.999999999999998 19 18 19 14.999999999999998 14.999999999999998 23 17 18 29 15.999999999999998 15.999999999999998 14.999999999999998 21 15.999999999999998 18 19 18
leaf_count=18 19 16 19 18 19 15 15 23 17 18 29 16 16 15 21 16 18 19 18
internal_value=-0.00292484 0.0707843 0.0907008 0.10461 -0.0245043 -0.0949774 -0.0648533 -0.0457094 0.160479 0.18525 0.0525125 0.130215 0.00057203 0.0870771 -0.0766552 -0.104128 0.00749646 -0.153094 -0.11468
internal_weight=365 203 168 150 35 162 110 95 70 53 80 35 39 44 56 37 36 52 33
internal_count=365 203 168 150 35 162 110 95 70 53 80 35 39 44 56 37 36 52 33
is_linear=0
shrinkage=0.0694391


Tree=8
num_leaves=20
num_cat=0
split_feature=0 5 6 0 8 0 10 2 6 6 6 12 3 4 11 2 2 3 7
split_gain=458.229 72.186 49.3562 48.2805 43.8812 52.7745 35.6205 26.6251 26.3801 25.4208 22.3556 18.3775 17.1205 16.4515 13.9063 13.1181 10.4279 2.26316 1.17814
threshold=81.550000000000011 0.092500000000000013 14.65 95.850000000000009 0.11350000000000002 56.000000000000007 2.4000000000000026 19.450000000000006 16.050000000000004 14.65 12.850000000000003 -0.59999999999999953 -0.90529520250134576 0.3484035575467645 1.7357142857142867 22.100000000000001 25.399999999999999 -0.59869031648930193 6002.0000000000009
decision_type=2 2 2 2 2 2 2 2 2 2 2 2 2 2 2 2 2 2 2
left_child=1 4 -3 6 5 14 9 18 13 12 15 -11 -2 -9 -1 -7 17 -5 -6
right_child=3 2 -4 16 7 10 -8 8 -10 11 -12 -13 -14 -15 -16 -17 -18 -19 -20
leaf_value=0.086142574435634764 -0.029689038009630624 -0.10535607862571174 0.050240342866731152 -0.13208308538665992 0.063097328323754545 0.23295590573930228 -0.15351755571290104 0.001770871114894024 -0.056784471035470449 0.038748809798177013 0.080776758964123313 -0.052444254916711605 -0.10850503477815412 0.091770698001888251 -0.003136928575717022 0.11189440690088417 -0.20004698168114035 -0.071511807032177452 0.11698395645967788
leaf_weight=15.000000000000002 28 15.999999999999998 19 19.999999999999996 16.000000000000004 21 14.999999999999998 20 14.999999999999998 23 18 15.999999999999998 28 17 15.999999999999998 14.999999999999998 14.999999999999998 17.000000000000004 14.999999999999998
leaf_count=15 28 16 19 20 16 21 15 20 15 23 18 16 28 17 16 15 15 17 15
internal_value=-0.00279427 0.0663813 -0.0230609 -0.0891844 0.0850768 0.119861 -0.0609073 0.0471144 0.0152821 -0.0429025 0.160253 0.000474726 -0.0719038 0.0461586 0.0431139 0.192545 -0.143737 -0.110236 0.0956308
internal_weight=365 203 35 162 168 85 110 83 52 95 54 39 56 37 31 36 52 37 31
internal_count=365 203 35 162 168 85 110 83 52 95 54 39 56 37 31 36 52 37 31
is_linear=0
shrinkage=0.0694391


Tree=9
num_leaves=18
num_cat=0
split_feature=0 3 0 9 8 9 12 12 13 7 9 11 8 6 6 3 3
split_gain=355.357 99.5782 52.9483 57.2626 54.4274 51.7801 50.6535 49.276 37.2227 32.5653 24.3776 27.5116 21.7184 16.4206 11.9765 7.86648 3.98754
threshold=86.15000000000002 0.82899317702918729 57.650000000000013 0.59999999999999798 0.11599999999999996 -0.54999999999999705 -1.021428571428572 2.2464285714285719 2.5336775798613926 4984.0000000000009 1.7500000000000002 -0.057142857142857391 0.16650000000000004 10.950000000000001 14.550000000000002 -0.82897401153126982 -0.49064630004295678
decision_type=2 2 2 2 2 2 2 2 2 2 2 2 2 2 2 2 2
left_child=1 2 3 -1 7 6 15 13 12 -6 11 -10 -3 -4 -7 -2 -17
right_child=5 8 4 -5 9 14 -8 -9 10 -11 -12 -13 -14 -15 -16 16 -18
leaf_value=-0.079729161884082633 -0.035208346898474227 0.10420910609714711 0.27609755461494206 0.085478050440767145 -0.028216737663372151 -0.052981123091528713 -0.21202870214145189 0.079442262812868647 -0.12811389939224366 0.094702831808710253 0.027780324508906509 -0.011873564402040331 -0.0027606411842179719 0.13282733710824934 0.02661053238286817 -0.12809986767711803 -0.074503057209959506
leaf_weight=14.999999999999998 15.999999999999998 15.999999999999998 15.000000000000002 22 14.999999999999998 15.999999999999998 20 27 17 26 17 21 18 15.999999999999998 15.999999999999998 20 37
leaf_count=15 16 16 15 22 15 16 20 27 17 26 17 21 18 16 16 20 37
internal_value=0.00121467 0.0532239 0.0900799 0.0177341 0.116071 -0.0916501 -0.117322 0.158513 -0.0039714 0.0506481 -0.038714 -0.068346 0.0510898 0.216843 -0.0140948 -0.085521 -0.0976737
internal_weight=350 225 136 37 99 125 93 58 89 41 55 38 34 31 32 73 57
internal_count=350 225 136 37 99 125 93 58 89 41 55 38 34 31 32 73 57
is_linear=0
shrinkage=0.0694391


Tree=10
num_leaves=19
num_cat=0
split_feature=8 0 8 2 6 12 3 12 9 12 4 4 1 5 4 1 1 12
split_gain=313.895 72.3883 55.0954 50.6653 76.0306 49.9274 31.5724 30.6886 30.1767 35.6388 28.5313 24.2364 21.5616 19.872 14.9608 14.5512 8.35668 0.915994
threshold=0.16050000000000003 88.15000000000002 0.16999999999999998 13.550000000000002 14.250000000000002 2.8500000000000001 0.68432406471780916 -0.18571428571428547 -0.45000000000000279 -1.0571428571428563 0.80290535434334509 -0.52765736634565841 50.95000000000001 0.065000000000000016 0.14888728888808322 48.550000000000004 73.90000000000002 -2.7392857142857148
decision_type=2 2 2 2 2 2 2 2 2 2 2 2 2 2 2 2 2 2
left_child=3 2 -2 7 5 10 -6 -1 9 16 15 -4 -13 -9 -14 -5 -3 -18
right_child=1 8 11 4 6 -7 -8 13 -10 -11 -12 12 14 -15 -16 -17 17 -19
leaf_value=0.088111671719245804 -0.12128612339100313 -0.038512770900557478 0.08798649543987451 0.057337292105675633 -0.061398147480484208 0.032542339908573664 0.071018978821419998 0.027746228225854729 -0.024453122537013164 -0.20901818596647562 0.226567215411105 0.057385201376185767 -0.063501262155269522 -0.07102507967680903 0.02025120268254918 0.15809677470949948 -0.12454013803045345 -0.078562357852750939
leaf_weight=15.999999999999998 14.999999999999998 17 14.999999999999998 18 15.000000000000002 19 14.999999999999998 18 24 14.999999999999998 24 15.999999999999998 25 17 14.999999999999998 15.999999999999998 20.999999999999996 29.000000000000004
leaf_count=16 15 17 15 18 15 19 15 18 24 15 24 16 25 17 15 16 21 29
internal_value=0.00116473 -0.0581748 -0.0103035 0.0730676 0.0997506 0.135348 0.00516269 0.015141 -0.0959386 -0.115586 0.166425 0.0163052 -0.00568914 -0.0216908 -0.0327183 0.111969 -0.0882393 -0.102637
internal_weight=350 192 86 158 107 77 30 51 106 82 58 71 56 35 40 34 67 50
internal_count=350 192 86 158 107 77 30 51 106 82 58 71 56 35 40 34 67 50
is_linear=0
shrinkage=0.0694391


Tree=11
num_leaves=20
num_cat=0
split_feature=0 3 0 9 9 12 3 12 6 13 1 1 0 1 11 6 1 3 3
split_gain=277.352 80.1705 45.2361 47.7578 40.2029 42.7181 38.6867 40.2299 33.4348 31.804 35.0505 15.9497 15.2567 14.1515 7.16945 5.82678 1.42907 0.940519 1.275
threshold=86.15000000000002 0.82899317702918729 57.650000000000013 0.59999999999999798 -0.54999999999999705 -1.021428571428572 -0.82897401153126982 2.2464285714285719 13.750000000000002 2.5336775798613926 52.100000000000009 70.750000000000014 77.300000000000026 75.200000000000003 3.0285714285714289 15.65 50.95000000000001 -0.65882179392489248 -0.20180236284700906
decision_type=2 2 2 2 2 2 2 2 2 2 2 2 2 2 2 2 2 2 2
left_child=1 2 3 -1 5 13 -4 8 16 12 -11 -6 -3 -2 -9 -12 -8 -15 -19
right_child=4 9 6 -5 11 -7 7 14 -10 10 15 -13 -14 17 -16 -17 -18 18 -20
leaf_value=-0.07534954065674597 -0.03198494764683351 0.084362019323737422 0.0010303039527399965 0.07546575382707664 -0.055200946622275607 -0.19024304422784666 0.23474652258190479 0.01788963187615504 0.07255837439400302 0.02344207527157588 -0.11400173896786046 0.036645653472090624 -0.0060969811427000337 -0.062090628848464904 0.084916515551829136 -0.043005948489360776 0.13335466697769691 -0.13361988953930617 -0.071950113172639871
leaf_weight=14.999999999999998 28 19 14.999999999999998 22 17 20 18 15.999999999999998 19 25 15.000000000000002 14.999999999999998 14.999999999999998 14.999999999999998 15.999999999999998 14.999999999999998 14.999999999999998 15 15
leaf_count=15 28 19 15 22 17 20 18 16 19 25 15 15 15 15 16 15 15 15 15
internal_value=0.00110008 0.0470476 0.0801181 0.0134687 -0.0809417 -0.103563 0.10413 0.122007 0.159077 -0.00425473 -0.0363555 -0.0125898 0.0466577 -0.0745772 0.0549491 -0.084254 0.200688 -0.0981517 -0.110314
internal_weight=350 225 136 37 125 93 99 84 52 89 55 32 34 73 32 30 33 45 30
internal_count=350 225 136 37 125 93 99 84 52 89 55 32 34 73 32 30 33 45 30
is_linear=0
shrinkage=0.0694391


Tree=12
num_leaves=18
num_cat=0
split_feature=4 6 2 5 1 1 9 6 12 4 4 7 9 10 0 8 7
split_gain=220.264 78.6682 47.0779 62.2599 29.692 27.9389 24.2928 20.5073 16.8852 35.1606 16.8687 24.5695 11.9227 9.04438 6.32371 5.41413 4.50426
threshold=0.53312596302726967 22.150000000000002 15.050000000000002 0.12650000000000003 51.400000000000006 46.350000000000001 0.34999999999999792 12.950000000000001 -0.26071428571428523 -0.12545862287572043 -0.26037106507032776 6287.0000000000009 -0.35000000000000137 -2.9500000000000024 87.950000000000017 0.094500000000000015 7835.0000000000009
decision_type=2 2 2 2 2 2 2 2 2 2 2 2 2 2 2 2 2
left_child=1 2 3 12 -4 6 -2 -7 10 -10 11 -6 -1 -13 -12 -8 -15
right_child=5 -3 4 -5 8 7 15 -9 9 -11 14 13 -14 16 -16 -17 -18
leaf_value=0.12008242179671158 0.0016369922061132526 0.11284658741842808 0.013593727904016147 -0.068451987660125835 -0.16723340237116638 0.19975117608416185 0.11356073801678886 0.074613293056859015 0.037696699336845621 -0.092366447145110414 -0.061972949635511906 -0.033598888621611596 0.031900473654489406 -0.11143696283225614 -0.002095965905265576 0.049841600065998991 -0.050360743791184222
leaf_weight=14.999999999999998 20 15.999999999999998 26 21 17 17 27 15.999999999999998 20 15.999999999999998 14.999999999999998 25 17 24 17 15.999999999999998 15.999999999999998
leaf_count=15 20 16 26 21 17 17 27 16 20 16 15 25 17 24 17 16 16
internal_value=0.00901928 -0.0259966 -0.0367545 0.0199402 -0.0538654 0.0968555 0.0655897 0.148147 -0.065588 -0.0222447 -0.0785432 -0.095092 0.0786681 -0.0710027 -0.0325023 0.093695 -0.0911918
internal_weight=341 245 229 53 176 96 63 33 150 36 114 82 32 65 32 43 40
internal_count=341 245 229 53 176 96 63 33 150 36 114 82 32 65 32 43 40
is_linear=0
shrinkage=0.0694391


Tree=13
num_leaves=19
num_cat=0
split_feature=4 6 6 6 2 1 7 2 1 7 9 6 2 9 3 2 9 8
split_gain=193.805 69.3864 44.8032 45.9538 41.8256 34.0607 32.1616 28.839 24.7631 21.8444 21.3224 18.5153 11.6212 12.1286 6.78463 6.63798 5.73279 3.59802
threshold=0.53312596302726967 22.150000000000002 18.750000000000004 14.550000000000002 15.550000000000002 54.600000000000009 4464.5000000000009 19.300000000000011 46.350000000000001 7195.0000000000009 0.34999999999999792 12.65 22.250000000000004 -1.5499999999999969 0.048362692321690111 26.750000000000004 -2.0499999999999967 0.19650000000000004
decision_type=2 2 2 2 2 2 2 2 2 2 2 2 2 2 2 2 2 2
left_child=1 2 3 5 -5 15 -7 -8 10 17 -2 -10 13 -9 -12 -1 -14 -6
right_child=8 -3 -4 4 9 6 7 12 11 -11 14 -13 16 -15 -16 -17 -18 -19
leaf_value=0.048161864780936162 0.0015353688539559986 0.10602196122505435 -0.13314927009568311 0.10366974217879704 -0.017126254249532485 -0.14600213449857791 0.020984346084095523 -0.050549874923596021 0.19450984230077384 0.050556870557382269 0.040598288243702131 0.075724025938609996 -0.059611590720244044 -0.1390867397285234 0.1079159377679558 -0.013272944112335516 -0.007223235786876666 -0.066721609392529246
leaf_weight=15.000000000000002 20 15.999999999999998 18 19 15.000000000000002 17 23 21 14.999999999999998 14.999999999999998 14.999999999999998 18 20.999999999999996 14.999999999999998 28 14.999999999999998 19.000000000000004 15.999999999999998
leaf_count=15 20 16 18 19 15 17 23 21 15 15 15 18 21 15 28 15 19 16
internal_value=0.00847355 -0.0243721 -0.0344757 -0.024672 0.0233113 -0.0460656 -0.0628605 -0.0455026 0.0908654 -0.0133349 0.0614508 0.139137 -0.0656498 -0.0937552 0.0877819 0.0187221 -0.0365239 -0.0456458
internal_weight=341 245 229 211 65 146 116 99 96 46 63 33 76 36 43 30 40 31
internal_count=341 245 229 211 65 146 116 99 96 46 63 33 76 36 43 30 40 31
is_linear=0
shrinkage=0.0694391


Tree=14
num_leaves=19
num_cat=0
split_feature=4 6 2 5 1 12 1 13 12 4 3 7 9 12 7 12 12 13
split_gain=170.67 61.2315 40.1818 52.1454 24.3009 23.0957 31.77 21.8129 14.6638 30.229 17.0843 21.2989 10.391 6.02569 4.32207 4.97943 10.3314 3.2587
threshold=0.53312596302726967 22.150000000000002 15.050000000000002 0.12650000000000003 51.400000000000006 2.5142857142857138 36.150000000000006 2.6089132736449536 -0.26071428571428523 -0.12545862287572043 -0.86976336936302323 6394.0000000000009 -0.35000000000000137 2.8928571428571437 8040.0000000000009 -2.0321428571428561 -2.7392857142857148 1.6475081751336245
decision_type=2 2 2 2 2 2 2 2 2 2 2 2 2 2 2 2 2 2
left_child=1 2 3 12 -4 6 -2 -8 10 -10 17 -12 -1 -7 15 16 -13 -6
right_child=5 -3 4 -5 8 13 7 -9 9 -11 11 14 -14 -15 -16 -17 -18 -19
leaf_value=0.11232128613036253 0.033097733036831806 0.099610069568025927 0.012803865755999948 -0.06103179730975087 -0.0032553318319181726 0.0015841531170572778 0.06846486202906063 0.18088814540975104 0.036828307664240716 -0.083696200878496552 -0.15446224290935565 -0.087890865025527745 0.029953527910140974 0.060889517690190048 -0.02908789756943618 -0.10579037883581532 -0.0078477490229915854 -0.046513156511699162
leaf_weight=14.999999999999998 21 15.999999999999998 26 21 17 16.000000000000004 18 26 20 15.999999999999998 17 14.999999999999998 17 14.999999999999998 17 18.000000000000004 14.999999999999998 14.999999999999998
leaf_count=15 21 16 26 21 17 16 18 26 20 16 17 15 17 15 17 18 15 15
internal_value=0.00794122 -0.0228816 -0.0323731 0.0199561 -0.0481871 0.0852592 0.108358 0.140749 -0.0587936 -0.0185999 -0.0708488 -0.0873961 0.0736483 0.0325677 -0.065037 -0.0758004 -0.0513756 -0.0253424
internal_weight=341 245 229 53 176 96 65 44 150 36 114 82 32 31 65 48 30 32
internal_count=341 245 229 53 176 96 65 44 150 36 114 82 32 31 65 48 30 32
is_linear=0
shrinkage=0.0694391


Tree=15
num_leaves=17
num_cat=0
split_feature=0 13 10 11 11 3 3 7 0 0 5 13 9 10 13 2
split_gain=215.036 46.4395 36.2701 27.9592 51.9562 41.2235 25.9596 33.4343 36.3434 26.3017 25.5896 15.3219 14.6229 14.0822 12.0175 1.18665
threshold=81.950000000000003 3.5821980468984238 2.9000000000000026 -1.0857142857142863 -0.15714285714285528 0.89787622492179153 -0.78326540922535159 7141.5000000000009 95.100000000000009 86.15000000000002 0.022000000000000002 3.2518484728124446 1.2500000000000002 -2.0499999999999967 2.2134324659890381 25.550000000000001
decision_type=2 2 2 2 2 2 2 2 2 2 2 2 2 2 2 2
left_child=1 3 12 -1 -5 10 13 9 -9 -8 11 14 -3 -2 -6 -10
right_child=6 2 -4 4 5 -7 7 8 15 -11 -12 -13 -14 -15 -16 -17
leaf_value=-0.055631083382511076 0.032046737028446362 0.072086441312315411 0.021710005506463088 0.13769373643391025 0.033885401369748873 -0.050944786105950747 -0.043645590678553614 0.021793488590359362 -0.061120623705194617 -0.16300699637227969 -0.024726636221828267 0.010303244773692393 0.17981010729020999 -0.043830902989621202 0.11918013534610662 -0.10411133007960306
leaf_weight=14.999999999999998 18 14.999999999999998 19 19 14.999999999999998 28 15.999999999999998 25 28 27 18 17 21 26 24 14.999999999999998
leaf_count=15 18 15 19 19 15 28 16 25 28 27 18 17 21 26 24 15
internal_value=0.00151123 0.0505504 0.103162 0.0278703 0.039092 0.0180142 -0.0587688 -0.076367 -0.0436019 -0.123195 0.0448784 0.067347 0.142153 -0.0127386 0.0901967 -0.0807744
internal_weight=346 191 55 136 121 102 155 111 68 43 74 56 36 44 39 43
internal_count=346 191 55 136 121 102 155 111 68 43 74 56 36 44 39 43
is_linear=0
shrinkage=0.0694391


Tree=16
num_leaves=18
num_cat=0
split_feature=0 13 10 11 11 4 0 12 2 11 13 0 6 8 7 11 10
split_gain=188.987 41.2347 29.4584 27.4899 43.2661 37.2023 24.1064 27.5691 32.1658 20.5644 19.7873 18.0714 17.0934 13.6753 9.4711 4.64893 2.10724
threshold=81.950000000000003 3.7123339737204919 2.9000000000000026 -1.0857142857142863 -0.15714285714285528 0.38043945030393422 95.850000000000009 -1.896428571428572 23.850000000000001 1.092857142857143 3.2897310900553434 58.550000000000004 16.050000000000004 0.28750000000000003 6287.0000000000009 -0.86428571428571577 -2.6499999999999981
decision_type=2 2 2 2 2 2 2 2 2 2 2 2 2 2 2 2 2
left_child=1 3 -3 -1 -5 14 7 -2 12 -7 11 -11 -9 -8 -6 -10 -15
right_child=6 2 -4 4 5 9 13 8 15 10 -12 -13 -14 16 -16 -17 -18
leaf_value=-0.051192209779766316 0.034246145346689176 0.14921636497140667 0.024360789956699078 0.12853092050263817 -0.070810355026732566 0.10632568372769803 -0.14460430490103515 -0.12146856883948753 -0.02130915633373124 -0.0061063624803461766 -0.032698808124394768 0.083051777106501676 -0.034068776971471475 -0.033600968594250991 0.0012062958164245122 0.028176565762497916 -0.07641897122820096
leaf_weight=15.999999999999998 21 26 14.999999999999998 20 17 19 15.999999999999998 27 17 17 18 27 21 14.999999999999995 15.999999999999998 14.999999999999998 23.000000000000004
leaf_count=16 21 26 15 20 17 19 16 27 17 17 18 27 21 15 16 15 23
internal_value=0.0014448 0.0474177 0.107367 0.029616 0.039987 0.0221507 -0.0550666 -0.0337313 -0.0520475 0.0471052 0.025709 0.0500534 -0.0866348 -0.0918743 -0.0381529 0.00223075 -0.0624833
internal_weight=346 191 41 150 134 114 155 101 80 81 62 44 48 54 33 32 38
internal_count=346 191 41 150 134 114 155 101 80 81 62 44 48 54 33 32 38
is_linear=0
shrinkage=0.0694391


Tree=17
num_leaves=18
num_cat=0
split_feature=0 13 10 3 7 0 0 8 13 2 6 11 8 2 9 6 4
split_gain=165.955 37.6061 28.4985 23.7352 29.4682 29.8501 23.0653 22.8415 30.3299 37.1802 42.9185 26.1116 20.0403 19.0331 13.0999 13.0528 7.99188
threshold=81.950000000000003 3.5821980468984238 2.9000000000000026 -0.78326540922535159 7141.5000000000009 94.65000000000002 86.15000000000002 0.16050000000000003 3.3608743176715117 13.9 13.450000000000001 2.3785714285714294 0.18350000000000002 20.699999999999999 1.2500000000000002 11.350000000000003 -0.85225707553516283
decision_type=2 2 2 2 2 2 2 2 2 2 2 2 2 2 2 2 2
left_child=1 7 14 15 6 -6 -5 8 9 10 -1 13 -9 -11 -3 -2 -7
right_child=3 2 -4 4 5 16 -8 12 -10 11 -12 -13 -14 -15 -16 -17 -18
leaf_value=-0.066439894276199396 -0.037986171609945406 0.061835481339761557 0.01949725147503116 -0.038353007426045548 0.023040766941383652 -0.042258194060685601 -0.14950814023886413 -0.078109798425303523 -0.045333177110648833 0.16096822013655077 0.080517938020906177 0.011974702623144528 0.021913818583905991 0.049996486162465638 0.16140343167039689 0.034950629213416809 -0.10818964309014474
leaf_weight=19 26 14.999999999999998 19 15.999999999999998 24 28 27 14.999999999999998 14.999999999999998 22 14.999999999999998 14.999999999999998 20 14.999999999999998 21 18 15.999999999999998
leaf_count=19 26 15 19 16 24 28 27 15 15 22 15 15 20 15 21 18 16
internal_value=0.00132691 0.0444077 0.091736 -0.0516289 -0.0684405 -0.0378476 -0.112314 0.0240235 0.0405411 0.0563336 -0.000583077 0.091951 -0.0231894 0.1217 0.126301 -0.00788691 -0.0705394
internal_weight=346 191 55 155 111 68 43 136 101 86 34 52 35 37 36 44 44
internal_count=346 191 55 155 111 68 43 136 101 86 34 52 35 37 36 44 44
is_linear=0
shrinkage=0.0694391


Tree=18
num_leaves=18
num_cat=0
split_feature=0 0 3 0 4 2 8 1 2 4 11 12 2 9 4 11 13
split_gain=140.306 34.3379 37.1176 36.3184 50.2486 25.7769 25.174 24.8574 23.0684 22.9314 55.8757 31.9939 23.0277 16.2372 14.2695 12.1654 8.30653
threshold=80.300000000000026 97.950000000000017 0.83849049182116964 90.050000000000011 -0.39036009226888668 25.750000000000007 0.036500000000000012 34.20000000000001 28.400000000000009 0.21652257995689159 0.16428571428571306 2.2464285714285719 18.750000000000004 0.34999999999999792 -0.61236746317008228 -0.057142857142857391 1.4760757535547684
decision_type=2 2 2 2 2 2 2 2 2 2 2 2 2 2 2 2 2
left_child=5 2 3 4 13 6 -1 -8 -7 10 -9 12 -11 -2 -5 -4 -3
right_child=1 16 15 14 -6 8 7 9 -10 11 -12 -13 -14 -15 -16 -17 -18
leaf_value=-0.013896507614298049 0.13469752434923332 -0.1295986086063412 -0.037017038667883452 -0.07397831756627031 -0.03631183781330577 -0.064585866125624405 -0.0078146404480413136 0.099498534999466273 0.045672533751704936 0.17703800899930758 -0.061829729289348483 0.038124268011193008 0.065030237197453711 0.031755524278895136 -0.00085421623569178519 -0.12450303241429891 -0.055312141066803266
leaf_weight=18 17 17 19 27 24 14.999999999999998 15.999999999999998 24 17 29 14.999999999999998 25 18 14.999999999999998 23 14.999999999999998 22
leaf_count=18 17 17 19 27 24 15 16 24 17 29 15 25 18 15 23 15 22
internal_value=0.00559349 -0.0375117 -0.0206858 8.10092e-05 0.037746 0.0491054 0.0613776 0.0721056 -0.00690106 0.0835481 0.0374617 0.106521 0.139325 0.0919629 -0.0419028 -0.0812141 -0.0932651
internal_weight=356 179 140 106 56 177 145 127 32 111 39 72 47 32 50 34 39
internal_count=356 179 140 106 56 177 145 127 32 111 39 72 47 32 50 34 39
is_linear=0
shrinkage=0.0694391


Tree=19
num_leaves=19
num_cat=0
split_feature=0 2 13 2 8 8 2 3 8 3 7 12 4 1 0 13 4 2
split_gain=123.066 30.3436 22.9265 22.6206 22.078 22.8325 20.3672 20.2011 18.3008 15.5953 21.5833 19.7998 14.0483 20.0354 13.9758 11.315 7.73837 4.32117
threshold=80.300000000000026 15.050000000000002 1.3666084157351206 25.750000000000007 0.036500000000000012 0.05649999999999996 28.400000000000009 -0.63921128368950708 0.072500000000000009 0.89017062131308955 6065.0000000000009 2.1000000000000001 -0.93237865822738086 69.350000000000009 93.550000000000011 3.3072063346964016 -0.26037106507032776 19.250000000000007
decision_type=2 2 2 2 2 2 2 2 2 2 2 2 2 2 2 2 2 2
left_child=3 -2 7 4 -1 -6 -5 -3 -7 11 -11 17 -4 15 -15 16 -14 -10
right_child=1 2 12 6 5 8 -8 -9 9 10 -12 -13 13 14 -16 -17 -18 -19
leaf_value=-0.013043861457065507 0.036478758894721033 -0.035469720476826033 -0.076521585624500052 -0.060713228343891562 0.14147124078583306 0.001496827463620942 0.042889261870256101 -0.14726643055933414 0.15262855317025059 -0.030957295673003822 0.077822412129571195 0.034371270090678009 -0.099551466482022344 0.064730955012396688 -0.015289308061749598 -0.0028360345383903131 -0.032716943501585709 0.076509531203398387
leaf_weight=18 23 17 24 14.999999999999998 15.999999999999998 25 17 15.999999999999998 17 15.000000000000002 15.999999999999998 22 15.999999999999998 15.999999999999998 23 22 22 15.999999999999998
leaf_count=18 23 17 24 15 16 25 17 16 17 15 16 22 16 16 23 22 22 16
internal_value=0.0051987 -0.0351712 -0.046123 0.04595 0.0574465 0.0674932 -0.00651246 -0.0959125 0.054094 0.0689334 0.0267272 0.0906346 -0.0312035 -0.0186844 0.0193678 -0.0432145 -0.0650519 0.123325
internal_weight=356 179 156 177 145 127 32 33 111 86 31 55 123 99 39 60 38 33
internal_count=356 179 156 177 145 127 32 33 111 86 31 55 123 99 39 60 38 33
is_linear=0
shrinkage=0.0694391


Tree=20
num_leaves=17
num_cat=0
split_feature=8 9 10 11 3 1 13 2 6 6 1 4 11 7 7 1
split_gain=108.046 24.2293 46.0727 49.6875 43.7476 22.3816 29.5278 19.6141 19.092 24.4815 18.95 20.4185 13.9341 11.5164 11.0718 11.0658
threshold=0.16450000000000004 1.2500000000000002 -0.24999999999999992 -1.0357142857142854 0.27694220057652758 66.250000000000014 1.4760757535547684 19.450000000000006 11.65 16.650000000000002 69.350000000000009 -0.93237865822738086 2.3142857142857136 6944.0000000000009 5988.0000000000009 73.15000000000002
decision_type=2 2 2 2 2 2 2 2 2 2 2 2 2 2 2 2
left_child=1 2 3 -1 -4 7 -7 -2 12 -10 -8 -12 -3 14 -9 -13
right_child=5 8 4 -5 -6 6 10 13 9 -11 11 15 -14 -15 -16 -17
leaf_value=-0.0086490877574038061 0.062417432349767155 0.072059787403379968 0.039406353258131716 0.14153248013222061 -0.085125152802328616 -0.11608329450759529 -0.086425749316391187 -0.0081389225660536673 0.13960747353293829 0.030236917002020997 -0.057329012544117923 0.063249342193296629 -0.015862429437929645 0.0191915640006378 -0.075017138073103479 -0.0093692011010895471
leaf_weight=19 14.999999999999998 15.000000000000002 25 21 25 24 19 27 28 17 24 14.999999999999998 15.999999999999998 23 20 23
leaf_count=19 15 15 25 21 25 24 19 27 28 17 24 15 16 23 20 23
internal_value=0.0048901 0.0454807 0.0202612 0.0737041 -0.0238943 -0.0306968 -0.0517744 -0.00396118 0.0738294 0.101871 -0.0299605 -0.0101105 0.0287777 -0.0197641 -0.0388337 0.0213271
internal_weight=356 166 90 40 50 190 105 85 76 45 81 62 31 70 47 38
internal_count=356 166 90 40 50 190 105 85 76 45 81 62 31 70 47 38
is_linear=0
shrinkage=0.0694391


Tree=21
num_leaves=19
num_cat=0
split_feature=0 7 13 10 0 10 0 0 1 0 2 9 8 7 7 6 7 6
split_gain=93.0823 48.6165 35.2142 34.1973 31.8698 29.8723 23.4002 21.9249 26.4558 39.0149 14.521 13.7131 22.9875 23.2947 16.1672 12.9768 8.31399 6.51862
threshold=82.450000000000017 2716.5000000000005 4.2685721084023163 -1.1499999999999984 67.250000000000014 -1.0000000180025095e-35 72.050000000000011 97.950000000000017 70.450000000000003 90.050000000000011 23.850000000000001 1.2500000000000002 0.16050000000000003 4060.0000000000005 5206.5000000000009 11.350000000000003 5960.5000000000009 14.450000000000001
decision_type=2 2 2 2 2 2 2 2 2 2 2 2 2 2 2 2 2 2
left_child=1 4 7 6 -1 -5 -3 8 10 -10 17 14 13 -13 -7 -9 -12 -2
right_child=2 3 -4 5 -6 11 -8 15 9 -11 16 12 -14 -15 -16 -17 -18 -19
leaf_value=-0.088055848107092563 -0.038013526983038455 0.038763940981633341 -0.13749742672009921 -0.05744823963693791 0.024423044220292098 -0.032432927495524622 0.15923010301881174 -0.023091150970322404 0.099662624162843494 -0.028638210830960006 0.022122788694900249 0.028066536755753557 -0.010221610678545167 0.13710121511933954 0.049337044448070376 -0.10391107444909362 -0.044216430809112597 -0.10744613790544769
leaf_weight=24 17 17 15.999999999999998 15.999999999999998 21 21 15.999999999999998 17 17 26 17 19 14.999999999999998 20 21 26 14.999999999999998 14.999999999999998
leaf_count=24 17 17 16 16 21 21 16 17 17 26 17 19 15 20 21 26 15 15
internal_value=-0.00834834 0.0247117 -0.0460033 0.0441413 -0.0369705 0.0247355 0.10393 -0.0342562 -0.0166798 0.0246428 -0.044332 0.0394874 0.0618996 0.0886347 0.00890365 -0.0748355 -0.00987871 -0.075727
internal_weight=356 190 166 145 45 112 33 150 107 43 64 96 54 39 42 43 32 32
internal_count=356 190 166 145 45 112 33 150 107 43 64 96 54 39 42 43 32 32
is_linear=0
shrinkage=0.0694391


Tree=22
num_leaves=19
num_cat=0
split_feature=0 7 10 10 0 10 0 2 6 9 8 7 7 0 9 9 0 8
split_gain=81.9966 42.7367 32.6576 30.2273 27.98 26.3309 20.6643 15.0926 14.2025 12.0633 20.2347 20.7692 14.2127 6.62677 5.96847 18.5959 5.5238 3.19543
threshold=82.450000000000017 2716.5000000000005 -4.8500000000000005 -1.1499999999999984 67.250000000000014 -1.0000000180025095e-35 72.050000000000011 17.150000000000002 18.600000000000005 1.2500000000000002 0.16050000000000003 3843.0000000000005 5206.5000000000009 88.15000000000002 -1.6499999999999984 -2.4500000000000024 92.40000000000002 0.28750000000000003
decision_type=2 2 2 2 2 2 2 2 2 2 2 2 2 2 2 2 2 2
left_child=1 4 -2 6 -1 -5 -3 -4 13 12 11 -11 -7 -9 15 17 -16 -15
right_child=2 3 7 5 -6 9 -8 8 -10 10 -12 -13 -14 14 16 -17 -18 -19
leaf_value=-0.082491091077467965 -0.13403905625982279 0.03640167705773921 0.020581897792879843 -0.053973944685185453 0.022899183585708145 -0.030409296105874426 0.14960033965592534 0.0019216652863055519 -0.10047218873806441 0.018205952749975642 -0.0096087105614034579 0.12238411709374043 0.046258689819055905 -0.07239260820249592 -0.09078223274362808 0.036493410570779747 -0.034275085625099337 -0.026229121943558947
leaf_weight=24 14.999999999999998 17 21 15.999999999999998 21 21 15.999999999999998 23 14.999999999999998 15.999999999999998 14.999999999999998 23 21 14.999999999999998 14.999999999999998 15.999999999999998 26 20
leaf_count=24 15 17 21 16 21 21 16 23 15 16 15 23 21 15 15 16 26 20
internal_value=-0.00782022 0.0232087 -0.0431619 0.0414252 -0.0346244 0.0231826 0.0976351 -0.0322018 -0.0409443 0.037033 0.0580539 0.0831373 0.00834811 -0.031307 -0.0394537 -0.0219948 -0.0587812 -0.0493513
internal_weight=356 190 166 145 45 112 33 151 130 96 54 39 42 115 92 51 41 35
internal_count=356 190 166 145 45 112 33 151 130 96 54 39 42 115 92 51 41 35
is_linear=0
shrinkage=0.0694391


Tree=23
num_leaves=21
num_cat=0
split_feature=10 8 7 6 0 1 8 0 10 10 9 10 12 8 11 6 13 9 12 3
split_gain=73.9671 58.7775 39.556 30.866 22.5269 20.712 22.6298 18.9259 18.4123 16.1026 15.0334 12.1934 7.75572 7.56552 8.63018 6.49643 5.10532 4.50777 7.6157 2.3999
threshold=-5.950000000000002 0.16050000000000003 2919.5000000000005 18.750000000000004 70.500000000000014 36.850000000000001 0.14050000000000004 88.15000000000002 -0.14999999999999852 0.75000000000000011 2.9000000000000026 1.0000000180025095e-35 -0.26071428571428523 0.21150000000000002 -3.1142857142857143 13.350000000000003 3.1582785938792477 -1.5499999999999969 -2.1785714285714275 0.79904096188274243
decision_type=2 2 2 2 2 2 2 2 2 2 2 2 2 2 2 2 2 2 2 2
left_child=-1 2 4 7 16 9 8 11 -7 -4 -10 19 -13 -9 -15 17 -2 18 -16 -3
right_child=1 3 5 -5 -6 6 -8 13 10 -11 -12 12 -14 14 15 -17 -18 -19 -20 -21
leaf_value=-0.14713223373520681 -0.066946753522741612 0.01970763810674879 -0.039213787263377355 -0.10262426589209923 0.04913392755660511 0.15709500655273878 0.0051237238625356308 -0.07534640604827153 0.011041493841098546 0.051934687803279027 0.10282168948243986 -0.048496951264095034 0.01204384857148301 -0.068696559428719037 0.023569387713131686 0.015899781186611443 -0.012591461412774455 -0.053906136728839905 -0.040761392898243577 0.062447555471926007
leaf_weight=14.999999999999998 21 15.000000000000002 14.999999999999998 20 14.999999999999998 17 15.999999999999998 15.999999999999998 15.999999999999998 18 18 14.999999999999998 23 14.999999999999998 14.999999999999995 23 14.999999999999998 17.000000000000007 15.999999999999998 14.999999999999998
leaf_count=15 21 15 15 20 15 17 16 16 16 18 18 15 23 15 15 23 15 17 16 15
internal_value=-0.00735985 -0.000237984 0.0318287 -0.0258007 -0.0174221 0.0567683 0.0783418 -0.0154754 0.100064 0.0106521 0.0631665 0.0126507 -0.0132985 -0.0340875 -0.0245958 -0.0133598 -0.0464763 -0.0274686 -0.0101706 0.0440864
internal_weight=356 341 151 190 51 100 67 170 51 33 34 68 38 102 86 71 36 48 31 30
internal_count=356 341 151 190 51 100 67 170 51 33 34 68 38 102 86 71 36 48 31 30
is_linear=0
shrinkage=0.0694391


Tree=24
num_leaves=19
num_cat=0
split_feature=8 8 0 7 0 7 1 12 11 8 6 6 8 12 7 7 7 6
split_gain=106.638 43.5433 32.1542 25.2297 28.2247 25.973 21.5107 30.0508 18.7147 16.7039 15.3162 18.5239 11.7891 9.23889 5.1401 5.01885 5.78547 4.78516
threshold=0.16050000000000003 0.16999999999999998 98.350000000000009 2716.5000000000005 82.450000000000017 1314.5000000000002 36.150000000000006 2.2464285714285719 -2.7571428571428571 0.11599999999999996 19.000000000000004 14.550000000000002 0.18650000000000003 1.0000000000000002 6955.0000000000009 7835.0000000000009 6636.0000000000009 10.350000000000003
decision_type=2 2 2 2 2 2 2 2 2 2 2 2 2 2 2 2 2 2
left_child=3 -2 10 5 6 -1 -5 9 -4 -8 11 12 -3 -7 -13 16 17 -14
right_child=1 2 8 4 -6 13 7 -9 -10 -11 -12 14 15 -15 -16 -17 -18 -19
leaf_value=0.065104955707099441 -0.1281550988265161 0.03414375511336791 -0.019642056357381636 0.018459410749568243 -0.019123154612761345 -0.069482637166149774 0.16233124097928442 0.018082380691076396 -0.11059644273990053 0.074096766945172407 -0.062929558783428013 0.020771538300744446 -0.040953486671596963 0.004276431193850916 0.071266522903835242 0.0079481958547971288 -0.065804664857568584 0.0098275422293850438
leaf_weight=18 17 18 22 24 15.999999999999998 15.000000000000002 26 19 22 28 14.999999999999998 27 15.999999999999998 14.999999999999998 15.999999999999998 14.999999999999998 18 15.999999999999998
leaf_count=18 17 18 22 24 16 15 26 19 22 28 15 27 16 15 16 15 18 16
internal_value=0.00454961 -0.0289135 -0.0182877 0.0463447 0.0639487 0.00384261 0.0777806 0.0960892 -0.068449 0.121621 -0.00176142 0.00654831 -0.0126355 -0.0349911 0.0423028 -0.0263356 -0.0365149 -0.0166365
internal_weight=363 202 185 161 113 48 97 73 44 54 141 126 83 30 43 65 50 32
internal_count=363 202 185 161 113 48 97 73 44 54 141 126 83 30 43 65 50 32
is_linear=0
shrinkage=0.0694391


Tree=25
num_leaves=19
num_cat=0
split_feature=8 8 0 0 1 1 0 1 9 6 11 0 6 6 10 11 12 3
split_gain=93.6247 38.7683 27.5151 19.115 20.9168 34.5524 26.9745 22.9815 25.6873 24.8116 16.442 13.3804 12.0865 18.1689 7.83187 7.36597 6.19847 4.3995
threshold=0.16050000000000003 0.16850000000000004 98.350000000000009 81.550000000000011 61.900000000000006 50.500000000000007 70.750000000000014 46.350000000000001 1.5999999999999981 11.950000000000001 -2.7571428571428571 75.550000000000011 18.600000000000005 14.550000000000002 1.1500000000000024 -1.4999999999999998 -0.59999999999999953 0.81925054981890411
decision_type=2 2 2 2 2 2 2 2 2 2 2 2 2 2 2 2 2 2
left_child=3 -2 11 4 5 7 -7 8 14 -10 -4 -3 13 15 -1 -13 -17 -15
right_child=1 2 10 -5 -6 6 -8 -9 9 -11 -12 12 -14 17 -16 16 -18 -19
leaf_value=0.027602415936722205 -0.12656309806311106 0.054737930219380004 -0.018410824692758329 -0.023589476072682941 0.11132624726957577 -0.062426222166914326 0.047551113769832072 0.1314244468656342 0.021120668799911268 0.13918666802015958 -0.10366387814325667 0.006659685939830207 -0.057895749138694587 0.055655272550553636 -0.03662795831942707 -0.059146204137876586 -0.0065989169185498289 0.0066659762869758438
leaf_weight=17 14.999999999999998 14.999999999999998 22 17 22 22 17 17 18 15.999999999999998 22 28 19 22 14.999999999999998 24.999999999999996 19.000000000000004 14.999999999999998
leaf_count=17 15 15 22 17 22 22 17 17 18 16 22 28 19 22 15 25 19 15
internal_value=0.00422 -0.0271347 -0.0176743 0.0433823 0.0515428 0.0388453 -0.0145095 0.0636224 0.0422061 0.0821328 -0.0641583 -0.00255841 -0.0101462 -0.000767532 -0.00295527 -0.0209444 -0.037953 0.0373923
internal_weight=363 202 187 161 144 122 39 83 66 34 44 143 128 109 32 72 44 37
internal_count=363 202 187 161 144 122 39 83 66 34 44 143 128 109 32 72 44 37
is_linear=0
shrinkage=0.0694391


Tree=26
num_leaves=21
num_cat=0
split_feature=8 8 0 0 5 5 11 12 8 2 1 0 4 12 11 10 9 12 8 11
split_gain=83.0893 41.6683 25.4224 16.5756 20.976 28.4153 20.4469 17.5712 14.459 16.8914 13.547 12.2168 10.6833 15.7136 13.4721 9.64328 8.96215 8.73749 6.81631 7.88105
threshold=0.16250000000000003 0.17149999999999996 99.950000000000017 81.550000000000011 0.28850000000000003 0.092500000000000013 -0.35000000000000037 0.3964285714285723 0.077000000000000013 17.350000000000001 46.95000000000001 75.550000000000011 0.14888728888808322 -1.9392857142857156 0.54285714285714359 1.5999999999999981 -2.5499999999999967 -2.7392857142857148 0.23650000000000002 -0.2999999999999981
decision_type=2 2 2 2 2 2 2 2 2 2 2 2 2 2 2 2 2 2 2 2
left_child=3 -2 11 4 5 6 -1 -8 15 -10 -11 -3 13 17 18 -9 -4 -13 19 -15
right_child=1 2 16 -5 -6 -7 7 8 9 10 -12 12 -14 14 -16 -17 -18 -19 -20 -21
leaf_value=-0.018918469279654238 -0.12589616376134549 0.051455782472101474 -0.026894964340671613 -0.022151940087035759 0.11834111864761912 -0.044745338117552873 0.12439880276110456 0.11890928925055079 -0.034183655292412962 0.0087512876598731301 0.092758040192348512 -0.019873311080202488 0.030729932642933704 -0.034553767998681512 0.014218872355719874 0.034749152486941236 -0.10356763629904218 0.044628040271166416 -0.02223960961637321 -0.10737837330010135
leaf_weight=17 15.999999999999998 14.999999999999998 15.999999999999998 17 15.999999999999998 15.999999999999998 15.999999999999998 15.000000000000002 15.999999999999998 21 14.999999999999998 15.999999999999998 23 17.999999999999996 18 14.999999999999998 15.999999999999998 21 25 15.000000000000002
leaf_count=17 16 15 16 17 16 16 16 15 16 21 15 16 23 18 18 15 16 21 25 15
internal_value=0.00397519 -0.0260535 -0.0158254 0.0402644 0.0477197 0.0371437 0.0492107 0.0611968 0.0457153 0.0218469 0.047323 -0.00350023 -0.0103394 -0.0191584 -0.0368534 0.0824567 -0.0697312 0.0172184 -0.0526394 -0.0726349
internal_weight=363 199 183 164 147 131 115 98 82 52 36 151 136 113 76 30 32 37 58 33
internal_count=363 199 183 164 147 131 115 98 82 52 36 151 136 113 76 30 32 37 58 33
is_linear=0
shrinkage=0.0694391


Tree=27
num_leaves=20
num_cat=0
split_feature=4 10 9 2 0 7 0 3 10 12 8 2 8 2 13 12 6 13 2
split_gain=57.1734 37.1144 34.8524 26.9444 29.3188 21.9744 21.9299 61.2567 29.2459 15.2074 19.4517 28.0549 12.518 10.7842 8.74871 7.27042 7.21761 3.31115 0.575638
threshold=0.23328369003117272 -5.950000000000002 0.34999999999999792 22.650000000000002 61.850000000000009 3334.5000000000005 90.050000000000011 0.82899317702918729 -0.95000000000000273 1.3714285714285712 0.05649999999999996 19.950000000000006 0.11850000000000001 20.699999999999999 2.1145185739118468 -2.4071428571428579 15.750000000000002 1.4760757535547684 21.950000000000006
decision_type=2 2 2 2 2 2 2 2 2 2 2 2 2 2 2 2 2 2 2
left_child=1 -1 3 4 -2 -3 7 13 -9 12 -11 -12 -4 -7 15 -8 -10 -17 -16
right_child=2 5 9 -5 -6 6 14 8 16 10 11 -13 -14 -15 18 17 -18 -19 -20
leaf_value=-0.12562549764382902 -0.042664984071346508 -0.093780855285330963 0.13296911287478574 -0.071985111270263066 0.078794538790179752 0.10972794158550685 -0.047360741466441411 0.036961690731499505 -0.094629881398969218 0.084666102024694642 -0.055549914170182693 0.048323566671174059 0.039145157476900269 0.028247412707339544 -0.042409701758345346 -0.017144924932839953 -0.030862239975445929 0.024630391710154201 -0.080071383270279864
leaf_weight=14.999999999999998 15.999999999999998 14.999999999999998 15.000000000000002 22 18 21 22 18 19 20 19 28 15.999999999999998 14.999999999999998 15.000000000000002 17 20 14.999999999999998 14.999999999999998
leaf_count=15 16 15 15 22 18 21 22 18 19 20 19 28 16 15 15 17 20 15 15
internal_value=-0.00449026 -0.0281897 0.0273099 -0.0159844 0.0225818 -0.0191379 -0.0116562 0.0114849 -0.0330095 0.0518426 0.0313466 0.00568097 0.0907658 0.0796211 -0.0368887 -0.0187772 -0.0655715 0.00278543 -0.0657262
internal_weight=361 207 154 56 34 192 177 93 57 98 67 47 31 36 84 54 39 32 30
internal_count=361 207 154 56 34 192 177 93 57 98 67 47 31 36 84 54 39 32 30
is_linear=0
shrinkage=0.0694391


Tree=28
num_leaves=18
num_cat=0
split_feature=4 1 1 9 8 2 3 11 3 13 2 4 6 9 6 1 11
split_gain=51.2846 25.0793 67.7384 25.7712 21.1068 31.377 19.82 17.359 17.1566 15.0965 13.9865 10.9298 9.15635 15.9946 12.1398 7.48118 3.15515
threshold=0.08054732823231521 46.350000000000001 50.500000000000007 1.5999999999999981 0.11150000000000002 15.449999999999998 0.7090011537757156 1.6285714285714288 -0.074117382312902935 4.2843433628584746 17.850000000000005 0.89691351184655443 13.350000000000003 -0.45000000000000279 11.750000000000002 65.500000000000014 -2.7071428571428577
decision_type=2 2 2 2 2 2 2 2 2 2 2 2 2 2 2 2 2
left_child=4 3 -3 11 -1 -6 -5 8 -4 10 -7 -2 14 -14 15 -12 -17
right_child=1 2 7 6 5 9 -8 -9 -10 -11 12 -13 13 -15 -16 16 -18
leaf_value=-0.10277040086552119 -0.010317389609986922 0.15280574485364384 0.028117306016872765 0.065955642099565809 0.044341753020003732 0.033836794589993641 -0.025555268895371176 0.05632293475829013 -0.053635848664715206 -0.09229112950624542 0.014134059633175546 -0.082363150538434973 0.035152972023288286 -0.053676179184668264 -0.084774680643988048 -0.016339533265440766 -0.059234352797507626
leaf_weight=14.999999999999998 23 20 23 27 27 14.999999999999998 17 26 22 17 14.999999999999998 17 20 14.999999999999998 25 16.999999999999993 20.000000000000007
leaf_count=15 23 20 23 27 27 15 17 26 22 17 15 17 20 15 25 17 20
internal_value=-0.00423221 0.0225939 0.0473655 -0.00480567 -0.0294385 -0.0216883 0.0311003 0.0136858 -0.012535 -0.0345867 -0.0253126 -0.0438324 -0.0337717 -0.00390677 -0.0468243 -0.0256777 -0.0416969
internal_weight=361 175 91 84 186 171 44 71 45 144 127 40 112 35 77 52 37
internal_count=361 175 91 84 186 171 44 71 45 144 127 40 112 35 77 52 37
is_linear=0
shrinkage=0.0694391


Tree=29
num_leaves=19
num_cat=0
split_feature=10 9 2 2 0 12 6 6 4 11 0 6 3 3 1 7 13 1
split_gain=46.9319 40.02 28.8988 35.1327 31.0911 28.5396 26.5508 31.3432 23.3685 20.1606 24.4757 18.4097 17.848 26.3481 10.3975 7.14141 6.36638 0.777343
threshold=-5.950000000000002 1.5499999999999974 21.050000000000001 13.9 89.550000000000011 -0.90357142857142858 16.850000000000005 11.950000000000001 0.097680735332368721 2.3785714285714294 70.15000000000002 13.550000000000002 0.27694220057652758 0.85673801594079257 64.250000000000014 6955.0000000000009 3.3477070432489588 75.800000000000011
decision_type=2 2 2 2 2 2 2 2 2 2 2 2 2 2 2 2 2 2
left_child=-1 2 3 11 5 -5 7 9 -7 10 -3 -2 14 -14 -4 -6 -9 -16
right_child=1 6 12 4 15 8 -8 16 -10 -11 -12 -13 13 -15 17 -17 -18 -19
leaf_value=-0.10917205148079163 -0.08995063660354867 0.1074949784259121 0.026724454722965061 0.13450554066249285 -0.052588263468523688 -0.027010068996273635 -0.032274064602715063 0.13168979867235414 0.067934957578730262 -0.036705944185469581 -0.0086048045738359117 0.0015544817809766583 -0.12378377838911071 -0.017969616015018421 -0.020295638850567239 0.0060883443619163371 0.058054285569358682 -0.045505907702441305
leaf_weight=17 20 14.999999999999998 18 14.999999999999998 15.999999999999998 20 20 18 27 19 17 20 22 23 18 21 17 18
leaf_count=17 20 15 18 15 16 20 20 18 27 19 17 20 22 23 18 21 17 18
internal_value=-0.00400642 0.00190245 -0.0139053 0.00655193 0.0286449 0.0579077 0.0369231 0.0534496 0.0281759 0.017166 0.0494781 -0.0466713 -0.0421096 -0.0733074 -0.0141214 -0.0209242 0.101877 -0.0349338
internal_weight=361 344 238 139 99 62 106 86 47 51 32 40 99 45 54 37 35 36
internal_count=361 344 238 139 99 62 106 86 47 51 32 40 99 45 54 37 35 36
is_linear=0
shrinkage=0.0694391


Tree=30
num_leaves=20
num_cat=0
split_feature=8 8 12 12 6 12 2 8 13 5 2 12 1 9 7 0 9 9 7
split_gain=63.9066 28.0024 19.789 37.9288 28.89 24.1725 18.4221 18.1898 17.1431 15.7444 11.7302 18.5813 12.3819 9.37716 10.5176 7.40698 4.91064 3.34816 0.450614
threshold=0.16250000000000003 0.17149999999999996 -0.73928571428571377 0.15357142857142872 15.65 2.3357142857142867 22.450000000000006 0.062500000000000014 3.3608743176715117 0.037500000000000006 22.950000000000006 -2.7392857142857148 66.250000000000014 -0.90000000000000202 6944.0000000000009 93.700000000000003 1.1500000000000024 -0.74999999999999989 3843.0000000000005
decision_type=2 2 2 2 2 2 2 2 2 2 2 2 2 2 2 2 2 2 2
left_child=2 -2 -1 4 -4 6 7 -5 -7 10 11 -3 16 15 -15 -13 17 -12 -9
right_child=1 9 3 5 -6 8 -8 18 -10 -11 12 13 -14 14 -16 -17 -18 -19 -20
leaf_value=0.091043816391552415 -0.11145303369985451 -0.057871807654151716 -0.10643419250560204 0.028458023895783276 0.020395152319228428 0.033950310779627228 0.0071438860757300779 0.14149621197192 -0.054139071099830807 -0.079904214931752676 -0.0023382608121617419 0.069384636389994828 -0.06627628776683793 -0.037485211224313211 0.034595090804314776 0.0098506307695075453 0.020294051307058587 -0.044804346705408671 0.079602702758517038
leaf_weight=21 14.999999999999998 15.999999999999998 15.000000000000002 19 15.999999999999998 23 20 15.000000000000002 15.999999999999998 15.999999999999998 18 19.999999999999993 28 20.000000000000007 14.999999999999998 20 15.999999999999998 15.999999999999998 14.999999999999998
leaf_count=21 15 16 15 19 16 23 20 15 16 16 18 20 28 20 15 20 16 16 15
internal_value=-0.000866273 -0.0268961 0.0315886 0.0212299 -0.0441757 0.0405494 0.064574 0.0866032 -0.00322046 -0.0187165 -0.0118982 0.00505274 -0.03124 0.0198388 -0.00635862 0.0418346 -0.0095074 -0.0239404 0.118647
internal_weight=360 200 160 139 31 108 69 49 39 185 169 91 78 75 35 40 50 34 30
internal_count=360 200 160 139 31 108 69 49 39 185 169 91 78 75 35 40 50 34 30
is_linear=0
shrinkage=0.0694391


end of trees

feature_importances:
forecast_high=66
forecast_wind=54
forecast_evap=51
forecast_diurnal_range=49
lag_high_1d=46
forecast_radiation=45
roll_high_14d_mean=41
forecast_low=40
day_sin=39
lag_high_2d=30
roll_high_7d_mean=26
roll_high_7d_std=25
day_cos=24
forecast_precip=11

parameters:
[boosting: gbdt]
[objective: regression]
[metric: l2]
[tree_learner: serial]
[device_type: cpu]
[data_sample_strategy: bagging]
[data: ]
[valid: ]
[num_iterations: 31]
[learning_rate: 0.0694391]
[num_leaves: 27]
[num_threads: 2]
[seed: 42]
[deterministic: 0]
[force_col_wise: 0]
[force_row_wise: 0]
[histogram_pool_size: -1]
[max_depth: -1]
[min_data_in_leaf: 15]
[min_sum_hessian_in_leaf: 0.001]
[bagging_fraction: 0.75306]
[pos_bagging_fraction: 1]
[neg_bagging_fraction: 1]
[bagging_freq: 3]
[bagging_seed: 400]
[bagging_by_query: 0]
[feature_fraction: 0.935888]
[feature_fraction_bynode: 1]
[feature_fraction_seed: 30056]
[extra_trees: 0]
[extra_seed: 12879]
[early_stopping_round: 0]
[early_stopping_min_delta: 0]
[first_metric_only: 0]
[max_delta_step: 0]
[lambda_l1: 3.33975e-05]
[lambda_l2: 2.37103]
[linear_lambda: 0]
[min_gain_to_split: 0]
[drop_rate: 0.1]
[max_drop: 50]
[skip_drop: 0.5]
[xgboost_dart_mode: 0]
[uniform_drop: 0]
[drop_seed: 17869]
[top_rate: 0.2]
[other_rate: 0.1]
[min_data_per_group: 100]
[max_cat_threshold: 32]
[cat_l2: 10]
[cat_smooth: 10]
[max_cat_to_onehot: 4]
[top_k: 20]
[monotone_constraints: ]
[monotone_constraints_method: basic]
[monotone_penalty: 0]
[feature_contri: ]
[forcedsplits_filename: ]
[refit_decay_rate: 0.9]
[cegb_tradeoff: 1]
[cegb_penalty_split: 0]
[cegb_penalty_feature_lazy: ]
[cegb_penalty_feature_coupled: ]
[path_smooth: 0]
[interaction_constraints: ]
[verbosity: -1]
[saved_feature_importance_type: 0]
[use_quantized_grad: 0]
[num_grad_quant_bins: 4]
[quant_train_renew_leaf: 0]
[stochastic_rounding: 1]
[linear_tree: 0]
[max_bin: 255]
[max_bin_by_feature: ]
[min_data_in_bin: 3]
[bin_construct_sample_cnt: 200000]
[data_random_seed: 175]
[is_enable_sparse: 1]
[enable_bundle: 1]
[use_missing: 1]
[zero_as_missing: 0]
[feature_pre_filter: 1]
[pre_partition: 0]
[two_round: 0]
[header: 0]
[label_column: ]
[weight_column: ]
[group_column: ]
[ignore_column: ]
[categorical_feature: ]
[forcedbins_filename: ]
[precise_float_parser: 0]
[parser_config_file: ]
[objective_seed: 16083]
[num_class: 1]
[is_unbalance: 0]
[scale_pos_weight: 1]
[sigmoid: 1]
[boost_from_average: 1]
[reg_sqrt: 0]
[alpha: 0.9]
[fair_c: 1]
[poisson_max_delta_step: 0.7]
[tweedie_variance_power: 1.5]
[lambdarank_truncation_level: 30]
[lambdarank_norm: 1]
[label_gain: ]
[lambdarank_position_bias_regularization: 0]
[eval_at: ]
[multi_error_top_k: 1]
[auc_mu_weights: ]
[num_machines: 1]
[local_listen_port: 12400]
[time_out: 120]
[machine_list_filename: ]
[machines: ]
[gpu_platform_id: -1]
[gpu_device_id: -1]
[gpu_use_dp: 0]
[num_gpu: 1]

end of parameters

pandas_categorical:[]
