tree
version=v4
num_class=1
num_tree_per_iteration=1
label_index=0
max_feature_idx=13
objective=regression
feature_names=forecast_high forecast_low forecast_diurnal_range day_sin day_cos forecast_precip forecast_wind forecast_radiation forecast_evap lag_high_1d lag_high_2d roll_high_7d_mean roll_high_14d_mean roll_high_7d_std
feature_infos=[46.100000000000001:117.8] [20.399999999999999:89.599999999999994] [4.1999999999999957:38] [-0.99999942202469239:0.99998555065071859] [-0.99997919295908244:0.9999907524084426] [0:1.0489999999999999] [5.4000000000000004:37.799999999999997] [568:9292] [0.017000000000000001:0.59099999999999997] [-12.299999999999995:12.799999999999995] [-12.299999999999995:12.799999999999995] [-6.1142857142857139:3.1571428571428584] [-5.4000000000000004:1.3428571428571427] [0.35790395093548272:7.1901387495718918]
tree_sizes=1510 1561 1563 1823 1731 1652 1490 1570 1660 1650 1661 1581 1582 1566 1479 1747 1589 1748

Tree=0
num_leaves=17
num_cat=0
split_feature=2 8 9 6 12 1 2 6 6 0 2 9 9 9 8 12
split_gain=620.339 611.958 174.085 157.484 122.917 70.4488 55.3896 48.5813 40.795 36.913 26.4351 25.5941 19.5027 14.9306 8.41845 7.33657
threshold=17.450000000000003 0.31000000000000005 -1.7499999999999998 17.750000000000004 -0.30000000000000115 49.70000000000001 28.050000000000004 9.3500000000000032 7.6500000000000012 79.15000000000002 24.100000000000001 -0.84999999999999776 -3.0499999999999967 -0.54999999999999705 0.37650000000000006 -1.2571428571428571
decision_type=2 2 2 2 2 2 2 2 2 2 2 2 2 2 2 2
left_child=-1 2 3 5 13 6 8 9 -2 -4 -9 -12 -7 15 -6 -3
right_child=1 4 7 -5 14 12 -8 10 -10 -11 11 -13 -14 -15 -16 -17
leaf_value=-1.3547890480513585 -1.7214813344392916 -1.5226039312173474 -1.6566053272370609 -1.5247895989194833 -1.4530247205950133 -1.6579685557578623 -1.7696128656132215 -1.5110666127783638 -1.6392444111913003 -1.5636205704358028 -1.5301672859333011 -1.6098733868899491 -1.5937811460635281 -1.491477823567015 -1.4126068746443941 -1.5604206898923305
leaf_weight=61 42 55 34 37 32 33 32 59 60 36 33 33 47 44 62 34
leaf_count=61 42 55 34 37 32 33 32 59 60 36 33 33 47 44 62 34
internal_value=-1.55021 -1.56792 -1.61146 -1.6467 -1.48238 -1.66778 -1.69615 -1.5661 -1.67311 -1.60878 -1.54219 -1.57002 -1.62026 -1.52197 -1.42637 -1.53705
internal_weight=734 673 446 251 227 214 134 195 102 70 125 66 80 133 94 89
internal_count=734 673 446 251 227 214 134 195 102 70 125 66 80 133 94 89
is_linear=0
shrinkage=1


Tree=1
num_leaves=17
num_cat=0
split_feature=2 8 12 6 9 0 0 9 0 2 6 6 7 3 9 8
split_gain=543.479 537.878 173.674 142.956 131.09 81.1196 63.7648 30.6909 26.1481 24.2426 24.1266 21.4411 20.6667 13.8479 10.7034 9.3933
threshold=17.450000000000003 0.26050000000000006 -0.30000000000000115 13.850000000000003 -3.9500000000000024 70.15000000000002 74.350000000000009 -2.1500000000000017 99.350000000000009 25.750000000000007 7.9500000000000011 15.950000000000001 7986.0000000000009 0.86113431103781346 -1.7499999999999998 0.37650000000000006
decision_type=2 2 2 2 2 2 2 2 2 2 2 2 2 2 2 2
left_child=-1 3 7 4 -2 -5 9 11 13 10 -6 -3 -10 -9 -8 -4
right_child=1 2 15 5 6 -7 14 8 12 -11 -12 -13 -14 -15 -16 -17
leaf_value=0.18353897515067608 -0.1883311340040866 -0.060910205152238509 0.087951815710457792 0.044651293965375038 -0.11720941960638925 -0.079548022116893685 -0.058574488593468498 0.069049064934765078 -0.038719062103001342 -0.15106833737918512 -0.044820226091748579 0.012043126202646385 0.028959138766533526 0.017120636303458295 -0.014353324024176797 0.12942134996084792
leaf_weight=61 51 33 35 56 44 35 40 58 33 34 33 33 42 33 51 62
leaf_count=61 51 33 35 56 44 35 40 58 33 34 33 33 42 33 51 62
internal_value=0.000623817 -0.0159554 0.0425477 -0.0719076 -0.0966502 -0.00311767 -0.073503 0.0124818 0.0271589 -0.10606 -0.0861855 -0.0244335 -0.000819267 0.0502179 -0.0337912 0.114458
internal_weight=734 673 329 344 253 91 202 232 166 111 77 66 75 91 91 97
internal_count=734 673 329 344 253 91 202 232 166 111 77 66 75 91 91 97
is_linear=0
shrinkage=0.0639976


Tree=2
num_leaves=17
num_cat=0
split_feature=2 8 9 6 12 1 0 6 6 0 2 9 2 9 3 12
split_gain=476.142 473.203 134.922 124.307 93.5823 56.9374 47.6845 38.3161 37.3486 28.4664 22.0114 22.8616 15.5445 11.9652 6.71256 6.28475
threshold=17.450000000000003 0.31000000000000005 -1.7499999999999998 17.750000000000004 -0.30000000000000115 49.70000000000001 70.550000000000011 9.3500000000000032 7.6500000000000012 79.15000000000002 24.100000000000001 -0.84999999999999776 27.050000000000004 -0.54999999999999705 -0.15101209918632377 -1.2928571428571425
decision_type=2 2 2 2 2 2 2 2 2 2 2 2 2 2 2 2
left_child=-1 2 3 5 13 6 8 9 -2 -4 -9 -12 -7 15 -6 -3
right_child=1 4 7 -5 14 12 -8 10 -10 -11 11 -13 -14 -15 -16 -17
leaf_value=0.17179291572991351 -0.15032631581841938 0.02726377529435817 -0.093187311589695815 0.024068676884855172 0.090538505592251239 -0.027435334198404306 -0.18041892080547317 0.036349312783576671 -0.06518819018399466 -0.011531246383282415 0.020219560190873797 -0.055111652025650104 -0.084501518150964738 0.05304105221164427 0.1248668506895044 -0.0070118518798952595
leaf_weight=61 36 50 34 37 43 34 47 59 51 36 33 33 46 44 51 39
leaf_count=61 36 50 34 37 43 34 47 59 51 36 33 33 46 44 51 39
internal_value=0.000583894 -0.0149343 -0.053219 -0.0842445 0.0602859 -0.102972 -0.128478 -0.0132837 -0.100418 -0.0511928 0.00794536 -0.017446 -0.0602484 0.0257408 0.109163 0.0122441
internal_weight=734 673 446 251 227 214 134 195 87 70 125 66 80 133 94 89
internal_count=734 673 446 251 227 214 134 195 87 70 125 66 80 133 94 89
is_linear=0
shrinkage=0.0639976


Tree=3
num_leaves=20
num_cat=0
split_feature=6 9 2 8 1 6 2 9 12 10 2 7 13 4 10 13 9 10 10
split_gain=388.824 248.801 138.546 105.045 89.4109 51.5595 44.6486 36.062 30.4227 27.7671 22.9337 22.9298 22.7524 21.7269 16.5092 8.18632 7.84547 4.56005 3.48401
threshold=15.050000000000002 -1.7499999999999998 17.050000000000008 0.33900000000000008 49.70000000000001 9.3500000000000032 26.050000000000001 -4.1500000000000012 -0.30000000000000115 -2.6499999999999981 27.050000000000004 4689.0000000000009 1.8753406704256099 0.6174544326165855 -0.95000000000000273 1.7660825423367876 -0.54999999999999705 -1.2499999999999998 0.40000000000000219
decision_type=2 2 2 2 2 2 2 2 2 2 2 2 2 2 2 2 2 2 2
left_child=1 4 -2 6 7 13 11 -1 17 -9 -6 -4 -13 -3 16 -12 -7 -5 -10
right_child=2 5 3 8 10 14 -8 9 18 -11 15 12 -14 -15 -16 -17 -18 -19 -20
leaf_value=-0.17729826473762797 0.17566777326000829 -0.0049387845303350908 0.056898265939856266 0.033465479194839692 -0.00082929722539935521 -0.0082057843967674685 -0.063083401884395485 -0.061472634533550959 0.12403754285382967 -0.13631176894540534 -0.043621714546847622 0.033535279220689135 -0.041615798568514724 -0.07330668481665692 0.057971635790639749 -0.089398823174567071 0.035067701661954762 0.065029075743000347 0.094173796914323815
leaf_weight=39 33 47 41 38 33 37 36 37 32 45 32 33 33 32 59 32 32 37 32
leaf_count=39 33 47 41 38 33 37 36 37 32 45 32 33 33 32 59 32 32 37 32
internal_value=-0.00228851 -0.0422264 0.051596 0.0370769 -0.0899412 0.00802387 -0.00143238 -0.126638 0.0766944 -0.102543 -0.0441652 0.01931 -0.00404026 -0.0326321 0.0331162 -0.0665103 0.0118631 0.0490369 0.109106
internal_weight=740 425 315 282 218 207 143 121 139 82 97 107 66 79 128 64 69 75 64
internal_count=740 425 315 282 218 207 143 121 139 82 97 107 66 79 128 64 69 75 64
is_linear=0
shrinkage=0.0639976


Tree=4
num_leaves=19
num_cat=0
split_feature=6 9 2 8 9 1 6 2 12 4 6 1 4 2 13 4 13 3
split_gain=340.649 217.975 121.38 92.254 81.0255 45.2381 45.1713 41.2003 26.8727 20.266 35.1031 20.0651 19.0349 14.5636 21.6442 5.26478 4.06879 3.34823
threshold=15.050000000000002 -1.7499999999999998 17.050000000000008 0.33600000000000008 -3.9500000000000024 61.750000000000007 9.3500000000000032 26.050000000000001 -0.30000000000000115 0.0032254414201910004 19.450000000000003 44.650000000000013 0.6174544326165855 24.150000000000002 1.2478475860980784 0.36447543099728857 1.0191032204774213 -0.20180236284700906
decision_type=2 2 2 2 2 2 2 2 2 2 2 2 2 2 2 2 2 2
left_child=1 4 -2 7 -1 11 12 9 16 -4 -11 -6 -3 -8 -15 -13 -5 -10
right_child=2 6 3 8 5 -7 13 -9 17 10 -12 15 -14 14 -16 -17 -18 -19
leaf_value=-0.14607407077992046 0.16442545568313549 -0.0046227146453775309 -0.021039939714498454 0.028475332523869988 -0.11711969400346256 0.0056938140549636137 0.067623610041201626 -0.061915158077777713 0.08748516439308944 -0.004027840594874872 0.086195085248354411 -0.080651536512434979 -0.06861523200766069 0.046647462641192114 -0.014613610253722778 -0.04796980300429337 0.058467091418218896 0.11676117053762773
leaf_weight=62 33 47 36 32 37 34 33 35 32 38 33 33 32 51 44 52 44 32
leaf_count=62 33 47 36 32 37 34 33 35 32 38 33 33 32 51 44 52 44 32
internal_value=-0.00214205 -0.039524 0.048294 0.0347041 -0.0841851 -0.0595883 0.00751036 -0.00164147 0.0715689 0.0180742 0.0379068 -0.0777816 -0.0305437 0.0309969 0.0182739 -0.060658 0.045839 0.102123
internal_weight=740 425 315 282 218 156 207 142 140 107 71 122 79 128 95 85 76 64
internal_count=740 425 315 282 218 156 207 142 140 107 71 122 79 128 95 85 76 64
is_linear=0
shrinkage=0.0639976


Tree=5
num_leaves=18
num_cat=0
split_feature=2 8 2 1 2 9 6 12 6 6 2 3 0 9 6 6 4
split_gain=310.195 335.593 107.669 109.595 96.4082 54.545 45.7705 45.5868 41.3841 23.1572 15.0319 14.1698 15.0234 13.864 11.2812 9.81275 7.57244
threshold=15.950000000000005 0.31000000000000005 21.050000000000001 44.300000000000004 27.349999999999998 -2.4000000000000017 8.8500000000000032 -0.30000000000000115 14.550000000000002 17.850000000000005 26.150000000000006 -0.95754239937548935 86.550000000000026 -2.1500000000000017 10.750000000000002 15.450000000000001 -0.83375966452616657
decision_type=2 2 2 2 2 2 2 2 2 2 2 2 2 2 2 2 2
left_child=-1 2 9 4 6 8 -4 13 10 -2 -5 -7 14 -3 -13 -15 -9
right_child=1 7 3 5 -6 11 -8 16 -10 -11 -12 12 -14 15 -16 -17 -18
leaf_value=0.16481477411787379 -0.013603499628508715 -0.009481483820129321 -0.11197372201448667 -0.062268669264255762 -0.20245365954089212 0.017843795726882637 -0.013162565159969173 0.098634519013646713 -0.014132335843402505 0.05650741970785008 -0.11838607479035615 -0.029649141979508634 -0.05810517894454429 0.015468412038863876 0.021331238666533071 0.054985950309473307 0.060194502951438716
leaf_weight=43 35 32 48 34 33 49 32 61 39 43 46 40 35 44 32 62 32
leaf_count=43 35 32 48 34 33 49 32 61 39 43 46 40 35 44 32 62 32
internal_value=-0.00200497 -0.0122966 -0.0435622 -0.0573548 -0.110415 -0.0355518 -0.0724493 0.050776 -0.0681853 0.0250474 -0.0945362 -0.0106583 -0.0237107 0.0274372 -0.00699119 0.0385824 0.0854078
internal_weight=740 697 466 388 113 275 80 231 119 78 80 156 107 138 72 106 93
internal_count=740 697 466 388 113 275 80 231 119 78 80 156 107 138 72 106 93
is_linear=0
shrinkage=0.0639976


Tree=6
num_leaves=16
num_cat=0
split_feature=9 2 8 2 7 9 2 3 11 3 2 6 8 6 8
split_gain=259.089 128.757 136.403 115.754 92.5188 38.2792 33.6409 33.9735 33.2898 30.1177 31.0178 27.8375 14.8289 11.8314 7.09166
threshold=-1.3499999999999976 20.750000000000007 0.20500000000000002 17.550000000000004 6931.0000000000009 -2.1500000000000017 28.050000000000004 -0.26037633224328088 -0.014285714285713898 -0.92923668111203817 24.550000000000001 15.750000000000002 0.12650000000000003 17.550000000000004 0.41350000000000003
decision_type=2 2 2 2 2 2 2 2 2 2 2 2 2 2 2
left_child=1 -1 6 -2 9 11 7 -3 13 -5 -11 -4 -9 -6 -10
right_child=3 2 5 4 8 -7 -8 12 14 10 -12 -13 -14 -15 -16
leaf_value=0.062593588399426817 0.13537882276436697 -0.037003931037300632 -0.063775426995421408 0.033574868739991631 0.0138947463638382 0.02984451192270637 -0.14857324176256534 -0.1372415310708783 0.072647959329412926 0.00032365009131028196 -0.069717171858076479 0.0042480032109091827 -0.080511706084777507 0.060368538063944939 0.11187913655277965
leaf_weight=47 45 52 56 44 57 63 34 32 46 61 45 44 46 37 32
leaf_count=47 45 52 56 44 57 63 34 32 46 61 45 44 46 37 32
internal_value=0.00103376 -0.0364529 -0.0506889 0.0392354 0.0257992 -0.00922888 -0.0918961 -0.0770729 0.0578347 -0.0109349 -0.0294107 -0.0338451 -0.103785 0.0321876 0.0887428
internal_weight=741 374 327 367 322 163 164 130 172 150 106 100 78 94 78
internal_count=741 374 327 367 322 163 164 130 172 150 106 100 78 94 78
is_linear=0
shrinkage=0.0639976


Tree=7
num_leaves=17
num_cat=0
split_feature=2 8 2 12 2 8 2 2 9 10 1 6 9 3 8 1
split_gain=235.175 228.959 125.387 72.0074 44.0856 36.6564 24.5021 22.2551 24.2757 20.8409 18.2432 16.4612 15.7306 13.4545 9.74337 4.45502
threshold=15.950000000000005 0.26050000000000006 21.050000000000001 -0.30000000000000115 29.699999999999999 0.12250000000000001 25.699999999999999 24.150000000000002 -2.1500000000000017 -1.3499999999999976 44.800000000000004 13.850000000000003 -0.84999999999999776 -0.15951315977791497 0.41350000000000003 71.950000000000017
decision_type=2 2 2 2 2 2 2 2 2 2 2 2 2 2 2 2
left_child=-1 2 10 7 5 13 11 -3 -9 -8 -2 -7 15 -4 -5 -10
right_child=1 3 4 14 -6 6 9 8 12 -11 -12 -13 -14 -15 -16 -17
leaf_value=0.14622669969462401 0.06585819746561454 0.048282301893273413 -0.062265603846994699 0.061230786316936604 -0.12014698196594831 -0.032988141846019829 -0.084518120529941843 -0.034277673807095087 0.053428464902425664 -0.0207804112070397 0.0020963678180159471 0.024017005492923862 -0.007270877394924144 -0.12008247586064506 0.10321521850248865 0.020390218078711393
leaf_weight=43 34 52 32 61 45 59 55 56 35 34 40 32 61 34 36 32
leaf_count=43 34 52 32 61 45 59 55 56 35 34 40 32 61 34 36 32
internal_value=0.000967601 -0.00798102 -0.0429909 0.0303931 -0.0619062 -0.0512524 -0.0362933 0.0113139 0.000866358 -0.0601689 0.0313923 -0.0129424 0.0162419 -0.0920501 0.0768126 0.037649
internal_weight=741 698 365 333 291 246 180 236 184 89 74 91 128 66 97 67
internal_count=741 698 365 333 291 246 180 236 184 89 74 91 128 66 97 67
is_linear=0
shrinkage=0.0639976


Tree=8
num_leaves=18
num_cat=0
split_feature=2 8 2 12 1 0 6 8 7 9 2 9 1 1 9 8 3
split_gain=206.037 200.591 109.852 63.0858 38.9749 52.7258 37.6296 33.8207 20.1749 21.7262 19.538 22.3924 15.9829 15.9642 12.4915 8.53617 6.03159
threshold=15.950000000000005 0.26050000000000006 21.050000000000001 -0.30000000000000115 44.300000000000004 67.950000000000003 8.5500000000000025 0.15050000000000002 4449.5000000000009 -2.4000000000000017 23.050000000000001 -2.1500000000000017 44.800000000000004 69.15000000000002 -0.84999999999999776 0.41350000000000003 -0.90163369914317004
decision_type=2 2 2 2 2 2 2 2 2 2 2 2 2 2 2 2 2
left_child=-1 2 12 10 5 6 -4 -6 -9 -10 -3 -12 -2 -13 -15 -5 -11
right_child=1 3 4 15 7 -7 -8 8 9 16 11 13 -14 14 -16 -17 -18
leaf_value=0.13686853828808393 0.061643431726392056 0.050747969879373266 -0.096808315453602217 0.057312163379738303 -0.093387823201414727 -0.15670854725220615 -0.0095487625355556369 0.020046046155262856 -0.073746803203996458 0.0051067095625337497 -0.031184219263678186 0.040641917464680488 0.0019622047672009759 0.021956761996502004 -0.029952495145485612 0.096609691302363784 -0.033887889679788528
leaf_weight=43 34 41 48 61 37 32 35 32 42 32 58 61 40 39 37 36 33
leaf_count=43 34 41 48 61 37 32 35 32 42 32 58 61 40 39 37 36 33
internal_value=0.000905677 -0.00747026 -0.0402396 0.0284481 -0.0579444 -0.086919 -0.0600121 -0.0390121 -0.024538 -0.0378715 0.0105899 0.00214638 0.0293833 0.0162571 -0.00331485 0.0718968 -0.0146905
internal_weight=741 698 365 333 291 115 83 176 139 107 236 195 74 137 76 97 65
internal_count=741 698 365 333 291 115 83 176 139 107 236 195 74 137 76 97 65
is_linear=0
shrinkage=0.0639976


Tree=9
num_leaves=18
num_cat=0
split_feature=2 8 2 7 9 11 12 4 6 1 6 2 4 9 9 7 9
split_gain=213.262 188.466 81.0461 78.7578 50.5483 40.5841 30.9373 26.7848 38.8398 29.8451 24.6097 20.1564 13.58 8.7332 8.34104 8.21033 5.1465
threshold=15.950000000000005 0.31000000000000005 19.250000000000004 3157.0000000000005 -4.7499999999999991 -1.3500000000000008 -0.30000000000000115 -0.29342786347392819 15.450000000000001 52.150000000000013 14.15 25.800000000000011 0.089118976521498958 -2.4000000000000017 -0.54999999999999705 8161.0000000000009 0.099999999999997854
decision_type=2 2 2 2 2 2 2 2 2 2 2 2 2 2 2 2 2
left_child=-1 2 -2 -4 -5 7 14 -6 9 11 12 13 -7 -9 15 -3 -8
right_child=1 6 3 4 5 10 16 8 -10 -11 -12 -13 -14 -15 -16 -17 -18
leaf_value=0.14160538988050511 0.045995254746352437 -0.011381522205262604 -0.13014082471444632 -0.10248208173312295 -0.093400955154990667 0.014862139832027299 0.0849336345840975 -0.064602454163042972 0.030243527028315894 3.4135496334352976e-05 0.051859373032491572 -0.095816107851521448 -0.034606484973323616 -0.018345287644909065 0.041522981105976416 0.026082612440583169 0.054420287655404458
leaf_weight=41 49 46 37 38 34 41 36 32 34 43 33 45 51 35 45 50 61
leaf_count=41 49 46 37 38 34 41 36 32 34 43 33 45 51 35 45 50 61
internal_value=-0.000312616 -0.00850788 -0.0319215 -0.0409473 -0.0323977 -0.0247448 0.0379259 -0.0411075 -0.0317002 -0.0452879 0.00444621 -0.0626883 -0.0125607 -0.0404383 0.018788 0.00813105 0.0657448
internal_weight=751 710 472 423 386 348 238 223 189 155 125 112 92 67 141 96 97
internal_count=751 710 472 423 386 348 238 223 189 155 125 112 92 67 141 96 97
is_linear=0
shrinkage=0.0639976


Tree=10
num_leaves=18
num_cat=0
split_feature=2 7 2 3 2 0 7 6 7 11 11 6 3 12 9 3 8
split_gain=186.839 166.147 66.6782 69.6234 61.7029 61.8479 54.2775 30.2924 39.4608 47.1001 27.6458 16.1925 15.2947 11.1469 6.66682 5.05188 3.38783
threshold=15.950000000000005 7331.5000000000009 19.250000000000004 -0.91597725483594616 28.750000000000007 80.600000000000009 3127.5000000000005 9.3500000000000032 4668.0000000000009 -1.3500000000000008 0.085714285714285909 17.550000000000004 1.0000000180025095e-35 -1.2571428571428571 -2.1500000000000017 0.27694220057652758 0.40750000000000003
decision_type=2 2 2 2 2 2 2 2 2 2 2 2 2 2 2 2 2
left_child=-1 2 -2 13 6 -6 -5 12 -9 -10 11 14 -8 -4 -3 -16 -12
right_child=1 10 3 4 5 -7 7 8 9 -11 16 -13 -14 -15 15 -17 -18
leaf_value=0.13254298455520044 0.038690861434643058 -0.01699728959491097 0.039362891844052804 -0.1166563463330008 -0.1712498362483541 -0.045425085496998661 -0.027828867214870146 0.043374449997269283 -0.072320773136134067 0.025713077723678108 0.055606292546573108 0.048083437778440305 -0.075358236506972015 -0.007955450392612683 0.0023055659148403596 0.034160688423153736 0.084188003264981159
leaf_weight=41 51 33 38 32 32 32 54 43 49 34 35 61 57 44 44 38 33
leaf_count=41 51 33 38 32 32 32 54 43 49 34 35 61 57 44 44 38 33
internal_value=-0.000292609 -0.0079634 -0.0303652 -0.0388516 -0.0518593 -0.108337 -0.0384221 -0.0278589 -0.0063839 -0.0321623 0.0348203 0.0214303 -0.0522358 0.0139726 0.00729253 0.0170677 0.0694768
internal_weight=751 710 466 415 333 64 269 237 126 83 244 176 111 82 115 82 68
internal_count=751 710 466 415 333 64 269 237 126 83 244 176 111 82 115 82 68
is_linear=0
shrinkage=0.0639976


Tree=11
num_leaves=17
num_cat=0
split_feature=2 8 2 9 6 12 13 6 4 10 12 4 4 7 3 13
split_gain=163.689 147.692 101.142 53.2611 43.5848 32.1269 27.4254 20.1097 17.2196 17.8663 13.376 12.8214 11.7429 20.4082 6.95854 6.17021
threshold=15.950000000000005 0.20500000000000002 28.350000000000001 -2.1500000000000017 9.3500000000000032 -0.52142857142857235 2.2255011140232157 15.750000000000002 0.64414586362404946 -2.1500000000000017 -0.93571428571428727 0.91511078773075505 0.011826144619637501 6509.0000000000009 -0.15101209918632377 1.6412102249214018
decision_type=2 2 2 2 2 2 2 2 2 2 2 2 2 2 2 2
left_child=-1 2 4 7 8 10 -6 -3 -2 11 12 -10 13 -5 -7 -15
right_child=1 3 -4 5 6 14 -8 -9 9 -11 -12 -13 -14 15 -16 -17
leaf_value=0.12406054952796669 -0.014716424439076094 -0.046744807403309545 -0.14069142872801904 -0.027890246447201564 -0.039344906001606998 0.039895925054290612 0.030279406463699234 0.0080043707599417938 -0.017088974928493379 -0.099539108917698141 -0.016254179795970651 -0.073529265407686437 0.052199088105954694 0.017071095628167242 0.074226306402196018 0.050584809873445512
leaf_weight=41 39 61 38 35 37 42 62 50 34 38 43 32 44 63 57 35
leaf_count=41 39 61 38 35 37 42 62 50 34 38 43 32 44 63 57 35
internal_value=-0.000273883 -0.00745376 -0.0436254 0.0160998 -0.0283836 0.029386 0.0042582 -0.022083 -0.0509817 -0.0645812 0.0157619 -0.044454 0.0235398 0.0140586 0.0596619 0.0290403
internal_weight=751 710 280 430 242 319 99 111 143 104 220 66 177 133 99 98
internal_count=751 710 280 430 242 319 99 111 143 104 220 66 177 133 99 98
is_linear=0
shrinkage=0.0639976


Tree=12
num_leaves=17
num_cat=0
split_feature=2 8 2 11 2 2 8 4 3 7 1 1 6 2 10 11
split_gain=156.933 153.998 88.2517 59.2529 38.9017 27.816 24.5269 29.9887 20.7716 20.6514 20.1198 15.257 12.0416 9.14481 7.07559 5.06986
threshold=15.950000000000005 0.20500000000000002 28.350000000000001 -0.69999999999999962 21.050000000000001 22.100000000000001 0.31000000000000005 -0.19337245081799001 -0.24372957273992743 3741.0000000000005 59.850000000000001 43.45000000000001 14.550000000000002 29.250000000000007 -2.2499999999999996 0.26428571428571451
decision_type=2 2 2 2 2 2 2 2 2 2 2 2 2 2 2 2
left_child=-1 2 4 5 -2 -3 7 -7 14 -10 -9 -11 -5 -8 -6 -14
right_child=1 3 -4 12 8 6 13 10 9 11 -12 -13 15 -15 -16 -17
leaf_value=0.12206686430088208 0.014749956066162837 0.053133635313424132 -0.13483926971567198 0.026828932514561445 0.00084658526289049438 -0.062838759987948231 0.033100289179413045 -0.03428099444378576 -0.10611618378480873 -0.017320354738961478 0.026984087902121034 -0.076944220900533711 0.051078074162188854 -0.0039876153876868808 -0.039005799141137221 0.081589820729657925
leaf_weight=41 60 35 38 60 37 54 56 42 32 39 46 32 54 53 36 38
leaf_count=41 60 35 38 60 37 54 56 42 32 39 46 32 54 53 36 38
internal_value=0.000316099 -0.00669483 -0.0443256 0.0168459 -0.0297513 -0.000314254 -0.00776715 -0.0252946 -0.0449222 -0.0634313 -0.00225606 -0.0441931 0.049134 0.0150667 -0.0188066 0.0636808
internal_weight=753 712 274 438 236 286 251 142 176 103 88 71 152 109 73 92
internal_count=753 712 274 438 236 286 251 142 176 103 88 71 152 109 73 92
is_linear=0
shrinkage=0.0639976


Tree=13
num_leaves=17
num_cat=0
split_feature=2 8 2 11 6 0 2 8 4 6 1 4 7 10 2 7
split_gain=137.489 134.918 77.3174 51.9115 37.5903 32.3693 24.3696 21.4881 26.2731 19.645 17.6269 15.9474 10.6831 8.35548 8.01177 7.69993
threshold=15.950000000000005 0.20500000000000002 28.350000000000001 -0.69999999999999962 7.6500000000000012 70.15000000000002 22.100000000000001 0.31000000000000005 -0.19337245081799001 13.15 59.850000000000001 0.81304046271159414 7465.0000000000009 0.95000000000000295 29.250000000000007 8757.0000000000018
decision_type=2 2 2 2 2 2 2 2 2 2 2 2 2 2 2 2
left_child=-1 2 4 6 11 9 -3 8 -8 -6 -10 -2 -5 15 -9 -14
right_child=1 3 -4 12 5 -7 7 14 10 -11 -12 -13 13 -15 -16 -17
leaf_value=0.11425487924419907 -0.034553649498060536 0.049733210349812942 -0.12620987894564362 0.020630261774491444 -0.017851526581145086 -0.049878789111080908 -0.05881722966394641 0.03098195002417465 -0.032087092946250832 0.036994685998211881 0.025257170846275476 -0.094885109235500184 0.090151756964074362 0.031809689890342899 -0.0037324184212417515 0.047631240988168046
leaf_weight=41 34 35 38 47 53 57 54 56 42 54 46 38 37 35 53 33
leaf_count=41 34 35 38 47 53 57 54 56 42 54 46 38 37 35 53 33
internal_value=0.00029587 -0.00626638 -0.0414888 0.0157678 -0.0278473 -0.0109238 -0.000294143 -0.00727007 -0.0236758 0.00982787 -0.00211168 -0.0663953 0.0459895 0.0573408 0.0141025 0.0701064
internal_weight=753 712 274 438 236 164 286 251 142 107 88 72 152 105 109 70
internal_count=753 712 274 438 236 164 286 251 142 107 88 72 152 105 109 70
is_linear=0
shrinkage=0.0639976


Tree=14
num_leaves=16
num_cat=0
split_feature=2 8 2 11 6 0 2 8 4 6 1 4 6 2 11
split_gain=120.454 118.201 67.7378 45.4797 32.9329 28.3587 21.3502 18.8257 23.0179 17.211 15.443 13.9715 10.074 7.08311 4.47575
threshold=15.950000000000005 0.20500000000000002 28.350000000000001 -0.69999999999999962 7.6500000000000012 70.15000000000002 22.100000000000001 0.31000000000000005 -0.19337245081799001 13.15 59.850000000000001 0.81304046271159414 14.550000000000002 28.850000000000001 0.26428571428571451
decision_type=2 2 2 2 2 2 2 2 2 2 2 2 2 2 2
left_child=-1 2 4 6 11 9 -3 8 -8 -6 -10 -2 -5 -9 -14
right_child=1 3 -4 12 5 -7 7 13 10 -11 -12 -13 14 -15 -16
leaf_value=0.10694284174567809 -0.032342298765436053 0.046550404060741207 -0.1181327490263754 0.022644843896620047 -0.016709071493562724 -0.046686666920957347 -0.055053068750188838 0.030597646329341345 -0.030033595838217596 0.034627115293267972 0.023640771828601213 -0.088812688959965816 0.044510346657490672 -0.0020980035944668249 0.073178655480383034
leaf_weight=41 34 35 38 60 53 57 54 51 42 54 46 38 54 58 38
leaf_count=41 34 35 38 60 53 57 54 51 42 54 46 38 54 58 38
internal_value=0.000276935 -0.00586534 -0.0388337 0.0147587 -0.0260652 -0.0102247 -0.000275319 -0.0068048 -0.0221606 0.00919891 -0.00197654 -0.0621461 0.0430463 0.0132 0.0563516
internal_weight=753 712 274 438 236 164 286 251 142 107 88 72 152 109 92
internal_count=753 712 274 438 236 164 286 251 142 107 88 72 152 109 92
is_linear=0
shrinkage=0.0639976


Tree=15
num_leaves=19
num_cat=0
split_feature=2 8 2 11 3 11 1 6 9 4 7 8 2 10 3 7 3 0
split_gain=109.875 91.3475 64.8478 34.1841 33.3399 37.2271 41.8999 19.3387 22.8865 19.9203 33.0664 18.1789 8.58605 8.31513 4.93571 13.0999 4.65776 4.36375
threshold=14.700000000000001 0.20500000000000002 28.350000000000001 0.26428571428571451 -0.58482361983252518 -2.4214285714285708 43.45000000000001 15.950000000000001 -2.4500000000000024 0.0032254414201910004 7225.5000000000009 0.12250000000000001 27.899999999999999 -1.2499999999999998 -0.91597725483594616 7331.5000000000009 0.39036257410962039 101.30000000000003
decision_type=2 2 2 2 2 2 2 2 2 2 2 2 2 2 2 2 2 2
left_child=-1 2 4 7 -2 11 -7 8 -3 10 -9 -6 -5 -12 -10 -16 -17 -15
right_child=1 3 -4 12 5 6 -8 9 14 -11 13 -13 -14 17 15 16 -18 -19
leaf_value=0.1144686470921186 0.020985907200131385 -0.049809242701198207 -0.11185230258273035 0.078228651837688762 -0.038178561145223659 -0.029502797932124 -0.1205260628843072 -0.043728330184863884 0.022552226932837358 0.062340504861096685 0.0049799602425960989 0.014661549279139941 0.03240375319811882 0.059179197963184077 -0.033863794076732359 -0.0028160543261205448 0.029789161854580842 0.025757105946776805
leaf_weight=33 59 42 37 34 48 53 34 35 41 38 39 60 33 32 38 38 34 32
leaf_count=33 59 42 37 34 48 53 34 35 41 38 39 60 33 32 38 38 34 32
internal_value=0.000255346 -0.00492903 -0.0326968 0.0136041 -0.0211663 -0.0339201 -0.0650751 0.00596823 -0.00802254 0.0213104 0.0100122 -0.00882294 0.0556582 0.0282736 0.00360025 -0.00346366 0.0125809 0.0424682
internal_weight=760 727 291 436 254 195 87 369 193 176 138 108 67 103 151 110 72 64
internal_count=760 727 291 436 254 195 87 369 193 176 138 108 67 103 151 110 72 64
is_linear=0
shrinkage=0.0639976


Tree=16
num_leaves=17
num_cat=0
split_feature=2 8 2 11 3 0 11 11 13 8 10 2 11 3 3 12
split_gain=96.2616 80.0296 56.8132 30.8024 29.2091 34.2498 30.3919 19.9035 32.7735 16.0307 9.22288 8.41707 10.334 6.38769 6.02497 5.50632
threshold=14.700000000000001 0.20500000000000002 28.350000000000001 -0.69999999999999962 -0.58482361983252518 60.650000000000013 -2.4214285714285708 -2.7285714285714291 2.093754809074206 0.12250000000000001 -2.4000000000000017 30.150000000000009 0.26428571428571451 0.69056404122701587 -0.452744437932114 -1.2571428571428571
decision_type=2 2 2 2 2 2 2 2 2 2 2 2 2 2 2 2
left_child=-1 2 4 7 -2 -6 9 -3 10 -7 -9 12 -5 14 15 -12
right_child=1 3 -4 11 5 6 -8 8 -10 -11 13 -13 -14 -15 -16 -17
leaf_value=0.10714292798474499 0.019642859752334596 0.034396805653785861 -0.10469402269273512 0.027557315781150123 0.015187550147469144 -0.053865757705394667 -0.082614093043942627 -0.027528571222576115 -0.065158252881986164 0.0011201498240191697 0.025704993333160862 0.010638500988675232 0.066522904102954319 -0.011251195460191633 0.03777701361441179 -0.0096108046658058277
leaf_weight=33 59 56 37 63 48 39 59 35 35 49 33 40 50 46 38 40
leaf_count=33 59 56 37 63 48 39 59 35 35 49 33 40 50 46 38 40
internal_value=0.000239004 -0.00461358 -0.0306043 0.0127334 -0.0198117 -0.0317493 -0.0470756 0.000226099 -0.00820368 -0.0232486 0.00217867 0.035868 0.0447987 0.0088013 0.0171113 0.00635387
internal_weight=760 727 291 436 254 195 147 283 227 88 192 153 113 157 111 73
internal_count=760 727 291 436 254 195 147 283 227 88 192 153 113 157 111 73
is_linear=0
shrinkage=0.0639976


Tree=17
num_leaves=19
num_cat=0
split_feature=2 7 2 1 1 3 4 8 11 12 6 9 11 6 10 2 13 12
split_gain=84.3348 71.7718 44.1082 46.2911 40.7795 29.6822 25.219 28.1217 21.6469 14.4229 16.806 17.4185 14.302 6.7752 5.47451 3.63423 2.32645 1.15119
threshold=14.700000000000001 7331.5000000000009 22.450000000000006 43.850000000000001 41.250000000000007 -0.62588817255938378 -0.40613878790836588 0.15050000000000002 -2.4857142857142853 -1.0499999999999992 15.250000000000002 -2.4000000000000017 0.085714285714285909 15.550000000000002 -1.2499999999999998 27.899999999999999 1.6302204929521469 -1.7392857142857145
decision_type=2 2 2 2 2 2 2 2 2 2 2 2 2 2 2 2 2 2
left_child=-1 2 5 4 -4 -2 -5 -8 -7 10 11 -9 13 16 -15 -14 -3 -13
right_child=1 12 3 6 -6 8 7 9 -10 -11 -12 17 15 14 -16 -17 -18 -19
leaf_value=0.10028603640157549 0.063439356368477334 -0.0094362761109930988 -0.036648954562722345 -0.063162138116250252 -0.12412283012521705 0.025558942686219843 -0.059991908929958621 -0.037569741007591848 -0.031371772887220095 -0.030785516867288303 0.051110182710305339 0.010530065339401828 0.063976599006186782 0.0066239958278601751 0.038236726535722083 0.034764613289389283 0.012852788458323357 0.027696413043296692
leaf_weight=33 34 44 58 40 35 51 35 34 59 40 35 32 33 37 57 37 34 32
leaf_count=33 34 44 58 40 35 51 35 34 59 40 35 32 33 37 57 37 34 32
internal_value=0.000223709 -0.00431832 -0.0185223 -0.031064 -0.0695692 0.0111771 -0.0166246 -0.00767502 -0.00497662 0.00290932 0.0130431 -0.000552281 0.0241483 0.0142231 0.0257934 0.048536 0.000279468 0.0191132
internal_weight=760 727 485 341 93 144 248 208 110 173 133 98 242 172 94 70 78 64
internal_count=760 727 485 341 93 144 248 208 110 173 133 98 242 172 94 70 78 64
is_linear=0
shrinkage=0.0639976


end of trees

feature_importances:
forecast_diurnal_range=60
forecast_wind=38
lag_high_1d=32
forecast_evap=31
day_sin=20
forecast_low=19
day_cos=17
roll_high_7d_mean=17
roll_high_14d_mean=17
forecast_radiation=16
forecast_high=13
lag_high_2d=11
roll_high_7d_std=8

parameters:
[boosting: gbdt]
[objective: regression]
[metric: l2]
[tree_learner: serial]
[device_type: cpu]
[data_sample_strategy: bagging]
[data: ]
[valid: ]
[num_iterations: 18]
[learning_rate: 0.0639976]
[num_leaves: 27]
[num_threads: 2]
[seed: 42]
[deterministic: 0]
[force_col_wise: 0]
[force_row_wise: 0]
[histogram_pool_size: -1]
[max_depth: -1]
[min_data_in_leaf: 32]
[min_sum_hessian_in_leaf: 0.001]
[bagging_fraction: 0.945059]
[pos_bagging_fraction: 1]
[neg_bagging_fraction: 1]
[bagging_freq: 3]
[bagging_seed: 400]
[bagging_by_query: 0]
[feature_fraction: 0.998988]
[feature_fraction_bynode: 1]
[feature_fraction_seed: 30056]
[extra_trees: 0]
[extra_seed: 12879]
[early_stopping_round: 0]
[early_stopping_min_delta: 0]
[first_metric_only: 0]
[max_delta_step: 0]
[lambda_l1: 2.72926e-06]
[lambda_l2: 1.23874e-07]
[linear_lambda: 0]
[min_gain_to_split: 0]
[drop_rate: 0.1]
[max_drop: 50]
[skip_drop: 0.5]
[xgboost_dart_mode: 0]
[uniform_drop: 0]
[drop_seed: 17869]
[top_rate: 0.2]
[other_rate: 0.1]
[min_data_per_group: 100]
[max_cat_threshold: 32]
[cat_l2: 10]
[cat_smooth: 10]
[max_cat_to_onehot: 4]
[top_k: 20]
[monotone_constraints: ]
[monotone_constraints_method: basic]
[monotone_penalty: 0]
[feature_contri: ]
[forcedsplits_filename: ]
[refit_decay_rate: 0.9]
[cegb_tradeoff: 1]
[cegb_penalty_split: 0]
[cegb_penalty_feature_lazy: ]
[cegb_penalty_feature_coupled: ]
[path_smooth: 0]
[interaction_constraints: ]
[verbosity: -1]
[saved_feature_importance_type: 0]
[use_quantized_grad: 0]
[num_grad_quant_bins: 4]
[quant_train_renew_leaf: 0]
[stochastic_rounding: 1]
[linear_tree: 0]
[max_bin: 255]
[max_bin_by_feature: ]
[min_data_in_bin: 3]
[bin_construct_sample_cnt: 200000]
[data_random_seed: 175]
[is_enable_sparse: 1]
[enable_bundle: 1]
[use_missing: 1]
[zero_as_missing: 0]
[feature_pre_filter: 1]
[pre_partition: 0]
[two_round: 0]
[header: 0]
[label_column: ]
[weight_column: ]
[group_column: ]
[ignore_column: ]
[categorical_feature: ]
[forcedbins_filename: ]
[precise_float_parser: 0]
[parser_config_file: ]
[objective_seed: 16083]
[num_class: 1]
[is_unbalance: 0]
[scale_pos_weight: 1]
[sigmoid: 1]
[boost_from_average: 1]
[reg_sqrt: 0]
[alpha: 0.9]
[fair_c: 1]
[poisson_max_delta_step: 0.7]
[tweedie_variance_power: 1.5]
[lambdarank_truncation_level: 30]
[lambdarank_norm: 1]
[label_gain: ]
[lambdarank_position_bias_regularization: 0]
[eval_at: ]
[multi_error_top_k: 1]
[auc_mu_weights: ]
[num_machines: 1]
[local_listen_port: 12400]
[time_out: 120]
[machine_list_filename: ]
[machines: ]
[gpu_platform_id: -1]
[gpu_device_id: -1]
[gpu_use_dp: 0]
[num_gpu: 1]

end of parameters

pandas_categorical:[]
