{"learner":{"attributes":{"scikit_learn":"{\"_estimator_type\": \"regressor\"}"},"feature_names":["forecast_high","forecast_low","forecast_diurnal_range","day_sin","day_cos","forecast_precip","forecast_wind","forecast_radiation","forecast_evap","lag_high_1d","lag_high_2d","roll_high_7d_mean","roll_high_14d_mean","roll_high_7d_std"],"feature_types":["float","float","float","float","float","float","float","float","float","float","float","float","float","float"],"gradient_booster":{"model":{"cats":{"enc":[],"feature_segments":[],"sorted_idx":[]},"gbtree_model_param":{"num_parallel_tree":"1","num_trees":"37"},"iteration_indptr":[0,1,2,3,4,5,6,7,8,9,10,11,12,13,14,15,16,17,18,19,20,21,22,23,24,25,26,27,28,29,30,31,32,33,34,35,36,37],"tree_info":[0,0,0,0,0,0,0,0,0,0,0,0,0,0,0,0,0,0,0,0,0,0,0,0,0,0,0,0,0,0,0,0,0,0,0,0,0],"trees":[{"base_weights":[6.210314E-2,1.5975014E0,-5.2696395E-1,4.775739E-3,1.704591E0,1.0622483E0,-1.0345186E0,1.8603475E0,8.348783E-1,2.3174312E0,5.5883086E-1,-3.118768E-1,-1.9037328E0,4.6348196E-2,7.869516E-2,9.509038E-3,7.386834E-2,2.492534E-2,1.0967329E-1,5.143171E-2,-3.8036068E-3,-5.0096627E-2,5.304974E-4,-5.8204543E-2,-1.5614735E-1],"categories":[],"categories_nodes":[],"categories_segments":[],"categories_sizes":[],"default_left":[0,0,0,0,0,0,0,0,0,0,0,0,0,0,0,0,0,0,0,0,0,0,0,0,0],"id":0,"left_children":[1,3,5,-1,7,9,11,13,15,17,19,21,23,-1,-1,-1,-1,-1,-1,-1,-1,-1,-1,-1,-1],"loss_changes":[2.8616266E2,1.36896515E1,1.8528253E2,0E0,9.949539E0,3.42749E1,1.08691376E2,6.4832916E0,8.396406E0,1.2591263E1,2.0889614E1,3.0836813E1,6.202594E1,0E0,0E0,0E0,0E0,0E0,0E0,0E0,0E0,0E0,0E0,0E0,0E0],"parents":[2147483647,0,0,1,1,2,2,4,4,5,5,6,6,7,7,8,8,9,9,10,10,11,11,12,12],"right_children":[2,4,6,-1,8,10,12,14,16,18,20,22,24,-1,-1,-1,-1,-1,-1,-1,-1,-1,-1,-1,-1],"split_conditions":[-5.654755E-1,-1.7E0,2.08E1,4.775739E-3,1.5E0,1.51E1,3.5846832E-1,-2.8571429E-2,8.26E1,2.7281126E-1,6.4333653E-1,-2.9E0,2.85E1,4.6348196E-2,7.869516E-2,9.509038E-3,7.386834E-2,2.492534E-2,1.0967329E-1,5.143171E-2,-3.8036068E-3,-5.0096627E-2,5.304974E-4,-5.8204543E-2,-1.5614735E-1],"split_indices":[4,9,2,0,10,2,4,11,1,4,3,9,2,0,0,0,0,0,0,0,0,0,0,0,0],"split_type":[0,0,0,0,0,0,0,0,0,0,0,0,0,0,0,0,0,0,0,0,0,0,0,0,0],"sum_hessian":[3.15E2,8.7E1,2.28E2,6E0,8.1E1,5.5E1,1.73E2,6.8E1,1.3E1,1.5E1,4E1,9.5E1,7.8E1,1.6E1,5.2E1,9E0,4E0,4E0,1.1E1,1.8E1,2.2E1,2.3E1,7.2E1,6.7E1,1.1E1],"tree_param":{"num_deleted":"0","num_feature":"14","num_nodes":"25","size_leaf_vector":"1"}},{"base_weights":[-5.3002484E-2,-1.0140396E0,8.962401E-1,1.4595569E0,-1.4227611E0,1.5521705E0,2.2396979E-1,2.4928513E0,7.758566E-1,-2.9256952E0,-7.0300096E-1,-7.482009E-4,1.6130136E0,1.8324945E0,-2.330849E-1,1.0825858E-1,8.382459E-4,6.5680384E-3,9.751783E-2,-8.4487446E-2,-2.8928334E-1,-3.8671833E-2,2.7296903E-2,2.348423E-2,6.512097E-2,5.1607158E-2,1.1492357E-1,3.6930975E-2,-1.925605E-2],"categories":[],"categories_nodes":[],"categories_segments":[],"categories_sizes":[],"default_left":[0,0,0,0,0,0,0,0,0,0,0,0,0,0,0,0,0,0,0,0,0,0,0,0,0,0,0,0,0],"id":1,"left_children":[1,3,5,7,9,11,13,15,17,19,21,-1,23,25,27,-1,-1,-1,-1,-1,-1,-1,-1,-1,-1,-1,-1,-1,-1],"loss_changes":[2.8958743E2,1.6095683E2,7.018039E1,1.465633E1,1.4533292E2,7.741287E0,5.8918236E1,6.8090363E0,1.5337636E1,1.3487006E2,3.992444E1,0E0,5.322174E0,7.1653786E0,2.0298508E1,0E0,0E0,0E0,0E0,0E0,0E0,0E0,0E0,0E0,0E0,0E0,0E0,0E0,0E0],"parents":[2147483647,0,0,1,1,2,2,3,3,4,4,5,5,6,6,7,7,8,8,9,9,10,10,12,12,13,13,14,14],"right_children":[2,4,6,8,10,12,14,16,18,20,22,-1,24,26,28,-1,-1,-1,-1,-1,-1,-1,-1,-1,-1,-1,-1,-1,-1],"split_conditions":[-1.3E0,2.08E1,-5.654755E-1,4.32E1,4.41E1,-2.0928571E0,1.74E1,9.8994625E-1,5.01E1,3E1,-1.7E0,-7.482009E-4,7.215E3,5.25E1,-1.1E0,1.0825858E-1,8.382459E-4,6.5680384E-3,9.751783E-2,-8.4487446E-2,-2.8928334E-1,-3.8671833E-2,2.7296903E-2,2.348423E-2,6.512097E-2,5.1607158E-2,1.1492357E-1,3.6930975E-2,-1.925605E-2],"split_indices":[9,2,4,1,1,12,2,4,1,2,9,0,7,1,9,0,0,0,0,0,0,0,0,0,0,0,0,0,0],"split_type":[0,0,0,0,0,0,0,0,0,0,0,0,0,0,0,0,0,0,0,0,0,0,0,0,0,0,0,0,0],"sum_hessian":[3.16E2,1.57E2,1.59E2,2.2E1,1.35E2,8E1,7.9E1,8E0,1.4E1,4.3E1,9.2E1,3E0,7.7E1,1.7E1,6.2E1,7E0,1E0,1.1E1,3E0,3.8E1,5E0,7.6E1,1.6E1,6E0,7.1E1,1.3E1,4E0,1.1E1,5.1E1],"tree_param":{"num_deleted":"0","num_feature":"14","num_nodes":"29","size_leaf_vector":"1"}},{"base_weights":[1.2780288E-1,-7.242427E-1,1.2222211E0,-1.604381E0,4.2655954E-1,-2.0088885E0,1.3305231E0,-2.9471164E0,-1.219175E0,-1.2277147E0,7.469657E-1,-2.0837505E-1,-4.5923557E-2,1.3800105E0,-1.16065085E-1,-1.223335E-1,-4.7098327E-2,9.9089235E-2,-4.9755182E-2,1.4081266E-2,-7.6594695E-2,2.4247672E-2,1.8406636E-1,2.4670228E-2,-4.2824026E-2,1.217216E-1,4.8597895E-2],"categories":[],"categories_nodes":[],"categories_segments":[],"categories_sizes":[],"default_left":[0,0,0,0,0,0,0,0,0,0,0,0,0,0,0,0,0,0,0,0,0,0,0,0,0,0,0],"id":2,"left_children":[1,3,5,7,9,11,13,15,17,19,21,-1,23,25,-1,-1,-1,-1,-1,-1,-1,-1,-1,-1,-1,-1,-1],"loss_changes":[2.9131732E2,1.7847607E2,4.977243E1,4.8986267E1,4.1327198E1,3.1345692E1,3.15327E1,5.7802734E0,2.4092209E1,1.5949806E1,2.8465443E1,0E0,3.2371702E0,2.4844162E1,0E0,0E0,0E0,0E0,0E0,0E0,0E0,0E0,0E0,0E0,0E0,0E0,0E0],"parents":[2147483647,0,0,1,1,2,2,3,3,4,4,5,5,6,6,7,7,8,8,9,9,10,10,12,12,13,13],"right_children":[2,4,6,8,10,12,14,16,18,20,22,-1,24,26,-1,-1,-1,-1,-1,-1,-1,-1,-1,-1,-1,-1,-1],"split_conditions":[1.55E1,-1.3E0,3.109E3,7.7E0,8E0,1.75E1,2.69E-1,-1.1428572E0,1.516E3,2.19E1,2.88E-1,-2.0837505E-1,2.02E1,1.49E1,-1.16065085E-1,-1.223335E-1,-4.7098327E-2,9.9089235E-2,-4.9755182E-2,1.4081266E-2,-7.6594695E-2,2.4247672E-2,1.8406636E-1,2.4670228E-2,-4.2824026E-2,1.217216E-1,4.8597895E-2],"split_indices":[6,9,7,6,6,6,5,11,7,2,5,0,2,2,0,0,0,0,0,0,0,0,0,0,0,0,0],"split_type":[0,0,0,0,0,0,0,0,0,0,0,0,0,0,0,0,0,0,0,0,0,0,0,0,0,0,0],"sum_hessian":[3.11E2,1.75E2,1.36E2,9.9E1,7.6E1,4E0,1.32E2,2.1E1,7.8E1,1.2E1,6.4E1,1E0,3E0,1.31E2,1E0,1.8E1,3E0,1E0,7.7E1,4E0,8E0,6.3E1,1E0,2E0,1E0,7E0,1.24E2],"tree_param":{"num_deleted":"0","num_feature":"14","num_nodes":"27","size_leaf_vector":"1"}},{"base_weights":[-4.1700993E-3,-4.4354305E-1,1.6469191E0,1.2962643E0,-9.957816E-1,5.4684156E-1,1.7900696E0,1.7510761E-1,1.1296957E0,-1.8058027E0,-1.0727611E-1,-1.49449045E-2,7.2334334E-2,1.8284583E0,-9.525408E-3,6.3048035E-2,2.5445668E-2,-5.9956852E-2,-1.782451E-1,1.9100348E-2,-3.2303832E-2,7.923032E-2,5.0552443E-2],"categories":[],"categories_nodes":[],"categories_segments":[],"categories_sizes":[],"default_left":[0,0,0,0,0,0,0,0,0,0,0,0,0,0,0,0,0,0,0,0,0,0,0],"id":3,"left_children":[1,3,5,7,9,11,13,-1,15,17,19,-1,-1,21,-1,-1,-1,-1,-1,-1,-1,-1,-1],"loss_changes":[2.3029083E2,2.4182185E2,9.800735E0,2.9167831E1,1.3712407E2,1.1380357E1,4.9190826E0,0E0,1.3191231E1,6.489908E1,4.076948E1,0E0,0E0,4.86174E0,0E0,0E0,0E0,0E0,0E0,0E0,0E0,0E0,0E0],"parents":[2147483647,0,0,1,1,2,2,3,3,4,4,5,5,6,6,8,8,9,9,10,10,13,13],"right_children":[2,4,6,8,10,12,14,-1,16,18,20,-1,-1,22,-1,-1,-1,-1,-1,-1,-1,-1,-1],"split_conditions":[-6.571429E-1,2.08E1,2.24E1,1.516E3,2.17E-1,4.96E-1,2.8E-2,1.7510761E-1,7.6903087E-1,3.06E1,8.5840154E-1,-1.49449045E-2,7.2334334E-2,3E1,-9.525408E-3,6.3048035E-2,2.5445668E-2,-5.9956852E-2,-1.782451E-1,1.9100348E-2,-3.2303832E-2,7.923032E-2,5.0552443E-2],"split_indices":[12,2,2,7,8,8,5,0,3,2,3,0,0,2,0,0,0,0,0,0,0,0,0],"split_type":[0,0,0,0,0,0,0,0,0,0,0,0,0,0,0,0,0,0,0,0,0,0,0],"sum_hessian":[3.16E2,2.5E2,6.6E1,6E1,1.9E2,8E0,5.8E1,2E0,5.8E1,9.9E1,9.1E1,5E0,3E0,5.7E1,1E0,2.7E1,3.1E1,9.2E1,7E0,5E1,4.1E1,3.8E1,1.9E1],"tree_param":{"num_deleted":"0","num_feature":"14","num_nodes":"23","size_leaf_vector":"1"}},{"base_weights":[7.498117E-2,-9.1683316E-1,7.784976E-1,1.1515108E0,-1.36696E0,2.9094636E-1,1.6089396E0,2.0942976E0,2.16877E-1,-3.6989758E0,-1.0990745E0,2.3265414E0,-6.1508738E-2,-2.5709147E-2,1.6791359E0,4.1410103E-3,1.0396732E-1,-1.9395009E-2,4.959667E-2,-2.3978311E-1,-8.915149E-2,-1.07085146E-1,-3.3994798E-2,3.939605E-2,1.2441915E-1,-4.5762844E-2,9.659249E-3,9.673675E-2,5.7059597E-2],"categories":[],"categories_nodes":[],"categories_segments":[],"categories_sizes":[],"default_left":[0,0,0,0,0,0,0,0,0,0,0,0,0,0,0,0,0,0,0,0,0,0,0,0,0,0,0,0,0],"id":4,"left_children":[1,3,5,7,9,11,13,15,17,19,21,23,25,-1,27,-1,-1,-1,-1,-1,-1,-1,-1,-1,-1,-1,-1,-1,-1],"loss_changes":[2.3825612E2,1.3308102E2,8.052608E1,2.2337067E1,6.998392E1,9.102043E1,1.2589401E1,1.5084999E1,1.1054132E1,3.059938E1,3.669934E1,1.9676483E1,3.8470497E1,0E0,9.115952E0,0E0,0E0,0E0,0E0,0E0,0E0,0E0,0E0,0E0,0E0,0E0,0E0,0E0,0E0],"parents":[2147483647,0,0,1,1,2,2,3,3,4,4,5,5,6,6,7,7,8,8,9,9,10,10,11,11,12,12,14,14],"right_children":[2,4,6,8,10,12,14,16,18,20,22,24,26,-1,28,-1,-1,-1,-1,-1,-1,-1,-1,-1,-1,-1,-1,-1,-1],"split_conditions":[-1.7E0,2.08E1,-6.571429E-1,3.5344467E-1,-3.142857E0,1.75E1,-8.048257E-1,3.29E3,9.248026E-1,-4.300593E-3,-5.5E0,2.302483E0,4.454E3,-2.5709147E-2,7.1428575E-2,4.1410103E-3,1.0396732E-1,-1.9395009E-2,4.959667E-2,-2.3978311E-1,-8.915149E-2,-1.07085146E-1,-3.3994798E-2,3.939605E-2,1.2441915E-1,-4.5762844E-2,9.659249E-3,9.673675E-2,5.7059597E-2],"split_indices":[9,2,12,3,12,2,3,7,3,3,9,13,7,0,12,0,0,0,0,0,0,0,0,0,0,0,0,0,0],"split_type":[0,0,0,0,0,0,0,0,0,0,0,0,0,0,0,0,0,0,0,0,0,0,0,0,0,0,0,0,0],"sum_hessian":[3.4E2,1.41E2,1.99E2,2.5E1,1.16E2,1.26E2,7.3E1,1.2E1,1.3E1,1.1E1,1.05E2,1.8E1,1.08E2,2E0,7.1E1,3E0,9E0,8E0,5E0,3E0,8E0,1.1E1,9.4E1,8E0,1E1,2.3E1,8.5E1,1.2E1,5.9E1],"tree_param":{"num_deleted":"0","num_feature":"14","num_nodes":"29","size_leaf_vector":"1"}},{"base_weights":[-3.87245E-2,1.383914E0,-5.904468E-1,-2.5571551E-2,1.4611719E0,1.6866523E-1,-6.482241E-1,1.3581337E0,2.5264E0,-1.1507604E0,-1.142308E-1,2.1749277E-2,5.549787E-2,1.0911367E-1,1.7269198E-2,-5.2930538E-2,-2.5920337E-3,1.09821886E-1,-7.2296183E-3],"categories":[],"categories_nodes":[],"categories_segments":[],"categories_sizes":[],"default_left":[0,0,0,0,0,0,0,0,0,0,0,0,0,0,0,0,0,0,0],"id":5,"left_children":[1,3,5,-1,7,-1,9,11,13,15,17,-1,-1,-1,-1,-1,-1,-1,-1],"loss_changes":[2.4918484E2,1.4736954E1,6.772233E1,0E0,6.9328156E0,0E0,6.0746094E1,4.6514893E0,3.3663864E0,2.8202179E1,2.4514244E1,0E0,0E0,0E0,0E0,0E0,0E0,0E0,0E0],"parents":[2147483647,0,0,1,1,2,2,4,4,6,6,7,7,8,8,9,9,10,10],"right_children":[2,4,6,-1,8,-1,10,12,14,16,18,-1,-1,-1,-1,-1,-1,-1,-1],"split_conditions":[-5.654755E-1,-2.9E0,1.516E3,-2.5571551E-2,5.15E-1,1.6866523E-1,4.75E1,-2.05E0,2.1E0,-1.2571429E0,-4.285714E0,2.1749277E-2,5.549787E-2,1.0911367E-1,1.7269198E-2,-5.2930538E-2,-2.5920337E-3,1.09821886E-1,-7.2296183E-3],"split_indices":[4,10,7,0,8,0,1,12,10,11,11,0,0,0,0,0,0,0,0],"split_type":[0,0,0,0,0,0,0,0,0,0,0,0,0,0,0,0,0,0,0],"sum_hessian":[3.16E2,8.8E1,2.28E2,3E0,8.5E1,2E0,2.26E2,7.9E1,6E0,1.16E2,1.1E2,8E0,7.1E1,5E0,1E0,9.6E1,2E1,2E0,1.08E2],"tree_param":{"num_deleted":"0","num_feature":"14","num_nodes":"19","size_leaf_vector":"1"}},{"base_weights":[1.1985338E-1,-5.318608E-1,1.041825E0,1.9926989E0,-9.934574E-1,3.059925E-1,1.4598644E0,1.0011818E0,3.0962043E0,-1.2927569E0,9.7853357E-1,1.2036887E-1,7.669864E-2,1.4977947E0,-3.9232053E-2,-4.2940114E-2,4.5715038E-2,4.1024216E-2,1.3837643E-1,-6.712682E-2,-1.1491815E-2,-6.846174E-2,6.443493E-2,-1.1643683E-2,2.9646093E-2,5.2663397E-2,9.71065E-2],"categories":[],"categories_nodes":[],"categories_segments":[],"categories_sizes":[],"default_left":[0,0,0,0,0,0,0,0,0,0,0,0,0,0,0,0,0,0,0,0,0,0,0,0,0,0,0],"id":6,"left_children":[1,3,5,7,9,11,13,15,17,19,21,-1,23,25,-1,-1,-1,-1,-1,-1,-1,-1,-1,-1,-1,-1,-1],"loss_changes":[1.9551273E2,2.2368166E2,4.1118927E1,3.0282852E1,9.636348E1,3.1969193E1,9.159592E0,7.528187E0,1.1078873E1,6.2612167E1,4.3720886E1,0E0,1.2440383E1,8.822632E0,0E0,0E0,0E0,0E0,0E0,0E0,0E0,0E0,0E0,0E0,0E0,0E0,0E0],"parents":[2147483647,0,0,1,1,2,2,3,3,4,4,5,5,6,6,7,7,8,8,9,9,10,10,12,12,13,13],"right_children":[2,4,6,8,10,12,14,16,18,20,22,-1,24,26,-1,-1,-1,-1,-1,-1,-1,-1,-1,-1,-1,-1,-1],"split_conditions":[2.93E-1,1.76E1,-7E-1,2.6804407E0,2.01E1,5.555E3,2.55E1,1.3996599E0,-4.9714284E0,-1.3428571E0,1.3825443E0,1.2036887E-1,8.165E3,2.12E1,-3.9232053E-2,-4.2940114E-2,4.5715038E-2,4.1024216E-2,1.3837643E-1,-6.712682E-2,-1.1491815E-2,-6.846174E-2,6.443493E-2,-1.1643683E-2,2.9646093E-2,5.2663397E-2,9.71065E-2],"split_indices":[8,2,11,13,6,7,6,13,11,11,13,0,7,6,0,0,0,0,0,0,0,0,0,0,0,0,0],"split_type":[0,0,0,0,0,0,0,0,0,0,0,0,0,0,0,0,0,0,0,0,0,0,0,0,0,0,0],"sum_hessian":[3.24E2,1.9E2,1.34E2,2.9E1,1.61E2,4.9E1,8.5E1,1.6E1,1.3E1,1.4E2,2.1E1,3E0,4.6E1,8.4E1,1E0,1E0,1.5E1,3E0,1E1,9.6E1,4.4E1,4E0,1.7E1,3E1,1.6E1,7.6E1,8E0],"tree_param":{"num_deleted":"0","num_feature":"14","num_nodes":"27","size_leaf_vector":"1"}},{"base_weights":[1.9670242E-2,-8.7695557E-1,8.1583697E-1,-1.8398328E0,-4.1409567E-1,3.7164024E-1,1.5693396E0,-1.0385535E0,-4.9772344E0,-5.6284094E-1,1.4685407E0,1.6637847E-1,3.054366E-1,1.8186128E0,5.835443E-1,2.990231E-2,-6.752234E-2,-2.5201464E-1,-1.3772084E-1,1.7522072E-2,-3.286367E-2,8.801096E-3,8.55606E-2,-1.5148199E-2,2.3435319E-2,9.666885E-2,6.1584167E-2,6.855212E-2,-9.61214E-3],"categories":[],"categories_nodes":[],"categories_segments":[],"categories_sizes":[],"default_left":[0,0,0,0,0,0,0,0,0,0,0,0,0,0,0,0,0,0,0,0,0,0,0,0,0,0,0,0,0],"id":7,"left_children":[1,3,5,7,9,11,13,15,17,19,21,-1,23,25,27,-1,-1,-1,-1,-1,-1,-1,-1,-1,-1,-1,-1,-1,-1],"loss_changes":[2.2875386E2,6.6623405E1,5.638553E1,1.187529E2,2.9361864E1,2.7204914E1,1.4646927E1,5.24997E1,4.453537E0,2.8575537E1,6.8432884E0,0E0,2.2770851E1,4.6535187E0,1.3996822E1,0E0,0E0,0E0,0E0,0E0,0E0,0E0,0E0,0E0,0E0,0E0,0E0,0E0,0E0],"parents":[2147483647,0,0,1,1,2,2,3,3,4,4,5,5,6,6,7,7,8,8,9,9,10,10,12,12,13,13,14,14],"right_children":[2,4,6,8,10,12,14,16,18,20,22,-1,24,26,28,-1,-1,-1,-1,-1,-1,-1,-1,-1,-1,-1,-1,-1,-1],"split_conditions":[-1.4E0,4.41E1,3.55E-1,7.07E1,-6.428572E-2,4.82E1,1.5E0,6.06E1,4.005E3,7.05E1,1.042E2,1.6637847E-1,-1.7E0,7.919E3,-9.919631E-1,2.990231E-2,-6.752234E-2,-2.5201464E-1,-1.3772084E-1,1.7522072E-2,-3.286367E-2,8.801096E-3,8.55606E-2,-1.5148199E-2,2.3435319E-2,9.666885E-2,6.1584167E-2,6.855212E-2,-9.61214E-3],"split_indices":[9,1,8,0,12,0,10,0,7,0,0,0,10,7,4,0,0,0,0,0,0,0,0,0,0,0,0,0,0],"split_type":[0,0,0,0,0,0,0,0,0,0,0,0,0,0,0,0,0,0,0,0,0,0,0,0,0,0,0,0,0],"sum_hessian":[3.19E2,1.5E2,1.69E2,4.8E1,1.02E2,1.07E2,6.2E1,3.9E1,9E0,9.5E1,7E0,1E0,1.06E2,4.9E1,1.3E1,1.1E1,2.8E1,3E0,6E0,2.1E1,7.4E1,3E0,4E0,3.2E1,7.4E1,1E1,3.9E1,5E0,8E0],"tree_param":{"num_deleted":"0","num_feature":"14","num_nodes":"29","size_leaf_vector":"1"}},{"base_weights":[-1.2808214E-1,1.2973752E0,-6.8795955E-1,3.8990363E-2,1.4390849E0,-1.0660692E0,1.4876887E0,-4.6916154E-1,3.6558595E-2,1.4794415E0,-3.8878657E-2,-1.5732851E0,-3.1712744E-1,7.54379E-1,3.527273E0,-3.0292088E-2,7.925447E-3,1.7908923E-2,6.0026146E-2,-8.052744E-2,-2.149563E-2,-3.7396077E-2,6.985695E-6,6.5602735E-2,1.5535146E-2,5.6554068E-2,1.533755E-1],"categories":[],"categories_nodes":[],"categories_segments":[],"categories_sizes":[],"default_left":[0,0,0,0,0,0,0,0,0,0,0,0,0,0,0,0,0,0,0,0,0,0,0,0,0,0,0],"id":8,"left_children":[1,3,5,7,9,11,13,15,-1,17,-1,19,21,23,25,-1,-1,-1,-1,-1,-1,-1,-1,-1,-1,-1,-1],"loss_changes":[2.5101941E2,1.57808075E1,1.8683054E2,4.817876E0,8.955292E0,7.285011E1,4.851548E1,1.5564787E0,0E0,5.7927094E0,0E0,5.943158E1,1.6332165E1,8.072046E0,3.9506912E0,0E0,0E0,0E0,0E0,0E0,0E0,0E0,0E0,0E0,0E0,0E0,0E0],"parents":[2147483647,0,0,1,1,2,2,3,3,4,4,5,5,6,6,7,7,9,9,11,11,12,12,13,13,14,14],"right_children":[2,4,6,8,10,12,14,16,-1,18,-1,20,22,24,26,-1,-1,-1,-1,-1,-1,-1,-1,-1,-1,-1,-1],"split_conditions":[-5.654755E-1,-2.0928571E0,2.05E1,6.43E1,2.55E1,2.17E-1,5.129784E-1,-2E0,3.6558595E-2,5.7693774E-1,-3.8878657E-2,-1.3E0,-2.5E0,-2.7714286E0,1.26E-1,-3.0292088E-2,7.925447E-3,1.7908923E-2,6.0026146E-2,-8.052744E-2,-2.149563E-2,-3.7396077E-2,6.985695E-6,6.5602735E-2,1.5535146E-2,5.6554068E-2,1.533755E-1],"split_indices":[4,12,6,1,6,8,4,10,0,13,0,9,9,11,8,0,0,0,0,0,0,0,0,0,0,0,0],"split_type":[0,0,0,0,0,0,0,0,0,0,0,0,0,0,0,0,0,0,0,0,0,0,0,0,0,0,0],"sum_hessian":[3.13E2,8.8E1,2.25E2,9E0,7.9E1,1.92E2,3.3E1,6E0,3E0,7.8E1,1E0,1.14E2,7.8E1,2.5E1,8E0,4E0,2E0,6E0,7.2E1,7.5E1,3.9E1,2.5E1,5.3E1,6E0,1.9E1,2E0,6E0],"tree_param":{"num_deleted":"0","num_feature":"14","num_nodes":"27","size_leaf_vector":"1"}},{"base_weights":[-2.9450724E-2,1.1412866E0,-4.8328736E-1,1.2175884E0,-4.8304963E-1,1.930085E0,-8.0598354E-1,2.1121961E-1,1.3279046E0,3.7415817E-2,-4.0912017E-2,2.942982E0,1.1815362E0,-1.0151935E0,8.23087E-1,-2.6417846E-2,2.6392922E-2,8.340706E-2,4.519042E-2,7.966109E-2,1.7031674E-1,1.8438425E-2,7.8838475E-2,-5.62251E-2,-7.649735E-3,9.998442E-2,6.579139E-4],"categories":[],"categories_nodes":[],"categories_segments":[],"categories_sizes":[],"default_left":[0,0,0,0,0,0,0,0,0,0,0,0,0,0,0,0,0,0,0,0,0,0,0,0,0,0,0],"id":9,"left_children":[1,3,5,7,9,11,13,15,17,-1,-1,19,21,23,25,-1,-1,-1,-1,-1,-1,-1,-1,-1,-1,-1,-1],"loss_changes":[1.7824344E2,1.2040222E1,1.8937189E2,9.758377E0,4.7223134E0,1.926764E1,7.344302E1,4.4736247E0,8.618729E0,0E0,0E0,8.564713E0,1.0071596E1,6.867552E1,3.5294678E1,0E0,0E0,0E0,0E0,0E0,0E0,0E0,0E0,0E0,0E0,0E0,0E0],"parents":[2147483647,0,0,1,1,2,2,3,3,4,4,5,5,6,6,7,7,8,8,11,11,12,12,13,13,14,14],"right_children":[2,4,6,8,10,12,14,16,18,-1,-1,20,22,24,26,-1,-1,-1,-1,-1,-1,-1,-1,-1,-1,-1,-1],"split_conditions":[-5.654755E-1,2.55E1,1.74E1,2.24E1,2.06E1,6.166212E-1,2.07E1,-6.2504965E-1,2.42E1,3.7415817E-2,-4.0912017E-2,3.5344467E-1,9.1812146E-1,8.17E1,5.7518995E-1,-2.6417846E-2,2.6392922E-2,8.340706E-2,4.519042E-2,7.966109E-2,1.7031674E-1,1.8438425E-2,7.8838475E-2,-5.62251E-2,-7.649735E-3,9.998442E-2,6.579139E-4],"split_indices":[4,6,2,2,2,3,6,3,2,0,0,3,3,0,3,0,0,0,0,0,0,0,0,0,0,0,0],"split_type":[0,0,0,0,0,0,0,0,0,0,0,0,0,0,0,0,0,0,0,0,0,0,0,0,0,0,0],"sum_hessian":[3.34E2,9.3E1,2.41E2,8.9E1,4E0,2.8E1,2.13E2,9E0,8E1,1E0,3E0,1.1E1,1.7E1,1.89E2,2.4E1,3E0,6E0,1.1E1,6.9E1,8E0,3E0,1E1,7E0,1.22E2,6.7E1,7E0,1.7E1],"tree_param":{"num_deleted":"0","num_feature":"14","num_nodes":"27","size_leaf_vector":"1"}},{"base_weights":[-2.3853362E-2,-9.5309514E-1,6.2447375E-1,-1.4097216E0,6.480074E-1,7.594919E-1,-1.4245224E0,9.4262086E-2,-1.4977293E0,1.6769097E0,-1.3107957E-1,3.4640045E0,6.7275536E-1,-8.115371E-2,5.3991035E-2,-7.6071694E-2,-2.3501975E-2,8.645315E-2,9.690734E-3,-2.5141742E-2,1.1636304E-2,4.9183384E-2,1.6914539E-1,8.382715E-3,4.7451068E-2,3.1707816E-2,-1.2029497E-2],"categories":[],"categories_nodes":[],"categories_segments":[],"categories_sizes":[],"default_left":[0,0,0,0,0,0,0,0,0,0,0,0,0,0,0,0,0,0,0,0,0,0,0,0,0,0,0],"id":10,"left_children":[1,3,5,7,9,11,13,-1,15,17,19,21,23,-1,25,-1,-1,-1,-1,-1,-1,-1,-1,-1,-1,-1,-1],"loss_changes":[2.0630054E2,1.0354154E2,5.658732E1,3.989102E1,2.558678E1,4.282328E1,1.292045E1,0E0,4.477275E1,1.0696518E1,4.3734884E0,7.5616684E0,4.6823105E1,0E0,1.5161146E0,0E0,0E0,0E0,0E0,0E0,0E0,0E0,0E0,0E0,0E0,0E0,0E0],"parents":[2147483647,0,0,1,1,2,2,3,3,4,4,5,5,6,6,8,8,9,9,10,10,11,11,12,12,14,14],"right_children":[2,4,6,8,10,12,14,-1,16,18,20,22,24,-1,26,-1,-1,-1,-1,-1,-1,-1,-1,-1,-1,-1,-1],"split_conditions":[-1.7E0,1.88E1,8.9976585E-1,1.7E1,3.5344467E-1,1.3E1,9.4E0,9.4262086E-2,2.17E-1,5.129E3,8.806829E-1,1.02E1,7.596E3,-8.115371E-2,5.29E1,-7.6071694E-2,-2.3501975E-2,8.645315E-2,9.690734E-3,-2.5141742E-2,1.1636304E-2,4.9183384E-2,1.6914539E-1,8.382715E-3,4.7451068E-2,3.1707816E-2,-1.2029497E-2],"split_indices":[9,6,4,2,3,2,6,0,8,7,3,2,7,0,0,0,0,0,0,0,0,0,0,0,0,0,0],"split_type":[0,0,0,0,0,0,0,0,0,0,0,0,0,0,0,0,0,0,0,0,0,0,0,0,0,0,0],"sum_hessian":[3.41E2,1.4E2,2.01E2,1.09E2,3.1E1,1.89E2,1.2E1,2E0,1.07E2,1.3E1,1.8E1,5E0,1.84E2,8E0,4E0,6.9E1,3.8E1,9E0,4E0,8E0,1E1,2E0,3E0,1.02E2,8.2E1,1E0,3E0],"tree_param":{"num_deleted":"0","num_feature":"14","num_nodes":"27","size_leaf_vector":"1"}},{"base_weights":[-6.768589E-2,-8.6680454E-1,7.070281E-1,-1.335408E0,8.0746275E-1,2.3518787E-1,1.4490768E0,-1.691487E0,2.0211007E-1,1.3115717E0,-5.862526E-1,1.3759214E0,-1.0048414E-1,2.237027E0,1.2502885E0,-5.2968826E-2,-1.3286607E-1,-1.0677089E-2,4.0418696E-2,8.509683E-2,3.143854E-2,-4.0798396E-2,2.9490122E-3,-1.5576439E-2,6.015379E-2,-3.169141E-2,1.610183E-2,2.29686E-2,9.745341E-2,-4.680671E-2,5.0692555E-2],"categories":[],"categories_nodes":[],"categories_segments":[],"categories_sizes":[],"default_left":[0,0,0,0,0,0,0,0,0,0,0,0,0,0,0,0,0,0,0,0,0,0,0,0,0,0,0,0,0,0,0],"id":11,"left_children":[1,3,5,7,9,11,13,15,17,19,21,23,25,27,29,-1,-1,-1,-1,-1,-1,-1,-1,-1,-1,-1,-1,-1,-1,-1,-1],"loss_changes":[1.9713997E2,1.2373671E2,5.6377396E1,6.743407E1,2.4949673E1,3.82844E1,7.8061676E0,5.201764E1,9.84445E0,1.01375885E1,3.1066625E0,7.9766693E0,2.936121E1,4.5509872E0,9.5579605E0,0E0,0E0,0E0,0E0,0E0,0E0,0E0,0E0,0E0,0E0,0E0,0E0,0E0,0E0,0E0,0E0],"parents":[2147483647,0,0,1,1,2,2,3,3,4,4,5,5,6,6,7,7,8,8,9,9,10,10,11,11,12,12,13,13,14,14],"right_children":[2,4,6,8,10,12,14,16,18,20,22,24,26,28,30,-1,-1,-1,-1,-1,-1,-1,-1,-1,-1,-1,-1,-1,-1,-1,-1],"split_conditions":[-1.3E0,1.88E1,3.55E-1,6.07E1,2.58E1,1.76E1,2.33E1,3.03E1,3.32E-1,-2.7714286E0,2.79E1,1.3996599E0,2.03E-1,1.91E1,2.46E1,-5.2968826E-2,-1.3286607E-1,-1.0677089E-2,4.0418696E-2,8.509683E-2,3.143854E-2,-4.0798396E-2,2.9490122E-3,-1.5576439E-2,6.015379E-2,-3.169141E-2,1.610183E-2,2.29686E-2,9.745341E-2,-4.680671E-2,5.0692555E-2],"split_indices":[9,6,8,1,2,2,2,2,8,11,2,13,8,6,2,0,0,0,0,0,0,0,0,0,0,0,0,0,0,0,0],"split_type":[0,0,0,0,0,0,0,0,0,0,0,0,0,0,0,0,0,0,0,0,0,0,0,0,0,0,0,0,0,0,0],"sum_hessian":[3.17E2,1.56E2,1.61E2,1.22E2,3.4E1,9.9E1,6.2E1,9.9E1,2.3E1,2.5E1,9E0,2.2E1,7.7E1,1.1E1,5.1E1,8.5E1,1.4E1,1.5E1,8E0,8E0,1.7E1,5E0,4E0,2E0,2E1,3.2E1,4.5E1,2E0,9E0,1E0,5E1],"tree_param":{"num_deleted":"0","num_feature":"14","num_nodes":"31","size_leaf_vector":"1"}},{"base_weights":[9.435339E-2,1.0564321E0,-3.2785764E-1,1.1348679E0,-4.0842447E-2,1.3433326E0,-7.9198444E-1,1.0054382E-1,1.2478901E0,1.7917466E0,-1.0590584E-1,-1.492199E0,-1.09608546E-1,-1.7569438E-2,2.107843E-2,3.1825144E-2,5.6097407E-2,2.462317E-2,8.557386E-2,-4.134341E-2,1.9088605E-2,-3.6665104E-2,-1.1125E-1,1.4882651E-1,-9.160362E-3],"categories":[],"categories_nodes":[],"categories_segments":[],"categories_sizes":[],"default_left":[0,0,0,0,0,0,0,0,0,0,0,0,0,0,0,0,0,0,0,0,0,0,0,0,0],"id":12,"left_children":[1,3,5,7,-1,9,11,13,15,17,19,21,23,-1,-1,-1,-1,-1,-1,-1,-1,-1,-1,-1,-1],"loss_changes":[1.2484033E2,1.6429749E1,1.6653957E2,1.0514954E1,0E0,3.049936E1,8.002094E1,2.5979826E0,6.3192444E0,1.6680878E1,7.205846E0,6.0414032E1,4.4343754E1,0E0,0E0,0E0,0E0,0E0,0E0,0E0,0E0,0E0,0E0,0E0,0E0],"parents":[2147483647,0,0,1,1,2,2,3,3,5,5,6,6,7,7,8,8,9,9,10,10,11,11,12,12],"right_children":[2,4,6,8,-1,10,12,14,16,18,20,22,24,-1,-1,-1,-1,-1,-1,-1,-1,-1,-1,-1,-1],"split_conditions":[-5.795791E-1,2.55E1,1.92E1,-2.107143E0,-4.0842447E-2,-1.9214286E0,2.01E-1,1.41E1,1.5E1,-2.9214287E0,1.95E1,6.96E1,4.48E3,-1.7569438E-2,2.107843E-2,3.1825144E-2,5.6097407E-2,2.462317E-2,8.557386E-2,-4.134341E-2,1.9088605E-2,-3.6665104E-2,-1.1125E-1,1.4882651E-1,-9.160362E-3],"split_indices":[4,6,2,12,0,12,8,6,6,12,6,0,7,0,0,0,0,0,0,0,0,0,0,0,0],"split_type":[0,0,0,0,0,0,0,0,0,0,0,0,0,0,0,0,0,0,0,0,0,0,0,0,0],"sum_hessian":[3.06E2,9.3E1,2.13E2,9E1,3E0,4.6E1,1.67E2,9E0,8.1E1,3.5E1,1.1E1,8.2E1,8.5E1,4E0,5E0,2.8E1,5.3E1,1E1,2.5E1,4E0,7E0,6E1,2.2E1,2E0,8.3E1],"tree_param":{"num_deleted":"0","num_feature":"14","num_nodes":"25","size_leaf_vector":"1"}},{"base_weights":[-7.424775E-2,-4.7606027E-1,9.5315886E-1,8.1160414E-1,-8.251705E-1,-5.531908E-2,1.0202167E0,1.5904955E0,2.292718E-1,-2.534085E0,-6.459E-1,1.2230875E0,4.757305E-1,1.0946188E-2,7.282009E-2,-1.187703E-1,1.6524801E-2,2.9446863E-2,-1.0703205E-1,-3.6639426E-2,-9.583432E-3,-2.6374944E-2,4.9840543E-2,-5.1945306E-2,3.3695694E-2],"categories":[],"categories_nodes":[],"categories_segments":[],"categories_sizes":[],"default_left":[0,0,0,0,0,0,0,0,0,0,0,0,0,0,0,0,0,0,0,0,0,0,0,0,0],"id":13,"left_children":[1,3,5,7,9,-1,11,13,15,17,19,21,23,-1,-1,-1,-1,-1,-1,-1,-1,-1,-1,-1,-1],"loss_changes":[1.3025232E2,1.0240297E2,1.5273445E1,2.1835678E1,5.3571686E1,0E0,9.159424E0,7.738537E0,1.9964905E1,1.5041969E1,1.9562561E1,9.133156E0,1.8854294E1,0E0,0E0,0E0,0E0,0E0,0E0,0E0,0E0,0E0,0E0,0E0,0E0],"parents":[2147483647,0,0,1,1,2,2,3,3,4,4,6,6,7,7,8,8,9,9,10,10,11,11,12,12],"right_children":[2,4,6,8,10,-1,12,14,16,18,20,22,24,-1,-1,-1,-1,-1,-1,-1,-1,-1,-1,-1,-1],"split_conditions":[-5.857143E-1,2.1E1,3.79E1,6.02E1,-3.142857E0,-5.531908E-2,3.05E1,1.8536965E0,1.844E3,9.178131E-1,8.3E1,-2.9E0,7.658E3,1.0946188E-2,7.282009E-2,-1.187703E-1,1.6524801E-2,2.9446863E-2,-1.0703205E-1,-3.6639426E-2,-9.583432E-3,-2.6374944E-2,4.9840543E-2,-5.1945306E-2,3.3695694E-2],"split_indices":[11,2,1,0,12,0,2,13,7,13,0,10,7,0,0,0,0,0,0,0,0,0,0,0,0],"split_type":[0,0,0,0,0,0,0,0,0,0,0,0,0,0,0,0,0,0,0,0,0,0,0,0,0],"sum_hessian":[3.14E2,2.26E2,8.8E1,4.8E1,1.78E2,2E0,8.6E1,2E1,2.8E1,1.6E1,1.62E2,6.2E1,2.4E1,4E0,1.6E1,1E0,2.7E1,1E0,1.5E1,9.1E1,7.1E1,2E0,6E1,4E0,2E1],"tree_param":{"num_deleted":"0","num_feature":"14","num_nodes":"25","size_leaf_vector":"1"}},{"base_weights":[9.412157E-2,-4.773904E-1,7.116E-1,-1.2533028E0,2.0297343E-1,1.0936418E0,-3.4575112E-2,-4.8133177E-1,-1.6117297E0,1.1193614E-1,7.9581246E-2,-9.9112487E-1,1.2623838E0,1.746686E0,-2.5693583E-1,3.2271195E-2,-3.2600816E-2,-2.0049165E-1,-5.6381818E-2,-4.386432E-2,1.07039595E-2,5.249706E-3,-1.9170888E-1,1.187555E-1,4.264187E-2,2.113213E-2,8.7972075E-2,-3.5952166E-2,3.6707933E-3],"categories":[],"categories_nodes":[],"categories_segments":[],"categories_sizes":[],"default_left":[0,0,0,0,0,0,0,0,0,0,0,0,0,0,0,0,0,0,0,0,0,0,0,0,0,0,0,0,0],"id":14,"left_children":[1,3,5,7,9,11,13,15,17,-1,19,21,23,25,27,-1,-1,-1,-1,-1,-1,-1,-1,-1,-1,-1,-1,-1,-1],"loss_changes":[1.0848605E2,8.450104E1,4.2138283E1,2.0115303E1,2.8427414E1,3.528009E1,2.0413744E1,1.2419542E1,2.1447662E1,0E0,2.0219751E1,3.519358E1,2.3180405E1,2.7794838E0,1.095986E1,0E0,0E0,0E0,0E0,0E0,0E0,0E0,0E0,0E0,0E0,0E0,0E0,0E0,0E0],"parents":[2147483647,0,0,1,1,2,2,3,3,4,4,5,5,6,6,7,7,8,8,10,10,11,11,12,12,13,13,14,14],"right_children":[2,4,6,8,10,12,14,16,18,-1,20,22,24,26,28,-1,-1,-1,-1,-1,-1,-1,-1,-1,-1,-1,-1,-1,-1],"split_conditions":[1.51E1,-1.7E0,8.1116027E-1,-3.4E0,-6.2E0,-5.1E0,1.47E-1,1.17E-1,-4.6571426E0,1.1193614E-1,-2.9E0,-2.4714286E0,-4.1E0,1.28E-1,2.17E-1,3.2271195E-2,-3.2600816E-2,-2.0049165E-1,-5.6381818E-2,-4.386432E-2,1.07039595E-2,5.249706E-3,-1.9170888E-1,1.187555E-1,4.264187E-2,2.113213E-2,8.7972075E-2,-3.5952166E-2,3.6707933E-3],"split_indices":[6,9,3,10,10,9,8,8,11,0,10,11,10,8,8,0,0,0,0,0,0,0,0,0,0,0,0,0,0],"split_type":[0,0,0,0,0,0,0,0,0,0,0,0,0,0,0,0,0,0,0,0,0,0,0,0,0,0,0,0,0],"sum_hessian":[3.06E2,1.59E2,1.47E2,7.4E1,8.5E1,9.7E1,5E1,2.4E1,5E1,3E0,8.2E1,7E0,9E1,5E0,4.5E1,5E0,1.9E1,1E0,4.9E1,1.1E1,7.1E1,6E0,1E0,6E0,8.4E1,2E0,3E0,1.5E1,3E1],"tree_param":{"num_deleted":"0","num_feature":"14","num_nodes":"29","size_leaf_vector":"1"}},{"base_weights":[6.5084696E-2,-6.175797E-1,7.177245E-1,1.2795755E0,-9.4145024E-1,8.4185994E-1,-1.0756475E0,2.0467203E0,4.3365934E-1,-1.5092531E0,-2.79846E-1,2.798984E0,7.324849E-1,-5.687275E-2,1.9049168E-2,9.386895E-2,2.8297668E-2,-1.814591E-2,5.5534746E-2,-4.4400614E-2,-1.5204309E-1,3.385514E-2,-2.43841E-2,2.9123722E-2,1.5334173E-1,1.5299602E-2,5.6547403E-2],"categories":[],"categories_nodes":[],"categories_segments":[],"categories_sizes":[],"default_left":[0,0,0,0,0,0,0,0,0,0,0,0,0,0,0,0,0,0,0,0,0,0,0,0,0,0,0],"id":15,"left_children":[1,3,5,7,9,11,13,15,17,19,21,23,25,-1,-1,-1,-1,-1,-1,-1,-1,-1,-1,-1,-1,-1,-1],"loss_changes":[1.4009346E2,9.53208E1,3.643342E1,1.4104458E1,4.917785E1,3.0784126E1,7.278096E0,4.7132874E0,1.1183432E1,5.8181854E1,2.5669605E1,1.6478413E1,3.5027405E1,0E0,0E0,0E0,0E0,0E0,0E0,0E0,0E0,0E0,0E0,0E0,0E0,0E0,0E0],"parents":[2147483647,0,0,1,1,2,2,3,3,4,4,5,5,6,6,7,7,8,8,9,9,10,10,11,11,12,12],"right_children":[2,4,6,8,10,12,14,16,18,20,22,24,26,-1,-1,-1,-1,-1,-1,-1,-1,-1,-1,-1,-1,-1,-1],"split_conditions":[-1.3E0,2.09E1,8.9976585E-1,4.4216815E-1,2.17E-1,1.42E1,1.2E0,2.01E1,9.248026E-1,3.04E1,2.51E1,-3.2285714E0,7.46E1,-5.687275E-2,1.9049168E-2,9.386895E-2,2.8297668E-2,-1.814591E-2,5.5534746E-2,-4.4400614E-2,-1.5204309E-1,3.385514E-2,-2.43841E-2,2.9123722E-2,1.5334173E-1,1.5299602E-2,5.6547403E-2],"split_indices":[9,2,4,3,8,2,9,2,3,2,2,11,1,0,0,0,0,0,0,0,0,0,0,0,0,0,0],"split_type":[0,0,0,0,0,0,0,0,0,0,0,0,0,0,0,0,0,0,0,0,0,0,0,0,0,0,0],"sum_hessian":[3.13E2,1.53E2,1.6E2,2.2E1,1.31E2,1.5E2,1E1,1.1E1,1.1E1,7E1,6.1E1,7E0,1.43E2,8E0,2E0,8E0,3E0,6E0,5E0,6.2E1,8E0,1.4E1,4.7E1,3E0,4E0,9.9E1,4.4E1],"tree_param":{"num_deleted":"0","num_feature":"14","num_nodes":"27","size_leaf_vector":"1"}},{"base_weights":[-2.1033E-2,-8.965925E-1,5.97573E-1,1.2455169E-1,-1.2731757E0,2.888429E0,4.744081E-1,-2.2368104E0,4.966547E-1,-1.8316267E0,-5.035102E-1,2.6954398E-2,1.5204468E-1,9.9300015E-1,4.820143E-2,-3.108373E-2,-1.1837509E-1,4.883165E-2,6.56673E-3,-5.5592716E-2,-1.8374203E-1,-4.0378742E-2,2.3031896E-3,3.1756926E-2,6.8064526E-2,7.7757924E-3,-4.864928E-2],"categories":[],"categories_nodes":[],"categories_segments":[],"categories_sizes":[],"default_left":[0,0,0,0,0,0,0,0,0,0,0,0,0,0,0,0,0,0,0,0,0,0,0,0,0,0,0],"id":16,"left_children":[1,3,5,7,9,11,13,15,17,19,21,-1,-1,23,25,-1,-1,-1,-1,-1,-1,-1,-1,-1,-1,-1,-1],"loss_changes":[1.605572E2,4.730651E1,4.8027264E1,3.0431728E1,3.7898666E1,1.8225761E1,3.6594456E1,3.8583317E0,7.320054E0,5.4044327E1,1.1930509E1,0E0,0E0,8.694244E0,1.8669542E1,0E0,0E0,0E0,0E0,0E0,0E0,0E0,0E0,0E0,0E0,0E0,0E0],"parents":[2147483647,0,0,1,1,2,2,3,3,4,4,5,5,6,6,7,7,8,8,9,9,10,10,13,13,14,14],"right_children":[2,4,6,8,10,12,14,16,18,20,22,-1,-1,24,26,-1,-1,-1,-1,-1,-1,-1,-1,-1,-1,-1,-1],"split_conditions":[-1.7E0,2.28E1,1.49E1,1E-1,8E1,-2.5428572E0,-5.654755E-1,-3.4E0,6.06E1,3.05E1,-2.4E0,2.6954398E-2,1.5204468E-1,1.7218484E0,8.9406115E-1,-3.108373E-2,-1.1837509E-1,4.883165E-2,6.56673E-3,-5.5592716E-2,-1.8374203E-1,-4.0378742E-2,2.3031896E-3,3.1756926E-2,6.8064526E-2,7.7757924E-3,-4.864928E-2],"split_indices":[9,2,2,8,0,12,4,9,0,2,9,0,0,13,4,0,0,0,0,0,0,0,0,0,0,0,0],"split_type":[0,0,0,0,0,0,0,0,0,0,0,0,0,0,0,0,0,0,0,0,0,0,0,0,0,0,0],"sum_hessian":[2.95E2,1.22E2,1.73E2,3.3E1,8.9E1,8E0,1.65E2,4E0,2.9E1,5.1E1,3.8E1,3E0,5E0,7.4E1,9.1E1,2E0,2E0,8E0,2.1E1,4.6E1,5E0,1.9E1,1.9E1,6.2E1,1.2E1,8.2E1,9E0],"tree_param":{"num_deleted":"0","num_feature":"14","num_nodes":"27","size_leaf_vector":"1"}},{"base_weights":[7.1627304E-2,-4.622763E-1,7.066841E-1,-1.1732907E0,1.8627359E-1,8.0444527E-1,-1.6330855E0,4.4392295E-2,-1.3107715E0,-5.0876353E-2,7.7292186E-1,1.2107692E0,3.9551118E-1,-1.8646854E-1,1.0298473E0,-7.255253E-2,-2.8034681E-2,5.1605534E-3,-4.042715E-2,-4.620015E-3,4.6420675E-2,3.607382E-2,7.376208E-2,-5.2212696E-3,2.6811918E-2,5.995297E-2,-9.033956E-3],"categories":[],"categories_nodes":[],"categories_segments":[],"categories_sizes":[],"default_left":[0,0,0,0,0,0,0,0,0,0,0,0,0,0,0,0,0,0,0,0,0,0,0,0,0,0,0],"id":17,"left_children":[1,3,5,7,9,11,13,-1,15,17,19,21,23,-1,25,-1,-1,-1,-1,-1,-1,-1,-1,-1,-1,-1,-1],"loss_changes":[1.0152E2,7.519325E1,3.222145E1,2.5942894E1,1.1954278E1,2.1541252E1,5.248166E1,0E0,2.3632263E1,1.1497763E1,9.647742E0,1.1396889E1,1.0720952E1,0E0,2.7422798E0,0E0,0E0,0E0,0E0,0E0,0E0,0E0,0E0,0E0,0E0,0E0,0E0],"parents":[2147483647,0,0,1,1,2,2,3,3,4,4,5,5,6,6,8,8,9,9,10,10,11,11,12,12,14,14],"right_children":[2,4,6,8,10,12,14,-1,16,18,20,22,24,-1,26,-1,-1,-1,-1,-1,-1,-1,-1,-1,-1,-1,-1],"split_conditions":[1.51E1,-2E0,8.7E-2,6.06E1,-5.857143E-1,6.166212E-1,-2.1714287E0,4.4392295E-2,7.49E1,-8.7142855E-1,-4E-1,2.12E1,1.4057704E0,-1.8646854E-1,1.063E2,-7.255253E-2,-2.8034681E-2,5.1605534E-3,-4.042715E-2,-4.620015E-3,4.6420675E-2,3.607382E-2,7.376208E-2,-5.2212696E-3,2.6811918E-2,5.995297E-2,-9.033956E-3],"split_indices":[6,9,5,0,11,3,11,0,0,11,9,6,13,0,0,0,0,0,0,0,0,0,0,0,0,0,0],"split_type":[0,0,0,0,0,0,0,0,0,0,0,0,0,0,0,0,0,0,0,0,0,0,0,0,0,0,0],"sum_hessian":[2.98E2,1.62E2,1.36E2,7.7E1,8.5E1,1.31E2,5E0,4E0,7.3E1,6.1E1,2.4E1,6.5E1,6.6E1,2E0,3E0,3.6E1,3.7E1,5.2E1,9E0,8E0,1.6E1,4.8E1,1.7E1,2.4E1,4.2E1,2E0,1E0],"tree_param":{"num_deleted":"0","num_feature":"14","num_nodes":"27","size_leaf_vector":"1"}},{"base_weights":[-7.701042E-2,-7.930574E-1,4.5327213E-1,-1.2211288E0,2.3774697E-1,5.8915585E-1,-1.2711089E0,-2.596603E0,-8.1492203E-1,4.6641943E-1,-3.0787506E0,1.6018384E0,4.7768265E-1,-8.031828E-2,-1.9922097E-1,-4.0083714E-2,-1.210369E-1,3.9932713E-2,-3.5765782E-2,3.5377122E-2,-6.472438E-3,-1.7862207E-1,-8.831851E-3,5.3318273E-3,7.3736615E-2,9.49903E-2,1.5926735E-2,1.5041808E-2,-2.8900089E-2],"categories":[],"categories_nodes":[],"categories_segments":[],"categories_sizes":[],"default_left":[0,0,0,0,0,0,0,0,0,0,0,0,0,0,0,0,0,0,0,0,0,0,0,0,0,0,0,0,0],"id":18,"left_children":[1,3,5,7,9,11,13,15,17,19,21,23,25,-1,27,-1,-1,-1,-1,-1,-1,-1,-1,-1,-1,-1,-1,-1,-1],"loss_changes":[1.2203968E2,6.0538963E1,4.382346E1,5.2514038E1,3.1919044E1,1.8832973E1,1.1676689E1,1.6092926E1,1.6638103E1,1.121886E1,1.132266E1,7.4598465E0,1.9132568E1,0E0,2.3962963E0,0E0,0E0,0E0,0E0,0E0,0E0,0E0,0E0,0E0,0E0,0E0,0E0,0E0,0E0],"parents":[2147483647,0,0,1,1,2,2,3,3,4,4,5,5,6,6,7,7,8,8,9,9,10,10,11,11,12,12,14,14],"right_children":[2,4,6,8,10,12,14,16,18,20,22,24,26,-1,28,-1,-1,-1,-1,-1,-1,-1,-1,-1,-1,-1,-1,-1,-1],"split_conditions":[-1.9E0,1.66E1,8.9976585E-1,-4.4E0,8.4E-2,-9.86324E-1,8E0,-5.8E0,6.06E1,7.63E1,7.95E1,5.7693774E-1,-7.8E0,-8.031828E-2,5.61E1,-4.0083714E-2,-1.210369E-1,3.9932713E-2,-3.5765782E-2,3.5377122E-2,-6.472438E-3,-1.7862207E-1,-8.831851E-3,5.3318273E-3,7.3736615E-2,9.49903E-2,1.5926735E-2,1.5041808E-2,-2.8900089E-2],"split_indices":[9,6,4,9,5,4,6,9,0,0,0,13,10,0,0,0,0,0,0,0,0,0,0,0,0,0,0,0,0],"split_type":[0,0,0,0,0,0,0,0,0,0,0,0,0,0,0,0,0,0,0,0,0,0,0,0,0,0,0,0,0],"sum_hessian":[3.2E2,1.36E2,1.84E2,9.6E1,4E1,1.71E2,1.3E1,2.1E1,7.5E1,3.8E1,2E0,1.6E1,1.55E2,7E0,6E0,6E0,1.5E1,4E0,7.1E1,2.2E1,1.6E1,1E0,1E0,3E0,1.3E1,4E0,1.51E2,3E0,3E0],"tree_param":{"num_deleted":"0","num_feature":"14","num_nodes":"29","size_leaf_vector":"1"}},{"base_weights":[5.2099098E-2,-5.478768E-1,4.5476797E-1,-8.8944715E-1,3.756489E-1,1.0049087E-1,9.7100496E-1,-3.0933702E0,-6.8343633E-1,1.0823553E0,-1.0776743E0,-1.8396895E-2,2.8227103E0,1.0216917E0,-8.52428E-3,-1.8662807E-1,-7.201286E-2,-2.3015846E-2,-1.7800713E-1,1.0571188E-1,2.4832908E-2,-1.8409477E-1,-1.581722E-2,6.5814525E-2,-5.0565084E-3,4.8763853E-2,1.3984358E-1,4.3136336E-2,1.8748485E-2],"categories":[],"categories_nodes":[],"categories_segments":[],"categories_sizes":[],"default_left":[0,0,0,0,0,0,0,0,0,0,0,0,0,0,0,0,0,0,0,0,0,0,0,0,0,0,0,0,0],"id":19,"left_children":[1,3,5,7,9,11,13,15,17,19,21,23,25,27,-1,-1,-1,-1,-1,-1,-1,-1,-1,-1,-1,-1,-1,-1,-1],"loss_changes":[7.621388E1,4.0215294E1,3.4445045E1,4.057303E1,3.650325E1,3.6518555E1,4.7998734E0,1.0018211E1,2.6990211E1,1.5978859E1,2.7527992E1,2.136113E1,2.6227455E0,3.4831467E0,0E0,0E0,0E0,0E0,0E0,0E0,0E0,0E0,0E0,0E0,0E0,0E0,0E0,0E0,0E0],"parents":[2147483647,0,0,1,1,2,2,3,3,4,4,5,5,6,6,7,7,8,8,9,9,10,10,11,11,12,12,13,13],"right_children":[2,4,6,8,10,12,14,16,18,20,22,24,26,28,-1,-1,-1,-1,-1,-1,-1,-1,-1,-1,-1,-1,-1,-1,-1],"split_conditions":[-1.7E0,1.66E1,7.737E3,-3.142857E0,-3E0,2.64E1,8.5840154E-1,-4.8E0,1.65E1,-4.1E0,2.852E3,-6.2E0,2.73E1,1.4E0,-8.52428E-3,-1.8662807E-1,-7.201286E-2,-2.3015846E-2,-1.7800713E-1,1.0571188E-1,2.4832908E-2,-1.8409477E-1,-1.581722E-2,6.5814525E-2,-5.0565084E-3,4.8763853E-2,1.3984358E-1,4.3136336E-2,1.8748485E-2],"split_indices":[9,6,7,12,9,6,3,9,6,10,7,10,6,10,0,0,0,0,0,0,0,0,0,0,0,0,0,0,0],"split_type":[0,0,0,0,0,0,0,0,0,0,0,0,0,0,0,0,0,0,0,0,0,0,0,0,0,0,0,0,0],"sum_hessian":[3.14E2,1.26E2,1.88E2,9.2E1,3.4E1,1.12E2,7.6E1,7E0,8.5E1,2.3E1,1.1E1,1.08E2,4E0,7.3E1,3E0,2E0,5E0,8.4E1,1E0,4E0,1.9E1,1E0,1E1,6E0,1.02E2,2E0,2E0,6.1E1,1.2E1],"tree_param":{"num_deleted":"0","num_feature":"14","num_nodes":"29","size_leaf_vector":"1"}},{"base_weights":[1.9847695E-2,-2.5118297E-1,1.01116E0,2.129325E0,-3.9364523E-1,1.6619503E-1,1.1647842E0,9.0201145E-1,3.157653E0,-5.7891405E-1,2.7282923E-1,6.699089E-1,-1.0464875E0,-1.2638557E-2,1.24792E0,4.4410765E-2,5.2002277E-3,3.411965E-2,1.3097036E-1,-1.268781E-2,-6.548132E-2,-1.6072325E-2,2.0168208E-2,-8.312454E-3,4.4736646E-2,7.0509627E-3,-5.9574973E-2,5.6914516E-2,2.6266756E-2],"categories":[],"categories_nodes":[],"categories_segments":[],"categories_sizes":[],"default_left":[0,0,0,0,0,0,0,0,0,0,0,0,0,0,0,0,0,0,0,0,0,0,0,0,0,0,0,0,0],"id":20,"left_children":[1,3,5,7,9,11,13,15,17,19,21,23,25,-1,27,-1,-1,-1,-1,-1,-1,-1,-1,-1,-1,-1,-1,-1,-1],"loss_changes":[8.850289E1,8.834572E1,9.040451E0,1.6524559E1,3.033144E1,7.6659226E0,7.707924E0,1.374608E0,2.08667E0,5.3227386E1,9.456865E0,3.9788156E0,2.4937844E0,0E0,6.64991E0,0E0,0E0,0E0,0E0,0E0,0E0,0E0,0E0,0E0,0E0,0E0,0E0,0E0,0E0],"parents":[2147483647,0,0,1,1,2,2,3,3,4,4,5,5,6,6,7,7,8,8,9,9,10,10,11,11,12,12,14,14],"right_children":[2,4,6,8,10,12,14,16,18,20,22,24,26,-1,28,-1,-1,-1,-1,-1,-1,-1,-1,-1,-1,-1,-1,-1,-1],"split_conditions":[-6.571429E-1,1.51E1,9.86E1,2.302483E0,7.26E3,1.1E0,2.21E1,4.454E3,-5.1571426E0,2.91E1,-2.4E0,-1E0,9.3E1,-1.2638557E-2,3E1,4.4410765E-2,5.2002277E-3,3.411965E-2,1.3097036E-1,-1.268781E-2,-6.548132E-2,-1.6072325E-2,2.0168208E-2,-8.312454E-3,4.4736646E-2,7.0509627E-3,-5.9574973E-2,5.6914516E-2,2.6266756E-2],"split_indices":[12,2,0,13,7,10,2,7,11,2,10,10,0,0,2,0,0,0,0,0,0,0,0,0,0,0,0,0,0],"split_type":[0,0,0,0,0,0,0,0,0,0,0,0,0,0,0,0,0,0,0,0,0,0,0,0,0,0,0,0,0],"sum_hessian":[3.28E2,2.58E2,7E1,1.4E1,2.44E2,1.1E1,5.9E1,7E0,7E0,1.91E2,5.3E1,8E0,3E0,3E0,5.6E1,5E0,2E0,1E0,6E0,1.57E2,3.4E1,1.4E1,3.9E1,3E0,5E0,1E0,2E0,3.9E1,1.7E1],"tree_param":{"num_deleted":"0","num_feature":"14","num_nodes":"29","size_leaf_vector":"1"}},{"base_weights":[-8.269391E-2,-6.310479E-1,3.857101E-1,1.3449936E-1,-7.059586E-1,1.2845829E-1,3.1860197E-1,-1.0011327E0,8.505961E-2,-2.4192536E-1,5.5141914E-1,-1.7398825E-1,-3.6042187E-2,2.6280878E-2,-4.1696113E-2,-1.636617E-2,8.242007E-3,1.8509535E-2,7.278469E-2],"categories":[],"categories_nodes":[],"categories_segments":[],"categories_sizes":[],"default_left":[0,0,0,0,0,0,0,0,0,0,0,0,0,0,0,0,0,0,0],"id":21,"left_children":[1,3,5,-1,7,-1,9,11,13,15,17,-1,-1,-1,-1,-1,-1,-1,-1],"loss_changes":[8.1269104E1,4.678822E1,3.302614E1,0E0,3.3618736E1,0E0,2.1983994E1,2.1005875E1,2.8236671E1,4.2142534E0,1.0599903E1,0E0,0E0,0E0,0E0,0E0,0E0,0E0,0E0],"parents":[2147483647,0,0,1,1,2,2,4,4,6,6,7,7,8,8,9,9,10,10],"right_children":[2,4,6,-1,8,-1,10,12,14,16,18,-1,-1,-1,-1,-1,-1,-1,-1],"split_conditions":[2.17E-1,1.516E3,4.48E3,1.3449936E-1,-4E-1,1.2845829E-1,-1.7E0,-5.476112E-1,-1.9214286E0,-4.6215046E-2,5.15E-1,-1.7398825E-1,-3.6042187E-2,2.6280878E-2,-4.1696113E-2,-1.636617E-2,8.242007E-3,1.8509535E-2,7.278469E-2],"split_indices":[8,7,7,0,9,0,10,4,12,4,8,0,0,0,0,0,0,0,0],"split_type":[0,0,0,0,0,0,0,0,0,0,0,0,0,0,0,0,0,0,0],"sum_hessian":[3.15E2,1.45E2,1.7E2,2E0,1.43E2,3E0,1.67E2,1.04E2,3.9E1,4.9E1,1.18E2,1E0,1.03E2,2.6E1,1.3E1,3.5E1,1.4E1,1.13E2,5E0],"tree_param":{"num_deleted":"0","num_feature":"14","num_nodes":"19","size_leaf_vector":"1"}},{"base_weights":[1.7566442E-2,-7.061764E-1,4.1213876E-1,9.8549247E-1,-1.0574006E0,-1.1748143E-1,8.731729E-1,1.306926E-1,5.5107164E-1,-8.461154E-1,-3.1947298E0,-3.9940703E-1,5.7908505E-1,7.991773E-1,2.7263873E0,3.8792893E-2,-1.744429E-2,-7.1208835E-2,-1.4659813E-2,-1.5845132E-1,-1.5984107E-2,-1.1543025E-2,-7.711789E-2,-1.7854702E-2,3.721029E-2,1.525547E-2,4.391285E-2,1.2679411E-1,2.6549708E-2],"categories":[],"categories_nodes":[],"categories_segments":[],"categories_sizes":[],"default_left":[0,0,0,0,0,0,0,0,0,0,0,0,0,0,0,0,0,0,0,0,0,0,0,0,0,0,0,0,0],"id":22,"left_children":[1,3,5,7,9,11,13,-1,15,17,19,21,23,25,27,-1,-1,-1,-1,-1,-1,-1,-1,-1,-1,-1,-1,-1,-1],"loss_changes":[8.637231E1,6.416109E1,4.7863945E1,1.823359E1,3.811487E1,1.8179169E1,1.2788185E1,0E0,7.987254E0,3.763743E1,1.8500023E1,1.0070068E1,1.1106989E1,1.365509E1,2.6510983E0,0E0,0E0,0E0,0E0,0E0,0E0,0E0,0E0,0E0,0E0,0E0,0E0,0E0,0E0],"parents":[2147483647,0,0,1,1,2,2,3,3,4,4,5,5,6,6,8,8,9,9,10,10,11,11,12,12,13,13,14,14],"right_children":[2,4,6,8,10,12,14,-1,16,18,20,22,24,26,28,-1,-1,-1,-1,-1,-1,-1,-1,-1,-1,-1,-1,-1,-1],"split_conditions":[4.76E1,1.76E1,1.51E1,1.516E3,3.04E1,8.134E3,3.4008403E0,1.306926E-1,1.92E1,7.7E0,4.39E1,1.48E1,2.8E1,-7.285714E-1,2.51E1,3.8792893E-2,-1.744429E-2,-7.1208835E-2,-1.4659813E-2,-1.5845132E-1,-1.5984107E-2,-1.1543025E-2,-7.711789E-2,-1.7854702E-2,3.721029E-2,1.525547E-2,4.391285E-2,1.2679411E-1,2.6549708E-2],"split_indices":[1,2,6,7,2,7,13,0,6,6,1,6,2,11,2,0,0,0,0,0,0,0,0,0,0,0,0,0,0],"split_type":[0,0,0,0,0,0,0,0,0,0,0,0,0,0,0,0,0,0,0,0,0,0,0,0,0,0,0,0,0],"sum_hessian":[3.01E2,1.06E2,1.95E2,1.8E1,8.8E1,9.1E1,1.04E2,2E0,1.6E1,8.1E1,7E0,6.5E1,2.6E1,1.01E2,3E0,1.1E1,5E0,2.5E1,5.6E1,5E0,2E0,6.2E1,3E0,7E0,1.9E1,4.7E1,5.4E1,2E0,1E0],"tree_param":{"num_deleted":"0","num_feature":"14","num_nodes":"29","size_leaf_vector":"1"}},{"base_weights":[-3.9578766E-2,-3.3090106E-1,7.336122E-1,9.728647E-1,-6.0514456E-1,-4.2306015E-1,8.6972904E-1,-1.2887502E0,1.2445415E0,-9.3582857E-1,2.9454535E-2,3.7084415E-3,-3.8042847E-2,9.5762545E-1,-6.541951E-1,-9.586103E-2,9.749279E-3,5.7086606E-2,-2.2827845E-2,-2.5172234E-2,-8.0161214E-2,-1.1283019E-2,1.0896699E-2,1.9837542E-2,4.466567E-2,3.9568614E-2,-5.0270688E-2],"categories":[],"categories_nodes":[],"categories_segments":[],"categories_sizes":[],"default_left":[0,0,0,0,0,0,0,0,0,0,0,0,0,0,0,0,0,0,0,0,0,0,0,0,0,0,0],"id":23,"left_children":[1,3,5,7,9,11,13,15,17,19,21,-1,-1,23,25,-1,-1,-1,-1,-1,-1,-1,-1,-1,-1,-1,-1],"loss_changes":[7.219172E1,8.363423E1,1.4076626E1,2.617783E1,4.0462868E1,2.9196777E0,1.0996601E1,9.192213E0,1.6668175E1,3.998977E1,5.51232E0,0E0,0E0,6.2515106E0,6.136599E0,0E0,0E0,0E0,0E0,0E0,0E0,0E0,0E0,0E0,0E0,0E0,0E0],"parents":[2147483647,0,0,1,1,2,2,3,3,4,4,5,5,6,6,7,7,8,8,9,9,10,10,13,13,14,14],"right_children":[2,4,6,8,10,12,14,16,18,20,22,-1,-1,24,26,-1,-1,-1,-1,-1,-1,-1,-1,-1,-1,-1,-1],"split_conditions":[-7.1428573E-1,1.94E1,-7.379428E-1,1.3996599E0,8.3E1,9.08E1,2.33E1,7.09E1,-1.8357143E0,2.91E1,-1.7E0,3.7084415E-3,-3.8042847E-2,9.86E1,1.025E2,-9.586103E-2,9.749279E-3,5.7086606E-2,-2.2827845E-2,-2.5172234E-2,-8.0161214E-2,-1.1283019E-2,1.0896699E-2,1.9837542E-2,4.466567E-2,3.9568614E-2,-5.0270688E-2],"split_indices":[11,2,3,13,0,0,6,0,12,2,9,0,0,0,0,0,0,0,0,0,0,0,0,0,0,0,0],"split_type":[0,0,0,0,0,0,0,0,0,0,0,0,0,0,0,0,0,0,0,0,0,0,0,0,0,0,0],"sum_hessian":[3.19E2,2.32E2,8.7E1,4E1,1.92E2,9E0,7.8E1,4E0,3.6E1,1.26E2,6.6E1,5E0,4E0,7.4E1,4E0,2E0,2E0,3.2E1,4E0,1.02E2,2.4E1,2.9E1,3.7E1,2.4E1,5E1,1E0,3E0],"tree_param":{"num_deleted":"0","num_feature":"14","num_nodes":"27","size_leaf_vector":"1"}},{"base_weights":[-5.4962307E-2,-5.551659E-1,5.161383E-1,-8.9761096E-1,1.2051789E-1,-1.8666296E0,6.084054E-1,2.4289861E-1,-1.1761168E0,2.3076773E-2,1.2107718E0,-1.7799494E-1,-5.7688767E-1,2.3483307E0,5.0692916E-1,2.199363E-2,-4.218738E-2,-5.7547066E-2,-2.4345782E-2,-3.4307807E-3,3.7559748E-2,7.6621845E-2,4.2792265E-3,3.1689424E-2,-4.28483E-2,3.4952264E-2,1.2036271E-1,5.0828415E-3,4.246373E-2],"categories":[],"categories_nodes":[],"categories_segments":[],"categories_sizes":[],"default_left":[0,0,0,0,0,0,0,0,0,0,0,0,0,0,0,0,0,0,0,0,0,0,0,0,0,0,0,0,0],"id":24,"left_children":[1,3,5,7,9,11,13,15,17,19,21,-1,23,25,27,-1,-1,-1,-1,-1,-1,-1,-1,-1,-1,-1,-1,-1,-1],"loss_changes":[9.096921E1,3.9349026E1,3.3516037E1,3.601087E1,6.111908E0,1.8405209E1,2.4516605E1,1.0429398E1,1.5014656E1,5.7993555E0,3.8833365E0,0E0,4.2003217E0,6.5955696E0,3.042854E1,0E0,0E0,0E0,0E0,0E0,0E0,0E0,0E0,0E0,0E0,0E0,0E0,0E0,0E0],"parents":[2147483647,0,0,1,1,2,2,3,3,4,4,5,5,6,6,7,7,8,8,9,9,10,10,12,12,13,13,14,14],"right_children":[2,4,6,8,10,12,14,16,18,20,22,-1,24,26,28,-1,-1,-1,-1,-1,-1,-1,-1,-1,-1,-1,-1,-1,-1],"split_conditions":[1.51E1,6.07E1,3.109E3,2.2E1,1.5951325E-1,1.75E1,1.49E1,9.4139683E-1,4.69E1,5.5714285E-1,6.33E1,-1.7799494E-1,5.75E1,-2.2357142E0,-5.1428574E-1,2.199363E-2,-4.218738E-2,-5.7547066E-2,-2.4345782E-2,-3.4307807E-3,3.7559748E-2,7.6621845E-2,4.2792265E-3,3.1689424E-2,-4.28483E-2,3.4952264E-2,1.2036271E-1,5.0828415E-3,4.246373E-2],"split_indices":[6,1,7,2,4,6,2,4,1,11,1,0,0,12,11,0,0,0,0,0,0,0,0,0,0,0,0,0,0],"split_type":[0,0,0,0,0,0,0,0,0,0,0,0,0,0,0,0,0,0,0,0,0,0,0,0,0,0,0,0,0],"sum_hessian":[3.17E2,1.69E2,1.48E2,1.12E2,5.7E1,5E0,1.43E2,2.2E1,9E1,5.3E1,4E0,1E0,4E0,7E0,1.36E2,1.8E1,4E0,5.6E1,3.4E1,4.8E1,5E0,2E0,2E0,1E0,3E0,3E0,4E0,8.4E1,5.2E1],"tree_param":{"num_deleted":"0","num_feature":"14","num_nodes":"29","size_leaf_vector":"1"}},{"base_weights":[-7.64844E-2,-3.9991865E-1,5.152641E-1,8.9079225E-1,-6.3593686E-1,-4.0061572E-1,6.454388E-1,-3.628008E-1,1.1820685E0,-5.5645955E-1,-3.462968E0,-3.743059E-2,7.2770506E-2,1.2774185E0,5.4127395E-1,-6.2680624E-2,1.6237795E-2,1.831889E-2,5.6447323E-2,-1.8163675E-2,-1.0068114E-1,-1.610312E-1,-1.7687568E-2,3.5458818E-2,-4.74001E-3,6.753144E-2,3.3102527E-2,2.6652087E-2,-1.843255E-2],"categories":[],"categories_nodes":[],"categories_segments":[],"categories_sizes":[],"default_left":[0,0,0,0,0,0,0,0,0,0,0,0,0,0,0,0,0,0,0,0,0,0,0,0,0,0,0,0,0],"id":25,"left_children":[1,3,5,7,9,11,13,15,17,19,21,-1,23,25,27,-1,-1,-1,-1,-1,-1,-1,-1,-1,-1,-1,-1,-1,-1],"loss_changes":[6.210632E1,6.429653E1,1.3864191E1,1.2257479E1,3.8540825E1,4.0319853E0,6.131569E0,7.1628456E0,4.849312E0,2.9442547E1,8.798279E0,0E0,1.5299917E0,1.6421795E0,1.372331E1,0E0,0E0,0E0,0E0,0E0,0E0,0E0,0E0,0E0,0E0,0E0,0E0,0E0,0E0],"parents":[2147483647,0,0,1,1,2,2,3,3,4,4,5,5,6,6,7,7,8,8,9,9,10,10,12,12,13,13,14,14],"right_children":[2,4,6,8,10,12,14,16,18,20,22,-1,24,26,28,-1,-1,-1,-1,-1,-1,-1,-1,-1,-1,-1,-1,-1,-1],"split_conditions":[7.239E3,1.82E1,-2.9E0,2.7281126E-1,3.26E1,1.44E1,-9.86324E-1,-2.4142857E0,-2.9214287E0,9.9275863E-1,8.5227484E-1,-3.743059E-2,2.35E1,8.777E3,1.5E0,-6.2680624E-2,1.6237795E-2,1.831889E-2,5.6447323E-2,-1.8163675E-2,-1.0068114E-1,-1.610312E-1,-1.7687568E-2,3.5458818E-2,-4.74001E-3,6.753144E-2,3.3102527E-2,2.6652087E-2,-1.843255E-2],"split_indices":[7,2,10,4,2,6,4,12,12,4,4,0,2,7,10,0,0,0,0,0,0,0,0,0,0,0,0,0,0],"split_type":[0,0,0,0,0,0,0,0,0,0,0,0,0,0,0,0,0,0,0,0,0,0,0,0,0,0,0,0,0],"sum_hessian":[3.23E2,2.09E2,1.14E2,3.2E1,1.77E2,1.4E1,1E2,6E0,2.6E1,1.73E2,4E0,6E0,8E0,1.3E1,8.7E1,2E0,4E0,8E0,1.8E1,1.67E2,6E0,3E0,1E0,1E0,7E0,5E0,8E0,7.6E1,1.1E1],"tree_param":{"num_deleted":"0","num_feature":"14","num_nodes":"29","size_leaf_vector":"1"}},{"base_weights":[3.81206E-2,-1.637329E-1,1.1530383E0,-5.805626E-1,4.533979E-1,1.409298E0,-5.6137395E-1,1.2140088E0,-7.893463E-1,2.2353567E-1,9.683026E-1,2.7156377E0,1.1350214E0,9.3748584E-2,-5.9662767E-2,7.5107016E-2,6.6948007E-3,-8.149031E-2,-2.3890018E-2,-2.6340045E-2,1.1937377E-2,1.194135E-2,5.1559824E-2,1.1217912E-2,1.424295E-1,7.620555E-2,3.0714124E-2,-2.739064E-2,1.7251747E-2],"categories":[],"categories_nodes":[],"categories_segments":[],"categories_sizes":[],"default_left":[0,0,0,0,0,0,0,0,0,0,0,0,0,0,0,0,0,0,0,0,0,0,0,0,0,0,0,0,0],"id":26,"left_children":[1,3,5,7,9,11,13,15,17,19,21,23,25,27,-1,-1,-1,-1,-1,-1,-1,-1,-1,-1,-1,-1,-1,-1,-1],"loss_changes":[7.006413E1,6.802927E1,2.1536625E1,5.9786144E1,1.2475063E1,1.2724602E1,4.454178E0,1.2558386E1,3.0835182E1,6.0118113E0,7.6786613E0,1.5231869E1,9.033443E0,1.5759118E0,0E0,0E0,0E0,0E0,0E0,0E0,0E0,0E0,0E0,0E0,0E0,0E0,0E0,0E0,0E0],"parents":[2147483647,0,0,1,1,2,2,3,3,4,4,5,5,6,6,7,7,8,8,9,9,10,10,11,11,12,12,13,13],"right_children":[2,4,6,8,10,12,14,16,18,20,22,24,26,28,-1,-1,-1,-1,-1,-1,-1,-1,-1,-1,-1,-1,-1,-1,-1],"split_conditions":[2.08E1,-1.3857143E0,2.54E1,1.76E1,1.06E2,-2.9E0,8.68E1,5.92E1,-3.142857E0,-1.8285714E0,1.39E1,6.48E1,6.06E1,2.63E1,-5.9662767E-2,7.5107016E-2,6.6948007E-3,-8.149031E-2,-2.3890018E-2,-2.6340045E-2,1.1937377E-2,1.194135E-2,5.1559824E-2,1.1217912E-2,1.424295E-1,7.620555E-2,3.0714124E-2,-2.739064E-2,1.7251747E-2],"split_indices":[6,12,2,2,0,10,0,0,12,11,6,0,0,2,0,0,0,0,0,0,0,0,0,0,0,0,0,0,0],"split_type":[0,0,0,0,0,0,0,0,0,0,0,0,0,0,0,0,0,0,0,0,0,0,0,0,0,0,0,0,0],"sum_hessian":[3.1E2,2.63E2,4.7E1,1.57E2,1.06E2,4.1E1,6E0,1.6E1,1.41E2,7.4E1,3.2E1,6E0,3.5E1,4E0,2E0,9E0,7E0,1.5E1,1.26E2,6E0,6.8E1,1.2E1,2E1,2E0,4E0,9E0,2.6E1,1E0,3E0],"tree_param":{"num_deleted":"0","num_feature":"14","num_nodes":"29","size_leaf_vector":"1"}},{"base_weights":[-4.297348E-2,-8.749291E-1,1.7087238E-1,-2.3257583E-2,-1.1892312E0,3.9316145E-1,-3.0819064E-1,9.455524E-3,-1.35467E-2,-3.501114E-1,-1.8706278E0,2.4563561E-1,1.1850219E0,3.8712287E-1,-6.690744E-1,5.3129043E-2,-2.1763915E-2,-8.679273E-3,-9.009261E-2,1.2432261E-2,-4.6735372E-2,6.284768E-2,-2.8447535E-2,4.4282906E-2,-5.12532E-3,-1.1896016E-1,-1.672761E-2],"categories":[],"categories_nodes":[],"categories_segments":[],"categories_sizes":[],"default_left":[0,0,0,0,0,0,0,0,0,0,0,0,0,0,0,0,0,0,0,0,0,0,0,0,0,0,0],"id":27,"left_children":[1,3,5,7,9,11,13,-1,-1,15,17,19,21,23,25,-1,-1,-1,-1,-1,-1,-1,-1,-1,-1,-1,-1],"loss_changes":[5.8057095E1,1.7840202E1,2.7745304E1,1.7150583E0,2.7385094E1,2.055136E1,2.0944008E1,0E0,0E0,9.010408E0,2.021904E1,1.7250618E1,2.4693905E1,1.1504993E1,3.0115065E1,0E0,0E0,0E0,0E0,0E0,0E0,0E0,0E0,0E0,0E0,0E0,0E0],"parents":[2147483647,0,0,1,1,2,2,3,3,4,4,5,5,6,6,9,9,10,10,11,11,12,12,13,13,14,14],"right_children":[2,4,6,8,10,12,14,-1,-1,16,18,20,22,24,26,-1,-1,-1,-1,-1,-1,-1,-1,-1,-1,-1,-1],"split_conditions":[8.7E0,-7.142921E-1,8.211001E-1,-9.296339E-1,-2.3857143E0,2.08E1,7E1,9.455524E-3,-1.35467E-2,2.736E3,3.37E1,9.7113943E-1,1.075E2,5.265806E-2,4.32E1,5.3129043E-2,-2.1763915E-2,-8.679273E-3,-9.009261E-2,1.2432261E-2,-4.6735372E-2,6.284768E-2,-2.8447535E-2,4.4282906E-2,-5.12532E-3,-1.1896016E-1,-1.672761E-2],"split_indices":[6,3,3,3,11,6,0,0,0,7,1,4,0,4,1,0,0,0,0,0,0,0,0,0,0,0,0],"split_type":[0,0,0,0,0,0,0,0,0,0,0,0,0,0,0,0,0,0,0,0,0,0,0,0,0,0,0],"sum_hessian":[3.25E2,6.6E1,2.59E2,1.8E1,4.8E1,1.77E2,8.2E1,1E1,8E0,2.2E1,2.6E1,1.5E2,2.7E1,2.8E1,5.4E1,2E0,2E1,6E0,2E1,1.43E2,7E0,2.2E1,5E0,1.1E1,1.7E1,4E0,5E1],"tree_param":{"num_deleted":"0","num_feature":"14","num_nodes":"27","size_leaf_vector":"1"}},{"base_weights":[3.4830403E-2,-3.6752617E-1,4.900602E-1,1.9916418E0,-4.6161252E-1,5.415545E-1,-1.6267018E-1,1.2010414E-1,3.9970126E-2,-9.677921E-1,-2.506209E-2,7.7933407E-1,-5.322636E-2,-2.8186118E-2,-9.781612E-2,-2.4317184E-2,7.829304E-3,3.295522E-2,-3.9143138E-2,-1.1247468E-1,5.1886546E-3],"categories":[],"categories_nodes":[],"categories_segments":[],"categories_sizes":[],"default_left":[0,0,0,0,0,0,0,0,0,0,0,0,0,0,0,0,0,0,0,0,0],"id":28,"left_children":[1,3,5,7,9,11,-1,-1,-1,13,15,17,19,-1,-1,-1,-1,-1,-1,-1,-1],"loss_changes":[5.9241165E1,3.8779648E1,3.847719E1,4.888838E0,3.6602467E1,2.1346008E1,0E0,0E0,0E0,2.7116096E1,1.2514322E1,1.5389984E1,2.3843462E1,0E0,0E0,0E0,0E0,0E0,0E0,0E0,0E0],"parents":[2147483647,0,0,1,1,2,2,3,3,4,4,5,5,9,9,10,10,11,11,12,12],"right_children":[2,4,6,8,10,12,-1,-1,-1,14,16,18,20,-1,-1,-1,-1,-1,-1,-1,-1],"split_conditions":[1.51E1,5.26E1,3.78E1,4.5753136E-1,7.42E1,8.1116027E-1,-1.6267018E-1,1.2010414E-1,3.9970126E-2,2.85E1,-2.4E0,9.8994625E-1,8.30797E-1,-2.8186118E-2,-9.781612E-2,-2.4317184E-2,7.829304E-3,3.295522E-2,-3.9143138E-2,-1.1247468E-1,5.1886546E-3],"split_indices":[6,0,2,3,0,3,0,0,0,2,10,4,3,0,0,0,0,0,0,0,0],"split_type":[0,0,0,0,0,0,0,0,0,0,0,0,0,0,0,0,0,0,0,0,0],"sum_hessian":[3.22E2,1.71E2,1.51E2,6E0,1.65E2,1.5E2,1E0,2E0,4E0,7.6E1,8.9E1,1.07E2,4.3E1,6.7E1,9E0,2.4E1,6.5E1,1.03E2,4E0,2E0,4.1E1],"tree_param":{"num_deleted":"0","num_feature":"14","num_nodes":"21","size_leaf_vector":"1"}},{"base_weights":[4.7936575E-3,-1.3291674E0,1.5741166E-1,-1.9770521E0,-2.8086942E-1,2.2024794E0,8.743138E-2,-1.3263869E0,-3.5155926E0,-4.2397376E-2,2.2642935E-2,2.4297078E0,4.9369712E-3,-2.1196246E-1,5.2857566E-1,-7.314407E-2,-3.3072059E-3,-1.493098E-1,-4.0506173E-2,-2.1587815E-2,1.1615669E-2,3.4578666E-2,1.07422896E-1,1.4446225E-2,-2.5987929E-2,6.027072E-3,2.846337E-2],"categories":[],"categories_nodes":[],"categories_segments":[],"categories_sizes":[],"default_left":[0,0,0,0,0,0,0,0,0,0,0,0,0,0,0,0,0,0,0,0,0,0,0,0,0,0,0],"id":29,"left_children":[1,3,5,7,9,11,13,15,17,-1,19,21,-1,23,25,-1,-1,-1,-1,-1,-1,-1,-1,-1,-1,-1,-1],"loss_changes":[6.687063E1,2.250219E1,4.203993E1,1.7379051E1,3.432781E0,4.3573914E0,3.781778E1,1.1052294E1,2.1485825E0,0E0,1.8660414E0,2.995308E0,0E0,4.6564243E1,8.97826E0,0E0,0E0,0E0,0E0,0E0,0E0,0E0,0E0,0E0,0E0,0E0,0E0],"parents":[2147483647,0,0,1,1,2,2,3,3,4,4,5,5,6,6,7,7,8,8,10,10,11,11,13,13,14,14],"right_children":[2,4,6,8,10,12,14,16,18,-1,20,22,-1,24,26,-1,-1,-1,-1,-1,-1,-1,-1,-1,-1,-1,-1],"split_conditions":[7.7E0,4.332E3,1.42E1,3E-1,7E0,9.638074E-1,6.21E1,-2.4E0,4.5E0,-4.2397376E-2,4.27E1,1.02E1,4.9369712E-3,7.01E1,-5.9782916E-1,-7.314407E-2,-3.3072059E-3,-1.493098E-1,-4.0506173E-2,-2.1587815E-2,1.1615669E-2,3.4578666E-2,1.07422896E-1,1.4446225E-2,-2.5987929E-2,6.027072E-3,2.846337E-2],"split_indices":[6,7,2,10,6,3,1,10,10,0,1,2,0,0,3,0,0,0,0,0,0,0,0,0,0,0,0],"split_type":[0,0,0,0,0,0,0,0,0,0,0,0,0,0,0,0,0,0,0,0,0,0,0,0,0,0,0],"sum_hessian":[3.27E2,3.3E1,2.94E2,2E1,1.3E1,9E0,2.85E2,1.5E1,5E0,3E0,1E1,8E0,1E0,1.7E2,1.15E2,1E1,5E0,4E0,1E0,3E0,7E0,2E0,6E0,7.5E1,9.5E1,4.2E1,7.3E1],"tree_param":{"num_deleted":"0","num_feature":"14","num_nodes":"27","size_leaf_vector":"1"}},{"base_weights":[6.0617577E-2,1.2027969E0,-7.1263954E-2,1.1318619E-1,9.5622474E-1,-2.622173E-1,9.268665E-1,-4.9994782E-1,1.0742954E0,-5.795588E-2,-8.107153E-1,5.700707E-1,1.4194599E0,-4.1811526E-2,1.1371222E-2,6.808466E-2,3.33366E-2,2.2408708E-4,-6.3647866E-2,-1.1883444E-1,-1.1689303E-2,5.051613E-2,9.884427E-4,7.7625565E-2,3.618262E-2],"categories":[],"categories_nodes":[],"categories_segments":[],"categories_sizes":[],"default_left":[0,0,0,0,0,0,0,0,0,0,0,0,0,0,0,0,0,0,0,0,0,0,0,0,0],"id":30,"left_children":[1,3,5,-1,7,9,11,13,15,17,19,21,23,-1,-1,-1,-1,-1,-1,-1,-1,-1,-1,-1,-1],"loss_changes":[4.761975E1,1.1978542E1,5.425166E1,0E0,5.497629E0,2.6711735E1,7.4518967E0,1.4987388E0,2.9086819E0,1.777518E1,7.399778E1,1.11668215E1,3.9898567E0,0E0,0E0,0E0,0E0,0E0,0E0,0E0,0E0,0E0,0E0,0E0,0E0],"parents":[2147483647,0,0,1,1,2,2,4,4,5,5,6,6,7,7,8,8,9,9,10,10,11,11,12,12],"right_children":[2,4,6,-1,8,10,12,14,16,18,20,22,24,-1,-1,-1,-1,-1,-1,-1,-1,-1,-1,-1,-1],"split_conditions":[1.76E1,1.24E1,7.1428575E-2,1.1318619E-1,1.3996599E0,2.91E1,4.15E-1,6.14E1,1.7218484E0,4.4E-2,7.5E1,2.642857E-1,4.33E-1,-4.1811526E-2,1.1371222E-2,6.808466E-2,3.33366E-2,2.2408708E-4,-6.3647866E-2,-1.1883444E-1,-1.1689303E-2,5.051613E-2,9.884427E-4,7.7625565E-2,3.618262E-2],"split_indices":[2,2,11,0,13,2,8,0,13,5,0,12,8,0,0,0,0,0,0,0,0,0,0,0,0],"split_type":[0,0,0,0,0,0,0,0,0,0,0,0,0,0,0,0,0,0,0,0,0,0,0,0,0],"sum_hessian":[3.15E2,3.2E1,2.83E2,3E0,2.9E1,2.38E2,4.5E1,2E0,2.7E1,1.74E2,6.4E1,2.7E1,1.8E1,1E0,1E0,5E0,2.2E1,1.68E2,6E0,1.1E1,5.3E1,1.1E1,1.6E1,7E0,1.1E1],"tree_param":{"num_deleted":"0","num_feature":"14","num_nodes":"25","size_leaf_vector":"1"}},{"base_weights":[-3.35825E-2,-5.731104E-1,3.1838307E-1,-8.4224284E-1,4.759197E-1,3.868432E-1,-9.779036E-1,-2.0000873E0,-6.008458E-1,1.9148427E0,-1.3589595E-1,3.1449074E-1,1.5128883E0,-7.283972E-2,1.0718365E-2,-2.1388717E-2,-1.2630342E-1,-1.6743974E-1,-1.9897208E-2,-1.645511E-2,1.0735627E-1,7.232572E-3,-2.3669535E-2,2.7532047E-3,2.5003808E-2,1.3835455E-1,2.8456595E-2],"categories":[],"categories_nodes":[],"categories_segments":[],"categories_sizes":[],"default_left":[0,0,0,0,0,0,0,0,0,0,0,0,0,0,0,0,0,0,0,0,0,0,0,0,0,0,0],"id":31,"left_children":[1,3,5,7,9,11,13,15,17,19,21,23,25,-1,-1,-1,-1,-1,-1,-1,-1,-1,-1,-1,-1,-1,-1],"loss_changes":[5.9516006E1,3.521931E1,1.7109606E1,2.6725517E1,2.2831923E1,1.4380434E1,1.1533401E1,2.9591057E1,2.4484829E1,1.66394E1,2.98391E0,1.385247E1,1.5341253E1,0E0,0E0,0E0,0E0,0E0,0E0,0E0,0E0,0E0,0E0,0E0,0E0,0E0,0E0],"parents":[2147483647,0,0,1,1,2,2,3,3,4,4,5,5,6,6,7,7,8,8,9,9,10,10,11,11,12,12],"right_children":[2,4,6,8,10,12,14,16,18,20,22,24,26,-1,-1,-1,-1,-1,-1,-1,-1,-1,-1,-1,-1,-1,-1],"split_conditions":[-2E0,1.88E1,8.9976585E-1,-4.7E0,-3.413465E-1,7.80585E-1,8E0,-6.2E0,2.852E3,-8.857249E-1,-3.5E0,7.775E3,-7.8E0,-7.283972E-2,1.0718365E-2,-2.1388717E-2,-1.2630342E-1,-1.6743974E-1,-1.9897208E-2,-1.645511E-2,1.0735627E-1,7.232572E-3,-2.3669535E-2,2.7532047E-3,2.5003808E-2,1.3835455E-1,2.8456595E-2],"split_indices":[9,6,4,9,3,4,6,9,7,3,9,7,10,0,0,0,0,0,0,0,0,0,0,0,0,0,0],"split_type":[0,0,0,0,0,0,0,0,0,0,0,0,0,0,0,0,0,0,0,0,0,0,0,0,0,0,0],"sum_hessian":[3.12E2,1.23E2,1.89E2,9.8E1,2.5E1,1.8E2,9E0,1.6E1,8.2E1,7E0,1.8E1,1.7E2,1E1,5E0,4E0,8E0,8E0,1E0,8.1E1,2E0,5E0,1.1E1,7E0,9.9E1,7.1E1,2E0,8E0],"tree_param":{"num_deleted":"0","num_feature":"14","num_nodes":"27","size_leaf_vector":"1"}},{"base_weights":[-7.950544E-3,6.0999435E-1,-2.6423624E-1,6.857782E-1,-4.9860355E-2,1.3365943E0,-3.536521E-1,7.909667E-1,1.6774312E-1,1.7436802E0,-1.817514E-2,-1.469303E0,-2.2250018E-1,2.3985336E-2,5.965848E-2,-5.0334454E-2,1.7385747E-2,1.9034687E-2,8.659207E-2,-2.6386652E-2,-1.6130309E-1,8.744013E-3,-1.9006817E-2],"categories":[],"categories_nodes":[],"categories_segments":[],"categories_sizes":[],"default_left":[0,0,0,0,0,0,0,0,0,0,0,0,0,0,0,0,0,0,0,0,0,0,0],"id":32,"left_children":[1,3,5,7,-1,9,11,13,15,17,-1,19,21,-1,-1,-1,-1,-1,-1,-1,-1,-1,-1],"loss_changes":[4.9008675E1,1.3734985E1,3.1648796E1,4.6843224E0,0E0,9.223339E0,3.0157862E1,8.576218E0,7.0019817E0,5.327524E0,0E0,4.4241375E1,2.28274E1,0E0,0E0,0E0,0E0,0E0,0E0,0E0,0E0,0E0,0E0],"parents":[2147483647,0,0,1,1,2,2,3,3,5,5,6,6,7,7,8,8,9,9,11,11,12,12],"right_children":[2,4,6,8,-1,10,12,14,16,18,-1,20,22,-1,-1,-1,-1,-1,-1,-1,-1,-1,-1],"split_conditions":[-5.654755E-1,2.55E1,5.57E1,6.571429E-1,-4.9860355E-2,-1.5928571E0,-3.142857E0,5.5714285E-1,1.6428572E-1,-4.9714284E0,-1.817514E-2,6.96E1,-2.2857144E0,2.3985336E-2,5.965848E-2,-5.0334454E-2,1.7385747E-2,1.9034687E-2,8.659207E-2,-2.6386652E-2,-1.6130309E-1,8.744013E-3,-1.9006817E-2],"split_indices":[4,6,0,11,0,12,12,11,12,11,0,0,12,0,0,0,0,0,0,0,0,0,0],"split_type":[0,0,0,0,0,0,0,0,0,0,0,0,0,0,0,0,0,0,0,0,0,0,0],"sum_hessian":[3.08E2,9E1,2.18E2,8.7E1,3E0,1.1E1,2.07E2,7.2E1,1.5E1,9E0,2E0,2.1E1,1.86E2,6E1,1.2E1,2E0,1.3E1,3E0,6E0,1.7E1,4E0,7E1,1.16E2],"tree_param":{"num_deleted":"0","num_feature":"14","num_nodes":"23","size_leaf_vector":"1"}},{"base_weights":[7.06711E-2,6.673299E-1,-1.6463445E-1,7.772929E-1,-2.9526126E-1,1.1436986E0,-3.44736E-1,2.3845392E-1,8.87777E-1,-5.9560955E-2,4.2918617E-1,6.984938E-1,2.0557888E0,-1.5989802E0,-2.298512E-1,-1.4995308E-2,1.6295524E-2,-2.5290838E-2,3.5375208E-2,3.0328237E-2,-1.1790666E-2,6.133941E-2,8.618335E-3,3.1016614E-2,1.0051885E-1,-3.5326686E-2,-1.4645593E-1,-1.2787485E-1,-6.3799703E-3],"categories":[],"categories_nodes":[],"categories_segments":[],"categories_sizes":[],"default_left":[0,0,0,0,0,0,0,0,0,0,0,0,0,0,0,0,0,0,0,0,0,0,0,0,0,0,0,0,0],"id":33,"left_children":[1,3,5,7,9,11,13,15,17,-1,19,21,23,25,27,-1,-1,-1,-1,-1,-1,-1,-1,-1,-1,-1,-1,-1,-1],"loss_changes":[4.454608E1,9.662582E0,5.394317E1,4.6528435E0,9.290754E0,1.0220634E1,2.865748E1,1.8253767E0,3.5997124E0,0E0,1.9446559E0,8.113985E0,4.5263557E0,2.2604454E1,3.6251923E1,0E0,0E0,0E0,0E0,0E0,0E0,0E0,0E0,0E0,0E0,0E0,0E0,0E0,0E0],"parents":[2147483647,0,0,1,1,2,2,3,3,4,4,5,5,6,6,7,7,8,8,10,10,11,11,12,12,13,13,14,14],"right_children":[2,4,6,8,10,12,14,16,18,-1,20,22,24,26,28,-1,-1,-1,-1,-1,-1,-1,-1,-1,-1,-1,-1,-1,-1],"split_conditions":[-5.654755E-1,8.42E1,1.75E1,-7.1428573E-1,7.215E3,2E-1,-4.7E0,-2.4E0,2.21E1,-5.9560955E-2,2.82E1,-3.5E0,-3.2285714E0,3.26E1,2.852E3,-1.4995308E-2,1.6295524E-2,-2.5290838E-2,3.5375208E-2,3.0328237E-2,-1.1790666E-2,6.133941E-2,8.618335E-3,3.1016614E-2,1.0051885E-1,-3.5326686E-2,-1.4645593E-1,-1.2787485E-1,-6.3799703E-3],"split_indices":[4,1,2,11,7,9,9,10,2,0,2,9,11,2,7,0,0,0,0,0,0,0,0,0,0,0,0,0,0],"split_type":[0,0,0,0,0,0,0,0,0,0,0,0,0,0,0,0,0,0,0,0,0,0,0,0,0,0,0,0,0],"sum_hessian":[3.16E2,8.9E1,2.27E2,8E1,9E0,2.7E1,2E2,1.4E1,6.6E1,3E0,6E0,1.9E1,8E0,1.6E1,1.84E2,3E0,1.1E1,1E0,6.5E1,4E0,2E0,6E0,1.3E1,3E0,5E0,1.3E1,3E0,3E0,1.81E2],"tree_param":{"num_deleted":"0","num_feature":"14","num_nodes":"29","size_leaf_vector":"1"}},{"base_weights":[-2.8321207E-2,-4.8555472E-1,2.5422525E-1,5.819673E-1,-8.3507055E-1,1.7248584E0,1.7228661E-1,1.3439372E0,1.2316709E-1,-2.1297762E0,-5.859171E-1,1.0433952E-1,2.6772339E-2,-3.3380213E-1,3.368277E-1,5.7057375E-3,6.18505E-2,-3.3354294E-2,2.46042E-2,-8.469999E-3,-1.3839358E-1,-7.117186E-2,-1.501398E-2,-4.0510423E-2,-2.6664522E-3,1.4398021E-2,-1.0233812E-1],"categories":[],"categories_nodes":[],"categories_segments":[],"categories_sizes":[],"default_left":[0,0,0,0,0,0,0,0,0,0,0,0,0,0,0,0,0,0,0,0,0,0,0,0,0,0,0],"id":34,"left_children":[1,3,5,7,9,11,13,15,17,19,21,-1,-1,23,25,-1,-1,-1,-1,-1,-1,-1,-1,-1,-1,-1,-1],"loss_changes":[3.881002E1,4.3155113E1,2.2165308E1,9.921372E0,2.7074211E1,8.493902E0,1.4797157E1,3.1868057E0,9.948718E0,3.7782436E1,1.7723913E1,0E0,0E0,8.253029E0,1.5531606E1,0E0,0E0,0E0,0E0,0E0,0E0,0E0,0E0,0E0,0E0,0E0,0E0],"parents":[2147483647,0,0,1,1,2,2,3,3,4,4,5,5,6,6,7,7,8,8,9,9,10,10,13,13,14,14],"right_children":[2,4,6,8,10,12,14,16,18,20,22,-1,-1,24,26,-1,-1,-1,-1,-1,-1,-1,-1,-1,-1,-1,-1],"split_conditions":[-2E0,2.26E1,1.49E1,6.04E1,-4.7E0,1.6E-2,1.04E1,5.986907E-1,1.52E-1,-6.2E0,2.38E1,1.0433952E-1,2.6772339E-2,6.46E1,1.26E-1,5.7057375E-3,6.18505E-2,-3.3354294E-2,2.46042E-2,-8.469999E-3,-1.3839358E-1,-7.117186E-2,-1.501398E-2,-4.0510423E-2,-2.6664522E-3,1.4398021E-2,-1.0233812E-1],"split_indices":[9,2,2,0,9,5,6,4,8,9,2,0,0,0,5,0,0,0,0,0,0,0,0,0,0,0,0],"split_type":[0,0,0,0,0,0,0,0,0,0,0,0,0,0,0,0,0,0,0,0,0,0,0,0,0,0,0],"sum_hessian":[2.99E2,1.14E2,1.85E2,2.8E1,8.6E1,9E0,1.76E2,1E1,1.8E1,1.3E1,7.3E1,4E0,5E0,4.3E1,1.33E2,2E0,8E0,6E0,1.2E1,6E0,7E0,9E0,6.4E1,1.1E1,3.2E1,1.32E2,1E0],"tree_param":{"num_deleted":"0","num_feature":"14","num_nodes":"27","size_leaf_vector":"1"}},{"base_weights":[9.7881835E-3,-5.761438E-1,2.4108666E-1,1.7437424E-1,-9.0649545E-1,2.02507E0,1.598843E-1,-1.494378E-2,1.604897E-2,7.717465E-2,-9.782352E-1,2.2452869E-2,2.6061292E0,1.9155608E-1,-1.4856464E-1,-4.0445465E-4,-4.4156406E-2,1.1952583E-1,4.053621E-2,1.7200675E-2,-1.4127762E-2],"categories":[],"categories_nodes":[],"categories_segments":[],"categories_sizes":[],"default_left":[0,0,0,0,0,0,0,0,0,0,0,0,0,0,0,0,0,0,0,0,0],"id":35,"left_children":[1,3,5,7,9,11,13,-1,-1,-1,15,-1,17,19,-1,-1,-1,-1,-1,-1,-1],"loss_changes":[4.2481873E1,2.211123E1,3.2320335E1,3.894474E0,1.4300743E1,7.049835E0,2.7980042E1,0E0,0E0,0E0,9.877911E0,0E0,2.8358803E0,3.0696583E1,0E0,0E0,0E0,0E0,0E0,0E0,0E0],"parents":[2147483647,0,0,1,1,2,2,3,3,4,4,5,5,6,6,10,10,12,12,13,13],"right_children":[2,4,6,8,10,12,14,-1,-1,-1,16,-1,18,20,-1,-1,-1,-1,-1,-1,-1],"split_conditions":[9.7E0,1.4985708E0,1.42E1,2.65E1,-1.15E1,-2.9214287E0,3.8E1,-1.494378E-2,1.604897E-2,7.717465E-2,2.13E1,2.2452869E-2,-2.4142857E0,8.5840154E-1,-1.4856464E-1,-4.0445465E-4,-4.4156406E-2,1.1952583E-1,4.053621E-2,1.7200675E-2,-1.4127762E-2],"split_indices":[6,13,2,2,9,12,2,0,0,0,2,0,11,3,0,0,0,0,0,0,0],"split_type":[0,0,0,0,0,0,0,0,0,0,0,0,0,0,0,0,0,0,0,0,0],"sum_hessian":[3.12E2,8.8E1,2.24E2,2.7E1,6.1E1,9E0,2.15E2,8E0,1.9E1,1E0,6E1,3E0,6E0,2.14E2,1E0,9E0,5.1E1,4E0,2E0,1.47E2,6.7E1],"tree_param":{"num_deleted":"0","num_feature":"14","num_nodes":"21","size_leaf_vector":"1"}},{"base_weights":[2.7683672E-2,-1.6356085E-1,8.9127034E-1,-4.9073952E-1,4.4152555E-1,1.6433997E0,2.8483912E-1,7.0568264E-1,-6.3283443E-1,-3.8514037E-2,5.003917E-1,1.3657522E0,1.3579004E-1,-4.5123926E-1,8.847131E-1,7.166191E-2,-2.4652548E-2,-1.8192837E-2,-5.93361E-2,1.8850921E-3,2.7683228E-2,9.10437E-3,6.450315E-2,5.664497E-3,-5.4341584E-2,3.949737E-2,-6.285936E-3],"categories":[],"categories_nodes":[],"categories_segments":[],"categories_sizes":[],"default_left":[0,0,0,0,0,0,0,0,0,0,0,0,0,0,0,0,0,0,0,0,0,0,0,0,0,0,0],"id":36,"left_children":[1,3,5,7,9,11,13,15,17,-1,19,21,-1,23,25,-1,-1,-1,-1,-1,-1,-1,-1,-1,-1,-1,-1],"loss_changes":[5.0762173E1,4.9990013E1,2.5077637E1,2.8155819E1,7.8896275E0,9.445099E0,1.4294868E1,2.8404007E1,2.084835E1,0E0,8.425602E0,7.6439476E0,0E0,8.602825E0,2.7355833E0,0E0,0E0,0E0,0E0,0E0,0E0,0E0,0E0,0E0,0E0,0E0,0E0],"parents":[2147483647,0,0,1,1,2,2,3,3,4,4,5,5,6,6,7,7,8,8,10,10,11,11,13,13,14,14],"right_children":[2,4,6,8,10,12,14,16,18,-1,20,22,-1,24,26,-1,-1,-1,-1,-1,-1,-1,-1,-1,-1,-1,-1],"split_conditions":[2.06E1,9.32E1,5.521E3,-5.3E0,2.21E1,2.47E1,1.4057704E0,2.42E1,3.01E1,-3.8514037E-2,3.34E-1,-3.1E0,1.3579004E-1,2.39E1,2.8E1,7.166191E-2,-2.4652548E-2,-1.8192837E-2,-5.93361E-2,1.8850921E-3,2.7683228E-2,9.10437E-3,6.450315E-2,5.664497E-3,-5.4341584E-2,3.949737E-2,-6.285936E-3],"split_indices":[6,0,7,10,2,2,13,2,2,0,8,10,0,6,6,0,0,0,0,0,0,0,0,0,0,0,0],"split_type":[0,0,0,0,0,0,0,0,0,0,0,0,0,0,0,0,0,0,0,0,0,0,0,0,0,0,0],"sum_hessian":[3.06E2,2.51E2,5.5E1,1.63E2,8.8E1,2.4E1,3.1E1,1.7E1,1.46E2,3E0,8.5E1,2.2E1,2E0,1.4E1,1.7E1,9E0,8E0,1.25E2,2.1E1,2.8E1,5.7E1,5E0,1.7E1,9E0,5E0,1.5E1,2E0],"tree_param":{"num_deleted":"0","num_feature":"14","num_nodes":"27","size_leaf_vector":"1"}}]},"name":"gbtree"},"learner_model_param":{"base_score":"[-1.4889121E0]","boost_from_average":"1","num_class":"0","num_feature":"14","num_target":"1"},"objective":{"name":"reg:squarederror","reg_loss_param":{"scale_pos_weight":"1"}}},"version":[3,2,0]}