{"learner":{"attributes":{"scikit_learn":"{\"_estimator_type\": \"regressor\"}"},"feature_names":["forecast_low","forecast_high","forecast_diurnal_range","day_sin","day_cos","forecast_precip","forecast_wind","forecast_radiation","forecast_evap","lag_low_1d","lag_low_2d","roll_low_7d_mean","roll_low_14d_mean","roll_low_7d_std"],"feature_types":["float","float","float","float","float","float","float","float","float","float","float","float","float","float"],"gradient_booster":{"model":{"cats":{"enc":[],"feature_segments":[],"sorted_idx":[]},"gbtree_model_param":{"num_parallel_tree":"1","num_trees":"29"},"iteration_indptr":[0,1,2,3,4,5,6,7,8,9,10,11,12,13,14,15,16,17,18,19,20,21,22,23,24,25,26,27,28,29],"tree_info":[0,0,0,0,0,0,0,0,0,0,0,0,0,0,0,0,0,0,0,0,0,0,0,0,0,0,0,0,0],"trees":[{"base_weights":[-2.767743E-3,-1.6076941E0,7.065817E-1,-2.822418E0,-1.2007899E0,1.0364848E0,-4.4160607E-1,7.2337806E-2,-2.8694323E-1,-1.8368584E-1,-5.9821315E-2,4.9561866E-2,1.2341993E-1,4.3557044E-2,-9.710614E-2],"categories":[],"categories_nodes":[],"categories_segments":[],"categories_sizes":[],"default_left":[0,0,0,0,0,0,0,0,0,0,0,0,0,0,0],"id":0,"left_children":[1,3,5,7,9,11,13,-1,-1,-1,-1,-1,-1,-1,-1],"loss_changes":[8.207789E2,1.0250232E2,1.9029631E2,6.752704E1,7.21678E1,5.9106995E1,6.557905E1,0E0,0E0,0E0,0E0,0E0,0E0,0E0,0E0],"parents":[2147483647,0,0,1,1,2,2,3,3,4,4,5,5,6,6],"right_children":[2,4,6,8,10,12,14,-1,-1,-1,-1,-1,-1,-1,-1],"split_conditions":[2.57E1,3.2E0,7.501537E-1,-1.9E0,2.12E1,6.392857E0,4.4E1,7.2337806E-2,-2.8694323E-1,-1.8368584E-1,-5.9821315E-2,4.9561866E-2,1.2341993E-1,4.3557044E-2,-9.710614E-2],"split_indices":[2,9,4,9,2,12,0,0,0,0,0,0,0,0,0],"split_type":[0,0,0,0,0,0,0,0,0,0,0,0,0,0,0],"sum_hessian":[7.17E2,2.19E2,4.98E2,5.2E1,1.67E2,3.87E2,1.11E2,4E0,4.8E1,6.5E1,1.02E2,1.53E2,2.34E2,4.5E1,6.6E1],"tree_param":{"num_deleted":"0","num_feature":"14","num_nodes":"15","size_leaf_vector":"1"}},{"base_weights":[2.6304632E-2,-1.3959231E0,6.5229553E-1,-2.8142116E0,-1.0613254E0,9.5047134E-1,-5.212475E-1,7.811065E-2,-2.874548E-1,-1.23695366E-1,-1.2271229E-2,4.5995384E-2,1.14601575E-1,8.544231E-2,-7.775643E-2],"categories":[],"categories_nodes":[],"categories_segments":[],"categories_sizes":[],"default_left":[0,0,0,0,0,0,0,0,0,0,0,0,0,0,0],"id":1,"left_children":[1,3,5,7,9,11,13,-1,-1,-1,-1,-1,-1,-1,-1],"loss_changes":[6.4369244E2,9.8941925E1,1.7663669E2,5.5657684E1,4.9164795E1,5.334326E1,5.1173355E1,0E0,0E0,0E0,0E0,0E0,0E0,0E0,0E0],"parents":[2147483647,0,0,1,1,2,2,3,3,4,4,5,5,6,6],"right_children":[2,4,6,8,10,12,14,-1,-1,-1,-1,-1,-1,-1,-1],"split_conditions":[2.57E1,2.9E0,8.041872E-1,-2.3E0,2.4E1,3.05E1,3.96E1,7.811065E-2,-2.874548E-1,-1.23695366E-1,-1.2271229E-2,4.5995384E-2,1.14601575E-1,8.544231E-2,-7.775643E-2],"split_indices":[2,9,4,9,2,2,0,0,0,0,0,0,0,0,0],"split_type":[0,0,0,0,0,0,0,0,0,0,0,0,0,0,0],"sum_hessian":[7.19E2,2.19E2,5E2,3.9E1,1.8E2,3.99E2,1.01E2,3E0,3.6E1,1.36E2,4.4E1,1.64E2,2.35E2,1.8E1,8.3E1],"tree_param":{"num_deleted":"0","num_feature":"14","num_nodes":"15","size_leaf_vector":"1"}},{"base_weights":[-4.3909315E-2,-1.6254139E0,4.3666273E-1,-1.226109E0,-2.7659597E0,4.8092455E-2,1.2029113E0,-1.5992215E-1,-1.3069361E-2,-2.773221E-1,4.207013E-2,7.193385E-2,-3.338768E-2,-2.2150378E-1,1.1397948E-1],"categories":[],"categories_nodes":[],"categories_segments":[],"categories_sizes":[],"default_left":[0,0,0,0,0,0,0,0,0,0,0,0,0,0,0],"id":2,"left_children":[1,3,5,7,9,11,13,-1,-1,-1,-1,-1,-1,-1,-1],"loss_changes":[5.4785364E2,6.977518E1,1.6452774E2,7.235512E1,3.9600647E1,1.13543594E2,3.6787537E1,0E0,0E0,0E0,0E0,0E0,0E0,0E0,0E0],"parents":[2147483647,0,0,1,1,2,2,3,3,4,4,5,5,6,6],"right_children":[2,4,6,8,10,12,14,-1,-1,-1,-1,-1,-1,-1,-1],"split_conditions":[2.4E1,8E-3,7.267E3,6.785714E0,2.22E1,-5.839515E-1,-2.5E0,-1.5992215E-1,-1.3069361E-2,-2.773221E-1,4.207013E-2,7.193385E-2,-3.338768E-2,-2.2150378E-1,1.1397948E-1],"split_indices":[2,5,7,11,2,3,9,0,0,0,0,0,0,0,0],"split_type":[0,0,0,0,0,0,0,0,0,0,0,0,0,0,0],"sum_hessian":[7.17E2,1.66E2,5.51E2,1.26E2,4E1,3.67E2,1.84E2,8.4E1,4.2E1,3.7E1,3E0,1.31E2,2.36E2,1E0,1.83E2],"tree_param":{"num_deleted":"0","num_feature":"14","num_nodes":"15","size_leaf_vector":"1"}},{"base_weights":[-3.7206486E-2,-1.6263919E0,4.1890705E-1,-1.053603E0,-2.4332452E0,-7.129013E-2,8.563919E-1,-1.3050196E-1,1.718559E-2,-3.098417E-1,-1.24347724E-1,5.9250195E-2,-2.9764896E-2,2.0184517E-2,1.15273364E-1],"categories":[],"categories_nodes":[],"categories_segments":[],"categories_sizes":[],"default_left":[0,0,0,0,0,0,0,0,0,0,0,0,0,0,0],"id":3,"left_children":[1,3,5,7,9,11,13,-1,-1,-1,-1,-1,-1,-1,-1],"loss_changes":[5.362772E2,7.1160126E1,1.2342969E2,4.720974E1,5.9761017E1,5.0511124E1,7.790823E1,0E0,0E0,0E0,0E0,0E0,0E0,0E0,0E0],"parents":[2147483647,0,0,1,1,2,2,3,3,4,4,5,5,6,6],"right_children":[2,4,6,8,10,12,14,-1,-1,-1,-1,-1,-1,-1,-1],"split_conditions":[2.4E1,6.74E1,6.2357144E0,6.785714E0,2.19E1,-9.768277E-2,3.05E1,-1.3050196E-1,1.718559E-2,-3.098417E-1,-1.24347724E-1,5.9250195E-2,-2.9764896E-2,2.0184517E-2,1.15273364E-1],"split_indices":[2,0,12,11,2,4,2,0,0,0,0,0,0,0,0],"split_type":[0,0,0,0,0,0,0,0,0,0,0,0,0,0,0],"sum_hessian":[7.36E2,1.63E2,5.73E2,9.8E1,6.5E1,2.71E2,3.02E2,7.5E1,2.3E1,3.2E1,3.3E1,7E1,2.01E2,1.19E2,1.83E2],"tree_param":{"num_deleted":"0","num_feature":"14","num_nodes":"15","size_leaf_vector":"1"}},{"base_weights":[3.6736093E-2,-1.0657648E0,5.200109E-1,-2.0950444E0,-7.714504E-1,7.6278126E-1,-4.1705433E-1,-2.4785745E-1,-1.8484069E-2,-3.8773198E-2,-1.3633704E-1,-9.774294E-3,7.92284E-2,2.3128701E-2,-1.0634241E-1],"categories":[],"categories_nodes":[],"categories_segments":[],"categories_sizes":[],"default_left":[0,0,0,0,0,0,0,0,0,0,0,0,0,0,0],"id":4,"left_children":[1,3,5,7,9,11,13,-1,-1,-1,-1,-1,-1,-1,-1],"loss_changes":[3.8630865E2,6.3733612E1,1.15282455E2,5.5202484E1,4.254232E1,3.6838318E1,5.3217968E1,0E0,0E0,0E0,0E0,0E0,0E0,0E0,0E0],"parents":[2147483647,0,0,1,1,2,2,3,3,4,4,5,5,6,6],"right_children":[2,4,6,8,10,12,14,-1,-1,-1,-1,-1,-1,-1,-1],"split_conditions":[2.57E1,3.2E0,8.041872E-1,1.023E2,7.91E1,4.4E0,7.64E1,-2.4785745E-1,-1.8484069E-2,-3.8773198E-2,-1.3633704E-1,-9.774294E-3,7.92284E-2,2.3128701E-2,-1.0634241E-1],"split_indices":[2,9,4,1,0,9,1,0,0,0,0,0,0,0,0],"split_type":[0,0,0,0,0,0,0,0,0,0,0,0,0,0,0],"sum_hessian":[7.21E2,2.19E2,5.02E2,4.6E1,1.73E2,3.99E2,1.03E2,3.4E1,1.2E1,1.19E2,5.4E1,4.3E1,3.56E2,5.5E1,4.8E1],"tree_param":{"num_deleted":"0","num_feature":"14","num_nodes":"15","size_leaf_vector":"1"}},{"base_weights":[2.0128937E-2,-1.2127548E0,3.7228572E-1,-1.5907185E0,-1.9065084E-1,1.0922571E-1,9.460077E-1,-2.1681717E-2,-1.7467894E-1,3.257744E-2,-2.305335E-1,-6.6609114E-2,2.978673E-2,3.8576584E-2,1.15913786E-1],"categories":[],"categories_nodes":[],"categories_segments":[],"categories_sizes":[],"default_left":[0,0,0,0,0,0,0,0,0,0,0,0,0,0,0],"id":5,"left_children":[1,3,5,7,9,11,13,-1,-1,-1,-1,-1,-1,-1,-1],"loss_changes":[3.1652448E2,6.197113E1,8.536342E1,5.061624E1,6.056327E1,7.166057E1,2.9090515E1,0E0,0E0,0E0,0E0,0E0,0E0,0E0,0E0],"parents":[2147483647,0,0,1,1,2,2,3,3,4,4,5,5,6,6],"right_children":[2,4,6,8,10,12,14,-1,-1,-1,-1,-1,-1,-1,-1],"split_conditions":[2.37E1,6.785714E0,7.387E3,4.82E1,8E-3,4.6E0,2.95E1,-2.1681717E-2,-1.7467894E-1,3.257744E-2,-2.305335E-1,-6.6609114E-2,2.978673E-2,3.8576584E-2,1.15913786E-1],"split_indices":[2,11,7,0,5,9,2,0,0,0,0,0,0,0,0],"split_type":[0,0,0,0,0,0,0,0,0,0,0,0,0,0,0],"sum_hessian":[7.25E2,1.6E2,5.65E2,1.16E2,4.4E1,3.89E2,1.76E2,2.3E1,9.3E1,3.7E1,7E0,7.9E1,3.1E2,6.9E1,1.07E2],"tree_param":{"num_deleted":"0","num_feature":"14","num_nodes":"15","size_leaf_vector":"1"}},{"base_weights":[-1.7381275E-2,-1.0596128E0,2.962426E-1,-7.1048224E-1,-1.8040024E0,5.809071E-1,-3.1906804E-1,-1.21812955E-1,-2.8295883E-3,-2.777617E-1,-1.18148014E-1,1.6568271E-2,8.6963005E-2,1.94061E-2,-7.014082E-2],"categories":[],"categories_nodes":[],"categories_segments":[],"categories_sizes":[],"default_left":[0,0,0,0,0,0,0,0,0,0,0,0,0,0,0],"id":6,"left_children":[1,3,5,7,9,11,13,-1,-1,-1,-1,-1,-1,-1,-1],"loss_changes":[2.4021216E2,4.1631165E1,9.9328224E1,5.0350765E1,2.5644073E1,5.7104843E1,4.3311714E1,0E0,0E0,0E0,0E0,0E0,0E0,0E0,0E0],"parents":[2147483647,0,0,1,1,2,2,3,3,4,4,5,5,6,6],"right_children":[2,4,6,8,10,12,14,-1,-1,-1,-1,-1,-1,-1,-1],"split_conditions":[2.4E1,7.78E1,5.5657554E-1,1.93E1,8.14E1,3.05E1,4.54E1,-1.21812955E-1,-2.8295883E-3,-2.777617E-1,-1.18148014E-1,1.6568271E-2,8.6963005E-2,1.94061E-2,-7.014082E-2],"split_indices":[2,0,4,2,0,2,0,0,0,0,0,0,0,0,0],"split_type":[0,0,0,0,0,0,0,0,0,0,0,0,0,0,0],"sum_hessian":[7.31E2,1.68E2,5.63E2,1.17E2,5.1E1,3.85E2,1.78E2,6E1,5.7E1,1.2E1,3.9E1,1.87E2,1.98E2,8.2E1,9.6E1],"tree_param":{"num_deleted":"0","num_feature":"14","num_nodes":"15","size_leaf_vector":"1"}},{"base_weights":[-3.0263825E-3,-6.957388E-1,2.6228693E-1,-8.513595E-1,1.1234556E-1,-8.431972E-1,4.1500884E-1,3.3193952E-3,-1.26549E-1,2.2573635E-2,-1.13184325E-1,4.6412047E-2,-1.2342815E-1],"categories":[],"categories_nodes":[],"categories_segments":[],"categories_sizes":[],"default_left":[0,0,0,0,0,0,0,0,0,0,0,0,0],"id":7,"left_children":[1,3,5,7,-1,9,11,-1,-1,-1,-1,-1,-1],"loss_changes":[1.3470645E2,6.292469E1,9.0169716E1,8.983133E1,0E0,2.8714008E1,7.842003E1,0E0,0E0,0E0,0E0,0E0,0E0],"parents":[2147483647,0,0,1,1,2,2,3,3,5,5,6,6],"right_children":[2,4,6,8,-1,10,12,-1,-1,-1,-1,-1,-1],"split_conditions":[5.1E0,7.934E3,3.663E3,4.86E1,1.1234556E-1,5.9E0,8.58E1,3.3193952E-3,-1.26549E-1,2.2573635E-2,-1.13184325E-1,4.6412047E-2,-1.2342815E-1],"split_indices":[9,7,7,0,0,6,0,0,0,0,0,0,0],"split_type":[0,0,0,0,0,0,0,0,0,0,0,0,0],"sum_hessian":[7.29E2,2.01E2,5.28E2,1.87E2,1.4E1,6.3E1,4.65E2,7.1E1,1.16E2,1.7E1,4.6E1,4.43E2,2.2E1],"tree_param":{"num_deleted":"0","num_feature":"14","num_nodes":"13","size_leaf_vector":"1"}},{"base_weights":[-3.279287E-2,-1.314252E0,2.1266297E-1,-1.6639266E0,2.5936237E-1,-1.7451775E-1,5.589873E-1,-9.55769E-2,-2.5374597E-1,-1.0766914E-1,5.4083686E-2,-2.6575033E-2,8.9756094E-2,9.639584E-3,8.141679E-2],"categories":[],"categories_nodes":[],"categories_segments":[],"categories_sizes":[],"default_left":[0,0,0,0,0,0,0,0,0,0,0,0,0,0,0],"id":8,"left_children":[1,3,5,7,9,11,13,-1,-1,-1,-1,-1,-1,-1,-1],"loss_changes":[2.2890752E2,6.5227356E1,8.212067E1,6.029016E1,1.2395325E1,3.970398E1,4.8552887E1,0E0,0E0,0E0,0E0,0E0,0E0,0E0,0E0],"parents":[2147483647,0,0,1,1,2,2,3,3,4,4,5,5,6,6],"right_children":[2,4,6,8,10,12,14,-1,-1,-1,-1,-1,-1,-1,-1],"split_conditions":[2.22E1,7.042857E0,6.2357144E0,6.74E1,1.4E-1,3.46E-1,3.05E1,-9.55769E-2,-2.5374597E-1,-1.0766914E-1,5.4083686E-2,-2.6575033E-2,8.9756094E-2,9.639584E-3,8.141679E-2],"split_indices":[2,11,12,0,8,8,2,0,0,0,0,0,0,0,0],"split_type":[0,0,0,0,0,0,0,0,0,0,0,0,0,0,0],"sum_hessian":[7.24E2,1.15E2,6.09E2,9.4E1,2.1E1,2.88E2,3.21E2,6.3E1,3.1E1,3E0,1.8E1,2.63E2,2.5E1,1.37E2,1.84E2],"tree_param":{"num_deleted":"0","num_feature":"14","num_nodes":"15","size_leaf_vector":"1"}},{"base_weights":[3.7090806E-3,-8.86573E-1,2.752631E-1,-1.2087003E0,-2.4268813E-2,-2.8201094E-1,4.5265475E-1,-9.877187E-2,-4.0704897E-1,-1.4783223E-1,4.3828428E-2,1.5599418E-1,-3.36561E-2,6.0991656E-2,4.601808E-3],"categories":[],"categories_nodes":[],"categories_segments":[],"categories_sizes":[],"default_left":[0,0,0,0,0,0,0,0,0,0,0,0,0,0,0],"id":9,"left_children":[1,3,5,7,9,11,13,-1,-1,-1,-1,-1,-1,-1,-1],"loss_changes":[1.7478607E2,4.6877045E1,5.5017487E1,4.1095062E1,4.0143482E1,2.4530691E1,3.6414734E1,0E0,0E0,0E0,0E0,0E0,0E0,0E0,0E0],"parents":[2147483647,0,0,1,1,2,2,3,3,4,4,5,5,6,6],"right_children":[2,4,6,8,10,12,14,-1,-1,-1,-1,-1,-1,-1,-1],"split_conditions":[2.4E1,6.75E0,5.3E0,6.7214284E0,-7.195389E-1,3.1857142E0,3.9036822E-1,-9.877187E-2,-4.0704897E-1,-1.4783223E-1,4.3828428E-2,1.5599418E-1,-3.36561E-2,6.0991656E-2,4.601808E-3],"split_indices":[2,12,9,12,4,11,4,0,0,0,0,0,0,0,0],"split_type":[0,0,0,0,0,0,0,0,0,0,0,0,0,0,0],"sum_hessian":[7.19E2,1.67E2,5.52E2,1.21E2,4.6E1,1.33E2,4.19E2,1.19E2,2E0,1E1,3.6E1,4E0,1.29E2,2.72E2,1.47E2],"tree_param":{"num_deleted":"0","num_feature":"14","num_nodes":"15","size_leaf_vector":"1"}},{"base_weights":[7.0490963E-3,-6.4208174E-1,2.9565778E-1,-4.0955448E-1,-1.9710783E0,5.674291E-1,-9.594592E-2,-1.19915865E-1,-1.8363385E-2,6.832074E-2,-1.9194356E-1,6.151195E-2,-8.266392E-2,3.899854E-2,-4.278561E-2],"categories":[],"categories_nodes":[],"categories_segments":[],"categories_sizes":[],"default_left":[0,0,0,0,0,0,0,0,0,0,0,0,0,0,0],"id":10,"left_children":[1,3,5,7,9,11,13,-1,-1,-1,-1,-1,-1,-1,-1],"loss_changes":[1.3694601E2,6.792053E1,5.3958836E1,3.6018147E1,1.4911362E1,4.805121E1,4.1145042E1,0E0,0E0,0E0,0E0,0E0,0E0,0E0,0E0],"parents":[2147483647,0,0,1,1,2,2,3,3,4,4,5,5,6,6],"right_children":[2,4,6,8,10,12,14,-1,-1,-1,-1,-1,-1,-1,-1],"split_conditions":[2.57E1,2.8E-2,4.0221357E-1,2.9E0,-2.3E0,9.9410987E-1,4.59E1,-1.19915865E-1,-1.8363385E-2,6.832074E-2,-1.9194356E-1,6.151195E-2,-8.266392E-2,3.899854E-2,-4.278561E-2],"split_indices":[2,5,4,9,9,3,0,0,0,0,0,0,0,0,0],"split_type":[0,0,0,0,0,0,0,0,0,0,0,0,0,0,0],"sum_hessian":[7.27E2,2.23E2,5.04E2,1.92E2,3.1E1,2.97E2,2.07E2,3.4E1,1.58E2,1E0,3E1,2.78E2,1.9E1,8.6E1,1.21E2],"tree_param":{"num_deleted":"0","num_feature":"14","num_nodes":"15","size_leaf_vector":"1"}},{"base_weights":[2.2435488E-2,-5.780665E-1,2.8121775E-1,-1.6837555E0,-3.0460438E-1,2.4505562E-1,2.5621617E-1,1.08349174E-1,-1.8611489E-1,-2.1240056E-2,-2.096086E-1,-8.618874E-3,4.896752E-2],"categories":[],"categories_nodes":[],"categories_segments":[],"categories_sizes":[],"default_left":[0,0,0,0,0,0,0,0,0,0,0,0,0],"id":11,"left_children":[1,3,5,7,9,11,-1,-1,-1,-1,-1,-1,-1],"loss_changes":[1.1298281E2,6.519121E1,4.5020363E1,4.8588196E1,2.4434557E1,4.984504E1,0E0,0E0,0E0,0E0,0E0,0E0,0E0],"parents":[2147483647,0,0,1,1,2,2,3,3,4,4,5,5],"right_children":[2,4,6,8,10,12,-1,-1,-1,-1,-1,-1,-1],"split_conditions":[2.57E1,3E0,1.69E-1,-1.9E0,8.85E1,6.214286E0,2.5621617E-1,1.08349174E-1,-1.8611489E-1,-2.1240056E-2,-2.096086E-1,-8.618874E-3,4.896752E-2],"split_indices":[2,9,5,9,0,12,0,0,0,0,0,0,0],"split_type":[0,0,0,0,0,0,0,0,0,0,0,0,0],"sum_hessian":[7.23E2,2.17E2,5.06E2,4.1E1,1.76E2,5.01E2,5E0,4E0,3.7E1,1.72E2,4E0,2.32E2,2.69E2],"tree_param":{"num_deleted":"0","num_feature":"14","num_nodes":"13","size_leaf_vector":"1"}},{"base_weights":[-2.9211352E-3,-8.472209E-1,1.6200899E-1,-1.1065284E0,3.8489592E-1,3.729059E-3,6.049853E-1,-5.5410534E-2,-2.0078653E-1,-7.6965485E-3,1.2939127E-1,-2.9021339E-3,2.055706E-1,9.076396E-2,1.5040413E-2],"categories":[],"categories_nodes":[],"categories_segments":[],"categories_sizes":[],"default_left":[0,0,0,0,0,0,0,0,0,0,0,0,0,0,0],"id":12,"left_children":[1,3,5,7,9,11,13,-1,-1,-1,-1,-1,-1,-1,-1],"loss_changes":[1.00531235E2,3.8539978E1,4.2341736E1,5.0842743E1,1.0888131E1,3.5838356E1,2.6915112E1,0E0,0E0,0E0,0E0,0E0,0E0,0E0,0E0],"parents":[2147483647,0,0,1,1,2,2,3,3,4,4,5,5,6,6],"right_children":[2,4,6,8,10,12,14,-1,-1,-1,-1,-1,-1,-1,-1],"split_conditions":[2.24E1,7.042857E0,3.33E1,6.8E1,8.4945047E-1,2.99E-1,8.2E0,-5.5410534E-2,-2.0078653E-1,-7.6965485E-3,1.2939127E-1,-2.9021339E-3,2.055706E-1,9.076396E-2,1.5040413E-2],"split_indices":[2,11,2,0,3,5,6,0,0,0,0,0,0,0,0],"split_type":[0,0,0,0,0,0,0,0,0,0,0,0,0,0,0],"sum_hessian":[7.18E2,1.16E2,6.02E2,9.6E1,2E1,4.45E2,1.57E2,6.8E1,2.8E1,1.5E1,5E0,4.4E2,5E0,8.2E1,7.5E1],"tree_param":{"num_deleted":"0","num_feature":"14","num_nodes":"15","size_leaf_vector":"1"}},{"base_weights":[-3.7348345E-2,-7.0003754E-1,1.8326123E-1,-5.8815587E-1,-2.346178E0,3.4112042E-1,-3.2686135E-1,-1.3494216E-1,-3.349713E-2,-3.3667684E-1,-2.3700007E-4,-1.0969895E-1,3.5097487E-2,-1.5494025E-2,-1.5786277E-1],"categories":[],"categories_nodes":[],"categories_segments":[],"categories_sizes":[],"default_left":[0,0,0,0,0,0,0,0,0,0,0,0,0,0,0],"id":13,"left_children":[1,3,5,7,9,11,13,-1,-1,-1,-1,-1,-1,-1,-1],"loss_changes":[1.0712156E2,3.0959549E1,4.4509514E1,3.3176846E1,3.4502144E1,2.9058823E1,2.8278013E1,0E0,0E0,0E0,0E0,0E0,0E0,0E0,0E0],"parents":[2147483647,0,0,1,1,2,2,3,3,4,4,5,5,6,6],"right_children":[2,4,6,8,10,12,14,-1,-1,-1,-1,-1,-1,-1,-1],"split_conditions":[2.46E1,1.095E2,7.501537E-1,1.56E1,7.3E0,1E0,5.19E1,-1.3494216E-1,-3.349713E-2,-3.3667684E-1,-2.3700007E-4,-1.0969895E-1,3.5097487E-2,-1.5494025E-2,-1.5786277E-1],"split_indices":[2,1,4,2,9,9,0,0,0,0,0,0,0,0,0],"split_type":[0,0,0,0,0,0,0,0,0,0,0,0,0,0,0],"sum_hessian":[7.29E2,1.81E2,5.48E2,1.72E2,9E0,4.19E2,1.29E2,3.2E1,1.4E2,5E0,4E0,1E1,4.09E2,1.18E2,1.1E1],"tree_param":{"num_deleted":"0","num_feature":"14","num_nodes":"15","size_leaf_vector":"1"}},{"base_weights":[2.3263185E-3,-5.358873E-1,2.3160847E-1,-4.56507E-1,-2.5402206E-1,1.9941409E-1,2.2645308E-1,-5.1841546E-2,6.656216E-2,9.573279E-3,8.3970964E-2],"categories":[],"categories_nodes":[],"categories_segments":[],"categories_sizes":[],"default_left":[0,0,0,0,0,0,0,0,0,0,0],"id":14,"left_children":[1,3,5,7,-1,9,-1,-1,-1,-1,-1],"loss_changes":[8.921618E1,3.599412E1,3.5720882E1,2.8676773E1,0E0,3.3997887E1,0E0,0E0,0E0,0E0,0E0],"parents":[2147483647,0,0,1,1,2,2,3,3,5,5],"right_children":[2,4,6,8,-1,10,-1,-1,-1,-1,-1],"split_conditions":[2.57E1,3.42E-1,1.69E-1,8.087E3,-2.5402206E-1,3.61E1,2.2645308E-1,-5.1841546E-2,6.656216E-2,9.573279E-3,8.3970964E-2],"split_indices":[2,5,5,7,0,2,0,0,0,0,0],"split_type":[0,0,0,0,0,0,0,0,0,0,0],"sum_hessian":[7.19E2,2.14E2,5.05E2,2.09E2,5E0,5E2,5E0,1.92E2,1.7E1,4.44E2,5.6E1],"tree_param":{"num_deleted":"0","num_feature":"14","num_nodes":"11","size_leaf_vector":"1"}},{"base_weights":[-1.5173282E-2,-5.262311E-1,2.0758761E-1,-1.3400412E0,-3.2380906E-1,4.1116711E-1,-1.4978379E-1,-1.5389124E-1,8.856206E-2,3.703022E-2,-4.8239112E-2,4.2287562E-2,-1.634525E-1,4.279102E-3,-9.244574E-2],"categories":[],"categories_nodes":[],"categories_segments":[],"categories_sizes":[],"default_left":[0,0,0,0,0,0,0,0,0,0,0,0,0,0,0],"id":15,"left_children":[1,3,5,7,9,11,13,-1,-1,-1,-1,-1,-1,-1,-1],"loss_changes":[8.400395E1,3.6033497E1,3.7516533E1,3.8362892E1,2.7584274E1,3.922396E1,3.199447E1,0E0,0E0,0E0,0E0,0E0,0E0,0E0,0E0],"parents":[2147483647,0,0,1,1,2,2,3,3,4,4,5,5,6,6],"right_children":[2,4,6,8,10,12,14,-1,-1,-1,-1,-1,-1,-1,-1],"split_conditions":[2.57E1,3E0,4.527447E-1,8.55E1,4.81E1,8.64E1,5.21E1,-1.5389124E-1,8.856206E-2,3.703022E-2,-4.8239112E-2,4.2287562E-2,-1.634525E-1,4.279102E-3,-9.244574E-2],"split_indices":[2,9,4,0,0,0,0,0,0,0,0,0,0,0,0],"split_type":[0,0,0,0,0,0,0,0,0,0,0,0,0,0,0],"sum_hessian":[7.34E2,2.22E2,5.12E2,4.2E1,1.8E2,3.26E2,1.86E2,3.7E1,5E0,3.9E1,1.41E2,3.2E2,6E0,1.53E2,3.3E1],"tree_param":{"num_deleted":"0","num_feature":"14","num_nodes":"15","size_leaf_vector":"1"}},{"base_weights":[-5.586547E-2,-5.721806E-1,9.639702E-2,-4.7370842E-1,-2.3544216E0,-3.5406983E-1,2.1190457E-1,-7.9046234E-2,6.658985E-3,6.1302837E-2,-3.2765242E-1,5.0349478E-2,-5.8184903E-2,-2.5270727E-2,3.3172283E-2],"categories":[],"categories_nodes":[],"categories_segments":[],"categories_sizes":[],"default_left":[0,0,0,0,0,0,0,0,0,0,0,0,0,0,0],"id":16,"left_children":[1,3,5,7,9,11,13,-1,-1,-1,-1,-1,-1,-1,-1],"loss_changes":[5.5925854E1,2.62117E1,2.8765068E1,3.356546E1,3.459823E1,2.9680922E1,3.269419E1,0E0,0E0,0E0,0E0,0E0,0E0,0E0,0E0],"parents":[2147483647,0,0,1,1,2,2,3,3,4,4,5,5,6,6],"right_children":[2,4,6,8,10,12,14,-1,-1,-1,-1,-1,-1,-1,-1],"split_conditions":[2.4E1,1.095E2,4.178E3,1.25E1,1.2E1,4.742857E0,5.4857144E0,-7.9046234E-2,6.658985E-3,6.1302837E-2,-3.2765242E-1,5.0349478E-2,-5.8184903E-2,-2.5270727E-2,3.3172283E-2],"split_indices":[2,1,7,6,6,11,11,0,0,0,0,0,0,0,0],"split_type":[0,0,0,0,0,0,0,0,0,0,0,0,0,0,0],"sum_hessian":[7.08E2,1.6E2,5.48E2,1.54E2,6E0,1.11E2,4.37E2,8.9E1,6.5E1,2E0,4E0,2.6E1,8.5E1,1.03E2,3.34E2],"tree_param":{"num_deleted":"0","num_feature":"14","num_nodes":"15","size_leaf_vector":"1"}},{"base_weights":[-4.466393E-3,-3.661835E-1,1.7753117E-1,-3.0112395E-1,-2.2468409E-1,2.7946085E-1,-6.025101E-1,-1.5653143E-2,-1.1436446E-1,1.0495861E-1,1.694571E-2,5.5941913E-2,-9.1143854E-2],"categories":[],"categories_nodes":[],"categories_segments":[],"categories_sizes":[],"default_left":[0,0,0,0,0,0,0,0,0,0,0,0,0],"id":17,"left_children":[1,3,5,7,-1,9,11,-1,-1,-1,-1,-1,-1],"loss_changes":[4.7395084E1,3.137085E1,3.841623E1,2.868807E1,0E0,3.427917E1,2.8145658E1,0E0,0E0,0E0,0E0,0E0,0E0],"parents":[2147483647,0,0,1,1,2,2,3,3,5,5,6,6],"right_children":[2,4,6,8,-1,10,12,-1,-1,-1,-1,-1,-1],"split_conditions":[2.63E1,5.27E-1,9.4139683E-1,1.71E1,-2.2468409E-1,4.45E1,4.742857E0,-1.5653143E-2,-1.1436446E-1,1.0495861E-1,1.694571E-2,5.5941913E-2,-9.1143854E-2],"split_indices":[2,5,4,6,0,0,11,0,0,0,0,0,0],"split_type":[0,0,0,0,0,0,0,0,0,0,0,0,0],"sum_hessian":[7.16E2,2.39E2,4.77E2,2.34E2,5E0,4.23E2,5.4E1,2.08E2,2.6E1,3.9E1,3.84E2,1.3E1,4.1E1],"tree_param":{"num_deleted":"0","num_feature":"14","num_nodes":"13","size_leaf_vector":"1"}},{"base_weights":[-3.0876772E-2,-6.0372627E-1,8.061739E-2,-2.041126E-1,-1.5253483E0,7.0279706E-1,-2.8370628E-3,-2.23063E-3,-1.4307034E-1,-1.6285826E-1,7.240102E-2,7.246285E-2,-1.7891374E-1,-3.189056E-3,1.7561802E-1],"categories":[],"categories_nodes":[],"categories_segments":[],"categories_sizes":[],"default_left":[0,0,0,0,0,0,0,0,0,0,0,0,0,0,0],"id":18,"left_children":[1,3,5,7,9,11,13,-1,-1,-1,-1,-1,-1,-1,-1],"loss_changes":[4.7040443E1,4.3567196E1,3.2041542E1,2.0978336E1,2.4376808E1,2.0753757E1,3.3888798E1,0E0,0E0,0E0,0E0,0E0,0E0,0E0,0E0],"parents":[2147483647,0,0,1,1,2,2,3,3,4,4,5,5,6,6],"right_children":[2,4,6,8,10,12,14,-1,-1,-1,-1,-1,-1,-1,-1],"split_conditions":[2.21E1,6.93E1,-9.0938824E-1,7.9E0,7.4428573E0,1.97E-1,1.69E-1,-2.23063E-3,-1.4307034E-1,-1.6285826E-1,7.240102E-2,7.246285E-2,-1.7891374E-1,-3.189056E-3,1.7561802E-1],"split_indices":[2,0,3,9,11,5,5,0,0,0,0,0,0,0,0],"split_type":[0,0,0,0,0,0,0,0,0,0,0,0,0,0,0],"sum_hessian":[7.33E2,1.18E2,6.15E2,8.4E1,3.4E1,7.1E1,5.44E2,7.6E1,8E0,3.1E1,3E0,7E1,1E0,5.37E2,7E0],"tree_param":{"num_deleted":"0","num_feature":"14","num_nodes":"15","size_leaf_vector":"1"}},{"base_weights":[-2.7859056E-2,-4.3918133E-1,9.145032E-2,-5.6936616E-1,1.1529399E-1,1.5498696E-1,-1.1561478E0,1.281639E-1,-6.257459E-2,-6.108188E-3,3.500036E-2,-2.9865107E-1,-2.211529E-2],"categories":[],"categories_nodes":[],"categories_segments":[],"categories_sizes":[],"default_left":[0,0,0,0,0,0,0,0,0,0,0,0,0],"id":19,"left_children":[1,3,5,7,-1,9,11,-1,-1,-1,-1,-1,-1],"loss_changes":[3.4922424E1,3.6872704E1,4.410709E1,3.62568E1,0E0,2.6760174E1,5.057947E1,0E0,0E0,0E0,0E0,0E0,0E0],"parents":[2147483647,0,0,1,1,2,2,3,3,5,5,6,6],"right_children":[2,4,6,8,-1,10,12,-1,-1,-1,-1,-1,-1],"split_conditions":[4.6E0,7.934E3,8.58E1,3.82E1,1.1529399E-1,6.8E0,3.43E-1,1.281639E-1,-6.257459E-2,-6.108188E-3,3.500036E-2,-2.9865107E-1,-2.211529E-2],"split_indices":[9,7,0,0,0,10,8,0,0,0,0,0,0],"split_type":[0,0,0,0,0,0,0,0,0,0,0,0,0],"sum_hessian":[7.08E2,1.58E2,5.5E2,1.48E2,1E1,5.25E2,2.5E1,7E0,1.41E2,2.67E2,2.58E2,6E0,1.9E1],"tree_param":{"num_deleted":"0","num_feature":"14","num_nodes":"13","size_leaf_vector":"1"}},{"base_weights":[2.187281E-2,-3.322731E-1,1.7133015E-1,-1.5113045E-1,-1.3501916E0,-3.2110366E-1,2.4666221E-1,-7.935556E-2,6.0046273E-3,-1.8752472E-1,-9.340228E-3,1.7020285E-1,-4.6522617E-2,4.4968735E-2,2.3968194E-3],"categories":[],"categories_nodes":[],"categories_segments":[],"categories_sizes":[],"default_left":[0,0,0,0,0,0,0,0,0,0,0,0,0,0,0],"id":20,"left_children":[1,3,5,7,9,11,13,-1,-1,-1,-1,-1,-1,-1,-1],"loss_changes":[3.922643E1,4.0154106E1,1.9483055E1,2.955188E1,2.8550304E1,3.0709175E1,2.4526258E1,0E0,0E0,0E0,0E0,0E0,0E0,0E0,0E0],"parents":[2147483647,0,0,1,1,2,2,3,3,4,4,5,5,6,6],"right_children":[2,4,6,8,10,12,14,-1,-1,-1,-1,-1,-1,-1,-1],"split_conditions":[5.3285713E0,5.042857E0,4.5E0,1.8439089E0,5.2285714E0,3.82E1,7.2E0,-7.935556E-2,6.0046273E-3,-1.8752472E-1,-9.340228E-3,1.7020285E-1,-4.6522617E-2,4.4968735E-2,2.3968194E-3],"split_indices":[11,11,9,13,11,0,9,0,0,0,0,0,0,0,0],"split_type":[0,0,0,0,0,0,0,0,0,0,0,0,0,0,0],"sum_hessian":[7.37E2,2.18E2,5.19E2,1.87E2,3.1E1,6.8E1,4.51E2,4.2E1,1.45E2,1.9E1,1.2E1,4E0,6.4E1,2.12E2,2.39E2],"tree_param":{"num_deleted":"0","num_feature":"14","num_nodes":"15","size_leaf_vector":"1"}},{"base_weights":[5.2475143E-2,-6.150898E-1,1.1806657E-1,-1.3030483E-1,-1.5736486E0,9.9860296E-2,1.6601217E-1,-6.9171876E-2,6.9481224E-2,-1.784017E-1,4.5819983E-2,1.2296701E-2,-7.003307E-2],"categories":[],"categories_nodes":[],"categories_segments":[],"categories_sizes":[],"default_left":[0,0,0,0,0,0,0,0,0,0,0,0,0],"id":21,"left_children":[1,3,5,7,9,11,-1,-1,-1,-1,-1,-1,-1],"loss_changes":[3.2281147E1,3.0250706E1,2.0377195E1,2.6857904E1,1.930851E1,2.0288225E1,0E0,0E0,0E0,0E0,0E0,0E0,0E0],"parents":[2147483647,0,0,1,1,2,2,3,3,4,4,5,5],"right_children":[2,4,6,8,10,12,-1,-1,-1,-1,-1,-1,-1],"split_conditions":[1.97E1,7.29E1,2.99E-1,6E0,7.3714285E0,1.8E1,1.6601217E-1,-6.9171876E-2,6.9481224E-2,-1.784017E-1,4.5819983E-2,1.2296701E-2,-7.003307E-2],"split_indices":[2,1,5,12,11,6,0,0,0,0,0,0,0],"split_type":[0,0,0,0,0,0,0,0,0,0,0,0,0],"sum_hessian":[7.32E2,6.4E1,6.68E2,4.4E1,2E1,6.63E2,5E0,2.6E1,1.8E1,1.7E1,3E0,6.39E2,2.4E1],"tree_param":{"num_deleted":"0","num_feature":"14","num_nodes":"13","size_leaf_vector":"1"}},{"base_weights":[-2.8500916E-2,-3.4021756E-1,1.0223921E-1,-1.453051E-1,-1.3018129E0,-5.168256E-1,1.7580016E-1,1.12211764E-1,-2.1905046E-2,-7.957754E-2,-3.3153605E-1,8.256165E-3,-1.722166E-1,-4.140445E-2,2.2786722E-2],"categories":[],"categories_nodes":[],"categories_segments":[],"categories_sizes":[],"default_left":[0,0,0,0,0,0,0,0,0,0,0,0,0,0,0],"id":22,"left_children":[1,3,5,7,9,11,13,-1,-1,-1,-1,-1,-1,-1,-1],"loss_changes":[2.9656012E1,3.991501E1,2.3539797E1,2.4124308E1,2.9775093E1,4.6071312E1,2.1589191E1,0E0,0E0,0E0,0E0,0E0,0E0,0E0,0E0],"parents":[2147483647,0,0,1,1,2,2,3,3,4,4,5,5,6,6],"right_children":[2,4,6,8,10,12,14,-1,-1,-1,-1,-1,-1,-1,-1],"split_conditions":[5.3285713E0,5.042857E0,3.663E3,2.857143E0,1.5E1,7.4E0,4.4E0,1.12211764E-1,-2.1905046E-2,-7.957754E-2,-3.3153605E-1,8.256165E-3,-1.722166E-1,-4.140445E-2,2.2786722E-2],"split_indices":[11,11,7,11,6,9,9,0,0,0,0,0,0,0,0],"split_type":[0,0,0,0,0,0,0,0,0,0,0,0,0,0,0],"sum_hessian":[7.24E2,2.13E2,5.11E2,1.79E2,3.4E1,5.3E1,4.58E2,1E1,1.69E2,3.1E1,3E0,3.8E1,1.5E1,4.7E1,4.11E2],"tree_param":{"num_deleted":"0","num_feature":"14","num_nodes":"15","size_leaf_vector":"1"}},{"base_weights":[-8.0384305E-3,-5.6290865E-1,7.2486065E-2,7.997479E-1,-7.484788E-1,1.713286E-2,6.4335567E-1,-7.000186E-2,9.868167E-2,-1.1230207E-1,-1.152532E-2,-6.7543196E-3,3.7639797E-2,8.043701E-2,-9.17421E-2],"categories":[],"categories_nodes":[],"categories_segments":[],"categories_sizes":[],"default_left":[0,0,0,0,0,0,0,0,0,0,0,0,0,0,0],"id":23,"left_children":[1,3,5,7,9,11,13,-1,-1,-1,-1,-1,-1,-1,-1],"loss_changes":[3.2429943E1,2.444471E1,2.0010033E1,6.9205866E0,2.4259796E1,2.0945114E1,2.3691504E1,0E0,0E0,0E0,0E0,0E0,0E0,0E0,0E0],"parents":[2147483647,0,0,1,1,2,2,3,3,4,4,5,5,6,6],"right_children":[2,4,6,8,10,12,14,-1,-1,-1,-1,-1,-1,-1,-1],"split_conditions":[2.11E1,3.8142858E0,3.61E1,4.35E1,6.1E0,3.47E-1,1.11E1,-7.000186E-2,9.868167E-2,-1.1230207E-1,-1.152532E-2,-6.7543196E-3,3.7639797E-2,8.043701E-2,-9.17421E-2],"split_indices":[2,11,2,0,12,8,6,0,0,0,0,0,0,0,0],"split_type":[0,0,0,0,0,0,0,0,0,0,0,0,0,0,0],"sum_hessian":[7.22E2,9E1,6.32E2,1E1,8E1,5.78E2,5.4E1,1E0,9E0,4.4E1,3.6E1,4.71E2,1.07E2,4.8E1,6E0],"tree_param":{"num_deleted":"0","num_feature":"14","num_nodes":"15","size_leaf_vector":"1"}},{"base_weights":[5.5708545E-3,-2.8296593E-1,1.2008173E-1,-4.591946E-2,-1.4135267E0,-1.3684369E0,1.396504E-1,-4.066906E-2,5.249653E-2,-2.260707E-1,-5.465838E-2,-1.6428427E-1,3.698585E-2,4.884767E-3,4.8672363E-2],"categories":[],"categories_nodes":[],"categories_segments":[],"categories_sizes":[],"default_left":[0,0,0,0,0,0,0,0,0,0,0,0,0,0,0],"id":24,"left_children":[1,3,5,7,9,11,13,-1,-1,-1,-1,-1,-1,-1,-1],"loss_changes":[2.4185925E1,5.560585E1,1.5638298E1,4.3674873E1,2.8215233E1,6.7854824E0,1.7534302E1,0E0,0E0,0E0,0E0,0E0,0E0,0E0,0E0],"parents":[2147483647,0,0,1,1,2,2,3,3,4,4,5,5,6,6],"right_children":[2,4,6,8,10,12,14,-1,-1,-1,-1,-1,-1,-1,-1],"split_conditions":[5.3285713E0,1.42E1,-9.980563E-1,2.851232E0,-4.051645E-1,1.127E2,1.38E1,-4.066906E-2,5.249653E-2,-2.260707E-1,-5.465838E-2,-1.6428427E-1,3.698585E-2,4.884767E-3,4.8672363E-2],"split_indices":[11,6,4,13,3,1,6,0,0,0,0,0,0,0,0],"split_type":[0,0,0,0,0,0,0,0,0,0,0,0,0,0,0],"sum_hessian":[7.28E2,2.06E2,5.22E2,1.72E2,3.4E1,5E0,5.17E2,1.05E2,6.7E1,1.3E1,2.1E1,4E0,1E0,4.26E2,9.1E1],"tree_param":{"num_deleted":"0","num_feature":"14","num_nodes":"15","size_leaf_vector":"1"}},{"base_weights":[-3.1932704E-2,-3.80321E-1,9.0716854E-2,-1.5390433E-1,-8.579603E-1,-1.09743305E-1,2.9724774E-1,-9.882326E-2,1.06581785E-2,-2.2146995E-1,-3.4293085E-2,-1.15314E-3,-8.882206E-2,-1.03638954E-1,3.1950753E-2],"categories":[],"categories_nodes":[],"categories_segments":[],"categories_sizes":[],"default_left":[0,0,0,0,0,0,0,0,0,0,0,0,0,0,0],"id":25,"left_children":[1,3,5,7,9,11,13,-1,-1,-1,-1,-1,-1,-1,-1],"loss_changes":[3.1346344E1,2.038972E1,2.2545141E1,3.342338E1,4.4306484E1,2.3192028E1,2.10311E1,0E0,0E0,0E0,0E0,0E0,0E0,0E0,0E0],"parents":[2147483647,0,0,1,1,2,2,3,3,4,4,5,5,6,6],"right_children":[2,4,6,8,10,12,14,-1,-1,-1,-1,-1,-1,-1,-1],"split_conditions":[2.48E1,7.76E1,6.392857E0,3.2E0,8.14E1,9.8314697E-1,-9.957283E-1,-9.882326E-2,1.06581785E-2,-2.2146995E-1,-3.4293085E-2,-1.15314E-3,-8.882206E-2,-1.03638954E-1,3.1950753E-2],"split_indices":[2,0,12,9,0,3,4,0,0,0,0,0,0,0,0],"split_type":[0,0,0,0,0,0,0,0,0,0,0,0,0,0,0],"sum_hessian":[7.3E2,1.89E2,5.41E2,1.3E2,5.9E1,2.75E2,2.66E2,2.8E1,1.02E2,1.2E1,4.7E1,2.49E2,2.6E1,8E0,2.58E2],"tree_param":{"num_deleted":"0","num_feature":"14","num_nodes":"15","size_leaf_vector":"1"}},{"base_weights":[-1.5234758E-2,-7.278035E-2,6.659125E-1,-1.6172586E-1,4.0691933E-1,8.941011E-1,-9.567043E-1,-1.0204176E-2,-1.620604E-1,7.2785765E-2,-1.6363624E-2,1.490717E-1,6.01244E-2,-1.289494E-1,1.8582128E-2],"categories":[],"categories_nodes":[],"categories_segments":[],"categories_sizes":[],"default_left":[0,0,0,0,0,0,0,0,0,0,0,0,0,0,0],"id":26,"left_children":[1,3,5,7,9,11,13,-1,-1,-1,-1,-1,-1,-1,-1],"loss_changes":[2.8668459E1,2.888661E1,2.2792223E1,4.5538704E1,2.4535511E1,6.7344704E0,4.793131E0,0E0,0E0,0E0,0E0,0E0,0E0,0E0,0E0],"parents":[2147483647,0,0,1,1,2,2,3,3,4,4,5,5,6,6],"right_children":[2,4,6,8,10,12,14,-1,-1,-1,-1,-1,-1,-1,-1],"split_conditions":[3.62E1,3.47E-1,1.14E1,8.51E1,1.5420404E-1,4.39E1,1.36E1,-1.0204176E-2,-1.620604E-1,7.2785765E-2,-1.6363624E-2,1.490717E-1,6.01244E-2,-1.289494E-1,1.8582128E-2],"split_indices":[2,8,6,0,3,0,6,0,0,0,0,0,0,0,0],"split_type":[0,0,0,0,0,0,0,0,0,0,0,0,0,0,0],"sum_hessian":[7.27E2,6.72E2,5.5E1,5.68E2,1.04E2,4.9E1,6E0,5.53E2,1.5E1,6.2E1,4.2E1,9E0,4E1,4E0,2E0],"tree_param":{"num_deleted":"0","num_feature":"14","num_nodes":"15","size_leaf_vector":"1"}},{"base_weights":[1.6972294E-2,9.7214425E-1,-1.4120413E-2,1.2065899E0,-6.815877E-2,-5.972637E-1,4.5759905E-2,2.2814656E-2,1.4209856E-1,-1.0595057E-1,3.2875475E-3,4.442352E-2,-1.2110851E-3],"categories":[],"categories_nodes":[],"categories_segments":[],"categories_sizes":[],"default_left":[0,0,0,0,0,0,0,0,0,0,0,0,0],"id":27,"left_children":[1,3,5,7,-1,9,11,-1,-1,-1,-1,-1,-1],"loss_changes":[2.1649717E1,1.1045883E1,2.4742395E1,6.2493305E0,0E0,2.36231E1,1.6745493E1,0E0,0E0,0E0,0E0,0E0,0E0],"parents":[2147483647,0,0,1,1,2,2,3,3,5,5,6,6],"right_children":[2,4,6,8,-1,10,12,-1,-1,-1,-1,-1,-1],"split_conditions":[3.6142857E0,7.2E0,2.03E1,6.2E0,-6.815877E-2,6.1E0,-9.0938824E-1,2.2814656E-2,1.4209856E-1,-1.0595057E-1,3.2875475E-3,4.442352E-2,-1.2110851E-3],"split_indices":[11,9,2,6,0,12,3,0,0,0,0,0,0],"split_type":[0,0,0,0,0,0,0,0,0,0,0,0,0],"sum_hessian":[7.26E2,2.1E1,7.05E2,1.9E1,2E0,6.4E1,6.41E2,6E0,1.3E1,3.3E1,3.1E1,7.4E1,5.67E2],"tree_param":{"num_deleted":"0","num_feature":"14","num_nodes":"13","size_leaf_vector":"1"}},{"base_weights":[-4.5724455E-2,-3.284543E-1,4.146276E-2,8.5006726E-1,-4.542111E-1,6.481663E-2,-1.5574038E0,1.03001624E-1,-2.4504919E-2,-5.6920033E-2,6.1866216E-2,9.864384E-3,-7.670467E-2,-1.7993934E-1,4.0664557E-2],"categories":[],"categories_nodes":[],"categories_segments":[],"categories_sizes":[],"default_left":[0,0,0,0,0,0,0,0,0,0,0,0,0,0,0],"id":28,"left_children":[1,3,5,7,9,11,13,-1,-1,-1,-1,-1,-1,-1,-1],"loss_changes":[1.7676903E1,2.5808073E1,2.069517E1,5.8860416E0,3.0342192E1,2.1425755E1,8.354809E0,0E0,0E0,0E0,0E0,0E0,0E0,0E0,0E0],"parents":[2147483647,0,0,1,1,2,2,3,3,4,4,5,5,6,6],"right_children":[2,4,6,8,10,12,14,-1,-1,-1,-1,-1,-1,-1,-1],"split_conditions":[4.8E0,4.21E1,1.06E1,3.2865527E0,3.26E-1,8.58E1,7.94E1,1.03001624E-1,-2.4504919E-2,-5.6920033E-2,6.1866216E-2,9.864384E-3,-7.670467E-2,-1.7993934E-1,4.0664557E-2],"split_indices":[9,0,10,13,8,0,0,0,0,0,0,0,0,0,0],"split_type":[0,0,0,0,0,0,0,0,0,0,0,0,0,0,0],"sum_hessian":[7.14E2,1.67E2,5.47E2,1.5E1,1.52E2,5.41E2,6E0,1.2E1,3E0,1.33E2,1.9E1,5.18E2,2.3E1,5E0,1E0],"tree_param":{"num_deleted":"0","num_feature":"14","num_nodes":"15","size_leaf_vector":"1"}}]},"name":"gbtree"},"learner_model_param":{"base_score":"[6.139599E0]","boost_from_average":"1","num_class":"0","num_feature":"14","num_target":"1"},"objective":{"name":"reg:squarederror","reg_loss_param":{"scale_pos_weight":"1"}}},"version":[3,2,0]}