tree
version=v4
num_class=1
num_tree_per_iteration=1
label_index=0
max_feature_idx=13
objective=regression
feature_names=forecast_high forecast_low forecast_diurnal_range day_sin day_cos forecast_precip forecast_wind forecast_radiation forecast_evap lag_high_1d lag_high_2d roll_high_7d_mean roll_high_14d_mean roll_high_7d_std
feature_infos=[35.899999999999999:94.799999999999997] [25.300000000000001:67.700000000000003] [3.6000000000000014:32.299999999999997] [-0.99999942202469239:0.99998555065071859] [-0.99997919295908244:0.9999907524084426] [0:1.1659999999999999] [3.6000000000000001:23.899999999999999] [261:8677] [0.0080000000000000002:0.318] [-11.700000000000005:9.5999999999999996] [-11.700000000000005:9.5999999999999996] [-5.04285714285714:4.3000000000000016] [-3.5142857142857147:3.6357142857142861] [0.57940856544781816:5.8285830998949466]
tree_sizes=536 655 653 574 653 653 731 651 730 651 657 654 655 660 738 744 727 736 653 659 655 652 734 659 654 661 661 655 641 739 655 660 658 739 735 643 654 659 663 739 660 662 662 657 659 660 740 746 740 746 744 744 664 739 739 740

Tree=0
num_leaves=5
num_cat=0
split_feature=11 2 2 4
split_gain=279.365 197.35 121.902 70.5328
threshold=0.56428571428571583 10.250000000000002 14.9 0.33222858587828868
decision_type=2 2 2 2
left_child=1 -1 3 -2
right_child=2 -3 -4 -5
leaf_value=0.98162251090651498 1.124891338367717 0.73843074352414972 0.90749044983157257 0.99111463606288219
leaf_weight=38 52 70 71 68
leaf_count=38 52 70 71 68
internal_value=0.934296 0.823769 0.996956 1.04976
internal_weight=299 108 191 120
internal_count=299 108 191 120
is_linear=0
shrinkage=1


Tree=1
num_leaves=6
num_cat=0
split_feature=2 3 4 9 10
split_gain=225.388 161.967 116.524 89.6575 66.8788
threshold=9.9999999999999982 -0.42180583328916638 0.48877522411129343 2.3499999999999983 1.1500000000000024
decision_type=2 2 2 2 2
left_child=2 -2 -1 4 -3
right_child=1 3 -4 -5 -6
leaf_value=0.19240735424679004 -0.1858774324774686 -0.14781318987489345 0.015177733773439285 0.071970957092519328 0.012196015242795248
leaf_weight=50 53 39 61 58 38
leaf_count=50 53 39 61 58 38
internal_value=-0.00153004 -0.0590289 0.0956408 -0.00860244 -0.0693848
internal_weight=299 188 111 135 77
internal_count=299 188 111 135 77
is_linear=0
shrinkage=0.0862736


Tree=2
num_leaves=6
num_cat=0
split_feature=11 0 6 5 2
split_gain=158.731 82.4337 47.3054 39.3376 32.2941
threshold=-0.64285714285714268 68.300000000000026 8.9500000000000011 0.17149999999999996 13.800000000000002
decision_type=2 2 2 2 2
left_child=-1 2 -2 4 -4
right_child=1 -3 3 -5 -6
leaf_value=-0.12421712069077255 -0.0084371356477764593 -0.064256938610991313 0.15890877577437454 0.024292499019665358 0.055934783371546594
leaf_weight=56 55 49 57 52 39
leaf_count=56 55 49 57 52 39
internal_value=0.00635091 0.0356014 0.0598283 0.0851261 0.117708
internal_weight=308 252 203 148 96
internal_count=308 252 203 148 96
is_linear=0
shrinkage=0.0862736


Tree=3
num_leaves=5
num_cat=0
split_feature=9 2 9 12
split_gain=138.582 63.807 57.9141 26.7638
threshold=-2.1500000000000017 8.7500000000000053 2.5499999999999976 1.1214285714285714
decision_type=2 2 2 2
left_child=-1 -2 3 -3
right_child=1 2 -4 -5
leaf_value=-0.13671268816179702 0.096851947050351744 -0.075734056188813903 0.065597031718499427 0.0049782874665804423
leaf_weight=43 74 57 69 65
leaf_count=43 74 57 69 65
internal_value=0.00581037 0.0292038 0.00276437 -0.0329253
internal_weight=308 265 191 122
internal_count=308 265 191 122
is_linear=0
shrinkage=0.0862736


Tree=4
num_leaves=6
num_cat=0
split_feature=11 2 2 7 6
split_gain=226.688 96.5875 74.1964 21.4902 15.2096
threshold=0.78571428571428636 10.799999999999999 18.700000000000006 3691.5000000000005 12.050000000000002
decision_type=2 2 2 2 2
left_child=1 -1 3 4 -2
right_child=2 -3 -4 -5 -6
leaf_value=-0.0081203692780168583 0.024101356483772974 -0.1627843270066546 -0.045602735092182684 0.13045041152685852 0.093015756220169471
leaf_weight=53 47 69 42 49 49
leaf_count=53 47 69 42 49 49
internal_value=-0.00476644 -0.0959778 0.0548619 0.0840327 0.0596503
internal_weight=309 122 187 145 96
internal_count=309 122 187 145 96
is_linear=0
shrinkage=0.0862736


Tree=5
num_leaves=6
num_cat=0
split_feature=11 2 2 10 10
split_gain=189.627 80.775 63.6584 52.8546 15.3228
threshold=0.78571428571428636 10.799999999999999 17.250000000000004 1.4500000000000031 3.2500000000000004
decision_type=2 2 2 2 2
left_child=1 -1 3 -2 -5
right_child=2 -3 -4 4 -6
leaf_value=-0.0074279558855031725 0.010147607422302612 -0.1488663246281198 -0.031730679525850895 0.15509112001370948 0.079609190213279141
leaf_weight=53 50 69 51 47 39
leaf_count=53 50 69 51 47 39
internal_value=-0.00434982 -0.0877726 0.0501867 0.0809104 0.121682
internal_weight=309 122 187 136 86
internal_count=309 122 187 136 86
is_linear=0
shrinkage=0.0862736


Tree=6
num_leaves=7
num_cat=0
split_feature=0 1 2 9 5 2
split_gain=167.654 60.1263 44.5245 34.4997 28.5728 22.652
threshold=71.250000000000014 34.850000000000001 14.150000000000004 2.9499999999999997 0.25350000000000006 9.4000000000000039
decision_type=2 2 2 2 2 2
left_child=1 -1 3 4 5 -3
right_child=-2 2 -4 -5 -6 -7
leaf_value=-0.065237289250253627 -0.13125931718898623 0.12576772858983956 -0.011421429841875342 0.14464932800689592 -0.0092918414238266234 0.032385907746773177
leaf_weight=39 56 40 62 39 39 38
leaf_count=39 56 40 62 39 39 38
internal_value=0.00315942 0.0326963 0.0503529 0.0748518 0.0509415 0.0808927
internal_weight=313 257 218 156 117 78
internal_count=313 257 218 156 117 78
is_linear=0
shrinkage=0.0862736


Tree=7
num_leaves=6
num_cat=0
split_feature=0 4 3 0 6
split_gain=140.292 56.8454 95.1674 57.3011 28.3397
threshold=71.250000000000014 0.6174544326165855 1.0000000180025095e-35 59.95000000000001 10.950000000000001
decision_type=2 2 2 2 2
left_child=1 3 -3 4 -1
right_child=-2 2 -4 -5 -6
leaf_value=0.14379434203283245 -0.12006001386780403 0.065537463529294654 -0.119070060616429 -0.0098267130646218885 0.056058162744840663
leaf_weight=48 56 40 42 61 66
leaf_count=48 56 40 42 61 66
internal_value=0.00290155 0.0299208 -0.0292029 0.0576299 0.0935819
internal_weight=313 257 82 175 114
internal_count=313 257 82 175 114
is_linear=0
shrinkage=0.0862736


Tree=8
num_leaves=7
num_cat=0
split_feature=9 0 4 9 6 7
split_gain=163.98 49.1092 63.8684 46.9547 19.7896 16.9982
threshold=-2.2499999999999996 60.95000000000001 -0.19337245081799001 2.2500000000000004 10.250000000000002 6261.0000000000009
decision_type=2 2 2 2 2 2
left_child=-1 2 -2 4 -4 -3
right_child=1 5 3 -5 -6 -7
leaf_value=-0.15131757111409752 0.15545755101388825 -0.054226549484682675 -0.052907272852357454 0.097401912214600109 0.033892000369062446 0.020711468479699791
leaf_weight=40 41 44 39 49 38 45
leaf_count=40 41 44 39 49 38 45
internal_value=0.00975955 0.0352349 0.0627415 0.031954 -0.0101432 -0.0164563
internal_weight=296 256 167 126 77 89
internal_count=296 256 167 126 77 89
is_linear=0
shrinkage=0.0862736


Tree=9
num_leaves=6
num_cat=0
split_feature=9 0 6 5 12
split_gain=137.297 41.1092 55.0783 27.2732 25.1855
threshold=-2.2499999999999996 60.95000000000001 9.3500000000000032 0.21350000000000002 1.646428571428572
decision_type=2 2 2 2 2
left_child=-1 2 -2 -4 -3
right_child=1 4 3 -5 -6
leaf_value=-0.13846356916752678 -0.014179614314124045 0.024484013051402888 0.12331952737214484 0.034614308124447525 -0.067662205874013628
leaf_weight=40 54 51 72 41 38
leaf_count=40 54 51 72 41 38
internal_value=0.00892646 0.0322371 0.0574037 0.0915016 -0.0150567
internal_weight=296 256 167 113 89
internal_count=296 256 167 113 89
is_linear=0
shrinkage=0.0862736


Tree=10
num_leaves=6
num_cat=0
split_feature=9 6 8 4 13
split_gain=110.041 57.8725 37.0056 39.0287 31.3589
threshold=-1.9499999999999991 9.0500000000000025 0.094500000000000015 0.57605713708605399 2.2066446976425103
decision_type=2 2 2 2 2
left_child=-1 4 3 -3 -2
right_child=1 2 -4 -5 -6
leaf_value=-0.12186034032696927 -0.094267946603108638 0.12075114335366374 -0.0031356174653144669 0.010072674644201062 0.011246694416078317
leaf_weight=50 41 63 67 38 42
leaf_count=50 41 63 67 38 42
internal_value=-0.0058147 0.0175471 0.0466109 0.0794276 -0.0411898
internal_weight=301 251 168 101 83
internal_count=301 251 168 101 83
is_linear=0
shrinkage=0.0862736


Tree=11
num_leaves=6
num_cat=0
split_feature=11 2 4 0 1
split_gain=123.088 59.0399 113.305 25.4031 30.7121
threshold=1.1714285714285726 17.500000000000007 0.57605713708605399 58.650000000000013 38.850000000000001
decision_type=2 2 2 2 2
left_child=1 2 -1 4 -2
right_child=3 -3 -4 -5 -6
leaf_value=0.058148284441122931 0.017088294203639446 -0.14334240689767327 -0.11787888188115195 0.0036202401075360502 0.11767264119353175
leaf_weight=57 38 44 51 55 56
leaf_count=57 38 44 51 55 56
internal_value=-0.00532684 -0.0598283 -0.0251755 0.0502896 0.0773921
internal_weight=301 152 108 149 94
internal_count=301 152 108 149 94
is_linear=0
shrinkage=0.0862736


Tree=12
num_leaves=6
num_cat=0
split_feature=9 2 8 4 6
split_gain=75.5844 31.944 69.0296 44.8231 32.9099
threshold=-2.2499999999999996 13.350000000000003 0.045500000000000006 -0.57077231802681661 11.450000000000001
decision_type=2 2 2 2 2
left_child=-1 2 4 -3 -2
right_child=1 3 -4 -5 -6
leaf_value=-0.12649617675499811 -0.064302944990256392 0.019062592160343214 0.10625214583580186 -0.088374864598231365 0.035083404775811289
leaf_weight=38 49 61 54 54 49
leaf_count=38 49 61 54 54 49
internal_value=-0.013692 0.0026203 0.0285273 -0.0315912 -0.0147023
internal_weight=305 267 152 115 98
internal_count=305 267 152 115 98
is_linear=0
shrinkage=0.0862736


Tree=13
num_leaves=6
num_cat=0
split_feature=9 4 0 8 9
split_gain=63.2957 27.1173 55.9125 27.1899 24.4413
threshold=-2.2499999999999996 -0.86548532668110156 62.050000000000004 0.032500000000000008 2.0999999999999983
decision_type=2 2 2 2 2
left_child=-1 -2 3 -3 -5
right_child=1 2 -4 4 -6
leaf_value=-0.11575937258295826 0.063795864089369464 -0.025912130938714813 -0.08575464215498331 0.08577049118240003 -0.00015485717772214773
leaf_weight=38 44 71 54 50 48
leaf_count=38 44 71 54 50 48
internal_value=-0.0125317 0.00239579 -0.00986337 0.0146124 0.0439501
internal_weight=305 267 223 169 98
internal_count=305 267 223 169 98
is_linear=0
shrinkage=0.0862736


Tree=14
num_leaves=7
num_cat=0
split_feature=12 4 2 8 12 2
split_gain=100.943 55.074 44.6555 60.7727 26.8158 23.5576
threshold=-0.81071428571428628 0.71952396275653763 17.700000000000006 0.17550000000000002 0.80714285714285783 9.4000000000000039
decision_type=2 2 2 2 2 2
left_child=-1 2 4 -4 -2 -6
right_child=1 -3 3 -5 5 -7
leaf_value=-0.137901930935143 0.11726465814137635 -0.07052502182231711 -0.097255704432275908 0.051133302950075711 0.083895620512752636 0.0022969454978262849
leaf_weight=39 38 52 41 40 42 69
leaf_count=39 38 52 41 40 42 69
internal_value=-0.00895882 0.00913908 0.0272923 -0.0241466 0.0552398 0.0334688
internal_weight=321 282 230 81 149 111
internal_count=321 282 230 81 149 111
is_linear=0
shrinkage=0.0862736


Tree=15
num_leaves=7
num_cat=0
split_feature=12 1 13 0 3 10
split_gain=84.5329 44.1517 35.6471 36.9254 24.8026 16.4875
threshold=-0.81071428571428628 35.95000000000001 2.6058539844573185 62.250000000000007 -0.15101209918632377 1.3499999999999981
decision_type=2 2 2 2 2 2
left_child=-1 -2 3 5 -4 -3
right_child=1 2 4 -5 -6 -7
leaf_value=-0.12619216680930939 -0.074898396729086367 -0.010011983521888332 0.0036586346563465422 -0.062816155657762954 0.090601416178146085 0.066485605149998878
leaf_weight=39 40 41 38 53 68 42
leaf_count=39 40 41 38 53 68 42
internal_value=-0.00819447 0.00836717 0.0222875 -0.00696298 0.0596373 0.0289051
internal_weight=321 282 242 136 106 83
internal_count=321 282 242 136 106 83
is_linear=0
shrinkage=0.0862736


Tree=16
num_leaves=7
num_cat=0
split_feature=9 5 2 7 6 0
split_gain=60.1316 47.3139 28.4482 41.2314 52.34 20.591
threshold=-2.1500000000000017 0.19300000000000003 8.7000000000000011 4887.5000000000009 9.7500000000000018 68.300000000000026
decision_type=2 2 2 2 2 2
left_child=-1 2 -2 4 -4 -5
right_child=1 -3 3 5 -6 -7
leaf_value=-0.089686581877861909 0.10538349250128148 -0.043484057001572055 0.044200466039843851 0.10608536740530732 -0.08389574087558449 0.023021477996542142
leaf_weight=39 42 61 53 49 42 41
leaf_count=39 42 61 53 49 42 41
internal_value=0.00999729 0.023661 0.0417742 0.0270272 -0.0126096 0.0686646
internal_weight=327 288 227 185 95 90
internal_count=327 288 227 185 95 90
is_linear=0
shrinkage=0.0862736


Tree=17
num_leaves=7
num_cat=0
split_feature=9 5 2 6 7 9
split_gain=50.3494 39.5875 24.1613 40.0475 45.1548 14.3502
threshold=-2.1500000000000017 0.19300000000000003 8.9000000000000039 9.9500000000000011 4887.5000000000009 1.2500000000000002
decision_type=2 2 2 2 2 2
left_child=-1 2 -2 5 -5 -4
right_child=1 -3 3 4 -6 -7
leaf_value=-0.082070959874616753 0.092914439855019529 -0.039770554359120094 0.016560383836261447 -0.089636402366829765 0.042353376868001544 0.082957501774997972
leaf_weight=39 47 61 39 38 38 65
leaf_count=39 47 61 39 38 38 65
internal_value=0.00914493 0.0216479 0.0382163 0.0236621 -0.0238342 0.0583061
internal_weight=327 288 227 180 76 104
internal_count=327 288 227 180 76 104
is_linear=0
shrinkage=0.0862736


Tree=18
num_leaves=6
num_cat=0
split_feature=2 9 2 1 7
split_gain=68.1239 57.1945 36.046 33.4973 18.6551
threshold=8.2000000000000011 1.2500000000000002 10.799999999999999 47.350000000000001 4887.5000000000009
decision_type=2 2 2 2 2
left_child=-1 2 -2 -4 -3
right_child=1 4 3 -5 -6
leaf_value=0.08478993906051363 0.0096496373044457004 -0.0049005367736270795 -0.14601132022547794 -0.039832398849914498 0.06192204394044127
leaf_weight=59 41 72 40 50 54
leaf_count=59 41 72 40 50 54
internal_value=0.00169174 -0.0175446 -0.0573334 -0.0877041 0.0239019
internal_weight=316 257 131 90 126
internal_count=316 257 131 90 126
is_linear=0
shrinkage=0.0862736


Tree=19
num_leaves=6
num_cat=0
split_feature=0 4 2 5 9
split_gain=59.9607 63.6527 44.1065 26.4513 24.7049
threshold=71.250000000000014 -0.57077231802681661 8.2000000000000011 1.0000000180025095e-35 0.75000000000000011
decision_type=2 2 2 2 2
left_child=1 -1 -3 4 -4
right_child=-2 2 3 -5 -6
leaf_value=0.10873587816077311 -0.08162467697999326 0.06731042407501342 -0.035664257054063273 -0.063322766341438699 0.052295371872423883
leaf_weight=47 53 52 49 70 45
leaf_count=47 53 52 49 70 45
internal_value=0.00153993 0.018453 -0.00144873 -0.0234231 0.00651132
internal_weight=316 263 216 164 94
internal_count=316 263 216 164 94
is_linear=0
shrinkage=0.0862736


Tree=20
num_leaves=6
num_cat=0
split_feature=10 9 2 2 6
split_gain=68.1372 65.3121 33.0068 23.2924 10.2147
threshold=1.9000000000000024 1.7500000000000002 11.250000000000002 9.3000000000000025 10.050000000000002
decision_type=2 2 2 2 2
left_child=1 2 -1 -2 -5
right_child=3 -3 -4 4 -6
leaf_value=-0.027231163635752648 0.094900013799481722 0.034905618182152938 -0.1176799595252932 0.049619671382036941 -0.0091936697118816611
leaf_weight=57 42 59 64 39 49
leaf_count=57 42 59 64 39 49
internal_value=-0.00495122 -0.0392691 -0.0754305 0.0425264 0.0170373
internal_weight=310 180 121 130 88
internal_count=310 180 121 130 88
is_linear=0
shrinkage=0.0862736


Tree=21
num_leaves=6
num_cat=0
split_feature=10 9 2 11 2
split_gain=57.0225 54.6324 27.6057 26.9504 31.7722
threshold=1.9000000000000024 1.7500000000000002 11.250000000000002 2.3999999999999995 11.049999999999999
decision_type=2 2 2 2 2
left_child=1 2 -1 4 -2
right_child=3 -3 -4 -5 -6
leaf_value=-0.024907296665207801 0.12426996336521244 0.031925730108562762 -0.1076254075723771 -0.01979891821614059 0.020665053836631652
leaf_weight=57 38 59 64 40 52
leaf_count=57 38 59 64 40 52
internal_value=-0.00451966 -0.0359141 -0.068987 0.0389134 0.0649643
internal_weight=310 180 121 130 90
internal_count=310 180 121 130 90
is_linear=0
shrinkage=0.0862736


Tree=22
num_leaves=7
num_cat=0
split_feature=2 7 5 4 1 4
split_gain=55.8558 74.0332 43.1032 31.776 34.0955 18.7521
threshold=10.799999999999999 3244.0000000000005 0.17800000000000002 -0.67801649466304881 44.350000000000001 0.48877522411129343
decision_type=2 2 2 2 2 2
left_child=2 -2 5 -3 -5 -1
right_child=1 3 -4 4 -6 -7
leaf_value=0.11568228451368157 -0.14651679787056088 0.035054520068535801 -0.028243530892436586 0.011213905403349137 -0.10101212501952496 0.029662326205167865
leaf_weight=38 39 59 52 38 42 38
leaf_count=38 39 59 52 38 42 38
internal_value=-0.0112856 -0.0424803 0.0320901 -0.0127653 -0.0480308 0.0732647
internal_weight=306 178 128 139 80 76
internal_count=306 178 128 139 80 76
is_linear=0
shrinkage=0.0862736


Tree=23
num_leaves=6
num_cat=0
split_feature=2 7 10 8 2
split_gain=48.0036 57.0496 47.0545 30.6559 15.4248
threshold=11.250000000000002 7164.0000000000009 1.3499999999999981 0.023500000000000004 9.4000000000000039
decision_type=2 2 2 2 2
left_child=3 2 -2 -1 -5
right_child=1 -3 -4 4 -6
leaf_value=-0.036524695269470289 -0.12064613516387912 0.041259956229791422 -0.011344448321947425 0.077527771775403875 0.0084706186001120704
leaf_weight=41 67 44 52 63 39
leaf_count=41 67 44 52 63 39
internal_value=-0.0103268 -0.0422579 -0.0731927 0.0260958 0.0513358
internal_weight=306 163 119 143 102
internal_count=306 163 119 143 102
is_linear=0
shrinkage=0.0862736


Tree=24
num_leaves=6
num_cat=0
split_feature=2 12 4 12 8
split_gain=32.7346 50.2743 45.3656 27.0632 8.69516
threshold=17.700000000000006 1.1000000000000008 0.59003219687534991 1.2607142857142859 0.023500000000000004
decision_type=2 2 2 2 2
left_child=2 -2 3 -1 -4
right_child=1 -3 4 -5 -6
leaf_value=0.099337004358992578 -0.11046216380732411 0.017327544028145719 -0.054037085184098659 0.018922999264274338 0.0029494271955334121
leaf_weight=59 39 54 40 66 39
leaf_count=59 39 54 40 66 39
internal_value=0.0056272 -0.0366411 0.0249496 0.0571836 -0.026102
internal_weight=297 93 204 125 79
internal_count=297 93 204 125 79
is_linear=0
shrinkage=0.0862736


Tree=25
num_leaves=6
num_cat=0
split_feature=0 4 10 10 3
split_gain=33.6734 42.7372 19.0439 31.4779 18.1547
threshold=72.700000000000003 -0.57077231802681661 2.2500000000000004 -0.95000000000000273 0.57782244426053786
decision_type=2 2 2 2 2
left_child=1 -1 3 -3 -5
right_child=-2 2 -4 4 -6
leaf_value=0.093770733686462104 -0.058236742365592502 0.04657969005685611 0.036262842436488314 -0.0083239904941440016 -0.085687173723479171
leaf_weight=45 51 38 73 46 44
leaf_count=45 51 38 73 46 44
internal_value=0.00513702 0.0183897 0.00127515 -0.018758 -0.0464759
internal_weight=297 246 201 128 90
internal_count=297 246 201 128 90
is_linear=0
shrinkage=0.0862736


Tree=26
num_leaves=6
num_cat=0
split_feature=0 12 3 4 6
split_gain=34.8724 49.7912 18.8609 17.4121 26.0683
threshold=71.250000000000014 0.31785714285714434 0.92602006027323125 -0.58481178939031186 11.450000000000001
decision_type=2 2 2 2 2
left_child=1 -1 3 -3 -5
right_child=-2 2 -4 4 -6
leaf_value=0.074897790033287143 -0.063350388947543482 0.016094664882062966 0.026928836718142671 -0.098529257892368424 -0.0019409403857105817
leaf_weight=67 56 39 62 44 39
leaf_count=67 56 39 62 44 39
internal_value=-0.00218397 0.0115861 -0.011643 -0.0312824 -0.0534979
internal_weight=307 251 184 122 83
internal_count=307 251 184 122 83
is_linear=0
shrinkage=0.0862736


Tree=27
num_leaves=6
num_cat=0
split_feature=0 12 1 4 3
split_gain=29.1693 41.6509 17.7018 25.1643 13.8631
threshold=71.250000000000014 0.31785714285714434 41.250000000000007 0.41202506375868281 0.7210268013660811
decision_type=2 2 2 2 2
left_child=1 -1 3 -3 -4
right_child=-2 2 4 -5 -6
leaf_value=0.068495769316604907 -0.057945206945120169 0.06748876083246641 -0.000866401517359666 -0.0264141630910858 -0.065062456477798944
leaf_weight=67 56 40 47 44 53
leaf_count=67 56 40 47 44 53
internal_value=-0.00200359 0.0105903 -0.0106553 0.0184696 -0.035083
internal_weight=307 251 184 84 100
internal_count=307 251 184 84 100
is_linear=0
shrinkage=0.0862736


Tree=28
num_leaves=6
num_cat=0
split_feature=2 7 7 2 13
split_gain=39.496 55.9086 46.7163 34.9881 24.5432
threshold=17.350000000000005 3561.0000000000005 6964.5000000000009 11.15 2.1491411321877805
decision_type=2 2 2 2 2
left_child=1 3 -2 4 -1
right_child=2 -3 -4 -5 -6
leaf_value=-0.023078265052332046 -0.11114784809131156 0.088366163487738153 0.015421586665457161 -0.074622821703874617 0.050232062876087585
leaf_weight=65 44 62 42 42 70
leaf_count=65 44 62 42 42 70
internal_value=0.000256913 0.0183047 -0.0496694 -0.0064611 0.0149908
internal_weight=325 239 86 177 135
internal_count=325 239 86 177 135
is_linear=0
shrinkage=0.0862736


Tree=29
num_leaves=7
num_cat=0
split_feature=2 1 7 5 10 10
split_gain=33.0481 49.8447 39.107 30.6861 20.9943 14.8075
threshold=17.350000000000005 35.95000000000001 6964.5000000000009 0.17149999999999996 2.2500000000000004 1.0000000180025095e-35
decision_type=2 2 2 2 2 2
left_child=1 -1 -2 4 5 -3
right_child=2 3 -4 -5 -6 -7
leaf_value=-0.060345919909454919 -0.10169293595064997 0.074512485051928853 0.014110606127097653 -0.0081171643230946531 0.11395616254487423 0.00010125169082615114
leaf_weight=49 44 39 42 71 40 40
leaf_count=49 44 39 42 71 40 40
internal_value=0.000225674 0.0167346 -0.0454437 0.0367459 0.0634156 0.0371322
internal_weight=325 239 86 190 119 79
internal_count=325 239 86 190 119 79
is_linear=0
shrinkage=0.0862736


Tree=30
num_leaves=6
num_cat=0
split_feature=3 2 0 5 2
split_gain=26.8761 24.6763 42.017 18.6952 16.8609
threshold=0.9550229469509578 17.700000000000006 49.550000000000004 0.022000000000000002 8.4500000000000046
decision_type=2 2 2 2 2
left_child=1 2 4 -4 -1
right_child=-2 -3 3 -5 -6
leaf_value=0.0026520820935533812 0.059156347840051804 -0.052809926317477461 0.08191421938279117 0.0086846475680389165 -0.075503385061672798
leaf_weight=38 49 72 48 56 44
leaf_count=38 49 72 48 56 44
internal_value=0.00100203 -0.010159 0.00647255 0.0427701 -0.0395387
internal_weight=307 258 186 104 82
internal_count=307 258 186 104 82
is_linear=0
shrinkage=0.0862736


Tree=31
num_leaves=6
num_cat=0
split_feature=13 2 8 3 3
split_gain=29.1383 19.9468 19.3008 36.3147 25.0628
threshold=1.456838628279699 21.250000000000011 0.028500000000000004 -0.04836157422433459 0.78857998149907527
decision_type=2 2 2 2 2
left_child=-1 2 -2 -4 -5
right_child=1 -3 3 4 -6
leaf_value=-0.068145843846674048 -0.020269369869763524 -0.038333301686981826 0.10279721549982199 -0.037302027633482733 0.044217915707803652
leaf_weight=39 58 49 45 46 70
leaf_count=39 58 49 45 46 70
internal_value=0.000919798 0.0111055 0.0222447 0.0375794 0.0118644
internal_weight=307 268 219 161 116
internal_count=307 268 219 161 116
is_linear=0
shrinkage=0.0862736


Tree=32
num_leaves=6
num_cat=0
split_feature=4 11 2 10 10
split_gain=36.2606 31.872 23.9847 12.5376 12.814
threshold=-0.86548532668110156 1.3500000000000008 10.799999999999999 3.2500000000000004 1.6500000000000024
decision_type=2 2 2 2 2
left_child=-1 2 -2 4 -3
right_child=1 3 -4 -5 -6
leaf_value=0.079302335859007089 0.0010193051354254626 0.011034848753426639 -0.069582583605201462 -0.013140820192887597 0.078147505002981899
leaf_weight=40 68 46 75 47 39
leaf_count=40 68 46 75 47 39
internal_value=0.00321474 -0.00800717 -0.0361512 0.0225089 0.0421731
internal_weight=315 275 143 132 85
internal_count=315 275 143 132 85
is_linear=0
shrinkage=0.0862736


Tree=33
num_leaves=7
num_cat=0
split_feature=13 4 4 7 13 13
split_gain=36.434 24.1688 28.7417 18.0463 16.9909 22.2266
threshold=1.5281628644749643 -0.80417042486635371 -0.3744658827978154 3561.0000000000005 3.1047949653034652 2.1491411321877805
decision_type=2 2 2 2 2 2
left_child=-1 -2 -3 4 5 -4
right_child=1 2 3 -5 -6 -7
leaf_value=-0.075562370527511302 0.068431893131701935 -0.051987986848115002 -0.019302762294202403 0.068035235131842731 -0.044771947399310154 0.064579414584098563
leaf_weight=38 49 55 46 42 38 47
leaf_count=38 49 55 46 42 38 47
internal_value=0.00295221 0.0138689 0.00198776 0.019273 0.0033906 0.0232373
internal_weight=315 277 228 173 131 93
internal_count=315 277 228 173 131 93
is_linear=0
shrinkage=0.0862736


Tree=34
num_leaves=7
num_cat=0
split_feature=1 8 3 1 0 11
split_gain=29.1309 27.8786 21.7341 18.8295 41.747 18.4285
threshold=42.050000000000004 0.029500000000000002 0.89787622492179153 48.600000000000009 72.90000000000002 1.6071428571428568
decision_type=2 2 2 2 2 2
left_child=1 -1 -3 5 -5 -2
right_child=3 2 -4 4 -6 -7
leaf_value=-0.012872519938824356 -0.07436480273867066 0.11556376325766211 0.024916334892958785 0.075207732387402387 -0.042858106631220166 -0.0015357973088751576
leaf_weight=48 53 39 40 43 45 50
leaf_count=48 53 39 40 43 45 50
internal_value=0.00698456 0.0389068 0.0702218 -0.0142988 0.0149566 -0.0392333
internal_weight=318 127 79 191 88 103
internal_count=318 127 79 191 88 103
is_linear=0
shrinkage=0.0862736


Tree=35
num_leaves=6
num_cat=0
split_feature=7 7 0 2 10
split_gain=22.3239 28.0843 30.2465 20.7812 12.5212
threshold=1284.5000000000002 1991.0000000000002 60.95000000000001 12.6 0.1500000000000021
decision_type=2 2 2 2 2
left_child=-1 -2 3 -3 -4
right_child=1 2 4 -5 -6
leaf_value=0.059565440030775595 -0.065107781715138979 0.011165225111783016 0.011112441815195063 0.089295854936394914 -0.045083891689350113
leaf_weight=49 45 63 52 42 67
leaf_count=49 45 63 52 42 67
internal_value=0.00639619 -0.00340446 0.00913787 0.0427607 -0.0205977
internal_weight=318 269 224 105 119
internal_count=318 269 224 105 119
is_linear=0
shrinkage=0.0862736


Tree=36
num_leaves=6
num_cat=0
split_feature=7 2 5 3 0
split_gain=38.38 19.0677 27.1698 28.0917 9.66374
threshold=6450.5000000000009 17.250000000000004 0.17149999999999996 0.69676570133721638 47.850000000000001
decision_type=2 2 2 2 2
left_child=1 2 3 4 -1
right_child=-2 -3 -4 -5 -6
leaf_value=-0.044049174402061936 0.064251962054805697 -0.067723631432706044 -0.048720934708137958 0.0648408521161003 0.013850474523806496
leaf_weight=40 56 41 67 56 45
leaf_count=40 56 41 67 56 45
internal_value=0.000126197 -0.0144203 -0.00374215 0.0177514 -0.013519
internal_weight=305 249 208 141 85
internal_count=305 249 208 141 85
is_linear=0
shrinkage=0.0862736


Tree=37
num_leaves=6
num_cat=0
split_feature=7 1 10 7 3
split_gain=32.1136 19.5868 46.0656 42.2762 17.391
threshold=6450.5000000000009 44.250000000000007 0.1500000000000021 2216.0000000000005 1.0000000180025095e-35
decision_type=2 2 2 2 2
left_child=1 3 -3 4 -1
right_child=-2 2 -4 -5 -6
leaf_value=0.0056724245610315889 0.058769858705425122 0.025759802604066972 -0.097625165065408345 0.054965907730424077 -0.070788620060967186
leaf_weight=42 56 39 52 70 46
leaf_count=42 56 39 52 70 46
internal_value=0.000112216 -0.0131939 -0.0449308 0.00518986 -0.0345131
internal_weight=305 249 91 158 88
internal_count=305 249 91 158 88
is_linear=0
shrinkage=0.0862736


Tree=38
num_leaves=6
num_cat=0
split_feature=10 10 5 9 3
split_gain=43.4523 21.5862 18.5671 20.8157 20.5596
threshold=-1.7499999999999998 -0.34999999999999781 0.17149999999999996 -0.15000000000000205 0.74443451080969758
decision_type=2 2 2 2 2
left_child=-1 -2 3 -3 -5
right_child=1 2 -4 4 -6
leaf_value=-0.07186633206754682 0.06918029615932933 0.065088433646785862 -0.04151591214545549 -0.033523748189237673 0.034229144906432585
leaf_weight=56 40 45 57 72 61
leaf_count=56 40 45 57 72 61
internal_value=-0.0030365 0.0111109 0.00106951 0.0148039 -0.00243437
internal_weight=331 275 235 178 133
internal_count=331 275 235 178 133
is_linear=0
shrinkage=0.0862736


Tree=39
num_leaves=7
num_cat=0
split_feature=9 12 9 1 0 9
split_gain=36.441 20.8993 30.4445 20.7993 29.1333 11.3271
threshold=-2.6500000000000017 1.6107142857142855 3.1500000000000026 41.050000000000004 65.550000000000011 1.4000000000000024
decision_type=2 2 2 2 2 2
left_child=-1 3 5 -2 -5 -3
right_child=1 2 -4 4 -6 -7
leaf_value=-0.079318817557695973 0.069035942358759692 -0.015171324760387661 0.043011961152228516 -0.036079916800336051 0.055650357736307596 -0.077128085667523896
leaf_weight=40 59 44 41 57 46 44
leaf_count=40 59 44 41 57 46 44
internal_value=-0.00277102 0.00789836 -0.0179632 0.0284817 0.0049755 -0.0464749
internal_weight=331 291 129 162 103 88
internal_count=331 291 129 162 103 88
is_linear=0
shrinkage=0.0862736


Tree=40
num_leaves=6
num_cat=0
split_feature=7 6 9 9 12
split_gain=25.8218 22.5775 16.7293 15.6705 25.1742
threshold=7164.0000000000009 12.750000000000002 1.4500000000000031 2.5499999999999976 0.41071428571428575
decision_type=2 2 2 2 2
left_child=1 3 -3 4 -1
right_child=-2 2 -4 -5 -6
leaf_value=-0.0019691514691997274 0.071370857913186259 0.064952111560072343 -0.0075353024690893566 0.015907987076956974 -0.081869708212427866
leaf_weight=61 38 48 46 53 56
leaf_count=61 38 48 46 53 56
internal_value=0.00548363 -0.00414621 0.0296639 -0.0228814 -0.0404438
internal_weight=302 264 94 170 117
internal_count=302 264 94 170 117
is_linear=0
shrinkage=0.0862736


Tree=41
num_leaves=6
num_cat=0
split_feature=7 12 0 0 4
split_gain=21.6221 21.0016 21.1504 32.5157 27.3135
threshold=7164.0000000000009 1.8785714285714292 46.250000000000007 51.850000000000001 -0.35846086284744716
decision_type=2 2 2 2 2
left_child=1 2 -1 -4 -5
right_child=-2 -3 3 4 -6
leaf_value=0.035883723768791141 0.065313007820962915 0.035755229632408389 -0.099639996248678919 -0.050022728037670508 0.035188051536533212
leaf_weight=41 38 72 40 58 53
leaf_count=41 38 72 40 58 53
internal_value=0.00502137 -0.00379064 -0.0186882 -0.0335925 -0.00936726
internal_weight=302 264 192 151 111
internal_count=302 264 192 151 111
is_linear=0
shrinkage=0.0862736


Tree=42
num_leaves=6
num_cat=0
split_feature=1 10 10 10 4
split_gain=43.3529 15.7432 27.9613 25.3242 26.7328
threshold=53.050000000000004 1.9000000000000024 3.2500000000000004 0.84999999999999798 0.59003219687534991
decision_type=2 2 2 2 2
left_child=1 3 -3 4 -1
right_child=-2 2 -4 -5 -6
leaf_value=0.060023665385143414 -0.061813048673713358 0.089647984513226558 0.0039626297866253652 -0.054382919086928133 -0.02984479405082947
leaf_weight=60 61 51 63 44 41
leaf_count=60 61 51 63 44 41
internal_value=0.00324608 0.0186807 0.0425752 -0.000207261 0.0235832
internal_weight=320 259 114 145 101
internal_count=320 259 114 145 101
is_linear=0
shrinkage=0.0862736


Tree=43
num_leaves=6
num_cat=0
split_feature=0 8 7 13 4
split_gain=27.7139 20.4304 40.6095 26.0778 18.773
threshold=68.750000000000014 0.023500000000000004 1752.5000000000002 1.939254926323206 -0.022575793296316444
decision_type=2 2 2 2 2
left_child=1 -1 -3 -4 -5
right_child=-2 2 3 4 -6
leaf_value=-0.033098661071090753 -0.044345277758786536 0.10579835503878994 0.053248691765886459 -0.052885897779743556 0.022019575811877183
leaf_weight=49 71 40 61 53 46
leaf_count=49 71 40 61 53 46
internal_value=0.00296731 0.0165352 0.0287607 0.00916483 -0.0181615
internal_weight=320 249 200 160 99
internal_count=320 249 200 160 99
is_linear=0
shrinkage=0.0862736


Tree=44
num_leaves=6
num_cat=0
split_feature=7 7 3 12 10
split_gain=24.0987 29.9342 29.2696 22.6068 15.9895
threshold=1409.5000000000002 2074.5000000000005 -0.44504625642270151 1.646428571428572 2.5499999999999976
decision_type=2 2 2 2 2
left_child=-1 -2 -3 -4 -5
right_child=1 2 3 4 -6
leaf_value=0.053523095375315577 -0.071181257207180215 -0.047204651282060639 0.059576608003315802 -0.041724880087497099 0.034501348931523776
leaf_weight=60 44 55 75 43 38
leaf_count=60 44 55 75 43 38
internal_value=0.00462723 -0.00698034 0.0065781 0.0256526 -0.00597406
internal_weight=315 255 211 156 81
internal_count=315 255 211 156 81
is_linear=0
shrinkage=0.0862736


Tree=45
num_leaves=6
num_cat=0
split_feature=2 1 0 4 3
split_gain=18.424 22.4391 14.6595 14.775 21.981
threshold=21.950000000000006 48.600000000000009 56.900000000000006 0.28313308994381586 1.0000000180025095e-35
decision_type=2 2 2 2 2
left_child=1 2 3 -1 -5
right_child=-2 -3 -4 4 -6
leaf_value=0.047181867330478147 -0.045860213922369136 0.062254336787078604 -0.047840188778376702 0.036636673922438127 -0.037434678915662961
leaf_weight=56 46 54 38 51 70
leaf_count=56 46 54 38 51 70
internal_value=0.00422589 0.0128772 0.000331088 0.0108048 -0.00618671
internal_weight=315 269 215 177 121
internal_count=315 269 215 177 121
is_linear=0
shrinkage=0.0862736


Tree=46
num_leaves=7
num_cat=0
split_feature=13 10 10 10 6 1
split_gain=17.4942 16.166 15.3473 18.6512 14.5793 19.5087
threshold=1.4426127606564483 4.0500000000000016 -1.6500000000000019 0.24999999999999997 10.250000000000002 42.250000000000007
decision_type=2 2 2 2 2 2
left_child=-1 2 -2 -4 -5 -6
right_child=1 -3 3 4 5 -7
leaf_value=-0.05852218375988285 -0.02952451178995472 -0.049081738004020353 0.068094891558105081 0.038448761489858277 0.023994429409367666 -0.060102103072767046
leaf_weight=40 55 39 48 59 41 40
leaf_count=40 55 39 48 59 41 40
internal_value=-0.0055912 0.00202948 0.0103373 0.0220582 0.00604181 -0.0176768
internal_weight=322 282 243 188 140 81
internal_count=322 282 243 188 140 81
is_linear=0
shrinkage=0.0862736


Tree=47
num_leaves=7
num_cat=0
split_feature=2 7 10 7 4 6
split_gain=21.0953 46.1279 21.4739 18.4077 20.3144 12.0614
threshold=10.799999999999999 3208.5000000000005 -1.0000000180025095e-35 7215.5000000000009 -0.3744658827978154 13.750000000000002
decision_type=2 2 2 2 2 2
left_child=2 -2 -1 4 -3 -4
right_child=1 3 5 -5 -6 -7
leaf_value=0.07513160413144955 -0.10658233192507288 -0.061978143757510977 -0.025330452589166174 0.046170812012605915 0.013810460307732541 0.036080429384792861
leaf_weight=38 39 48 59 42 57 39
leaf_count=38 39 48 59 42 57 39
internal_value=-0.00511997 -0.0239685 0.0206499 -0.00169232 -0.0209974 -0.000817705
internal_weight=322 186 136 147 105 98
internal_count=322 186 136 147 105 98
is_linear=0
shrinkage=0.0862736


Tree=48
num_leaves=7
num_cat=0
split_feature=4 10 10 1 1 1
split_gain=27.7969 22.5223 14.8776 16.1684 19.3829 12.1266
threshold=-0.86548532668110156 -2.1500000000000017 3.3499999999999983 46.150000000000013 41.150000000000013 37.850000000000001
decision_type=2 2 2 2 2 2
left_child=-1 -2 3 4 5 -3
right_child=1 2 -4 -5 -6 -7
leaf_value=0.077946444533006309 -0.055473380268478714 0.0044328187833984189 -0.035403930373083037 0.065733052808805162 -0.035942218899080829 0.066625726208188102
leaf_weight=39 44 57 41 46 50 39
leaf_count=39 44 57 41 46 50 39
internal_value=0.0103596 0.000689859 0.0114157 0.0214961 0.00733776 0.029966
internal_weight=316 277 233 192 146 96
internal_count=316 277 233 192 146 96
is_linear=0
shrinkage=0.0862736


Tree=49
num_leaves=7
num_cat=0
split_feature=4 10 5 2 9 4
split_gain=23.276 18.8543 12.9513 30.7049 15.6169 8.65453
threshold=-0.86548532668110156 -2.1500000000000017 1.0000000180025095e-35 8.0500000000000025 0.24999999999999997 0.029024409397335454
decision_type=2 2 2 2 2 2
left_child=-1 -2 4 -4 -3 -6
right_child=1 2 3 -5 5 -7
leaf_value=0.071327722747964076 -0.050754476635118506 0.075433239176469324 0.045772473570594434 -0.045659554680738311 -0.017722812746241472 0.038372350544249811
leaf_weight=39 44 38 44 70 43 38
leaf_count=39 44 38 44 70 43 38
internal_value=0.00948084 0.000632278 0.010446 -0.0103129 0.0302826 0.00868569
internal_weight=316 277 233 114 119 81
internal_count=316 277 233 114 119 81
is_linear=0
shrinkage=0.0862736


Tree=50
num_leaves=7
num_cat=0
split_feature=11 12 12 1 13 9
split_gain=16.0001 22.9703 21.595 27.0743 26.3867 18.9785
threshold=2.4642857142857149 1.7821428571428568 1.3035714285714286 52.650000000000013 2.001724978822593 1.1500000000000024
decision_type=2 2 2 2 2 2
left_child=1 2 3 4 -1 -6
right_child=-2 -3 -4 -5 5 -7
leaf_value=-0.039249557974450906 0.044164040875878809 -0.051855277725496973 0.060326299387192001 -0.068124932005150615 0.084737602659750305 -3.7837731998865192e-05
leaf_weight=46 52 66 43 41 39 39
leaf_count=46 52 66 43 41 39 39
internal_value=0.000586343 -0.00776551 0.00633787 -0.00790627 0.0122464 0.0426863
internal_weight=326 274 208 165 124 78
internal_count=326 274 208 165 124 78
is_linear=0
shrinkage=0.0862736


Tree=51
num_leaves=7
num_cat=0
split_feature=11 0 8 3 10 4
split_gain=13.3854 16.6779 31.3925 13.6078 19.9498 7.17351
threshold=2.4642857142857149 62.250000000000007 0.18150000000000002 -0.20180236284700906 2.1500000000000026 0.59003219687534991
decision_type=2 2 2 2 2 2
left_child=1 3 -3 -1 5 -5
right_child=-2 2 -4 4 -6 -7
leaf_value=0.045993228081724007 0.040399071576974595 -0.083627260274324558 0.017504515741419313 -0.0050438103377601299 0.044888687031333946 -0.052654058386159386
leaf_weight=50 52 49 42 49 39 45
leaf_count=50 52 49 42 49 39 45
internal_value=0.0005407 -0.00709834 -0.0371499 0.00792087 -0.00654012 -0.0280331
internal_weight=326 274 91 183 133 94
internal_count=326 274 91 183 133 94
is_linear=0
shrinkage=0.0862736


Tree=52
num_leaves=6
num_cat=0
split_feature=13 10 4 0 11
split_gain=30.6943 23.3192 17.5549 16.7508 14.8885
threshold=2.629366974871846 3.0499999999999976 0.097680735332368721 54.550000000000004 1.3785714285714286
decision_type=2 2 2 2 2
left_child=1 2 -1 -2 -4
right_child=3 -3 4 -5 -6
leaf_value=0.022307432852219488 -0.0030546735753991874 -0.081136383928261932 -0.072463972448131922 0.061786198025116507 0.00077992043046294028
leaf_weight=75 54 40 40 65 42
leaf_count=75 54 40 40 65 42
internal_value=-0.00199568 -0.0228702 -0.00776265 0.0325003 -0.0352265
internal_weight=316 197 157 119 82
internal_count=316 197 157 119 82
is_linear=0
shrinkage=0.0862736


Tree=53
num_leaves=7
num_cat=0
split_feature=1 10 0 0 12 10
split_gain=19.9855 22.1166 16.4787 21.8042 21.2752 3.4618
threshold=35.95000000000001 -0.95000000000000273 62.050000000000004 70.950000000000017 1.2607142857142859 2.5499999999999976
decision_type=2 2 2 2 2 2
left_child=-1 -2 4 -4 -3 -6
right_child=1 2 3 -5 5 -7
leaf_value=-0.058337364068817753 0.050653808481787917 0.062812215560415371 -0.074217059686756737 0.011051497360467418 -0.03071213264085668 0.0047762239331778748
leaf_weight=40 64 42 48 41 39 42
leaf_count=40 64 42 48 41 39 42
internal_value=-0.00183572 0.00646615 -0.00698313 -0.0351328 0.0134599 -0.012415
internal_weight=316 276 212 89 123 81
internal_count=316 276 212 89 123 81
is_linear=0
shrinkage=0.0862736


Tree=54
num_leaves=7
num_cat=0
split_feature=11 6 9 3 9 11
split_gain=26.9095 21.4423 25.5426 17.6302 13.9088 19.0432
threshold=1.3214285714285721 7.8500000000000005 1.7500000000000002 0.7210268013660811 -1.6500000000000019 -0.07857142857142814
decision_type=2 2 2 2 2 2
left_child=4 -2 -3 -4 -1 -6
right_child=1 2 3 -5 5 -7
leaf_value=-0.082182707173204028 -0.045310631413473704 0.077013154894567712 0.036655302600916373 -0.041813713534008493 0.01527489031242707 -0.05501439826241588
leaf_weight=43 41 46 42 42 50 66
leaf_count=43 41 46 42 42 50 66
internal_value=-0.0151 0.00865141 0.0258055 -0.00259824 -0.0405778 -0.0247977
internal_weight=330 171 130 84 159 116
internal_count=330 171 130 84 159 116
is_linear=0
shrinkage=0.0862736


Tree=55
num_leaves=7
num_cat=0
split_feature=11 6 9 3 2 9
split_gain=22.5161 17.9508 21.3796 14.7601 14.5679 21.4601
threshold=1.3214285714285721 7.8500000000000005 1.7500000000000002 0.7210268013660811 10.250000000000002 -0.24999999999999992
decision_type=2 2 2 2 2 2
left_child=4 -2 -3 -4 -1 -6
right_child=1 2 3 -5 5 -7
leaf_value=-0.0039362629696211718 -0.04146017734424353 0.070457957749903502 0.033539255389318179 -0.038259153923975962 -0.10378956355712665 -0.022223785739731952
leaf_weight=61 41 46 42 42 42 56
leaf_count=61 41 46 42 42 42 56
internal_value=-0.0138128 0.00791336 0.0236088 -0.00237737 -0.0371182 -0.0576165
internal_weight=330 171 130 84 159 98
internal_count=330 171 130 84 159 98
is_linear=0
shrinkage=0.0862736


end of trees

feature_importances:
forecast_diurnal_range=41
lag_high_2d=32
lag_high_1d=30
day_cos=29
forecast_high=27
forecast_radiation=23
forecast_low=19
day_sin=18
forecast_wind=16
roll_high_14d_mean=16
roll_high_7d_mean=14
forecast_precip=12
roll_high_7d_std=11
forecast_evap=10

parameters:
[boosting: gbdt]
[objective: regression]
[metric: l2]
[tree_learner: serial]
[device_type: cpu]
[data_sample_strategy: bagging]
[data: ]
[valid: ]
[num_iterations: 56]
[learning_rate: 0.0862736]
[num_leaves: 33]
[num_threads: 2]
[seed: 42]
[deterministic: 0]
[force_col_wise: 0]
[force_row_wise: 0]
[histogram_pool_size: -1]
[max_depth: -1]
[min_data_in_leaf: 38]
[min_sum_hessian_in_leaf: 0.001]
[bagging_fraction: 0.662407]
[pos_bagging_fraction: 1]
[neg_bagging_fraction: 1]
[bagging_freq: 2]
[bagging_seed: 400]
[bagging_by_query: 0]
[feature_fraction: 0.839463]
[feature_fraction_bynode: 1]
[feature_fraction_seed: 30056]
[extra_trees: 0]
[extra_seed: 12879]
[early_stopping_round: 0]
[early_stopping_min_delta: 0]
[first_metric_only: 0]
[max_delta_step: 0]
[lambda_l1: 3.33236e-08]
[lambda_l2: 0.624576]
[linear_lambda: 0]
[min_gain_to_split: 0]
[drop_rate: 0.1]
[max_drop: 50]
[skip_drop: 0.5]
[xgboost_dart_mode: 0]
[uniform_drop: 0]
[drop_seed: 17869]
[top_rate: 0.2]
[other_rate: 0.1]
[min_data_per_group: 100]
[max_cat_threshold: 32]
[cat_l2: 10]
[cat_smooth: 10]
[max_cat_to_onehot: 4]
[top_k: 20]
[monotone_constraints: ]
[monotone_constraints_method: basic]
[monotone_penalty: 0]
[feature_contri: ]
[forcedsplits_filename: ]
[refit_decay_rate: 0.9]
[cegb_tradeoff: 1]
[cegb_penalty_split: 0]
[cegb_penalty_feature_lazy: ]
[cegb_penalty_feature_coupled: ]
[path_smooth: 0]
[interaction_constraints: ]
[verbosity: -1]
[saved_feature_importance_type: 0]
[use_quantized_grad: 0]
[num_grad_quant_bins: 4]
[quant_train_renew_leaf: 0]
[stochastic_rounding: 1]
[linear_tree: 0]
[max_bin: 255]
[max_bin_by_feature: ]
[min_data_in_bin: 3]
[bin_construct_sample_cnt: 200000]
[data_random_seed: 175]
[is_enable_sparse: 1]
[enable_bundle: 1]
[use_missing: 1]
[zero_as_missing: 0]
[feature_pre_filter: 1]
[pre_partition: 0]
[two_round: 0]
[header: 0]
[label_column: ]
[weight_column: ]
[group_column: ]
[ignore_column: ]
[categorical_feature: ]
[forcedbins_filename: ]
[precise_float_parser: 0]
[parser_config_file: ]
[objective_seed: 16083]
[num_class: 1]
[is_unbalance: 0]
[scale_pos_weight: 1]
[sigmoid: 1]
[boost_from_average: 1]
[reg_sqrt: 0]
[alpha: 0.9]
[fair_c: 1]
[poisson_max_delta_step: 0.7]
[tweedie_variance_power: 1.5]
[lambdarank_truncation_level: 30]
[lambdarank_norm: 1]
[label_gain: ]
[lambdarank_position_bias_regularization: 0]
[eval_at: ]
[multi_error_top_k: 1]
[auc_mu_weights: ]
[num_machines: 1]
[local_listen_port: 12400]
[time_out: 120]
[machine_list_filename: ]
[machines: ]
[gpu_platform_id: -1]
[gpu_device_id: -1]
[gpu_use_dp: 0]
[num_gpu: 1]

end of parameters

pandas_categorical:[]
