tree
version=v4
num_class=1
num_tree_per_iteration=1
label_index=0
max_feature_idx=13
objective=regression
feature_names=forecast_low forecast_high forecast_diurnal_range day_sin day_cos forecast_precip forecast_wind forecast_radiation forecast_evap lag_low_1d lag_low_2d roll_low_7d_mean roll_low_14d_mean roll_low_7d_std
feature_infos=[5.4000000000000004:76.799999999999997] [17.899999999999999:99.299999999999997] [2.1000000000000014:35.899999999999999] [-0.99999942202469239:0.99998555065071859] [-0.99997919295908244:0.99991677270219514] [0:4.4290000000000003] [4.2999999999999998:25.699999999999999] [204:8605] [0.0080000000000000002:0.312] [-2.8000000000000007:12.9] [-2.8000000000000007:12.9] [0.32857142857142768:9.1142857142857121] [1.6000000000000003:8.3000000000000007] [0.93757539379381083:5.2888922235550409]
tree_sizes=693 790 812 732 809 732 732 813 734 735 724 727 898 817 728 813 739 821 816 819 821 816 817 725 820 823 815 816 737 744 821 824 822 735 734 739 827 744 904 818 746 824 817 820 826

Tree=0
num_leaves=7
num_cat=0
split_feature=5 11 0 1 0 3
split_gain=376.496 292.714 144.268 107.605 176.572 106.186
threshold=0.24900000000000003 6.264285714285716 61.850000000000001 46.45000000000001 41.050000000000004 0.50557357885840837
decision_type=2 2 2 2 2 2
left_child=1 2 3 -1 -5 -6
right_child=-2 -3 -4 4 5 -7
leaf_value=4.198587880767132 4.0370891743492008 4.5229193864748218 4.1082575021091161 4.4772317336272005 4.3675413467513637 4.1686598260313668
leaf_weight=68 55 45 43 53 45 49
leaf_count=68 55 45 43 53 45 49
internal_value=4.26209 4.30293 4.26456 4.29582 4.3408 4.26387
internal_weight=358 303 258 215 147 94
internal_count=358 303 258 215 147 94
is_linear=0
shrinkage=1


Tree=1
num_leaves=8
num_cat=0
split_feature=2 4 2 2 2 6 4
split_gain=489.549 237.446 151.1 93.6756 39.3142 33.4561 33.1764
threshold=12.199999999999999 -0.46039597980994912 19.399999999999999 8.4000000000000021 18.650000000000002 11.65 0.28313308994381586
decision_type=2 2 2 2 2 2 2
left_child=3 4 5 -1 -2 -3 -4
right_child=1 2 6 -5 -6 -7 -8
leaf_value=-0.26727591422572045 -0.1225757788415713 0.11861448541497865 0.16895743135404889 -0.084494955394474505 0.0017558432541762022 0.0053714123347460927 0.29168367857895566
leaf_weight=49 40 40 38 49 50 53 39
leaf_count=49 40 40 38 49 50 53 39
internal_value=0.00216006 0.0692695 0.134267 -0.175885 -0.0535027 0.0540781 0.231118
internal_weight=358 260 170 98 90 93 77
internal_count=358 260 170 98 90 93 77
is_linear=0
shrinkage=0.0934761


Tree=2
num_leaves=8
num_cat=0
split_feature=11 8 0 0 1 0 8
split_gain=214.572 132.503 208.817 169.503 80.0723 59.2547 25.3676
threshold=6.264285714285716 0.088500000000000009 65.15000000000002 41.500000000000007 43.750000000000007 49.95000000000001 0.17450000000000002
decision_type=2 2 2 2 2 2 2
left_child=1 3 5 4 -1 -3 -7
right_child=-2 2 -4 -5 -6 6 -8
leaf_value=-0.10760915722609414 0.17465344943365196 0.17723675931841545 -0.15339097267336288 -0.26677385191604652 0.054978345103300304 -0.014531692463068912 0.092856104121701311
leaf_weight=59 53 44 41 37 48 37 40
leaf_count=59 53 44 41 37 48 37 40
internal_value=0.0010083 -0.0290675 0.0289257 -0.0943098 -0.0346727 0.0907024 0.0412542
internal_weight=359 306 162 144 107 121 77
internal_count=359 306 162 144 107 121 77
is_linear=0
shrinkage=0.0934761


Tree=3
num_leaves=7
num_cat=0
split_feature=2 2 1 0 2 3
split_gain=378.398 146.703 104.727 82.5816 44.4919 23.9228
threshold=19.399999999999999 8.4000000000000021 82.250000000000014 54.95000000000001 23.000000000000011 0.74443451080969758
decision_type=2 2 2 2 2 2
left_child=1 -1 4 5 -2 -3
right_child=2 3 -4 -5 -6 -7
leaf_value=-0.21991323357311779 0.11606527215940812 0.04771398890390291 -0.00028675844166340422 -0.12816691637999306 0.24764212424402629 -0.032796892724968878
leaf_weight=46 43 65 38 56 47 64
leaf_count=46 43 65 38 56 47 64
internal_value=0.000914045 -0.0705236 0.129837 -0.0333781 0.184778 0.00777061
internal_weight=359 231 128 185 90 129
internal_count=359 231 128 185 90 129
is_linear=0
shrinkage=0.0934761


Tree=4
num_leaves=8
num_cat=0
split_feature=5 9 0 0 7 4 6
split_gain=230.783 151.499 55.0089 139.469 50.3962 22.9159 14.5316
threshold=0.24900000000000003 2.7999999999999994 32.600000000000009 49.350000000000001 5305.0000000000009 0.29958852271690523 12.250000000000002
decision_type=2 2 2 2 2 2 2
left_child=1 4 -3 5 -1 -4 -5
right_child=-2 2 3 6 -6 -7 -8
leaf_value=-0.13505508043980896 -0.17530816116510758 -0.013825151294218555 0.13865817153237786 0.048462439040148922 0.0088490082506564073 0.23675132941330962 -0.027663994621539637
leaf_weight=50 56 51 46 50 37 38 39
leaf_count=50 56 51 46 50 37 38 39
internal_value=-0.000622961 0.0308316 0.071491 0.096642 -0.0738545 0.183034 0.0151037
internal_weight=367 311 224 173 87 84 89
internal_count=367 311 224 173 87 84 89
is_linear=0
shrinkage=0.0934761


Tree=5
num_leaves=7
num_cat=0
split_feature=2 2 1 6 3 5
split_gain=297.85 130.63 83.5476 62.418 46.3423 41.0997
threshold=8.4000000000000021 20.150000000000006 57.750000000000007 12.250000000000002 0.46800856592688467 1.0000000180025095e-35
decision_type=2 2 2 2 2 2
left_child=-1 2 4 -3 -2 -4
right_child=1 3 5 -5 -6 -7
leaf_value=-0.21765549541126736 0.11381475489369615 0.17204618688255824 -0.02472751160043106 0.028314160689911695 -0.0072605046170623301 -0.14971181157571242
leaf_weight=48 47 66 56 44 67 39
leaf_count=48 47 66 56 44 67 39
internal_value=-0.000564729 0.032101 -0.011295 0.114553 0.0426565 -0.0760369
internal_weight=367 319 209 110 114 95
internal_count=367 319 209 110 114 95
is_linear=0
shrinkage=0.0934761


Tree=6
num_leaves=7
num_cat=0
split_feature=9 9 7 4 0 6
split_gain=227.38 132.164 79.3755 74.4499 59.0509 32.6891
threshold=6.4500000000000002 0.84999999999999976 2155.5000000000005 -0.49065906150552335 31.950000000000006 12.250000000000002
decision_type=2 2 2 2 2 2
left_child=1 -1 -3 -4 -5 -2
right_child=5 2 3 4 -6 -7
leaf_value=-0.17303564088891712 0.19254223649516067 -0.12305588055666079 -0.05291249192080124 -0.014690149697589548 0.12739945591985588 0.077937747873422461
leaf_weight=52 43 42 73 43 63 44
leaf_count=52 43 42 73 43 63 44
internal_value=0.00298404 -0.0389536 -0.00740484 0.0197312 0.0697593 0.134581
internal_weight=360 273 221 179 106 87
internal_count=360 273 221 179 106 87
is_linear=0
shrinkage=0.0934761


Tree=7
num_leaves=8
num_cat=0
split_feature=5 9 9 13 13 4 7
split_gain=209.418 126.107 60.3763 28.1517 28.5569 25.282 22.1558
threshold=0.24900000000000003 6.4500000000000002 1.0500000000000009 1.8116025106001894 2.5893542198717205 0.29958852271690523 3722.0000000000005
decision_type=2 2 2 2 2 2 2
left_child=1 2 -1 -4 -5 -3 -6
right_child=-2 5 3 4 6 -7 -8
leaf_value=-0.10742021136474297 -0.15832762473908871 0.084786965284236723 -0.047549891055758048 0.086005970975669546 -0.050268098005618669 0.19062379933138057 0.050091555786396125
leaf_weight=39 59 41 41 65 37 38 40
leaf_count=39 59 41 41 65 37 38 40
internal_value=0.0027051 0.0342697 -0.00182344 0.0206808 0.0403812 0.135696 0.00186679
internal_weight=360 301 222 183 142 79 77
internal_count=360 301 222 183 142 79 77
is_linear=0
shrinkage=0.0934761


Tree=8
num_leaves=7
num_cat=0
split_feature=9 5 11 0 4 7
split_gain=140.107 105.263 55.8707 43.6388 68.8459 31.6629
threshold=0.84999999999999976 0.046000000000000006 6.1071428571428585 31.950000000000006 -0.28519997588938983 6855.0000000000009
decision_type=2 2 2 2 2 2
left_child=-1 2 3 -2 5 -5
right_child=1 -3 -4 4 -6 -7
leaf_value=-0.15071353507662311 -0.050556744433560737 -0.088498650482595781 0.14359182424270661 -0.04064961348774767 0.14080028848382126 0.069051528366598947
leaf_weight=51 50 65 42 56 49 39
leaf_count=51 50 65 42 56 49 39
internal_value=-0.007443 0.0168321 0.0458427 0.0246805 0.0508045 0.0043856
internal_weight=352 301 236 194 144 95
internal_count=352 301 236 194 144 95
is_linear=0
shrinkage=0.0934761


Tree=9
num_leaves=7
num_cat=0
split_feature=5 9 10 8 9 9
split_gain=120.694 88.8054 58.6329 33.2383 19.5497 19.0206
threshold=0.24900000000000003 0.84999999999999976 5.2500000000000009 0.05050000000000001 6.7500000000000009 4.900000000000003
decision_type=2 2 2 2 2 2
left_child=1 -1 3 -3 -4 -5
right_child=-2 2 4 5 -6 -7
leaf_value=-0.12071559765251418 -0.14449646221240561 -0.078351131806329397 0.058326339129290521 -0.013370315144252409 0.14233293991361923 0.060537135038176731
leaf_weight=37 48 38 70 64 37 58
leaf_count=37 48 38 70 64 37 58
internal_value=-0.00674726 0.0150026 0.03381 -0.00201181 0.0873754 0.021766
internal_weight=352 304 267 160 107 122
internal_count=352 304 267 160 107 122
is_linear=0
shrinkage=0.0934761


Tree=10
num_leaves=7
num_cat=0
split_feature=5 0 7 0 0 6
split_gain=88.6488 110.538 37.7538 36.4769 68.4063 19.086
threshold=1.0000000180025095e-35 41.500000000000007 3722.0000000000005 31.950000000000006 43.250000000000007 11.65
decision_type=2 2 2 2 2 2
left_child=3 -2 -3 -1 -5 -6
right_child=1 2 -4 4 5 -7
leaf_value=-0.020836180492818563 0.044943134894809965 -0.19491491679719097 -0.067192574105073288 0.16452984063562123 0.062296872973959611 -0.013214283880714625
leaf_weight=69 53 39 42 41 58 59
leaf_count=69 53 39 42 41 58 59
internal_value=0.000276506 -0.0600133 -0.128689 0.0358661 0.0606285 0.0242186
internal_weight=361 134 81 227 158 117
internal_count=361 134 81 227 158 117
is_linear=0
shrinkage=0.0934761


Tree=11
num_leaves=7
num_cat=0
split_feature=0 7 0 0 0 1
split_gain=81.0772 73.0947 41.8776 89.878 38.484 29.701
threshold=63.650000000000013 1838.0000000000002 31.950000000000006 42.95000000000001 25.250000000000004 75.750000000000014
decision_type=2 2 2 2 2 2
left_child=1 -1 4 -4 -3 -5
right_child=-2 2 3 5 -6 -7
leaf_value=-0.078689880176152194 -0.11023133010965783 0.048422750180785422 0.1594999792405199 -0.020931203180625163 -0.085507513786214615 0.072577425947728064
leaf_weight=56 50 37 58 71 38 51
leaf_count=56 50 37 58 71 38 51
internal_value=0.00025066 0.018013 0.0392498 0.0637019 -0.0194353 0.0181585
internal_weight=361 311 255 180 75 122
internal_count=361 311 255 180 75 122
is_linear=0
shrinkage=0.0934761


Tree=12
num_leaves=9
num_cat=0
split_feature=2 9 6 4 0 2 2 11
split_gain=123.592 80.2847 51.6338 87.5066 48.8528 16.9707 16.8147 4.97835
threshold=15.349999999999996 1.1500000000000006 15.550000000000002 0.28313308994381586 42.250000000000007 22.550000000000001 11.000000000000004 4.2285714285714286
decision_type=2 2 2 2 2 2 2 2
left_child=1 -1 3 5 6 7 -3 -2
right_child=2 4 -4 -5 -6 -7 -8 -9
leaf_value=-0.18445057947707194 0.014385268285742337 -0.033761274738853368 -0.054706834202433205 0.16708504204540087 -0.12020139412256771 0.064009333200702651 0.05360944533280184 -0.032383194411848219
leaf_weight=41 43 38 43 48 37 46 39 37
leaf_count=41 43 38 43 48 37 46 39 37
internal_value=-0.00852038 -0.0722715 0.0370162 0.0596833 -0.0319264 0.0187684 0.0104914 -0.00724515
internal_weight=372 155 217 174 114 126 77 80
internal_count=372 155 217 174 114 126 77 80
is_linear=0
shrinkage=0.0934761


Tree=13
num_leaves=8
num_cat=0
split_feature=2 9 6 4 10 2 3
split_gain=101.566 65.9768 42.4319 71.9117 23.0534 13.9463 11.5203
threshold=15.349999999999996 1.1500000000000006 15.550000000000002 0.28313308994381586 3.2999999999999994 22.550000000000001 0.25206111083856969
decision_type=2 2 2 2 2 2 2
left_child=1 -1 3 5 -3 6 -2
right_child=2 4 -4 -5 -6 -7 -8
leaf_value=-0.1672088608765116 0.028028197395103652 0.026095227098769297 -0.049593052378193392 0.15146658700711443 -0.061047158545678527 0.058025989618684867 -0.042938152362925419
leaf_weight=41 41 42 43 48 72 46 39
leaf_count=41 41 42 43 48 72 46 39
internal_value=-0.00772393 -0.0655159 0.033556 0.0541044 -0.0289421 0.017014 -0.0065679
internal_weight=372 155 217 174 114 126 80
internal_count=372 155 217 174 114 126 80
is_linear=0
shrinkage=0.0934761


Tree=14
num_leaves=7
num_cat=0
split_feature=0 9 6 4 8 4
split_gain=55.1241 36.7316 27.0668 25.4793 19.958 15.2955
threshold=63.650000000000013 3.2999999999999994 12.15 -0.065537083312030939 0.045500000000000006 0.046214085385334856
decision_type=2 2 2 2 2 2
left_child=1 4 5 -4 -1 -3
right_child=-2 2 3 -5 -6 -7
leaf_value=-0.080518957686878778 -0.088399759265748556 0.032311606906248673 0.060539857344308112 -0.038234561688045524 0.002251726989355972 0.10337208351963023
leaf_weight=40 52 48 39 55 70 59
leaf_count=40 52 48 39 55 70 59
internal_value=0.000683577 0.0155785 0.0393436 0.00274632 -0.0278467 0.0714945
internal_weight=363 311 201 94 110 107
internal_count=363 311 201 94 110 107
is_linear=0
shrinkage=0.0934761


Tree=15
num_leaves=8
num_cat=0
split_feature=2 0 2 3 8 2 3
split_gain=124.28 44.9893 26.051 18.9799 17.1112 21.9111 2.83732
threshold=11.799999999999999 65.15000000000002 15.199999999999999 0.64579916509010216 0.070500000000000021 24.250000000000004 0.59177612190863982
decision_type=2 2 2 2 2 2 2
left_child=3 2 -2 -1 -4 6 -6
right_child=1 -3 4 -5 5 -7 -8
leaf_value=-0.14096441602301094 -0.011107127255704131 -0.061706419787020357 0.11914498458138083 -0.053637695532833429 0.036592639460498309 0.10046995304854245 0.0042314986629022125
leaf_weight=43 53 39 38 44 58 48 40
leaf_count=43 53 39 38 44 58 48 40
internal_value=0.000619679 0.0313278 0.0466372 -0.0967992 0.0632701 0.0487273 0.023384
internal_weight=363 276 237 87 184 146 98
internal_count=363 276 237 87 184 146 98
is_linear=0
shrinkage=0.0934761


Tree=16
num_leaves=7
num_cat=0
split_feature=2 1 9 13 1 11
split_gain=103.862 62.4131 39.6227 45.7176 25.0901 9.15272
threshold=20.150000000000006 77.450000000000017 1.1500000000000006 2.0531021141520225 48.600000000000009 4.7357142857142867
decision_type=2 2 2 2 2 2
left_child=2 -2 -1 -4 -5 -6
right_child=1 -3 3 4 5 -7
leaf_value=-0.089852967477090429 0.14608450794735187 0.0059652865497443882 -0.084373440832487309 0.064803692393842538 -0.037794184774207526 0.023276271787302818
leaf_weight=63 61 51 48 64 51 37
leaf_count=63 61 51 48 64 51 37
internal_value=0.00689567 0.0822802 -0.0252073 -0.00484385 0.0202708 -0.0121168
internal_weight=375 112 263 200 152 88
internal_count=375 112 263 200 152 88
is_linear=0
shrinkage=0.0934761


Tree=17
num_leaves=8
num_cat=0
split_feature=2 4 2 4 6 8 10
split_gain=85.3523 35.8503 33.2652 25.4736 17.097 13.6253 15.2968
threshold=20.150000000000006 -0.28519997588938983 11.000000000000004 0.67007489853957602 12.450000000000001 0.086500000000000007 3.6500000000000008
decision_type=2 2 2 2 2 2 2
left_child=2 -2 4 5 -1 -4 -7
right_child=1 -3 3 -5 -6 6 -8
leaf_value=-0.11875629002163819 0.028788608923948886 0.13565614506573812 -0.070575537409740388 0.055870541615718236 -0.031722090061554152 0.038574632481329557 -0.036342330909889239
leaf_weight=38 64 48 37 50 41 42 55
leaf_count=38 64 48 37 50 41 42 55
internal_value=0.00625109 0.074589 -0.022851 -0.00106773 -0.0735867 -0.0223134 -0.00390406
internal_weight=375 112 263 184 79 134 97
internal_count=375 112 263 184 79 134 97
is_linear=0
shrinkage=0.0934761


Tree=18
num_leaves=8
num_cat=0
split_feature=2 2 0 10 13 9 8
split_gain=115.999 37.2399 28.7698 28.795 28.4412 9.73039 4.99633
threshold=10.599999999999998 23.000000000000011 61.850000000000001 6.2999999999999998 2.5143864952545072 3.6500000000000008 0.03450000000000001
decision_type=2 2 2 2 2 2 2
left_child=6 2 3 4 -2 -6 -1
right_child=1 -3 -4 -5 5 -7 -8
leaf_value=-0.1282667645064936 -0.0019915621217697008 0.084170382391874743 -0.062790492287341543 -0.042716994660003976 0.045850381477060762 0.11159407127274522 -0.080315410743526508
leaf_weight=37 67 72 42 45 37 42 39
leaf_count=37 67 72 42 45 37 42 39
internal_value=-0.000334357 0.0254124 0.00725543 0.0226582 0.0428081 0.0808027 -0.10366
internal_weight=381 305 233 191 146 79 76
internal_count=381 305 233 191 146 79 76
is_linear=0
shrinkage=0.0934761


Tree=19
num_leaves=8
num_cat=0
split_feature=2 5 2 1 10 12 6
split_gain=95.3265 35.3434 25.8009 40.2801 15.6172 17.5128 4.55344
threshold=10.599999999999998 0.24900000000000003 20.150000000000006 77.450000000000017 5.900000000000003 3.8107142857142864 12.750000000000002
decision_type=2 2 2 2 2 2 2
left_child=6 2 4 -4 5 -2 -1
right_child=1 -3 3 -5 -6 -7 -8
leaf_value=-0.11746109183152301 -0.015535047366654136 -0.061309829683004011 0.11673006924216438 0.00011168819334565934 -0.039436681431316817 0.057562483861025561 -0.071684367657735185
leaf_weight=37 48 38 65 43 40 71 39
leaf_count=37 48 38 65 43 40 71 39
internal_value=-0.000303104 0.023037 0.0350414 0.0702987 0.011093 0.0280778 -0.0939704
internal_weight=381 305 267 108 159 119 76
internal_count=381 305 267 108 159 119 76
is_linear=0
shrinkage=0.0934761


Tree=20
num_leaves=8
num_cat=0
split_feature=2 4 3 4 6 7 2
split_gain=63.6974 41.0301 37.3047 41.7201 17.9313 16.1952 10.5643
threshold=15.349999999999996 0.16587474750015926 0.9053161325100999 0.60383265664488517 11.950000000000001 5557.5000000000009 24.050000000000008
decision_type=2 2 2 2 2 2 2
left_child=2 5 3 -1 -3 -2 -7
right_child=1 4 -4 -5 -6 6 -8
leaf_value=-0.13557339006971789 -0.051800823506378942 0.12990024321960672 0.031280766164945108 -0.019377349815448114 0.039059666228503764 -0.0033972886763442324 0.059531507078695999
leaf_weight=54 38 39 37 54 37 63 37
leaf_count=54 38 39 37 54 37 63 37
internal_value=-0.00188977 0.0305211 -0.0497238 -0.0774754 0.0856752 0.000146415 0.0198864
internal_weight=359 214 145 108 76 138 100
internal_count=359 214 145 108 76 138 100
is_linear=0
shrinkage=0.0934761


Tree=21
num_leaves=8
num_cat=0
split_feature=0 2 0 11 10 13 11
split_gain=61.4228 64.1556 23.6764 16.7675 29.741 20.1418 12.4432
threshold=63.400000000000006 18.050000000000001 41.500000000000007 3.8714285714285723 2.7500000000000004 2.5057543680573597 4.7714285714285731
decision_type=2 2 2 2 2 2 2
left_child=1 3 -3 4 -1 -5 -4
right_child=-2 2 6 5 -6 -7 -8
leaf_value=0.0020089470745842291 -0.098965713284976706 0.11173546145684002 0.065782728934474372 -0.046971790464929768 -0.10793191292058221 0.04255997699034661 -0.0071306530659845284
leaf_weight=43 49 52 43 38 43 52 39
leaf_count=43 49 52 43 38 43 52 39
internal_value=-0.00171312 0.0136591 0.0623941 -0.023446 -0.0529615 0.00475767 0.0311044
internal_weight=359 310 134 176 86 90 82
internal_count=359 310 134 176 86 90 82
is_linear=0
shrinkage=0.0934761


Tree=22
num_leaves=8
num_cat=0
split_feature=5 6 9 10 9 6 9
split_gain=33.409 42.2997 22.0731 18.6832 14.27 14.1127 20.205
threshold=1.0000000180025095e-35 12.250000000000002 4.7500000000000009 5.049999999999998 5.200000000000002 13.250000000000002 3.2500000000000004
decision_type=2 2 2 2 2 2 2
left_child=3 -2 -3 5 -5 6 -1
right_child=1 2 -4 4 -6 -7 -8
leaf_value=-0.07704962047911959 0.019293079608024604 -0.13999413353062301 -0.037889314525288549 0.0080711339712659126 0.079784802994799078 0.040139656469895028 0.0088244955122960059
leaf_weight=39 55 37 37 44 54 42 62
leaf_count=39 55 37 37 44 54 42 62
internal_value=-0.00440273 -0.0427951 -0.0889417 0.0161475 0.0475868 -0.00539826 -0.0243348
internal_weight=370 129 74 241 98 143 101
internal_count=370 129 74 241 98 143 101
is_linear=0
shrinkage=0.0934761


Tree=23
num_leaves=7
num_cat=0
split_feature=2 2 1 6 1 11
split_gain=46.6594 21.9782 30.3508 41.3898 32.3013 16.1395
threshold=8.4000000000000021 24.050000000000008 47.70000000000001 11.65 69.450000000000003 4.8142857142857158
decision_type=2 2 2 2 2 2
left_child=-1 2 -2 4 -4 -5
right_child=1 -3 3 5 -6 -7
leaf_value=-0.09208850576640118 0.049728328660035973 0.058069980988879673 0.08584670616393153 -0.092961342302295483 -0.025884077466309139 -0.015180029631185811
leaf_weight=46 69 63 40 63 52 37
leaf_count=46 69 63 40 63 52 37
internal_value=-0.00399118 0.00851647 -0.00344473 -0.0225538 0.0226945 -0.0641823
internal_weight=370 324 261 192 92 100
internal_count=370 324 261 192 92 100
is_linear=0
shrinkage=0.0934761


Tree=24
num_leaves=8
num_cat=0
split_feature=10 10 10 6 1 13 7
split_gain=36.1998 47.898 30.0049 32.3484 12.4439 10.1185 15.4109
threshold=2.5499999999999976 5.2999999999999998 6.2999999999999998 12.850000000000003 69.450000000000003 2.0258682106204637 3110.0000000000005
decision_type=2 2 2 2 2 2 2
left_child=4 5 -3 -4 -1 -2 -7
right_child=1 2 3 -5 -6 6 -8
leaf_value=0.074449440965348418 -0.092131185772337337 0.095823961687170611 0.043736040649288148 -0.06972703047069459 0.0071132155601142059 -0.082859389388840576 -0.0032821202847028194
leaf_weight=65 44 37 52 38 38 37 50
leaf_count=65 44 37 52 38 38 37 50
internal_value=0.00275893 -0.015944 0.0249617 -0.00417059 0.049607 -0.0556006 -0.0371253
internal_weight=361 258 127 90 103 131 87
internal_count=361 258 127 90 103 131 87
is_linear=0
shrinkage=0.0934761


Tree=25
num_leaves=8
num_cat=0
split_feature=10 10 10 9 3 8 11
split_gain=29.7485 39.3619 24.6576 30.5165 21.5625 6.62378 5.38668
threshold=2.5499999999999976 5.2999999999999998 6.2999999999999998 5.049999999999998 0.048362692321690111 0.099500000000000019 4.142857142857145
decision_type=2 2 2 2 2 2 2
left_child=5 4 -3 -4 -2 -1 -6
right_child=1 2 3 -5 6 -7 -8
leaf_value=0.066264835992102242 -0.0043962906426579353 0.086866713682776486 -0.066025045943883212 0.043817848946737903 -0.05709952926947845 0.018582660949345541 -0.10622925222516787
leaf_weight=57 53 37 39 51 39 46 39
leaf_count=57 53 37 39 51 39 46 39
internal_value=0.00250104 -0.0144536 0.0226284 -0.00378074 -0.0504033 0.0449699 -0.0816644
internal_weight=361 258 127 90 131 103 78
internal_count=361 258 127 90 131 103 78
is_linear=0
shrinkage=0.0934761


Tree=26
num_leaves=8
num_cat=0
split_feature=0 0 0 5 3 0 4
split_gain=17.3023 37.8101 24.7655 19.815 19.4573 17.5191 8.88628
threshold=53.300000000000004 32.45000000000001 37.20000000000001 0.030000000000000002 0.57782244426053786 26.350000000000005 -0.75013812021657655
decision_type=2 2 2 2 2 2 2
left_child=1 5 -3 6 -4 -1 -2
right_child=3 2 4 -5 -6 -7 -8
leaf_value=0.0087799409362824352 0.031293930574417143 0.1079507522771604 0.07675674020997908 -0.077716026913415989 -0.0065215640336083649 -0.076176025434388381 -0.028866611989361222
leaf_weight=48 45 44 39 39 66 38 41
leaf_count=48 45 44 39 39 66 38 41
internal_value=0.00564845 0.0205944 0.04908 -0.0224498 0.0244104 -0.0287587 0.00261274
internal_weight=360 235 149 125 105 86 86
internal_count=360 235 149 125 105 86 86
is_linear=0
shrinkage=0.0934761


Tree=27
num_leaves=8
num_cat=0
split_feature=2 3 3 7 7 2 7
split_gain=20.3708 20.0193 14.1509 25.7307 14.3319 11.7372 5.68718
threshold=12.400000000000006 0.12545942051955486 0.80926549319045582 2864.0000000000005 5142.0000000000009 20.650000000000006 5507.0000000000009
decision_type=2 2 2 2 2 2 2
left_child=1 -1 3 -2 -4 6 -5
right_child=2 -3 4 5 -6 -7 -8
leaf_value=-0.085132182995047698 0.1015024048590162 0.0010005293336078644 -0.056556282183776729 -0.036905514566520033 0.025718620413145564 0.042020836481334568 0.014922326831251418
leaf_weight=37 38 65 37 37 37 72 37
leaf_count=37 38 65 37 37 37 72 37
internal_value=0.00512046 -0.0302437 0.0191016 0.0329849 -0.0154188 0.0151515 -0.0109916
internal_weight=360 102 258 184 74 146 74
internal_count=360 102 258 184 74 146 74
is_linear=0
shrinkage=0.0934761


Tree=28
num_leaves=7
num_cat=0
split_feature=2 5 0 0 0 3
split_gain=26.0186 24.3179 19.9759 18.4943 14.3248 11.4065
threshold=8.4000000000000021 0.12300000000000001 63.20000000000001 34.150000000000013 41.500000000000007 0.57782244426053786
decision_type=2 2 2 2 2 2
left_child=-1 2 3 -2 -5 -6
right_child=1 -3 -4 4 5 -7
leaf_value=-0.065242414914122054 -0.013137326188156967 -0.057200028088707014 -0.04288315615033729 0.0910709710248368 0.052644982683831547 -0.0063543772500572766
leaf_weight=54 71 47 43 42 67 50
leaf_count=54 71 47 43 42 67 50
internal_value=-0.00522391 0.00490422 0.0155962 0.0265292 0.044242 0.0274316
internal_weight=374 320 273 230 159 117
internal_count=374 320 273 230 159 117
is_linear=0
shrinkage=0.0934761


Tree=29
num_leaves=7
num_cat=0
split_feature=2 10 9 5 3 10
split_gain=21.3817 20.2754 24.4558 19.936 13.7975 20.779
threshold=8.4000000000000021 1.6999999999999995 6.7500000000000009 0.059500000000000004 0.74443451080969758 4.150000000000003
decision_type=2 2 2 2 2 2
left_child=-1 -2 3 4 5 -3
right_child=1 2 -4 -5 -6 -7
leaf_value=-0.059143807996898147 0.048912078462097996 0.064005650586718768 0.044598424804308479 -0.084851735168398543 -0.050098757506515601 -0.022300239269059115
leaf_weight=54 70 39 59 38 49 65
leaf_count=54 70 39 59 38 49 65
internal_value=-0.0047356 0.00444579 -0.00800478 -0.0242539 -0.00920349 0.0100645
internal_weight=374 320 250 191 153 104
internal_count=374 320 250 191 153 104
is_linear=0
shrinkage=0.0934761


Tree=30
num_leaves=8
num_cat=0
split_feature=0 9 3 10 2 8 12
split_gain=28.7338 26.9251 25.1117 11.0865 12.9513 12.4059 10.8837
threshold=65.15000000000002 0.84999999999999976 0.82899317702918729 6.9500000000000002 12.400000000000006 0.12150000000000001 4.757142857142858
decision_type=2 2 2 2 2 2 2
left_child=1 -1 3 4 -3 -6 -4
right_child=-2 2 6 -5 5 -7 -8
leaf_value=-0.056399094789645506 -0.071738783016815175 0.007914192920853871 -0.053843763253050667 -0.0031856865450927722 0.10368157703647141 0.039276847719602465 0.014449536123525647
leaf_weight=46 43 42 44 41 49 56 38
leaf_count=46 43 42 44 41 49 56 38
internal_value=-4.87071e-05 0.00970659 0.020969 0.0397962 0.0517843 0.0693324 -0.0221957
internal_weight=359 316 270 188 147 105 82
internal_count=359 316 270 188 147 105 82
is_linear=0
shrinkage=0.0934761


Tree=31
num_leaves=8
num_cat=0
split_feature=11 7 1 12 13 1 11
split_gain=17.4208 11.0863 18.4049 10.1371 26.2723 15.3889 28.0632
threshold=6.1071428571428585 6966.5000000000009 80.250000000000014 4.1464285714285714 2.5893542198717205 43.750000000000007 3.1142857142857143
decision_type=2 2 2 2 2 2 2
left_child=1 2 3 5 -5 -1 -7
right_child=-2 -3 -4 4 -6 6 -8
leaf_value=-0.03438775651894848 0.046388373782225559 0.036637288080590864 -0.069866451517014871 0.020643104604749982 -0.077179249494933683 -0.017636970202946096 0.093797793739040652
leaf_weight=39 59 40 46 49 47 40 39
leaf_count=39 59 40 46 49 47 40 39
internal_value=-4.41537e-05 -0.00917589 -0.0162241 -0.00469346 -0.0272491 0.0136569 0.0373751
internal_weight=359 300 260 214 96 118 79
internal_count=359 300 260 214 96 118 79
is_linear=0
shrinkage=0.0934761


Tree=32
num_leaves=8
num_cat=0
split_feature=7 0 1 11 0 3 6
split_gain=15.6744 27.5425 28.7235 13.5106 17.5964 12.532 7.3595
threshold=6926.5000000000009 42.95000000000001 54.250000000000007 3.3857142857142857 28.150000000000002 -0.54939360607974019 11.950000000000001
decision_type=2 2 2 2 2 2 2
left_child=1 2 3 -1 -5 -3 -7
right_child=-2 5 -4 4 -6 6 -8
leaf_value=0.041630906431463971 0.051343843075529652 -0.0063905633170596434 0.087128298365639095 0.022451858018109769 -0.061494664720356855 -0.029501476961617121 -0.085091112999151411
leaf_weight=41 46 70 41 40 48 38 46
leaf_count=41 46 70 41 40 48 38 46
internal_value=0.000282941 -0.00696645 0.0189733 -0.00268839 -0.0233372 -0.0356012 -0.0599434
internal_weight=370 324 170 129 88 154 84
internal_count=370 324 170 129 88 154 84
is_linear=0
shrinkage=0.0934761


Tree=33
num_leaves=7
num_cat=0
split_feature=2 7 10 13 7 2
split_gain=24.161 20.9224 18.2154 17.4929 11.3115 10.4055
threshold=15.199999999999999 3842.0000000000005 3.5499999999999976 2.4042125600582067 6855.0000000000009 22.750000000000004
decision_type=2 2 2 2 2 2
left_child=2 -2 -1 -4 5 -3
right_child=1 4 3 -5 -6 -7
leaf_value=0.006338721266362572 0.0674767330248493 -0.038061579136129682 -0.10552502345155441 -0.019189311726636439 0.038944090692665308 0.023012933994530443
leaf_weight=73 60 65 37 46 50 39
leaf_count=73 60 65 37 46 50 39
internal_value=0.000256493 0.020651 -0.0277206 -0.0576763 0.00240719 -0.0151586
internal_weight=370 214 156 83 154 104
internal_count=370 214 156 83 154 104
is_linear=0
shrinkage=0.0934761


Tree=34
num_leaves=7
num_cat=0
split_feature=0 7 3 7 11 7
split_gain=18.958 15.57 22.5977 16.0863 13.876 16.0229
threshold=65.15000000000002 3110.0000000000005 -0.34235669412071196 2345.0000000000005 5.0500000000000007 5761.0000000000009
decision_type=2 2 2 2 2 2
left_child=1 2 -1 -4 5 -3
right_child=-2 4 3 -5 -6 -7
leaf_value=0.04606081178080991 -0.053192602816990675 0.079587329345281677 -0.0064875413589523222 -0.083915523202969633 -0.00366683610435708 0.013081364274640697
leaf_weight=43 43 67 64 37 70 60
leaf_count=43 43 67 64 37 70 60
internal_value=0.00529638 0.0126718 -0.0106907 -0.0348523 0.029749 0.0481672
internal_weight=384 341 144 101 197 127
internal_count=384 341 144 101 197 127
is_linear=0
shrinkage=0.0934761


Tree=35
num_leaves=7
num_cat=0
split_feature=2 0 0 12 5 3
split_gain=20.3997 21.8683 26.5988 21.5659 13.7719 8.8489
threshold=8.4000000000000021 42.95000000000001 31.950000000000006 4.3464285714285724 0.037500000000000006 -0.29343379936893915
decision_type=2 2 2 2 2 2
left_child=-1 2 -2 -4 5 -3
right_child=1 4 3 -5 -6 -7
leaf_value=-0.050883274334586018 -0.0037963440069435639 0.028508614819646994 0.12345929902178408 0.030076786839756366 -0.057068282297163334 -0.019538945182897186
leaf_weight=50 72 68 40 47 41 66
leaf_count=50 72 68 40 47 41 66
internal_value=0.00480129 0.0131373 0.0382305 0.0730113 -0.00966163 0.0048434
internal_weight=384 334 159 87 175 134
internal_count=384 334 159 87 175 134
is_linear=0
shrinkage=0.0934761


Tree=36
num_leaves=8
num_cat=0
split_feature=0 11 5 12 9 0 8
split_gain=13.4501 15.7641 15.4403 16.3716 13.7221 6.24933 7.76072
threshold=65.15000000000002 2.6000000000000005 1.0000000180025095e-35 5.3964285714285731 4.7999999999999998 32.45000000000001 0.12350000000000001
decision_type=2 2 2 2 2 2 2
left_child=1 -1 3 5 -4 -3 -7
right_child=-2 2 4 -5 -6 6 -8
leaf_value=0.048827921259598478 -0.056936676205115458 -0.0063970922498687985 -0.076406118639658363 -0.041578016914104822 -0.00065325607072609421 0.068073016816754275 0.012903610121574814
leaf_weight=46 44 49 48 50 37 37 56
leaf_count=46 44 49 48 50 37 37 56
internal_value=-0.0084519 -0.00184716 -0.0102625 0.00442159 -0.0434313 0.0206186 0.0348527
internal_weight=367 323 277 192 85 142 93
internal_count=367 323 277 192 85 142 93
is_linear=0
shrinkage=0.0934761


Tree=37
num_leaves=7
num_cat=0
split_feature=10 10 10 11 12 3
split_gain=20.8046 14.9317 27.2349 23.3643 16.6133 12.0916
threshold=1.6999999999999995 5.049999999999998 7.1499999999999995 4.142857142857145 4.4178571428571436 0.57782244426053786
decision_type=2 2 2 2 2 2
left_child=5 3 4 -2 -3 -1
right_child=1 2 -4 -5 -6 -7
leaf_value=-9.6210360380711494e-05 -0.0043265770931068606 -0.0011824787051394196 -0.046196669715874689 -0.081583341050432287 0.079863609181022865 0.074044624290367261
leaf_weight=40 71 51 63 66 39 37
leaf_count=40 71 51 63 66 39 37
internal_value=-0.00766185 -0.01913 0.000941076 -0.0415452 0.0339375 0.0355299
internal_weight=367 290 153 137 90 77
internal_count=367 290 153 137 90 77
is_linear=0
shrinkage=0.0934761


Tree=38
num_leaves=9
num_cat=0
split_feature=13 12 6 9 1 3 8 7
split_gain=24.8253 20.1073 24.0293 17.0439 16.556 12.7751 8.57104 5.78469
threshold=2.1303885187297404 5.4607142857142863 13.250000000000002 2.7999999999999994 52.100000000000009 -0.63255557784149707 0.11649999999999996 4899.0000000000009
decision_type=2 2 2 2 2 2 2 2
left_child=5 2 3 -2 -4 -1 -5 -7
right_child=1 -3 4 6 -6 7 -8 -9
leaf_value=0.0067483550703472178 -0.035317711427922477 -0.047467177132011366 0.11233862946249183 0.061169607948829259 0.028746048009077364 -0.084850695485998315 -0.00041449418329141222 -0.033272730030536025
leaf_weight=39 60 38 37 40 47 38 39 38
leaf_count=39 60 38 37 40 47 38 39 38
internal_value=-0.000558795 0.0153847 0.0260949 0.00224142 0.0655666 -0.0367435 0.0307673 -0.0590617
internal_weight=376 261 223 139 84 115 79 76
internal_count=376 261 223 139 84 115 79 76
is_linear=0
shrinkage=0.0934761


Tree=39
num_leaves=8
num_cat=0
split_feature=13 0 0 12 1 1 11
split_gain=22.2388 13.3012 19.8101 20.2656 17.705 8.35873 7.4429
threshold=1.7441735896369572 42.95000000000001 32.45000000000001 4.3107142857142859 38.850000000000001 73.750000000000014 4.4071428571428584
decision_type=2 2 2 2 2 2 2
left_child=-1 2 4 -4 -2 -3 -7
right_child=1 5 3 -5 -6 6 -8
leaf_value=-0.067332527947236792 0.033357691581796134 -0.036267210557757439 0.11047551880250149 0.015596964652638382 -0.053499851945052523 0.023569151603755927 -0.028264722392403279
leaf_weight=39 46 68 37 42 37 70 37
leaf_count=39 46 68 37 42 37 70 37
internal_value=-0.000506561 0.00722701 0.0265286 0.0600338 -0.00536194 -0.0106407 0.00564529
internal_weight=376 337 162 79 83 175 107
internal_count=376 337 162 79 83 175 107
is_linear=0
shrinkage=0.0934761


Tree=40
num_leaves=7
num_cat=0
split_feature=10 10 8 10 6 13
split_gain=12.8402 13.3826 19.1069 10.7416 12.9403 19.8381
threshold=7.9500000000000002 5.049999999999998 0.070500000000000021 3.7500000000000004 14.750000000000002 2.3737151484091643
decision_type=2 2 2 2 2 2
left_child=1 3 -3 4 5 -1
right_child=-2 2 -4 -5 -6 -7
leaf_value=0.035204324913812909 -0.053075792323855717 0.083732504046818798 0.00088534239422960459 -0.045444084311415923 0.04993874752408109 -0.043912980748920895
leaf_weight=45 41 37 71 58 37 72
leaf_count=45 41 37 71 58 37 72
internal_value=-0.00382468 0.00248563 0.0292682 -0.0111583 0.00175451 -0.0134832
internal_weight=361 320 108 212 154 117
internal_count=361 320 108 212 154 117
is_linear=0
shrinkage=0.0934761


Tree=41
num_leaves=8
num_cat=0
split_feature=3 3 10 10 9 3 2
split_gain=13.9567 30.173 15.5687 22.7219 15.4157 8.40859 1.86551
threshold=0.80926549319045582 0.9193901325473397 6.8499999999999988 5.049999999999998 1.0500000000000009 -0.24372957273992743 17.250000000000004
decision_type=2 2 2 2 2 2 2
left_child=2 -2 3 4 -1 -6 -3
right_child=1 6 -4 -5 5 -7 -8
leaf_value=0.053765581226467497 -0.098577758592413856 0.018737380644152632 -0.040242186586938219 0.07259782810842437 -0.049541514956871438 0.0034911203004713235 -0.010945992277973193
leaf_weight=37 38 37 46 53 41 72 37
leaf_count=37 38 37 46 53 41 72 37
internal_value=-0.00346716 -0.0308721 0.00885956 0.0199861 0.00139657 -0.0157508 0.00389569
internal_weight=361 112 249 203 150 113 74
internal_count=361 112 249 203 150 113 74
is_linear=0
shrinkage=0.0934761


Tree=42
num_leaves=8
num_cat=0
split_feature=12 0 1 10 7 12 3
split_gain=18.6656 21.2227 33.8409 19.2261 18.7689 5.40265 5.36854
threshold=4.4178571428571436 42.250000000000007 46.900000000000006 5.2500000000000009 6222.0000000000009 5.4607142857142863 0.12545942051955486
decision_type=2 2 2 2 2 2 2
left_child=1 2 -1 -2 6 -5 -3
right_child=3 4 -4 5 -6 -7 -8
leaf_value=-0.033563362474114539 -0.011008683311345923 -0.047077745444141693 0.075149642508273176 0.08176324947331795 0.0041685368868196442 0.0322381357701262 -0.09550771194638924
leaf_weight=58 70 40 44 38 45 39 40
leaf_count=58 70 40 44 38 45 39 40
internal_value=-0.00150332 -0.018308 0.0133324 0.0244468 -0.0441267 0.0566791 -0.0712927
internal_weight=374 227 102 147 125 77 80
internal_count=374 227 102 147 125 77 80
is_linear=0
shrinkage=0.0934761


Tree=43
num_leaves=8
num_cat=0
split_feature=12 10 13 10 9 2 10
split_gain=15.3391 19.1556 17.021 15.7997 8.76075 7.55619 5.00723
threshold=4.4178571428571436 5.900000000000003 2.6930686432722681 5.2500000000000009 3.6500000000000008 15.349999999999996 7.200000000000002
decision_type=2 2 2 2 2 2 2
left_child=1 2 5 -2 -4 -1 -5
right_child=3 -3 4 6 -6 -7 -8
leaf_value=-0.055377828784742254 -0.0099796340805276447 -0.06519949934520107 -0.00017969904267710443 0.074910507130953652 0.062082235412504287 -0.0023606622823274357 0.027232214963417874
leaf_weight=46 70 54 40 39 39 48 38
leaf_count=46 70 54 40 39 39 48 38
internal_value=-0.0013628 -0.0165967 -0.00142585 0.0221616 0.0305572 -0.0283052 0.051381
internal_weight=374 227 173 147 79 94 77
internal_count=374 227 173 147 79 94 77
is_linear=0
shrinkage=0.0934761


Tree=44
num_leaves=8
num_cat=0
split_feature=12 13 3 6 6 10 10
split_gain=18.5813 18.8337 7.49945 8.13203 12.4803 9.24161 7.22767
threshold=2.6357142857142857 3.5752144578999352 -0.74441730022405961 13.250000000000002 15.850000000000003 5.049999999999998 2.7999999999999994
decision_type=2 2 2 2 2 2 2
left_child=-1 2 -2 5 -5 6 -4
right_child=1 -3 3 4 -6 -7 -8
leaf_value=0.059161375141671198 0.027548572104133431 -0.069996809738585922 -0.016912109004345106 0.053259837346774336 -0.01639995721131618 0.0083925125994309419 -0.07061532203984737
leaf_weight=38 61 40 47 38 55 50 41
leaf_count=38 61 40 47 38 55 50 41
internal_value=-0.00275641 -0.00984339 -0.00160319 -0.00930128 0.0120632 -0.0236991 -0.0419329
internal_weight=370 332 292 231 93 138 88
internal_count=370 332 292 231 93 138 88
is_linear=0
shrinkage=0.0934761


end of trees

feature_importances:
forecast_low=41
forecast_diurnal_range=39
lag_low_2d=31
day_sin=24
lag_low_1d=24
forecast_wind=20
forecast_radiation=20
forecast_high=18
roll_low_7d_mean=16
day_cos=15
forecast_precip=14
roll_low_7d_std=13
forecast_evap=12
roll_low_14d_mean=12

parameters:
[boosting: gbdt]
[objective: regression]
[metric: l2]
[tree_learner: serial]
[device_type: cpu]
[data_sample_strategy: bagging]
[data: ]
[valid: ]
[num_iterations: 45]
[learning_rate: 0.0934761]
[num_leaves: 22]
[num_threads: 2]
[seed: 42]
[deterministic: 0]
[force_col_wise: 0]
[force_row_wise: 0]
[histogram_pool_size: -1]
[max_depth: -1]
[min_data_in_leaf: 37]
[min_sum_hessian_in_leaf: 0.001]
[bagging_fraction: 0.780583]
[pos_bagging_fraction: 1]
[neg_bagging_fraction: 1]
[bagging_freq: 2]
[bagging_seed: 400]
[bagging_by_query: 0]
[feature_fraction: 0.616616]
[feature_fraction_bynode: 1]
[feature_fraction_seed: 30056]
[extra_trees: 0]
[extra_seed: 12879]
[early_stopping_round: 0]
[early_stopping_min_delta: 0]
[first_metric_only: 0]
[max_delta_step: 0]
[lambda_l1: 1.39181e-07]
[lambda_l2: 1.65382e-05]
[linear_lambda: 0]
[min_gain_to_split: 0]
[drop_rate: 0.1]
[max_drop: 50]
[skip_drop: 0.5]
[xgboost_dart_mode: 0]
[uniform_drop: 0]
[drop_seed: 17869]
[top_rate: 0.2]
[other_rate: 0.1]
[min_data_per_group: 100]
[max_cat_threshold: 32]
[cat_l2: 10]
[cat_smooth: 10]
[max_cat_to_onehot: 4]
[top_k: 20]
[monotone_constraints: ]
[monotone_constraints_method: basic]
[monotone_penalty: 0]
[feature_contri: ]
[forcedsplits_filename: ]
[refit_decay_rate: 0.9]
[cegb_tradeoff: 1]
[cegb_penalty_split: 0]
[cegb_penalty_feature_lazy: ]
[cegb_penalty_feature_coupled: ]
[path_smooth: 0]
[interaction_constraints: ]
[verbosity: -1]
[saved_feature_importance_type: 0]
[use_quantized_grad: 0]
[num_grad_quant_bins: 4]
[quant_train_renew_leaf: 0]
[stochastic_rounding: 1]
[linear_tree: 0]
[max_bin: 255]
[max_bin_by_feature: ]
[min_data_in_bin: 3]
[bin_construct_sample_cnt: 200000]
[data_random_seed: 175]
[is_enable_sparse: 1]
[enable_bundle: 1]
[use_missing: 1]
[zero_as_missing: 0]
[feature_pre_filter: 1]
[pre_partition: 0]
[two_round: 0]
[header: 0]
[label_column: ]
[weight_column: ]
[group_column: ]
[ignore_column: ]
[categorical_feature: ]
[forcedbins_filename: ]
[precise_float_parser: 0]
[parser_config_file: ]
[objective_seed: 16083]
[num_class: 1]
[is_unbalance: 0]
[scale_pos_weight: 1]
[sigmoid: 1]
[boost_from_average: 1]
[reg_sqrt: 0]
[alpha: 0.9]
[fair_c: 1]
[poisson_max_delta_step: 0.7]
[tweedie_variance_power: 1.5]
[lambdarank_truncation_level: 30]
[lambdarank_norm: 1]
[label_gain: ]
[lambdarank_position_bias_regularization: 0]
[eval_at: ]
[multi_error_top_k: 1]
[auc_mu_weights: ]
[num_machines: 1]
[local_listen_port: 12400]
[time_out: 120]
[machine_list_filename: ]
[machines: ]
[gpu_platform_id: -1]
[gpu_device_id: -1]
[gpu_use_dp: 0]
[num_gpu: 1]

end of parameters

pandas_categorical:[]
