tree
version=v4
num_class=1
num_tree_per_iteration=1
label_index=0
max_feature_idx=13
objective=regression
feature_names=forecast_high forecast_low forecast_diurnal_range day_sin day_cos forecast_precip forecast_wind forecast_radiation forecast_evap lag_high_1d lag_high_2d roll_high_7d_mean roll_high_14d_mean roll_high_7d_std
feature_infos=[1.2:100.90000000000001] [-9:77.200000000000003] [2.7999999999999972:39.799999999999997] [-0.99999942202469239:0.99998555065071859] [-0.99997919295908244:0.9999907524084426] [0:3.8380000000000001] [4.5:28] [174:8993] [0.0070000000000000001:0.33200000000000002] [-16.700000000000003:13.1] [-16.700000000000003:13.1] [-3.3142857142857145:6.0999999999999988] [-2.7928571428571445:6.0857142857142836] [0.41518785191882263:8.5368668279466107]
tree_sizes=2046 2172 2151 2164 2149 2156 2193 2172 2169 2194 2169 2172 2183 2201 2201 2201 2201 2171 2199 2201 2207 2195 2237 2196 2232 2185 2238 2210 2166 2170 2171 2169 2170 2169 2166 2206 2182 2207 2187 2211 2176 2220 2195 2215 2166 2169 2212 2171 2164 2219 2190 2219 2199 2216 2232 2210 2205 2208 2202 2188 2205 2194 2197 2203 2249 2183 2180 2203 2179 2183 2231 2210 2228 2215 2230 2223 2195 2195 2194 2196 2194 2194 2197 2201 2181 2183 2208 2185 2242 2189 2239 2233 2242 2232 2240 2228 2244 2213 2238 2206 2207 2217 2213 2214 2198 2157 2159 2137 2160 2137 2157 2188 2258 2253 2253 2266 2259 2286 2272 2184 2184 2191 2200 2191 2190 2199 2244 2227 2232 2248 2213 2218 2223 2195 2197 2173 2194 2223 2169 2207 2258 2264 2231 2228 2223 2260 2230 2189 2200 2210 2194 2183 2195 2193 2177 2180 2171 2174 2177 2179 2207 2231 2203 2213 2230 2215 2214 2200 2193 2196 2198 2195 2198 2200 2202 2201 2221 2235 2224 2237 2242 2209 2240 2244 2218 2220 2248 2219 2190 2225 2233 2218 2234 2249 2235 2235 2264 2266 2266 2264 2264 2277 2265 2217 2198 2223 2204 2235 2203 2230 2248 2252 2253 2252 2255 2251 2253 2240 2247 2232 2226 2251 2245 2245 2219 2235 2233 2252 2211 2252 2258 2231 2252 2226 2208 2208 2203 2212 2204 2281 2196 2226 2278 2215 2204 2233 2234 2235 2190 2201 2230 2205 2252 2257 2252 2251 2258 2254 2252 2179 2180 2194 2179 2198 2181 2194 2196 2188 2192 2187 2205 2173 2200 2231 2248 2228 2242 2247 2227 2256 2231 2208 2186 2207 2221 2189 2228 2248 2228 2246 2229 2228 2234 2235 2180 2183 2190

Tree=0
num_leaves=22
num_cat=0
split_feature=2 1 3 8 13 7 12 5 2 8 2 8 9 9 12 7 13 0 9 7 3
split_gain=822.189 249.731 124.048 96.0461 72.2286 83.3175 68.6243 82.6632 63.5868 65.2096 63.0084 59.4306 114.58 58.6859 55.6002 54.6905 53.0654 54.3356 49.1745 46.4194 44.3857
threshold=16.550000000000001 60.550000000000004 0.92922379131507438 0.17800000000000002 2.5234131488182707 2860.0000000000005 1.1035714285714289 0.17050000000000001 11.85 0.025500000000000005 25.250000000000007 0.085500000000000007 0.79999999999999871 -0.20000000000000101 2.9285714285714284 5299.0000000000009 1.8477141054935022 46.850000000000001 1.5999999999999981 6118.5000000000009 0.51297097409535064
decision_type=2 2 2 2 2 2 2 2 2 2 2 2 2 2 2 2 2 2 2 2 2
left_child=2 6 8 -3 -4 -6 7 19 9 20 -5 12 -8 15 -13 -10 17 -11 -14 -2 -1
right_child=1 3 4 10 5 -7 11 -9 13 16 -12 14 18 -15 -16 -17 -18 -19 -20 -21 -22
leaf_value=1.0980223116778831 1.0879410190489829 1.0546988712518217 1.1239464778558477 1.0794669498981073 1.0904604585541315 1.1108627553098955 1.1096437582437477 1.0599068651997445 1.078779490443603 1.0985818379115211 1.0631965489234265 1.0881987908896229 1.0755517951402742 1.0961508813495857 1.0708912980203869 1.0969263618346046 1.1010447247617197 1.1226238252219698 1.0928713272693922 1.0784522855000249 1.0847432428014605
leaf_weight=38 47 7.9999999999999991 7.9999999999999991 43 10.000000000000002 21 12.999999999999998 4.9999999999999991 15.000000000000002 4.9999999999999991 9.9999999999999982 64 6.9999999999999991 70 6.9999999999999991 8.9999999999999982 45 8.9999999999999982 27 28 10.999999999999998
leaf_count=38 47 8 8 43 10 21 13 5 15 5 10 64 7 70 7 9 45 9 27 28 11
internal_value=1.09106 1.08385 1.0988 1.07354 1.10832 1.10427 1.08703 1.08286 1.09696 1.10001 1.07639 1.08985 1.09493 1.09345 1.08649 1.0856 1.10414 1.11406 1.08931 1.08439 1.09503
internal_weight=500 259 241 61 39 31 198 80 202 108 53 118 47 94 71 24 59 14 34 75 49
internal_count=500 259 241 61 39 31 198 80 202 108 53 118 47 94 71 24 59 14 34 75 49
is_linear=0
shrinkage=1


Tree=1
num_leaves=22
num_cat=0
split_feature=2 1 3 8 13 7 12 5 2 8 2 8 9 9 2 7 13 0 9 7 13
split_gain=812.645 246.83 122.605 94.9281 71.3881 82.3509 67.8275 81.7018 62.8482 64.4526 62.2748 58.7408 113.248 58.0035 55.4985 54.0558 52.4487 53.702 48.6035 45.8794 43.9557
threshold=16.550000000000001 60.550000000000004 0.92922379131507438 0.17800000000000002 2.5234131488182707 2860.0000000000005 1.1035714285714289 0.17050000000000001 11.85 0.025500000000000005 25.250000000000007 0.085500000000000007 0.79999999999999871 -0.20000000000000101 19.150000000000006 5299.0000000000009 1.8477141054935022 46.850000000000001 1.5999999999999981 6118.5000000000009 3.1240229792752303
decision_type=2 2 2 2 2 2 2 2 2 2 2 2 2 2 2 2 2 2 2 2 2
left_child=2 6 8 -3 -4 -6 7 19 9 -1 -5 12 -8 15 -13 -10 17 -11 -14 -2 -16
right_child=1 3 4 10 5 -7 11 -9 13 16 -12 14 18 -15 20 -17 -18 -19 -20 -21 -22
leaf_value=0.0034109505733883497 -0.0036416536796566529 -0.036690144879778494 0.03215405140203402 -0.012066356020757679 -0.0011368909982311217 0.019146549816176667 0.017934653499989153 -0.031512491091999162 -0.012749810685303507 0.0069371758563260832 -0.028241971462790005 0.0093510990090194829 -0.015958702752576184 0.0045203810551845231 -0.0037172446753147756 0.0052913436463782396 0.0093857149564763511 0.030839104389688041 0.0012599322747365662 -0.013075109113813672 -0.014335163490543977
leaf_weight=49 47 7.9999999999999991 7.9999999999999991 43 10.000000000000002 21 12.999999999999998 4.9999999999999991 15.000000000000002 4.9999999999999991 9.9999999999999982 7.9999999999999991 6.9999999999999991 70 44 8.9999999999999982 45 8.9999999999999982 27 28 19
leaf_count=49 47 8 8 43 10 21 13 5 15 5 10 8 7 70 44 9 45 9 27 28 19
internal_value=-0.000544989 -0.00770974 0.00715361 -0.0179576 0.0166139 0.0125935 -0.00455102 -0.00869302 0.00532559 0.00835795 -0.0151242 -0.00174026 0.00330761 0.00183831 -0.00508617 -0.0059715 0.0124612 0.0223248 -0.00227599 -0.0071676 -0.00692438
internal_weight=500 259 241 61 39 31 198 80 202 108 53 118 47 94 71 24 59 14 34 75 63
internal_count=500 259 241 61 39 31 198 80 202 108 53 118 47 94 71 24 59 14 34 75 63
is_linear=0
shrinkage=0.00582562


Tree=2
num_leaves=22
num_cat=0
split_feature=2 1 3 2 8 10 6 3 7 5 9 0 0 13 10 2 12 4 6 11 8
split_gain=803.822 186.431 152.203 104.784 100.254 74.0914 104.304 73.3066 69.6582 68.9807 61.4928 65.9725 89.3175 58.8572 54.5017 53.7765 52.7292 45.9401 44.1599 42.8864 40.6008
threshold=18.950000000000003 60.550000000000004 0.89404822654372251 11.85 0.17800000000000002 0.79999999999999871 18.250000000000004 0.48314048284850658 1438.5000000000002 0.63550000000000006 1.6500000000000006 67.65000000000002 54.70000000000001 2.0597040123074315 5.049999999999998 25.400000000000009 2.9857142857142862 0.34033495509342487 12.950000000000001 1.1071428571428565 0.21050000000000002
decision_type=2 2 2 2 2 2 2 2 2 2 2 2 2 2 2 2 2 2 2 2 2
left_child=2 5 3 7 -3 10 17 8 -1 16 11 12 -2 -4 -15 20 18 -7 -5 -9 -6
right_child=1 4 13 9 15 6 -8 19 -10 -11 -12 -13 -14 14 -16 -17 -18 -19 -20 -21 -22
leaf_value=0.0047038842427834984 -0.010587485087049193 -0.043618725091907756 0.031986639466024543 0.00298165417693702 -0.0055169033492037884 -0.0090817815461172423 0.012025632716327207 0.0086967544834916748 0.01582203615521334 -0.020857830451516922 -0.0034400239800647945 -0.010900705776396909 -0.045507954016165669 0.015499640015221149 -0.0012342489214228084 -0.031118482702912929 0.014797409376799256 0.00035262435577384008 -0.004173860774900515 -0.0062454214214226105 -0.0177793368142567
leaf_weight=34 4.9999999999999982 4.9999999999999991 5.9999999999999991 75 13.999999999999998 44 13.999999999999998 11.000000000000002 44 4.9999999999999991 25 32 5 37 7.9999999999999991 6.9999999999999991 8.9999999999999982 29 48 15.999999999999998 27
leaf_count=34 5 5 6 75 14 44 14 11 44 5 25 32 5 37 8 7 9 29 48 16 27
internal_value=-0.00054181 -0.00933029 0.00566606 0.00373684 -0.0187572 -0.00608398 -0.00253328 0.0081157 0.0109796 0.000378519 -0.01069 -0.0149981 -0.0280786 0.0148144 0.0125179 -0.016161 0.00118527 -0.00532963 0.000186745 -0.000146418 -0.0135997
internal_weight=500 207 293 242 53 154 87 105 78 137 67 42 10 51 45 48 132 73 123 27 41
internal_count=500 207 293 242 53 154 87 105 78 137 67 42 10 51 45 48 132 73 123 27 41
is_linear=0
shrinkage=0.00582562


Tree=3
num_leaves=22
num_cat=0
split_feature=2 1 3 8 13 7 12 5 2 8 2 8 9 9 12 7 13 0 9 7 0
split_gain=794.811 241.377 120.005 93.1902 70.0495 81.1926 66.5604 80.3744 61.2851 63.28 60.9303 57.576 111.95 57.0972 54.7843 53.2591 51.6183 52.9616 47.7399 45.0061 43.7074
threshold=16.550000000000001 60.550000000000004 0.92922379131507438 0.17800000000000002 2.5234131488182707 2860.0000000000005 1.1035714285714289 0.17050000000000001 11.85 0.025500000000000005 25.250000000000007 0.085500000000000007 0.79999999999999871 -0.20000000000000101 2.9285714285714284 5299.0000000000009 1.8477141054935022 46.850000000000001 1.5999999999999981 6118.5000000000009 44.650000000000013
decision_type=2 2 2 2 2 2 2 2 2 2 2 2 2 2 2 2 2 2 2 2 2
left_child=2 6 8 -3 -4 -6 7 19 9 -1 -5 12 -8 15 -13 -10 17 -11 -14 -2 -15
right_child=1 3 4 10 5 -7 11 -9 13 16 -12 14 18 20 -16 -17 -18 -19 -20 -21 -22
leaf_value=0.0033589936510569343 -0.0035985190990776832 -0.03631888852163883 0.031828415527477512 -0.011926207778774482 -0.0011815690514675107 0.018958640859029634 0.017824247452995802 -0.031237287952124087 -0.012654012723338593 0.0068303003241357964 -0.0279266158037434 -0.0033307325547985911 -0.015830839083936357 -0.002536901183473769 -0.020510739892481027 0.005253572378919635 0.0092754973280798174 0.030567275180263559 0.001234038763605652 -0.01294187249853305 0.0074989563554349924
leaf_weight=49 47 7.9999999999999991 7.9999999999999991 43 10.000000000000002 21 12.999999999999998 4.9999999999999991 15.000000000000002 4.9999999999999991 9.9999999999999982 64 6.9999999999999991 21 6.9999999999999991 8.9999999999999982 45 8.9999999999999982 27 28 49
leaf_count=49 47 8 8 43 10 21 13 5 15 5 10 64 7 21 7 9 45 9 27 28 49
internal_value=-0.000538665 -0.00762437 0.00707498 -0.0177584 0.0164344 0.0124518 -0.00450071 -0.00860385 0.00526643 0.00826086 -0.014951 -0.0017163 0.00328124 0.00182273 -0.00502889 -0.00592579 0.0123267 0.0221119 -0.00227023 -0.00709083 0.00448378
internal_weight=500 259 241 61 39 31 198 80 202 108 53 118 47 94 71 24 59 14 34 75 70
internal_count=500 259 241 61 39 31 198 80 202 108 53 118 47 94 71 24 59 14 34 75 70
is_linear=0
shrinkage=0.00582562


Tree=4
num_leaves=22
num_cat=0
split_feature=2 1 3 2 8 10 6 3 7 5 9 0 0 13 10 2 12 4 6 11 8
split_gain=786.561 182.163 148.779 102.109 98.1973 72.887 102.954 72.3059 68.27 67.4669 60.612 65.2162 87.9316 57.877 53.6436 52.6226 51.8572 45.147 43.6512 42.3693 40.1275
threshold=18.950000000000003 60.550000000000004 0.89404822654372251 11.85 0.17800000000000002 0.79999999999999871 18.250000000000004 0.48314048284850658 1438.5000000000002 0.63550000000000006 1.6500000000000006 67.65000000000002 54.70000000000001 2.0597040123074315 5.049999999999998 25.400000000000009 2.9857142857142862 0.34033495509342487 12.950000000000001 1.1071428571428565 0.21050000000000002
decision_type=2 2 2 2 2 2 2 2 2 2 2 2 2 2 2 2 2 2 2 2 2
left_child=2 5 3 7 -3 10 17 8 -1 16 11 12 -2 -4 -15 20 18 -7 -5 -9 -6
right_child=1 4 13 9 15 6 -8 19 -10 -11 -12 -13 -14 14 -16 -17 -18 -19 -20 -21 -22
leaf_value=0.0046518443414148508 -0.01051555069275583 -0.043153037982136169 0.03167898024246317 0.0029690784596128439 -0.005408628285059335 -0.008996263741334767 0.011965941760304405 0.0086045883447608083 0.015658800678696141 -0.020619299619607841 -0.0033906510193084678 -0.010791837952107147 -0.045164848442229205 0.015330998215033311 -0.0012704950094744004 -0.030774508253736718 0.014679684592074959 0.00035628147077952166 -0.0041450952230131025 -0.0062471036243203085 -0.017599378593249622
leaf_weight=34 4.9999999999999982 4.9999999999999991 5.9999999999999991 75 13.999999999999998 44 13.999999999999998 11.000000000000002 44 4.9999999999999991 25 32 5 37 7.9999999999999991 6.9999999999999991 8.9999999999999982 29 48 15.999999999999998 27
leaf_count=34 5 5 6 75 14 44 14 11 44 5 25 32 5 37 8 7 9 29 48 16 27
internal_value=-0.00053553 -0.00922915 0.00560532 0.0036979 -0.0185475 -0.00602017 -0.00249841 0.00802053 0.0108649 0.000382685 -0.0105886 -0.0148657 -0.0278711 0.0146501 0.0123728 -0.015978 0.00118056 -0.00527663 0.000190302 -0.000184964 -0.0134442
internal_weight=500 207 293 242 53 154 87 105 78 137 67 42 10 51 45 48 132 73 123 27 41
internal_count=500 207 293 242 53 154 87 105 78 137 67 42 10 51 45 48 132 73 123 27 41
is_linear=0
shrinkage=0.00582562


Tree=5
num_leaves=22
num_cat=0
split_feature=2 1 3 2 8 10 6 3 7 5 9 0 0 13 10 2 12 4 6 11 8
split_gain=777.43 180.048 147.049 100.924 97.054 72.0418 101.758 71.4662 67.4757 66.6832 59.9077 64.4584 86.9071 57.2033 53.0217 52.0093 51.2547 44.6231 43.1441 41.8771 39.6599
threshold=18.950000000000003 60.550000000000004 0.89404822654372251 11.85 0.17800000000000002 0.79999999999999871 18.250000000000004 0.48314048284850658 1438.5000000000002 0.63550000000000006 1.6500000000000006 67.65000000000002 54.70000000000001 2.0597040123074315 5.049999999999998 25.400000000000009 2.9857142857142862 0.34033495509342487 12.950000000000001 1.1071428571428565 0.21050000000000002
decision_type=2 2 2 2 2 2 2 2 2 2 2 2 2 2 2 2 2 2 2 2 2
left_child=2 5 3 7 -3 10 17 8 -1 16 11 12 -2 -4 -15 20 18 -7 -5 -9 -6
right_child=1 4 13 9 15 6 -8 19 -10 -11 -12 -13 -14 14 -16 -17 -18 -19 -20 -21 -22
leaf_value=0.0046247444210136771 -0.010454291106455767 -0.042901645253859859 0.031494430080244711 0.0029517818090562522 -0.0053771193858239037 -0.0089438549118363124 0.011896232791927992 0.0085544615012924669 0.015567579024569423 -0.020499179521767868 -0.0033708982409588677 -0.010728968918666341 -0.044901736425943597 0.015241686032724088 -0.0012630936984471697 -0.030595227526021652 0.014594166657928431 0.00035420593250810796 -0.0041209475608483268 -0.0062107104703103266 -0.01749685168475304
leaf_weight=34 4.9999999999999982 4.9999999999999991 5.9999999999999991 75 13.999999999999998 44 13.999999999999998 11.000000000000002 44 4.9999999999999991 25 32 5 37 7.9999999999999991 6.9999999999999991 8.9999999999999982 29 48 15.999999999999998 27
leaf_count=34 5 5 6 75 14 44 14 11 44 5 25 32 5 37 8 7 9 29 48 16 27
internal_value=-0.000532421 -0.00917543 0.00557268 0.00367637 -0.0184396 -0.00598512 -0.00248382 0.00797383 0.0108016 0.000380442 -0.010527 -0.0147792 -0.0277089 0.0145648 0.0123006 -0.015885 0.00117368 -0.00524587 0.000189179 -0.00018382 -0.0133659
internal_weight=500 207 293 242 53 154 87 105 78 137 67 42 10 51 45 48 132 73 123 27 41
internal_count=500 207 293 242 53 154 87 105 78 137 67 42 10 51 45 48 132 73 123 27 41
is_linear=0
shrinkage=0.00582562


Tree=6
num_leaves=22
num_cat=0
split_feature=2 1 3 8 13 7 12 5 2 2 8 9 8 9 12 5 13 0 9 7 3
split_gain=769.242 233.545 116.325 90.8696 68.2411 79.8523 64.8496 78.7023 59.0151 58.9594 61.7175 55.9795 55.966 110.683 54.1952 52.4241 50.5856 52.1197 46.6002 43.8193 42.933
threshold=16.550000000000001 60.550000000000004 0.92922379131507438 0.17800000000000002 2.5234131488182707 2860.0000000000005 1.1035714285714289 0.17050000000000001 25.250000000000007 11.85 0.025500000000000005 -0.20000000000000101 0.085500000000000007 0.79999999999999871 2.9285714285714284 1.0000000180025095e-35 1.8477141054935022 46.850000000000001 1.5999999999999981 6118.5000000000009 0.51297097409535064
decision_type=2 2 2 2 2 2 2 2 2 2 2 2 2 2 2 2 2 2 2 2 2
left_child=2 6 9 -3 -4 -6 7 19 -5 10 20 15 13 -8 -14 -11 17 -12 -15 -2 -1
right_child=1 3 4 8 5 -7 12 -9 -10 11 16 -13 14 18 -16 -17 -18 -19 -20 -21 -22
leaf_value=0.0062143995561372376 -0.0035342956610129182 -0.035796585679087695 0.031369931099807444 -0.011719029996968942 -0.0012756448421140799 0.018697641875672768 0.017708517303538139 -0.030874480995417758 -0.02746648935433919 0.002029193394106287 0.0066594941598173002 0.0044372899079926087 -0.0032560707777457955 -0.015669633118031726 -0.020343374105531147 -0.015233216961897274 0.0091120009247776749 0.030207288324447801 0.0011901225300156792 -0.012753784534968476 -0.0068456763058852687
leaf_weight=38 47 7.9999999999999991 7.9999999999999991 43 10.000000000000002 21 12.999999999999998 4.9999999999999991 9.9999999999999982 13.000000000000002 4.9999999999999991 70 64 6.9999999999999991 6.9999999999999991 10.999999999999998 45 8.9999999999999982 27 28 10.999999999999998
leaf_count=38 47 8 8 43 10 21 13 5 10 13 5 70 64 7 7 11 45 9 27 28 11
internal_value=-0.00052933 -0.00750014 0.00696084 -0.0174684 0.0161757 0.0122447 -0.00442754 -0.00847761 -0.0146961 0.0051802 0.00811728 0.00180239 -0.00167912 0.00324801 -0.00494509 -0.00586986 0.0121326 0.0218194 -0.00227191 -0.00698036 0.00327624
internal_weight=500 259 241 61 39 31 198 80 53 202 108 94 118 47 71 24 59 14 34 75 49
internal_count=500 259 241 61 39 31 198 80 53 202 108 94 118 47 71 24 59 14 34 75 49
is_linear=0
shrinkage=0.00582562


Tree=7
num_leaves=22
num_cat=0
split_feature=2 1 9 10 6 8 8 2 2 3 6 6 6 3 6 1 4 3 2 9 4
split_gain=625.578 171.215 96.5351 73.1993 69.0799 63.4732 61.5077 77.4741 81.9961 70.7831 67.7284 54.8688 111.696 85.2688 49.6362 70.3038 49.5115 49.2477 44.0013 43.6782 65.2426
threshold=16.550000000000001 55.550000000000004 -1.7999999999999987 8.0500000000000025 17.950000000000003 0.20299999999999999 0.030500000000000003 13.100000000000007 15.149999999999995 0.39036257410962039 10.550000000000002 14.550000000000002 19.050000000000004 0.98372640911059162 13.450000000000001 35.650000000000006 0.020426410361618304 0.97112537654464559 6.7999999999999998 1.9000000000000024 -0.89404254237865755
decision_type=2 2 2 2 2 2 2 2 2 2 2 2 2 2 2 2 2 2 2 2 2
left_child=4 3 5 11 6 -3 9 18 10 -1 -9 14 13 -13 -2 -16 -14 -6 -8 20 -4
right_child=1 2 19 -5 17 -7 7 8 -10 -11 -12 12 16 -15 15 -17 -18 -19 -20 -21 -22
leaf_value=0.0059865715715723957 -0.0024763757224446734 -0.037692248365954265 -0.018312068465632162 -0.024199749717686396 0.011436099078574857 -0.016444975885670669 0.022887838996905899 0.011382799037649376 0.010546803680664208 -0.0060159339988541038 -0.0082875569434284948 0.0055026979090490461 0.0061043117601114177 0.029807766660862683 -0.031848707160468392 -0.0045530684283558442 -0.012448358083631931 0.034321761037328785 0.010390848042104063 -0.00037570301550306678 -0.0053427179478268225
leaf_weight=50 85 6.0000000000000027 23 4.9999999999999991 8.9999999999999982 24 10.999999999999998 8.0000000000000018 28 25 23 27 7.0000000000000027 5.9999999999999991 4.9999999999999991 8.9999999999999982 15.999999999999998 4.9999999999999991 76 18 31
leaf_count=50 85 6 23 5 9 24 11 8 28 25 23 27 7 6 5 9 16 5 76 18 31
internal_value=0.000170287 -0.00601904 -0.011918 -0.00225653 0.00707204 -0.0207047 0.00627502 0.00847841 0.00331795 0.00198161 -0.00320136 -0.00154669 0.00305866 0.00993117 -0.00415486 -0.0143236 -0.00678845 0.0196316 0.0119745 -0.00825254 -0.0108724
internal_weight=497 262 102 160 235 30 221 146 59 75 31 155 56 33 99 14 23 14 87 72 54
internal_count=497 262 102 160 235 30 221 146 59 75 31 155 56 33 99 14 23 14 87 72 54
is_linear=0
shrinkage=0.00582562


Tree=8
num_leaves=22
num_cat=0
split_feature=2 1 9 10 6 8 8 2 2 3 6 6 6 3 2 4 3 2 9 4 8
split_gain=618.317 169.227 95.4125 72.3487 68.2778 62.7336 60.7934 76.5735 81.0432 69.961 66.9419 54.2325 110.399 84.2771 49.2054 48.937 48.6735 43.4889 43.1702 64.4835 68.3679
threshold=16.550000000000001 55.550000000000004 -1.7999999999999987 8.0500000000000025 17.950000000000003 0.20299999999999999 0.030500000000000003 13.100000000000007 15.149999999999995 0.39036257410962039 10.550000000000002 14.550000000000002 19.050000000000004 0.98372640911059162 18.750000000000004 0.020426410361618304 0.97112537654464559 6.7999999999999998 1.9000000000000024 -0.89404254237865755 0.20450000000000002
decision_type=2 2 2 2 2 2 2 2 2 2 2 2 2 2 2 2 2 2 2 2 2
left_child=4 3 5 11 6 -3 9 17 10 -1 -9 14 13 -13 -2 -14 -6 -8 19 20 -4
right_child=1 2 18 -5 16 -7 7 8 -10 -11 -12 12 15 -15 -16 -17 -18 -19 -20 -21 -22
leaf_value=0.0059516961222918019 0.0052132976906277021 -0.03747266818913822 -0.037295154176321316 -0.02405877033305882 0.011369476833478574 -0.016349173361855752 0.022754502295324365 0.011316487264939615 0.010485362110289401 -0.0059808875432451414 -0.0082392768658950746 0.0054706412527508064 0.0060687503589891331 0.029634119330117489 -0.0059356714169015628 -0.012375838759327145 0.034121815338946912 0.010330314810788194 -0.00037351424439200769 -0.0053115933147206765 -0.012885497712214989
leaf_weight=50 15.999999999999998 6.0000000000000027 5.0000000000000027 4.9999999999999991 8.9999999999999982 24 10.999999999999998 8.0000000000000018 28 25 23 27 7.0000000000000027 5.9999999999999991 83 15.999999999999998 4.9999999999999991 76 18 31 18
leaf_count=50 16 6 5 5 9 24 11 8 28 25 23 27 7 6 83 16 5 76 18 31 18
internal_value=0.000169285 -0.00598402 -0.0118486 -0.0022434 0.00703088 -0.0205842 0.00623848 0.00842904 0.00329862 0.00197005 -0.00318265 -0.00153768 0.00304088 0.00987337 -0.00413069 -0.00674883 0.0195174 0.0119047 -0.00820451 -0.0108091 -0.0182054
internal_weight=497 262 102 160 235 30 221 146 59 75 31 155 56 33 99 23 14 87 72 54 23
internal_count=497 262 102 160 235 30 221 146 59 75 31 155 56 33 99 23 14 87 72 54 23
is_linear=0
shrinkage=0.00582562


Tree=9
num_leaves=22
num_cat=0
split_feature=2 1 9 10 6 8 8 2 2 3 6 6 6 3 6 1 4 3 2 12 4
split_gain=611.14 167.264 94.3026 71.5082 67.485 62.0026 60.0874 75.6834 80.1013 69.1485 66.1645 53.6029 109.116 83.297 48.9587 69.4861 48.3692 48.106 42.9824 42.8008 52.521
threshold=16.550000000000001 55.550000000000004 -1.7999999999999987 8.0500000000000025 17.950000000000003 0.20299999999999999 0.030500000000000003 13.100000000000007 15.149999999999995 0.39036257410962039 10.550000000000002 14.550000000000002 19.050000000000004 0.98372640911059162 13.450000000000001 35.650000000000006 0.020426410361618304 0.97112537654464559 6.7999999999999998 -1.1821428571428572 -0.99628250747696534
decision_type=2 2 2 2 2 2 2 2 2 2 2 2 2 2 2 2 2 2 2 2 2
left_child=4 3 5 11 6 -3 9 18 10 -1 -9 14 13 -13 -2 -16 -14 -6 -8 -4 -21
right_child=1 2 19 -5 17 -7 7 8 -10 -11 -12 12 16 -15 15 -17 -18 -19 -20 20 -22
leaf_value=0.0059170238084687576 -0.0024395961329865645 -0.037254366412420074 -0.020878724180592903 -0.0239186124347417 0.011303242757529669 -0.016253929205020393 0.022621943587566449 0.011250561486331528 0.010424278141487017 -0.0059460451814525141 -0.0081912779951813664 0.005438771481771452 0.0060333960886174588 0.029461481032641061 -0.031628589386203061 -0.0044919650811251722 -0.01230374183856643 0.033923036034455248 0.010270134101562843 -0.02163339221372463 -0.0047053871125141674
leaf_weight=50 85 6.0000000000000027 7.9999999999999991 4.9999999999999991 8.9999999999999982 24 10.999999999999998 8.0000000000000018 28 25 23 27 7.0000000000000027 5.9999999999999991 4.9999999999999991 8.9999999999999982 15.999999999999998 4.9999999999999991 76 6.9999999999999991 57
leaf_count=50 85 6 8 5 9 24 11 8 28 25 23 27 7 6 5 9 16 5 76 7 57
internal_value=0.000168295 -0.00594918 -0.0117797 -0.00223031 0.00698995 -0.0204643 0.00620215 0.00837996 0.00327941 0.00195855 -0.00316406 -0.00152869 0.00302319 0.00981591 -0.00410661 -0.0142057 -0.00670943 0.0194038 0.0118354 -0.00815679 -0.00656172
internal_weight=497 262 102 160 235 30 221 146 59 75 31 155 56 33 99 14 23 14 87 72 64
internal_count=497 262 102 160 235 30 221 146 59 75 31 155 56 33 99 14 23 14 87 72 64
is_linear=0
shrinkage=0.00582562


Tree=10
num_leaves=22
num_cat=0
split_feature=2 1 9 10 6 8 8 2 2 3 6 6 6 3 2 4 3 9 4 8 2
split_gain=604.047 165.323 93.206 70.6772 66.7014 61.2802 59.3896 74.8037 79.1704 68.3454 65.3962 52.9813 107.849 82.3283 48.5327 47.808 47.5451 42.5089 63.3656 67.493 42.4818
threshold=16.550000000000001 55.550000000000004 -1.7999999999999987 8.0500000000000025 17.950000000000003 0.20299999999999999 0.030500000000000003 13.100000000000007 15.149999999999995 0.39036257410962039 10.550000000000002 14.550000000000002 19.050000000000004 0.98372640911059162 18.750000000000004 0.020426410361618304 0.97112537654464559 1.9000000000000024 -0.89404254237865755 0.20450000000000002 6.7999999999999998
decision_type=2 2 2 2 2 2 2 2 2 2 2 2 2 2 2 2 2 2 2 2 2
left_child=4 3 5 11 6 -3 9 20 10 -1 -9 14 13 -13 -2 -14 -6 18 19 -4 -8
right_child=1 2 17 -5 16 -7 7 8 -10 -11 -12 12 15 -15 -16 -17 -18 -19 -20 -21 -22
leaf_value=0.0058825534052347516 0.0051971392369349577 -0.037037336785586593 -0.036993063332545026 -0.023779272411500942 0.011237394092146087 -0.016159240130908258 0.022490156939085407 0.01118502009586742 0.010363550174499707 -0.0059114057537141629 -0.0081435584064024173 0.0054070872149107841 0.0059982477354210218 0.029289850871412053 -0.0058753402910655438 -0.012232064715737382 0.033725412776279162 -0.00033844771965173872 -0.0052441202071267035 -0.01273992329303994 0.010210304224405447
leaf_weight=50 15.999999999999998 6.0000000000000027 5.0000000000000027 4.9999999999999991 8.9999999999999982 24 10.999999999999998 8.0000000000000018 28 25 23 27 7.0000000000000027 5.9999999999999991 83 15.999999999999998 4.9999999999999991 18 31 18 76
leaf_count=50 16 6 5 5 9 24 11 8 28 25 23 27 7 6 83 16 5 18 31 18 76
internal_value=0.000167303 -0.00591457 -0.0117111 -0.00221732 0.00694926 -0.0203452 0.00616603 0.00833117 0.0032603 0.00194711 -0.00314557 -0.00151978 0.00300561 0.00975878 -0.00408273 -0.00667027 0.0192909 -0.00810932 -0.0106939 -0.0180258 0.0117665
internal_weight=497 262 102 160 235 30 221 146 59 75 31 155 56 33 99 23 14 72 54 23 87
internal_count=497 262 102 160 235 30 221 146 59 75 31 155 56 33 99 23 14 72 54 23 87
is_linear=0
shrinkage=0.00582562


Tree=11
num_leaves=22
num_cat=0
split_feature=2 1 9 10 6 8 8 2 2 3 6 6 6 3 6 1 4 3 9 4 8
split_gain=597.035 163.405 92.1217 69.8561 65.9269 60.5661 58.6999 73.9341 78.2504 67.5516 64.6368 52.3662 106.596 81.3708 48.2904 68.678 47.2533 46.9907 42.0148 62.6291 66.707
threshold=16.550000000000001 55.550000000000004 -1.7999999999999987 8.0500000000000025 17.950000000000003 0.20299999999999999 0.030500000000000003 13.100000000000007 15.149999999999995 0.39036257410962039 10.550000000000002 14.550000000000002 19.050000000000004 0.98372640911059162 13.450000000000001 35.650000000000006 0.020426410361618304 0.97112537654464559 1.9000000000000024 -0.89404254237865755 0.20450000000000002
decision_type=2 2 2 2 2 2 2 2 2 2 2 2 2 2 2 2 2 2 2 2 2
left_child=4 3 5 11 6 -3 9 -8 10 -1 -9 14 13 -13 -2 -16 -14 -6 19 20 -4
right_child=1 2 18 -5 17 -7 7 8 -10 -11 -12 12 16 -15 15 -17 -18 -19 -20 -21 -22
leaf_value=0.0058482838682830428 -0.0024032984352344708 -0.036821570627786036 -0.036777555854180105 -0.023640743804783246 0.011171929159029655 -0.016065102450156524 0.011697956990698097 0.011119860315674529 0.010303176039114017 -0.0058769681002680246 -0.0080961173296042483 0.0053755874478422453 0.0059633041867781069 0.029119218660897766 -0.031410106112047878 -0.0044315689557230019 -0.012160805413233092 0.033528939800333467 -0.00033647614831798126 -0.0052135698492578788 -0.012665705217164102
leaf_weight=50 85 6.0000000000000027 5.0000000000000027 4.9999999999999991 8.9999999999999982 24 87 8.0000000000000018 28 25 23 27 7.0000000000000027 5.9999999999999991 4.9999999999999991 8.9999999999999982 15.999999999999998 4.9999999999999991 18 31 18
leaf_count=50 85 6 5 5 9 24 87 8 28 25 23 27 7 6 5 9 16 5 18 31 18
internal_value=0.000166325 -0.00588014 -0.011643 -0.00220438 0.0069088 -0.0202267 0.00613013 0.00828266 0.00324131 0.00193574 -0.00312718 -0.00151089 0.00298814 0.00970198 -0.00405892 -0.0140888 -0.00663133 0.0191787 -0.00806216 -0.0106317 -0.0179209
internal_weight=497 262 102 160 235 30 221 146 59 75 31 155 56 33 99 14 23 14 72 54 23
internal_count=497 262 102 160 235 30 221 146 59 75 31 155 56 33 99 14 23 14 72 54 23
is_linear=0
shrinkage=0.00582562


Tree=12
num_leaves=22
num_cat=0
split_feature=2 1 9 10 6 8 8 2 2 3 6 6 6 3 2 4 3 2 12 4 9
split_gain=590.105 161.509 91.05 69.0444 65.1615 59.8604 58.018 73.0743 77.341 66.767 63.8863 51.759 105.357 80.4245 47.8692 46.705 46.4427 41.9883 41.691 51.3227 47.3862
threshold=16.550000000000001 55.550000000000004 -1.7999999999999987 8.0500000000000025 17.950000000000003 0.20299999999999999 0.030500000000000003 13.100000000000007 15.149999999999995 0.39036257410962039 10.550000000000002 14.550000000000002 19.050000000000004 0.98372640911059162 18.750000000000004 0.020426410361618304 0.97112537654464559 6.7999999999999998 -1.1821428571428572 -0.99628250747696534 0.65000000000000224
decision_type=2 2 2 2 2 2 2 2 2 2 2 2 2 2 2 2 2 2 2 2 2
left_child=4 3 5 11 6 -3 9 17 10 -1 -9 14 13 -13 -2 -14 -6 -8 -4 -20 -21
right_child=1 2 18 -5 16 -7 7 8 -10 -11 -12 12 15 -15 -16 -17 -18 -19 19 20 -22
leaf_value=0.0058142141632898667 0.0051808632661894385 -0.036607061920294552 -0.020571305682443659 -0.023503020781056618 0.011106845874775747 -0.015971513167870648 0.022290989699505142 0.011055080322773849 0.010243153850344548 -0.0058427311620499441 -0.0080489523492449627 0.0053442713702523429 0.005928564524998633 0.028949580639395785 -0.0058156510936103033 -0.012089961066371941 0.033333612418958505 0.010082674892015512 -0.021339692163060621 -0.0094714250673307871 0.0011835638898439979
leaf_weight=50 15.999999999999998 6.0000000000000027 7.9999999999999991 4.9999999999999991 8.9999999999999982 24 10.999999999999998 8.0000000000000018 28 25 23 27 7.0000000000000027 5.9999999999999991 83 15.999999999999998 4.9999999999999991 76 6.9999999999999991 31 26
leaf_count=50 16 6 8 5 9 24 11 8 28 25 23 27 7 6 83 16 5 76 7 31 26
internal_value=0.000165338 -0.00584593 -0.0115753 -0.00219155 0.00686858 -0.0201089 0.00609443 0.00823442 0.00322242 0.00192444 -0.00310891 -0.00150209 0.00297076 0.00964552 -0.00403531 -0.00659262 0.0190671 0.0116298 -0.00801526 -0.00644093 -0.00460583
internal_weight=497 262 102 160 235 30 221 146 59 75 31 155 56 33 99 23 14 87 72 64 57
internal_count=497 262 102 160 235 30 221 146 59 75 31 155 56 33 99 23 14 87 72 64 57
is_linear=0
shrinkage=0.00582562


Tree=13
num_leaves=22
num_cat=0
split_feature=2 1 9 10 6 8 8 2 2 3 6 6 6 3 6 1 4 3 2 12 4
split_gain=583.254 159.635 89.9916 68.2422 64.4049 59.1628 57.3442 72.2249 76.4422 65.9916 63.1444 51.1581 104.133 79.4892 47.6313 67.8793 46.1631 45.9012 41.4993 41.2058 50.7259
threshold=16.550000000000001 55.550000000000004 -1.7999999999999987 8.0500000000000025 17.950000000000003 0.20299999999999999 0.030500000000000003 13.100000000000007 15.149999999999995 0.39036257410962039 10.550000000000002 14.550000000000002 19.050000000000004 0.98372640911059162 13.450000000000001 35.650000000000006 0.020426410361618304 0.97112537654464559 6.7999999999999998 -1.1821428571428572 -0.99628250747696534
decision_type=2 2 2 2 2 2 2 2 2 2 2 2 2 2 2 2 2 2 2 2 2
left_child=4 3 5 11 6 -3 9 18 10 -1 -9 14 13 -13 -2 -16 -14 -6 -8 -4 -21
right_child=1 2 19 -5 17 -7 7 8 -10 -11 -12 12 16 -15 15 -17 -18 -19 -20 20 -22
leaf_value=0.0057803426118120888 -0.0023674765612713053 -0.036393803718430741 -0.020451465647067214 -0.023366102020831669 0.011042141432575351 -0.015878469086602846 0.022161131021111381 0.010990677339292617 0.010183480979132714 -0.0058086935327616111 -0.0080020620084508536 0.0053131375845638044 0.0058940267488361616 0.028780931193288669 -0.031193243170853674 -0.0043718724829281226 -0.01201952955105761 0.033139425736154214 0.010023937004455466 -0.021215374541899208 -0.0045789675213638199
leaf_weight=50 85 6.0000000000000027 7.9999999999999991 4.9999999999999991 8.9999999999999982 24 10.999999999999998 8.0000000000000018 28 25 23 27 7.0000000000000027 5.9999999999999991 4.9999999999999991 8.9999999999999982 15.999999999999998 4.9999999999999991 76 6.9999999999999991 57
leaf_count=50 85 6 8 5 9 24 11 8 28 25 23 27 7 6 5 9 16 5 76 7 57
internal_value=0.000164379 -0.00581189 -0.0115079 -0.00217876 0.0068286 -0.0199918 0.00605894 0.00818648 0.00320365 0.00191321 -0.00309074 -0.00149331 0.00295349 0.00958938 -0.00401179 -0.013973 -0.00655414 0.0189561 0.0115621 -0.0079686 -0.00640341
internal_weight=497 262 102 160 235 30 221 146 59 75 31 155 56 33 99 14 23 14 87 72 64
internal_count=497 262 102 160 235 30 221 146 59 75 31 155 56 33 99 14 23 14 87 72 64
is_linear=0
shrinkage=0.00582562


Tree=14
num_leaves=22
num_cat=0
split_feature=2 11 5 11 2 6 13 8 3 6 1 0 4 4 11 12 8 13 13 10 9
split_gain=524.382 149.532 118.55 115.208 99.1906 97.0442 87.9775 71.8992 82.2778 60.043 53.3048 52.6815 51.7074 48.5064 47.9074 43.175 44.3911 39.8918 51.5696 39.6794 37.9842
threshold=19.350000000000001 1.1500000000000001 0.26600000000000007 3.4214285714285713 13.400000000000006 15.350000000000003 4.530977799163197 0.030500000000000003 0.49812943072827087 14.65 65.100000000000009 93.350000000000009 0.55478649335567887 0.29137697329261131 2.3714285714285723 0.17142857142857182 0.15450000000000003 4.0887184677499677 3.2608058148866319 4.400000000000003 3.2500000000000004
decision_type=2 2 2 2 2 2 2 2 2 2 2 2 2 2 2 2 2 2 2 2 2
left_child=3 2 5 4 7 11 17 8 -1 -5 14 12 -2 -7 -9 16 -6 18 -3 -17 -11
right_child=1 6 -4 9 15 13 -8 10 -10 20 -12 -13 -14 -15 -16 19 -18 -19 -20 -21 -22
leaf_value=0.0063597814183270511 -0.01016029949802698 0.00019862537137040745 -0.037205148066523169 0.0085084346953832879 -0.019132579971127061 -0.0074911666811662793 -0.025611114257645781 0.014686896144290992 -0.0087758719769847893 0.017075023879584466 0.00073663077412555928 -0.027241463279390126 -0.027987150476115805 0.012785510636643092 0.0018875432139818507 0.0028270512014818305 -0.0021703912772787111 0.015497332834172005 -0.014600001763084586 -0.010688200503176858 0.038956531729599723
leaf_weight=43 73 71 5.9999999999999991 13.000000000000002 7.0000000000000027 7.9999999999999991 4.9999999999999991 59 17 5.9999999999999982 15.999999999999998 7.9999999999999991 5.9999999999999991 7.9999999999999991 11.999999999999998 93 21 4.9999999999999991 8.9999999999999982 7.9999999999999991 5
leaf_count=43 73 71 6 13 7 8 5 59 17 6 16 8 6 8 12 93 21 5 9 8 5
internal_value=-9.01794e-05 -0.00742325 -0.0120125 0.00477306 0.00370706 -0.0105419 -0.00186175 0.00697866 0.00206619 0.0170192 0.010363 -0.0129675 -0.0115182 0.00262785 0.012528 -1.8646e-05 -0.00642198 -0.00046109 -0.00146236 0.00175348 0.0270493
internal_weight=499 199 109 300 276 103 90 147 60 24 87 87 79 16 71 129 28 85 80 101 11
internal_count=499 199 109 300 276 103 90 147 60 24 87 87 79 16 71 129 28 85 80 101 11
is_linear=0
shrinkage=0.00582562


Tree=15
num_leaves=22
num_cat=0
split_feature=2 11 5 11 2 6 13 8 3 6 1 0 4 4 11 12 8 13 13 10 9
split_gain=518.294 147.796 117.171 113.872 98.0397 95.917 86.9555 71.0644 81.3222 59.3448 52.6847 52.068 51.1055 47.9432 47.3495 42.6739 43.8748 39.4283 50.9707 39.2186 37.54
threshold=19.350000000000001 1.1500000000000001 0.26600000000000007 3.4214285714285713 13.400000000000006 15.350000000000003 4.530977799163197 0.030500000000000003 0.49812943072827087 14.65 65.100000000000009 93.350000000000009 0.55478649335567887 0.29137697329261131 2.3714285714285723 0.17142857142857182 0.15450000000000003 4.0887184677499677 3.2608058148866319 4.400000000000003 3.2500000000000004
decision_type=2 2 2 2 2 2 2 2 2 2 2 2 2 2 2 2 2 2 2 2 2
left_child=3 2 5 4 7 11 17 8 -1 -5 14 12 -2 -7 -9 16 -6 18 -3 -17 -11
right_child=1 6 -4 9 15 13 -8 10 -10 20 -12 -13 -14 -15 -16 19 -18 -19 -20 -21 -22
leaf_value=0.0063227317776587671 -0.010101109477972138 0.00019746833944398763 -0.036988404676307346 0.0084588677183051516 -0.019021120738139212 -0.0074475261698012758 -0.025461915176849745 0.014601336037945185 -0.0087247471680424408 0.016975550618136746 0.0007323392721774114 -0.027082765318062054 -0.027824108661289194 0.012711026959064666 0.0018765469567746634 0.0028105818132224073 -0.0021577475188934649 0.015407051556363564 -0.01451494814845365 -0.010625935743852911 0.038729586222804271
leaf_weight=43 73 71 5.9999999999999991 13.000000000000002 7.0000000000000027 7.9999999999999991 4.9999999999999991 59 17 5.9999999999999982 15.999999999999998 7.9999999999999991 5.9999999999999991 7.9999999999999991 11.999999999999998 93 21 4.9999999999999991 8.9999999999999982 7.9999999999999991 5
leaf_count=43 73 71 6 13 7 8 5 59 17 6 16 8 6 8 12 93 21 5 9 8 5
internal_value=-8.96505e-05 -0.00738003 -0.0119425 0.00474527 0.00368546 -0.0104806 -0.00185088 0.00693803 0.00205413 0.0169202 0.0103027 -0.012892 -0.0114511 0.00261243 0.012455 -1.85514e-05 -0.00638463 -0.000458361 -0.00145381 0.00174324 0.0268919
internal_weight=499 199 109 300 276 103 90 147 60 24 87 87 79 16 71 129 28 85 80 101 11
internal_count=499 199 109 300 276 103 90 147 60 24 87 87 79 16 71 129 28 85 80 101 11
is_linear=0
shrinkage=0.00582562


Tree=16
num_leaves=22
num_cat=0
split_feature=2 11 5 11 2 6 13 8 3 6 1 0 4 4 11 12 8 13 13 10 9
split_gain=512.276 146.08 115.808 112.551 96.9022 94.803 85.9454 70.2393 80.3777 58.6546 52.0717 51.4616 50.5106 47.3865 46.7981 42.1787 43.3644 38.9702 50.3787 38.7632 37.1011
threshold=19.350000000000001 1.1500000000000001 0.26600000000000007 3.4214285714285713 13.400000000000006 15.350000000000003 4.530977799163197 0.030500000000000003 0.49812943072827087 14.65 65.100000000000009 93.350000000000009 0.55478649335567887 0.29137697329261131 2.3714285714285723 0.17142857142857182 0.15450000000000003 4.0887184677499677 3.2608058148866319 4.400000000000003 3.2500000000000004
decision_type=2 2 2 2 2 2 2 2 2 2 2 2 2 2 2 2 2 2 2 2 2
left_child=3 2 5 4 7 11 17 8 -1 -5 14 12 -2 -7 -9 16 -6 18 -3 -17 -11
right_child=1 6 -4 9 15 13 -8 10 -10 20 -12 -13 -14 -15 -16 19 -18 -19 -20 -21 -22
leaf_value=0.0062858978885136493 -0.010042264267390688 0.00019631796426552422 -0.03677292463937977 0.0084095896400201969 -0.018910311124317684 -0.0074041399640071403 -0.025313582625130813 0.014516274006455426 -0.0086739200562031757 0.016876657863329227 0.00072807302608709676 -0.026924990825811589 -0.02766201545015225 0.012636976960595223 0.0018656151512844118 0.0027942084473451425 -0.0021451771467912942 0.015317296316435523 -0.014430389332776378 -0.010564032368414101 0.038503962427688644
leaf_weight=43 73 71 5.9999999999999991 13.000000000000002 7.0000000000000027 7.9999999999999991 4.9999999999999991 59 17 5.9999999999999982 15.999999999999998 7.9999999999999991 5.9999999999999991 7.9999999999999991 11.999999999999998 93 21 4.9999999999999991 8.9999999999999982 7.9999999999999991 5
leaf_count=43 73 71 6 13 7 8 5 59 17 6 16 8 6 8 12 93 21 5 9 8 5
internal_value=-8.91246e-05 -0.00733707 -0.011873 0.00471765 0.00366399 -0.0104195 -0.00184008 0.00689763 0.00204213 0.0168218 0.0102427 -0.012817 -0.0113844 0.0025971 0.0123825 -1.84572e-05 -0.0063475 -0.000455649 -0.00144532 0.00173307 0.0267354
internal_weight=499 199 109 300 276 103 90 147 60 24 87 87 79 16 71 129 28 85 80 101 11
internal_count=499 199 109 300 276 103 90 147 60 24 87 87 79 16 71 129 28 85 80 101 11
is_linear=0
shrinkage=0.00582562


Tree=17
num_leaves=22
num_cat=0
split_feature=2 11 5 11 2 6 13 8 3 6 1 0 4 4 11 12 0 10 6 9 12
split_gain=506.329 144.384 114.461 111.245 95.778 93.7019 84.9471 69.4239 79.4441 57.9725 51.4659 50.8622 49.9226 46.8363 46.2531 41.818 53.2597 38.7403 44.1946 36.6673 36.5978
threshold=19.350000000000001 1.1500000000000001 0.26600000000000007 3.4214285714285713 13.400000000000006 15.350000000000003 4.530977799163197 0.030500000000000003 0.49812943072827087 14.65 65.100000000000009 93.350000000000009 0.55478649335567887 0.29137697329261131 2.3714285714285723 0.8678571428571441 50.45000000000001 3.4000000000000026 18.350000000000005 3.2500000000000004 1.5214285714285722
decision_type=2 2 2 2 2 2 2 2 2 2 2 2 2 2 2 2 2 2 2 2 2
left_child=3 2 5 4 7 11 17 8 -1 -5 14 12 -2 -7 -9 -6 -17 20 -19 -11 -3
right_child=1 6 -4 9 15 13 -8 10 -10 19 -12 -13 -14 -15 -16 16 -18 18 -20 -21 -22
leaf_value=0.0062492785206834656 -0.0099837616913124559 0.0022355977361421496 -0.036558699853612153 0.0083605983637685052 -0.0039926395547313209 -0.0073610061539963433 -0.025166116326871959 0.014431707894505416 -0.0086233889206154546 0.016778340424735982 0.00072383175643964701 -0.02676813606987221 -0.027500867149725969 0.012563359366234558 0.0018547466111278436 -0.0025226292863659247 0.0072569025570861923 0.0011830939024587161 0.019596175785214314 0.038279653121784642 -0.0067851201174298726
leaf_weight=43 73 27 5.9999999999999991 13.000000000000002 53 7.9999999999999991 4.9999999999999991 59 17 5.9999999999999982 15.999999999999998 7.9999999999999991 5.9999999999999991 7.9999999999999991 11.999999999999998 35 41 17.000000000000004 5.9999999999999991 5 35
leaf_count=43 73 27 6 13 53 8 5 59 17 6 16 8 6 8 12 35 41 17 6 5 35
internal_value=-8.86018e-05 -0.00729435 -0.0118039 0.00469018 0.00364265 -0.0103589 -0.00182934 0.00685747 0.0020302 0.0167239 0.0101831 -0.0127423 -0.0113181 0.00258185 0.0123104 -1.83637e-05 0.0027491 -0.000452952 0.00599995 0.0265798 -0.00285176
internal_weight=499 199 109 300 276 103 90 147 60 24 87 87 79 16 71 129 76 85 23 11 62
internal_count=499 199 109 300 276 103 90 147 60 24 87 87 79 16 71 129 76 85 23 11 62
is_linear=0
shrinkage=0.00582562


Tree=18
num_leaves=22
num_cat=0
split_feature=2 11 5 11 2 6 13 8 3 6 1 0 4 4 11 12 8 10 13 13 9
split_gain=500.45 142.709 113.13 109.955 94.6663 92.6135 83.9604 68.6178 78.5214 57.2983 50.8672 50.2698 49.3414 46.2924 45.7145 41.3828 42.8604 38.3531 38.2995 49.6556 36.2385
threshold=19.350000000000001 1.1500000000000001 0.26600000000000007 3.4214285714285713 13.400000000000006 15.350000000000003 4.530977799163197 0.030500000000000003 0.49812943072827087 14.65 65.100000000000009 93.350000000000009 0.55478649335567887 0.29137697329261131 2.3714285714285723 0.17142857142857182 0.15450000000000003 4.400000000000003 4.0887184677499677 3.2608058148866319 3.2500000000000004
decision_type=2 2 2 2 2 2 2 2 2 2 2 2 2 2 2 2 2 2 2 2 2
left_child=3 2 5 4 7 11 18 8 -1 -5 14 12 -2 -7 -9 16 -6 -17 19 -3 -11
right_child=1 6 -4 9 15 13 -8 10 -10 20 -12 -13 -14 -15 -16 17 -18 -19 -20 -21 -22
leaf_value=0.0062128727591456347 -0.0099256001455631567 0.00019838614903747238 -0.036345722101131531 0.0083118925940996839 -0.01877688753111818 -0.007318123567853811 -0.025019506594243245 0.01434763400919177 -0.008573152423406569 0.016680596132144076 0.00071961499121365872 -0.026612195060455764 -0.027340657517031151 0.01249016961853517 0.0018439416980071701 0.0027721700843523264 -0.0021094205784177511 -0.010515210429872513 0.01518632137842928 -0.014322950104499946 0.038056649415900638
leaf_weight=43 73 71 5.9999999999999991 13.000000000000002 7.0000000000000027 7.9999999999999991 4.9999999999999991 59 17 5.9999999999999982 15.999999999999998 7.9999999999999991 5.9999999999999991 7.9999999999999991 11.999999999999998 93 21 7.9999999999999991 4.9999999999999991 8.9999999999999982 5
leaf_count=43 73 71 6 13 7 8 5 59 17 6 16 8 6 8 12 93 21 8 5 9 5
internal_value=-8.80748e-05 -0.00725187 -0.0117352 0.00466288 0.00362143 -0.0102986 -0.00181864 0.00681755 0.00201835 0.0166267 0.0101238 -0.0126681 -0.0112522 0.0025667 0.0122387 -1.82567e-05 -0.00628733 0.00171664 -0.00045025 -0.0014314 0.0264251
internal_weight=499 199 109 300 276 103 90 147 60 24 87 87 79 16 71 129 28 101 85 80 11
internal_count=499 199 109 300 276 103 90 147 60 24 87 87 79 16 71 129 28 101 85 80 11
is_linear=0
shrinkage=0.00582562


Tree=19
num_leaves=22
num_cat=0
split_feature=2 11 5 11 2 6 13 8 3 6 1 0 4 4 11 12 0 10 6 12 0
split_gain=494.64 141.052 111.814 108.68 93.568 91.5378 82.9851 67.8212 77.6094 56.6319 50.2754 49.6844 48.767 45.7549 45.1821 41.0588 52.651 38.197 43.5185 36.1129 42.6396
threshold=19.350000000000001 1.1500000000000001 0.26600000000000007 3.4214285714285713 13.400000000000006 15.350000000000003 4.530977799163197 0.030500000000000003 0.49812943072827087 14.65 65.100000000000009 93.350000000000009 0.55478649335567887 0.29137697329261131 2.3714285714285723 0.8678571428571441 50.45000000000001 3.4000000000000026 18.350000000000005 2.1678571428571423 38.45000000000001
decision_type=2 2 2 2 2 2 2 2 2 2 2 2 2 2 2 2 2 2 2 2 2
left_child=3 2 5 4 7 11 17 8 -1 -5 14 12 -2 -7 19 -6 -17 -3 -19 20 -9
right_child=1 6 -4 9 15 13 -8 10 -10 -11 -12 -13 -14 -15 -16 16 -18 18 -20 -21 -22
leaf_value=0.0061766787690603463 -0.0098677773326893321 -0.0028295354339648022 -0.036133986173426849 0.0082634708886565912 -0.0039562208228601748 -0.0072754911204729955 -0.024873753236265946 0.0015241828953670967 -0.0085232083790440071 0.026271315479859208 0.00071542259205803135 -0.026457162675859337 -0.027181381249514192 0.012417406616113909 0.0018331996017094394 -0.0025174481509398199 0.0072060288653253484 0.0011798623015706953 0.019451755905643606 0.025040038275433191 0.015008960457775255
leaf_weight=43 73 62 5.9999999999999991 13.000000000000002 53 7.9999999999999991 4.9999999999999991 9.9999999999999982 17 10.999999999999998 15.999999999999998 7.9999999999999991 5.9999999999999991 7.9999999999999991 11.999999999999998 35 41 17.000000000000004 5.9999999999999991 8.9999999999999982 40
leaf_count=43 73 62 6 13 53 8 5 10 17 11 16 8 6 8 12 35 41 17 6 9 40
internal_value=-8.75581e-05 -0.00720965 -0.0116669 0.00463574 0.00360034 -0.0102386 -0.00180803 0.00677786 0.00200656 0.0165299 0.0100649 -0.0125944 -0.0111866 0.00255164 0.0121674 -1.81644e-05 0.00272404 -0.000447584 0.00595989 0.0142641 0.0123182
internal_weight=499 199 109 300 276 103 90 147 60 24 87 87 79 16 71 129 76 85 23 59 50
internal_count=499 199 109 300 276 103 90 147 60 24 87 87 79 16 71 129 76 85 23 59 50
is_linear=0
shrinkage=0.00582562


Tree=20
num_leaves=22
num_cat=0
split_feature=2 11 5 11 2 6 13 8 3 6 1 0 4 4 11 12 8 10 10 6 12
split_gain=488.898 139.415 110.514 107.417 92.4827 90.4746 82.0212 67.0344 76.708 55.9722 49.691 49.1057 48.1993 45.2236 44.6564 40.6018 42.3622 37.9472 37.754 43.0123 36.0751
threshold=19.350000000000001 1.1500000000000001 0.26600000000000007 3.4214285714285713 13.400000000000006 15.350000000000003 4.530977799163197 0.030500000000000003 0.49812943072827087 14.65 65.100000000000009 93.350000000000009 0.55478649335567887 0.29137697329261131 2.3714285714285723 0.17142857142857182 0.15450000000000003 4.400000000000003 3.4000000000000026 18.350000000000005 1.5214285714285722
decision_type=2 2 2 2 2 2 2 2 2 2 2 2 2 2 2 2 2 2 2 2 2
left_child=3 2 5 4 7 11 18 8 -1 -5 14 12 -2 -7 -9 16 -6 -17 20 -20 -3
right_child=1 6 -4 9 15 13 -8 10 -10 -11 -12 -13 -14 -15 -16 17 -18 -19 19 -21 -22
leaf_value=0.0061406957980448609 -0.0098102913976043371 0.0022378014962685954 -0.035923483621135781 0.008215330883576134 -0.018644452339739753 -0.0072331067284493221 -0.024728848223152709 0.014181014102499853 -0.0084735553756124828 0.02611826864914954 0.00071125489806860031 -0.02630303327352887 -0.02702303279142999 0.012345067792693787 0.0018225199532983958 0.0027503129029215305 -0.0020740844816577713 -0.010466561934761745 0.0011729887558521073 0.019338437608029214 -0.0067182569499283067
leaf_weight=43 73 27 5.9999999999999991 13.000000000000002 7.0000000000000027 7.9999999999999991 4.9999999999999991 59 17 10.999999999999998 15.999999999999998 7.9999999999999991 5.9999999999999991 7.9999999999999991 11.999999999999998 93 21 7.9999999999999991 17.000000000000004 5.9999999999999991 35
leaf_count=43 73 27 6 13 7 8 5 59 17 11 16 8 6 8 12 93 21 8 17 6 35
internal_value=-8.70372e-05 -0.00716768 -0.011599 0.00460876 0.00357938 -0.010179 -0.00179748 0.00673842 0.00199484 0.0164337 0.0100063 -0.0125211 -0.0111215 0.00253666 0.0120966 -1.80585e-05 -0.00622772 0.00170037 -0.000444934 0.00592524 -0.00281305
internal_weight=499 199 109 300 276 103 90 147 60 24 87 87 79 16 71 129 28 101 85 23 62
internal_count=499 199 109 300 276 103 90 147 60 24 87 87 79 16 71 129 28 101 85 23 62
is_linear=0
shrinkage=0.00582562


Tree=21
num_leaves=22
num_cat=0
split_feature=2 2 1 10 7 1 6 12 1 8 11 9 3 13 0 3 1 4 3 13 13
split_gain=628.813 121.687 94.7572 83.0439 82.0982 83.3334 90.8313 75.4338 55.9077 48.642 61.8482 73.0796 53.1671 43.3305 42.9687 52.1732 45.1354 83.2199 38.0899 35.6706 34.6234
threshold=18.950000000000003 11.900000000000004 18.050000000000004 7.1999999999999966 1644.0000000000002 58.050000000000004 10.350000000000003 0.92857142857142849 15.750000000000002 0.030500000000000003 1.2285714285714284 3.6500000000000026 0.42179998225932674 3.9490778644656248 88.550000000000011 0.022575936829235404 32.150000000000013 -0.17646730165275518 0.78325454425165997 4.0040455515791153 4.3296585000798808
decision_type=2 2 2 2 2 2 2 2 2 2 2 2 2 2 2 2 2 2 2 2 2
left_child=1 9 -2 7 -3 8 -7 14 -6 12 18 -12 -1 -13 16 -16 -4 -18 -11 -9 -21
right_child=2 4 3 -5 5 6 -8 19 -10 10 11 13 -14 -15 15 -17 17 -19 -20 20 -22
leaf_value=0.0096198799429951729 0.0062244213400684222 -0.011311826122794355 -0.020345350384090244 -0.032419274369889062 -0.0024765865855968855 0.004789184251595008 -0.013465312083678882 -0.002834977709586533 0.0081035783161874601 0.013635750560332194 0.0034172502725407271 0.029815405449439662 -0.0033084745979927075 0.007265044574539789 -0.020271719399317219 -0.0024995267063487613 -0.010152700022047989 0.008340658465038819 0.026781954968306158 -0.025420640186089846 -0.0036578772123924117
leaf_weight=33 14.999999999999998 13.999999999999998 9.9999999999999982 4.9999999999999991 21 19 18 74 87 18.000000000000004 30 6.9999999999999982 15.999999999999998 5 29 6.9999999999999991 46.999999999999993 10.000000000000005 12.999999999999998 4.9999999999999982 5
leaf_count=33 15 14 10 5 21 19 18 74 87 18 30 7 16 5 29 7 47 10 13 5 5
internal_value=-0.000159599 0.00551553 -0.00786501 -0.00896736 0.00215496 0.00345733 -0.00408303 -0.00833865 0.00604346 0.00989276 0.0129095 0.00828974 0.00539207 0.0204452 -0.0116817 -0.0168246 -0.00891379 -0.00690283 0.0191586 -0.00423571 -0.0145702
internal_weight=488 281 207 192 159 145 37 187 108 122 73 42 49 12 103 36 67 57 31 84 10
internal_count=488 281 207 192 159 145 37 187 108 122 73 42 49 12 103 36 67 57 31 84 10
is_linear=0
shrinkage=0.00582562


Tree=22
num_leaves=22
num_cat=0
split_feature=2 2 1 10 7 1 6 12 1 11 9 8 0 3 1 4 4 6 6 13 9
split_gain=621.514 120.275 93.6579 82.0779 81.1445 82.3646 89.7765 74.5564 55.2588 48.2625 64.2965 52.8727 42.4688 51.5653 44.6103 82.2538 41.3172 35.5591 42.0868 50.5494 34.7551
threshold=18.950000000000003 11.900000000000004 18.050000000000004 7.1999999999999966 1644.0000000000002 58.050000000000004 10.350000000000003 0.92857142857142849 15.750000000000002 0.67142857142857204 -0.84999999999999776 0.047500000000000007 88.550000000000011 0.022575936829235404 32.150000000000013 -0.17646730165275518 -0.31800055644052067 19.550000000000004 16.550000000000004 3.1698730634041579 3.6500000000000026
decision_type=2 2 2 2 2 2 2 2 2 2 2 2 2 2 2 2 2 2 2 2 2
left_child=1 9 -2 7 -3 8 -7 12 -6 11 -11 -1 14 -14 -4 -16 -13 18 19 -9 -12
right_child=2 4 3 -5 5 6 -8 17 -10 10 20 16 13 -15 15 -17 -18 -19 -20 -21 -22
leaf_value=0.0079854469872382601 0.0061881602886694111 -0.011245927806395033 -0.020226826499384263 -0.032230412382315263 -0.002462158965529696 0.0047612841847529709 -0.013386868220162546 -0.0023934416428029407 0.0080563698533856372 -0.0062647846061317089 0.0069372097569508967 0.010655047323457144 -0.020153624022007745 -0.0024849654884262023 -0.010093554356516661 0.0082920693013215502 0.029755951046927184 -0.015160958044315307 0.0070958275563042126 -0.016151208818510697 0.015441945157215533
leaf_weight=14.999999999999998 14.999999999999998 13.999999999999998 9.9999999999999982 4.9999999999999991 21 19 18 52 87 9.9999999999999982 57 5.9999999999999991 29 6.9999999999999991 46.999999999999993 10.000000000000005 11.000000000000002 8.9999999999999982 11.999999999999998 10.999999999999998 23
leaf_count=15 15 14 10 5 21 19 18 52 87 10 57 6 29 7 47 10 11 9 12 11 23
internal_value=-0.000158673 0.00548342 -0.00781924 -0.00891517 0.00214238 0.00343718 -0.00405919 -0.00829012 0.00600824 0.00983519 0.00764375 0.0159889 -0.0116137 -0.0167266 -0.00886186 -0.00686258 0.0230326 -0.00421107 -0.00289296 -0.0048005 0.00938619
internal_weight=488 281 207 192 159 145 37 187 108 122 90 32 103 36 67 57 17 84 75 63 80
internal_count=488 281 207 192 159 145 37 187 108 122 90 32 103 36 67 57 17 84 75 63 80
is_linear=0
shrinkage=0.00582562


Tree=23
num_leaves=22
num_cat=0
split_feature=2 2 1 10 7 1 6 12 1 8 11 9 3 13 0 3 12 3 6 6 13
split_gain=614.298 118.879 92.5712 81.1232 80.2019 81.407 88.734 73.6897 54.6175 47.8035 60.5359 71.6777 52.507 42.8266 41.9748 50.9645 44.3516 37.4273 35.1456 41.5984 49.9617
threshold=18.950000000000003 11.900000000000004 18.050000000000004 7.1999999999999966 1644.0000000000002 58.050000000000004 10.350000000000003 0.92857142857142849 15.750000000000002 0.030500000000000003 1.2285714285714284 3.6500000000000026 0.42179998225932674 3.9490778644656248 88.550000000000011 0.022575936829235404 0.79285714285714237 0.78325454425165997 19.550000000000004 16.550000000000004 3.1698730634041579
decision_type=2 2 2 2 2 2 2 2 2 2 2 2 2 2 2 2 2 2 2 2 2
left_child=1 9 -2 7 -3 8 -7 14 -6 12 17 -12 -1 -13 16 -16 -4 -11 19 20 -9
right_child=2 4 3 -5 5 6 -8 18 -10 10 11 13 -14 -15 15 -17 -18 -19 -20 -21 -22
leaf_value=0.0095176650839689705 0.0061521104272402836 -0.011180413258116596 -0.0071837444897402307 -0.032042650154417887 -0.0024478153141195285 0.0047335466828846672 -0.013308881337270985 -0.0023794982869691336 0.0080094365149166579 0.01347623359809315 0.0033723109468948411 0.029551754577589441 -0.0033301938381759409 0.0071327622569390516 -0.020036216491609183 -0.0024704888623071366 -0.022707407543583177 0.026507993225672245 -0.015072636368391177 0.0070544897391474773 -0.016057117653290865
leaf_weight=33 14.999999999999998 13.999999999999998 60 4.9999999999999991 21 19 18 52 87 18.000000000000004 30 6.9999999999999982 15.999999999999998 5 29 6.9999999999999991 6.9999999999999991 12.999999999999998 8.9999999999999982 11.999999999999998 10.999999999999998
leaf_count=33 15 14 60 5 21 19 18 52 87 18 30 7 16 5 29 7 7 13 9 12 11
internal_value=-0.000157752 0.00545149 -0.00777372 -0.00886328 0.00212988 0.00341714 -0.0040355 -0.00824186 0.00597322 0.00977794 0.0127686 0.00819795 0.00531614 0.0202363 -0.0115461 -0.0166292 -0.00881023 0.0189511 -0.00418656 -0.00287611 -0.00477256
internal_weight=488 281 207 192 159 145 37 187 108 122 73 42 49 12 103 36 67 31 84 75 63
internal_count=488 281 207 192 159 145 37 187 108 122 73 42 49 12 103 36 67 31 84 75 63
is_linear=0
shrinkage=0.00582562


Tree=24
num_leaves=22
num_cat=0
split_feature=2 2 1 10 7 1 6 12 1 11 9 8 0 3 1 4 4 6 6 13 12
split_gain=607.167 117.5 91.4973 80.1795 79.2702 80.4606 87.7036 72.8333 53.9836 47.364 63.3416 51.7265 41.4862 50.3707 43.954 81.3271 40.6821 34.7369 41.1156 49.3808 34.2263
threshold=18.950000000000003 11.900000000000004 18.050000000000004 7.1999999999999966 1644.0000000000002 58.050000000000004 10.350000000000003 0.92857142857142849 15.750000000000002 0.67142857142857204 -0.84999999999999776 0.047500000000000007 88.550000000000011 0.022575936829235404 32.150000000000013 -0.17646730165275518 -0.31800055644052067 19.550000000000004 16.550000000000004 3.1698730634041579 2.1678571428571423
decision_type=2 2 2 2 2 2 2 2 2 2 2 2 2 2 2 2 2 2 2 2 2
left_child=1 9 -2 7 -3 8 -7 12 -6 11 -11 -1 14 -14 -4 -16 -13 18 19 -9 -12
right_child=2 4 3 -5 5 6 -8 17 -10 10 20 16 13 -15 15 -17 -18 -19 -20 -21 -22
leaf_value=0.0079006709311219264 0.0061162704232700545 -0.011115280444159137 -0.020040012047208428 -0.03185598074151598 -0.0024335553792082542 0.0047059707591141139 -0.013231348892765008 -0.0023656362602423962 0.0079627765367336623 -0.0062547696777120777 0.006472633732415428 0.010501814549168969 -0.01991949313222894 -0.0024560967070796948 -0.0099871308832960807 0.0082946556659216353 0.029455785587328861 -0.014984828656814209 0.0070133930905567883 -0.015963574991709726 0.014481232035673948
leaf_weight=14.999999999999998 14.999999999999998 13.999999999999998 9.9999999999999982 4.9999999999999991 21 19 18 52 87 9.9999999999999982 52 5.9999999999999991 29 6.9999999999999991 46.999999999999993 10.000000000000005 11.000000000000002 8.9999999999999982 11.999999999999998 10.999999999999998 28
leaf_count=15 15 14 10 5 21 19 18 52 87 10 52 6 29 7 47 10 11 9 12 11 28
internal_value=-0.000156837 0.00541975 -0.00772848 -0.00881171 0.00211745 0.00339722 -0.00401194 -0.0081939 0.0059384 0.00972103 0.00755004 0.0158173 -0.0114789 -0.0165324 -0.00875894 -0.00677438 0.0227843 -0.00416219 -0.00285936 -0.00474479 0.00927951
internal_weight=488 281 207 192 159 145 37 187 108 122 90 32 103 36 67 57 17 84 75 63 80
internal_count=488 281 207 192 159 145 37 187 108 122 90 32 103 36 67 57 17 84 75 63 80
is_linear=0
shrinkage=0.00582562


Tree=25
num_leaves=22
num_cat=0
split_feature=2 2 1 10 7 1 6 12 1 8 11 9 3 13 0 3 12 3 6 6 13
split_gain=600.118 116.137 90.4357 79.2468 78.3494 79.5252 86.6851 71.9866 53.3571 46.896 59.3469 70.6616 51.8508 42.272 41.0035 49.7837 43.728 36.762 34.3329 40.67 41.3904
threshold=18.950000000000003 11.900000000000004 18.050000000000004 7.1999999999999966 1644.0000000000002 58.050000000000004 10.350000000000003 0.92857142857142849 15.750000000000002 0.030500000000000003 1.2285714285714284 3.6500000000000026 0.42179998225932674 3.9490778644656248 88.550000000000011 0.022575936829235404 0.79285714285714237 0.78325454425165997 19.550000000000004 18.150000000000002 4.0040455515791153
decision_type=2 2 2 2 2 2 2 2 2 2 2 2 2 2 2 2 2 2 2 2 2
left_child=1 9 -2 7 -3 8 -7 14 -6 12 17 -12 -1 -13 16 -16 -4 -11 19 20 -9
right_child=2 4 3 -5 5 6 -8 18 -10 10 11 13 -14 -15 15 -17 -18 -19 -20 -21 -22
leaf_value=0.0094203470461292054 0.0060806393862478511 -0.011050526896680088 -0.0070928563521907 -0.03167040164352438 -0.0024193782637743307 0.0046785557829372125 -0.013154268076142939 -0.0025891155018303671 0.0079163884800100091 0.013321896539719966 0.0033095698340337818 0.029308564523763857 -0.0033469860646981333 0.0070348401373114431 -0.019803449681268445 -0.0024417884088836217 -0.022507056856250412 0.026237731342786282 -0.014897532768307423 0.011691714116039391 -0.017546786927399822
leaf_weight=33 14.999999999999998 13.999999999999998 60 4.9999999999999991 21 19 18 62 87 18.000000000000004 30 6.9999999999999982 15.999999999999998 5 29 6.9999999999999991 6.9999999999999991 12.999999999999998 8.9999999999999982 5.9999999999999991 6.9999999999999991
leaf_count=33 15 14 60 5 21 19 18 62 87 18 30 7 16 5 29 7 7 13 9 6 7
internal_value=-0.000155927 0.00538819 -0.00768349 -0.00876042 0.00210509 0.00337742 -0.00398852 -0.0081462 0.00590379 0.00966445 0.0126266 0.00810094 0.00524511 0.0200536 -0.011412 -0.0164362 -0.00870791 0.0187482 -0.00413797 -0.0028427 -0.00411104
internal_weight=488 281 207 192 159 145 37 187 108 122 73 42 49 12 103 36 67 31 84 75 69
internal_count=488 281 207 192 159 145 37 187 108 122 73 42 49 12 103 36 67 31 84 75 69
is_linear=0
shrinkage=0.00582562


Tree=26
num_leaves=22
num_cat=0
split_feature=2 2 1 10 7 1 6 12 1 11 9 8 0 3 1 4 4 6 6 13 12
split_gain=593.152 114.789 89.3866 78.3249 77.4393 78.6006 85.6785 71.1501 52.7378 46.4827 62.4011 50.6042 40.5262 49.2037 43.3072 80.4109 40.0569 33.9336 40.2829 48.4068 33.6957
threshold=18.950000000000003 11.900000000000004 18.050000000000004 7.1999999999999966 1644.0000000000002 58.050000000000004 10.350000000000003 0.92857142857142849 15.750000000000002 0.67142857142857204 -0.84999999999999776 0.047500000000000007 88.550000000000011 0.022575936829235404 32.150000000000013 -0.17646730165275518 -0.31800055644052067 19.550000000000004 16.550000000000004 3.1698730634041579 2.1678571428571423
decision_type=2 2 2 2 2 2 2 2 2 2 2 2 2 2 2 2 2 2 2 2 2
left_child=1 9 -2 7 -3 8 -7 12 -6 11 -11 -1 14 -14 -4 -16 -13 18 19 -9 -12
right_child=2 4 3 -5 5 6 -8 17 -10 10 20 16 13 -15 15 -17 -18 -19 -20 -21 -22
leaf_value=0.0078169236921245364 0.0060452159330243787 -0.010986150588080156 -0.019855007066712029 -0.031485900360017381 -0.0024052839512827997 0.0046513002923154701 -0.013077636356770206 -0.0023367717530401355 0.0078702705685069832 -0.0062444140779054679 0.0063889586942537623 0.010350486180133026 -0.019688082211389679 -0.0024275635956823977 -0.0098818974840564032 0.0082966343361028476 0.029158696874545434 -0.014810745346274471 0.006946021438482739 -0.015800042937537895 0.014335322778257218
leaf_weight=14.999999999999998 14.999999999999998 13.999999999999998 9.9999999999999982 4.9999999999999991 21 19 18 52 87 9.9999999999999982 52 5.9999999999999991 29 6.9999999999999991 46.999999999999993 10.000000000000005 11.000000000000002 8.9999999999999982 11.999999999999998 10.999999999999998 28
leaf_count=15 15 14 10 5 21 19 18 52 87 10 52 6 29 7 47 10 11 9 12 11 28
internal_value=-0.000155022 0.00535682 -0.00763877 -0.00870944 0.0020928 0.00335773 -0.00396523 -0.00809879 0.00586938 0.0096082 0.00745745 0.0156475 -0.0113456 -0.0163405 -0.00865721 -0.00668726 0.0225387 -0.00411388 -0.00282614 -0.00469241 0.00917405
internal_weight=488 281 207 192 159 145 37 187 108 122 90 32 103 36 67 57 17 84 75 63 80
internal_count=488 281 207 192 159 145 37 187 108 122 90 32 103 36 67 57 17 84 75 63 80
is_linear=0
shrinkage=0.00582562


Tree=27
num_leaves=22
num_cat=0
split_feature=2 2 1 10 7 1 6 12 1 4 0 7 13 11 0 3 12 9 6 6 13
split_gain=586.265 113.457 88.3495 77.4138 76.5398 77.6868 84.6836 70.3229 52.1258 46.1257 71.0433 48.6682 44.2245 46.5909 40.0547 48.6303 43.1132 35.1695 33.5389 39.882 40.4773
threshold=18.950000000000003 11.900000000000004 18.050000000000004 7.1999999999999966 1644.0000000000002 58.050000000000004 10.350000000000003 0.92857142857142849 15.750000000000002 -0.6652727025667432 43.850000000000001 1376.0000000000002 2.0489253565132555 0.92857142857142916 88.550000000000011 0.022575936829235404 0.79285714285714237 -0.95000000000000273 19.550000000000004 18.150000000000002 4.0040455515791153
decision_type=2 2 2 2 2 2 2 2 2 2 2 2 2 2 2 2 2 2 2 2 2
left_child=1 9 -2 7 -3 8 -7 14 -6 17 -11 -12 -13 -14 16 -16 -4 -1 19 20 -9
right_child=2 4 3 -5 5 6 -8 18 -10 10 11 12 13 -15 15 -17 -18 -19 -20 -21 -22
leaf_value=-0.013359600676745862 0.0060099987151737552 -0.010922149658176504 -0.0070030746640096673 -0.031302477168782213 -0.0023912716315206547 0.0046242035516607695 -0.013001451060838427 -0.0025605924109784305 0.007824421308113623 0.0067416160480880888 0.0070920794525490081 0.032055792833792868 0.025013131752997297 0.0086713611643906997 -0.019573386974858508 -0.002413421458296594 -0.022308600411455635 0.0084768735103789052 -0.014724463497097821 0.011583137784320064 -0.017352521114355562
leaf_weight=5 14.999999999999998 13.999999999999998 60 4.9999999999999991 21 19 18 62 87 66 13.999999999999998 7.9999999999999991 11.000000000000002 12.999999999999998 29 6.9999999999999991 6.9999999999999991 4.9999999999999982 8.9999999999999982 5.9999999999999991 6.9999999999999991
leaf_count=5 15 14 60 5 21 19 18 62 87 66 14 8 11 13 29 7 7 5 9 6 7
internal_value=-0.000154123 0.00532562 -0.0075943 -0.00865875 0.00208059 0.00333816 -0.00394208 -0.00805165 0.00583517 0.00955227 0.0106231 0.0161855 0.0201543 0.0161742 -0.0112796 -0.0162453 -0.00860677 -0.00241045 -0.00408994 -0.00280967 -0.0040657
internal_weight=488 281 207 192 159 145 37 187 108 122 112 46 32 24 103 36 67 10 84 75 69
internal_count=488 281 207 192 159 145 37 187 108 122 112 46 32 24 103 36 67 10 84 75 69
is_linear=0
shrinkage=0.00582562


Tree=28
num_leaves=22
num_cat=0
split_feature=2 11 9 3 3 8 3 0 11 2 8 8 7 3 2 7 9 6 0 13 12
split_gain=439.094 182.277 78.2597 79.0473 62.1624 59.998 82.5915 81.4387 58.1381 56.1669 50.6986 93.7654 80.921 56.435 46.6241 102.025 44.2008 41.4677 40.7738 38.6849 38.0444
threshold=16.550000000000001 0.62857142857142823 1.7999999999999992 0.19337368024598431 -0.96689237009891416 0.10150000000000002 0.97314989601849466 57.45000000000001 3.4214285714285713 20.450000000000006 0.035500000000000011 0.084999999999999964 3172.5000000000005 0.39036257410962039 20.250000000000004 3772.0000000000005 3.2500000000000004 14.250000000000002 30.350000000000005 3.1698730634041579 1.7035714285714285
decision_type=2 2 2 2 2 2 2 2 2 2 2 2 2 2 2 2 2 2 2 2 2
left_child=8 2 4 -4 -2 6 16 -8 10 20 13 18 -13 -1 -6 -16 -3 -10 -12 -11 -7
right_child=1 5 3 -5 14 9 7 -9 17 19 11 12 -14 -15 15 -17 -18 -19 -20 -21 -22
leaf_value=0.0052859647160487348 0.0048510038585422074 -0.0024960228616980537 -0.01687438506313723 0.006832109401998878 -0.0064523601003341298 0.00027176246116171986 0.0036059133606366062 0.035504527373148249 0.0061561134201955532 -0.003140940596875736 0.00041141924297479691 -0.019345360469540742 0.0049162117075712344 -0.0041520341410304093 -0.04240873096682015 -0.014766268942021422 0.0079850110494895498 0.022755150836509815 0.014466611031874754 -0.012396105962620285 0.019205773875402586
leaf_weight=70 5.9999999999999991 43 7.0000000000000027 14.999999999999998 18 13.000000000000002 5.9999999999999982 5 9.0000000000000018 51 7.9999999999999991 4.9999999999999991 69 31 4.9999999999999991 50 20 11.999999999999998 59 22 4.9999999999999991
leaf_count=70 6 43 7 15 18 13 6 5 9 51 8 5 69 31 5 50 20 12 59 22 5
internal_value=0.00101166 -0.00426517 -0.0104291 -0.000696814 -0.0131355 -0.000490204 0.00340322 0.0181334 0.00634986 -0.00365969 0.00554102 0.00779874 0.00327274 0.00238609 -0.0146181 -0.0172848 0.000826382 0.015656 0.012793 -0.0059344 0.00554839
internal_weight=529 266 101 22 79 165 74 11 263 91 242 141 74 101 73 55 63 21 67 73 18
internal_count=529 266 101 22 79 165 74 11 263 91 242 141 74 101 73 55 63 21 67 73 18
is_linear=0
shrinkage=0.00582562


Tree=29
num_leaves=22
num_cat=0
split_feature=2 11 9 3 3 8 3 0 11 2 8 8 7 3 2 7 9 6 0 13 12
split_gain=433.994 180.161 77.3507 78.1291 61.4419 59.3011 81.6335 80.4907 57.4629 55.516 50.1096 92.6762 79.9812 55.7796 46.0812 100.838 43.6874 40.9843 40.2988 38.2349 37.6019
threshold=16.550000000000001 0.62857142857142823 1.7999999999999992 0.19337368024598431 -0.96689237009891416 0.10150000000000002 0.97314989601849466 57.45000000000001 3.4214285714285713 20.450000000000006 0.035500000000000011 0.084999999999999964 3172.5000000000005 0.39036257410962039 20.250000000000004 3772.0000000000005 3.2500000000000004 14.250000000000002 30.350000000000005 3.1698730634041579 1.7035714285714285
decision_type=2 2 2 2 2 2 2 2 2 2 2 2 2 2 2 2 2 2 2 2 2
left_child=8 2 4 -4 -2 6 16 -8 10 20 13 18 -13 -1 -6 -16 -3 -10 -12 -11 -7
right_child=1 5 3 -5 14 9 7 -9 17 19 11 12 -14 -15 15 -17 -18 -19 -20 -21 -22
leaf_value=0.0052551706120872619 0.0048227435048885919 -0.0024814821157819922 -0.016776081184072967 0.0067923080844865726 -0.0064147713171373863 0.00027017928388899635 0.0035849067700916945 0.035297691774320412 0.0061202502909502568 -0.0031226426663798108 0.00040902235111831795 -0.019232661249431463 0.0048875716514286821 -0.00412784589940717 -0.042161673941759195 -0.014680246421419327 0.0079384933977396811 0.02262258761286258 0.014382333878522604 -0.012323890834734728 0.019093887634369588
leaf_weight=70 5.9999999999999991 43 7.0000000000000027 14.999999999999998 18 13.000000000000002 5.9999999999999982 5 9.0000000000000018 51 7.9999999999999991 4.9999999999999991 69 31 4.9999999999999991 50 20 11.999999999999998 59 22 4.9999999999999991
leaf_count=70 6 43 7 15 18 13 6 5 9 51 8 5 69 31 5 50 20 12 59 22 5
internal_value=0.00100578 -0.00424031 -0.0103684 -0.000692673 -0.013059 -0.000487315 0.00338342 0.0180279 0.00631288 -0.00363835 0.00550875 0.00775332 0.00325365 0.00237217 -0.0145329 -0.0171842 0.00082154 0.0155649 0.0127185 -0.00589986 0.00551616
internal_weight=529 266 101 22 79 165 74 11 263 91 242 141 74 101 73 55 63 21 67 73 18
internal_count=529 266 101 22 79 165 74 11 263 91 242 141 74 101 73 55 63 21 67 73 18
is_linear=0
shrinkage=0.00582562


Tree=30
num_leaves=22
num_cat=0
split_feature=2 11 9 3 3 8 3 0 11 2 8 8 7 3 2 7 9 6 0 13 12
split_gain=428.953 178.07 76.4523 77.2215 60.7298 58.6123 80.6865 79.5537 56.7956 54.8726 49.5275 91.5998 79.0524 55.1319 45.5446 99.6649 43.1799 40.5065 39.8292 37.7901 37.1644
threshold=16.550000000000001 0.62857142857142823 1.7999999999999992 0.19337368024598431 -0.96689237009891416 0.10150000000000002 0.97314989601849466 57.45000000000001 3.4214285714285713 20.450000000000006 0.035500000000000011 0.084999999999999964 3172.5000000000005 0.39036257410962039 20.250000000000004 3772.0000000000005 3.2500000000000004 14.250000000000002 30.350000000000005 3.1698730634041579 1.7035714285714285
decision_type=2 2 2 2 2 2 2 2 2 2 2 2 2 2 2 2 2 2 2 2 2
left_child=8 2 4 -4 -2 6 16 -8 10 20 13 18 -13 -1 -6 -16 -3 -10 -12 -11 -7
right_child=1 5 3 -5 14 9 7 -9 17 19 11 12 -14 -15 15 -17 -18 -19 -20 -21 -22
leaf_value=0.0052245560387308527 0.0047946480874178198 -0.0024670258623340578 -0.016678350067630819 0.0067527387642261627 -0.0063774010914576865 0.00026860533503094048 0.0035640218850880173 0.03509205942393654 0.0060845961194727965 -0.0031044513630485307 0.00040663968500869867 -0.019120619760055663 0.0048590985636527374 -0.0041037987552626741 -0.041916056410167095 -0.014594724702760794 0.0078922467513878273 0.02249079710088223 0.014298547954841983 -0.01225209641653024 0.018982654262793403
leaf_weight=70 5.9999999999999991 43 7.0000000000000027 14.999999999999998 18 13.000000000000002 5.9999999999999982 5 9.0000000000000018 51 7.9999999999999991 4.9999999999999991 69 31 4.9999999999999991 50 20 11.999999999999998 59 22 4.9999999999999991
leaf_count=70 6 43 7 15 18 13 6 5 9 51 8 5 69 31 5 50 20 12 59 22 5
internal_value=0.000999928 -0.0042156 -0.010308 -0.000688556 -0.0129829 -0.000484444 0.00336374 0.0179231 0.00627613 -0.00361713 0.00547666 0.00770817 0.00323467 0.00235834 -0.0144483 -0.0170841 0.000816725 0.0154743 0.0126444 -0.00586551 0.00548413
internal_weight=529 266 101 22 79 165 74 11 263 91 242 141 74 101 73 55 63 21 67 73 18
internal_count=529 266 101 22 79 165 74 11 263 91 242 141 74 101 73 55 63 21 67 73 18
is_linear=0
shrinkage=0.00582562


Tree=31
num_leaves=22
num_cat=0
split_feature=2 11 9 3 3 8 3 0 11 2 8 8 7 3 2 7 9 6 0 13 12
split_gain=423.971 176.002 75.5644 76.3245 60.026 57.9315 79.7506 78.6276 56.136 54.2367 48.9521 90.5358 78.1344 54.4916 45.0142 98.5053 42.6784 40.0343 39.3652 37.3505 36.7321
threshold=16.550000000000001 0.62857142857142823 1.7999999999999992 0.19337368024598431 -0.96689237009891416 0.10150000000000002 0.97314989601849466 57.45000000000001 3.4214285714285713 20.450000000000006 0.035500000000000011 0.084999999999999964 3172.5000000000005 0.39036257410962039 20.250000000000004 3772.0000000000005 3.2500000000000004 14.250000000000002 30.350000000000005 3.1698730634041579 1.7035714285714285
decision_type=2 2 2 2 2 2 2 2 2 2 2 2 2 2 2 2 2 2 2 2 2
left_child=8 2 4 -4 -2 6 16 -8 10 20 13 18 -13 -1 -6 -16 -3 -10 -12 -11 -7
right_child=1 5 3 -5 14 9 7 -9 17 19 11 12 -14 -15 15 -17 -18 -19 -20 -21 -22
leaf_value=0.005194119639596045 0.0047667164197468213 -0.002452653852032049 -0.016581188415086993 0.0067133998092172254 -0.0063402489475435676 0.0002670405878772347 0.003543259573710749 0.034887627808890216 0.0060491498254792902 -0.0030863659589029199 0.00040427060443307507 -0.019009229924817503 0.0048307912047448115 -0.0040798914736754508 -0.041671868927277748 -0.014509701438742887 0.0078462694806037247 0.022359773918439872 0.014215249948866348 -0.012180720541739251 0.018872068517439902
leaf_weight=70 5.9999999999999991 43 7.0000000000000027 14.999999999999998 18 13.000000000000002 5.9999999999999982 5 9.0000000000000018 51 7.9999999999999991 4.9999999999999991 69 31 4.9999999999999991 50 20 11.999999999999998 59 22 4.9999999999999991
leaf_count=70 6 43 7 15 18 13 6 5 9 51 8 5 69 31 5 50 20 12 59 22 5
internal_value=0.000994113 -0.00419104 -0.010248 -0.000684463 -0.0129073 -0.000481589 0.00334416 0.0178188 0.00623959 -0.00359604 0.00544477 0.00766327 0.0032158 0.00234458 -0.0143642 -0.0169846 0.000811939 0.0153842 0.0125708 -0.00583137 0.00545228
internal_weight=529 266 101 22 79 165 74 11 263 91 242 141 74 101 73 55 63 21 67 73 18
internal_count=529 266 101 22 79 165 74 11 263 91 242 141 74 101 73 55 63 21 67 73 18
is_linear=0
shrinkage=0.00582562


Tree=32
num_leaves=22
num_cat=0
split_feature=2 11 9 3 3 8 3 0 11 2 8 8 7 3 2 7 9 6 0 13 12
split_gain=419.047 173.959 74.6867 75.4379 59.3303 57.2586 78.8256 77.7123 55.4841 53.6082 48.3834 89.4842 77.227 53.8588 44.49 97.3591 42.1827 39.5676 38.9066 36.9159 36.3048
threshold=16.550000000000001 0.62857142857142823 1.7999999999999992 0.19337368024598431 -0.96689237009891416 0.10150000000000002 0.97314989601849466 57.45000000000001 3.4214285714285713 20.450000000000006 0.035500000000000011 0.084999999999999964 3172.5000000000005 0.39036257410962039 20.250000000000004 3772.0000000000005 3.2500000000000004 14.250000000000002 30.350000000000005 3.1698730634041579 1.7035714285714285
decision_type=2 2 2 2 2 2 2 2 2 2 2 2 2 2 2 2 2 2 2 2 2
left_child=8 2 4 -4 -2 6 16 -8 10 20 13 18 -13 -1 -6 -16 -3 -10 -12 -11 -7
right_child=1 5 3 -5 14 9 7 -9 17 19 11 12 -14 -15 15 -17 -18 -19 -20 -21 -22
leaf_value=0.0051638607992722831 0.0047389474023010452 -0.0024383656513379654 -0.016484592828507946 0.0066742900880552075 -0.006303312924403788 0.00026548485211686743 0.0035226176657469572 0.034684383855819526 0.0060139097306715654 -0.0030683859764960041 0.00040191564109365638 -0.018898489104738223 0.0048026489040224251 -0.0040561236906096936 -0.041429103992835725 -0.014425173372309159 0.0078005601508763199 0.022229514144683545 0.014132437349768994 -0.012109760147401463 0.018762126370394129
leaf_weight=70 5.9999999999999991 43 7.0000000000000027 14.999999999999998 18 13.000000000000002 5.9999999999999982 5 9.0000000000000018 51 7.9999999999999991 4.9999999999999991 69 31 4.9999999999999991 50 20 11.999999999999998 59 22 4.9999999999999991
leaf_count=70 6 43 7 15 18 13 6 5 9 51 8 5 69 31 5 50 20 12 59 22 5
internal_value=0.000988332 -0.00416662 -0.0101883 -0.000680394 -0.0128321 -0.00047875 0.00332471 0.0177152 0.00620326 -0.00357507 0.00541305 0.00761864 0.00319704 0.0023309 -0.0142806 -0.0168857 0.00080718 0.0152947 0.0124976 -0.00579742 0.00542062
internal_weight=529 266 101 22 79 165 74 11 263 91 242 141 74 101 73 55 63 21 67 73 18
internal_count=529 266 101 22 79 165 74 11 263 91 242 141 74 101 73 55 63 21 67 73 18
is_linear=0
shrinkage=0.00582562


Tree=33
num_leaves=22
num_cat=0
split_feature=2 11 9 3 3 8 3 0 11 2 8 8 7 3 2 7 9 6 0 13 12
split_gain=414.18 171.939 73.8193 74.5615 58.6427 56.5935 77.9113 76.8076 54.8397 52.987 47.8213 88.4448 76.3302 53.2334 43.9719 96.2263 41.6927 39.1063 38.4533 36.4865 35.8825
threshold=16.550000000000001 0.62857142857142823 1.7999999999999992 0.19337368024598431 -0.96689237009891416 0.10150000000000002 0.97314989601849466 57.45000000000001 3.4214285714285713 20.450000000000006 0.035500000000000011 0.084999999999999964 3172.5000000000005 0.39036257410962039 20.250000000000004 3772.0000000000005 3.2500000000000004 14.250000000000002 30.350000000000005 3.1698730634041579 1.7035714285714285
decision_type=2 2 2 2 2 2 2 2 2 2 2 2 2 2 2 2 2 2 2 2 2
left_child=8 2 4 -4 -2 6 16 -8 10 20 13 18 -13 -1 -6 -16 -3 -10 -12 -11 -7
right_child=1 5 3 -5 14 9 7 -9 17 19 11 12 -14 -15 15 -17 -18 -19 -20 -21 -22
leaf_value=0.0051337780389140563 0.0047113398342293368 -0.0024241607136608243 -0.016388559612330923 0.0066354081987823011 -0.0062665921801387317 0.00026393823459110839 0.003502096392686021 0.03448232617578828 0.0059788748512196602 -0.0030505107662530907 0.00039957419818184033 -0.018788393653860317 0.004774670426783474 -0.0040324941991466863 -0.04118775466216007 -0.01434113764919479 0.0077551168242050474 0.022100013974505985 0.014050107021407455 -0.012039213287230026 0.018652825425741159
leaf_weight=70 5.9999999999999991 43 7.0000000000000027 14.999999999999998 18 13.000000000000002 5.9999999999999982 5 9.0000000000000018 51 7.9999999999999991 4.9999999999999991 69 31 4.9999999999999991 50 20 11.999999999999998 59 22 4.9999999999999991
leaf_count=70 6 43 7 15 18 13 6 5 9 51 8 5 69 31 5 50 20 12 59 22 5
internal_value=0.000982584 -0.00414234 -0.010129 -0.000676348 -0.0127574 -0.000475929 0.00330536 0.0176121 0.00616714 -0.00355422 0.00538153 0.00757427 0.00317839 0.00231731 -0.0141974 -0.0167874 0.000802449 0.0152057 0.0124248 -0.00576367 0.00538914
internal_weight=529 266 101 22 79 165 74 11 263 91 242 141 74 101 73 55 63 21 67 73 18
internal_count=529 266 101 22 79 165 74 11 263 91 242 141 74 101 73 55 63 21 67 73 18
is_linear=0
shrinkage=0.00582562


Tree=34
num_leaves=22
num_cat=0
split_feature=2 11 9 3 3 8 3 0 11 2 8 8 7 3 2 7 9 6 0 13 12
split_gain=409.37 169.943 72.9619 73.6954 57.9631 55.9362 77.0076 75.9134 54.2029 52.373 47.2657 87.4175 75.4437 52.6152 43.4599 95.1067 41.2084 38.6504 38.0052 36.062 35.465
threshold=16.550000000000001 0.62857142857142823 1.7999999999999992 0.19337368024598431 -0.96689237009891416 0.10150000000000002 0.97314989601849466 57.45000000000001 3.4214285714285713 20.450000000000006 0.035500000000000011 0.084999999999999964 3172.5000000000005 0.39036257410962039 20.250000000000004 3772.0000000000005 3.2500000000000004 14.250000000000002 30.350000000000005 3.1698730634041579 1.7035714285714285
decision_type=2 2 2 2 2 2 2 2 2 2 2 2 2 2 2 2 2 2 2 2 2
left_child=8 2 4 -4 -2 6 16 -8 10 20 13 18 -13 -1 -6 -16 -3 -10 -12 -11 -7
right_child=1 5 3 -5 14 9 7 -9 17 19 11 12 -14 -15 15 -17 -18 -19 -20 -21 -22
leaf_value=0.00510387052205906 0.0046838934695742273 -0.0024100383980305909 -0.016293086286312465 0.0065967528566322113 -0.0062300853911819807 0.00026240064515263626 0.0034816947996342495 0.034281446192115504 0.0059440439910949912 -0.0030327395747696624 0.00039724648186787142 -0.018678939613715639 0.0047468550059832811 -0.0040090024868360222 -0.040947809545974004 -0.014257591717228684 0.0077099383937810758 0.021971267678544178 0.013968256397044444 -0.011969077411717405 0.018544162106970297
leaf_weight=70 5.9999999999999991 43 7.0000000000000027 14.999999999999998 18 13.000000000000002 5.9999999999999982 5 9.0000000000000018 51 7.9999999999999991 4.9999999999999991 69 31 4.9999999999999991 50 20 11.999999999999998 59 22 4.9999999999999991
leaf_count=70 6 43 7 15 18 13 6 5 9 51 8 5 69 31 5 50 20 12 59 22 5
internal_value=0.00097687 -0.0041182 -0.01007 -0.000672326 -0.0126831 -0.000473123 0.00328613 0.0175097 0.00613123 -0.0035335 0.00535018 0.00753016 0.00315985 0.00230379 -0.0141148 -0.0166896 0.000797746 0.0151172 0.0123525 -0.00573012 0.00535784
internal_weight=529 266 101 22 79 165 74 11 263 91 242 141 74 101 73 55 63 21 67 73 18
internal_count=529 266 101 22 79 165 74 11 263 91 242 141 74 101 73 55 63 21 67 73 18
is_linear=0
shrinkage=0.00582562


Tree=35
num_leaves=22
num_cat=0
split_feature=2 6 9 11 13 5 4 5 6 8 0 7 3 1 12 11 10 8 2 9 11
split_gain=371.09 157.706 138.654 138.373 72.5412 71.1734 60.3088 42.1933 40.6703 39.0574 62.994 69.5387 51.5166 50.2787 41.1321 48.6859 62.5054 50.6588 45.2659 37.4462 32.3025
threshold=19.350000000000001 16.250000000000004 0.95000000000000295 3.4214285714285713 4.3677824850810536 0.083500000000000005 0.62420859727530387 0.13300000000000003 14.850000000000003 0.037500000000000006 75.050000000000011 4044.5000000000005 0.15951094710994368 62.95000000000001 0.25000000000000083 1.1071428571428565 0.90000000000000224 0.048500000000000008 16.950000000000003 0.24999999999999997 0.78571428571428481
decision_type=2 2 2 2 2 2 2 2 2 2 2 2 2 2 2 2 2 2 2 2 2
left_child=3 2 5 9 7 6 -2 -3 -5 12 13 -12 -1 14 -11 17 -17 -16 19 -18 -14
right_child=1 4 -4 8 -6 -7 -8 -9 -10 10 11 -13 20 -15 15 16 18 -19 -20 -21 -22
leaf_value=0.0048348590980048104 -0.012921688925810002 0.006695926030605385 -0.0020620194046254239 0.013764045261043655 0.026381454366594607 -0.0342713516122162 0.0079744771729811856 -0.0081743396021109176 0.030671108640077455 -0.0022608020090196827 -0.014384450796056937 0.0034589440141560477 0.0049551502396005228 0.023187371683045816 0.00024882612059820759 -0.0017675363356785033 0.0025531272676511145 0.017949798921538095 -0.0011907871958774278 0.016383180519221524 -0.0061106320463030026
leaf_weight=61 71 23 78 16.000000000000004 4.9999999999999991 4.9999999999999991 4.9999999999999991 8.9999999999999982 6.9999999999999991 13.999999999999998 8.9999999999999982 42 11.999999999999998 6.9999999999999991 6.9999999999999991 25 8.9999999999999982 26 9.9999999999999982 26 35
leaf_count=61 71 23 78 16 5 5 5 9 7 14 9 42 12 7 7 25 9 26 10 26 35
internal_value=0.00116874 -0.00508886 -0.00761051 0.00517788 0.00573904 -0.0129497 -0.0115429 0.002504 0.0189231 0.00405969 0.00576038 0.000304047 0.00130107 0.00800202 0.00709085 0.00836495 0.00560765 0.0142044 0.00971184 0.0128357 -0.00327875
internal_weight=502 196 159 306 37 81 76 32 23 283 175 51 108 124 117 103 70 33 45 35 47
internal_count=502 196 159 306 37 81 76 32 23 283 175 51 108 124 117 103 70 33 45 35 47
is_linear=0
shrinkage=0.00582562


Tree=36
num_leaves=22
num_cat=0
split_feature=2 6 9 11 13 5 4 5 1 1 8 0 7 3 1 12 11 10 8 2 9
split_gain=366.781 155.874 137.043 136.766 71.6982 70.3453 59.6094 41.7034 40.473 55.5695 38.6034 62.2624 68.7309 50.9178 49.6938 40.6551 48.1203 61.7798 50.0688 44.7414 37.0098
threshold=19.350000000000001 16.250000000000004 0.95000000000000295 3.4214285714285713 4.3677824850810536 0.083500000000000005 0.62420859727530387 0.13300000000000003 32.350000000000009 45.300000000000004 0.037500000000000006 75.050000000000011 4044.5000000000005 0.15951094710994368 62.95000000000001 0.25000000000000083 1.1071428571428565 0.90000000000000224 0.048500000000000008 16.950000000000003 0.24999999999999997
decision_type=2 2 2 2 2 2 2 2 2 2 2 2 2 2 2 2 2 2 2 2 2
left_child=3 2 5 10 7 6 -2 -3 -5 -10 13 14 -13 -1 15 -12 18 -18 -17 20 -19
right_child=1 4 -4 8 -6 -7 -8 -9 9 -11 11 12 -14 -15 -16 16 17 19 -20 -21 -22
leaf_value=0.0048066929503774716 -0.012846412021221065 0.006656918033291181 -0.0020500069651328847 0.010693893788481909 0.026227765833857466 -0.034071700021072876 0.0079280209727802167 -0.008126718798140517 0.036844459859838377 0.011307111539604177 -0.0022476312704320343 -0.014300651902217586 0.0034387934345256918 -0.0032596090665026455 0.02305229048113619 0.0002473766415179973 -0.0017572392215480035 0.0025382537895678263 0.017845229884503599 -0.0011838500833472251 0.016287738341534137
leaf_weight=61 71 23 78 11.000000000000002 4.9999999999999991 4.9999999999999991 4.9999999999999991 8.9999999999999982 6.9999999999999982 5 13.999999999999998 8.9999999999999982 42 47 6.9999999999999991 6.9999999999999991 25 8.9999999999999982 26 9.9999999999999982 26
leaf_count=61 71 23 78 11 5 5 5 9 7 5 14 9 42 47 7 7 25 9 26 10 26
internal_value=0.00116194 -0.00505922 -0.00756618 0.00514774 0.00570561 -0.0128742 -0.0114756 0.00248936 0.018813 0.0262297 0.00403605 0.00572683 0.000302241 0.0012935 0.00795542 0.00704955 0.00831624 0.00557496 0.0141217 0.00965527 0.012761
internal_weight=502 196 159 306 37 81 76 32 23 12 283 175 51 108 124 117 103 70 33 45 35
internal_count=502 196 159 306 37 81 76 32 23 12 283 175 51 108 124 117 103 70 33 45 35
is_linear=0
shrinkage=0.00582562


Tree=37
num_leaves=22
num_cat=0
split_feature=2 6 9 11 13 5 4 5 6 8 0 7 3 1 12 11 10 8 2 9 11
split_gain=362.522 154.064 135.45 135.179 70.865 69.5269 58.9181 41.2192 40.065 38.155 61.5393 67.9325 50.3264 49.1156 40.1837 47.5613 61.0627 49.4856 44.2229 36.5785 31.9272
threshold=19.350000000000001 16.250000000000004 0.95000000000000295 3.4214285714285713 4.3677824850810536 0.083500000000000005 0.62420859727530387 0.13300000000000003 14.850000000000003 0.037500000000000006 75.050000000000011 4044.5000000000005 0.15951094710994368 62.95000000000001 0.25000000000000083 1.1071428571428565 0.90000000000000224 0.048500000000000008 16.950000000000003 0.24999999999999997 0.78571428571428481
decision_type=2 2 2 2 2 2 2 2 2 2 2 2 2 2 2 2 2 2 2 2 2
left_child=3 2 5 9 7 6 -2 -3 -5 12 13 -12 -1 14 -11 17 -17 -16 19 -18 -14
right_child=1 4 -4 8 -6 -7 -8 -9 -10 10 11 -13 20 -15 15 16 18 -19 -20 -21 -22
leaf_value=0.0047786910765297442 -0.012771573697531891 0.0066181375224658853 -0.0020380643655467843 0.013582806837997211 0.026074972539942547 -0.033873211802883538 0.0078818352331791377 -0.0080793755885459617 0.030363821580118765 -0.0022345376666510286 -0.014217341947756382 0.0034187604861510351 0.0049452725717992621 0.02291799680612985 0.00024593560766676681 -0.0017470023004574032 0.0025234669469964737 0.017741270473780549 -0.0011769533888676233 0.016192851915444159 -0.0060560445642554323
leaf_weight=61 71 23 78 16.000000000000004 4.9999999999999991 4.9999999999999991 4.9999999999999991 8.9999999999999982 6.9999999999999991 13.999999999999998 8.9999999999999982 42 11.999999999999998 6.9999999999999991 6.9999999999999991 25 8.9999999999999982 26 9.9999999999999982 26 35
leaf_count=61 71 23 78 16 5 5 5 9 7 14 9 42 12 7 7 25 9 26 10 26 35
internal_value=0.00115518 -0.00502974 -0.00752212 0.00511778 0.00567237 -0.0127992 -0.0114087 0.0024748 0.0187035 0.00401254 0.00569348 0.000300445 0.00128594 0.00790909 0.00700848 0.00826781 0.00554245 0.0140395 0.00959902 0.0126867 -0.00324062
internal_weight=502 196 159 306 37 81 76 32 23 283 175 51 108 124 117 103 70 33 45 35 47
internal_count=502 196 159 306 37 81 76 32 23 283 175 51 108 124 117 103 70 33 45 35 47
is_linear=0
shrinkage=0.00582562


Tree=38
num_leaves=22
num_cat=0
split_feature=2 6 9 11 13 5 4 5 1 1 8 0 7 3 1 12 11 10 8 2 9
split_gain=358.312 152.275 133.875 133.609 70.0415 68.718 58.2348 40.7406 39.8838 54.9112 37.7115 60.8246 67.1433 49.7414 48.5442 39.7178 47.0088 60.3539 48.9092 43.7105 36.1523
threshold=19.350000000000001 16.250000000000004 0.95000000000000295 3.4214285714285713 4.3677824850810536 0.083500000000000005 0.62420859727530387 0.13300000000000003 32.350000000000009 45.300000000000004 0.037500000000000006 75.050000000000011 4044.5000000000005 0.15951094710994368 62.95000000000001 0.25000000000000083 1.1071428571428565 0.90000000000000224 0.048500000000000008 16.950000000000003 0.24999999999999997
decision_type=2 2 2 2 2 2 2 2 2 2 2 2 2 2 2 2 2 2 2 2 2
left_child=3 2 5 10 7 6 -2 -3 -5 -10 13 14 -13 -1 15 -12 18 -18 -17 20 -19
right_child=1 4 -4 8 -6 -7 -8 -9 9 -11 11 12 -14 -15 -16 16 17 19 -20 -21 -22
leaf_value=0.0047508521351985137 -0.012697171352473049 0.0065795826855295052 -0.0020261913813334905 0.010534692319848191 0.025923071116679582 -0.033675878554584246 0.0078359186694119676 -0.0080323085072276975 0.036508792638895934 0.011123008464103277 -0.0022215200528891439 -0.01413451702628965 0.0033988439942748408 -0.0032217028207134927 0.022784485499120398 0.00024450280822382219 -0.0017368247876575235 0.0025087661835185163 0.017637916612706469 -0.0011700968346513333 0.016098518466417171
leaf_weight=61 71 23 78 11.000000000000002 4.9999999999999991 4.9999999999999991 4.9999999999999991 8.9999999999999982 6.9999999999999982 5 13.999999999999998 8.9999999999999982 42 47 6.9999999999999991 6.9999999999999991 25 8.9999999999999982 26 9.9999999999999982 26
leaf_count=61 71 23 78 11 5 5 5 9 7 5 14 9 42 47 7 7 25 9 26 10 26
internal_value=0.00114846 -0.00500044 -0.00747831 0.00508799 0.00563932 -0.0127247 -0.0113422 0.00246033 0.0185946 0.0259571 0.00398918 0.00566032 0.000298659 0.00127845 0.00786303 0.00696765 0.00821966 0.00551014 0.0139578 0.0095431 0.0126128
internal_weight=502 196 159 306 37 81 76 32 23 12 283 175 51 108 124 117 103 70 33 45 35
internal_count=502 196 159 306 37 81 76 32 23 12 283 175 51 108 124 117 103 70 33 45 35
is_linear=0
shrinkage=0.00582562


Tree=39
num_leaves=22
num_cat=0
split_feature=2 6 9 11 13 5 4 5 6 8 0 7 3 1 12 11 10 8 2 9 11
split_gain=354.151 150.507 132.319 132.059 69.2275 67.9185 57.5595 40.2676 39.4687 37.2734 60.1181 66.3633 49.1637 47.9794 39.2572 46.4627 59.6533 48.3396 43.2041 35.7309 31.5563
threshold=19.350000000000001 16.250000000000004 0.95000000000000295 3.4214285714285713 4.3677824850810536 0.083500000000000005 0.62420859727530387 0.13300000000000003 14.850000000000003 0.037500000000000006 75.050000000000011 4044.5000000000005 0.15951094710994368 62.95000000000001 0.25000000000000083 1.1071428571428565 0.90000000000000224 0.048500000000000008 16.950000000000003 0.24999999999999997 0.78571428571428481
decision_type=2 2 2 2 2 2 2 2 2 2 2 2 2 2 2 2 2 2 2 2 2
left_child=3 2 5 9 7 6 -2 -3 -5 12 13 -12 -1 14 -11 17 -17 -16 19 -18 -14
right_child=1 4 -4 8 -6 -7 -8 -9 -10 10 11 -13 20 -15 15 16 18 -19 -20 -21 -22
leaf_value=0.0047231755728014404 -0.012623202343427472 0.0065412525590959943 -0.0020143876121859849 0.013403835973218124 0.025772052015132267 -0.033479697220515352 0.0077902696147552804 -0.0079855152778732629 0.030059733748994934 -0.0022085781950733734 -0.014052174982072327 0.0033790435530155118 0.0049352315773647333 0.022651751599620913 0.00024307845400985738 -0.0017267068255143664 0.0024941510186728762 0.017535164551820283 -0.0011632803165281212 0.016004734475368609 -0.0060019959927202641
leaf_weight=61 71 23 78 16.000000000000004 4.9999999999999991 4.9999999999999991 4.9999999999999991 8.9999999999999982 6.9999999999999991 13.999999999999998 8.9999999999999982 42 11.999999999999998 6.9999999999999991 6.9999999999999991 25 8.9999999999999982 26 9.9999999999999982 26 35
leaf_count=61 71 23 78 16 5 5 5 9 7 14 9 42 12 7 7 25 9 26 10 26 35
internal_value=0.00114178 -0.00497131 -0.00743475 0.00505837 0.00560647 -0.0126506 -0.0112761 0.00244594 0.0184865 0.00396595 0.00562736 0.000296884 0.00127099 0.00781724 0.00692706 0.0081718 0.00547801 0.0138765 0.0094875 0.0125394 -0.00320293
internal_weight=502 196 159 306 37 81 76 32 23 283 175 51 108 124 117 103 70 33 45 35 47
internal_count=502 196 159 306 37 81 76 32 23 283 175 51 108 124 117 103 70 33 45 35 47
is_linear=0
shrinkage=0.00582562


Tree=40
num_leaves=22
num_cat=0
split_feature=2 6 9 11 13 5 4 5 1 1 8 0 7 3 1 12 11 10 8 2 9
split_gain=350.039 148.759 130.781 130.526 68.423 67.1283 56.892 39.8 39.3031 54.2606 36.8402 59.4199 65.5924 48.5922 47.4212 38.802 45.923 58.9609 47.7765 42.7035 35.3145
threshold=19.350000000000001 16.250000000000004 0.95000000000000295 3.4214285714285713 4.3677824850810536 0.083500000000000005 0.62420859727530387 0.13300000000000003 32.350000000000009 45.300000000000004 0.037500000000000006 75.050000000000011 4044.5000000000005 0.15951094710994368 62.95000000000001 0.25000000000000083 1.1071428571428565 0.90000000000000224 0.048500000000000008 16.950000000000003 0.24999999999999997
decision_type=2 2 2 2 2 2 2 2 2 2 2 2 2 2 2 2 2 2 2 2 2
left_child=3 2 5 10 7 6 -2 -3 -5 -10 13 14 -13 -1 15 -12 18 -18 -17 20 -19
right_child=1 4 -4 8 -6 -7 -8 -9 9 -11 11 12 -14 -15 -16 16 17 19 -20 -21 -22
leaf_value=0.0046956599868825024 -0.012549664424376977 0.0065031456947837853 -0.0020026525282800184 0.010377593393254321 0.025621913638023967 -0.033284657210038412 0.0077448864024856415 -0.007938994627290941 0.03617643584850385 0.010941312276128608 -0.0021957119753921363 -0.013970312014820043 0.00335935864746406 -0.0031842370897113715 0.022519791337661341 0.00024166242101269944 -0.001716647584138313 0.002479621011182878 0.017433011600057315 -0.0011565035567106976 0.015911497191135587
leaf_weight=61 71 23 78 11.000000000000002 4.9999999999999991 4.9999999999999991 4.9999999999999991 8.9999999999999982 6.9999999999999982 5 13.999999999999998 8.9999999999999982 42 47 6.9999999999999991 6.9999999999999991 25 8.9999999999999982 26 9.9999999999999982 26
leaf_count=61 71 23 78 11 5 5 5 9 7 5 14 9 42 47 7 7 25 9 26 10 26
internal_value=0.00113514 -0.00494235 -0.00739145 0.00502893 0.00557381 -0.0125769 -0.0112104 0.00243163 0.0183788 0.0256876 0.00394286 0.00559458 0.000295119 0.00126358 0.00777171 0.0068867 0.00812421 0.00544607 0.0137957 0.00943223 0.0124664
internal_weight=502 196 159 306 37 81 76 32 23 12 283 175 51 108 124 117 103 70 33 45 35
internal_count=502 196 159 306 37 81 76 32 23 12 283 175 51 108 124 117 103 70 33 45 35
is_linear=0
shrinkage=0.00582562


Tree=41
num_leaves=22
num_cat=0
split_feature=2 6 9 11 13 5 4 5 6 8 0 7 3 1 12 11 10 8 2 9 6
split_gain=345.974 147.032 129.261 129.012 67.6279 66.3472 56.2323 39.3379 38.8812 36.4122 58.7298 64.8304 48.0278 46.8695 38.3521 45.3895 58.2765 47.22 42.2087 34.9029 31.2645
threshold=19.350000000000001 16.250000000000004 0.95000000000000295 3.4214285714285713 4.3677824850810536 0.083500000000000005 0.62420859727530387 0.13300000000000003 14.850000000000003 0.037500000000000006 75.050000000000011 4044.5000000000005 0.15951094710994368 62.95000000000001 0.25000000000000083 1.1071428571428565 0.90000000000000224 0.048500000000000008 16.950000000000003 0.24999999999999997 15.450000000000001
decision_type=2 2 2 2 2 2 2 2 2 2 2 2 2 2 2 2 2 2 2 2 2
left_child=3 2 5 9 7 6 -2 -3 -5 12 13 -12 -1 14 -11 17 20 -16 19 -18 -17
right_child=1 4 -4 8 -6 -7 -8 -9 -10 10 11 -13 -14 -15 15 16 18 -19 -20 -21 -22
leaf_value=0.004668304872244451 -0.012476554726666063 0.0064652609112419192 -0.0019909857310127475 0.013227104953081948 0.025472650776843977 -0.033090752307663965 0.0076997677825604832 -0.0078927449639910833 0.029758810882142554 -0.0021829205459120891 -0.013888926639142461 0.0033397882516778875 -0.0031656869558417183 0.022388598959076855 0.00024025472163356567 -0.0057796482442740594 0.0024651755655020952 0.017331453336859724 -0.0011497662079649514 0.015818802905991896 0.0087226186816397201
leaf_weight=61 71 23 78 16.000000000000004 4.9999999999999991 4.9999999999999991 4.9999999999999991 8.9999999999999982 6.9999999999999991 13.999999999999998 8.9999999999999982 42 47 6.9999999999999991 6.9999999999999991 18.000000000000004 8.9999999999999982 26 9.9999999999999982 26 6.9999999999999991
leaf_count=61 71 23 78 16 5 5 5 9 7 14 9 42 47 7 7 18 9 26 10 26 7
internal_value=0.00112854 -0.00491356 -0.00734841 0.00499965 0.00554134 -0.0125036 -0.0111451 0.00241741 0.0182719 0.00391989 0.005562 0.000293365 0.00125621 0.00772645 0.00684658 0.0080769 0.00541432 0.0137154 0.00937728 0.0123938 -0.00170665
internal_weight=502 196 159 306 37 81 76 32 23 283 175 51 108 124 117 103 70 33 45 35 25
internal_count=502 196 159 306 37 81 76 32 23 283 175 51 108 124 117 103 70 33 45 35 25
is_linear=0
shrinkage=0.00582562


Tree=42
num_leaves=22
num_cat=0
split_feature=2 11 10 11 2 8 11 1 11 9 6 3 13 12 4 7 13 3 6 11 10
split_gain=425.398 106.954 81.1947 67.6562 67.5011 73.1204 65.6546 49.3334 55.6322 52.523 49.2725 53.218 47.1965 49.532 46.5495 40.8458 38.1051 70.6766 43.4034 42.1789 38.6257
threshold=19.150000000000006 0.30000000000000127 7.6000000000000023 2.9285714285714293 11.449999999999998 0.036500000000000005 2.3428571428571439 59.750000000000007 -0.10714285714285708 0.90000000000000224 13.250000000000002 -0.73866753694953124 3.0344838973196291 1.7035714285714285 -0.03976928634766979 3148.0000000000005 4.8929403318499682 0.96687895796550427 14.350000000000003 0.7571428571428559 1.0999999999999981
decision_type=2 2 2 2 2 2 2 2 2 2 2 2 2 2 2 2 2 2 2 2 2
left_child=3 7 16 4 5 -1 12 8 -2 -9 11 -7 13 -6 -12 -8 17 18 -3 -20 -19
right_child=1 2 -4 -5 6 10 15 9 -10 -11 14 -13 -14 -15 -16 -17 -18 20 19 -21 -22
leaf_value=0.0024086168521197469 -0.0015944184477889489 -0.0043913507472120869 -0.024390592138766709 0.010880821920891737 -0.003207027555435042 0.019452028476968239 -0.022711800544668381 -0.013777698343972952 -0.015756925896908875 -0.032614913216267118 0.031734419022143155 0.0010271287237978814 0.0066158539069961714 0.0071025843328425351 0.012442287248211111 -0.0030411042973304656 0.013295568739084185 -0.02892982719745979 0.016138600192827476 0.00042467211726615047 -0.0076472815804366941
leaf_weight=54 23 72 5.9999999999999991 45 64 8.0000000000000018 5.9999999999999991 32 15.999999999999998 5.9999999999999991 7.0000000000000027 15.999999999999998 47 21 10.999999999999998 8.9999999999999982 4.9999999999999991 4.9999999999999982 6.9999999999999991 34 7
leaf_count=54 23 72 6 45 64 8 6 32 16 6 7 16 47 21 11 9 5 5 7 34 7
internal_value=-0.000299193 -0.00654183 -0.00343246 0.00431668 0.00309983 0.00689957 0.000616262 -0.0120297 -0.00741261 -0.0167601 0.0126663 0.00718164 0.00193068 -0.00065631 0.019962 -0.01093 -0.00246278 -0.00309559 -0.00166504 0.00311508 -0.0165408
internal_weight=501 213 136 288 243 96 147 77 39 38 42 24 132 85 18 15 130 125 113 41 12
internal_count=501 213 136 288 243 96 147 77 39 38 42 24 132 85 18 15 130 125 113 41 12
is_linear=0
shrinkage=0.00582562


Tree=43
num_leaves=22
num_cat=0
split_feature=2 11 10 11 2 8 11 1 11 9 6 3 12 4 13 12 13 3 6 11 10
split_gain=420.461 105.713 80.2511 66.8693 66.7187 72.272 64.8931 48.7591 54.9851 51.911 48.6989 52.599 46.8311 46.0067 44.8376 40.6812 37.6627 69.8569 42.8999 41.6885 38.1753
threshold=19.150000000000006 0.30000000000000127 7.6000000000000023 2.9285714285714293 11.449999999999998 0.036500000000000005 2.3428571428571439 59.750000000000007 -0.10714285714285708 0.90000000000000224 13.250000000000002 -0.73866753694953124 2.10357142857143 -0.03976928634766979 3.0838285995883523 2.3321428571428577 4.8929403318499682 0.96687895796550427 14.350000000000003 0.7571428571428559 1.0999999999999981
decision_type=2 2 2 2 2 2 2 2 2 2 2 2 2 2 2 2 2 2 2 2 2
left_child=3 7 16 4 5 -1 12 8 -2 -9 11 -7 14 -12 -6 -8 17 18 -3 -20 -19
right_child=1 2 -4 -5 6 10 15 9 -10 -11 13 -13 -14 -15 -16 -17 -18 20 19 -21 -22
leaf_value=0.0023945852071772266 -0.0015851298777219995 -0.0043657683711102284 -0.024248501266608411 0.010817434249506959 -0.0020977049008713729 0.019338708022164829 -0.0040454674068334286 -0.013697434789126045 -0.015665131992304834 -0.03242491113192901 0.031549546833572827 0.0010211451254919358 0.011263691471338389 0.01236980329612653 0.0054375255050639736 -0.024446550553466836 0.013218113566493489 -0.028761293263303758 0.016044583451786738 0.00042219808092064837 -0.0076027312489963294
leaf_weight=54 23 72 5.9999999999999991 45 74 8.0000000000000018 9.9999999999999982 32 15.999999999999998 5.9999999999999991 7.0000000000000027 15.999999999999998 15.999999999999998 10.999999999999998 42 4.9999999999999991 4.9999999999999991 4.9999999999999982 6.9999999999999991 34 7
leaf_count=54 23 72 6 45 74 8 10 32 16 6 7 16 16 11 42 5 5 5 7 34 7
internal_value=-0.000297446 -0.00650375 -0.00341246 0.00429156 0.00308179 0.00685945 0.000612648 -0.0119597 -0.00736947 -0.0166625 0.0125926 0.00713988 0.00191943 0.0198458 0.000627903 -0.0108664 -0.00244842 -0.00307755 -0.00165531 0.00309698 -0.0164446
internal_weight=501 213 136 288 243 96 147 77 39 38 42 24 132 18 116 15 130 125 113 41 12
internal_count=501 213 136 288 243 96 147 77 39 38 42 24 132 18 116 15 130 125 113 41 12
is_linear=0
shrinkage=0.00582562


Tree=44
num_leaves=22
num_cat=0
split_feature=2 11 10 11 10 2 8 3 1 11 9 8 3 6 4 13 3 6 11 10 1
split_gain=415.581 104.486 79.3186 66.0917 66.3442 57.4396 81.4811 57.8801 48.1914 54.3456 51.3062 47.3966 39.8945 39.4268 43.2903 37.2254 69.0467 42.4022 41.2039 37.73 35.8874
threshold=19.150000000000006 0.30000000000000127 7.6000000000000023 2.9285714285714293 3.7999999999999994 10.050000000000002 0.025500000000000005 0.8697513045430848 59.750000000000007 -0.10714285714285708 0.90000000000000224 0.036500000000000005 0.9916835347852474 12.65 0.11478523713130602 4.8929403318499682 0.96687895796550427 14.350000000000003 0.7571428571428559 1.0999999999999981 35.400000000000006
decision_type=2 2 2 2 2 2 2 2 2 2 2 2 2 2 2 2 2 2 2 2 2
left_child=3 8 15 4 5 11 -7 -8 9 -2 -10 -1 -9 14 -13 16 17 -3 -19 -18 -5
right_child=1 2 -4 20 -6 6 7 12 10 -11 -12 13 -14 -15 -16 -17 19 18 -20 -21 -22
leaf_value=0.0043563242271175235 -0.0015758956196049016 -0.004340335087925128 -0.0241072387791944 0.0060816577252649313 -0.0053662377218697951 -0.0076395850780291161 0.002258219174188815 0.018017435864874833 -0.013617638785069608 -0.015573872698056854 -0.032236015798313949 -3.5173444169440889e-05 0.0011260164416029934 0.021918663374050986 0.020132330507125561 0.013141110093313969 -0.028593740126439345 0.015951113616830055 0.00041973850713309383 -0.0075584407230583541 0.016579904878434453
