tree
version=v4
num_class=1
num_tree_per_iteration=1
label_index=0
max_feature_idx=10
objective=regression
feature_names=forecast_low day_of_year forecast_precip forecast_wind forecast_radiation forecast_evap lag_low_1d lag_low_2d roll_low_7d_mean roll_low_14d_mean roll_low_7d_std
feature_infos=[-11.199999999999999:78.299999999999997] [1:366] [0:3.3700000000000001] [4.5999999999999996:24.899999999999999] [0.55000000000000004:32.18] [0.0070000000000000001:0.33100000000000002] [-15.5:7.6000000000000014] [-15.5:7.6000000000000014] [-2.7857142857142869:3.4142857142857146] [-1.2214285714285715:2.4428571428571422] [0.34982989063394221:6.7852080011630909]
tree_sizes=869 909 908 907 827 908 830 908 907 909 908 905 906 921 822 829 908 828 913 911 996 896 892 913 820 821 905 904 916 915 916 917 915 906 915 907 906 905 912 743 914 826 911 911 911 902 912 829 910 827 830 906 911 834 832 837 894 904 913 917 910 915 830 1001 907 997 824 826 832 914 805 829 830 830 830 913 831 914 915 876 918 830 832 918 810 904 826 743 825 820 906 814 825 828 827 813 820 909 906 821 910 911 833 912 916 916 999 916 916 1003 999 896 906 914 832 903 817 908 820 833 901 831 902 828 830 916 904 990 829 913 829 895 830 836 836 921 838 827 910 919 897 895 895 899 901 899 896 834 910 834 917 912 1004 914 829 831 815 987 916 830 1001 897 998 916 984 901 916 898 983 912 982 985 913 917 912 830 834 834 831 832 832 831 834 831 834 836 916 838 834 917 919 921 914 1004 990 833 830 833 833 834 828 920 915 910 910 914 1000 913 915 910 910 832 831 831 801 834 800 912 910 915 916 912 912 832 831 910 827 830 916 898 916 898 915 816 814 896 913 909 915 827 916 908 830 900 917 915 829 917 833 832 902 1006 952 936 821 915 911 984 816 907 911 900 918 913 897 826 913 829 914 830 915 837 833 913 915 909 831 898 823 797 916 918 820 987 837 834 904 829 831 914 988 915 915 984 902 902 823 833 918 901 829 907 915 907 911 904 900 833 818 835 915 830 833 835 913 917 834 831 836 914 837 914 918 835 912 833 917 918 919 828 991 912 913 830 917 912 831 899 831 827 906 834 830 830 815 828 829 902 903 915 999 824 830 911 831 916 833 831 832 914 914 832 898 917 917 916 920 999 994 996 915 1000 984 974 992 918 921 998 919 915 922 923 923 922 920 997 832 999 830 996 832 918 834 919 834 916 834 913 913 991 1003 920 995 908 906 830 987 922 918 922 907 920 990 1004 1001 1007 1005 897 1004 1001 831 836 753 836 738 918 905 920 833 920 916 832 914 831 811 798 904 817 732 814 906 833 832 829 833 829 917 918 899 899 898 896 901

Tree=0
num_leaves=9
num_cat=0
split_feature=2 7 6 0 4 4 1 9
split_gain=141.717 106.291 58.8058 28.6907 28.5337 25.4721 18.8489 12.6183
threshold=1.0000000180025095e-35 1.7999999999999987 2.2500000000000004 66.100000000000009 9.1350000000000016 13.200000000000001 166.50000000000003 0.3392857142857148
decision_type=2 2 2 2 2 2 2 2
left_child=2 5 3 4 -1 -2 7 -6
right_child=1 -3 -4 -5 6 -7 -8 -9
leaf_value=0.51760079891828148 0.51046173683172613 0.4688535173564472 0.56872920658192161 0.51226762259918379 0.52642093216571562 0.53933605665436968 0.55568623787061433 0.54755700423070885
leaf_weight=51 79 55 63 49 64 52 87 53
leaf_count=51 79 55 63 49 64 52 87 53
internal_value=0.529012 0.506231 0.540558 0.53472 0.539035 0.521923 0.544393 0.535995
internal_weight=553 186 367 304 255 131 204 117
internal_count=553 186 367 304 255 131 204 117
is_linear=0
shrinkage=1


Tree=1
num_leaves=9
num_cat=0
split_feature=2 3 3 0 9 9 2 5
split_gain=132.782 174.511 47.7873 42.5373 60.2265 34.0914 32.3803 12.9502
threshold=1.0000000180025095e-35 14.750000000000002 9.7500000000000018 51.300000000000004 0.83928571428571441 -0.11785714285714334 0.15200000000000002 0.15250000000000002
decision_type=2 2 2 2 2 2 2 2
left_child=2 6 7 5 -5 -4 -2 -1
right_child=1 -3 3 4 -6 -7 -8 -9
leaf_value=0.018235383751696591 0.011996417495524422 -0.070978886474728997 -0.0034849884211935397 -0.033621182128922213 0.012958549727323833 0.030967440327071664 -0.01977096592302989 0.03845881501117903
leaf_weight=65 78 51 49 56 58 74 57 65
leaf_count=65 78 51 49 56 58 74 57 65
internal_value=0.00156168 -0.02049 0.0127378 0.00417568 -0.00992272 0.0172425 -0.00141648 0.0283471
internal_weight=553 186 367 237 114 123 135 130
internal_count=553 186 367 237 114 123 135 130
is_linear=0
shrinkage=0.0320375


Tree=2
num_leaves=9
num_cat=0
split_feature=3 9 2 0 2 6 3 6
split_gain=124.917 57.0124 54.2938 42.532 27.5797 42.1304 17.62 3.71402
threshold=16.650000000000002 1.1964285714285718 0.15200000000000002 63.500000000000007 1.0000000180025095e-35 0.59999999999999798 10.850000000000003 -1.1500000000000001
decision_type=2 2 2 2 2 2 2 2
left_child=1 2 3 4 5 7 -7 -1
right_child=-2 -3 -4 -5 -6 6 -8 -9
leaf_value=0.0092741988901529748 -0.041732221820217706 0.03056917391291766 -0.028381887034863953 -0.013984967426303264 -0.0067140781619606446 0.046103937803992252 0.020111365910196962 -0.0028366523928737781
leaf_weight=53 61 86 53 81 60 49 59 51
leaf_count=53 61 86 53 81 60 49 59 51
internal_value=0.00151165 0.00687319 0.00185384 0.00639348 0.0124621 0.0178893 0.0319043 0.00333522
internal_weight=553 492 406 353 272 212 108 104
internal_count=553 492 406 353 272 212 108 104
is_linear=0
shrinkage=0.0320375


Tree=3
num_leaves=9
num_cat=0
split_feature=2 3 6 3 0 2 6 4
split_gain=118.58 159.805 53.5175 40.681 43.8312 29.3318 16.9167 9.94968
threshold=1.0000000180025095e-35 14.750000000000002 2.2500000000000004 9.7500000000000018 51.300000000000004 0.15200000000000002 0.59999999999999798 19.570000000000004
decision_type=2 2 2 2 2 2 2 2
left_child=2 5 3 7 6 -2 -5 -1
right_child=1 -3 -4 4 -6 -7 -8 -9
leaf_value=0.011886485632473812 0.011642275975358492 -0.067690581464861552 0.038899214378770738 9.5168183620228744e-05 -0.018801287741267974 -0.018592743064365692 0.025467225942330023 0.031573547205993382
leaf_weight=49 78 51 63 60 89 57 49 57
leaf_count=49 78 51 63 60 89 57 49 57
internal_value=0.00146322 -0.0193759 0.0120247 0.00645533 -0.00211975 -0.00112362 0.011501 0.0224729
internal_weight=553 186 367 304 198 135 109 106
internal_count=553 186 367 304 198 135 109 106
is_linear=0
shrinkage=0.0320375


Tree=4
num_leaves=8
num_cat=0
split_feature=3 9 2 0 7 6 5
split_gain=111.352 52.1238 47.7268 39.0641 26.1809 62.0841 42.7301
threshold=16.650000000000002 1.1964285714285718 0.15200000000000002 63.500000000000007 0.39999999999999952 0.59999999999999798 0.075500000000000012
decision_type=2 2 2 2 2 2 2
left_child=1 2 3 4 5 -1 -6
right_child=-2 -3 -4 -5 6 -7 -8
leaf_value=-0.0010628830752286544 -0.039412170330947661 0.029135724268939213 -0.026669185291280581 -0.013594656866495962 -0.014519635334554798 0.048227445603072933 0.018151070138465925
leaf_weight=51 61 86 53 81 73 54 94
leaf_count=51 61 86 53 81 73 54 94
internal_value=0.00141634 0.00647842 0.00167908 0.00593534 0.0117513 0.0242864 0.00386986
internal_weight=553 492 406 353 272 105 167
internal_count=553 492 406 353 272 105 167
is_linear=0
shrinkage=0.0320375


Tree=5
num_leaves=9
num_cat=0
split_feature=2 3 3 0 8 5 9 5
split_gain=107.371 145.752 38.9982 36.3968 58.1203 31.6841 27.7707 11.488
threshold=1.0000000180025095e-35 14.750000000000002 9.7500000000000018 51.300000000000004 1.0571428571428576 0.081500000000000017 0.86071428571428588 0.15250000000000002
decision_type=2 2 2 2 2 2 2 2
left_child=2 6 7 5 -5 -4 -2 -1
right_child=1 -3 3 4 -6 -7 -8 -9
leaf_value=0.015998188346858427 -0.012528845768848324 -0.064600326412617606 0.0006621475440086647 -0.03030460773777444 0.015623408221636839 0.033270017517104886 0.01733034924471015 0.035045710040996374
leaf_weight=65 83 51 66 62 52 57 52 65
leaf_count=65 83 51 66 62 52 57 52 65
internal_value=0.00137097 -0.0184588 0.0114209 0.00368618 -0.00935499 0.0157731 -0.00102753 0.0255219
internal_weight=553 186 367 237 114 123 135 130
internal_count=553 186 367 237 114 123 135 130
is_linear=0
shrinkage=0.0320375


Tree=6
num_leaves=8
num_cat=0
split_feature=2 3 6 3 0 2 5
split_gain=100.602 136.563 49.4259 35.2305 33.8592 26.0969 21.8665
threshold=1.0000000180025095e-35 14.750000000000002 2.2500000000000004 9.5500000000000025 58.300000000000004 0.15200000000000002 0.098000000000000018
decision_type=2 2 2 2 2 2 2
left_child=2 5 3 -1 6 -2 -5
right_child=1 -3 -4 4 -6 -7 -8
leaf_value=0.021635145724953442 0.011046782134349417 -0.062530692710406913 0.036881759986689786 -0.0043904682660672201 -0.019318204784127848 -0.01747229653391013 0.021539450778343638
leaf_weight=97 78 51 63 71 73 57 63
leaf_count=97 78 51 63 71 73 57 63
internal_value=0.00132705 -0.0178674 0.011055 0.00570277 -0.00176312 -0.000994607 0.00780046
internal_weight=553 186 367 304 207 135 134
internal_count=553 186 367 304 207 135 134
is_linear=0
shrinkage=0.0320375


Tree=7
num_leaves=9
num_cat=0
split_feature=2 3 4 6 0 1 1 5
split_gain=135.745 85.6014 49.6228 43.9142 33.2927 22.4971 20.337 17.0965
threshold=1.0000000180025095e-35 14.250000000000002 9.0400000000000009 1.4500000000000031 64.450000000000017 145.50000000000003 86.500000000000014 0.13850000000000004
decision_type=2 2 2 2 2 2 2 2
left_child=2 3 -1 -2 5 6 -4 -7
right_child=1 -3 4 -5 -6 7 -8 -9
leaf_value=-0.014289804292072427 -0.027989279795874952 -0.059733385585373423 0.025708138419934429 0.011877488702027535 -0.0026591605996920623 0.017233740238243041 -0.0030455408544001164 0.041907684455572018
leaf_weight=68 61 50 50 53 73 49 51 70
leaf_count=68 61 50 50 53 73 49 51 70
internal_value=-0.000613825 -0.0247836 0.0103663 -0.00945473 0.0160886 0.0223094 0.011189 0.0317478
internal_weight=525 164 361 114 293 220 101 119
internal_count=525 164 361 114 293 220 101 119
is_linear=0
shrinkage=0.0320375


Tree=8
num_leaves=9
num_cat=0
split_feature=2 7 4 0 1 1 3 4
split_gain=127.186 111.483 46.4941 31.1936 21.0787 19.0548 18.0037 14.9804
threshold=1.0000000180025095e-35 1.5999999999999974 9.0400000000000009 64.450000000000017 145.50000000000003 86.500000000000014 12.250000000000002 21.060000000000006
decision_type=2 2 2 2 2 2 2 2
left_child=2 6 -1 4 5 -4 -2 -6
right_child=1 -3 3 -5 7 -7 -8 -9
leaf_value=-0.013831994147154619 0.0096029759449616121 -0.058313309003023575 0.02488451356701846 -0.0025739675645219543 0.019267760660947701 -0.0029479694759506582 -0.017186952936434907 0.04200259591469413
leaf_weight=68 52 61 50 73 59 51 51 60
leaf_count=68 52 61 50 73 59 51 51 60
internal_value=-0.00059416 -0.0239896 0.0100342 0.0155732 0.0215947 0.0108305 -0.00366194 0.0307307
internal_weight=525 164 361 293 220 101 103 119
internal_count=525 164 361 293 220 101 103 119
is_linear=0
shrinkage=0.0320375


Tree=9
num_leaves=9
num_cat=0
split_feature=2 7 4 0 1 1 4 5
split_gain=119.167 104.454 43.5628 29.2269 19.7497 17.8534 17.2892 15.1921
threshold=1.0000000180025095e-35 1.5999999999999974 9.0400000000000009 64.450000000000017 145.50000000000003 86.500000000000014 9.5700000000000021 0.13850000000000004
decision_type=2 2 2 2 2 2 2 2
left_child=2 6 -1 4 5 -4 -2 -6
right_child=1 -3 3 -5 7 -7 -8 -9
leaf_value=-0.013388851533779795 0.010234667930611197 -0.056445095651908493 0.024087275100562362 -0.0024915040533958158 0.016064322269063701 -0.002853523713425224 -0.016048048785130699 0.039323459661904904
leaf_weight=68 49 61 50 73 49 51 54 70
leaf_count=68 49 61 50 73 49 51 54 70
internal_value=-0.000575125 -0.023221 0.00971276 0.0150742 0.0209029 0.0104835 -0.00354462 0.0297462
internal_weight=525 164 361 293 220 101 103 119
internal_count=525 164 361 293 220 101 103 119
is_linear=0
shrinkage=0.0320375


Tree=10
num_leaves=9
num_cat=0
split_feature=2 7 4 1 1 0 4 4
split_gain=111.654 97.8682 40.8162 27.7303 41.4683 18.957 18.5998 16.1992
threshold=1.0000000180025095e-35 1.5999999999999974 9.0400000000000009 142.50000000000003 84.500000000000014 58.95000000000001 23.560000000000006 9.5700000000000021
decision_type=2 2 2 2 2 2 2 2
left_child=2 7 -1 4 -4 -5 -7 -2
right_child=1 -3 3 5 -6 6 -8 -9
leaf_value=-0.012959906169297122 0.0099067741055804005 -0.054636735163288951 0.021528642122847358 0.033182086055030258 -0.0201519346330051 -0.00055148402083402383 0.025576809317707651 -0.015533908799003664
leaf_weight=68 49 61 49 83 49 54 58 54
leaf_count=68 49 61 49 83 49 54 58 54
internal_value=-0.000556699 -0.0224771 0.00940159 0.0145913 0.000688354 0.0215784 0.0129792 -0.00343106
internal_weight=525 164 361 293 98 195 112 103
internal_count=525 164 361 293 98 195 112 103
is_linear=0
shrinkage=0.0320375


Tree=11
num_leaves=9
num_cat=0
split_feature=3 5 0 7 3 1 0 9
split_gain=109.567 62.0045 78.6291 47.5037 40.4886 27.2573 26.6706 9.06202
threshold=16.650000000000002 0.13850000000000004 57.150000000000006 0.59999999999999798 10.350000000000003 250.50000000000003 58.95000000000001 0.871428571428572
decision_type=2 2 2 2 2 2 2 2
left_child=1 2 3 5 -5 -1 -3 -8
right_child=-2 6 -4 4 -6 -7 7 -9
leaf_value=0.035656685923326027 -0.042894534687618148 0.034136144904911285 -0.041521052023513409 0.011707959826317782 -0.0252914437539856 0.0025336335510303207 -0.0012341838425601514 0.016677432911953446
leaf_weight=51 56 71 50 51 75 51 49 71
leaf_count=51 56 71 50 51 75 51 49 71
internal_value=-0.000538864 0.00451853 -0.00513705 0.0028419 -0.0103155 0.0190952 0.0185722 0.00936352
internal_weight=525 469 278 228 126 102 191 120
internal_count=525 469 278 228 126 102 191 120
is_linear=0
shrinkage=0.0320375


Tree=12
num_leaves=9
num_cat=0
split_feature=3 5 0 7 3 1 0 7
split_gain=102.659 58.0952 73.6716 44.5087 37.9358 25.5388 24.989 8.56883
threshold=16.650000000000002 0.13850000000000004 57.150000000000006 0.59999999999999798 10.350000000000003 250.50000000000003 58.95000000000001 1.4500000000000031
decision_type=2 2 2 2 2 2 2 2
left_child=1 2 3 5 -5 -1 -3 -8
right_child=-2 6 -4 4 -6 -7 7 -9
leaf_value=0.03451433393709348 -0.041520300572901472 0.033042507890558216 -0.040190820517697422 0.011332866092961514 -0.024481168750869767 0.0024524626581995919 0.00078321677076494275 0.017914918359857125
leaf_weight=51 56 71 50 51 75 51 62 58
leaf_count=51 56 71 50 51 75 51 62 58
internal_value=-0.0005216 0.00437377 -0.00497247 0.00275086 -0.00998501 0.0184834 0.0179772 0.00906354
internal_weight=525 469 278 228 126 102 191 120
internal_count=525 469 278 228 126 102 191 120
is_linear=0
shrinkage=0.0320375


Tree=13
num_leaves=9
num_cat=0
split_feature=2 7 5 1 0 6 3 5
split_gain=98.1852 88.0884 21.8308 38.0582 21.5749 16.1385 15.7713 12.7888
threshold=1.0000000180025095e-35 1.5999999999999974 0.067500000000000018 142.50000000000003 58.95000000000001 -1.0000000180025095e-35 12.250000000000002 0.18950000000000003
decision_type=2 2 2 2 2 2 2 2
left_child=2 6 5 -4 -5 -1 -2 -6
right_child=1 -3 3 4 7 -7 -8 -9
leaf_value=-0.016999775963474198 0.0094239831226543818 -0.051571213402945577 -0.0056890231452719963 0.034898817357170715 0.00033055267406245826 0.0086245191741995877 -0.015650059714844265 0.022153577182122131
leaf_weight=49 52 61 74 74 49 52 51 63
leaf_count=49 52 61 74 74 49 52 51 63
internal_value=-0.000504889 -0.0210607 0.00883347 0.0137438 0.0214752 -0.00380707 -0.00299132 0.012606
internal_weight=525 164 361 260 186 101 103 112
internal_count=525 164 361 260 186 101 103 112
is_linear=0
shrinkage=0.0320375


Tree=14
num_leaves=8
num_cat=0
split_feature=3 4 7 9 3 0 1
split_gain=131.214 86.5979 46.9301 34.2359 41.9935 20.8979 29.288
threshold=17.750000000000004 20.240000000000006 -1.0999999999999976 0.25357142857142939 10.850000000000003 56.650000000000013 189.50000000000003
decision_type=2 2 2 2 2 2 2
left_child=1 2 -1 -4 -5 -3 -7
right_child=-2 5 3 4 -6 6 -8
leaf_value=0.016143232074544784 -0.052784511595535967 0.034469337312261573 0.0027815106673037162 -0.0048358202508115757 -0.036264449189639329 -0.0069273743988276758 0.025176698099626936
leaf_weight=67 49 64 85 80 96 50 70
leaf_count=67 49 64 85 80 96 50 70
internal_value=-0.00269988 0.00209338 -0.00777508 -0.013915 -0.0219787 0.019685 0.0118
internal_weight=561 512 328 261 176 184 120
internal_count=561 512 328 261 176 184 120
is_linear=0
shrinkage=0.0320375


Tree=15
num_leaves=8
num_cat=0
split_feature=4 2 7 10 1 0 5
split_gain=122.059 90.5612 98.4326 52.9161 20.2564 14.34 9.18214
threshold=17.835000000000004 1.0000000180025095e-35 1.5999999999999974 2.6176577001427637 145.50000000000003 67.750000000000014 0.19850000000000004
decision_type=2 2 2 2 2 2 2
left_child=1 3 -3 -1 -2 6 -6
right_child=4 2 -4 -5 5 -7 -8
leaf_value=-0.016994138681533294 0.00051601343342859418 -0.011811544656635293 -0.065281245572409899 0.018268228907628907 0.018653356746759622 0.0074919731271999726 0.037026178406834462
leaf_weight=91 73 84 61 84 59 56 53
leaf_count=91 73 84 61 84 59 56 53
internal_value=-0.00261338 -0.0155821 -0.0343057 -6.82022e-05 0.0146065 0.0207291 0.0273476
internal_weight=561 320 145 175 241 168 112
internal_count=561 320 145 175 241 168 112
is_linear=0
shrinkage=0.0320375


Tree=16
num_leaves=9
num_cat=0
split_feature=3 4 7 3 3 0 1 4
split_gain=121.231 75.7199 42.7654 31.2307 57.0513 20.057 27.3851 18.9598
threshold=17.750000000000004 20.240000000000006 -1.0999999999999976 10.850000000000003 12.750000000000002 56.650000000000013 190.50000000000003 11.330000000000002
decision_type=2 2 2 2 2 2 2 2
left_child=1 2 -1 7 -5 -3 -7 -4
right_child=-2 5 3 4 -6 6 -8 -9
leaf_value=0.015682161302090446 -0.05067128289581304 0.033011144407514521 -0.013723555032120183 -0.046804301645450672 -0.0061959624840066778 -0.0064051774668936277 0.024414709724613858 0.012411274438447455
leaf_weight=67 49 64 56 60 87 53 67 58
leaf_count=67 49 64 56 60 87 53 67 58
internal_value=-0.00252965 0.00207765 -0.0071502 -0.0130114 -0.0227708 0.0185273 0.0108026 -0.000426887
internal_weight=561 512 328 261 147 184 120 114
internal_count=561 512 328 261 147 184 120 114
is_linear=0
shrinkage=0.0320375


Tree=17
num_leaves=8
num_cat=0
split_feature=3 4 8 3 1 0 1
split_gain=113.587 71.2429 53.5433 44.798 54.816 14.2014 33.1524
threshold=17.750000000000004 17.835000000000004 -0.17142857142857126 10.850000000000003 114.50000000000001 56.650000000000013 188.50000000000003
decision_type=2 2 2 2 2 2 2
left_child=1 2 -1 -4 -5 -3 -7
right_child=-2 5 3 4 -6 6 -8
leaf_value=0.01413766412192272 -0.049047900156427029 0.026384667362096586 -2.6115104623511809e-05 -0.0064313952606481614 -0.050044278474658775 -0.0091691352951410923 0.022173404802538405
leaf_weight=78 49 80 91 55 64 58 86
leaf_count=78 49 80 91 55 64 58 86
internal_value=-0.00244861 0.00201109 -0.00852847 -0.0169473 -0.0298871 0.0155619 0.00954933
internal_weight=561 512 288 210 119 224 144
internal_count=561 512 288 210 119 224 144
is_linear=0
shrinkage=0.0320375


Tree=18
num_leaves=9
num_cat=0
split_feature=3 5 4 7 3 6 0 1
split_gain=106.426 68.6542 30.4575 43.6299 22.4527 18.6994 17.8375 24.0548
threshold=17.750000000000004 0.037500000000000006 20.240000000000006 0.39999999999999952 10.850000000000003 0.79999999999999905 56.650000000000013 190.50000000000003
decision_type=2 2 2 2 2 2 2 2
left_child=1 5 3 -3 -5 -1 -4 -8
right_child=-2 2 6 4 -6 -7 7 -9
leaf_value=-0.0080695918662296272 -0.047476528469484719 0.019708194667421828 0.031108250084267635 0.0035944022542618204 -0.021236250637412413 -0.035641302052364876 -0.0059630532973880311 0.022922142064655107
leaf_weight=51 49 76 64 68 83 50 53 67
leaf_count=51 49 76 64 68 83 50 53 67
internal_value=-0.00237016 0.00194666 0.00776229 -8.97209e-05 -0.0100542 -0.021719 0.0174493 0.0101645
internal_weight=561 512 411 227 151 101 184 120
internal_count=561 512 411 227 151 101 184 120
is_linear=0
shrinkage=0.0320375


Tree=19
num_leaves=9
num_cat=0
split_feature=2 7 4 4 0 4 5 4
split_gain=100.534 95.4594 49.6845 39.0093 50.2222 36.2197 13.9678 10.6637
threshold=1.0000000180025095e-35 1.8999999999999997 13.200000000000001 9.0400000000000009 56.650000000000013 24.675000000000004 0.13550000000000004 15.195000000000002
decision_type=2 2 2 2 2 2 2 2
left_child=3 2 -2 -1 6 -6 7 -5
right_child=1 -3 -4 4 5 -7 -8 -9
leaf_value=-0.016284949374158704 -0.021798787652627945 -0.059284322015365334 0.018293166585717047 0.026634932637147373 -0.019334338282848675 0.013286620638454528 0.036318551840902685 0.0070348562672563741
leaf_weight=60 90 50 49 58 67 73 58 56
leaf_count=60 90 50 49 58 67 73 58 56
internal_value=-0.00229423 -0.0213214 -0.00766565 0.00737279 0.0119224 -0.00232484 0.0235189 0.0170068
internal_weight=561 189 139 372 312 140 172 114
internal_count=561 189 139 372 312 140 172 114
is_linear=0
shrinkage=0.0320375


Tree=20
num_leaves=10
num_cat=0
split_feature=3 5 0 5 5 1 6 7 0
split_gain=99.0597 61.3469 27.3783 46.806 37.2443 18.361 17.2888 13.4423 5.70538
threshold=17.750000000000004 0.037500000000000006 56.650000000000013 0.15750000000000003 0.094500000000000015 188.50000000000003 0.79999999999999905 0.79999999999999905 48.250000000000007
decision_type=2 2 2 2 2 2 2 2 2
left_child=1 6 4 -4 7 -5 -1 -3 -6
right_child=-2 2 3 5 8 -7 -8 -9 -10
leaf_value=-0.0073022857216212813 -0.045738126993606007 0.014131290839860887 -0.022311834319221763 -0.0041358686501699249 0.037438863532256381 0.01966241904036227 -0.033813646947415968 -0.009026177545858393 0.02220316864269908
leaf_weight=51 49 50 69 56 49 82 50 53 52
leaf_count=51 49 50 69 56 49 82 50 53 52
internal_value=-0.00222073 0.00194402 0.00744146 -0.000767183 0.0157708 0.0100051 -0.0204267 0.00221531 0.0295947
internal_weight=561 512 411 207 204 138 101 103 101
internal_count=561 512 411 207 204 138 101 103 101
is_linear=0
shrinkage=0.0320375


Tree=21
num_leaves=9
num_cat=0
split_feature=3 7 8 6 0 7 8 7
split_gain=44.8485 49.9202 62.5523 33.4066 18.8148 11.6122 9.97556 7.90764
threshold=10.750000000000002 1.3499999999999999 0.67857142857142916 1.3999999999999997 66.550000000000011 1.7 0.014285714285713652 0.29999999999999899
decision_type=2 2 2 2 2 2 2 2
left_child=4 3 -3 6 5 7 -2 -1
right_child=1 2 -4 -5 -6 -7 -8 -9
leaf_value=0.01955009040011834 0.0065810815080221477 -0.046724863972053818 0.00025889499062601451 0.025909752680156394 -0.0035541031986347604 0.029220913144870533 -0.012946131490428009 0.0032926596936854371
leaf_weight=75 50 52 66 60 49 69 58 52
leaf_count=75 50 52 66 60 49 69 58 52
internal_value=0.00414261 -0.00447497 -0.0204458 0.00674264 0.0142023 0.0186414 -0.00390576 0.0128935
internal_weight=531 286 118 168 245 196 108 127
internal_count=531 286 118 168 245 196 108 127
is_linear=0
shrinkage=0.0320375


Tree=22
num_leaves=9
num_cat=0
split_feature=3 7 8 6 0 7 8 7
split_gain=42.0208 46.7728 58.6084 31.3004 17.6285 10.88 9.34957 7.40908
threshold=10.750000000000002 1.3499999999999999 0.67857142857142916 1.3999999999999997 66.550000000000011 1.7 0.078571428571429014 0.29999999999999899
decision_type=2 2 2 2 2 2 2 2
left_child=4 3 -3 6 5 7 -2 -1
right_child=1 2 -4 -5 -6 -7 -8 -9
leaf_value=0.0189237537042776 0.0060015459036917487 -0.045227916271657155 0.0002506006049764831 0.025079668576618613 -0.0034402382240354269 0.028284747275599969 -0.012864068210177985 0.0031871704939102166
leaf_weight=75 52 52 66 60 49 69 56 52
leaf_count=75 52 52 66 60 49 69 56 52
internal_value=0.00400989 -0.00433161 -0.0197908 0.00652662 0.0137473 0.0180442 -0.00378062 0.0124804
internal_weight=531 286 118 168 245 196 108 127
internal_count=531 286 118 168 245 196 108 127
is_linear=0
shrinkage=0.0320375


Tree=23
num_leaves=9
num_cat=0
split_feature=3 7 8 6 9 9 6 8
split_gain=39.3715 43.8239 54.9133 29.3269 9.51794 12.7932 11.7867 8.77839
threshold=10.750000000000002 1.3499999999999999 0.67857142857142916 1.3999999999999997 0.33214285714285735 1.0821428571428566 0.90000000000000224 0.014285714285713652
decision_type=2 2 2 2 2 2 2 2
left_child=4 3 -3 7 -1 6 -6 -2
right_child=1 2 -4 -5 5 -7 -8 -9
leaf_value=0.023291169786342665 0.0061779649548907222 -0.043778926017582001 0.00024257155306372504 0.024276178569656755 0.013204974133900869 0.020445114301291745 -0.0078662366110757217 -0.012140078467253065
leaf_weight=70 50 52 66 60 54 66 55 58
leaf_count=70 50 52 66 60 54 66 55 58
internal_value=0.00388142 -0.00419283 -0.0191567 0.00631753 0.0133069 0.00931316 0.00257271 -0.0036595
internal_weight=531 286 118 168 245 175 109 108
internal_count=531 286 118 168 245 175 109 108
is_linear=0
shrinkage=0.0320375


Tree=24
num_leaves=8
num_cat=0
split_feature=4 0 1 4 1 9 0
split_gain=38.865 56.137 43.7339 35.3887 20.9554 10.7018 10.2882
threshold=16.330000000000002 52.150000000000013 324.50000000000006 8.3550000000000022 166.50000000000003 1.1964285714285718 63.850000000000001
decision_type=2 2 2 2 2 2 2
left_child=1 2 3 -1 -2 6 -6
right_child=4 -3 -4 -5 5 -7 -8
leaf_value=0.032664431693201969 0.00045510249462421884 -0.030640262242730754 -0.020482103611511867 0.00061772088738392913 0.025391578327855688 0.032091530921682633 0.0060753786809098287
leaf_weight=56 92 65 57 96 49 49 67
leaf_count=56 92 65 57 96 49 49 67
internal_value=0.00375707 -0.00463718 0.0034499 0.0124244 0.0127066 0.0195377 0.0142348
internal_weight=531 274 209 152 257 165 116
internal_count=531 274 209 152 257 165 116
is_linear=0
shrinkage=0.0320375


Tree=25
num_leaves=8
num_cat=0
split_feature=4 0 1 4 1 9 0
split_gain=36.4146 52.5977 40.9765 33.1575 19.6342 10.027 9.63952
threshold=16.330000000000002 52.150000000000013 324.50000000000006 8.3550000000000022 166.50000000000003 1.1964285714285718 63.850000000000001
decision_type=2 2 2 2 2 2 2
left_child=1 2 3 -1 -2 6 -6
right_child=4 -3 -4 -5 5 -7 -8
leaf_value=0.031617944480571439 0.00044052216912084574 -0.029658624146877491 -0.019825907565223906 0.00059793050889023972 0.024578095158676601 0.031063398134165313 0.0058807386653162907
leaf_weight=56 92 65 57 96 49 49 67
leaf_count=56 92 65 57 96 49 49 67
internal_value=0.0036367 -0.00448862 0.00333938 0.0120264 0.0122995 0.0189118 0.0137788
internal_weight=531 274 209 152 257 165 116
internal_count=531 274 209 152 257 165 116
is_linear=0
shrinkage=0.0320375


Tree=26
num_leaves=9
num_cat=0
split_feature=3 1 4 1 4 3 0 1
split_gain=35.3619 48.8302 25.6398 27.5597 19.7975 17.7853 17.3963 5.63771
threshold=11.950000000000001 235.50000000000003 12.385000000000002 143.50000000000003 13.845000000000001 9.4500000000000011 66.65000000000002 169.50000000000003
decision_type=2 2 2 2 2 2 2 2
left_child=4 2 -2 -4 5 -1 7 -6
right_child=1 -3 3 -5 6 -7 -8 -9
leaf_value=0.013972082539770381 0.022280410865163795 -0.030537213310061068 -0.022207563344451984 0.011277963629651205 0.014791657540329291 -0.010998201212870097 0.0014505470294101873 0.027713150648805654
leaf_weight=52 49 62 52 49 59 67 57 84
leaf_count=52 49 62 52 49 59 67 57 84
internal_value=0.00352019 -0.00662142 0.00326378 -0.00596211 0.0102601 -8.68167e-05 0.0164165 0.0223819
internal_weight=531 212 150 101 319 119 200 143
internal_count=531 212 150 101 319 119 200 143
is_linear=0
shrinkage=0.0320375


Tree=27
num_leaves=9
num_cat=0
split_feature=3 4 0 9 1 0 1 0
split_gain=33.2069 34.2857 35.0623 27.7975 17.1407 16.0428 6.1762 8.89398
threshold=10.750000000000002 17.700000000000006 49.70000000000001 0.3035714285714281 167.50000000000003 66.550000000000011 284.50000000000006 49.350000000000001
decision_type=2 2 2 2 2 2 2 2
left_child=5 2 3 -2 -3 6 7 -1
right_child=1 4 -4 -5 -6 -7 -8 -9
leaf_value=0.029638158141676526 -0.016173410852853454 -0.0038304715990773804 -0.035798413340241683 0.014401944412642762 0.021568057936457632 -0.0043327232527974749 0.0063123058667312023 0.013353057035621263
leaf_weight=55 76 50 49 51 60 49 49 92
leaf_count=55 76 50 49 51 60 49 49 92
internal_value=0.00340741 -0.00400784 -0.0127773 -0.00389512 0.0100233 0.0120636 0.0161627 0.0194461
internal_weight=531 286 176 127 110 245 196 147
internal_count=531 286 176 127 110 245 196 147
is_linear=0
shrinkage=0.0320375


Tree=28
num_leaves=9
num_cat=0
split_feature=2 5 7 0 6 3 7 4
split_gain=35.3119 36.7728 47.5046 34.1109 36.8062 24.9132 22.4661 10.5789
threshold=1.0000000180025095e-35 0.095500000000000015 1.4500000000000031 56.650000000000013 1.4500000000000031 9.6500000000000004 -0.15000000000000033 13.915000000000001
decision_type=2 2 2 2 2 2 2 2
left_child=3 2 -2 4 6 -5 -1 -8
right_child=1 -3 -4 5 -6 -7 7 -9
leaf_value=0.025110449790404405 -0.00021353035062107411 0.010972267374225768 -0.040767731191479431 0.014894010251123319 0.036757602051621728 -0.012994761920789849 -0.011634732611320791 0.0094174421170616449
leaf_weight=51 63 63 56 50 65 96 49 49
leaf_count=51 63 63 56 50 65 96 49 49
internal_value=0.00268126 -0.00881974 -0.0192979 0.00849565 0.0166413 -0.00344381 0.00786568 -0.00110865
internal_weight=542 182 119 360 214 146 149 98
internal_count=542 182 119 360 214 146 149 98
is_linear=0
shrinkage=0.0320375


Tree=29
num_leaves=9
num_cat=0
split_feature=2 5 7 10 8 5 6 7
split_gain=33.0855 34.4543 44.5095 23.0539 23.8736 23.918 14.6512 22.1297
threshold=1.0000000180025095e-35 0.095500000000000015 1.4500000000000031 1.1033496190869601 1.0714285714285723 0.20050000000000004 1.4500000000000031 -0.15000000000000033
decision_type=2 2 2 2 2 2 2 2
left_child=3 2 -2 -1 5 6 7 -5
right_child=1 -3 -4 4 -6 -7 -8 -9
leaf_value=-0.012201517492935677 -0.00020668991089372026 0.010620743393955384 -0.039461633791164026 0.02325150839793225 0.028221322145839393 -0.012756238991238431 0.025378141578523271 -0.0037813517276881628
leaf_weight=49 63 63 56 49 68 51 58 85
leaf_count=49 63 63 56 49 68 51 58 85
internal_value=0.00259536 -0.00853718 -0.0186796 0.00822347 0.0114416 0.00674598 0.0119263 0.0061038
internal_weight=542 182 119 360 311 243 192 134
internal_count=542 182 119 360 311 243 192 134
is_linear=0
shrinkage=0.0320375


Tree=30
num_leaves=9
num_cat=0
split_feature=2 0 6 8 9 8 7 4
split_gain=30.9996 31.6114 33.3699 29.1327 47.0109 27.1997 19.9424 9.94123
threshold=1.0000000180025095e-35 56.650000000000013 1.4500000000000031 0.85000000000000042 0.26428571428571396 0.88571428571428579 -0.15000000000000033 13.915000000000001
decision_type=2 2 2 2 2 2 2 2
left_child=1 2 6 4 -2 -3 -1 -8
right_child=3 5 -4 -5 -6 -7 7 -9
leaf_value=0.023692950980973335 0.0038987616152891002 -0.020325531540245412 0.034955772073562243 0.0079497213666424212 -0.037720057503095046 0.0078538815728884971 -0.011213525929626125 0.0091942639896675973
leaf_weight=51 52 59 65 70 60 87 49 49
leaf_count=51 52 59 65 70 60 87 49 49
internal_value=0.00251221 0.00796001 0.0158015 -0.00826367 -0.018397 -0.00353369 0.00744562 -0.00100963
internal_weight=542 360 214 182 112 146 149 98
internal_count=542 360 214 182 112 146 149 98
is_linear=0
shrinkage=0.0320375


Tree=31
num_leaves=9
num_cat=0
split_feature=2 5 7 0 6 8 7 4
split_gain=29.0451 32.1034 41.3444 29.6183 31.2659 25.4848 18.685 9.31445
threshold=1.0000000180025095e-35 0.095500000000000015 1.4500000000000031 56.650000000000013 1.4500000000000031 0.88571428571428579 -0.15000000000000033 13.915000000000001
decision_type=2 2 2 2 2 2 2 2
left_child=3 2 -2 4 6 -5 -1 -8
right_child=1 -3 -4 5 -6 -7 7 -9
leaf_value=0.022933888009730171 1.4785634895553411e-05 0.010493838502898976 -0.037818690666611345 -0.019674352059210344 0.033835875239276114 0.0076022626596229867 -0.010854273057821792 0.0088997027026630326
leaf_weight=51 63 63 56 59 65 87 49 49
leaf_count=51 63 63 56 59 65 87 49 49
internal_value=0.00243172 -0.00799892 -0.0177892 0.00770499 0.0152953 -0.00342048 0.00720708 -0.000977285
internal_weight=542 182 119 360 214 146 149 98
internal_count=542 182 119 360 214 146 149 98
is_linear=0
shrinkage=0.0320375


Tree=32
num_leaves=9
num_cat=0
split_feature=2 5 7 10 8 8 1 7
split_gain=27.2138 30.0793 38.7377 21.5819 21.7022 21.9228 13.2207 11.2642
threshold=1.0000000180025095e-35 0.095500000000000015 1.4500000000000031 1.1033496190869601 1.0714285714285723 0.62142857142857111 242.50000000000003 0.79999999999999905
decision_type=2 2 2 2 2 2 2 2
left_child=3 2 -2 -1 5 6 7 -5
right_child=1 -3 -4 4 -6 -7 -8 -9
leaf_value=-0.012304006381453033 1.4311951771832538e-05 0.010157642141694545 -0.036607072439033751 0.014150907319810916 0.02657027921488293 -0.010898795013357486 0.023303105138421824 -0.0055792888120919397
leaf_weight=49 63 63 56 66 68 59 64 54
leaf_count=49 63 63 56 66 68 59 64 54
internal_value=0.00235382 -0.00774265 -0.0172193 0.00745814 0.0105718 0.00609485 0.0115439 0.00527232
internal_weight=542 182 119 360 311 243 184 120
internal_count=542 182 119 360 311 243 184 120
is_linear=0
shrinkage=0.0320375


Tree=33
num_leaves=9
num_cat=0
split_feature=8 0 4 7 6 6 10 4
split_gain=26.6062 52.9671 38.3636 55.6946 21.6478 18.9181 15.6757 10.3397
threshold=0.87857142857142823 59.250000000000007 9.9050000000000029 1.0999999999999972 2.3500000000000001 0.84999999999999976 3.6958470586368435 20.425000000000001
decision_type=2 2 2 2 2 2 2 2
left_child=1 2 3 -1 5 -2 7 -4
right_child=4 -3 6 -5 -6 -7 -8 -9
leaf_value=0.011135778710039622 0.021789170720967768 -0.025725446615134873 -0.0020205170420888622 -0.034714257305749875 0.0301731046715394 -0.0026333396877581145 0.029031377669795549 0.017859867957215572
leaf_weight=57 49 81 58 52 49 97 49 50
leaf_count=57 49 81 58 52 49 97 49 50
internal_value=0.0022784 -0.00304272 0.00386443 -0.0107376 0.0117473 0.00556326 0.0140022 0.00718336
internal_weight=542 347 266 109 195 146 157 108
internal_count=542 347 266 109 195 146 157 108
is_linear=0
shrinkage=0.0320375


Tree=34
num_leaves=9
num_cat=0
split_feature=2 5 7 0 6 3 7 1
split_gain=24.9343 28.2502 35.164 26.6627 29.0335 22.4737 16.6109 8.69646
threshold=1.0000000180025095e-35 0.095500000000000015 1.4500000000000031 56.650000000000013 1.4500000000000031 9.6500000000000004 -0.15000000000000033 136.50000000000003
decision_type=2 2 2 2 2 2 2 2
left_child=3 2 -2 4 6 -5 -1 -8
right_child=1 -3 -4 5 -6 -7 7 -9
leaf_value=0.021327044011952796 -0.00022350508209041911 0.0098885506304628168 -0.035114787134246303 0.013952386361285037 0.032159326177061583 -0.012535765634393592 -0.010761650848048419 0.0083257610393531589
leaf_weight=51 63 63 56 50 65 96 49 49
leaf_count=51 63 63 56 50 65 96 49 49
internal_value=0.00220541 -0.00745896 -0.0166429 0.00709129 0.0142929 -0.00346448 0.0064988 -0.00121794
internal_weight=542 182 119 360 214 146 149 98
internal_count=542 182 119 360 214 146 149 98
is_linear=0
shrinkage=0.0320375


Tree=35
num_leaves=9
num_cat=0
split_feature=4 3 6 10 7 9 9 8
split_gain=65.6661 68.1864 81.6567 62.6986 27.34 20.0553 13.5908 13.0303
threshold=17.835000000000004 10.750000000000002 0.54999999999999727 2.5305725448592926 2.0999999999999983 0.45357142857142857 0.34285714285714297 0.9428571428571435
decision_type=2 2 2 2 2 2 2 2
left_child=1 6 -3 -4 5 -2 -1 -7
right_child=4 2 3 -5 -6 7 -8 -9
leaf_value=0.018910735832707807 -0.01140836410026364 0.0035659256934207459 -0.062212803715825105 -0.014331588481927263 0.03028136726960054 0.022406035712112329 -0.0032181199126989587 0.0012888359200492992
leaf_weight=52 57 66 64 50 54 59 63 61
leaf_count=52 57 66 64 50 54 59 63 61
internal_value=-0.00246528 -0.0124821 -0.0247936 -0.0412123 0.0103268 0.00423897 0.00678797 0.0116715
internal_weight=526 295 180 114 231 177 115 120
internal_count=526 295 180 114 231 177 115 120
is_linear=0
shrinkage=0.0320375


Tree=36
num_leaves=9
num_cat=0
split_feature=4 3 6 10 7 9 9 8
split_gain=61.5259 63.8874 76.5084 58.7455 25.6409 19.0383 12.734 12.1793
threshold=17.835000000000004 10.750000000000002 0.54999999999999727 2.5305725448592926 2.200000000000002 0.45357142857142857 0.34285714285714297 0.9428571428571435
decision_type=2 2 2 2 2 2 2 2
left_child=1 6 -3 -4 5 -2 -1 -7
right_child=4 2 3 -5 -6 7 -8 -9
leaf_value=0.018304882829616911 -0.011042868444284842 0.003451682385465578 -0.060219660460516647 -0.013872440577082094 0.029799581132794118 0.02167456689568753 -0.0031150192136105764 0.0014267449026363456
leaf_weight=52 57 66 64 50 52 60 63 62
leaf_count=52 57 66 64 50 52 60 63 62
internal_value=-0.0023863 -0.0120822 -0.0239993 -0.0398919 0.00999596 0.00424295 0.0065705 0.0113847
internal_weight=526 295 180 114 231 179 115 122
internal_count=526 295 180 114 231 179 115 122
is_linear=0
shrinkage=0.0320375


Tree=37
num_leaves=9
num_cat=0
split_feature=4 3 6 10 7 9 9 8
split_gain=57.6468 59.8594 71.6846 55.0417 24.0243 17.838 11.9311 11.4114
threshold=17.835000000000004 10.750000000000002 0.54999999999999727 2.5305725448592926 2.200000000000002 0.45357142857142857 0.34285714285714297 0.9428571428571435
decision_type=2 2 2 2 2 2 2 2
left_child=1 6 -3 -4 5 -2 -1 -7
right_child=4 2 3 -5 -6 7 -8 -9
leaf_value=0.017718439874887394 -0.010689082081724253 0.0033410991892255898 -0.058290372140256563 -0.013428001060751264 0.028844876749543211 0.020980167542732461 -0.0030152221322571515 0.0013810353709679867
leaf_weight=52 57 66 64 50 52 60 63 62
leaf_count=52 57 66 64 50 52 60 63 62
internal_value=-0.00230985 -0.0116952 -0.0232304 -0.0386139 0.00967571 0.00410702 0.00636 0.01102
internal_weight=526 295 180 114 231 179 115 122
internal_count=526 295 180 114 231 179 115 122
is_linear=0
shrinkage=0.0320375


Tree=38
num_leaves=9
num_cat=0
split_feature=4 3 6 10 7 9 9 8
split_gain=54.0122 56.0853 67.165 51.5827 22.5485 16.0405 11.1789 11.0137
threshold=17.835000000000004 10.750000000000002 0.54999999999999727 2.5727942484852884 2.0499999999999976 0.45357142857142857 0.34285714285714297 0.9428571428571435
decision_type=2 2 2 2 2 2 2 2
left_child=1 6 -3 -4 5 -2 -1 -7
right_child=4 2 3 -5 -6 7 -8 -9
leaf_value=0.017150784756011197 -0.010346630739911268 0.0032340582529375513 -0.056087924770695269 -0.012555922571483627 0.026652774985938009 0.020280236623078825 -0.0029186212980643637 0.00053666706934131611
leaf_weight=52 57 66 65 49 58 58 63 58
leaf_count=52 57 66 65 49 58 58 63 58
internal_value=-0.00223585 -0.0113205 -0.0224862 -0.0373768 0.00936573 0.00357007 0.00615624 0.0104085
internal_weight=526 295 180 114 231 173 115 116
internal_count=526 295 180 114 231 173 115 116
is_linear=0
shrinkage=0.0320375


Tree=39
num_leaves=7
num_cat=0
split_feature=4 3 10 7 1 9
split_gain=50.6068 52.5492 59.3373 21.1859 15.8021 10.474
threshold=17.835000000000004 10.750000000000002 2.5915135218707968 2.200000000000002 178.50000000000003 0.34285714285714297
decision_type=2 2 2 2 2 2
left_child=1 5 -3 4 -2 -1
right_child=3 2 -4 -5 -6 -7
leaf_value=0.016601316727243277 -0.0062867799698409638 -0.03955692602903902 -0.0027475992266494179 0.027066869903991365 0.012787189815840835 -0.002825116154720394
leaf_weight=52 84 93 87 52 95 63
leaf_count=52 84 93 87 52 95 63
internal_value=-0.00216422 -0.0109578 -0.0217658 0.00906567 0.00383628 0.00595901
internal_weight=526 295 180 231 179 115
internal_count=526 295 180 231 179 115
is_linear=0
shrinkage=0.0320375


Tree=40
num_leaves=9
num_cat=0
split_feature=4 3 6 10 7 9 8 9
split_gain=47.4161 49.2361 62.2906 45.8069 19.8628 14.6021 10.3534 9.81367
threshold=17.835000000000004 10.750000000000002 0.54999999999999727 2.5305725448592926 2.0499999999999976 0.45357142857142857 0.9428571428571435 0.34285714285714297
decision_type=2 2 2 2 2 2 2 2
left_child=1 7 -3 -4 5 -2 -7 -1
right_child=4 2 3 -5 -6 6 -8 -9
leaf_value=0.016069451791871327 -0.0099423864649850948 0.0037009063836738868 -0.053358669198424039 -0.012432450542106415 0.025000128357118644 0.019431556428195742 0.00028891449810936303 -0.0027346065380603073
leaf_weight=52 57 66 64 50 58 58 58 63
leaf_count=52 57 66 64 50 58 58 58 63
internal_value=-0.00209488 -0.0106067 -0.0210684 -0.0354086 0.00877523 0.00333567 0.00986024 0.0057681
internal_weight=526 295 180 114 231 173 116 115
internal_count=526 295 180 114 231 173 116 115
is_linear=0
shrinkage=0.0320375


Tree=41
num_leaves=8
num_cat=0
split_feature=4 3 6 10 7 1 4
split_gain=44.4266 46.1318 58.3633 42.9188 18.6835 14.5079 9.43917
threshold=17.835000000000004 10.750000000000002 0.54999999999999727 2.5305725448592926 2.200000000000002 188.50000000000003 9.1350000000000016
decision_type=2 2 2 2 2 2 2
left_child=1 6 -3 -4 5 -2 -1
right_child=4 2 3 -5 -6 -7 -8
leaf_value=-0.0041720939595190996 -0.0049932999957231373 0.0035823380288472458 -0.051649191001360978 -0.012034145876576205 0.025398772606816427 0.013282898521603727 0.014219227530581427
leaf_weight=54 95 66 64 50 52 84 61
leaf_count=54 95 66 64 50 52 84 61
internal_value=-0.00202777 -0.0102669 -0.0203935 -0.0342742 0.0084941 0.00358324 0.0055833
internal_weight=526 295 180 114 231 179 115
internal_count=526 295 180 114 231 179 115
is_linear=0
shrinkage=0.0320375


Tree=42
num_leaves=9
num_cat=0
split_feature=7 3 4 9 10 7 1 1
split_gain=66.3758 60.3002 54.0458 35.1541 23.3121 20.0568 11.3785 11.2609
threshold=1.2500000000000002 10.450000000000001 16.585000000000004 1.0000000180025095e-35 1.1978146637541356 0.4500000000000029 195.50000000000003 156.50000000000003
decision_type=2 2 2 2 2 2 2 2
left_child=3 6 -3 -1 -5 7 -2 -6
right_child=1 2 -4 4 5 -7 -8 -9
leaf_value=-0.010388462771683295 -0.0067789304036626761 -0.043870104641170769 -0.0034735162614945104 -0.0058473934089440724 0.037924092183038653 0.0047329957581394378 0.015054303687160986 0.018017297076097748
leaf_weight=89 49 89 55 52 50 70 49 70
leaf_count=89 49 89 55 52 50 70 49 70
internal_value=-0.00249547 -0.0152479 -0.0284409 0.00682806 0.0131598 0.0183617 0.00413769 0.0263118
internal_weight=573 242 144 331 242 190 98 120
internal_count=573 242 144 331 242 190 98 120
is_linear=0
shrinkage=0.0320375


Tree=43
num_leaves=9
num_cat=0
split_feature=7 3 6 9 7 0 0 1
split_gain=62.1909 56.4983 50.7179 32.9377 21.8341 15.1946 11.8472 10.6611
threshold=1.2500000000000002 10.450000000000001 0.75000000000000011 1.0000000180025095e-35 -1.0999999999999976 47.650000000000013 64.100000000000009 195.50000000000003
decision_type=2 2 2 2 2 2 2 2
left_child=3 7 -3 -1 -5 -6 -7 -2
right_child=1 2 -4 4 5 6 -8 -9
leaf_value=-0.010055641858090212 -0.006561750015179185 -0.0014599055250316734 -0.041396578442575493 0.029498319936716005 0.021098253542090703 -0.0083251493828828942 0.011344842078505963 0.014572000991497911
leaf_weight=89 49 50 94 60 56 66 60 49
leaf_count=89 49 50 94 60 56 66 60 49
internal_value=-0.00241552 -0.0147594 -0.0275297 0.0066093 0.0127381 0.00721282 0.00104151 0.00400513
internal_weight=573 242 144 331 242 182 126 98
internal_count=573 242 144 331 242 182 126 98
is_linear=0
shrinkage=0.0320375


Tree=44
num_leaves=9
num_cat=0
split_feature=3 10 10 6 4 9 3 6
split_gain=53.6143 49.4802 37.6522 23.2634 26.2515 43.6735 47.2582 16.1336
threshold=16.750000000000004 1.1107697061151545 4.0259259229870343 2.4500000000000033 17.835000000000004 0.2714285714285718 10.850000000000003 0.84999999999999976
decision_type=2 2 2 2 2 2 2 2
left_child=1 -1 3 4 5 -3 -7 -6
right_child=-2 2 -4 -5 7 6 -8 -9
leaf_value=-0.023132816425176492 -0.033357934470402091 0.015700155600524724 -0.019723376100289212 0.027282244945481853 0.0047451560617917483 0.0030616364752394749 -0.039188744285477188 0.026118880584941169
leaf_weight=76 52 77 56 57 73 61 49 72
leaf_count=76 52 77 56 57 73 61 49 72
internal_value=-0.00233813 0.000757896 0.00483811 0.00837395 0.00512765 -0.00280522 -0.015759 0.0153583
internal_weight=573 521 445 389 332 187 110 145
internal_count=573 521 445 389 332 187 110 145
is_linear=0
shrinkage=0.0320375


Tree=45
num_leaves=9
num_cat=0
split_feature=7 4 7 9 7 4 0 0
split_gain=57.8979 51.6128 42.5641 30.8026 20.1626 17.1523 14.3524 11.0195
threshold=1.2500000000000002 8.8750000000000018 1.8499999999999999 1.0000000180025095e-35 -1.0999999999999976 21.605 47.650000000000013 64.100000000000009
decision_type=2 2 2 2 2 2 2 2
left_child=3 -2 -3 -1 -5 -4 -6 -8
right_child=1 2 5 4 6 -7 7 -9
leaf_value=-0.0096712265748955077 -0.035831828166172759 -0.024770839073653902 -0.0039102369252403263 0.028477294893372505 0.020556898453496102 0.02238545195295619 -0.0079695827054363077 0.011000837828291371
leaf_weight=89 77 63 53 60 56 49 66 60
leaf_count=89 77 63 53 60 56 49 66 60
internal_value=-0.00226322 -0.0141734 -0.00406617 0.00644454 0.0123714 0.00872201 0.00706178 0.00106395
internal_weight=573 242 165 331 242 102 182 126
internal_count=573 242 165 331 242 102 182 126
is_linear=0
shrinkage=0.0320375


Tree=46
num_leaves=9
num_cat=0
split_feature=7 3 6 9 10 7 1 1
split_gain=54.2475 50.6773 47.8926 28.8605 19.3668 17.3687 10.7648 10.1201
threshold=1.2500000000000002 10.450000000000001 0.75000000000000011 1.0000000180025095e-35 1.1978146637541356 0.4500000000000029 156.50000000000003 195.50000000000003
decision_type=2 2 2 2 2 2 2 2
left_child=3 7 -3 -1 -5 6 -6 -2
right_child=1 2 -4 4 5 -7 -8 -9
leaf_value=-0.0093613843149990498 -0.0062430508931257877 -0.00048064977950770858 -0.03928902474429221 -0.0053492206981389694 0.035468249293580424 0.004033876955916945 0.016004869668332103 0.014347529752450287
leaf_weight=89 49 50 94 52 50 70 70 49
leaf_count=89 49 50 94 52 50 70 70 49
internal_value=-0.00219071 -0.0137193 -0.0258139 0.00623807 0.0119751 0.0167164 0.0241146 0.00405224
internal_weight=573 242 144 331 242 190 120 98
internal_count=573 242 144 331 242 190 120 98
is_linear=0
shrinkage=0.0320375


Tree=47
num_leaves=8
num_cat=0
split_feature=7 4 7 9 0 5 4
split_gain=50.8273 47.833 39.9595 27.0409 18.1967 20.1338 10.9547
threshold=1.2500000000000002 8.8750000000000018 1.8999999999999997 1.0000000180025095e-35 47.650000000000013 0.14350000000000002 25.695000000000004
decision_type=2 2 2 2 2 2 2
left_child=3 -2 -3 -1 -5 -6 -7
right_child=1 2 -4 4 5 6 -8
leaf_value=-0.0090614689365849273 -0.034130074496137829 -0.022380029768727331 0.0096509642116368761 0.02364001850804081 -0.011622349707845996 0.022266033887001224 0.0017710538613202095
leaf_weight=89 77 68 97 84 50 59 49
leaf_count=89 77 68 97 84 50 59 49
internal_value=-0.00212053 -0.0132798 -0.00354969 0.00603822 0.0115914 0.00518582 0.0129674
internal_weight=573 242 165 331 242 158 108
internal_count=573 242 165 331 242 158 108
is_linear=0
shrinkage=0.0320375


Tree=48
num_leaves=9
num_cat=0
split_feature=7 4 0 1 10 1 4 10
split_gain=47.661 45.3455 58.1985 24.2506 29.7442 21.4934 15.9642 14.1469
threshold=0.59999999999999798 17.835000000000004 50.650000000000013 118.50000000000001 2.7928053093497294 163.50000000000003 9.9050000000000029 1.7791777292474908
decision_type=2 2 2 2 2 2 2 2
left_child=3 2 6 -1 7 -3 -2 -5
right_child=1 5 -4 4 -6 -7 -8 -9
leaf_value=0.026249866739139087 -0.016711322575418956 -0.012093854060264725 -0.047038119551581339 0.0020887496966921879 -0.018037353603795731 0.012742302327050209 0.0061522220086871974 0.024811900845348872
leaf_weight=63 87 57 57 66 49 96 49 49
leaf_count=63 87 57 57 66 49 96 49 49
internal_value=-0.00205259 -0.00953667 -0.0198632 0.00935485 0.0028647 0.00348962 -0.00847372 0.0117708
internal_weight=573 346 193 227 164 153 136 115
internal_count=573 346 193 227 164 153 136 115
is_linear=0
shrinkage=0.0320375


Tree=49
num_leaves=8
num_cat=0
split_feature=10 7 4 1 6 1 3
split_gain=44.3593 37.3389 29.2755 27.1322 24.5537 20.7441 12.0088
threshold=1.1107697061151545 0.65000000000000047 6.1250000000000009 205.50000000000003 1.1500000000000006 138.50000000000003 11.550000000000002
decision_type=2 2 2 2 2 2 2
left_child=-1 3 -3 4 -2 -4 -7
right_child=1 2 5 -5 -6 6 -8
leaf_value=-0.023619858139982127 0.0094277405162146149 -0.025525038441480876 -0.010646100202434797 0.0005500466977403644 0.039472055643352599 0.017421735725329211 -0.002471905793430252
leaf_weight=67 53 50 85 77 59 80 51
leaf_count=67 53 50 85 77 59 80 51
internal_value=0.000718096 0.00430193 -0.00343421 0.0151898 0.0252547 0.00167941 0.00967688
internal_weight=522 455 266 189 112 216 131
internal_count=522 455 266 189 112 216 131
is_linear=0
shrinkage=0.0320375


Tree=50
num_leaves=8
num_cat=0
split_feature=10 7 5 6 0 3 0
split_gain=41.5625 34.9847 41.5072 24.4852 24.2031 42.6746 12.0905
threshold=1.1107697061151545 0.65000000000000047 0.037500000000000006 0.59999999999999798 44.050000000000004 11.550000000000002 47.650000000000013
decision_type=2 2 2 2 2 2 2
left_child=-1 3 -3 -2 -4 -6 -5
right_child=1 2 4 6 5 -7 -8
leaf_value=-0.022863136496657738 -0.00085728862155438998 -0.026773897437481878 0.021701486724486387 0.032386529593213947 0.012711215003831268 -0.021442698935774506 0.012117095678245598
leaf_weight=67 67 60 55 67 81 70 55
leaf_count=67 67 60 55 67 81 70 55
internal_value=0.000695089 0.0041641 -0.00332418 0.0147032 0.00350583 -0.00312173 0.0232487
internal_weight=522 455 266 189 206 151 122
internal_count=522 455 266 189 206 151 122
is_linear=0
shrinkage=0.0320375


Tree=51
num_leaves=9
num_cat=0
split_feature=10 3 7 5 7 10 1 5
split_gain=38.942 33.7886 19.2073 31.5196 23.5727 11.6534 18.4304 6.61741
threshold=1.1107697061151545 17.050000000000004 0.39999999999999952 0.037500000000000006 1.4500000000000031 1.7596662282365414 199.50000000000003 0.12350000000000001
decision_type=2 2 2 2 2 2 2 2
left_child=-1 2 5 -4 -5 -2 -7 -6
right_child=1 -3 3 4 7 6 -8 -9
leaf_value=-0.022130658453249359 0.0032800984339110095 -0.019760361165807639 -0.018270507108854753 -0.006125126336204257 0.026170079150184895 0.034960381781859097 0.00794170362415203 0.01062898321835944
leaf_weight=67 49 54 61 72 49 55 49 66
leaf_count=67 49 54 61 72 49 55 49 66
internal_value=0.000672821 0.0040307 0.00723448 0.00172716 0.00825047 0.0161614 0.0222304 0.0172508
internal_weight=522 455 401 248 187 153 104 115
internal_count=522 455 401 248 187 153 104 115
is_linear=0
shrinkage=0.0320375


Tree=52
num_leaves=9
num_cat=0
split_feature=10 3 7 5 7 6 5 1
split_gain=36.4868 31.6583 17.9963 29.5324 22.0865 19.2323 6.20019 4.05826
threshold=1.1107697061151545 17.050000000000004 0.39999999999999952 0.037500000000000006 1.4500000000000031 0.59999999999999798 0.12350000000000001 182.50000000000003
decision_type=2 2 2 2 2 2 2 2
left_child=-1 2 5 -4 -5 -2 -6 -7
right_child=1 -3 3 4 6 7 -8 -9
leaf_value=-0.021421646669791069 -0.00042001657118566636 -0.019127288247106744 -0.017685165634496625 -0.0059288924552729312 0.025331655079985842 0.029819934872372156 0.010288457120838866 0.01702928094758703
leaf_weight=67 51 54 61 72 49 53 66 49
leaf_count=67 51 54 61 72 49 53 66 49
internal_value=0.000651265 0.00390156 0.0070027 0.00167183 0.00798614 0.0156436 0.0166982 0.0236754
internal_weight=522 455 401 248 187 153 115 102
internal_count=522 455 401 248 187 153 115 102
is_linear=0
shrinkage=0.0320375


Tree=53
num_leaves=8
num_cat=0
split_feature=7 3 10 5 10 8 9
split_gain=34.7218 39.9027 28.8459 22.7445 17.0201 13.8257 6.67864
threshold=-1.0999999999999976 17.050000000000004 1.1107697061151545 0.037500000000000006 1.919448840808945 0.057142857142857405 0.78571428571428614
decision_type=2 2 2 2 2 2 2
left_child=-1 2 -2 -4 6 -6 -5
right_child=1 -3 3 4 5 -7 -8
leaf_value=0.018980066329232437 -0.019595822450269248 -0.030011550234405954 -0.011050826850701932 -0.0091661512361895219 0.0037362582679117263 0.02414499527557953 0.0071506342136512932
leaf_weight=88 62 50 76 51 56 87 52
leaf_count=88 62 50 76 51 56 87 52
internal_value=0.0006304 -0.00309027 0.000415105 0.00426814 0.00900083 0.0161528 -0.000928551
internal_weight=522 434 384 322 246 143 103
internal_count=522 434 384 322 246 143 103
is_linear=0
shrinkage=0.0320375


Tree=54
num_leaves=8
num_cat=0
split_feature=7 3 10 5 10 1 9
split_gain=32.5326 37.3869 27.0272 21.3105 15.947 8.39528 6.25756
threshold=-1.0999999999999976 17.050000000000004 1.1107697061151545 0.037500000000000006 1.919448840808945 166.50000000000003 0.78571428571428614
decision_type=2 2 2 2 2 2 2
left_child=-1 2 -2 -4 6 -6 -5
right_child=1 -3 3 4 5 -7 -8
leaf_value=0.018371992374681345 -0.018968020114867069 -0.02905005397263857 -0.010696785136069444 -0.0088724904499079531 0.0073677004014703331 0.022923782338816683 0.0069215456656865149
leaf_weight=88 62 50 76 51 67 76 52
leaf_count=88 62 50 76 51 67 76 52
internal_value=0.000610204 -0.00299126 0.000401807 0.0041314 0.00871247 0.0156353 -0.000898802
internal_weight=522 434 384 322 246 143 103
internal_count=522 434 384 322 246 143 103
is_linear=0
shrinkage=0.0320375


Tree=55
num_leaves=8
num_cat=0
split_feature=7 3 10 5 10 8 9
split_gain=30.4815 35.0297 25.3232 19.9669 14.9416 12.8437 5.86303
threshold=-1.0999999999999976 17.050000000000004 1.1107697061151545 0.037500000000000006 1.919448840808945 0.057142857142857405 0.78571428571428614
decision_type=2 2 2 2 2 2 2
left_child=-1 2 -2 -4 6 -6 -5
right_child=1 -3 3 4 5 -7 -8
leaf_value=0.017783399188698975 -0.018360332516584792 -0.028119361820368369 -0.010354087462775123 -0.0085882378206329248 0.0031669243618359659 0.022837525894570027 0.0066997963302345073
leaf_weight=88 62 50 76 51 56 87 52
leaf_count=88 62 50 76 51 56 87 52
internal_value=0.000590654 -0.00289543 0.000388934 0.00399904 0.00843334 0.0151344 -0.000870007
internal_weight=522 434 384 322 246 143 103
internal_count=522 434 384 322 246 143 103
is_linear=0
shrinkage=0.0320375


Tree=56
num_leaves=9
num_cat=0
split_feature=9 3 9 6 6 7 3 6
split_gain=25.148 21.6712 22.9717 30.0634 18.2463 15.5608 14.2698 2.90178
threshold=1.2821428571428588 16.650000000000002 0.28571428571428542 1.5499999999999974 0.65000000000000047 1.2999999999999992 11.15 2.200000000000002
decision_type=2 2 2 2 2 2 2 2
left_child=1 2 5 4 -4 6 -1 -5
right_child=-2 -3 3 7 -6 -7 -8 -9
leaf_value=0.01468422831888103 0.020033864423701447 -0.0194633642948208 -0.0032693495076117503 0.0038241384299868807 -0.025213459278149025 0.024762269053996689 -0.0081293922307876763 0.014739072412339753
leaf_weight=60 67 57 86 50 71 55 53 50
leaf_count=60 67 57 86 50 71 55 53 50
internal_value=0.00164266 -0.000913797 0.00157403 -0.00444809 -0.0131931 0.0107864 0.00398403 0.00928161
internal_weight=549 482 425 257 157 168 113 100
internal_count=549 482 425 257 157 168 113 100
is_linear=0
shrinkage=0.0320375


Tree=57
num_leaves=9
num_cat=0
split_feature=4 9 3 0 6 9 2 6
split_gain=25.1507 27.8321 25.7769 27.9979 33.3966 18.8144 16.3034 8.8763
threshold=28.205000000000002 1.2821428571428588 16.650000000000002 58.800000000000004 1.7 0.29285714285714209 1.0000000180025095e-35 0.29999999999999899
decision_type=2 2 2 2 2 2 2 2
left_child=1 2 3 4 5 7 -5 -1
right_child=-2 -3 -4 6 -6 -7 -8 -9
leaf_value=0.015852962359449784 0.022789478901940087 0.019453771824069412 -0.024655711745624531 -0.023212197698232188 0.025411905575166645 -0.012829825091174385 0.00053236154036154454 -0.0020374312212576751
leaf_weight=59 52 62 52 71 64 83 51 55
leaf_count=59 52 62 52 71 64 83 51 55
internal_value=0.00159003 -0.000628021 -0.00349025 -0.000616614 0.00530557 -0.00122644 -0.0132862 0.00722163
internal_weight=549 497 435 383 261 197 122 114
internal_count=549 497 435 383 261 197 122 114
is_linear=0
shrinkage=0.0320375


Tree=58
num_leaves=9
num_cat=0
split_feature=4 9 3 0 6 9 9 1
split_gain=23.565 26.0773 24.1517 26.2326 31.6345 29.0562 10.9945 4.86148
threshold=28.205000000000002 1.2821428571428588 16.650000000000002 58.800000000000004 1.3999999999999997 0.29285714285714209 0.75000000000000089 136.50000000000003
decision_type=2 2 2 2 2 2 2 2
left_child=1 2 3 4 5 7 -5 -1
right_child=-2 -3 -4 6 -6 -7 -8 -9
leaf_value=0.015382132534432241 0.022059360555984918 0.018830520439599097 -0.023865804094644873 -0.023130882163106745 0.02161487547587956 -0.017789140245920321 -0.0038542340201685671 0.0015942292659985625
leaf_weight=52 52 62 52 57 82 74 65 53
leaf_count=52 52 62 52 57 82 74 65 53
internal_value=0.00153909 -0.000607901 -0.00337843 -0.000596859 0.00513559 -0.00241358 -0.0128605 0.00842252
internal_weight=549 497 435 383 261 179 122 105
internal_count=549 497 435 383 261 179 122 105
is_linear=0
shrinkage=0.0320375


Tree=59
num_leaves=9
num_cat=0
split_feature=4 9 3 0 5 2 9 3
split_gain=22.0793 24.4332 22.629 24.5787 24.9109 15.2526 13.7481 8.65159
threshold=28.205000000000002 1.2821428571428588 16.650000000000002 58.800000000000004 0.11050000000000001 1.0000000180025095e-35 0.29285714285714209 11.950000000000001
decision_type=2 2 2 2 2 2 2 2
left_child=1 2 3 4 6 -5 7 -1
right_child=-2 -3 -4 5 -6 -7 -8 -9
leaf_value=0.013192396626905509 0.021352633484608124 0.018227238298736636 -0.023101203242903615 -0.02204931564940129 0.021645749305048232 0.00091730085552827075 -0.011747221042844824 -0.0043089234085624826
leaf_weight=69 52 62 52 71 68 51 74 50
leaf_count=69 52 62 52 71 68 51 74 50
internal_value=0.00148978 -0.000588425 -0.0032702 -0.000577737 0.00497106 -0.0124485 -0.000903965 0.0058389
internal_weight=549 497 435 383 261 122 193 119
internal_count=549 497 435 383 261 122 193 119
is_linear=0
shrinkage=0.0320375


Tree=60
num_leaves=9
num_cat=0
split_feature=4 3 6 6 6 0 8 8
split_gain=20.6872 16.8639 19.6843 26.6417 22.9946 21.7637 9.93643 9.3014
threshold=28.205000000000002 16.650000000000002 1.7500000000000002 1.0999999999999972 1.3999999999999997 61.400000000000006 0.5285714285714288 -0.38571428571428451
decision_type=2 2 2 2 2 2 2 2
left_child=1 2 3 6 -5 -4 7 -1
right_child=-2 -3 5 4 -6 -7 -8 -9
leaf_value=0.0088003165215928807 0.020668548112434893 -0.017130517069301548 0.022716294404498218 -0.031890029013369403 -0.0010079836053754664 -0.0035998474070103419 0.012351937042859583 -0.0089010045773848679
leaf_weight=50 52 56 78 50 49 55 81 78
leaf_count=50 52 56 78 50 49 55 81 78
internal_value=0.00144205 -0.000569573 0.0015334 -0.00291444 -0.016605 0.0118337 0.00357055 -0.00198643
internal_weight=549 497 441 308 99 133 209 128
internal_count=549 497 441 308 99 133 209 128
is_linear=0
shrinkage=0.0320375


Tree=61
num_leaves=9
num_cat=0
split_feature=4 9 3 0 6 6 2 8
split_gain=19.3829 22.5693 20.086 22.751 27.96 27.3365 14.3413 8.59236
threshold=28.205000000000002 1.2821428571428588 16.650000000000002 58.800000000000004 1.3999999999999997 0.75000000000000011 1.0000000180025095e-35 0.12142857142857086
decision_type=2 2 2 2 2 2 2 2
left_child=1 2 3 4 5 7 -5 -1
right_child=-2 -3 -4 6 -6 -7 -8 -9
leaf_value=-0.0010295751470540168 0.020006379228941044 0.017532431437902288 -0.021812278887088567 -0.021322562869983078 0.020239084125864941 -0.020905893758509153 0.00094733348573712648 0.016158069421033639
leaf_weight=72 52 62 52 71 82 56 51 51
leaf_count=72 52 62 52 71 82 56 51 51
internal_value=0.00139585 -0.000551325 -0.00312878 -0.000592117 0.00474639 -0.00235083 -0.012013 0.00609701
internal_weight=549 497 435 383 261 179 122 123
internal_count=549 497 435 383 261 179 122 123
is_linear=0
shrinkage=0.0320375


Tree=62
num_leaves=8
num_cat=0
split_feature=4 9 0 1 5 6 8
split_gain=18.1636 21.2552 19.6143 36.316 24.6326 23.5315 18.6876
threshold=28.145000000000003 1.2821428571428588 47.650000000000013 166.50000000000003 0.081500000000000017 0.79999999999999905 0.5285714285714288
decision_type=2 2 2 2 2 2 2
left_child=1 2 4 -4 5 -1 -5
right_child=-2 -3 3 6 -6 -7 -8
leaf_value=0.0075861764167452781 0.018994403110402219 0.016970735755956274 -0.031992040959894108 -0.016972610126925507 0.020626506302460011 -0.01680977078230898 0.0066305416026676469
leaf_weight=93 54 62 57 54 62 72 95
leaf_count=93 54 62 57 54 62 72 95
internal_value=0.00135113 -0.000573588 -0.00308571 -0.0102435 0.00340993 -0.00305933 -0.00192362
internal_weight=549 495 433 206 227 165 149
internal_count=549 495 433 206 227 165 149
is_linear=0
shrinkage=0.0320375


Tree=63
num_leaves=10
num_cat=0
split_feature=3 1 5 3 3 8 4 9 6
split_gain=58.1684 29.1971 35.7554 29.7106 42.7343 17.9171 15.7528 12.2484 6.64333
threshold=16.650000000000002 46.500000000000007 0.035500000000000011 14.050000000000002 11.550000000000002 0.81428571428571395 20.275000000000002 0.64285714285714268 1.2500000000000002
decision_type=2 2 2 2 2 2 2 2 2
left_child=1 -1 -3 4 6 -6 7 -4 -8
right_child=-2 2 3 -5 5 -7 8 -9 -10
leaf_value=0.022148104720136126 -0.032306426783982524 -0.028414639414463219 0.0057994184985702578 0.022682915205503463 -0.0073826224085388149 -0.03425814900437904 0.019523267176826134 -0.014697195164122503 0.0048085723348209285
leaf_weight=55 64 49 63 54 53 49 64 57 62
leaf_count=55 64 49 63 54 53 49 64 57 62
internal_value=-0.00352911 0.000110714 -0.00257677 0.000572619 -0.00285829 -0.0202934 0.00437091 -0.00393647 0.0122827
internal_weight=570 506 451 402 348 102 246 120 126
internal_count=570 506 451 402 348 102 246 120 126
is_linear=0
shrinkage=0.0320375


Tree=64
num_leaves=9
num_cat=0
split_feature=3 1 4 0 1 4 0 9
split_gain=54.501 27.3562 26.5247 22.1906 77.6694 26.6208 6.96387 6.04081
threshold=16.650000000000002 46.500000000000007 9.2550000000000008 53.150000000000013 166.50000000000003 20.425000000000001 38.250000000000007 0.9428571428571435
decision_type=2 2 2 2 2 2 2 2
left_child=1 -1 -3 6 -5 -6 -4 -7
right_child=-2 2 3 4 5 7 -8 -9
leaf_value=0.021438534326422762 -0.031271409570903769 -0.018274254568864598 0.0023170633515440077 -0.0399873917675913 -0.0097073033117358078 0.0072270905796263584 0.017582699316884214 0.022404430737388972
leaf_weight=55 64 88 49 50 74 51 82 57
leaf_count=55 64 88 49 50 74 51 82 57
internal_value=-0.00341604 0.000107167 -0.00249422 0.00133124 -0.00462102 0.00509502 0.0118727 0.0152374
internal_weight=570 506 451 363 232 182 131 108
internal_count=570 506 451 363 232 182 131 108
is_linear=0
shrinkage=0.0320375


Tree=65
num_leaves=10
num_cat=0
split_feature=3 1 5 3 3 8 4 1 9
split_gain=51.0648 25.6315 32.2665 27.6822 39.3842 16.8097 14.2214 6.43578 3.82182
threshold=16.650000000000002 46.500000000000007 0.035500000000000011 14.050000000000002 11.550000000000002 0.81428571428571395 15.930000000000001 179.50000000000003 1.0535714285714286
decision_type=2 2 2 2 2 2 2 2 2
left_child=1 -1 -3 4 6 -6 -4 -8 -9
right_child=-2 2 3 -5 5 -7 7 8 -10
leaf_value=0.020751696948686331 -0.030269551854417109 -0.026959232702263677 -0.0073149112738491503 0.021919680243470102 -0.0069665985164301574 -0.03299828571669082 0.0012325089486497798 0.008140900008017796 0.020251092944193545
leaf_weight=55 64 49 76 54 53 49 63 54 53
leaf_count=55 64 49 76 54 53 49 63 54 53
internal_value=-0.0033066 0.000103734 -0.00241431 0.000577483 -0.00273424 -0.019472 0.00420582 0.00935626 0.0141394
internal_weight=570 506 451 402 348 102 246 170 107
internal_count=570 506 451 402 348 102 246 170 107
is_linear=0
shrinkage=0.0320375


Tree=66
num_leaves=8
num_cat=0
split_feature=3 0 4 1 5 1 9
split_gain=47.8452 24.7242 37.63 42.3262 23.4708 30.4311 12.8285
threshold=16.650000000000002 46.70000000000001 16.170000000000005 167.50000000000003 0.07350000000000001 46.500000000000007 0.83214285714285674
decision_type=2 2 2 2 2 2 2
left_child=1 4 -3 -4 5 -1 -5
right_child=-2 2 3 6 -6 -7 -8
leaf_value=0.020086864092794924 -0.029299789909994958 -0.025154654124318023 -0.021457601301076854 -0.0014251303534824225 0.024294835054138091 -0.010098182376341344 0.017388636826858414
leaf_weight=55 64 77 62 62 66 91 93
leaf_count=55 64 77 62 62 66 91 93
internal_value=-0.00320066 0.00010041 -0.00591325 0.00091435 0.0084401 0.0012729 0.00986313
internal_weight=570 506 294 217 212 146 155
internal_count=570 506 294 217 212 146 155
is_linear=0
shrinkage=0.0320375


Tree=67
num_leaves=8
num_cat=0
split_feature=3 0 4 1 5 1 9
split_gain=44.8286 23.1653 35.2575 39.6576 21.991 28.5124 12.0197
threshold=16.650000000000002 46.70000000000001 16.170000000000005 167.50000000000003 0.07350000000000001 46.500000000000007 0.83214285714285674
decision_type=2 2 2 2 2 2 2
left_child=1 4 -3 -4 5 -1 -5
right_child=-2 2 3 6 -6 -7 -8
leaf_value=0.019443330773124757 -0.02836109770503201 -0.024348761100324953 -0.020770152796518719 -0.001379472411403993 0.023516488805400464 -0.0097746617666275102 0.016831548299983144
leaf_weight=55 64 77 62 62 66 91 93
leaf_count=55 64 77 62 62 66 91 93
internal_value=-0.00309812 9.71934e-05 -0.0057238 0.000885056 0.0081697 0.00123212 0.00954714
internal_weight=570 506 294 217 212 146 155
internal_count=570 506 294 217 212 146 155
is_linear=0
shrinkage=0.0320375


Tree=68
num_leaves=8
num_cat=0
split_feature=3 0 4 1 5 1 9
split_gain=42.0023 21.7056 32.4898 37.1573 21.0214 26.7148 11.2619
threshold=16.650000000000002 46.250000000000007 16.170000000000005 167.50000000000003 0.07350000000000001 46.500000000000007 0.83214285714285674
decision_type=2 2 2 2 2 2 2
left_child=1 4 -3 -4 5 -1 -5
right_child=-2 2 3 6 -6 -7 -8
leaf_value=0.018820415094838516 -0.027452478264687306 -0.023251588519751846 -0.020104729014739406 -0.0013352775876331658 0.023095356229825666 -0.0094615059014189502 0.016292307313499274
leaf_weight=55 64 78 62 62 65 91 93
leaf_count=55 64 78 62 62 65 91 93
internal_value=-0.00299887 9.40795e-05 -0.00551769 0.000856701 0.00793992 0.00119264 0.00924127
internal_weight=570 506 295 217 211 146 155
internal_count=570 506 295 217 211 146 155
is_linear=0
shrinkage=0.0320375


Tree=69
num_leaves=9
num_cat=0
split_feature=3 3 3 7 4 9 10 5
split_gain=39.6552 21.9527 27.7024 39.4427 19.4111 12.4747 15.77 7.07643
threshold=17.550000000000004 14.850000000000003 10.850000000000003 1.3499999999999999 16.865000000000006 0.37857142857142828 2.1821186996754816 0.15250000000000002
decision_type=2 2 2 2 2 2 2 2
left_child=1 2 5 4 -4 -1 7 -7
right_child=-2 -3 3 -5 -6 6 -8 -9
leaf_value=0.014507986315812569 -0.030457267981780143 0.018639031731952214 0.012683653203545409 -0.028097241075223673 -0.013119169818002424 -0.0033340423438350474 -0.015937132063004147 0.011963073956735853
leaf_weight=84 49 56 63 85 57 54 49 73
leaf_count=84 49 56 63 85 57 54 49 73
internal_value=-0.00290279 -0.000311295 -0.00259349 -0.0113999 0.000427312 0.00435007 -0.00049803 0.00545879
internal_weight=570 521 465 205 120 260 176 127
internal_count=570 521 465 205 120 260 176 127
is_linear=0
shrinkage=0.0320375


Tree=70
num_leaves=8
num_cat=0
split_feature=10 1 0 1 6 1 0
split_gain=40.0558 29.6818 16.5177 58.3091 38.3235 22.4885 5.58562
threshold=1.124297282220917 298.50000000000006 50.850000000000001 161.50000000000003 1.7 74.500000000000014 64.450000000000017
decision_type=2 2 2 2 2 2 2
left_child=-1 2 4 -4 5 -2 -5
right_child=1 -3 3 6 -6 -7 -8
leaf_value=-0.021683933383484427 -0.011357084579378014 -0.014050305619205641 -0.029558846617367678 0.017048967707695688 0.036623488069630721 0.015550931099839575 0.0050880305097136778
leaf_weight=74 53 81 49 71 55 80 92
leaf_count=74 53 81 49 71 55 80 92
internal_value=0.000259364 0.00363526 0.00721658 0.00108581 0.01413 0.00482819 0.010298
internal_weight=555 481 400 212 188 133 163
internal_count=555 481 400 212 188 133 163
is_linear=0
shrinkage=0.0320375


Tree=71
num_leaves=8
num_cat=0
split_feature=8 9 3 10 3 3 6
split_gain=46.6994 58.2132 41.7637 26.7124 16.5249 13.106 8.92159
threshold=0.57142857142857217 0.40000000000000069 15.050000000000002 1.2417312469122512 11.850000000000003 10.250000000000002 1.3499999999999999
decision_type=2 2 2 2 2 2 2
left_child=2 -2 4 -3 5 -1 -5
right_child=1 3 -4 6 -6 -7 -8
leaf_value=0.0022962079449113906 -0.039108581568689418 -0.018572612985910491 0.036206041249540875 0.013429574276399613 -0.009358476678873252 0.021623148067105986 -0.0016635923375290921
leaf_weight=95 53 69 50 74 68 58 88
leaf_count=95 53 69 50 74 68 58 88
internal_value=0.000251054 -0.00882702 0.00976461 -0.0018793 0.00378238 0.00962276 0.00523082
internal_weight=555 284 271 231 221 153 162
internal_count=555 284 271 231 221 153 162
is_linear=0
shrinkage=0.0320375


Tree=72
num_leaves=8
num_cat=0
split_feature=8 9 3 10 3 3 10
split_gain=43.7551 54.5429 39.1306 25.0283 15.483 12.2796 8.87667
threshold=0.57142857142857217 0.40000000000000069 15.050000000000002 1.2417312469122512 11.850000000000003 10.250000000000002 1.7674301828416101
decision_type=2 2 2 2 2 2 2
left_child=2 -2 4 -3 5 -1 -5
right_child=1 3 -4 6 -6 -7 -8
leaf_value=0.0022226431707091333 -0.03785563836583862 -0.017977592679534582 0.035046089449978023 0.012845725571388737 -0.0090586547945805569 0.020930396219438666 -0.0021633641485371597
leaf_weight=95 53 69 50 78 68 58 84
leaf_count=95 53 69 50 78 68 58 84
internal_value=0.000243011 -0.00854422 0.00945177 -0.00181909 0.0036612 0.00931447 0.00506323
internal_weight=555 284 271 231 221 153 162
internal_count=555 284 271 231 221 153 162
is_linear=0
shrinkage=0.0320375


Tree=73
num_leaves=8
num_cat=0
split_feature=8 9 3 10 3 3 6
split_gain=40.9964 51.104 36.6635 23.4503 14.5069 11.5054 8.32668
threshold=0.57142857142857217 0.40000000000000069 15.050000000000002 1.2417312469122512 11.850000000000003 10.250000000000002 1.3499999999999999
decision_type=2 2 2 2 2 2 2
left_child=2 -2 4 -3 5 -1 -5
right_child=1 3 -4 6 -6 -7 -8
leaf_value=0.0021514353149207788 -0.036642838844673883 -0.017401635225358616 0.03392330000423853 0.012821707784840996 -0.0087684379889326758 0.020259838245619104 -0.0017595566167159231
leaf_weight=95 53 69 50 74 68 58 88
leaf_count=95 53 69 50 74 68 58 88
internal_value=0.000235226 -0.00827049 0.00914896 -0.00176081 0.00354391 0.00901606 0.00490102
internal_weight=555 284 271 231 221 153 162
internal_count=555 284 271 231 221 153 162
is_linear=0
shrinkage=0.0320375


Tree=74
num_leaves=8
num_cat=0
split_feature=8 9 3 10 9 10 8
split_gain=38.4116 47.882 34.3519 21.9718 14.268 8.28569 7.78475
threshold=0.57142857142857217 0.40000000000000069 15.050000000000002 1.2417312469122512 0.28571428571428542 1.7674301828416101 -0.56428571428571406
decision_type=2 2 2 2 2 2 2
left_child=2 -2 4 -3 6 -5 -1
right_child=1 3 -4 5 -6 -7 -8
leaf_value=0.00068088729262690733 -0.035468892838889238 -0.016844129874990395 0.032836481190562046 0.012262967619606678 -0.0059445582205598429 -0.0022378896801722656 0.016957894433303509
leaf_weight=50 53 69 50 78 95 84 76
leaf_count=50 53 69 50 78 95 84 76
internal_value=0.00022769 -0.00800552 0.00885585 -0.0017044 0.00343037 0.004744 0.0104988
internal_weight=555 284 271 231 221 162 126
internal_count=555 284 271 231 221 162 126
is_linear=0
shrinkage=0.0320375


Tree=75
num_leaves=9
num_cat=0
split_feature=8 9 6 10 4 9 6 10
split_gain=35.9898 44.8631 27.9889 20.5865 19.5724 9.32361 7.77144 4.10703
threshold=0.57142857142857217 0.40000000000000069 1.7999999999999987 1.2417312469122512 9.0400000000000009 0.36428571428571471 1.3499999999999999 2.9239975894491232
decision_type=2 2 2 2 2 2 2 2
left_child=2 -2 4 -3 -1 7 -5 -6
right_child=1 3 -4 6 5 -7 -8 -9
leaf_value=-0.010626490618029649 -0.03433255784453193 -0.016304485949056383 0.030218146673036048 0.01224406486560793 0.0094245270610749544 -0.00083244884769683174 -0.0018426567038416189 0.022412456364174698
leaf_weight=68 53 69 50 74 51 53 88 49
leaf_count=68 53 69 50 74 51 53 88 49
internal_value=0.000220395 -0.00774904 0.00857213 -0.00164979 0.00367484 0.010031 0.00459202 0.0157886
internal_weight=555 284 271 231 221 153 162 100
internal_count=555 284 271 231 221 153 162 100
is_linear=0
shrinkage=0.0320375


Tree=76
num_leaves=8
num_cat=0
split_feature=8 9 3 10 3 3 10
split_gain=33.7207 42.0345 31.8567 19.2885 13.6423 10.4409 7.73406
threshold=0.57142857142857217 0.40000000000000069 15.050000000000002 1.2417312469122512 11.850000000000003 10.250000000000002 1.7674301828416101
decision_type=2 2 2 2 2 2 2
left_child=2 -2 4 -3 5 -1 -5
right_child=1 3 -4 6 -6 -7 -8
leaf_value=0.0018400123408334205 -0.033232627478400376 -0.015782130284980586 0.031390775869662997 0.011709260840808101 -0.0088670322082596009 0.019090360744990181 -0.0023005747886760213
leaf_weight=95 53 69 50 78 68 58 84
leaf_count=95 53 69 50 78 68 58 84
internal_value=0.000213334 -0.00750078 0.0082975 -0.00159694 0.00307278 0.00837936 0.0044449
internal_weight=555 284 271 231 221 153 162
internal_count=555 284 271 231 221 153 162
is_linear=0
shrinkage=0.0320375


Tree=77
num_leaves=9
num_cat=0
split_feature=2 3 6 1 1 4 0 10
split_gain=37.6191 44.2631 35.8381 18.0072 14.5434 13.9113 12.1177 6.06047
threshold=1.0000000180025095e-35 14.450000000000001 1.3999999999999997 96.500000000000014 145.50000000000003 11.440000000000003 58.050000000000004 1.7842560975105159
decision_type=2 2 2 2 2 2 2 2
left_child=3 2 -2 -1 -5 -6 -7 -8
right_child=1 -3 -4 4 5 6 7 -9
leaf_value=0.015739183270853919 -0.021092227311819936 -0.042057188990900989 0.013538395246118875 -0.01568063387675701 -0.012947274223230191 0.018666842528356736 0.0064880568483636743 -0.0081598399531718508
leaf_weight=76 71 49 54 61 50 55 71 49
leaf_count=76 71 49 54 61 50 55 71 49
internal_value=-0.0040065 -0.0162487 -0.0061318 0.00187788 -0.00180555 0.00195614 0.00621426 0.000506832
internal_weight=536 174 125 362 286 225 175 120
internal_count=536 174 125 362 286 225 175 120
is_linear=0
shrinkage=0.0320375


Tree=78
num_leaves=9
num_cat=0
split_feature=2 7 1 5 4 4 6 8
split_gain=35.2472 43.3858 16.8719 16.234 14.3898 31.0199 21.7886 7.79678
threshold=1.0000000180025095e-35 1.5999999999999974 96.500000000000014 0.091500000000000012 26.815000000000001 23.460000000000004 0.75000000000000011 0.78571428571428481
decision_type=2 2 2 2 2 2 2 2
left_child=2 3 -1 -2 5 6 -4 -8
right_child=1 -3 4 -5 -6 -7 7 -9
leaf_value=0.01523493888084973 -0.014582458471070906 -0.037229779732078881 -0.014863648961584217 0.010004960900135803 0.010757567009224729 -0.027152819243239937 0.019072906197613763 0.0015736679225009163
leaf_weight=76 63 62 57 49 71 53 49 56
leaf_count=76 63 62 57 49 71 53 49 56
internal_value=-0.00387814 -0.0157282 0.00181772 -0.00382546 -0.0017477 -0.00587735 0.00108315 0.00973998
internal_weight=536 174 362 112 286 215 162 105
internal_count=536 174 362 112 286 215 162 105
is_linear=0
shrinkage=0.0320375


Tree=79
num_leaves=9
num_cat=0
split_feature=4 0 0 1 6 3 9 9
split_gain=33.2417 28.4578 26.5149 84.0591 19.2203 11.2146 10.424 12.8006
threshold=9.1350000000000016 39.650000000000013 51.300000000000004 166.50000000000003 1.2 11.65 1.0285714285714287 0.70357142857142974
decision_type=2 2 2 2 2 2 2 2
left_child=1 -1 4 -4 5 -2 7 -5
right_child=2 -3 3 6 -6 -7 -8 -9
leaf_value=-0.0063632221981969866 0.012833625740892595 -0.03701846158589725 -0.037676623273296656 0.010133453910660355 0.024906871444444763 -0.008733194505616354 0.014263266305935671 -0.012678597497329283
leaf_weight=85 50 49 63 50 62 49 77 51
leaf_count=85 50 49 63 50 62 49 77 51
internal_value=-0.0037539 -0.017573 0.000852461 -0.00587258 0.0109191 0.00215914 0.00538391 -0.0013855
internal_weight=536 134 402 241 161 99 178 101
internal_count=536 134 402 241 161 99 178 101
is_linear=0
shrinkage=0.0320375


Tree=80
num_leaves=9
num_cat=0
split_feature=2 3 9 0 6 8 0 0
split_gain=31.6203 41.3022 15.8355 14.1128 24.153 16.7437 9.27372 6.53998
threshold=1.0000000180025095e-35 13.850000000000003 0.78571428571428614 58.300000000000004 0.59999999999999798 0.91428571428571304 33.850000000000001 44.850000000000001
decision_type=2 2 2 2 2 2 2 2
left_child=3 2 -2 4 6 -5 -1 -6
right_child=1 -3 -4 5 7 -7 -8 -9
leaf_value=-0.014027192403832591 -0.014104131158489601 -0.036649256716094508 0.0098776834244910725 -0.019088166287152937 0.022152276504410158 0.0038273269055454856 0.0050229589352473623 0.0072414711562669275
leaf_weight=54 65 59 50 60 74 72 51 51
leaf_count=54 65 59 50 60 74 72 51 51
internal_value=-0.00363363 -0.0148574 -0.00367726 0.00176123 0.00655342 -0.00658881 -0.00477426 0.0160687
internal_weight=536 174 115 362 230 132 105 125
internal_count=536 174 115 362 230 132 105 125
is_linear=0
shrinkage=0.0320375


Tree=81
num_leaves=8
num_cat=0
split_feature=4 1 0 1 5 9 9
split_gain=30.3621 27.7705 24.2603 78.2567 22.8722 9.40022 12.3982
threshold=9.1350000000000016 197.50000000000003 51.300000000000004 166.50000000000003 0.094500000000000015 1.0285714285714287 0.70357142857142974
decision_type=2 2 2 2 2 2 2
left_child=1 -1 4 -4 -2 6 -5
right_child=2 -3 3 5 -6 -7 -8
leaf_value=0.00075538859216796057 -0.0016363018922450131 -0.028893498775448404 -0.036234414816668614 0.010221419763734627 0.022514876226030055 0.013745407621092248 -0.012229211908398811
leaf_weight=55 80 79 63 50 81 77 51
leaf_count=55 80 79 63 50 81 77 51
internal_value=-0.00351722 -0.0167242 0.0008851 -0.00554768 0.0105143 0.00531336 -0.00111504
internal_weight=536 134 402 241 161 178 101
internal_count=536 134 402 241 161 178 101
is_linear=0
shrinkage=0.0320375


Tree=82
num_leaves=8
num_cat=0
split_feature=4 1 0 1 5 9 9
split_gain=28.4478 26.0196 22.7308 73.3227 21.4301 8.80755 11.6165
threshold=9.1350000000000016 197.50000000000003 51.300000000000004 166.50000000000003 0.094500000000000015 1.0285714285714287 0.70357142857142974
decision_type=2 2 2 2 2 2 2
left_child=1 -1 4 -4 -2 6 -5
right_child=2 -3 3 5 -6 -7 -8
leaf_value=0.00073118815248014713 -0.0015838781078862767 -0.027967822873625439 -0.035073554244969433 0.0098939508296809978 0.02179355565551145 0.013305038631255997 -0.011837418291285842
leaf_weight=55 80 79 63 50 81 77 51
leaf_count=55 80 79 63 50 81 77 51
internal_value=-0.00340454 -0.0161884 0.000856744 -0.00536994 0.0101774 0.00514313 -0.00107931
internal_weight=536 134 402 241 161 178 101
internal_count=536 134 402 241 161 178 101
is_linear=0
shrinkage=0.0320375


Tree=83
num_leaves=9
num_cat=0
split_feature=2 3 0 1 1 5 8 10
split_gain=27.8664 39.211 16.683 14.3036 13.5502 14.9825 11.2175 6.16572
threshold=1.0000000180025095e-35 13.850000000000003 57.850000000000001 96.500000000000014 145.50000000000003 0.093500000000000014 0.78571428571428481 1.3196317859822664
decision_type=2 2 2 2 2 2 2 2
left_child=3 2 -2 -1 -5 -6 -7 -8
right_child=1 -3 -4 4 5 6 7 -9
leaf_value=0.014122942099908541 0.0095865086519054381 -0.035064953650056761 -0.014826667909911216 -0.014906735890365279 -0.011592504251701261 0.017596346129468646 0.0082906330712420109 -0.0075415660801056569
leaf_weight=76 56 59 59 61 60 64 51 50
leaf_count=76 56 59 59 61 60 64 51 50
internal_value=-0.00329546 -0.013832 -0.00293851 0.00176904 -0.00151381 0.00211716 0.00710249 0.000452911
internal_weight=536 174 115 362 286 225 165 101
internal_count=536 174 115 362 286 225 165 101
is_linear=0
shrinkage=0.0320375


Tree=84
num_leaves=8
num_cat=0
split_feature=1 2 8 3 7 4 6
split_gain=31.2661 32.629 18.6714 40.1362 8.84127 9.41757 8.43871
threshold=66.500000000000014 0.15200000000000002 1.1142857142857134 14.350000000000003 1.7 22.015000000000004 0.4500000000000029
decision_type=2 2 2 2 2 2 2
left_child=-1 2 3 4 5 6 -2
right_child=1 -3 -4 -5 -6 -7 -8
leaf_value=0.0200069862482752 0.0029177360590873763 -0.022241697056455151 0.014574110989838074 -0.026363674322609089 0.013255264427430328 0.0090226306030414486 -0.015790437624039064
leaf_weight=81 49 67 92 56 71 67 50
leaf_count=81 49 67 92 56 71 67 50
internal_value=0.00167713 -0.00160764 0.00198322 -0.00197023 0.00379362 -0.000253232 -0.00653084
internal_weight=533 452 385 293 237 166 99
internal_count=533 452 385 293 237 166 99
is_linear=0
shrinkage=0.0320375


Tree=85
num_leaves=9
num_cat=0
split_feature=1 1 0 5 0 9 3 9
split_gain=29.2948 26.5443 92.6237 41.9274 11.8655 13.6454 13.7769 4.53745
threshold=66.500000000000014 144.50000000000003 44.050000000000004 0.03450000000000001 67.750000000000014 1.1142857142857148 11.850000000000003 0.6000000000000002
decision_type=2 2 2 2 2 2 2 2
left_child=-1 2 -2 -3 5 6 7 -5
right_child=1 3 -4 4 -6 -7 -8 -9
leaf_value=0.019366012166549394 0.014520927826720306 -0.024182298883773504 -0.041339423134779202 0.019734962461472501 -0.00371843340748785 0.026293895695176404 -0.0060712170153639604 0.0066169846672924811
leaf_weight=81 59 49 63 59 68 50 54 50
leaf_count=81 59 49 63 59 68 50 54 50
internal_value=0.0016234 -0.00155614 -0.014325 0.00316447 0.00793312 0.0116529 0.00716176 0.0137175
internal_weight=533 452 122 330 281 213 163 109
internal_count=533 452 122 330 281 213 163 109
is_linear=0
shrinkage=0.0320375


Tree=86
num_leaves=8
num_cat=0
split_feature=1 2 7 1 4 0 10
split_gain=27.4478 29.8962 17.1868 22.1484 20.1664 14.7196 11.3819
threshold=66.500000000000014 0.15200000000000002 2.2999999999999994 144.50000000000003 8.2150000000000016 66.65000000000002 1.992007138034718
decision_type=2 2 2 2 2 2 2
left_child=-1 2 3 -2 -5 6 -6
right_child=1 -3 -4 4 5 -7 -8
leaf_value=0.018745573892601595 -0.014703803967462233 -0.02125733395460434 0.018511551901901315 -0.013132730496610526 0.022453603103161017 -0.0056402129831036926 0.0038556124475297537
leaf_weight=81 87 67 55 54 79 51 59
leaf_count=81 87 67 55 54 79 51 59
internal_value=0.00157139 -0.00150628 0.00193091 -0.000832526 0.00413373 0.00906701 0.0145023
internal_weight=533 452 385 330 243 189 138
internal_count=533 452 385 330 243 189 138
is_linear=0
shrinkage=0.0320375


Tree=87
num_leaves=7
num_cat=0
split_feature=1 2 8 3 0 3
split_gain=25.7173 28.0112 16.6855 36.498 15.4376 22.4517
threshold=66.500000000000014 0.15200000000000002 1.1142857142857134 14.350000000000003 44.650000000000013 9.7500000000000018
decision_type=2 2 2 2 2 2
left_child=-1 2 3 4 -2 -6
right_child=1 -3 -4 -5 5 -7
leaf_value=0.018145011323589335 0.014172306388091898 -0.020576301797000728 0.013771530273084684 -0.025129853835571668 0.011007546328424992 -0.014061293230289955
leaf_weight=81 89 67 92 56 67 81
leaf_count=81 89 67 92 56 67 81
internal_value=0.00152105 -0.00145802 0.00186905 -0.00186824 0.00362817 -0.00271256
internal_weight=533 452 385 293 237 148
internal_count=533 452 385 293 237 148
is_linear=0
shrinkage=0.0320375


Tree=88
num_leaves=8
num_cat=0
split_feature=1 2 7 1 4 0 10
split_gain=24.0959 26.2452 15.991 20.2839 19.0719 13.7856 10.5176
threshold=66.500000000000014 0.15200000000000002 2.2999999999999994 144.50000000000003 8.2150000000000016 66.65000000000002 1.992007138034718
decision_type=2 2 2 2 2 2 2
left_child=-1 2 3 -2 -5 6 -6
right_child=1 -3 -4 4 5 -7 -8
leaf_value=0.017563690672445297 -0.014130999179834756 -0.01991708806230379 0.017802593879490392 -0.012895150946521697 0.021597256341052366 -0.0055391904595123529 0.0037193095664770498
leaf_weight=81 87 67 55 54 79 51 59
leaf_count=81 87 67 55 54 79 51 59
internal_value=0.00147232 -0.00141131 0.00180917 -0.000856398 0.00389624 0.00869378 0.0139538
internal_weight=533 452 385 330 243 189 138
internal_count=533 452 385 330 243 189 138
is_linear=0
shrinkage=0.0320375


Tree=89
num_leaves=8
num_cat=0
split_feature=1 2 3 1 4 1 0
split_gain=22.5766 24.6398 13.6286 23 22.6774 22.7367 10.4647
threshold=66.500000000000014 0.21500000000000002 8.7500000000000018 276.50000000000006 16.085000000000004 144.50000000000003 64.750000000000014
decision_type=2 2 2 2 2 2 2
left_child=-1 2 -2 4 -4 -6 -7
right_child=1 -3 3 -5 5 6 -8
leaf_value=0.01700099339968018 0.013489191436753945 -0.02257586157225655 0.021491732723014335 -0.016136812602385149 -0.016038417219993578 0.016018288966481064 -0.0032527519563301274
leaf_weight=81 76 50 55 83 72 61 55
leaf_count=81 76 50 55 83 72 61 55
internal_value=0.00142515 -0.0013661 0.00127193 -0.00157626 0.00339709 -0.00189655 0.00688116
internal_weight=533 452 402 326 243 188 116
internal_count=533 452 402 326 243 188 116
is_linear=0
shrinkage=0.0320375


Tree=90
num_leaves=9
num_cat=0
split_feature=0 1 1 5 7 0 0 3
split_gain=22.1962 93.7046 34.199 15.7013 13.6969 9.41332 8.56316 7.10993
threshold=44.350000000000001 144.50000000000003 308.50000000000006 0.093500000000000014 1.5999999999999974 67.750000000000014 31.650000000000002 10.550000000000002
decision_type=2 2 2 2 2 2 2 2
left_child=2 -2 4 -3 6 7 -1 -5
right_child=1 3 -4 5 -6 -7 -8 -9
leaf_value=0.0010315214149372999 -0.038656611099493567 -0.010742176807462603 -0.011544208994075272 0.0073214988462870284 0.030704058125011622 -0.0015997011324918882 0.019177842646030261 0.022053846889603459
leaf_weight=51 64 53 59 80 51 61 56 58
leaf_count=51 64 53 59 80 51 61 56 58
internal_value=0.00137949 -0.00403828 0.00926897 0.00475367 0.017041 0.00888071 0.0105287 0.0135134
internal_weight=533 316 217 252 158 199 107 138
internal_count=533 316 217 252 158 199 107 138
is_linear=0
shrinkage=0.0320375


Tree=91
num_leaves=8
num_cat=0
split_feature=10 1 3 3 6 6 4
split_gain=20.3118 10.4111 17.4025 11.6232 14.6468 22.2936 6.44737
threshold=1.1381884856416715 88.500000000000014 15.15 9.5500000000000025 0.4500000000000029 1.5499999999999974 17.360000000000003
decision_type=2 2 2 2 2 2 2
left_child=-1 -2 3 6 -5 -6 -3
right_child=1 2 -4 4 5 -7 -8
leaf_value=-0.012910567009718309 -0.0048929061220416431 0.021199989557687291 0.024323254681914135 0.010914697126021566 -0.022125443332354527 0.0055538889327082525 0.0056504446220722749
leaf_weight=79 92 49 52 72 56 64 62
leaf_count=79 92 49 52 72 56 64 62
internal_value=0.0020649 0.00471157 0.00720062 0.00426208 -0.000508947 -0.00736313 0.0125147
internal_weight=526 447 355 303 192 120 111
internal_count=526 447 355 303 192 120 111
is_linear=0
shrinkage=0.0320375


Tree=92
num_leaves=8
num_cat=0
split_feature=10 5 1 3 0 0 0
split_gain=19.0312 10.2203 17.027 29.5659 27.0708 8.31571 6.62186
threshold=1.1381884856416715 0.037500000000000006 130.50000000000003 12.450000000000001 39.150000000000013 64.450000000000017 54.350000000000001
decision_type=2 2 2 2 2 2 2
left_child=-1 -2 4 5 -3 6 -4
right_child=1 2 3 -5 -6 -7 -8
leaf_value=-0.01249694425553058 -0.0047643432470417984 0.011354339906790252 0.0014788486085472916 0.029672396076743185 -0.021119009879268739 -0.0041828430392009709 0.017149141921419007
leaf_weight=79 95 57 50 68 49 66 62
leaf_count=79 95 57 50 68 49 66 62
internal_value=0.00199874 0.00456062 0.0070773 0.0117026 -0.00365693 0.00483776 0.0101535
internal_weight=526 447 352 246 106 178 112
internal_count=526 447 352 246 106 178 112
is_linear=0
shrinkage=0.0320375


Tree=93
num_leaves=8
num_cat=0
split_feature=10 5 1 3 6 0 0
split_gain=17.8313 9.57596 15.9534 27.7018 25.4256 7.79142 6.20436
threshold=1.1381884856416715 0.037500000000000006 130.50000000000003 12.450000000000001 0.95000000000000295 64.450000000000017 54.350000000000001
decision_type=2 2 2 2 2 2 2
left_child=-1 -2 4 5 -3 6 -4
right_child=1 2 3 -5 -6 -7 -8
leaf_value=-0.012096573187686834 -0.0046117054977654857 0.011008204011118869 0.0014314700642484239 0.028721766337019113 -0.02046291626938913 -0.004048835307730733 0.016599726087065655
leaf_weight=79 95 57 50 68 49 66 62
leaf_count=79 95 57 50 68 49 66 62
internal_value=0.00193471 0.00441451 0.00685056 0.0113277 -0.00353977 0.00468277 0.00982818
internal_weight=526 447 352 246 106 178 112
internal_count=526 447 352 246 106 178 112
is_linear=0
shrinkage=0.0320375


Tree=94
num_leaves=8
num_cat=0
split_feature=10 5 8 3 1 10 0
split_gain=16.707 8.97221 15.6503 13.2331 11.7553 10.8313 10.6929
threshold=1.1381884856416715 0.037500000000000006 1.2857142857142871 15.450000000000001 178.50000000000003 1.8788285851491791 44.350000000000001
decision_type=2 2 2 2 2 2 2
left_child=-1 -2 3 4 6 -6 -3
right_child=1 2 -4 -5 5 -7 -8
leaf_value=-0.011709029189107715 -0.0044639575142987028 0.0090543168631019161 -0.010167467058305121 0.024057378280166405 0.0024388932923895545 0.019996918385552148 -0.011438834085324026
leaf_weight=79 95 49 49 52 65 81 56
leaf_count=79 95 49 49 52 65 81 56
internal_value=0.00187273 0.00427308 0.00663109 0.00934769 0.00630026 0.01218 -0.00187536
internal_weight=526 447 352 303 251 146 105
internal_count=526 447 352 303 251 146 105
is_linear=0
shrinkage=0.0320375


Tree=95
num_leaves=8
num_cat=0
split_feature=10 1 3 3 6 6 4
split_gain=15.6537 8.89986 15.1727 11.0735 13.9325 21.2319 6.21984
threshold=1.1381884856416715 88.500000000000014 15.15 9.5500000000000025 0.4500000000000029 1.5499999999999974 17.360000000000003
decision_type=2 2 2 2 2 2 2
left_child=-1 -2 3 6 -5 -6 -3
right_child=1 2 -4 4 5 -7 -8
leaf_value=-0.011333901351071308 -0.0047439001832145613 0.020279437784455713 0.022425545251912444 0.010178419873196447 -0.022054612310322248 0.0049575985316128853 0.0050067273087202446
leaf_weight=79 92 49 52 72 56 64 62
leaf_count=79 92 49 52 72 56 64 62
internal_value=0.00181273 0.00413618 0.0064375 0.00369368 -0.000963155 -0.0076481 0.0117487
internal_weight=526 447 355 303 192 120 111
internal_count=526 447 355 303 192 120 111
is_linear=0
shrinkage=0.0320375


Tree=96
num_leaves=8
num_cat=0
split_feature=10 1 3 7 9 9 10
split_gain=14.6667 8.33874 14.2161 10.6909 18.008 7.19296 5.75783
threshold=1.1381884856416715 88.500000000000014 15.15 -1.5499999999999969 1.0000000180025095e-35 0.78571428571428548 2.010567307076776
decision_type=2 2 2 2 2 2 2
left_child=-1 -2 3 -3 -5 6 -6
right_child=1 2 -4 4 5 -7 -8
leaf_value=-0.010970791124794297 -0.0045919185015179595 -0.010126042865971402 0.02170708591395392 0.023449292610332781 0.0048136134025421381 0.0089022254279639799 -0.0095669344696628911
leaf_weight=79 92 49 52 50 51 88 65
leaf_count=79 92 49 52 50 51 88 65
internal_value=0.00175465 0.00400367 0.00623126 0.00357534 0.00621852 0.00199529 -0.00324445
internal_weight=526 447 355 303 254 204 116
internal_count=526 447 355 303 254 204 116
is_linear=0
shrinkage=0.0320375


Tree=97
num_leaves=9
num_cat=0
split_feature=0 1 3 10 3 6 6 5
split_gain=14.5032 29.3583 17.8494 13.6426 12.9914 14.5702 19.8114 1.63479
threshold=26.300000000000001 88.500000000000014 14.850000000000003 1.2072164706686885 9.5500000000000025 0.4500000000000029 1.5499999999999974 0.14350000000000002
decision_type=2 2 2 2 2 2 2 2
left_child=-1 -2 3 -3 7 -6 -7 -5
right_child=1 2 -4 4 5 6 -8 -9
leaf_value=0.018112505702053347 -0.020778674747376751 -0.011961278394197037 0.01984757921453455 0.016379937639716968 0.010270115356388974 -0.022907010814097139 0.0037696407364536449 0.0083330763336381779
leaf_weight=50 61 73 56 55 67 53 62 49
leaf_count=50 61 73 56 55 67 53 62 49
internal_value=0.00169844 -2.57287e-05 0.0030247 0.000400523 0.00355581 -0.0016058 -0.00852482 0.0125886
internal_weight=526 476 415 359 286 182 115 104
internal_count=526 476 415 359 286 182 115 104
is_linear=0
shrinkage=0.0320375


Tree=98
num_leaves=9
num_cat=0
split_feature=8 3 0 4 4 9 7 7
split_gain=24.9736 31.7358 22.3192 22.3876 37.6358 21.641 8.29906 2.9323
threshold=1.6500000000000004 15.350000000000003 58.800000000000004 9.9050000000000029 6.6750000000000016 0.871428571428572 1.4500000000000031 0.24999999999999997
decision_type=2 2 2 2 2 2 2 2
left_child=1 2 3 4 -1 -4 7 -5
right_child=-2 -3 5 6 -6 -7 -8 -9
leaf_value=0.010595251016819615 -0.021160197911187954 0.020090949352673963 -0.02368669288666303 0.011636371705181262 -0.027851724932462234 0.00073764957737899439 0.022021962306549139 0.0012620128692660403
leaf_weight=56 51 86 73 58 49 76 53 54
leaf_count=56 51 86 73 58 49 76 53 54
internal_value=0.000205766 0.00236352 -0.00127505 0.00421786 -0.00734667 -0.0112286 0.0115771 0.00663445
internal_weight=556 505 419 270 105 149 165 112
internal_count=556 505 419 270 105 149 165 112
is_linear=0
shrinkage=0.0320375


Tree=99
num_leaves=8
num_cat=0
split_feature=8 3 0 4 4 9 5
split_gain=23.399 29.7349 20.912 20.9761 35.2629 20.2766 5.71622
threshold=1.6500000000000004 15.350000000000003 58.800000000000004 9.9050000000000029 6.6750000000000016 0.871428571428572 0.10850000000000001
decision_type=2 2 2 2 2 2 2
left_child=1 2 3 4 -1 -4 -5
right_child=-2 -3 5 6 -6 -7 -8
leaf_value=0.010255805285966004 -0.020482277789990028 0.019447284822587039 -0.022927830643778305 0.0048313934494600922 -0.026959424787254709 0.00071401711468702513 0.01678416140699035
leaf_weight=56 51 86 73 77 49 76 88
leaf_count=56 51 86 73 77 49 76 88
internal_value=0.000199174 0.0022878 -0.0012342 0.00408273 -0.0071113 -0.0108689 0.0112062
internal_weight=556 505 419 270 105 149 165
internal_count=556 505 419 270 105 149 165
is_linear=0
shrinkage=0.0320375


Tree=100
num_leaves=9
num_cat=0
split_feature=8 3 0 4 4 9 7 7
split_gain=21.9238 27.8602 19.5935 19.6536 33.0397 18.9982 7.77878 2.73299
threshold=1.6500000000000004 15.350000000000003 58.800000000000004 9.9050000000000029 6.6750000000000016 0.871428571428572 1.4500000000000031 0.24999999999999997
decision_type=2 2 2 2 2 2 2 2
left_child=1 2 3 4 -1 -4 7 -5
right_child=-2 -3 5 6 -6 -7 -8 -9
leaf_value=0.0099272346455730326 -0.019826076164141618 0.018824242226501024 -0.022193279187306937 0.010890907464359594 -0.02609571174799993 0.00069114179845073428 0.020959341197120646 0.00087532679317146704
leaf_weight=56 51 86 73 58 49 76 53 54
leaf_count=56 51 86 73 58 49 76 53 54
internal_value=0.000192793 0.0022145 -0.00119466 0.00395193 -0.00688347 -0.0105207 0.0108472 0.00606197
internal_weight=556 505 419 270 105 149 165 112
internal_count=556 505 419 270 105 149 165 112
is_linear=0
shrinkage=0.0320375


Tree=101
num_leaves=9
num_cat=0
split_feature=8 3 0 3 4 4 7 7
split_gain=20.5415 26.1036 18.3582 18.6463 18.4144 30.9566 7.28834 2.56068
threshold=1.6500000000000004 15.350000000000003 58.800000000000004 11.250000000000002 9.9050000000000029 6.6750000000000016 1.4500000000000031 0.24999999999999997
decision_type=2 2 2 2 2 2 2 2
left_child=1 2 4 -4 5 -1 7 -6
right_child=-2 -3 3 -5 6 -7 -8 -9
leaf_value=0.0096091909753415611 -0.019190897832293 0.018221160179157963 -0.00074768483668456883 -0.023796146419218459 0.010541989948976574 -0.025259669882353609 0.020287855909747698 0.00084728340515002865
leaf_weight=56 51 86 88 61 58 49 53 54
leaf_count=56 51 86 88 61 58 49 53 54
internal_value=0.000186616 0.00214355 -0.00115638 -0.0101836 0.00382532 -0.00666294 0.0104997 0.00586776
internal_weight=556 505 419 149 270 105 165 112
internal_count=556 505 419 149 270 105 165 112
is_linear=0
shrinkage=0.0320375


Tree=102
num_leaves=8
num_cat=0
split_feature=8 3 0 5 9 9 10
split_gain=19.2464 24.4578 17.2007 17.8568 21.1877 17.7331 13.5394
threshold=1.6500000000000004 15.350000000000003 58.800000000000004 0.10850000000000001 0.37857142857142828 0.871428571428572 2.9795729874102332
decision_type=2 2 2 2 2 2 2
left_child=1 2 3 4 6 -4 -1
right_child=-2 -3 5 -5 -6 -7 -8
leaf_value=0.014312184510487259 -0.018576069125652461 0.017637399518509581 -0.021134619162332634 0.015551545372826743 -0.019309936127854994 0.00097471698862716086 -0.0064548813007086689
leaf_weight=71 51 86 73 88 52 76 59
leaf_count=71 51 86 73 88 52 76 59
internal_value=0.000180638 0.00207488 -0.00111934 0.00370276 -0.00202632 -0.00985737 0.00488713
internal_weight=556 505 419 270 182 149 130
internal_count=556 505 419 270 182 149 130
is_linear=0
shrinkage=0.0320375


Tree=103
num_leaves=9
num_cat=0
split_feature=6 0 4 6 5 4 6 1
split_gain=19.7986 29.7563 42.7473 30.8974 21.5596 13.4168 9.63412 13.5733
threshold=2.7999999999999994 46.050000000000004 17.835000000000004 1.2500000000000002 0.078500000000000014 6.8900000000000015 0.24999999999999997 175.50000000000003
decision_type=2 2 2 2 2 2 2 2
left_child=1 4 3 -3 5 -1 -4 -8
right_child=-2 2 6 -5 -6 -7 7 -9
leaf_value=0.011987943498778545 0.016647542091559032 -0.0079873377788409663 0.012451661291630157 -0.043965300957193719 0.022511581301203572 -0.0076143341893165533 -0.0166955695276251 0.0043707817298023555
leaf_weight=60 66 49 49 49 64 89 53 77
leaf_count=60 66 49 49 49 64 89 53 77
internal_value=0.000174851 -0.00204392 -0.00896701 -0.0259763 0.00695935 0.0002792 0.000345343 -0.00421781
internal_weight=556 490 277 98 213 149 179 130
internal_count=556 490 277 98 213 149 179 130
is_linear=0
shrinkage=0.0320375


Tree=104
num_leaves=9
num_cat=0
split_feature=6 0 4 3 5 6 6 9
split_gain=18.5503 27.8802 40.0521 29.2516 20.2003 12.7785 9.0267 9.02633
threshold=2.7999999999999994 46.050000000000004 17.835000000000004 11.250000000000002 0.078500000000000014 0.65000000000000047 0.24999999999999997 0.8500000000000002
decision_type=2 2 2 2 2 2 2 2
left_child=1 4 3 -3 5 -1 -4 -8
right_child=-2 2 6 -5 -6 -7 7 -9
leaf_value=0.0091018941793141288 0.016114196000797533 -0.0076407875822952585 0.012052740672676063 -0.042647417533597673 0.021790366260756793 -0.0096968786484961291 -0.013201027273813394 0.003733047107518797
leaf_weight=79 66 49 49 49 64 70 60 70
leaf_count=79 66 49 49 49 64 70 60 70
internal_value=0.000169249 -0.00197844 -0.00867973 -0.0251441 0.00673639 0.000270256 0.000334279 -0.00408268
internal_weight=556 490 277 98 213 149 179 130
internal_count=556 490 277 98 213 149 179 130
is_linear=0
shrinkage=0.0320375


Tree=105
num_leaves=9
num_cat=0
split_feature=1 10 6 9 3 9 3 6
split_gain=30.3501 43.1096 24.5239 15.457 53.2337 38.9007 17.1308 23.2626
threshold=88.500000000000014 3.4900190800668383 0.84999999999999976 0.43571428571428655 12.750000000000002 0.082142857142857004 9.0500000000000025 1.3499999999999999
decision_type=2 2 2 2 2 2 2 2
left_child=2 3 -1 5 6 -2 -5 -8
right_child=1 -3 -4 4 -6 -7 7 -9
leaf_value=0.00073196035408357207 0.0079712385349718258 0.026582876052469867 -0.028819591676348733 0.006517311444073322 0.030570586094222554 -0.025780640988525661 0.00012872930172566678 -0.028527146665008007
leaf_weight=49 63 61 70 75 54 79 63 54
leaf_count=49 63 61 70 75 54 79 63 54
internal_value=-0.00226616 0.00154638 -0.0166513 -0.00238976 0.00246851 -0.0108062 -0.0054352 -0.0130971
internal_weight=568 449 119 388 246 142 192 117
internal_count=568 449 119 388 246 142 192 117
is_linear=0
shrinkage=0.0320375


Tree=106
num_leaves=10
num_cat=0
split_feature=1 10 6 7 5 6 3 7 10
split_gain=28.4365 40.3916 22.9777 20.7784 26.9269 18.1412 20.9471 9.10036 6.42672
threshold=88.500000000000014 3.4900190800668383 0.84999999999999976 1.5499999999999974 0.12900000000000003 0.59999999999999798 12.250000000000002 0.39999999999999952 1.7954926058350076
decision_type=2 2 2 2 2 2 2 2 2
left_child=2 3 -1 5 -5 8 7 -7 -2
right_child=1 -3 -4 4 -6 6 -8 -9 -10
leaf_value=0.00070850998996934268 -0.015544002676460453 0.025731226461083338 -0.027896283724797126 -0.031364597688475673 -0.0017913981095144813 0.011309367661840701 0.027142369887053274 -0.007925040399696678 0.00078230863596279231
leaf_weight=49 50 61 70 49 89 51 50 50 49
leaf_count=49 50 61 70 49 89 51 50 50 49
internal_value=-0.00219356 0.00149684 -0.0161178 -0.0023132 -0.012292 0.00319511 0.0101831 0.00178738 -0.0074633
internal_weight=568 449 119 388 138 250 151 101 99
internal_count=568 449 119 388 138 250 151 101 99
is_linear=0
shrinkage=0.0320375


Tree=107
num_leaves=9
num_cat=0
split_feature=1 10 7 9 1 2 8 0
split_gain=26.6437 37.8449 19.4683 29.7948 15.9125 11.9504 10.2623 4.49155
threshold=88.500000000000014 3.4900190800668383 1.5499999999999974 1.0821428571428566 42.500000000000007 0.006000000000000001 0.64285714285714324 51.100000000000009
decision_type=2 2 2 2 2 2 2 2
left_child=4 2 5 -4 -1 6 7 -2
right_child=1 -3 3 -5 -6 -7 -8 -9
leaf_value=-0.0018390456220605316 -0.0015295067628428602 0.024906862005676756 -0.02420025438729656 0.0061154715102468516 -0.025574229909735156 0.013691323191049837 0.0072985974166893276 -0.015246974912510616
leaf_weight=50 49 61 82 56 69 76 76 49
leaf_count=50 49 61 82 56 69 76 76 49
internal_value=-0.00212328 0.00144889 -0.00223909 -0.0118982 -0.0156015 0.00309275 -0.00153652 -0.00838824
internal_weight=568 449 388 138 119 250 174 98
internal_count=568 449 388 138 119 250 174 98
is_linear=0
shrinkage=0.0320375


Tree=108
num_leaves=9
num_cat=0
split_feature=1 10 7 9 1 2 5 0
split_gain=24.9638 35.4589 18.2409 27.9163 14.9093 11.2645 8.25401 16.2253
threshold=88.500000000000014 3.4900190800668383 1.5499999999999974 1.0821428571428566 42.500000000000007 0.014000000000000002 0.18250000000000002 46.250000000000007
decision_type=2 2 2 2 2 2 2 2
left_child=4 2 5 -4 -1 6 7 -2
right_child=1 -3 3 -5 -6 -7 -8 -9
leaf_value=-0.0017801270508999477 0.0066090896161545903 0.024108907569480802 -0.023424938354859173 0.0059195464705310372 -0.024754895863331555 0.014466606639793229 0.007158044534492855 -0.018064930988047737
leaf_weight=50 51 61 82 56 69 65 75 59
leaf_count=50 51 61 82 56 69 65 75 59
internal_value=-0.00205526 0.00140247 -0.00216736 -0.011517 -0.0151016 0.00299366 -0.00103737 -0.00662516
internal_weight=568 449 388 138 119 250 185 110
internal_count=568 449 388 138 119 250 185 110
is_linear=0
shrinkage=0.0320375


Tree=109
num_leaves=10
num_cat=0
split_feature=1 10 6 7 5 6 3 7 10
split_gain=23.3899 33.2232 21.8197 17.0908 24.1864 16.7501 19.3641 8.51011 5.84055
threshold=88.500000000000014 3.4900190800668383 0.84999999999999976 1.5499999999999974 0.12900000000000003 0.59999999999999798 12.250000000000002 0.39999999999999952 1.7954926058350076
decision_type=2 2 2 2 2 2 2 2 2
left_child=2 3 -1 5 -5 8 7 -7 -2
right_child=1 -3 -4 4 -6 6 -8 -9 -10
leaf_value=0.0017790480897335787 -0.015047228445967892 0.023336518319936526 -0.026095614710142462 -0.029224034737363968 -0.0011961097656784565 0.010748217693429521 0.025918350723662321 -0.0078519524704641595 0.00051674392396147402
leaf_weight=49 50 61 70 49 89 51 50 50 49
leaf_count=49 50 61 70 49 89 51 50 50 49
internal_value=-0.00198941 0.00135754 -0.0146178 -0.00209792 -0.0111481 0.00289775 0.00961244 0.00154021 -0.00734385
internal_weight=568 449 119 388 138 250 151 101 99
internal_count=568 449 119 388 138 250 151 101 99
is_linear=0
shrinkage=0.0320375


Tree=110
num_leaves=10
num_cat=0
split_feature=1 10 6 7 9 6 3 7 10
split_gain=21.9152 31.1286 20.444 16.0133 25.6673 15.694 18.1432 7.97356 5.47232
threshold=88.500000000000014 3.4900190800668383 0.84999999999999976 1.5499999999999974 1.0821428571428566 0.59999999999999798 12.250000000000002 0.39999999999999952 1.7954926058350076
decision_type=2 2 2 2 2 2 2 2 2
left_child=2 3 -1 5 -5 8 7 -7 -2
right_child=1 -3 -4 4 -6 6 -8 -9 -10
