tree
version=v4
num_class=1
num_tree_per_iteration=1
label_index=0
max_feature_idx=13
objective=regression
feature_names=forecast_low forecast_high forecast_diurnal_range day_sin day_cos forecast_precip forecast_wind forecast_radiation forecast_evap lag_low_1d lag_low_2d roll_low_7d_mean roll_low_14d_mean roll_low_7d_std
feature_infos=[18.300000000000001:79.700000000000003] [34.600000000000001:105.40000000000001] [4.8999999999999986:40.700000000000003] [-0.99999942202469239:0.99998555065071859] [-0.99997919295908244:0.9999907524084426] [0:4.399] [5.5:42.899999999999999] [227:8424] [0.016:0.32900000000000001] [-11.900000000000006:10.5] [-11.900000000000006:10.5] [-8.2714285714285722:3.7428571428571433] [-5.8642857142857139:2.7571428571428567] [0.38483144114696272:7.7226629998675875]
tree_sizes=700 730 731 729 730 725 811 818 728 737 732 653 741 735 728 820 822 734 825 822 731 736 741 745 741 747 660 731 805 738 746 739 810 721 662 746 738 743 735 830 740 740 824

Tree=0
num_leaves=7
num_cat=0
split_feature=0 13 1 0 0 11
split_gain=381.779 264.85 213.824 113.957 100.62 66.175
threshold=51.750000000000007 3.719440418777284 89.100000000000009 72.050000000000011 58.500000000000007 -1.4785714285714291
decision_type=2 2 2 2 2 2
left_child=1 -1 4 -4 -2 -6
right_child=2 -3 3 -5 5 -7
leaf_value=-1.7695429172555674 -1.7497908016783672 -2.0574315211000025 -1.922318857229822 -1.7374310854709718 -1.6672812149966703 -1.5252687203755895
leaf_weight=40 37 40 32 59 40 43
leaf_count=40 37 40 32 59 40 43
internal_value=-1.76673 -1.91369 -1.71108 -1.80227 -1.6418 -1.59351
internal_weight=291 80 211 91 120 83
internal_count=291 80 211 91 120 83
is_linear=0
shrinkage=1


Tree=1
num_leaves=7
num_cat=0
split_feature=2 9 0 2 8 8
split_gain=438.555 154.531 105.466 79.069 56.1075 33.0033
threshold=24.649999999999995 -0.95000000000000273 51.750000000000007 15.550000000000002 0.11450000000000002 0.23450000000000001
decision_type=2 2 2 2 2 2
left_child=1 4 -2 -3 -1 -6
right_child=2 3 -4 -5 5 -7
leaf_value=0.062477449792408393 -0.27703671863288465 0.20371266862891649 -0.092526277003559781 0.058214671459627873 -0.09949216200920466 0.0044922794618372716
leaf_weight=36 35 39 44 59 46 32
leaf_count=36 35 39 44 59 46 32
internal_value=-0.0155997 0.0435306 -0.174481 0.116285 -0.0188714 -0.0566252
internal_weight=291 212 79 98 114 78
internal_count=291 212 79 98 114 78
is_linear=0
shrinkage=0.0789854


Tree=2
num_leaves=7
num_cat=0
split_feature=0 8 6 8 4 3
split_gain=322.686 301.702 130.521 141.533 132.686 38.5693
threshold=52.900000000000006 0.11250000000000002 18.450000000000003 0.13900000000000004 -0.57077231802681661 0.022575936829235404
decision_type=2 2 2 2 2 2
left_child=1 -1 3 -2 5 -5
right_child=2 -3 -4 4 -6 -7
leaf_value=0.0079288885023230411 0.13612731807406914 -0.29144283401450116 0.16606725035660902 -0.015498957726798433 -0.11614364014053133 0.10329701732840681
leaf_weight=44 45 40 46 32 57 36
leaf_count=44 45 40 46 32 57 36
internal_value=-0.00303037 -0.13444 0.047999 0.0159544 -0.0271797 0.047156
internal_weight=300 84 216 170 125 68
internal_count=300 84 216 170 125 68
is_linear=0
shrinkage=0.0789854


Tree=3
num_leaves=7
num_cat=0
split_feature=2 9 3 12 2 12
split_gain=582.187 142.755 58.7013 53.377 43.607 37.1439
threshold=26.399999999999999 -2.9000000000000017 0.54940630780725741 -1.2321428571428572 15.600000000000007 -2.3321428571428569
decision_type=2 2 2 2 2 2
left_child=1 5 4 -4 -3 -1
right_child=-2 2 3 -5 -6 -7
leaf_value=0.025419556288483414 -0.25186071213844052 0.11286159521480217 0.083831429899370716 0.2148201530757472 -0.0020992246626706425 -0.083679423348021281
leaf_weight=32 49 33 51 32 54 49
leaf_count=32 49 33 51 32 54 49
internal_value=-0.00278249 0.0457793 0.0869265 0.134532 0.041322 -0.0403791
internal_weight=300 251 170 83 87 81
internal_count=300 251 170 83 87 81
is_linear=0
shrinkage=0.0789854


Tree=4
num_leaves=7
num_cat=0
split_feature=9 7 4 1 9 6
split_gain=341.528 213.667 180.147 157.938 69.2166 12.7423
threshold=-5.950000000000002 4199.5000000000009 0.13185577213185917 75.350000000000009 -0.45000000000000279 14.250000000000002
decision_type=2 2 2 2 2 2
left_child=-1 3 4 -2 5 -3
right_child=1 2 -4 -5 -6 -7
leaf_value=-0.21645478242200722 0.036456624461822205 -0.049528130709029762 -0.17022469788210917 0.24373177935704818 0.094758896323969985 0.01479583804200472
leaf_weight=39 51 45 38 42 53 33
leaf_count=39 51 45 38 42 53 33
internal_value=0.00155275 0.0340673 -0.0187621 0.130242 0.0250518 -0.0221069
internal_weight=301 262 169 93 131 78
internal_count=301 262 169 93 131 78
is_linear=0
shrinkage=0.0789854


Tree=5
num_leaves=7
num_cat=0
split_feature=2 1 7 1 6 1
split_gain=253.345 129.806 109.199 78.8376 35.7988 16.8485
threshold=23.750000000000004 82.450000000000017 3051.5000000000005 79.90000000000002 16.050000000000004 91.500000000000014
decision_type=2 2 2 2 2 2
left_child=2 -2 -1 -4 5 -5
right_child=1 -3 3 4 -6 -7
leaf_value=0.14246170215120943 -0.21595799469944219 -0.017934352531034859 -0.072544869882149476 0.051552145972717581 0.10383038555738773 -0.025245902835840502
leaf_weight=55 41 42 47 36 45 35
leaf_count=55 41 42 47 36 45 35
internal_value=0.00143008 -0.115951 0.0461959 0.013613 0.048662 0.0134662
internal_weight=301 83 218 163 116 71
internal_count=301 83 218 163 116 71
is_linear=0
shrinkage=0.0789854


Tree=6
num_leaves=8
num_cat=0
split_feature=9 0 7 4 9 0 4
split_gain=191.376 120.705 110.185 174.927 50.3284 22.3879 12.0777
threshold=-3.7499999999999996 53.350000000000001 4078.5000000000005 0.097680735332368721 -1.5499999999999969 70.450000000000017 0.73136292505298039
decision_type=2 2 2 2 2 2 2
left_child=1 -1 6 4 -4 -6 -2
right_child=2 -3 3 -5 5 -7 -8
leaf_value=-0.20563250657303464 0.14683385947584238 -0.018826494768948474 -0.03034952480187425 -0.16374841152742442 0.030824124199454805 0.11951976957143209 0.078508962781234315
leaf_weight=41 36 46 40 34 33 40 32
leaf_count=41 36 46 40 34 33 40 32
internal_value=-0.00816543 -0.10705 0.0317736 -0.00658039 0.0405677 0.0796481 0.114922
internal_weight=302 87 215 147 113 73 68
internal_count=302 87 215 147 113 73 68
is_linear=0
shrinkage=0.0789854


Tree=7
num_leaves=8
num_cat=0
split_feature=9 4 7 4 7 4 4
split_gain=162.522 98.0731 86.9604 142.755 31.6471 18.8538 9.7934
threshold=-2.9000000000000017 0.56191161272202661 4078.5000000000005 0.063390085881955258 7160.5000000000009 -0.19337245081799001 0.70747208174348741
decision_type=2 2 2 2 2 2 2
left_child=1 5 6 4 -4 -1 -2
right_child=2 -3 3 -5 -6 -7 -8
leaf_value=0.01211486887837653 0.14473771202389049 -0.17866471447158264 0.090547596497630903 -0.14368625952833813 -0.0053850292935041719 -0.065765174947665969 0.081108532666438068
leaf_weight=38 32 41 52 32 36 39 32
leaf_count=38 32 41 52 32 36 39 32
internal_value=-0.00751626 -0.0799153 0.0388259 -0.000695441 0.0511192 -0.0271212 0.113179
internal_weight=302 118 184 120 88 77 64
internal_count=302 118 184 120 88 77 64
is_linear=0
shrinkage=0.0789854


Tree=8
num_leaves=7
num_cat=0
split_feature=9 3 8 0 0 0
split_gain=147.184 78.518 64.4905 89.42 56.1128 33.2541
threshold=-2.2499999999999996 0.87397152483179585 0.10850000000000001 67.550000000000011 52.500000000000007 73.250000000000014
decision_type=2 2 2 2 2 2
left_child=1 4 -2 -4 -1 -5
right_child=2 -3 3 5 -6 -7
leaf_value=-0.17620827658952193 0.13676840120910419 0.049654023711798598 -0.060450232366820324 0.13227645974684871 -0.045799566097220364 0.026421935873898635
leaf_weight=33 47 32 45 38 56 37
leaf_count=33 47 32 45 38 56 37
internal_value=0.0101436 -0.0561234 0.0582544 0.0273666 -0.0943379 0.0802727
internal_weight=288 121 167 120 89 75
internal_count=288 121 167 120 89 75
is_linear=0
shrinkage=0.0789854


Tree=9
num_leaves=7
num_cat=0
split_feature=9 12 8 8 9 8
split_gain=124.875 76.9323 54.6835 48.0423 36.503 35.3612
threshold=-2.2499999999999996 -2.3999999999999995 0.10850000000000001 0.16850000000000004 -0.45000000000000279 0.18200000000000002
decision_type=2 2 2 2 2 2
left_child=1 -1 -2 -3 -4 -6
right_child=2 3 4 -5 5 -7
leaf_value=0.031344972424372605 0.12596611236187663 -0.16268055006305543 -0.038537122534664542 -0.037222490802267895 -0.0032552450942054528 0.10083769547801322
leaf_weight=44 47 38 38 39 36 46
leaf_count=44 47 38 38 39 36 46
internal_value=0.00934241 -0.0516907 0.053661 -0.0993495 0.0252051 0.0549419
internal_weight=288 121 167 77 120 82
internal_count=288 121 167 77 120 82
is_linear=0
shrinkage=0.0789854


Tree=10
num_leaves=7
num_cat=0
split_feature=8 0 6 12 7 0
split_gain=221.954 178.472 107.989 58.4043 47.3189 18.2894
threshold=0.10750000000000001 58.750000000000007 16.050000000000004 -1.8749999999999998 5505.0000000000009 69.050000000000011
decision_type=2 2 2 2 2 2
left_child=3 4 5 -1 -2 -3
right_child=1 2 -4 -5 -6 -7
leaf_value=0.18858044644951705 -0.21289101658716567 -0.092504673187562822 0.091183786133279113 0.043814678126337853 -0.078063229376908336 -0.018316441743336871
leaf_weight=39 33 32 61 32 33 61
leaf_count=39 33 32 61 32 33 61
internal_value=0.00208744 -0.0370437 0.00943066 0.123565 -0.145726 -0.044019
internal_weight=291 220 154 71 66 93
internal_count=291 220 154 71 66 93
is_linear=0
shrinkage=0.0789854


Tree=11
num_leaves=6
num_cat=0
split_feature=7 1 6 13 11
split_gain=165.268 100.17 140.244 70.0255 15.765
threshold=3396.5000000000005 85.65000000000002 16.050000000000004 3.8397357176978182 -1.7857142857142854
decision_type=2 2 2 2 2
left_child=-1 3 4 -2 -3
right_child=1 2 -4 -5 -6
leaf_value=0.12810091967645038 -0.017659324015002593 -0.08042592901790753 0.12794799278371122 -0.14466464883063287 -0.0099878648962746334
leaf_weight=53 54 37 48 55 44
leaf_count=53 54 37 48 55 44
internal_value=0.00191373 -0.0261195 0.0208832 -0.0818945 -0.0423643
internal_weight=291 238 129 109 81
internal_count=291 238 129 109 81
is_linear=0
shrinkage=0.0789854


Tree=12
num_leaves=7
num_cat=0
split_feature=2 9 11 4 0 8
split_gain=209.429 76.8408 52.5152 47.1507 38.4149 16.8382
threshold=27.500000000000007 -0.24999999999999992 -2.8071428571428574 0.42763731121559989 57.900000000000006 0.24450000000000002
decision_type=2 2 2 2 2 2
left_child=1 2 -1 -3 -4 -6
right_child=-2 3 4 -5 5 -7
leaf_value=0.057460031755574889 -0.18070493284264513 0.12075714747354668 -0.10710646003715513 0.0030443245112955681 0.022156045339943396 -0.052355073185686579
leaf_weight=50 36 61 36 33 46 32
leaf_count=50 36 61 36 33 46 32
internal_value=-0.00219595 0.0226506 -0.00989605 0.0796055 -0.0395807 -0.00820556
internal_weight=294 258 164 94 114 78
internal_count=294 258 164 94 114 78
is_linear=0
shrinkage=0.0789854


Tree=13
num_leaves=7
num_cat=0
split_feature=2 3 12 9 4 6
split_gain=177.664 94.7323 126.03 116.99 55.534 29.6571
threshold=27.500000000000007 1.0000000180025095e-35 -2.3999999999999995 -2.7499999999999996 -0.056951011027366542 16.950000000000003
decision_type=2 2 2 2 2 2
left_child=1 4 -3 -4 -1 -5
right_child=-2 2 3 5 -6 -7
leaf_value=0.013214890435230069 -0.16643260799777981 0.17783187050287064 -0.10166418800906556 0.023846111645770298 -0.10609896952896436 0.11901306486227904
leaf_weight=54 36 41 36 44 44 39
leaf_count=54 36 41 36 44 44 39
internal_value=-0.00201387 0.0208665 0.0583651 0.0170662 -0.0401904 0.0687598
internal_weight=294 258 160 119 98 83
internal_count=294 258 160 119 98 83
is_linear=0
shrinkage=0.0789854


Tree=14
num_leaves=7
num_cat=0
split_feature=6 0 13 0 11 9
split_gain=78.3191 67.6184 62.9727 45.9512 39.9826 37.8786
threshold=10.350000000000003 58.300000000000004 2.619928069245987 64.65000000000002 -3.0571428571428565 -1.0999999999999976
decision_type=2 2 2 2 2 2
left_child=-1 4 5 -4 -2 -3
right_child=1 2 3 -5 -6 -7
leaf_value=-0.086434571322206249 0.033431994203929213 -0.051035151620945275 0.17405389695822576 0.055492827666953924 -0.073812971818389569 0.057638337559399226
leaf_weight=47 36 40 33 55 54 40
leaf_count=47 36 40 33 55 54 40
internal_value=0.00726369 0.024396 0.054027 0.10014 -0.0307353 0.00309928
internal_weight=305 258 168 88 90 80
internal_count=305 258 168 88 90 80
is_linear=0
shrinkage=0.0789854


Tree=15
num_leaves=8
num_cat=0
split_feature=2 3 12 2 0 8 3
split_gain=78.4477 47.6494 35.9954 58.9659 23.3129 36.6408 30.3526
threshold=27.750000000000004 0.42179998225932674 -0.81428571428571384 18.600000000000001 58.750000000000007 0.20750000000000002 -0.53493989022977317
decision_type=2 2 2 2 2 2 2
left_child=1 4 3 -3 -1 -6 -7
right_child=-2 2 -4 -5 5 6 -8
leaf_value=-0.060947527309813995 -0.11022933080001025 -0.018781107043649752 0.12681875063672141 0.10865640679518834 0.072495788832656283 -0.079449494717253613 0.026653344704390076
leaf_weight=41 32 58 33 37 37 33 34
leaf_count=41 32 58 33 37 37 33 34
internal_value=0.00669002 0.0204548 0.0555961 0.0306832 -0.0104551 0.00929561 -0.0253654
internal_weight=305 273 128 95 145 104 67
internal_count=305 273 128 95 145 104 67
is_linear=0
shrinkage=0.0789854


Tree=16
num_leaves=8
num_cat=0
split_feature=2 12 12 11 6 13 11
split_gain=161.002 30.7659 51.4707 40.4644 55.9568 36.0826 32.8908
threshold=28.050000000000004 -2.8928571428571419 -2.117857142857142 -1.1214285714285717 13.950000000000001 2.9451736119187832 0.26428571428571301
decision_type=2 2 2 2 2 2 2
left_child=1 -1 -3 5 -5 -4 -6
right_child=-2 2 3 4 6 -7 -8
leaf_value=0.081375481230608879 -0.16979881200761807 -0.061347865585685911 0.018948252373396954 -0.088451212744208405 -0.021272165952717033 0.1222029613620849 0.090795251198985183
leaf_weight=40 32 54 47 35 32 39 33
leaf_count=40 32 54 47 35 32 39 33
internal_value=-0.00191974 0.0172096 0.00644729 0.0262172 -0.00780279 0.0659629 0.0353755
internal_weight=312 280 240 186 100 86 65
internal_count=312 280 240 186 100 86 65
is_linear=0
shrinkage=0.0789854


Tree=17
num_leaves=7
num_cat=0
split_feature=2 8 4 6 10 10
split_gain=136.575 46.7639 40.8379 46.4089 20.4217 22.2925
threshold=28.050000000000004 0.081000000000000016 0.56191161272202661 19.750000000000004 -3.0499999999999967 -0.24999999999999992
decision_type=2 2 2 2 2 2
left_child=1 -1 3 4 -3 -6
right_child=-2 2 -4 -5 5 -7
leaf_value=0.094927545463239033 -0.15638795277986275 -0.038605928096329817 -0.073631708824887468 0.10229229816333925 0.05483772199700284 -0.015169361957547041
leaf_weight=40 32 57 37 33 56 57
leaf_count=40 32 57 37 33 56 57
internal_value=-0.00176402 0.0158504 0.00260275 0.016578 0 0.0193815
internal_weight=312 280 240 203 170 113
internal_count=312 280 240 203 170 113
is_linear=0
shrinkage=0.0789854


Tree=18
num_leaves=8
num_cat=0
split_feature=2 10 10 3 3 0 0
split_gain=82.6865 53.1094 48.9539 37.3594 38.0052 21.5748 21.3862
threshold=24.649999999999995 1.3499999999999981 -2.6500000000000017 0.9193901325473397 0.65883702558178847 67.100000000000009 74.800000000000026
decision_type=2 2 2 2 2 2 2
left_child=1 3 -2 4 5 -1 -7
right_child=2 -3 -4 -5 -6 6 -8
leaf_value=-0.049750148804623549 -0.0095892592799844516 0.099095268465703823 -0.14619951138598639 -0.070043512538382716 0.094037999905550021 0.068979883401781045 -0.012724750064304501
leaf_weight=38 33 45 33 35 34 35 46
leaf_count=38 33 45 33 35 34 35 46
internal_value=-4.60233e-05 0.0220065 -0.0781419 0.00346749 0.0203902 -0.000517103 0.0223806
internal_weight=299 233 66 188 153 119 81
internal_count=299 233 66 188 153 119 81
is_linear=0
shrinkage=0.0789854


Tree=19
num_leaves=8
num_cat=0
split_feature=2 5 2 1 12 9 12
split_gain=70.1622 87.2104 63.0875 41.5269 21.7968 19.9239 3.24455
threshold=24.649999999999995 0.022000000000000002 16.650000000000009 82.050000000000011 -1.7815934065934067 -0.45000000000000279 -1.5428571428571443
decision_type=2 2 2 2 2 2 2
left_child=1 2 4 -2 -1 6 -4
right_child=3 -3 5 -5 -6 -7 -8
leaf_value=0.15595839221901231 -0.13467506457607017 -0.068665808167293826 -0.028071285800008366 -0.0088093532388633777 0.062570722213380628 0.054372462070315167 0.0051259697648377688
leaf_weight=32 33 53 41 33 32 43 32
leaf_count=32 33 53 41 33 32 43 32
internal_value=-4.66781e-05 0.0202629 0.0465379 -0.0719895 0.109521 0.0116479 -0.0132975
internal_weight=299 233 180 66 64 116 73
internal_count=299 233 180 66 64 116 73
is_linear=0
shrinkage=0.0789854


Tree=20
num_leaves=7
num_cat=0
split_feature=9 10 7 6 2 7
split_gain=81.366 126.935 49.0003 29.3443 22.4929 13.4364
threshold=-3.9500000000000024 -4.5499999999999963 3651.0000000000005 16.150000000000002 18.550000000000001 5780.0000000000009
decision_type=2 2 2 2 2 2
left_child=1 -1 -2 5 -5 -4
right_child=2 -3 3 4 -6 -7
leaf_value=0.034898662423652201 0.096028429144867228 -0.1650943038305378 0.019695526609222754 0.00042634680366530968 0.092559939118852463 -0.04128900299055957
leaf_weight=40 53 39 35 32 35 62
leaf_count=40 53 39 35 32 35 62
internal_value=0.0049388 -0.0636286 0.0299761 0.00853032 0.0487987 -0.0191174
internal_weight=296 79 217 164 67 97
internal_count=296 79 217 164 67 97
is_linear=0
shrinkage=0.0789854


Tree=21
num_leaves=7
num_cat=0
split_feature=8 0 12 6 8 8
split_gain=76.7165 44.4766 67.825 18.8972 45.1725 28.9753
threshold=0.077500000000000013 58.750000000000007 -2.7928571428571427 16.150000000000002 0.19150000000000003 0.19550000000000003
decision_type=2 2 2 2 2 2
left_child=-1 2 -2 5 -5 -3
right_child=1 3 -4 4 -6 -7
leaf_value=0.11621513443769674 0.036599566826205694 0.052442383612482699 -0.10193428740791173 -0.020457504449180149 0.10453248571564323 -0.040030536874106411
leaf_weight=34 34 32 62 34 38 62
leaf_count=34 34 32 62 34 38 62
internal_value=0.00455736 -0.00987149 -0.0527018 0.0148006 0.0452855 -0.00837774
internal_weight=296 262 96 166 72 94
internal_count=296 262 96 166 72 94
is_linear=0
shrinkage=0.0789854


Tree=22
num_leaves=7
num_cat=0
split_feature=13 8 10 9 4 8
split_gain=44.2194 59.3766 26.805 22.193 34.4457 22.7329
threshold=4.1709025375252624 0.10750000000000001 -3.4000000000000017 0.84999999999999798 -0.26037106507032776 0.24350000000000002
decision_type=2 2 2 2 2 2
left_child=1 -1 -2 4 5 -3
right_child=2 3 -4 -5 -6 -7
leaf_value=0.08914801227962095 -0.11113188579679034 0.044064407928885316 -0.011363613836688017 0.044697758299581225 -0.073643732113562024 -0.035840918440628027
leaf_weight=48 34 47 34 37 54 42
leaf_count=48 34 47 34 37 54 42
internal_value=-0.0055509 0.0110613 -0.0614875 -0.00967258 -0.0238541 0.00617439
internal_weight=296 228 68 180 143 89
internal_count=296 228 68 180 143 89
is_linear=0
shrinkage=0.0789854


Tree=23
num_leaves=7
num_cat=0
split_feature=2 10 11 9 12 10
split_gain=54.4563 35.4273 31.6335 29.178 22.5094 12.6648
threshold=27.300000000000008 -2.2499999999999996 -2.4928571428571416 -3.0499999999999967 -1.0821428571428584 -3.7499999999999996
decision_type=2 2 2 2 2 2
left_child=1 3 -3 -1 -4 -5
right_child=-2 2 4 5 -6 -7
leaf_value=-0.078020600349203911 -0.086222666762811609 0.10360411154600663 -0.016982925435849717 0.042462738352118272 0.053108504945007191 -0.027703241722888391
leaf_weight=41 44 32 63 32 52 32
leaf_count=41 44 32 63 32 52 32
internal_value=-0.00511249 0.00898588 0.0340629 -0.0259677 0.0145701 0.00712698
internal_weight=296 252 147 105 115 64
internal_count=296 252 147 105 115 64
is_linear=0
shrinkage=0.0789854


Tree=24
num_leaves=7
num_cat=0
split_feature=12 1 7 5 13 6
split_gain=41.4873 59.6659 66.2743 38.7025 35.8244 20.1148
threshold=-2.8928571428571419 85.15000000000002 4411.5000000000009 1.0000000180025095e-35 2.6489795087274595 13.550000000000002
decision_type=2 2 2 2 2 2
left_child=-1 2 3 -2 5 -3
right_child=1 4 -4 -5 -6 -7
leaf_value=0.067038969180858832 0.051346614282641111 0.036873151522030433 -0.12782846811419596 -0.066273114456298271 0.096584042563068531 -0.040099714337686727
leaf_weight=52 37 45 44 33 34 40
leaf_count=52 37 45 44 33 34 40
internal_value=0.00320552 -0.0109715 -0.051858 -0.00387167 0.0280612 0.000460061
internal_weight=285 233 114 70 119 85
internal_count=285 233 114 70 119 85
is_linear=0
shrinkage=0.0789854


Tree=25
num_leaves=7
num_cat=0
split_feature=12 13 10 9 12 10
split_gain=35.1884 54.1228 32.0428 31.7717 16.5471 9.51769
threshold=-2.8928571428571419 3.8825310307102159 -3.5499999999999967 -2.9500000000000024 -1.6714285714285719 0.4500000000000029
decision_type=2 2 2 2 2 2
left_child=-1 2 -2 -4 -5 -6
right_child=1 -3 3 4 5 -7
leaf_value=0.061744055543464585 0.082794597111697094 -0.077813378226675181 -0.074010488359732285 0.062197627748465656 0.019077188159025444 -0.035969224965384843
leaf_weight=52 32 56 32 33 46 34
leaf_count=52 32 56 32 33 46 34
internal_value=0.00295234 -0.0100995 0.0112333 -0.00444876 0.0151077 -0.00411544
internal_weight=285 233 177 145 113 80
internal_count=285 233 177 145 113 80
is_linear=0
shrinkage=0.0789854


Tree=26
num_leaves=6
num_cat=0
split_feature=4 13 12 0 3
split_gain=53.7176 34.7752 32.4781 47.3378 28.9701
threshold=-0.39036009226888668 5.1402444723445315 -2.832142857142856 59.050000000000004 0.3261394409934788
decision_type=2 2 2 2 2
left_child=4 2 -2 -4 -1
right_child=1 -3 3 -5 -6
leaf_value=0.0078257143678746015 0.01286334963131633 0.048997097279186219 -0.11362998349345992 -0.0065911018163307923 0.091277657404842741
leaf_weight=59 47 32 58 47 47
leaf_count=59 47 32 58 47 47
internal_value=0.00013861 -0.0256071 -0.0414202 -0.0658725 0.0449817
internal_weight=290 184 152 105 106
internal_count=290 184 152 105 106
is_linear=0
shrinkage=0.0789854


Tree=27
num_leaves=7
num_cat=0
split_feature=2 4 0 4 7 0
split_gain=67.209 44.0327 24.7112 36.6043 32.0647 23.5005
threshold=27.050000000000004 0.71952396275653763 63.45000000000001 -0.39036009226888668 5050.0000000000009 75.15000000000002
decision_type=2 2 2 2 2 2
left_child=1 2 4 5 -1 -4
right_child=-2 -3 3 -5 -6 -7
leaf_value=0.016606804641635647 -0.093515575919340829 -0.057986334592004009 0.06744138959692686 -0.048766996433672778 0.12739103366204441 -0.012934678933070222
leaf_weight=34 41 42 63 43 32 35
leaf_count=34 41 42 63 43 32 35
internal_value=0.000132092 0.0156176 0.0306303 0.0118207 0.0705677 0.0385707
internal_weight=290 249 207 141 66 98
internal_count=290 249 207 141 66 98
is_linear=0
shrinkage=0.0789854


Tree=28
num_leaves=8
num_cat=0
split_feature=3 12 4 0 11 6 12
split_gain=40.6158 104.379 66.955 50.3198 41.6503 26.1025 17.5298
threshold=-0.55657520495441892 -2.8928571428571419 -0.39036009226888668 43.45000000000001 -1.6500000000000008 15.65 -1.9321428571428572
decision_type=2 2 2 2 2 2 2
left_child=4 -2 5 -4 -1 -3 -5
right_child=1 2 3 6 -6 -7 -8
leaf_value=-0.098434974413153395 0.14453426989358842 0.016928635414719995 0.045985238962524363 -0.031219394259655319 0.022815700274413923 0.10417891194046577 -0.10470382495235163
leaf_weight=39 38 52 32 39 32 37 44
leaf_count=39 38 52 32 39 32 37 44
internal_value=0.00888726 0.0243417 0.00187238 -0.037853 -0.0435596 0.0533845 -0.0703715
internal_weight=313 242 204 115 71 89 83
internal_count=313 242 204 115 71 89 83
is_linear=0
shrinkage=0.0789854


Tree=29
num_leaves=7
num_cat=0
split_feature=10 9 5 7 6 9
split_gain=61.4807 91.2294 38.5712 48.9901 31.9039 7.49543
threshold=-6.4499999999999984 -3.9500000000000024 0.022000000000000002 4048.0000000000005 11.350000000000003 -0.15000000000000205
decision_type=2 2 2 2 2 2
left_child=-1 -2 3 -3 -5 -6
right_child=1 2 -4 4 5 -7
leaf_value=0.10530775731092924 -0.094468558546275866 0.11786891902075139 -0.044110744487910761 -0.043005878922750582 0.01413366697054046 0.059413607696109566
leaf_weight=36 56 36 48 42 42 53
leaf_count=36 56 36 48 42 42 53
internal_value=0.00818943 -0.00437461 0.018382 0.0358148 0.0141337 0.0395662
internal_weight=313 277 221 173 137 95
internal_count=313 277 221 173 137 95
is_linear=0
shrinkage=0.0789854


Tree=30
num_leaves=7
num_cat=0
split_feature=12 12 3 9 8 9
split_gain=44.2862 33.4666 39.5062 23.8113 14.6551 15.3661
threshold=-2.832142857142856 -1.0035714285714288 0.80926549319045582 -0.95000000000000273 0.10750000000000001 -1.5499999999999969
decision_type=2 2 2 2 2 2
left_child=-1 2 4 -3 -2 -6
right_child=1 3 -4 -5 5 -7
leaf_value=0.061595229992154298 0.036873452316621494 -0.023043749094586664 -0.085807494567946924 0.066659589464073687 -0.066456842396123136 0.0084258210843537532
leaf_weight=58 34 32 61 43 32 36
leaf_count=58 34 32 61 43 32 36
internal_value=-0.000236431 -0.015373 -0.0355079 0.0281707 -0.00526705 -0.0265758
internal_weight=296 238 163 75 102 68
internal_count=296 238 163 75 102 68
is_linear=0
shrinkage=0.0789854


Tree=31
num_leaves=7
num_cat=0
split_feature=8 5 1 3 3 13
split_gain=41.0103 68.0814 61.6385 48.5849 23.0379 25.5158
threshold=0.10750000000000001 1.0000000180025095e-35 85.65000000000002 0.94425825643485939 0.4450565456874816 1.6240974707750298
decision_type=2 2 2 2 2 2
left_child=1 -1 3 -2 5 -4
right_child=2 -3 4 -5 -6 -7
leaf_value=0.12075255708243796 -0.10582335540725217 -0.028682173337741125 0.047224833592843331 0.013268427800465029 0.064841359258142314 -0.042939781478627155
leaf_weight=40 63 36 33 32 44 48
leaf_count=40 63 36 33 32 44 48
internal_value=-0.000209116 0.0497557 -0.0175435 -0.0655383 0.0188034 -0.00600592
internal_weight=296 76 220 95 125 81
internal_count=296 76 220 95 125 81
is_linear=0
shrinkage=0.0789854


Tree=32
num_leaves=8
num_cat=0
split_feature=8 4 8 1 1 0 1
split_gain=100.874 70.8793 51.4524 34.3189 20.1766 18.687 9.87363
threshold=0.10750000000000001 0.13185577213185917 0.15650000000000003 62.70000000000001 85.450000000000017 75.800000000000026 92.15000000000002
decision_type=2 2 2 2 2 2 2
left_child=3 4 -3 -1 -2 6 -6
right_child=1 2 -4 -5 5 -7 -8
leaf_value=0.025485229747165813 -0.037375804843273332 -0.0058771533205268572 -0.13676481330276785 0.13081559101415466 0.03012991836031231 -0.016887328796448147 0.087551323603366329
leaf_weight=33 32 35 41 48 46 32 33
leaf_count=33 32 35 41 48 46 32 33
internal_value=0.0127659 -0.0150257 -0.0767022 0.0881047 0.0176409 0.0336477 0.0543225
internal_weight=300 219 76 81 143 111 79
internal_count=300 219 76 81 143 111 79
is_linear=0
shrinkage=0.0789854


Tree=33
num_leaves=7
num_cat=0
split_feature=7 2 12 13 6 10
split_gain=70.6882 55.1183 44.1113 30.4121 25.4645 34.4584
threshold=3651.0000000000005 13.4 -2.117857142857142 3.5532676180609353 11.450000000000001 1.0000000180025095e-35
decision_type=2 2 2 2 2 2
left_child=1 -1 3 -2 -4 -6
right_child=2 -3 4 -5 5 -7
leaf_value=0.0052404911275154816 -0.0098619150704762105 0.1396594699779154 -0.035786758152437086 -0.10434345522774735 0.081028807026942776 -0.01345601436934973
leaf_weight=36 45 41 40 41 54 43
leaf_count=36 45 41 40 41 54 43
internal_value=0.0117534 0.0770261 -0.0107126 -0.055095 0.0170301 0.0389774
internal_weight=300 77 223 86 137 97
internal_count=300 77 223 86 137 97
is_linear=0
shrinkage=0.0789854


Tree=34
num_leaves=6
num_cat=0
split_feature=5 7 8 13 13
split_gain=31.1086 39.6024 41.7915 22.2032 19.5652
threshold=0.022000000000000002 3883.5000000000005 0.17150000000000001 2.9451736119187832 1.7278457376163028
decision_type=2 2 2 2 2
left_child=1 -1 -3 4 -4
right_child=-2 2 3 -5 -6
leaf_value=0.068185881208372601 -0.061122015795966801 -0.066952769649440108 0.031112783280419925 0.056521034712861434 -0.040111288584218148
leaf_weight=49 55 59 42 47 56
leaf_count=49 55 59 42 47 56
internal_value=-0.00726507 0.00437933 -0.0108679 0.0118418 -0.00942146
internal_weight=308 253 204 145 98
internal_count=308 253 204 145 98
is_linear=0
shrinkage=0.0789854


Tree=35
num_leaves=7
num_cat=0
split_feature=5 10 3 11 11 2
split_gain=26.3913 35.4241 36.7149 42.6995 30.4715 12.5379
threshold=0.022000000000000002 1.8499999999999981 0.27694220057652758 -2.5357142857142851 -1.9071428571428568 21.950000000000006
decision_type=2 2 2 2 2 2
left_child=1 2 3 -1 -4 -5
right_child=-2 -3 4 5 -6 -7
leaf_value=-0.079793614393229392 -0.056294431175078083 -0.066181067870759266 0.096068600800803983 0.049122929080081694 0.0084686476065265991 -0.015882692676618515
leaf_weight=40 55 38 49 43 51 32
leaf_count=40 55 38 49 43 51 32
internal_value=-0.00668709 0.00403345 0.0165192 -0.0138067 0.0515555 0.0211716
internal_weight=308 253 215 115 100 75
internal_count=308 253 215 115 100 75
is_linear=0
shrinkage=0.0789854


Tree=36
num_leaves=7
num_cat=0
split_feature=2 11 0 0 12 12
split_gain=39.6697 42.1187 55.8077 45.4036 31.4546 16.7039
threshold=28.250000000000007 -2.9714285714285711 64.15000000000002 75.15000000000002 -1.5035714285714274 -1.296428571428571
decision_type=2 2 2 2 2 2
left_child=1 -1 4 5 -3 -4
right_child=-2 2 3 -5 -6 -7
leaf_value=0.062397501346652409 -0.088991609426080198 -0.025337182657306972 0.013758069220086665 -0.059561919472653733 -0.12742107578819986 0.082329755453494066
leaf_weight=56 34 47 46 34 32 44
leaf_count=56 34 47 46 34 32 44
internal_value=-0.00877047 0.00169853 -0.0149667 0.0179864 -0.0668946 0.0474629
internal_weight=293 259 203 124 79 90
internal_count=293 259 203 124 79 90
is_linear=0
shrinkage=0.0789854


Tree=37
num_leaves=7
num_cat=0
split_feature=13 11 4 1 3 12
split_gain=31.8494 26.2079 21.7274 21.2831 11.7222 9.04043
threshold=4.1480632265033011 -3.3499999999999983 -0.39036009226888668 95.950000000000017 -0.17647087149565663 -2.3571428571428577
decision_type=2 2 2 2 2 2
left_child=1 -1 3 -3 -4 -2
right_child=5 2 4 -5 -6 -7
leaf_value=0.06567707054032261 -0.027145332594167453 0.049160463722357502 0.0021916725501161627 -0.02960635293315235 -0.053928124507447189 -0.087019313778967711
leaf_weight=38 33 60 37 33 60 32
leaf_count=38 33 60 37 33 60 32
internal_value=-0.0080778 0.00576229 -0.00613597 0.0210368 -0.0323551 -0.0568725
internal_weight=293 228 190 93 97 65
internal_count=293 228 190 93 97 65
is_linear=0
shrinkage=0.0789854


Tree=38
num_leaves=7
num_cat=0
split_feature=9 13 3 4 3 7
split_gain=56.2963 34.1131 21.8669 31.9204 17.1117 16.4909
threshold=-3.5999999999999974 3.0250928511022472 0.60555468348150676 -0.40613878790836588 -0.25205528343633249 5005.0000000000009
decision_type=2 2 2 2 2 2
left_child=1 -1 4 -4 5 -2
right_child=2 -3 3 -5 -6 -7
leaf_value=-0.12714966660612936 0.05532244532842575 -0.02764365375218833 0.10204504813748222 0.0048784242290625564 -0.044925486016246727 -0.022431914661820321
leaf_weight=34 32 60 32 63 56 36
leaf_count=34 32 60 32 63 56 36
internal_value=-0.0126584 -0.0638092 0.00922321 0.03778 -0.0125247 0.0139208
internal_weight=313 94 219 95 124 68
internal_count=313 94 219 95 124 68
is_linear=0
shrinkage=0.0789854


Tree=39
num_leaves=8
num_cat=0
split_feature=9 10 12 11 0 10 10
split_gain=48.4061 39.1387 17.1849 23.2875 16.5376 11.7992 26.9858
threshold=-3.9500000000000024 -4.849999999999997 -0.87857142857142778 -0.72142857142857186 70.200000000000003 -0.15000000000000205 -2.2499999999999996
decision_type=2 2 2 2 2 2 2
left_child=1 -1 3 5 -4 6 -2
right_child=2 -3 4 -5 -6 -7 -8
leaf_value=0.0017241907834990293 -0.0077954225360310735 -0.10628901901866741 0.079729933571483794 -0.064545082882920574 0.0001087389028107943 -0.02982611476279988 0.081188203947111889
leaf_weight=35 59 51 34 34 32 35 33
leaf_count=35 59 51 34 34 32 35 33
internal_value=-0.0116586 -0.0621428 0.00739663 -0.00643096 0.0413721 0.00900038 0.0239476
internal_weight=313 86 227 161 66 127 92
internal_count=313 86 227 161 66 127 92
is_linear=0
shrinkage=0.0789854


Tree=40
num_leaves=7
num_cat=0
split_feature=2 2 13 13 8 8
split_gain=52.5145 32.49 16.3509 39.0299 37.1385 41.6089
threshold=27.849999999999998 25.450000000000006 1.6774038815454666 2.6775509876779648 0.17750000000000002 0.10750000000000001
decision_type=2 2 2 2 2 2
left_child=1 2 -1 -4 5 -5
right_child=-2 -3 3 4 -6 -7
leaf_value=0.048981597406366116 -0.090973203405876696 0.087050951115386702 -0.059363330676483077 0.038219543058963003 0.091388584340112711 -0.069617297118040392
leaf_weight=43 32 35 57 54 33 38
leaf_count=43 32 35 57 54 33 38
internal_value=0.00442615 0.0162304 0.00514134 -0.00512795 0.0194744 -0.00614627
internal_weight=292 260 225 182 125 92
internal_count=292 260 225 182 125 92
is_linear=0
shrinkage=0.0789854


Tree=41
num_leaves=7
num_cat=0
split_feature=2 9 13 10 13 12
split_gain=44.553 33.5609 43.9195 32.7159 19.8453 16.4028
threshold=27.849999999999998 1.0500000000000009 2.9589247211233647 -0.95000000000000273 1.6510304128659496 -1.2428571428571424
decision_type=2 2 2 2 2 2
left_child=1 2 4 -4 -1 -6
right_child=-2 -3 3 -5 5 -7
leaf_value=0.040688654547886706 -0.083788059807606105 -0.037300749514410217 0.026021279735813422 0.12095133852813082 -0.069472575685245064 0.0072616668620279386
leaf_weight=40 32 59 49 43 33 36
leaf_count=40 32 59 49 43 33 36
internal_value=0.00407657 0.0149535 0.0303725 0.0705683 -0.00340624 -0.0292035
internal_weight=292 260 201 92 109 69
internal_count=292 260 201 92 109 69
is_linear=0
shrinkage=0.0789854


Tree=42
num_leaves=8
num_cat=0
split_feature=12 3 12 1 9 9 10
split_gain=30.7281 45.8465 28.2258 37.4653 25.077 22.0288 36.6423
threshold=-2.5571428571428565 0.73283908552571664 -2.1035714285714282 70.65000000000002 -3.0499999999999967 -0.65000000000000202 0.95000000000000295
decision_type=2 2 2 2 2 2 2
left_child=1 -1 -2 -4 -5 -6 -7
right_child=2 -3 3 4 5 6 -8
leaf_value=-0.0013668565743911911 -0.066026462198497574 0.1181843136253317 -0.068082875320993483 0.084689953053486727 -0.044506158948433266 0.076643846465451054 -0.03420047512665951
leaf_weight=48 43 34 35 32 37 44 32
leaf_count=48 43 34 35 32 37 44 32
internal_value=0.00663416 0.0480072 -0.00850693 0.00514444 0.0229323 0.00529903 0.0297598
internal_weight=305 82 223 180 145 113 76
internal_count=305 82 223 180 145 113 76
is_linear=0
shrinkage=0.0789854


end of trees

feature_importances:
roll_low_14d_mean=28
forecast_low=27
lag_low_1d=27
forecast_evap=24
forecast_diurnal_range=23
day_cos=19
day_sin=18
lag_low_2d=18
roll_low_7d_std=18
forecast_wind=15
forecast_radiation=15
forecast_high=14
roll_low_7d_mean=13
forecast_precip=6

parameters:
[boosting: gbdt]
[objective: regression]
[metric: l2]
[tree_learner: serial]
[device_type: cpu]
[data_sample_strategy: bagging]
[data: ]
[valid: ]
[num_iterations: 43]
[learning_rate: 0.0789854]
[num_leaves: 45]
[num_threads: 2]
[seed: 42]
[deterministic: 0]
[force_col_wise: 0]
[force_row_wise: 0]
[histogram_pool_size: -1]
[max_depth: -1]
[min_data_in_leaf: 32]
[min_sum_hessian_in_leaf: 0.001]
[bagging_fraction: 0.636549]
[pos_bagging_fraction: 1]
[neg_bagging_fraction: 1]
[bagging_freq: 2]
[bagging_seed: 400]
[bagging_by_query: 0]
[feature_fraction: 0.63574]
[feature_fraction_bynode: 1]
[feature_fraction_seed: 30056]
[extra_trees: 0]
[extra_seed: 12879]
[early_stopping_round: 0]
[early_stopping_min_delta: 0]
[first_metric_only: 0]
[max_delta_step: 0]
[lambda_l1: 0.204991]
[lambda_l2: 0.00184225]
[linear_lambda: 0]
[min_gain_to_split: 0]
[drop_rate: 0.1]
[max_drop: 50]
[skip_drop: 0.5]
[xgboost_dart_mode: 0]
[uniform_drop: 0]
[drop_seed: 17869]
[top_rate: 0.2]
[other_rate: 0.1]
[min_data_per_group: 100]
[max_cat_threshold: 32]
[cat_l2: 10]
[cat_smooth: 10]
[max_cat_to_onehot: 4]
[top_k: 20]
[monotone_constraints: ]
[monotone_constraints_method: basic]
[monotone_penalty: 0]
[feature_contri: ]
[forcedsplits_filename: ]
[refit_decay_rate: 0.9]
[cegb_tradeoff: 1]
[cegb_penalty_split: 0]
[cegb_penalty_feature_lazy: ]
[cegb_penalty_feature_coupled: ]
[path_smooth: 0]
[interaction_constraints: ]
[verbosity: -1]
[saved_feature_importance_type: 0]
[use_quantized_grad: 0]
[num_grad_quant_bins: 4]
[quant_train_renew_leaf: 0]
[stochastic_rounding: 1]
[linear_tree: 0]
[max_bin: 255]
[max_bin_by_feature: ]
[min_data_in_bin: 3]
[bin_construct_sample_cnt: 200000]
[data_random_seed: 175]
[is_enable_sparse: 1]
[enable_bundle: 1]
[use_missing: 1]
[zero_as_missing: 0]
[feature_pre_filter: 1]
[pre_partition: 0]
[two_round: 0]
[header: 0]
[label_column: ]
[weight_column: ]
[group_column: ]
[ignore_column: ]
[categorical_feature: ]
[forcedbins_filename: ]
[precise_float_parser: 0]
[parser_config_file: ]
[objective_seed: 16083]
[num_class: 1]
[is_unbalance: 0]
[scale_pos_weight: 1]
[sigmoid: 1]
[boost_from_average: 1]
[reg_sqrt: 0]
[alpha: 0.9]
[fair_c: 1]
[poisson_max_delta_step: 0.7]
[tweedie_variance_power: 1.5]
[lambdarank_truncation_level: 30]
[lambdarank_norm: 1]
[label_gain: ]
[lambdarank_position_bias_regularization: 0]
[eval_at: ]
[multi_error_top_k: 1]
[auc_mu_weights: ]
[num_machines: 1]
[local_listen_port: 12400]
[time_out: 120]
[machine_list_filename: ]
[machines: ]
[gpu_platform_id: -1]
[gpu_device_id: -1]
[gpu_use_dp: 0]
[num_gpu: 1]

end of parameters

pandas_categorical:[]
