tree
version=v4
num_class=1
num_tree_per_iteration=1
label_index=0
max_feature_idx=13
objective=regression
feature_names=forecast_high forecast_low forecast_diurnal_range day_sin day_cos forecast_precip forecast_wind forecast_radiation forecast_evap lag_high_1d lag_high_2d roll_high_7d_mean roll_high_14d_mean roll_high_7d_std
feature_infos=[49.5:92.599999999999994] [34.399999999999999:67.299999999999997] [2.7999999999999972:35.5] [-0.99999942202469239:0.99998555065071859] [-0.99997919295908244:0.9999907524084426] [0:3.008] [3.6000000000000001:26.100000000000001] [377:8895] [0.016:0.26100000000000001] [-13.700000000000005:11.4] [-13.700000000000005:11.4] [-2.9142857142857133:3.9000000000000026] [-2.2142857142857131:2.5071428571428558] [0.38668308667925522:7.3565649333807697]
tree_sizes=945 980 980 971 982 901 982 980 985 980 983 951 972 989 985 990 988 1068 1061 905 991 909 992 988 996 994 1078 982 1072 994 975 908 980 1079 1078 994 892 999 1075 986 990 1001 997 1001 993 995 1071 1075 910 903 989 986 990 996 991 1066

Tree=0
num_leaves=10
num_cat=0
split_feature=2 8 2 0 7 2 13 8 7
split_gain=501.16 170.255 87.7799 83.1142 65.3324 43.1156 23.6756 18.7131 8.41437
threshold=12.800000000000002 0.096500000000000016 24.400000000000006 61.050000000000004 6429.5000000000009 17.899999999999999 2.4797663568596939 0.13050000000000003 5424.5000000000009
decision_type=2 2 2 2 2 2 2 2 2
left_child=3 -2 4 -1 7 -6 8 -3 -5
right_child=1 2 -4 6 5 -7 -8 -9 -10
leaf_value=0.54360096233917321 0.39503262698573444 0.28064672511911892 0.12814641661883178 0.41474500631415384 0.2713232145658393 0.15575504083518707 0.4610483176950258 0.35403341711722164 0.36230830494898247
leaf_weight=56 74 62 44 52 52 50 61 49 45
leaf_count=56 74 62 44 52 52 50 61 49 45
internal_value=0.344852 0.276406 0.242247 0.450711 0.265869 0.214596 0.41773 0.313029 0.39044
internal_weight=545 331 257 214 213 102 158 111 97
internal_count=545 331 257 214 213 102 158 111 97
is_linear=0
shrinkage=1


Tree=1
num_leaves=10
num_cat=0
split_feature=2 8 7 2 0 13 8 10 1
split_gain=424.637 167.217 144.083 66.8971 57.8681 45.3575 33.9461 25.0304 11.44
threshold=17.899999999999999 0.10950000000000001 4981.5000000000009 12.450000000000001 61.050000000000004 2.33447157473528 0.16250000000000003 -1.0000000180025095e-35 58.45000000000001
decision_type=2 2 2 2 2 2 2 2 2
left_child=1 4 5 -3 -1 -2 -4 -6 -5
right_child=2 3 6 8 7 -7 -8 -9 -10
leaf_value=0.17849300502165069 0.030702818056743447 0.058508640378605356 -0.25090053801171541 -0.028742782412046732 0.12287164900078661 -0.096052233292158076 -0.1424623820020679 0.039119767507815074 -0.086853495009286991
leaf_weight=65 43 71 43 68 48 46 49 68 44
leaf_count=65 43 71 43 68 48 46 49 68 44
internal_value=-0.00429195 0.0509648 -0.115397 -0.00887795 0.111453 -0.0348303 -0.193268 0.0738185 -0.0516042
internal_weight=545 364 181 183 181 89 92 116 112
internal_count=545 364 181 183 181 89 92 116 112
is_linear=0
shrinkage=0.0887754


Tree=2
num_leaves=10
num_cat=0
split_feature=2 8 7 2 13 1 8 4 7
split_gain=352.666 140.667 119.666 71.9177 37.6708 34.7019 28.1948 18.3992 15.907
threshold=17.899999999999999 0.096500000000000016 4981.5000000000009 13.100000000000007 2.33447157473528 52.850000000000001 0.16250000000000003 -0.78324956448884031 6231.5000000000009
decision_type=2 2 2 2 2 2 2 2 2
left_child=1 5 4 7 -2 -1 -4 -3 -5
right_child=2 3 6 8 -6 -7 -8 -9 -10
leaf_value=0.14967993205353913 0.027980724599604042 0.011024360700273189 -0.22865585992472134 -0.014774391031381928 -0.087535580108906483 0.063432941994297137 -0.12982973391522001 0.086670721159344252 -0.08201503099440087
leaf_weight=85 43 45 43 54 46 65 49 58 57
leaf_count=85 43 45 43 54 46 65 49 58 57
internal_value=-0.00391253 0.0464442 -0.105165 0.000235323 -0.0317419 0.112344 -0.176132 0.0536454 -0.0493275
internal_weight=545 364 181 214 89 150 92 103 111
internal_count=545 364 181 214 89 150 92 103 111
is_linear=0
shrinkage=0.0887754


Tree=3
num_leaves=10
num_cat=0
split_feature=2 8 4 2 6 0 10 3 7
split_gain=292.891 116.816 103.843 59.8252 31.9282 31.3476 29.8141 22.4824 14.2842
threshold=17.899999999999999 0.096500000000000016 0.76556758748011056 13.65 10.050000000000002 60.850000000000001 0.54999999999999727 -0.61237985104942771 6231.5000000000009
decision_type=2 2 2 2 2 2 2 2 2
left_child=1 5 7 4 -3 -1 -7 -2 -5
right_child=2 3 -4 8 -6 6 -8 -9 -10
leaf_value=0.1527737728678325 -0.091439076297826036 0.0069199033366611597 -0.00034303946444461309 -0.016151443222868236 0.10262582878426772 0.11875180032281392 0.01707248562005079 -0.17160636605098789 -0.084323492505868958
leaf_weight=59 43 73 60 47 44 47 44 78 50
leaf_count=59 43 73 60 47 44 47 44 78 50
internal_value=-0.00356707 0.0423241 -0.0958409 0.000214453 0.042944 0.102378 0.0696292 -0.143173 -0.0513202
internal_weight=545 364 181 214 117 150 91 121 97
internal_count=545 364 181 214 117 150 91 121 97
is_linear=0
shrinkage=0.0887754


Tree=4
num_leaves=10
num_cat=0
split_feature=2 0 1 6 2 7 1 3 9
split_gain=318.169 102.461 63.2767 73.7089 30.2251 25.5831 24.3587 16.2267 12.4908
threshold=17.200000000000003 61.050000000000004 46.250000000000007 8.9500000000000011 12.800000000000002 6960.5000000000009 58.45000000000001 -0.62588817255938378 0.59999999999999798
decision_type=2 2 2 2 2 2 2 2 2
left_child=1 -1 -2 -4 7 -5 -6 -3 -9
right_child=2 4 3 5 6 -7 -8 8 -10
leaf_value=0.14637695440137602 -0.0090881274543507459 0.086805196709337645 -0.19882773479861016 -0.021477871054593221 0.02175205424775874 -0.11831966401182303 -0.059668045469962995 -0.0031775796628643166 0.060516997073117987
leaf_weight=68 53 61 59 43 81 43 45 49 48
leaf_count=68 53 61 59 43 81 43 45 49 48
internal_value=-0.00209877 0.0485404 -0.0921121 -0.122444 0.0250903 -0.0699445 -0.0073402 0.0509461 0.0283582
internal_weight=550 352 198 145 284 86 126 158 97
internal_count=550 352 198 145 284 86 126 158 97
is_linear=0
shrinkage=0.0887754


Tree=5
num_leaves=9
num_cat=0
split_feature=2 0 8 8 0 11 3 9
split_gain=264.237 85.0904 52.9684 63.5588 26.3147 24.9377 13.0839 6.08745
threshold=17.200000000000003 61.050000000000004 0.11699999999999997 0.15250000000000002 69.250000000000014 -0.18571428571428678 -0.04836157422433459 1.0999999999999981
decision_type=2 2 2 2 2 2 2 2
left_child=1 -1 -2 -4 6 -6 -3 -8
right_child=2 4 3 -5 5 -7 7 -9
leaf_value=0.1333930251437776 -0.019715925932842042 0.089444702279964997 -0.18942360712021064 -0.064090874727666503 0.037130278531724438 -0.03904748933696077 0.0133126860906793 0.057077356580514327
leaf_weight=68 67 44 55 76 61 76 60 43
leaf_count=68 67 44 55 76 61 76 60 43
internal_value=-0.00191331 0.0442348 -0.0839436 -0.11677 0.0228648 -0.00512758 0.0489449 0.0316046
internal_weight=550 352 198 131 284 137 147 103
internal_count=550 352 198 131 284 137 147 103
is_linear=0
shrinkage=0.0887754


Tree=6
num_leaves=10
num_cat=0
split_feature=2 0 1 6 2 7 1 1 1
split_gain=219.445 70.663 49.0622 60.0457 24.1454 22.9349 19.5016 14.6801 15.9637
threshold=17.200000000000003 61.050000000000004 46.250000000000007 8.9500000000000011 12.800000000000002 6960.5000000000009 58.45000000000001 59.150000000000013 56.600000000000009
decision_type=2 2 2 2 2 2 2 2 2
left_child=1 -1 -2 -4 7 -5 -6 8 -3
right_child=2 4 3 5 6 -7 -8 -9 -10
leaf_value=0.12156080037325019 -0.0033971506468063878 0.053507372521425046 -0.17214499300684122 -0.0099557875212346152 0.017883851877695367 -0.10163043414907877 -0.054968039918820932 0.082013814675005806 -0.016853961375972417
leaf_weight=68 53 62 59 43 81 43 45 53 43
leaf_count=68 53 62 59 43 81 43 45 53 43
internal_value=-0.00174329 0.0403119 -0.0764984 -0.103206 0.0208377 -0.0558297 -0.00814759 0.0439473 0.0246991
internal_weight=550 352 198 145 284 86 126 158 105
internal_count=550 352 198 145 284 86 126 158 105
is_linear=0
shrinkage=0.0887754


Tree=7
num_leaves=10
num_cat=0
split_feature=0 0 1 6 9 13 4 10 3
split_gain=167.284 73.15 77.2191 49.9077 34.0311 33.8937 81.8261 21.0375 13.9857
threshold=65.050000000000011 75.65000000000002 49.850000000000001 9.2500000000000018 2.1500000000000026 2.7442076819680188 -0.62587551141915865 -0.54999999999999705 0.091259403071267911
decision_type=2 2 2 2 2 2 2 2 2
left_child=4 2 -2 -3 7 6 8 -1 -4
right_child=1 3 5 -5 -6 -7 -8 -9 -10
leaf_value=0.090874354778497687 -0.097837699656699847 -0.1667760098818136 0.010281619660503238 -0.037384130663139774 0.12847117460595689 -0.044927453634774801 0.1034795282625809 0.012643997528640748 -0.059394923609241417
leaf_weight=45 64 47 48 47 56 59 73 68 43
leaf_count=45 64 47 48 47 56 59 73 68 43
internal_value=-0.0015893 -0.0341965 -0.0119272 -0.102141 0.0719085 0.0127472 0.0335044 0.0438274 -0.0226588
internal_weight=550 381 287 94 169 223 164 113 91
internal_count=550 381 287 94 169 223 164 113 91
is_linear=0
shrinkage=0.0887754


Tree=8
num_leaves=10
num_cat=0
split_feature=0 3 0 9 11 2 12 4 10
split_gain=129.255 72.8105 60.8577 49.778 41.0609 35.8039 32.7826 30.6907 30.2174
threshold=69.350000000000009 -0.86976336936302323 75.65000000000002 2.8499999999999983 0.34285714285714369 17.400000000000006 1.0964285714285715 0.12332734741173622 -0.85000000000000131
decision_type=2 2 2 2 2 2 2 2 2
left_child=3 -2 4 5 8 6 7 -1 -3
right_child=1 2 -4 -5 -6 -7 -8 -9 -10
leaf_value=0.031423559298985319 0.048563338774061493 -0.048141757517686005 -0.13353933814622729 0.12756036882830207 -0.09392854410864411 -0.038231286007310156 -0.010825171568132418 0.12036533925075535 0.055307937942023024
leaf_weight=66 57 43 68 49 52 49 53 57 46
leaf_count=66 57 43 68 49 52 49 53 57 46
internal_value=0.00373792 -0.040339 -0.0645917 0.0465274 -0.0313003 0.0288528 0.0475358 0.0726767 0.00532776
internal_weight=540 266 209 274 141 225 176 123 89
internal_count=540 266 209 274 141 225 176 123 89
is_linear=0
shrinkage=0.0887754


Tree=9
num_leaves=10
num_cat=0
split_feature=0 3 0 9 11 0 10 2 7
split_gain=107.344 60.468 50.5393 41.342 34.1012 33.1142 25.0966 21.0496 9.46335
threshold=69.350000000000009 -0.86976336936302323 75.65000000000002 2.8499999999999983 0.34285714285714369 63.350000000000001 -0.85000000000000131 15.949999999999998 3186.5000000000005
decision_type=2 2 2 2 2 2 2 2 2
left_child=3 -2 4 5 6 8 -3 -7 -1
right_child=1 2 -4 -5 -6 7 -8 -9 -10
leaf_value=0.039360197410700924 0.0442563639692077 -0.043873543060735841 -0.12169413413519856 0.11624913775463862 -0.085599014410607369 0.024497599027872713 0.050403952380953299 -0.0491616653313433 0.096088349959507921
leaf_weight=48 57 43 68 49 52 84 46 48 45
leaf_count=48 57 43 68 49 52 84 46 48 45
internal_value=0.00340662 -0.0367611 -0.0588628 0.0424011 -0.0285246 0.0262936 0.00485518 -0.00229711 0.0668509
internal_weight=540 266 209 274 141 225 89 132 93
internal_count=540 266 209 274 141 225 89 132 93
is_linear=0
shrinkage=0.0887754


Tree=10
num_leaves=10
num_cat=0
split_feature=0 3 0 9 0 13 13 1 7
split_gain=89.1488 50.2177 41.9704 34.3354 27.5029 26.7431 45.6878 20.1376 7.8597
threshold=69.350000000000009 -0.86976336936302323 75.65000000000002 2.8499999999999983 63.350000000000001 1.6302204929521473 2.2902479480370768 51.050000000000004 3186.5000000000005
decision_type=2 2 2 2 2 2 2 2 2
left_child=3 -2 5 4 8 -3 -7 -6 -1
right_child=1 2 -4 -5 7 6 -8 -9 -10
leaf_value=0.035870074015107715 0.040331362493026129 -0.084312384682686703 -0.1108996218639153 0.10594091687443045 -0.041845970883712877 0.065365659291069883 -0.056199475734726022 0.028125990032249585 0.087568727396876517
leaf_weight=48 57 43 68 49 57 45 53 75 45
leaf_count=48 57 43 68 49 57 45 53 75 45
internal_value=0.00310485 -0.0335006 -0.053642 0.0386411 0.0239619 -0.0259952 -0.000373241 -0.00209411 0.0609234
internal_weight=540 266 209 274 225 141 98 132 93
internal_count=540 266 209 274 225 141 98 132 93
is_linear=0
shrinkage=0.0887754


Tree=11
num_leaves=10
num_cat=0
split_feature=7 2 9 2 13 13 6 0 2
split_gain=78.9769 55.8148 73.2001 43.8945 58.1183 79.993 30.5374 18.9443 7.84637
threshold=7445.5000000000009 24.850000000000005 3.0499999999999976 13.65 2.5230816788800432 1.7006962406702 10.65 63.850000000000001 11.400000000000004
decision_type=2 2 2 2 2 2 2 2 2
left_child=1 2 3 6 5 -5 7 -1 -9
right_child=-2 -3 -4 4 -6 -7 -8 8 -10
leaf_value=0.06329625547396972 -0.096925834229768956 -0.082097973371980826 0.11578024174336021 -0.07205961569203706 -0.090937572751473558 0.076199712979991729 0.10440823920280269 0.01841748852451966 -0.030904863200543902
leaf_weight=53 56 43 59 49 63 69 43 62 43
leaf_count=53 56 43 59 49 63 69 43 62 43
internal_value=0.00282986 0.0143818 0.0237984 0.0095768 -0.0221318 0.0146294 0.0381285 0.0200595 -0.0017869
internal_weight=540 484 441 382 181 118 201 158 105
internal_count=540 484 441 382 181 118 201 158 105
is_linear=0
shrinkage=0.0887754


Tree=12
num_leaves=10
num_cat=0
split_feature=8 1 2 4 1 10 9 7 9
split_gain=98.184 48.5445 32.2756 35.4932 65.1979 22.4397 51.7275 19.3928 10.4665
threshold=0.11250000000000002 53.45000000000001 13.65 -0.42179730054635828 52.350000000000001 -0.54999999999999705 1.1500000000000024 6022.5000000000009 -0.54999999999999705
decision_type=2 2 2 2 2 2 2 2 2
left_child=1 5 7 8 -5 -1 -7 -2 -4
right_child=2 -3 3 4 -6 6 -8 -9 -10
leaf_value=0.11608202042689356 -0.031400645793695142 -0.016391446886320514 -0.06540669317702201 -0.075384674300848026 0.055392656866818303 -0.021674529456248873 0.10386511804004402 0.05147564991668474 -0.12386866841461436
leaf_weight=55 43 75 54 71 52 48 56 46 44
leaf_count=55 43 75 54 71 52 48 56 46 44
internal_value=-0.000929347 0.0424747 -0.0336941 -0.0518685 -0.0200966 0.0702377 0.0459433 0.0114397 -0.091711
internal_weight=544 234 310 221 123 159 104 89 98
internal_count=544 234 310 221 123 159 104 89 98
is_linear=0
shrinkage=0.0887754


Tree=13
num_leaves=10
num_cat=0
split_feature=8 13 3 0 2 3 2 3 0
split_gain=81.5414 41.5165 39.9328 52.5055 39.6817 26.2533 37.4301 28.4625 23.4427
threshold=0.11250000000000002 1.8213677375673456 -0.84315017450793706 75.65000000000002 16.350000000000005 0.96234642434711437 13.800000000000002 0.43733377705052545 61.050000000000004
decision_type=2 2 2 2 2 2 2 2 2
left_child=1 -1 -2 5 8 6 -4 -8 -3
right_child=2 4 3 -5 -6 -7 7 -9 -10
leaf_value=-0.027938117591060393 0.039425719396380884 0.077401097293321758 0.010319917239341872 -0.11784365582418851 0.12578156303574564 0.036515063485889156 -0.027283288726622768 -0.12885793338380805 0.00027317482158665396
leaf_weight=56 53 54 65 60 51 45 43 44 73
leaf_count=56 53 54 65 60 51 45 43 44 73
internal_value=-0.000846911 0.0387078 -0.030706 -0.0451744 0.0596773 -0.0230143 -0.0406451 -0.0787045 0.0330875
internal_weight=544 234 310 257 178 197 152 87 127
internal_count=544 234 310 257 178 197 152 87 127
is_linear=0
shrinkage=0.0887754


Tree=14
num_leaves=10
num_cat=0
split_feature=8 6 7 3 0 11 2 13 13
split_gain=67.7208 37.6215 36.7552 33.1644 43.604 22.9668 30.7301 21.2537 15.2419
threshold=0.11250000000000002 6.8500000000000005 3960.0000000000005 -0.84315017450793706 75.65000000000002 0.085714285714283869 14.450000000000005 2.0174830391358198 2.9032821210285698
decision_type=2 2 2 2 2 2 2 2 2
left_child=1 -1 8 -2 5 7 -7 -5 -3
right_child=3 2 -4 4 -6 6 -8 -9 -10
leaf_value=0.1026602469816795 0.035929397781600737 -0.045259869743709012 0.06758166916841396 -0.029107561882712813 -0.10739184208078982 0.0063611536032284364 -0.092645156449475227 0.054549961192152767 0.019722858598732299
leaf_weight=51 53 60 69 51 60 43 58 45 54
leaf_count=51 53 60 69 51 60 43 58 45 54
internal_value=-0.000771837 0.0352753 0.01647 -0.0279831 -0.0411685 -0.020974 -0.0505139 0.0101159 -0.014484
internal_weight=544 234 183 310 257 197 101 96 114
internal_count=544 234 183 310 257 197 101 96 114
is_linear=0
shrinkage=0.0887754


Tree=15
num_leaves=10
num_cat=0
split_feature=0 3 12 6 12 0 1 13 1
split_gain=56.8576 44.8763 57.5379 32.3135 26.077 20.632 20.2042 17.4638 11.1686
threshold=68.250000000000014 -0.37447345805034538 0.34285714285714347 7.2500000000000009 -0.25357142857142878 61.050000000000004 56.750000000000007 2.011336371903139 51.050000000000004
decision_type=2 2 2 2 2 2 2 2 2
left_child=3 6 4 -1 -3 -5 -2 -8 -7
right_child=1 2 -4 5 -6 8 7 -9 -10
leaf_value=0.093588267625781041 0.054185249543151522 -0.072437441408516448 -0.14795551312875332 0.0604646932825973 0.016105936813504577 -0.029881968417932777 0.017187972307535753 -0.057994517901797944 0.019971590768214038
leaf_weight=51 49 50 43 55 55 67 56 43 75
leaf_count=51 49 50 43 55 55 67 56 43 75
internal_value=-0.000703202 -0.0269714 -0.0615282 0.0306481 -0.0260738 0.0143319 0.00759571 -0.0154814 -0.00355337
internal_weight=544 296 148 248 105 197 148 99 142
internal_count=544 296 148 248 105 197 148 99 142
is_linear=0
shrinkage=0.0887754


Tree=16
num_leaves=10
num_cat=0
split_feature=9 2 11 8 10 6 2 4 1
split_gain=82.629 51.4372 28.931 49.8354 32.2147 27.2143 27.0963 25.2609 13.0118
threshold=2.8499999999999983 9.7000000000000011 0.84285714285714131 0.11699999999999997 -1.0000000180025095e-35 10.850000000000003 16.200000000000003 0.38838672039864403 50.650000000000013
decision_type=2 2 2 2 2 2 2 2 2
left_child=1 -1 3 4 -3 6 -5 -2 -4
right_child=7 2 8 5 -6 -7 -8 -9 -10
leaf_value=0.051536771638257026 0.12622546604234761 0.087331074366479869 -0.10266013082076739 -0.021230914194376265 -0.014039653640129728 0.019474284280814432 -0.095657426316299213 0.032110910749170871 -0.035840463092945168
leaf_weight=82 46 52 46 83 47 50 72 44 46
leaf_count=82 46 52 46 83 47 50 72 44 46
internal_value=0.00225763 -0.0124372 -0.0256898 -0.0124838 0.0392249 -0.0374593 -0.0558254 0.0802628 -0.0692927
internal_weight=568 478 396 304 99 205 155 90 92
internal_count=568 478 396 304 99 205 155 90 92
is_linear=0
shrinkage=0.0887754


Tree=17
num_leaves=11
num_cat=0
split_feature=9 2 9 12 0 3 13 7 4 10
split_gain=68.6255 42.7174 28.8798 35.1634 27.2126 22.2945 39.0935 21.1317 14.8049 6.12754
threshold=2.8499999999999983 10.200000000000001 -2.1500000000000017 0.72499999999999998 66.750000000000014 -0.16799356919963601 2.0268432520460022 4784.0000000000009 -0.43733099657705288 0.59999999999999798
decision_type=2 2 2 2 2 2 2 2 2 2
left_child=1 9 -3 5 -5 8 -7 -2 -4 -1
right_child=7 2 3 4 -6 6 -8 -9 -10 -11
leaf_value=0.021035505092790185 0.031941032273475334 0.022093623949318176 -0.017855100138919212 -0.02939279591498431 -0.12386795424998194 -0.1097237862372178 -0.00031704720153302805 0.11808369199038449 0.05094162000664193 0.066922006176666771
leaf_weight=48 47 83 53 44 53 43 64 43 46 44
leaf_count=48 47 83 53 44 53 43 64 43 46 44
internal_value=0.00205763 -0.0113343 -0.0242909 -0.0369987 -0.0810552 -0.0162371 -0.0443189 0.0731462 0.0141218 0.0430088
internal_weight=568 478 386 303 97 206 107 90 99 92
internal_count=568 478 386 303 97 206 107 90 99 92
is_linear=0
shrinkage=0.0887754


Tree=18
num_leaves=11
num_cat=0
split_feature=9 2 13 13 12 4 13 7 2 3
split_gain=57.2726 38.3077 27.154 27.7693 25.0941 47.8619 41.1575 18.3165 13.0112 20.6693
threshold=2.9000000000000026 17.200000000000003 1.7351382519561456 2.3219449771250189 1.1000000000000012 0.0032254414201910004 2.4144405838666017 5060.5000000000009 10.35 -0.38242426011641079
decision_type=2 2 2 2 2 2 2 2 2 2
left_child=1 4 -3 -4 5 8 -7 -5 -1 -10
right_child=-2 2 3 7 -6 6 -8 -9 9 -11
leaf_value=0.032508923058216795 0.069048073664973966 -0.10349965001512434 0.035492135111081541 -0.011376322202833335 -0.043792791316143158 0.13387352882386652 0.015025339625058937 -0.092838970953741967 0.018675187926599703 -0.057215201667990274
leaf_weight=44 85 44 43 44 58 44 48 43 50 65
leaf_count=44 85 44 43 44 58 44 48 43 50 65
internal_value=0.00187522 -0.00995275 -0.0432628 -0.0228389 0.0088088 0.0209709 0.0719129 -0.0516735 -0.00852007 -0.0242264
internal_weight=568 483 174 130 309 251 92 87 159 115
internal_count=568 483 174 130 309 251 92 87 159 115
is_linear=0
shrinkage=0.0887754


Tree=19
num_leaves=9
num_cat=0
split_feature=9 2 9 12 3 0 2 10
split_gain=47.5616 32.8416 23.2228 32.6904 20.9417 19.9614 19.901 7.83892
threshold=2.9000000000000026 9.7000000000000011 -2.1500000000000017 0.72499999999999998 -0.77245553105869302 66.750000000000014 17.050000000000001 0.40000000000000219
decision_type=2 2 2 2 2 2 2 2
left_child=1 -1 -3 4 -4 -5 7 -6
right_child=-2 2 3 5 6 -7 -8 -9
leaf_value=0.041730573275487341 0.062922359781728304 0.022176727204044764 0.04366668102407513 -0.031037789585787613 0.02336200251559287 -0.10967259240436776 -0.060042446097439167 -0.027204358228709098
leaf_weight=83 85 83 44 49 55 53 73 43
leaf_count=83 85 83 44 49 55 53 73 43
internal_value=0.00170871 -0.00906995 -0.0196155 -0.0305599 -0.010917 -0.071935 -0.0249717 0.00117181
internal_weight=568 483 400 317 215 102 171 98
internal_count=568 483 400 317 215 102 171 98
is_linear=0
shrinkage=0.0887754


Tree=20
num_leaves=10
num_cat=0
split_feature=2 1 9 12 4 8 7 2 11
split_gain=39.3075 40.7278 25.8511 42.9597 19.7722 26.6942 28.7337 23.1698 24.2675
threshold=24.950000000000006 44.850000000000001 -1.2499999999999998 -0.1678571428571434 -0.90161545992537195 0.13550000000000004 6868.0000000000009 10.300000000000002 1.0857142857142879
decision_type=2 2 2 2 2 2 2 2 2
left_child=1 -1 3 -3 -4 7 -7 -6 -9
right_child=-2 2 4 -5 5 6 -8 8 -10
leaf_value=0.080327277368429401 -0.086893645846229106 0.020978284674526254 -0.05269442421613689 -0.087111424929653 0.031373315136110247 0.10456798250137955 0.0025543083175178826 0.00040252777932767056 -0.079756516420282308
leaf_weight=44 46 48 43 73 82 43 44 81 47
leaf_count=44 46 48 43 73 82 43 44 81 47
internal_value=-0.00838207 -0.00122163 -0.0090139 -0.044243 0.00352876 0.0116773 0.0530099 -0.00545585 -0.029053
internal_weight=551 505 461 121 340 297 87 210 128
internal_count=551 505 461 121 340 297 87 210 128
is_linear=0
shrinkage=0.0887754


Tree=21
num_leaves=9
num_cat=0
split_feature=0 3 1 2 0 0 11 13
split_gain=49.1578 24.5639 23.3033 34.5786 42.0271 25.6182 13.5655 25.2162
threshold=68.250000000000014 -0.30983472475487861 49.850000000000001 21.750000000000007 74.15000000000002 70.65000000000002 0.18571428571428583 2.1249649790593392
decision_type=2 2 2 2 2 2 2 2
left_child=1 -1 -2 4 5 -4 -3 -8
right_child=2 6 3 -5 -6 -7 7 -9
leaf_value=0.078615831825359334 -0.090495662608221769 0.040305226583219299 -0.052765023015062557 0.046778563719570551 -0.096418678253520879 0.025029328712824164 0.031846101865986139 -0.042831130855569402
leaf_weight=47 46 68 60 47 65 75 67 76
leaf_count=47 46 68 60 47 65 75 67 76
internal_value=-0.00763855 0.0206168 -0.0325179 -0.0217022 -0.0378039 -0.0095535 0.00768008 -0.00784372
internal_weight=551 258 293 247 200 135 211 143
internal_count=551 258 293 247 200 135 211 143
is_linear=0
shrinkage=0.0887754


Tree=22
num_leaves=10
num_cat=0
split_feature=0 1 8 4 9 0 2 11 11
split_gain=40.8408 21.0621 19.8792 45.4337 29.2743 16.8223 12.0203 17.3284 2.90996
threshold=68.050000000000011 44.850000000000001 0.13550000000000004 -0.43733099657705288 0.59999999999999798 73.850000000000009 10.300000000000002 0.25000000000000105 0.77142857142857135
decision_type=2 2 2 2 2 2 2 2 2
left_child=1 -1 4 5 -2 -4 8 -8 -3
right_child=2 6 3 -5 -6 -7 7 -9 -10
leaf_value=0.075124123751949171 -0.018930949877054348 0.016678152339533348 -0.0078362579198519439 0.05624500574872001 -0.10443732096152868 -0.076042320070462785 0.03221930754953941 -0.037784890233537545 0.048655881469401835
leaf_weight=44 74 47 58 56 55 56 45 73 43
leaf_count=44 74 47 58 56 55 56 45 73 43
internal_value=-0.00696098 0.0193636 -0.029147 -0.00920112 -0.0554168 -0.041362 0.00755092 -0.0110857 0.0319773
internal_weight=551 252 299 170 129 114 208 118 90
internal_count=551 252 299 170 129 114 208 118 90
is_linear=0
shrinkage=0.0887754


Tree=23
num_leaves=10
num_cat=0
split_feature=6 0 1 2 0 0 3 11 2
split_gain=35.8215 26.1225 19.1878 24.5613 25.4806 29.0284 16.1476 12.7664 13.7913
threshold=7.1500000000000012 66.15000000000002 49.250000000000007 21.450000000000006 74.15000000000002 70.65000000000002 0.37446826358596375 0.18571428571428583 13.549999999999999
decision_type=2 2 2 2 2 2 2 2 2
left_child=-1 7 -3 4 5 6 -4 -2 -9
right_child=1 2 3 -5 -6 -7 -8 8 -10
leaf_value=0.052966500884906433 0.050134573600335859 -0.085287368115532988 -0.012255340485218815 0.037577044765056689 -0.082498535545999632 0.026238020739585206 -0.088323767487794719 0.023685637639376415 -0.03721464551169857
leaf_weight=70 51 43 45 46 61 73 43 67 52
leaf_count=70 51 43 45 46 61 73 43 67 52
internal_value=-0.00634316 -0.0149797 -0.0302736 -0.0214306 -0.0336639 -0.0151389 -0.0494579 0.0129998 -0.00293124
internal_weight=551 481 311 268 222 161 88 170 119
internal_count=551 481 311 268 222 161 88 170 119
is_linear=0
shrinkage=0.0887754


Tree=24
num_leaves=10
num_cat=0
split_feature=1 6 9 6 12 4 11 9 13
split_gain=41.0309 35.4044 41.2357 39.2597 37.0298 33.8882 22.7643 21.4304 15.217
threshold=45.050000000000004 9.1500000000000004 0.65000000000000224 7.1500000000000012 0.48928571428571466 -0.08269194106225343 0.085714285714283869 0.90000000000000224 1.9292237334168589
decision_type=2 2 2 2 2 2 2 2 2
left_child=-1 3 4 -2 8 -4 -5 -8 -3
right_child=1 2 5 6 -6 -7 7 -9 -10
leaf_value=0.080126629088326254 0.033493308580497538 0.046026770603308599 0.015526757174887811 -0.0093063455937549711 -0.084785274178282646 0.10930660895950683 -0.039129667469709181 -0.11978172770546679 -0.018649361375364902
leaf_weight=49 54 54 75 58 43 51 53 51 61
leaf_count=49 54 54 75 58 43 51 53 51 61
internal_value=0.00264866 -0.00495234 0.0156483 -0.0320354 -0.0145591 0.0535172 -0.0538824 -0.0787236 0.0117279
internal_weight=549 500 284 216 158 126 162 104 115
internal_count=549 500 284 216 158 126 162 104 115
is_linear=0
shrinkage=0.0887754


Tree=25
num_leaves=10
num_cat=0
split_feature=1 6 9 6 12 4 2 9 11
split_gain=34.0769 29.4032 34.2468 32.6053 30.7546 28.1448 18.9536 17.8843 13.5976
threshold=45.050000000000004 9.1500000000000004 0.65000000000000224 7.1500000000000012 0.48928571428571466 -0.08269194106225343 16.200000000000003 0.65000000000000224 -0.52142857142857169
decision_type=2 2 2 2 2 2 2 2 2
left_child=-1 3 4 -2 8 -4 7 -5 -3
right_child=1 2 5 6 -6 -7 -8 -9 -10
leaf_value=0.073021517747634698 0.030523021004610639 0.047377289428884202 0.01414939728504502 0.0070301697811800661 -0.077268267719883141 0.099613569981273326 -0.089744262728075869 -0.066909976052055981 -0.01468899433830592
leaf_weight=49 54 47 75 57 43 51 58 47 68
leaf_count=49 54 47 75 57 43 51 58 47 68
internal_value=0.00241365 -0.00451336 0.0142603 -0.0291946 -0.0132685 0.0487711 -0.0491042 -0.0264032 0.010688
internal_weight=549 500 284 216 158 126 162 104 115
internal_count=549 500 284 216 158 126 162 104 115
is_linear=0
shrinkage=0.0887754


Tree=26
num_leaves=11
num_cat=0
split_feature=1 6 9 6 12 3 11 9 13 12
split_gain=28.3015 24.4192 29.754 27.0787 26.273 23.2093 17.9254 16.2561 8.84279 2.61995
threshold=45.050000000000004 9.1500000000000004 -0.45000000000000279 7.1500000000000012 0.078571428571427862 0.15951094710994368 0.085714285714283869 0.90000000000000224 2.0612060970726325 0.14642857142857044
decision_type=2 2 2 2 2 2 2 2 2 2
left_child=-1 3 4 -2 -3 9 -5 -8 -7 -4
right_child=1 2 5 6 -6 8 7 -9 -10 -11
leaf_value=0.066546440021421308 0.027816150427744962 0.013003302632886592 0.052677623189062786 -0.0051971234939528254 -0.076650470488284619 -0.023948144629550663 -0.032311310735734101 -0.10255140539607104 0.031077255705881705 0.083843802207444779
leaf_weight=49 54 62 43 58 44 45 53 51 47 43
leaf_count=49 54 62 43 58 44 45 53 51 47 43
internal_value=0.00219958 -0.00411319 0.0129956 -0.0266056 -0.0242324 0.0351657 -0.0447495 -0.0667929 0.00416444 0.0683054
internal_weight=549 500 284 216 106 178 162 104 92 86
internal_count=549 500 284 216 106 178 162 104 92 86
is_linear=0
shrinkage=0.0887754


Tree=27
num_leaves=10
num_cat=0
split_feature=2 1 13 13 13 0 10 6 7
split_gain=28.0921 28.1513 15.1547 47.8652 28.0104 29.759 22.1771 20.6356 15.2751
threshold=25.100000000000001 45.45000000000001 1.5267410954070535 1.7006962406702 2.3617474552414905 69.350000000000009 0.95000000000000295 9.0500000000000025 5424.5000000000009
decision_type=2 2 2 2 2 2 2 2 2
left_child=1 -1 8 -4 6 7 -5 -6 -3
right_child=-2 2 3 4 5 -7 -8 -9 -10
leaf_value=0.074836782307953167 -0.066834691044497213 0.0697008423341344 -0.094656541500624872 0.063515624304909452 -0.022105097684137858 -0.055951051416589279 -0.01194462304986202 0.055270581703593918 -0.003021266051635677
leaf_weight=45 43 46 43 85 58 85 48 51 45
leaf_count=45 43 46 43 85 58 85 48 51 45
internal_value=0.00200463 0.0078614 0.00131532 -0.00666815 0.00491648 -0.0165953 0.0362883 0.014108 0.0337597
internal_weight=549 506 461 370 327 194 133 109 91
internal_count=549 506 461 370 327 194 133 109 91
is_linear=0
shrinkage=0.0887754


Tree=28
num_leaves=11
num_cat=0
split_feature=0 0 2 2 4 13 13 4 11 6
split_gain=27.5597 25.8642 32.6763 37.0441 48.9003 23.2723 21.6565 11.8396 15.9473 10.5167
threshold=76.450000000000017 74.550000000000011 18.350000000000001 14.500000000000005 0.22491561436810897 2.5140081362283202 2.5230816788800432 -0.54219087765047058 0.61428571428571499 8.8500000000000032
decision_type=2 2 2 2 2 2 2 2 2 2
left_child=1 2 3 5 -5 7 -4 -1 -9 -7
right_child=-2 -3 6 4 -6 9 -8 8 -10 -11
leaf_value=0.011144822770780331 -0.050380628732921928 0.076873288795999736 -0.00082043824571077079 -0.0020283859130350492 0.1282838421215044 0.0022025675174136075 -0.08618874875033701 -0.078818305761098884 -0.0056375520818663198 0.060907240842730859
leaf_weight=55 63 44 50 43 48 44 44 45 49 53
leaf_count=55 63 44 50 43 48 44 44 45 49 53
internal_value=0.00476445 0.0120835 0.00546009 0.0183703 0.0667445 0.000464624 -0.0408078 -0.0215638 -0.0406971 0.0342951
internal_weight=538 475 431 337 91 246 94 149 94 97
internal_count=538 475 431 337 91 246 94 149 94 97
is_linear=0
shrinkage=0.0887754


Tree=29
num_leaves=10
num_cat=0
split_feature=11 3 9 9 9 12 3 12 4
split_gain=25.1035 28.9196 31.4763 26.3293 41.7705 25.3257 23.1464 23.8998 26.8454
threshold=-0.69285714285714184 -0.95754239937548935 3.1500000000000026 -2.1500000000000017 -0.74999999999999989 -0.69285714285714217 -0.51297808981038739 1.1178571428571435 -0.08269194106225343
decision_type=2 2 2 2 2 2 2 2 2
left_child=5 -2 3 -3 -5 -1 -6 8 -8
right_child=1 2 -4 4 6 -7 7 -9 -10
leaf_value=0.012859030536182521 -0.052641940144124773 0.0739299690210444 0.081980674684372562 -0.065007539414629598 0.071505848996203658 -0.079597947322365553 -0.018445334099481778 -0.046211039880539234 0.06201617791737063
leaf_weight=43 47 45 57 60 50 51 62 54 69
leaf_count=43 47 45 57 60 50 51 62 54 69
internal_value=0.004342 0.0131662 0.0209635 0.0107223 0.00106814 -0.0373214 0.0179501 0.00345817 0.0239436
internal_weight=538 444 397 340 295 94 235 185 131
internal_count=538 444 397 340 295 94 235 185 131
is_linear=0
shrinkage=0.0887754


Tree=30
num_leaves=10
num_cat=0
split_feature=0 0 2 2 11 13 13 12 2
split_gain=23.9312 21.9703 27.1824 31.0453 42.1016 17.7326 17.6032 9.0197 8.36331
threshold=76.450000000000017 74.450000000000017 18.350000000000001 14.500000000000005 0.42142857142857132 2.5140081362283202 2.5230816788800432 0.75000000000000056 11.15
decision_type=2 2 2 2 2 2 2 2 2
left_child=1 2 3 5 -5 8 -4 -7 -1
right_child=-2 -3 6 4 -6 7 -8 -9 -10
leaf_value=-0.0009316001094411767 -0.047429861212394384 0.069044349626554938 -0.0015980062505624758 0.12159204965654143 0.00019266792758888276 0.0052954603396128423 -0.07856506155562841 0.059775187741736145 -0.04351906249543528
leaf_weight=84 63 46 50 45 45 54 44 43 64
leaf_count=84 63 46 50 45 45 54 44 43 64
internal_value=0.00395691 0.0107772 0.00452124 0.0163589 0.0609305 -2.45764e-05 -0.0376506 0.029467 -0.0193574
internal_weight=538 475 429 335 90 245 94 97 148
internal_count=538 475 429 335 90 245 94 97 148
is_linear=0
shrinkage=0.0887754


Tree=31
num_leaves=9
num_cat=0
split_feature=11 3 12 12 3 4 7 2
split_gain=20.89 24.5511 28.5099 20.8367 19.9782 27.9753 46.396 19.1004
threshold=-0.69285714285714184 -0.95754239937548935 1.346428571428572 -0.69285714285714217 -0.38242426011641079 -0.08269194106225343 3955.0000000000005 13.900000000000004
decision_type=2 2 2 2 2 2 2 2
left_child=3 -2 4 -1 -3 7 -7 -6
right_child=1 2 -4 -5 5 6 -8 -9
leaf_value=0.011117088377979596 -0.048978046350250042 0.069237562237406194 -0.029642174155244876 -0.072746907776151754 0.017135905483800087 -0.010626831774923419 0.092468922873493994 -0.059723500241084124
leaf_weight=43 47 79 77 51 57 65 73 46
leaf_count=43 47 79 77 51 57 65 73 46
internal_value=0.00360641 0.0116561 0.0188404 -0.0343999 0.0305097 0.0178015 0.0439248 -0.0172035
internal_weight=538 444 397 94 320 241 138 103
internal_count=538 444 397 94 320 241 138 103
is_linear=0
shrinkage=0.0887754


Tree=32
num_leaves=10
num_cat=0
split_feature=7 10 8 0 9 13 3 2 8
split_gain=41.9344 35.7787 27.1555 26.756 26.3539 20.1418 10.1256 9.39403 7.74337
threshold=7396.0000000000009 -1.4500000000000026 0.15450000000000003 72.15000000000002 0.4500000000000029 2.2103651823402259 -0.27694604220087021 13.65 0.11599999999999996
decision_type=2 2 2 2 2 2 2 2 2
left_child=1 4 3 5 -1 8 -7 -8 -3
right_child=-2 2 -4 -5 -6 6 7 -9 -10
leaf_value=0.091588731597344042 -0.066051495584933104 0.044287748769617254 0.06453311472349961 -0.058343354154031614 0.0032212800797944492 0.01518659946298029 -0.0089617637911727239 -0.063929320615279436 -0.00060123145310462026
leaf_weight=65 63 82 43 72 45 43 49 49 48
leaf_count=65 63 82 43 72 45 43 49 49 48
internal_value=0.00214014 0.0108081 -0.00192237 -0.0102628 0.0554586 0.00252089 -0.0207143 -0.0364665 0.0277203
internal_weight=559 496 386 343 110 271 141 98 130
internal_count=559 496 386 343 110 271 141 98 130
is_linear=0
shrinkage=0.0887754


Tree=33
num_leaves=11
num_cat=0
split_feature=7 10 9 8 8 6 3 13 4 2
split_gain=35.1488 30.2821 21.886 19.9532 19.2923 25.3085 21.6541 18.255 18.8911 7.66546
threshold=7506.0000000000009 -1.4500000000000026 0.4500000000000029 0.15450000000000003 0.12350000000000001 9.8500000000000032 -0.86976336936302323 2.235191102911962 0.81304046271159414 13.250000000000002
decision_type=2 2 2 2 2 2 2 2 2 2
left_child=1 2 -1 4 6 -6 -3 9 -9 -8
right_child=-2 3 -4 -5 5 -7 7 8 -10 -11
leaf_value=0.083464938512705922 -0.064729736100086158 0.058277667668993158 0.0029356664350835325 0.050822137588329798 -0.081377798363405085 0.0056010947485476753 0.047677324692170849 -0.070425539378815114 0.0052777947067687847 -0.0050055114880307337
leaf_weight=65 56 47 45 49 57 49 43 54 50 44
leaf_count=65 56 47 45 49 57 49 43 54 50 44
internal_value=0.00195033 0.00938038 0.0505395 -0.00214558 -0.00969749 -0.0411889 0.00433452 -0.0089527 -0.0340465 0.0210471
internal_weight=559 503 110 393 344 106 238 191 104 87
internal_count=559 503 110 393 344 106 238 191 104 87
is_linear=0
shrinkage=0.0887754


Tree=34
num_leaves=11
num_cat=0
split_feature=7 8 8 12 8 3 1 2 13 13
split_gain=29.4866 22.2259 23.5035 50.0035 27.2198 19.6745 29.6772 17.1585 15.5342 8.71732
threshold=7396.0000000000009 0.16050000000000003 0.12350000000000001 -0.19999999999999951 0.13550000000000004 -0.30983472475487861 55.150000000000013 16.150000000000006 2.0882892934082462 2.1313973578415042
decision_type=2 2 2 2 2 2 2 2 2 2
left_child=1 2 3 -1 -4 6 -5 9 -6 -7
right_child=-2 -3 4 5 8 7 -8 -9 -10 -11
leaf_value=0.1024062794258473 -0.055404359289490841 0.068498231827948938 -0.081709977706279163 0.085196239554945194 -0.036227974193154863 0.027597955492612215 -0.012649829648418239 -0.062928031905998508 0.033767473490287601 -0.021596658442876556
leaf_weight=46 63 45 47 46 48 53 52 46 52 61
leaf_count=46 63 45 47 46 48 53 52 46 52 61
internal_value=0.00177748 0.00904597 0.00310611 0.017198 -0.0260318 0.00198684 0.0333004 -0.0171977 0.000168151 0.00127683
internal_weight=559 496 451 304 147 258 98 160 100 114
internal_count=559 496 451 304 147 258 98 160 100 114
is_linear=0
shrinkage=0.0887754


Tree=35
num_leaves=10
num_cat=0
split_feature=7 10 4 12 11 6 8 8 0
split_gain=24.5223 23.7341 15.7417 15.0849 31.2453 27.2055 13.305 14.0058 7.25974
threshold=7506.0000000000009 -1.1500000000000019 0.31595530242620651 -0.40000000000000002 -0.014285714285712398 8.2500000000000018 0.13550000000000004 0.08950000000000001 67.850000000000009
decision_type=2 2 2 2 2 2 2 2 2
left_child=1 2 -1 -3 -5 8 7 -7 -6
right_child=-2 3 -4 4 5 6 -8 -9 -10
leaf_value=0.015238100378431195 -0.054075490704506145 -0.04998379723198422 0.078290279709577817 0.059966880972024399 -0.025408690333825788 0.029041204191177113 0.049538387268793345 -0.030920681314727624 -0.076177134176997299
leaf_weight=78 56 48 52 62 46 54 49 71 43
leaf_count=78 56 48 52 62 46 54 49 71 43
internal_value=0.0016201 0.00782617 0.040482 -0.00355959 0.00330437 -0.0100633 0.0103583 -0.00501571 -0.04997
internal_weight=559 503 130 373 325 263 174 125 89
internal_count=559 503 130 373 325 263 174 125 89
is_linear=0
shrinkage=0.0887754


Tree=36
num_leaves=9
num_cat=0
split_feature=7 0 8 1 2 7 2 9
split_gain=21.5928 21.5097 21.229 25.3904 35.0052 27.0259 12.7562 11.6811
threshold=3470.5000000000005 61.050000000000004 0.097500000000000017 47.95000000000001 21.850000000000001 5165.0000000000009 13.65 -0.099999999999997827
decision_type=2 2 2 2 2 2 2 2
left_child=1 -1 -2 -4 5 -5 -7 -8
right_child=2 -3 3 4 -6 6 7 -9
leaf_value=0.011829154792138233 0.055879768195859846 -0.060291894573835957 -0.056563756497986749 -0.062546478506238234 0.080896073452859277 0.040064432489171679 0.019313561837838909 -0.036147814026625286
leaf_weight=57 71 76 49 46 49 81 67 54
leaf_count=57 71 76 49 46 49 81 67 54
internal_value=0.00174801 -0.0293909 0.0116823 0.0026052 0.012376 -0.00117757 0.0128111 -0.00544307
internal_weight=550 133 417 346 297 248 202 121
internal_count=550 133 417 346 297 248 202 121
is_linear=0
shrinkage=0.0887754


Tree=37
num_leaves=10
num_cat=0
split_feature=2 2 6 6 4 12 11 9 10
split_gain=18.5748 37.7278 19.1827 27.0544 27.1302 16.1918 7.55436 9.22985 13.3192
threshold=24.850000000000005 21.850000000000001 7.8500000000000005 8.4500000000000011 0.40418040343369127 -0.33928571428571369 -0.12142857142857158 2.0999999999999983 0.54999999999999727
decision_type=2 2 2 2 2 2 2 2 2
left_child=1 2 -1 -4 5 -5 -7 8 -8
right_child=-2 -3 3 4 -6 6 7 -9 -10
leaf_value=0.038096437517298347 -0.054388239631632182 0.082058330637972993 -0.074303066144771626 -0.020974068083561618 -0.052495476440085509 0.058578219989802498 0.033093097358968496 0.050515964296128098 -0.031681351592028582
leaf_weight=80 43 47 45 84 65 43 51 43 49
leaf_count=80 43 47 45 84 65 43 51 43 49
internal_value=0.00159276 0.00634618 -0.00139872 -0.00971791 -0.00103125 0.0113666 0.0259741 0.0161508 0.00135362
internal_weight=550 507 460 380 335 270 186 143 100
internal_count=550 507 460 380 335 270 186 143 100
is_linear=0
shrinkage=0.0887754


Tree=38
num_leaves=11
num_cat=0
split_feature=1 4 4 4 12 0 13 4 7 6
split_gain=17.4118 43.9285 47.0513 18.2746 11.456 34.5626 18.5117 15.3772 27.4769 14.2918
threshold=45.050000000000004 0.55478649335567887 0.75438814418115718 0.93469109537144635 -0.33928571428571369 74.65000000000002 2.3156812021648117 -0.056951011027366542 4577.5000000000009 10.050000000000002
decision_type=2 2 2 2 2 2 2 2 2 2
left_child=-1 4 -3 -4 6 7 -2 9 -9 -6
right_child=1 2 3 -5 5 -7 -8 8 -10 -11
leaf_value=0.050830168633822892 0.019951323923327251 -0.11984086431704671 0.03133524074302977 -0.049993014417380799 0.00044760622268606509 0.081880224382491595 -0.056369162385108113 0.027504213007416279 -0.071677039140897639 0.063714849043971053
leaf_weight=51 58 46 44 43 70 59 44 43 45 47
leaf_count=51 58 46 44 43 70 59 44 43 45 47
internal_value=0.00145163 -0.00360024 -0.0472839 -0.00886779 0.0122787 0.0220401 -0.0129841 0.00480001 -0.0232268 0.0258811
internal_weight=550 499 133 87 366 264 102 205 88 117
internal_count=550 499 133 87 366 264 102 205 88 117
is_linear=0
shrinkage=0.0887754


Tree=39
num_leaves=10
num_cat=0
split_feature=7 8 1 2 7 9 0 2 11
split_gain=15.3704 19.9618 30.066 25.5048 19.9785 19.1446 17.3523 12.7903 8.38331
threshold=3498.0000000000005 0.11699999999999997 49.050000000000004 16.650000000000002 5995.0000000000009 1.0499999999999974 61.050000000000004 10.250000000000002 -0.55000000000000104
decision_type=2 2 2 2 2 2 2 2 2
left_child=6 3 -3 7 -4 8 -1 -2 -6
right_child=1 2 4 -5 5 -7 -8 -9 -10
leaf_value=0.012305074889232843 0.044631134268110273 -0.071388883406925993 -0.030146383860037162 0.088593136724694391 0.034912219761492724 0.07301090671976132 -0.052290795708950545 -0.02167260780157634 -0.014587130843414087
leaf_weight=57 43 44 72 49 46 48 77 49 65
leaf_count=57 43 44 72 49 46 48 77 49 65
internal_value=0.00132256 0.00974564 -0.0041802 0.0368968 0.00863572 0.0262019 -0.0248198 0.0093255 0.00593339
internal_weight=550 416 275 141 231 159 134 92 111
internal_count=550 416 275 141 231 159 134 92 111
is_linear=0
shrinkage=0.0887754


Tree=40
num_leaves=10
num_cat=0
split_feature=7 7 13 10 8 2 1 2 12
split_gain=21.205 14.4837 28.8632 19.044 17.256 15.0211 14.9442 13.604 19.6442
threshold=7506.0000000000009 4019.0000000000005 3.2208325414012839 0.34999999999999792 0.11649999999999996 16.450000000000006 57.45000000000001 17.899999999999999 0.23214285714285718
decision_type=2 2 2 2 2 2 2 2 2
left_child=1 2 5 4 -3 -1 -6 8 -5
right_child=-2 3 -4 7 6 -7 -8 -9 -10
leaf_value=-0.020426418935730641 -0.061388604292518925 0.078196225558649038 0.028779374848184575 -0.038902785639992617 0.043689474985845134 -0.080783361656549355 -0.020047974067633159 -0.053392941703263926 0.040960421944721138
leaf_weight=84 53 44 63 44 60 53 56 46 54
leaf_count=84 53 44 63 44 60 53 56 46 54
internal_value=-0.00800484 -0.00238483 -0.0209357 0.00982128 0.0308957 -0.0437998 0.0129249 -0.0135976 0.00510169
internal_weight=557 504 200 304 160 137 116 144 98
internal_count=557 504 200 304 160 137 116 144 98
is_linear=0
shrinkage=0.0887754


Tree=41
num_leaves=10
num_cat=0
split_feature=7 12 4 4 4 4 13 1 13
split_gain=17.6108 13.9011 20.6942 20.4418 16.3136 21.0052 13.3041 23.8557 11.3881
threshold=7506.0000000000009 -0.19999999999999951 0.94636490295939868 -0.6391983530350368 0.82293497932636273 0.61067742788105683 2.1313973578415042 55.150000000000013 3.9107284557367632
decision_type=2 2 2 2 2 2 2 2 2
left_child=1 3 4 -1 5 6 7 -3 -8
right_child=-2 2 -4 -5 -6 -7 8 -9 -10
leaf_value=-0.024816571367119275 -0.055944588147798603 0.060593786612024775 -0.06694065276723124 0.051561378028044079 0.047488295525174966 -0.065501301951827698 -0.03930230452743718 -0.018872706596481676 0.015626609990195186
leaf_weight=43 53 60 45 77 44 46 84 59 46
leaf_count=43 53 60 45 77 44 46 84 59 46
internal_value=-0.00729495 -0.00217334 -0.0104154 0.0241938 -0.00290218 -0.0104257 -0.000238553 0.0212041 -0.0198675
internal_weight=557 504 384 120 339 295 249 119 130
internal_count=557 504 384 120 339 295 249 119 130
is_linear=0
shrinkage=0.0887754


Tree=42
num_leaves=10
num_cat=0
split_feature=2 12 3 1 0 8 7 10 11
split_gain=15.0253 20.2321 21.4675 14.0878 10.2123 11.6035 13.931 12.2887 11.4062
threshold=18.350000000000001 0.33571428571428524 0.24372619187392147 48.750000000000007 61.250000000000007 0.16150000000000003 6409.5000000000009 -1.4500000000000026 0.31428571428571628
decision_type=2 2 2 2 2 2 2 2 2
left_child=3 2 -2 -1 -5 6 7 -6 -9
right_child=1 -3 -4 4 5 -7 -8 8 -10
leaf_value=0.0421205400381994 -0.044087743975829922 -0.060735860954683647 0.043573243609316838 -0.044621797432609384 0.040035822566001127 -0.039550724376612348 0.054649776891318134 -0.04006240824459225 0.0091629620826466467
leaf_weight=61 43 81 45 43 45 45 44 67 83
leaf_count=61 43 81 45 43 45 45 44 67 83
internal_value=-0.0066482 -0.0287362 0.000738065 0.00297535 -0.00433295 0.00177475 0.00956319 -0.000623018 -0.0128311
internal_weight=557 169 88 388 327 284 239 195 150
internal_count=557 169 88 388 327 284 239 195 150
is_linear=0
shrinkage=0.0887754


Tree=43
num_leaves=10
num_cat=0
split_feature=7 8 11 0 4 0 10 10 10
split_gain=13.5368 11.7533 20.9502 31.4737 26.1528 14.2053 9.46718 15.3563 14.6867
threshold=7506.0000000000009 0.074500000000000011 -0.59999999999999931 75.65000000000002 -0.35846086284744716 62.250000000000007 -0.74999999999999989 0.34999999999999792 2.1500000000000026
decision_type=2 2 2 2 2 2 2 2 2
left_child=1 5 4 6 -3 -1 -4 -8 -9
right_child=-2 2 3 -5 -6 -7 7 8 -10
leaf_value=-0.0014876586555382385 -0.048711315156998621 -0.00359330272525884 -0.02210017403876759 -0.073931956930152254 0.093187142581125024 -0.067036088864811855 0.059910190382318762 -0.021793951628380992 0.035272562915220025
leaf_weight=66 53 45 68 45 43 43 48 85 61
leaf_count=66 53 45 68 45 43 43 48 85 61
internal_value=-0.00605836 -0.00156808 0.00555413 -0.00539378 0.0437265 -0.0273675 0.00639139 0.0163816 0.0020533
internal_weight=557 504 395 307 88 109 262 194 146
internal_count=557 504 395 307 88 109 262 194 146
is_linear=0
shrinkage=0.0887754


Tree=44
num_leaves=10
num_cat=0
split_feature=11 8 0 3 1 13 10 1 8
split_gain=20.9353 28.6751 26.8489 19.8659 13.1971 12.6606 15.541 23.5675 14.5082
threshold=-0.59999999999999931 0.13749999999999998 75.65000000000002 -0.31799228562170639 53.45000000000001 2.140537939622051 1.9500000000000031 50.750000000000007 0.11599999999999996
decision_type=2 2 2 2 2 2 2 2 2
left_child=1 -1 3 4 -2 8 7 -7 -5
right_child=2 -3 -4 5 -6 6 -8 -9 -10
leaf_value=0.078344009117894631 0.072994258878108759 -0.0057098498453807683 -0.057941605969422195 0.040599841905667643 0.011013002630744157 -0.096842657799891416 0.010884279215054006 -0.0059850902974953072 -0.019387484198348952
leaf_weight=62 43 66 66 63 73 44 51 46 64
leaf_count=62 43 66 66 63 73 44 51 46 64
internal_value=0.00334968 0.0350203 -0.00566209 0.00333063 0.0340131 -0.0099542 -0.0282616 -0.0504372 0.0103748
internal_weight=578 128 450 384 116 268 141 90 127
internal_count=578 128 450 384 116 268 141 90 127
is_linear=0
shrinkage=0.0887754


Tree=45
num_leaves=10
num_cat=0
split_feature=11 13 0 3 13 9 9 0 2
split_gain=17.3864 25.8057 22.2971 16.6882 11.1383 10.5547 11.1035 10.6404 7.5205
threshold=-0.59999999999999931 2.326963446017527 75.65000000000002 -0.92923668111203817 1.5713203425933242 2.9000000000000026 -0.24999999999999992 63.350000000000001 17.200000000000003
decision_type=2 2 2 2 2 2 2 2 2
left_child=1 -1 3 -2 -5 6 8 -8 -6
right_child=2 -3 -4 4 5 -7 7 -9 -10
leaf_value=0.070523655936760021 0.054443877290288691 -0.0092129330180076314 -0.05280220001589573 0.028793870331052854 0.026323711903767717 0.026184906292281852 -0.0053068082931150718 -0.058036466749927532 -0.022607070252232006
leaf_weight=66 44 62 66 67 51 48 50 76 48
leaf_count=66 44 62 66 67 51 48 50 76 48
internal_value=0.00305255 0.0319142 -0.00515993 0.00303512 -0.00362568 -0.0115864 -0.0196489 -0.0371237 0.0026003
internal_weight=578 128 450 384 340 273 225 126 99
internal_count=578 128 450 384 340 273 225 126 99
is_linear=0
shrinkage=0.0887754


Tree=46
num_leaves=11
num_cat=0
split_feature=6 1 0 13 0 3 4 0 3 9
split_gain=15.3758 17.045 27.1759 18.5644 18.8348 14.1496 9.01349 9.64187 7.9567 5.69537
threshold=7.1500000000000012 47.95000000000001 63.600000000000009 3.7057859503978814 76.15000000000002 -0.43733984355855576 -0.95242240592625282 69.15000000000002 0.80417553764032002 1.0000000180025095e-35
decision_type=2 2 2 2 2 2 2 2 2 2
left_child=-1 2 -2 4 5 9 -7 8 -8 -3
right_child=1 3 -4 -5 -6 6 7 -9 -10 -11
leaf_value=0.044159756136769417 0.010279836680401335 0.060023793686285819 -0.08516770019683749 0.05243155927298624 -0.044919882328183877 0.02839317140831471 -0.02586674804831408 -0.049405585818731772 0.020673708645990236 0.014581812673860889
leaf_weight=63 48 44 46 57 66 49 55 46 61 43
leaf_count=63 48 44 46 57 66 49 55 46 61 43
internal_value=0.00278207 -0.00228394 -0.0364515 0.00534878 -0.00203104 0.00747452 -0.00494863 -0.0150399 -0.00139471 0.037588
internal_weight=578 515 94 421 364 298 211 162 116 87
internal_count=578 515 94 421 364 298 211 162 116 87
is_linear=0
shrinkage=0.0887754


Tree=47
num_leaves=11
num_cat=0
split_feature=1 9 4 9 4 4 4 2 8 7
split_gain=14.6869 16.5552 28.1201 23.6536 18.2832 27.3839 8.63925 12.9688 22.3371 4.8652
threshold=61.95000000000001 -2.350000000000001 0.94636490295939868 3.1500000000000026 0.75438814418115718 0.55478649335567887 0.24164313636530541 12.950000000000001 0.16750000000000004 5296.5000000000009
decision_type=2 2 2 2 2 2 2 2 2 2
left_child=1 -1 3 4 5 6 7 9 -9 -3
right_child=-2 2 -4 -5 -6 -7 -8 8 -10 -11
leaf_value=0.046264408365473984 -0.045558472449072372 -7.4388509288810702e-05 -0.066110663128287533 0.063088368306474907 0.051873770298090593 -0.06970634186199362 0.036327662159858762 -0.05933192055677957 0.01713682803926516 0.03967954538130896
leaf_weight=72 46 49 45 53 46 48 50 65 56 48
leaf_count=72 46 49 45 53 46 48 50 65 56 48
internal_value=0.00253531 0.00669818 0.000500291 0.00773116 -0.000382167 -0.00799694 0.0030678 -0.00456801 -0.0239499 0.0196092
internal_weight=578 532 460 415 362 316 268 218 121 97
internal_count=578 532 460 415 362 316 268 218 121 97
is_linear=0
shrinkage=0.0887754


Tree=48
num_leaves=9
num_cat=0
split_feature=9 4 4 0 3 3 13 4
split_gain=15.8118 22.2002 39.4751 14.8153 22.6987 16.3109 15.7886 6.85064
threshold=3.1500000000000026 0.75438814418115718 0.55478649335567887 64.750000000000014 0.14250626876356548 0.90162119223771342 1.8738166983655276 0.94636490295939868
decision_type=2 2 2 2 2 2 2 2
left_child=1 2 3 -1 6 -6 -5 -3
right_child=-2 7 -4 4 5 -7 -8 -9
leaf_value=0.033586393082259823 0.045076606504917682 0.059523018939333448 -0.085084366750161677 0.037486147068641382 -0.072810211514812206 -0.0033904472824953396 -0.018693635641145602 0.011542975818272036
leaf_weight=77 63 49 50 83 60 48 75 45
leaf_count=77 63 49 50 83 60 48 75 45
internal_value=0.00324731 -0.00216845 -0.0114391 -0.000691478 -0.010619 -0.0419749 0.0108214 0.0365745
internal_weight=550 487 393 343 266 108 158 94
internal_count=550 487 393 343 266 108 158 94
is_linear=0
shrinkage=0.0887754


Tree=49
num_leaves=9
num_cat=0
split_feature=9 4 4 6 11 11 6 10
split_gain=13.1314 18.6455 23.2374 13.5833 20.2846 18.3716 14.666 10.4835
threshold=3.1500000000000026 0.81304046271159414 0.55478649335567887 9.8500000000000032 -0.46428571428571469 0.44285714285714256 11.65 -1.0000000180025095e-35
decision_type=2 2 2 2 2 2 2 2
left_child=1 2 3 4 -1 -6 7 -5
right_child=-2 -3 -4 6 5 -7 -8 -9
leaf_value=-0.06821489783770357 0.04107848464993448 0.03689845500421108 -0.059267079379093153 0.0058073678288018838 0.042017301060375427 -0.025498286125619652 -0.020794268370181168 0.060944991234435975
leaf_weight=46 63 81 63 49 51 84 52 61
leaf_count=46 63 81 63 49 51 84 52 61
internal_value=0.00295909 -0.00197634 -0.00973619 -0.000630438 -0.0173414 1.44667e-05 0.01804 0.0363992
internal_weight=550 487 406 343 181 135 162 110
internal_count=550 487 406 343 181 135 162 110
is_linear=0
shrinkage=0.0887754


Tree=50
num_leaves=10
num_cat=0
split_feature=9 1 1 13 8 1 1 0 1
split_gain=13.1139 15.1789 19.9557 18.7124 20.9955 11.5721 9.86727 15.9073 9.55391
threshold=-2.350000000000001 47.550000000000004 45.45000000000001 2.0517122482561616 0.13250000000000003 54.350000000000001 59.750000000000007 65.450000000000017 57.350000000000001
decision_type=2 2 2 2 2 2 2 2 2
left_child=-1 2 -2 6 5 -5 7 -3 -9
right_child=1 3 -4 4 -6 -7 -8 8 -10
leaf_value=0.039800596751648237 0.0053135232436429562 0.017435564616464748 -0.074408241819258647 -0.020113220958848349 0.063061113140910008 0.035786767892576572 0.022339865837331416 -0.070468373878622592 -0.015401343390748322
leaf_weight=66 51 47 48 72 72 49 45 54 46
leaf_count=66 51 47 48 72 72 49 45 54 46
internal_value=0.00269652 -0.00236717 -0.0333598 0.00560606 0.0251234 0.00253006 -0.0140145 -0.0251478 -0.0451605
internal_weight=550 484 99 385 193 121 192 147 100
internal_count=550 484 99 385 193 121 192 147 100
is_linear=0
shrinkage=0.0887754


Tree=51
num_leaves=10
num_cat=0
split_feature=6 6 0 7 3 0 2 6 7
split_gain=12.0594 25.2507 21.8923 37.7454 18.2029 19.539 13.141 12.2266 7.07664
threshold=11.750000000000002 10.750000000000002 72.450000000000017 5569.5000000000009 0.42179998225932674 65.450000000000017 17.200000000000003 8.8500000000000032 4740.5000000000009
decision_type=2 2 2 2 2 2 2 2 2
left_child=1 2 4 -4 6 8 7 -1 -6
right_child=-2 -3 3 -5 5 -7 -8 -9 -10
leaf_value=-0.0079240317722333552 -0.030611231052444468 0.068690797403610671 -0.081150561354399242 0.016823402371411288 -0.0079415426395512394 -0.050094553514271702 0.076352093937402263 0.050124307289728082 0.042102866494911656
leaf_weight=62 75 48 60 64 45 56 43 53 44
leaf_count=62 75 48 60 64 45 56 43 53 44
internal_value=0.00245716 0.0076815 0.000815156 -0.0305986 0.0136743 -0.00903811 0.0345137 0.0188401 0.0168105
internal_weight=550 475 427 124 303 145 158 115 89
internal_count=550 475 427 124 303 145 158 115 89
is_linear=0
shrinkage=0.0887754


Tree=52
num_leaves=10
num_cat=0
split_feature=11 6 1 13 6 6 1 4 6
split_gain=24.5399 28.6217 20.1062 29.8055 24.5946 18.2367 13.4071 27.3262 9.06835
threshold=0.24285714285714222 8.2500000000000018 50.550000000000004 1.9292237334168589 9.9500000000000011 7.3500000000000005 49.050000000000004 -0.08269194106225343 9.2500000000000018
decision_type=2 2 2 2 2 2 2 2 2
left_child=1 -1 -3 -4 -5 -2 -7 -8 -9
right_child=5 2 3 4 -6 6 7 8 -10
leaf_value=0.073563664976508653 -0.064110539267323227 0.05782205235824138 0.036645800444105231 -0.086901727660119693 0.0012804970443308034 -0.039899136355871036 -0.02984361124791602 0.013254739100265353 0.07026719947310163
leaf_weight=61 53 44 66 47 53 68 83 45 43
leaf_count=61 53 44 66 47 53 68 83 45 43
internal_value=0.000826568 0.0200634 0.00450726 -0.00963917 -0.0401907 -0.0170272 -0.00657347 0.0066876 0.0411403
internal_weight=563 271 210 166 100 292 239 171 88
internal_count=563 271 210 166 100 292 239 171 88
is_linear=0
shrinkage=0.0887754


Tree=53
num_leaves=10
num_cat=0
split_feature=2 5 0 9 3 7 7 7 11
split_gain=22.4885 19.3387 20.1811 22.9339 14.1758 19.0172 21.055 8.28729 8.56533
threshold=23.950000000000006 1.0000000180025095e-35 75.15000000000002 -2.350000000000001 -0.88622299073327826 3847.5000000000005 5007.5000000000009 6573.0000000000009 0.085714285714286409
decision_type=2 2 2 2 2 2 2 2 2
left_child=1 2 3 -1 -5 -6 -7 8 -8
right_child=-2 -3 -4 4 5 6 7 -9 -10
leaf_value=0.062858566337142999 -0.048765331594739968 -0.043032747081782202 0.059728178673389032 0.042432282669416441 -0.047857250514156749 0.059058789558360456 -0.0015852609759460729 0.010305604477203198 -0.056962529702136097
leaf_weight=48 64 54 63 47 77 43 44 79 44
leaf_count=48 64 54 63 47 77 43 44 79 44
internal_value=0.000753474 0.00710938 0.0131987 0.00551733 -0.00273252 -0.0101357 0.0037046 -0.0105634 -0.0292926
internal_weight=563 499 445 382 334 287 210 167 88
internal_count=563 499 445 382 334 287 210 167 88
is_linear=0
shrinkage=0.0887754


Tree=54
num_leaves=10
num_cat=0
split_feature=13 9 4 4 0 4 1 4 3
split_gain=20.8317 37.8777 22.8398 28.368 22.1888 20.6136 38.8592 24.717 16.1149
threshold=2.4208900180776953 -2.0499999999999967 0.41202506375868281 -0.08269194106225343 67.050000000000011 0.20812153622207721 47.95000000000001 -0.58481178939031186 0.091259403071267911
decision_type=2 2 2 2 2 2 2 2 2
left_child=1 -1 3 -2 -4 7 -7 8 -3
right_child=2 5 4 -5 -6 6 -8 -9 -10
leaf_value=0.092505781387975605 -0.02858956616827529 0.04667991385077918 -0.01492880296476397 0.059473349562162506 -0.096292915362035922 -0.027430181909026803 0.079187747546439882 -0.051539709214631413 -0.024487435075673136
leaf_weight=43 72 55 62 48 46 47 63 81 46
leaf_count=43 72 55 62 48 46 47 63 81 46
internal_value=0.000686905 0.0147739 -0.0200096 0.00664695 -0.049616 0.00331143 0.0336421 -0.015025 0.0142715
internal_weight=563 335 228 120 108 292 110 182 101
internal_count=563 335 228 120 108 292 110 182 101
is_linear=0
shrinkage=0.0887754


Tree=55
num_leaves=11
num_cat=0
split_feature=10 4 13 4 7 8 11 10 2 13
split_gain=17.5354 17.0684 16.3905 32.3903 61.1463 20.137 15.5955 14.8517 14.2617 5.07769
threshold=2.7500000000000004 0.48126256173783166 2.4208900180776953 0.054805126479326859 3955.0000000000005 0.16849999999999998 -0.24999999999999942 -0.65000000000000202 13.65 1.5146898995851672
decision_type=2 2 2 2 2 2 2 2 2 2
left_child=2 -2 3 5 -5 8 -4 -8 9 -1
right_child=1 -3 6 4 -6 -7 7 -9 -10 -11
leaf_value=-0.021053410991616704 0.0042422881327813956 -0.07394354343099635 -0.052323912773829397 0.0003170024046142909 0.13204832295806979 0.050557666622313091 0.042887154965788481 -0.021414328596102424 -0.058114335914480501 0.019898650534187743
leaf_weight=44 43 45 57 64 49 43 47 71 48 52
leaf_count=44 43 45 57 64 49 43 47 71 48 52
internal_value=0.00062623 -0.0357608 0.00737085 0.0199646 0.0574768 -0.00271371 -0.0142178 0.0042055 -0.0186347 0.00112759
internal_weight=563 88 475 300 113 187 175 118 144 96
internal_count=563 88 475 300 113 187 175 118 144 96
is_linear=0
shrinkage=0.0887754


end of trees

feature_importances:
forecast_diurnal_range=61
forecast_high=58
day_cos=45
roll_high_7d_std=44
forecast_low=42
lag_high_1d=41
forecast_radiation=39
day_sin=35
forecast_evap=34
forecast_wind=32
roll_high_7d_mean=29
lag_high_2d=23
roll_high_14d_mean=23
forecast_precip=1

parameters:
[boosting: gbdt]
[objective: regression]
[metric: l2]
[tree_learner: serial]
[device_type: cpu]
[data_sample_strategy: bagging]
[data: ]
[valid: ]
[num_iterations: 56]
[learning_rate: 0.0887754]
[num_leaves: 27]
[num_threads: 2]
[seed: 42]
[deterministic: 0]
[force_col_wise: 0]
[force_row_wise: 0]
[histogram_pool_size: -1]
[max_depth: -1]
[min_data_in_leaf: 43]
[min_sum_hessian_in_leaf: 0.001]
[bagging_fraction: 0.701924]
[pos_bagging_fraction: 1]
[neg_bagging_fraction: 1]
[bagging_freq: 4]
[bagging_seed: 400]
[bagging_by_query: 0]
[feature_fraction: 0.934134]
[feature_fraction_bynode: 1]
[feature_fraction_seed: 30056]
[extra_trees: 0]
[extra_seed: 12879]
[early_stopping_round: 0]
[early_stopping_min_delta: 0]
[first_metric_only: 0]
[max_delta_step: 0]
[lambda_l1: 3.06067e-05]
[lambda_l2: 0.0563122]
[linear_lambda: 0]
[min_gain_to_split: 0]
[drop_rate: 0.1]
[max_drop: 50]
[skip_drop: 0.5]
[xgboost_dart_mode: 0]
[uniform_drop: 0]
[drop_seed: 17869]
[top_rate: 0.2]
[other_rate: 0.1]
[min_data_per_group: 100]
[max_cat_threshold: 32]
[cat_l2: 10]
[cat_smooth: 10]
[max_cat_to_onehot: 4]
[top_k: 20]
[monotone_constraints: ]
[monotone_constraints_method: basic]
[monotone_penalty: 0]
[feature_contri: ]
[forcedsplits_filename: ]
[refit_decay_rate: 0.9]
[cegb_tradeoff: 1]
[cegb_penalty_split: 0]
[cegb_penalty_feature_lazy: ]
[cegb_penalty_feature_coupled: ]
[path_smooth: 0]
[interaction_constraints: ]
[verbosity: -1]
[saved_feature_importance_type: 0]
[use_quantized_grad: 0]
[num_grad_quant_bins: 4]
[quant_train_renew_leaf: 0]
[stochastic_rounding: 1]
[linear_tree: 0]
[max_bin: 255]
[max_bin_by_feature: ]
[min_data_in_bin: 3]
[bin_construct_sample_cnt: 200000]
[data_random_seed: 175]
[is_enable_sparse: 1]
[enable_bundle: 1]
[use_missing: 1]
[zero_as_missing: 0]
[feature_pre_filter: 1]
[pre_partition: 0]
[two_round: 0]
[header: 0]
[label_column: ]
[weight_column: ]
[group_column: ]
[ignore_column: ]
[categorical_feature: ]
[forcedbins_filename: ]
[precise_float_parser: 0]
[parser_config_file: ]
[objective_seed: 16083]
[num_class: 1]
[is_unbalance: 0]
[scale_pos_weight: 1]
[sigmoid: 1]
[boost_from_average: 1]
[reg_sqrt: 0]
[alpha: 0.9]
[fair_c: 1]
[poisson_max_delta_step: 0.7]
[tweedie_variance_power: 1.5]
[lambdarank_truncation_level: 30]
[lambdarank_norm: 1]
[label_gain: ]
[lambdarank_position_bias_regularization: 0]
[eval_at: ]
[multi_error_top_k: 1]
[auc_mu_weights: ]
[num_machines: 1]
[local_listen_port: 12400]
[time_out: 120]
[machine_list_filename: ]
[machines: ]
[gpu_platform_id: -1]
[gpu_device_id: -1]
[gpu_use_dp: 0]
[num_gpu: 1]

end of parameters

pandas_categorical:[]
