tree
version=v4
num_class=1
num_tree_per_iteration=1
label_index=0
max_feature_idx=13
objective=regression
feature_names=forecast_high forecast_low forecast_diurnal_range day_sin day_cos forecast_precip forecast_wind forecast_radiation forecast_evap lag_high_1d lag_high_2d roll_high_7d_mean roll_high_14d_mean roll_high_7d_std
feature_infos=[17.899999999999999:97.799999999999997] [7.4000000000000004:73.5] [1.9000000000000057:34.799999999999997] [-0.99999942202469239:0.99998555065071859] [-0.99997919295908244:0.9999907524084426] [0:3.3200000000000003] [6.5:38.700000000000003] [177:8724] [0.0080000000000000002:0.29999999999999999] [-15.200000000000005:11.700000000000005] [-15.200000000000005:11.700000000000005] [-4.4428571428571439:5.4857142857142867] [-2.7428571428571438:3.3999999999999995] [0.57113087483560077:7.6634258160495818]
tree_sizes=550 489 574 575 655 658 490 490 557 556 574 574 575 573 566 655 660 657 653 568 582 582 573 662 569 570 577 578 580 581 661 659 580 580 651 646 649 663 579 576 485 489 570 572 569 566 663 647 663 578 661 660 579 579 581 580 579 580 661 664 648 649 665 664 579 579 576 574 664 579 583 664 658 657 578 662 561 563 578 581 574 576 493 491 665 667 665 579 580 578 579 581 578 579 661 647 587 585 583 580 581 582 665 580

Tree=0
num_leaves=5
num_cat=0
split_feature=2 13 7 2
split_gain=512.196 122.847 89.2894 43.5585
threshold=19.750000000000004 1.9947938090792816 2173.5000000000005 14.000000000000005
decision_type=2 2 2 2
left_child=1 -1 -3 -4
right_child=-2 2 3 -5
leaf_value=0.91127980727153113 0.8502198893492291 0.93836633689492754 1.0136931994150422 0.96773102380138831
leaf_weight=55 82 61 79 52
leaf_count=55 82 61 79 52
internal_value=0.934598 0.962613 0.977322 0.995456
internal_weight=329 247 192 131
internal_count=329 247 192 131
is_linear=0
shrinkage=1


Tree=1
num_leaves=4
num_cat=0
split_feature=2 7 0
split_gain=474.496 122.996 79.3184
threshold=18.900000000000009 1919.0000000000002 53.45000000000001
decision_type=2 2 2
left_child=1 -1 -3
right_child=-2 2 -4
leaf_value=-0.013234182942846343 -0.071047884045456991 0.074139080527196963 0.020968235137216202
leaf_weight=64 93 94 78
leaf_count=64 93 94 78
internal_value=0.00349358 0.0328717 0.0500319
internal_weight=329 236 172
internal_count=329 236 172
is_linear=0
shrinkage=0.0389661


Tree=2
num_leaves=5
num_cat=0
split_feature=2 0 7 0
split_gain=531.936 112.825 158.838 25.8475
threshold=20.250000000000007 54.000000000000007 2260.5000000000005 69.550000000000011
decision_type=2 2 2 2
left_child=1 2 -1 -3
right_child=-2 3 -4 -5
leaf_value=-0.0097541881837353416 -0.088400638264682654 0.011530557784731135 0.077591233234551332 -0.02680846618959095
leaf_weight=49 88 56 89 51
leaf_count=49 88 56 89 51
internal_value=-0.00622577 0.0232875 0.046572 -0.00673603
internal_weight=333 245 138 107
internal_count=333 245 138 107
is_linear=0
shrinkage=0.0389661


Tree=3
num_leaves=5
num_cat=0
split_feature=2 2 4 7
split_gain=491.288 106.049 92.878 77.2416
threshold=20.250000000000007 10.299999999999999 -0.42179730054635828 2768.5000000000005
decision_type=2 2 2 2
left_child=1 -1 -3 -4
right_child=-2 2 3 -5
leaf_value=0.060247540327026318 -0.084956102382635984 -0.038857350116498407 -0.012485724196851376 0.051503425824832721
leaf_weight=77 88 51 50 67
leaf_count=77 88 51 50 67
internal_value=-0.00598319 0.0223799 0.00501866 0.0241512
internal_weight=333 245 168 117
internal_count=333 245 168 117
is_linear=0
shrinkage=0.0389661


Tree=4
num_leaves=6
num_cat=0
split_feature=2 9 7 6 12
split_gain=498.875 71.4926 67.863 138.078 52.3495
threshold=19.250000000000004 0.75000000000000011 2173.5000000000005 15.950000000000001 0.81071428571428594
decision_type=2 2 2 2 2
left_child=2 -2 -1 4 -4
right_child=1 -3 3 -5 -6
leaf_value=-0.0017063933972352053 -0.10888232420004214 -0.04193402155440059 -0.01150263217032764 0.098196489121497824 0.040598974052003522
leaf_weight=78 49 48 48 48 75
leaf_count=78 49 48 48 48 75
internal_value=-0.000797057 -0.0757632 0.0284039 0.0421429 0.0202604
internal_weight=346 97 249 171 123
internal_count=346 97 249 171 123
is_linear=0
shrinkage=0.0389661


Tree=5
num_leaves=6
num_cat=0
split_feature=2 9 7 6 12
split_gain=460.758 66.0269 62.6786 127.527 48.3502
threshold=19.250000000000004 0.75000000000000011 2173.5000000000005 15.950000000000001 0.81071428571428594
decision_type=2 2 2 2 2
left_child=2 -2 -1 4 -4
right_child=1 -3 3 -5 -6
leaf_value=-0.0016399034606230105 -0.10463981202046985 -0.040300096950129455 -0.011054442325064895 0.094370346527741705 0.039017040663588062
leaf_weight=78 49 48 48 48 75
leaf_count=78 49 48 48 48 75
internal_value=-0.000766093 -0.0728115 0.0272971 0.0405008 0.0194707
internal_weight=346 97 249 171 123
internal_count=346 97 249 171 123
is_linear=0
shrinkage=0.0389661


Tree=6
num_leaves=4
num_cat=0
split_feature=2 2 9
split_gain=286.724 75.2821 45.5004
threshold=19.150000000000009 10.550000000000002 1.4500000000000031
decision_type=2 2 2
left_child=1 -1 -3
right_child=-2 2 -4
leaf_value=0.061917771180355408 -0.049528621257678103 -0.0055686981321652184 0.03585418071466092
leaf_weight=78 95 80 81
leaf_count=78 95 80 81
internal_value=0.00773161 0.0304955 0.0152667
internal_weight=334 239 161
internal_count=334 239 161
is_linear=0
shrinkage=0.0389661


Tree=7
num_leaves=4
num_cat=0
split_feature=2 2 9
split_gain=264.815 69.5291 42.0243
threshold=19.150000000000009 10.550000000000002 1.4500000000000031
decision_type=2 2 2
left_child=1 -1 -3
right_child=-2 2 -4
leaf_value=0.059505150925846434 -0.047598733098784887 -0.005351713545021718 0.034457123343327296
leaf_weight=78 95 80 81
leaf_count=78 95 80 81
internal_value=0.00743026 0.0293073 0.0146717
internal_weight=334 239 161
internal_count=334 239 161
is_linear=0
shrinkage=0.0389661


Tree=8
num_leaves=5
num_cat=0
split_feature=0 7 3 6
split_gain=262.473 106.363 56.8902 21.474
threshold=71.300000000000026 2588.0000000000005 0.91248814248966259 12.65
decision_type=2 2 2 2
left_child=1 -1 3 -3
right_child=-2 2 -4 -5
leaf_value=-0.0051774997861357419 -0.051995360261930357 0.012111520171275531 0.081844503146220438 0.048997508373695861
leaf_weight=93 86 48 50 48
leaf_count=93 86 48 50 48
internal_value=0.00637705 0.0273849 0.0481319 0.0305635
internal_weight=325 239 146 96
internal_count=325 239 146 96
is_linear=0
shrinkage=0.0389661


Tree=9
num_leaves=5
num_cat=0
split_feature=0 7 3 2
split_gain=242.418 98.2387 52.5406 21.3789
threshold=71.300000000000026 2588.0000000000005 0.91248814248966259 14.1
decision_type=2 2 2 2
left_child=1 -1 3 -3
right_child=-2 2 -4 -5
leaf_value=-0.0049757577671994757 -0.049969359408994406 0.047765566019784586 0.078655492215460712 0.010962399297410701
leaf_weight=93 86 48 50 48
leaf_count=93 86 48 50 48
internal_value=0.00612858 0.026318 0.0462569 0.0293729
internal_weight=325 239 146 96
internal_count=325 239 146 96
is_linear=0
shrinkage=0.0389661


Tree=10
num_leaves=5
num_cat=0
split_feature=2 0 7 13
split_gain=347.545 93.6808 125.913 24.7222
threshold=20.250000000000007 69.050000000000011 1919.0000000000002 2.4870593037759705
decision_type=2 2 2 2
left_child=1 2 -1 -4
right_child=-2 -3 3 -5
leaf_value=-0.015574904071031893 -0.079870695824663038 -0.033223104086729245 0.027175450548163248 0.061819362294860535
leaf_weight=70 76 49 50 84
leaf_count=70 76 49 50 84
internal_value=-0.00679887 0.015149 0.0267719 0.0488991
internal_weight=329 253 204 134
internal_count=329 253 204 134
is_linear=0
shrinkage=0.0389661


Tree=11
num_leaves=5
num_cat=0
split_feature=2 7 1 11
split_gain=322.905 61.3511 112.722 24.4542
threshold=19.450000000000003 1919.0000000000002 51.350000000000001 1.3500000000000008
decision_type=2 2 2 2
left_child=1 -1 3 -3
right_child=-2 2 -4 -5
leaf_value=-0.013830562598844482 -0.070918122427152133 0.071698582145512016 -0.015477032991798237 0.035360425968560656
leaf_weight=71 87 51 57 63
leaf_count=71 87 51 57 63
internal_value=-0.00653395 0.0166096 0.0292532 0.051625
internal_weight=329 242 171 114
internal_count=329 242 171 114
is_linear=0
shrinkage=0.0389661


Tree=12
num_leaves=5
num_cat=0
split_feature=2 7 9 8
split_gain=274.076 73.635 68.4238 56.3494
threshold=15.650000000000006 2173.5000000000005 1.2500000000000002 0.088500000000000009
decision_type=2 2 2 2
left_child=1 -1 -2 -3
right_child=2 3 -4 -5
leaf_value=-0.011973911810990341 -0.069292224943887773 0.062562567502420938 -0.016297890959605894 0.009453763326563204
leaf_weight=58 86 75 65 51
leaf_count=58 86 75 65 51
internal_value=-0.00757818 0.0243475 -0.0464859 0.041073
internal_weight=335 184 151 126
internal_count=335 184 151 126
is_linear=0
shrinkage=0.0389661


Tree=13
num_leaves=5
num_cat=0
split_feature=2 7 9 6
split_gain=253.135 68.01 63.1936 53.2286
threshold=15.650000000000006 2173.5000000000005 1.2500000000000002 13.550000000000002
decision_type=2 2 2 2
left_child=1 -1 -2 -3
right_child=2 3 -4 -5
leaf_value=-0.011507354994704868 -0.066592250707486922 0.012892960791798145 -0.015662849455987331 0.063623066449861806
leaf_weight=58 86 60 65 66
leaf_count=58 86 60 65 66
internal_value=-0.00728289 0.0233988 -0.0446748 0.0394728
internal_weight=335 184 151 126
internal_count=335 184 151 126
is_linear=0
shrinkage=0.0389661


Tree=14
num_leaves=5
num_cat=0
split_feature=2 9 13 11
split_gain=238.084 109.656 55.5162 39.4195
threshold=15.85 1.2500000000000002 2.5697878296606826 1.3500000000000008
decision_type=2 2 2 2
left_child=2 -2 -1 -4
right_child=1 -3 3 -5
leaf_value=-0.00016360507971955316 -0.068106867590852951 0.0020662279842685659 0.062185595798027161 0.018117982325549235
leaf_weight=69 81 58 72 54
leaf_count=69 81 58 72 54
internal_value=0.000142705 -0.0388208 0.0279209 0.0433064
internal_weight=334 139 195 126
internal_count=334 139 195 126
is_linear=0
shrinkage=0.0389661


Tree=15
num_leaves=6
num_cat=0
split_feature=2 13 0 11 6
split_gain=222.76 126.493 53.6862 27.1575 13.0092
threshold=19.250000000000004 1.9947938090792816 47.800000000000004 0.81428571428571306 14.250000000000002
decision_type=2 2 2 2 2
left_child=1 -1 -3 -4 -2
right_child=4 2 3 -5 -6
leaf_value=-0.034546044595004953 -0.035438903900837045 0.058594280686433999 0.035718351321742121 -0.0041219819207150175 -0.06404038693125623
leaf_weight=50 49 83 54 50 48
leaf_count=50 49 83 54 50 48
internal_value=0.000137149 0.0204979 0.03522 0.0165571 -0.0496015
internal_weight=334 237 187 104 97
internal_count=334 237 187 104 97
is_linear=0
shrinkage=0.0389661


Tree=16
num_leaves=6
num_cat=0
split_feature=2 5 4 2 6
split_gain=144.758 72.1638 79.2073 50.5566 33.491
threshold=18.900000000000009 0.059500000000000004 -0.32613736746952132 24.050000000000001 13.750000000000002
decision_type=2 2 2 2 2
left_child=1 2 -1 -2 -4
right_child=3 -3 4 -5 -6
leaf_value=-0.010982823664546646 -0.062921656595887721 -0.018577920674272167 0.023590474773179642 -0.0099973949911988588 0.06696971546504836
leaf_weight=53 64 73 50 48 59
leaf_count=53 64 73 50 48 59
internal_value=-0.00379022 0.0135821 0.0280788 -0.0402475 0.0470791
internal_weight=347 235 162 112 109
internal_count=347 235 162 112 109
is_linear=0
shrinkage=0.0389661


Tree=17
num_leaves=6
num_cat=0
split_feature=2 7 1 2 10
split_gain=133.698 68.5327 81.173 46.692 34.4395
threshold=18.900000000000009 1919.0000000000002 50.600000000000009 24.050000000000001 1.7500000000000002
decision_type=2 2 2 2 2
left_child=1 -1 4 -2 -3
right_child=3 2 -4 -5 -6
leaf_value=-0.020261247743672568 -0.060469934716322421 0.068223302357372895 -0.010946379019914191 -0.0096078539214133063 0.024578486333631876
leaf_weight=67 64 54 58 48 56
leaf_count=67 64 54 58 48 56
internal_value=-0.00364262 0.0130527 0.0263434 -0.0386796 0.0460123
internal_weight=347 235 168 112 110
internal_count=347 235 168 112 110
is_linear=0
shrinkage=0.0389661


Tree=18
num_leaves=6
num_cat=0
split_feature=5 0 7 2 6
split_gain=146.846 134.533 85.6761 47.8372 37.285
threshold=0.087500000000000008 75.450000000000017 2588.0000000000005 12.850000000000003 13.750000000000002
decision_type=2 2 2 2 2
left_child=1 2 -1 -4 -5
right_child=-2 -3 3 4 -6
leaf_value=-0.018081283427780068 -0.049762684850198982 -0.04368473758613 0.067775730029206949 -0.00022693773478519192 0.047585629508736217
leaf_weight=51 76 53 59 50 49
leaf_count=51 76 53 59 50 49
internal_value=-0.00207413 0.0117565 0.0258199 0.0399955 0.0234305
internal_weight=338 262 209 158 99
internal_count=338 262 209 158 99
is_linear=0
shrinkage=0.0389661


Tree=19
num_leaves=5
num_cat=0
split_feature=2 9 5 1
split_gain=140.384 98.0228 70.9188 48.2129
threshold=14.65 -0.099999999999997827 0.022000000000000002 35.650000000000013
decision_type=2 2 2 2
left_child=2 -2 -1 -3
right_child=1 3 -4 -5
leaf_value=0.046107489892838333 -0.064557306263526543 -0.03362365760685166 -0.0061232890168566572 0.018034457525612051
leaf_weight=94 64 48 68 64
leaf_count=94 64 48 68 64
internal_value=-0.0019934 -0.0260882 0.0241788 -0.00409796
internal_weight=338 176 162 112
internal_count=338 176 162 112
is_linear=0
shrinkage=0.0389661


Tree=20
num_leaves=5
num_cat=0
split_feature=2 9 11 8
split_gain=193.101 75.6953 73.1254 22.8367
threshold=15.049999999999999 -0.099999999999997827 1.328571428571429 0.11450000000000002
decision_type=2 2 2 2
left_child=2 -2 -1 -3
right_child=1 3 -4 -5
leaf_value=0.05164226944531404 -0.062518170763614336 -0.028220660837890727 0.00016573434347715322 0.0090202521845086717
leaf_weight=92 68 49 77 51
leaf_count=92 68 49 77 51
internal_value=-0.00121265 -0.0307984 0.0281934 -0.00922018
internal_weight=337 168 169 100
internal_count=337 168 169 100
is_linear=0
shrinkage=0.0389661


Tree=21
num_leaves=5
num_cat=0
split_feature=2 9 11 8
split_gain=178.347 69.911 67.5366 21.0921
threshold=15.049999999999999 -0.099999999999997827 1.328571428571429 0.11450000000000002
decision_type=2 2 2 2
left_child=2 -2 -1 -3
right_child=1 3 -4 -5
leaf_value=0.049630022851512086 -0.060082165926094354 -0.027121064585181182 0.00015927625025166734 0.0086687848186647234
leaf_weight=92 68 49 77 51
leaf_count=92 68 49 77 51
internal_value=-0.00116522 -0.0295984 0.0270951 -0.00886061
internal_weight=337 168 169 100
internal_count=337 168 169 100
is_linear=0
shrinkage=0.0389661


Tree=22
num_leaves=5
num_cat=0
split_feature=0 5 9 13
split_gain=159.157 65.2334 48.4767 42.3964
threshold=79.950000000000017 0.037500000000000006 2.2999999999999994 2.594955886715677
decision_type=2 2 2 2
left_child=1 2 3 -1
right_child=-2 -3 -4 -5
leaf_value=-0.014520327641762145 -0.066247679296620163 -0.018998082668502277 0.04581581772497826 0.03073231637480598
leaf_weight=66 48 82 80 60
leaf_count=66 48 82 80 60
internal_value=-0.000556318 0.01039 0.022092 0.00702249
internal_weight=336 288 206 126
internal_count=336 288 206 126
is_linear=0
shrinkage=0.0389661


Tree=23
num_leaves=6
num_cat=0
split_feature=0 2 5 9 13
split_gain=146.995 63.2992 118.856 56.3261 37.418
threshold=79.950000000000017 9.5000000000000018 0.037500000000000006 2.2999999999999994 2.594955886715677
decision_type=2 2 2 2 2
left_child=1 -1 3 4 -3
right_child=-2 2 -4 -5 -6
leaf_value=0.043820829826532723 -0.063666391248611232 -0.023598882390887997 -0.053483380364381897 0.042898522227721655 0.022908340656377073
leaf_weight=65 48 58 49 68 48
leaf_count=65 48 58 49 68 48
internal_value=-0.000534646 0.00998502 0.000118682 0.0152186 -0.00253155
internal_weight=336 288 223 174 106
internal_count=336 288 223 174 106
is_linear=0
shrinkage=0.0389661


Tree=24
num_leaves=5
num_cat=0
split_feature=2 3 6 2
split_gain=121.327 57.397 45.9845 44.8355
threshold=22.550000000000001 0.7090011537757156 15.050000000000002 14.450000000000001
decision_type=2 2 2 2
left_child=1 3 -3 -1
right_child=-2 2 -4 -5
leaf_value=0.014529881009905526 -0.04959358252830956 0.0058986261573441339 0.05905618500472691 -0.026218535742424838
leaf_weight=89 65 48 51 76
leaf_count=89 65 48 51 76
internal_value=-0.0019041 0.009835 0.0332915 -0.00423443
internal_weight=329 264 99 165
internal_count=329 264 99 165
is_linear=0
shrinkage=0.0389661


Tree=25
num_leaves=5
num_cat=0
split_feature=2 3 6 2
split_gain=112.057 53.012 42.4695 41.4097
threshold=22.550000000000001 0.7090011537757156 15.050000000000002 14.450000000000001
decision_type=2 2 2 2
left_child=1 3 -3 -1
right_child=-2 2 -4 -5
leaf_value=0.0139637235868752 -0.04766118408318902 0.0056687920335509777 0.056755102331084106 -0.025196933551988567
leaf_weight=89 65 48 51 76
leaf_count=89 65 48 51 76
internal_value=-0.00182971 0.0094519 0.0319947 -0.00406925
internal_weight=329 264 99 165
internal_count=329 264 99 165
is_linear=0
shrinkage=0.0389661


Tree=26
num_leaves=5
num_cat=0
split_feature=2 13 7 12
split_gain=162.733 71.3779 48.883 54.3204
threshold=20.250000000000007 1.862151666745123 2359.0000000000005 1.0071428571428569
decision_type=2 2 2 2
left_child=1 -1 -3 -4
right_child=-2 2 3 -5
leaf_value=-0.024327721859165763 -0.047684779184067008 -2.8344564608724315e-05 0.012944016347258051 0.065142128277405176
leaf_weight=54 84 68 56 66
leaf_count=54 84 68 56 66
internal_value=-0.000905134 0.0151964 0.0264339 0.0411895
internal_weight=328 244 190 122
internal_count=328 244 190 122
is_linear=0
shrinkage=0.0389661


Tree=27
num_leaves=5
num_cat=0
split_feature=2 13 7 12
split_gain=150.298 65.9245 45.1494 50.1681
threshold=20.250000000000007 1.862151666745123 2359.0000000000005 1.0071428571428569
decision_type=2 2 2 2
left_child=1 -1 -3 -4
right_child=-2 2 3 -5
leaf_value=-0.023379807202388508 -0.045826741034010091 -2.7241130433491274e-05 0.012439658821794661 0.062603884620649045
leaf_weight=54 84 68 56 66
leaf_count=54 84 68 56 66
internal_value=-0.000869863 0.0146042 0.0254039 0.0395848
internal_weight=328 244 190 122
internal_count=328 244 190 122
is_linear=0
shrinkage=0.0389661


Tree=28
num_leaves=5
num_cat=0
split_feature=2 5 3 4
split_gain=96.1382 91.4308 88.9646 48.3463
threshold=22.250000000000004 0.055500000000000008 0.76696112484652035 -0.45273527932988084
decision_type=2 2 2 2
left_child=1 2 3 -1
right_child=-2 -3 -4 -5
leaf_value=-0.023290293552842289 -0.044812880309354118 -0.024998468283689859 0.060372741462377755 0.023814250368027885
leaf_weight=53 58 81 68 88
leaf_count=53 58 81 68 88
internal_value=0.000979876 0.0101414 0.0237641 0.00610262
internal_weight=348 290 209 141
internal_count=348 290 209 141
is_linear=0
shrinkage=0.0389661


Tree=29
num_leaves=5
num_cat=0
split_feature=2 5 3 4
split_gain=88.7919 84.4448 82.1665 44.6524
threshold=22.250000000000004 0.055500000000000008 0.76696112484652035 -0.45273527932988084
decision_type=2 2 2 2
left_child=1 2 3 -1
right_child=-2 -3 -4 -5
leaf_value=-0.022382802404854713 -0.043066767811108325 -0.024024404310855466 0.058020332048290532 0.022886326300228767
leaf_weight=53 58 81 68 88
leaf_count=53 58 81 68 88
internal_value=0.000941515 0.00974616 0.0228382 0.00586461
internal_weight=348 290 209 141
internal_count=348 290 209 141
is_linear=0
shrinkage=0.0389661


Tree=30
num_leaves=6
num_cat=0
split_feature=2 8 1 9 13
split_gain=96.0405 92.2779 177.649 44.243 21.8402
threshold=14.500000000000005 0.090500000000000011 53.20000000000001 -0.15000000000000205 2.7858022457105593
decision_type=2 2 2 2 2
left_child=3 -2 -3 -1 -5
right_child=1 2 -4 4 -6
leaf_value=0.052445009800459116 -0.058252166734600416 0.051262876990494449 -0.050144339036174726 -0.009508590169330134 0.024509234975467423
leaf_weight=50 61 54 51 54 61
leaf_count=50 61 54 51 54 61
internal_value=0.000787126 -0.0201364 0.00200044 0.0218422 0.00852895
internal_weight=331 166 105 165 115
internal_count=331 166 105 165 115
is_linear=0
shrinkage=0.0389661


Tree=31
num_leaves=6
num_cat=0
split_feature=2 8 1 9 13
split_gain=88.702 85.2268 164.075 40.862 20.1717
threshold=14.500000000000005 0.090500000000000011 53.20000000000001 -0.15000000000000205 2.7858022457105593
decision_type=2 2 2 2 2
left_child=3 -2 -3 -1 -5
right_child=1 2 -4 4 -6
leaf_value=0.050401528306647264 -0.055982393996410092 0.049265449716208144 -0.04819050063835522 -0.0091380937456759029 0.023554242875185202
leaf_weight=50 61 54 51 54 61
leaf_count=50 61 54 51 54 61
internal_value=0.000756365 -0.0193518 0.0019222 0.0209911 0.00819635
internal_weight=331 166 105 165 115
internal_count=331 166 105 165 115
is_linear=0
shrinkage=0.0389661


Tree=32
num_leaves=5
num_cat=0
split_feature=2 12 3 11
split_gain=173.272 42.6436 41.2162 15.8409
threshold=19.949999999999999 0.37142857142857094 0.68432406471780916 1.3928571428571437
decision_type=2 2 2 2
left_child=1 -1 3 -3
right_child=-2 2 -4 -5
leaf_value=-0.012200007018078236 -0.045669221221242826 0.023978106524643574 0.045458276634671731 -0.0069133659178921688
leaf_weight=56 89 53 91 48
leaf_count=56 89 53 91 48
internal_value=0.000968479 0.0177088 0.0264364 0.00928941
internal_weight=337 248 192 101
internal_count=337 248 192 101
is_linear=0
shrinkage=0.0389661


Tree=33
num_leaves=5
num_cat=0
split_feature=2 12 3 11
split_gain=160.031 39.3858 38.0664 14.6308
threshold=19.949999999999999 0.37142857142857094 0.68432406471780916 1.3928571428571437
decision_type=2 2 2 2
left_child=1 -1 3 -3
right_child=-2 2 -4 -5
leaf_value=-0.011724640859496071 -0.043889715931770761 0.023043814568500243 0.043686990841934739 -0.0066439921258946502
leaf_weight=56 89 53 91 48
leaf_count=56 89 53 91 48
internal_value=0.000930561 0.0170187 0.0254063 0.00892715
internal_weight=337 248 192 101
internal_count=337 248 192 101
is_linear=0
shrinkage=0.0389661


Tree=34
num_leaves=6
num_cat=0
split_feature=2 3 7 3 11
split_gain=95.1339 69.9484 41.4875 34.1941 60.7403
threshold=15.85 -0.42180583328916638 5150.5000000000009 -0.46801505794253101 1.4714285714285722
decision_type=2 2 2 2 2
left_child=3 -2 -3 -1 -5
right_child=1 2 -4 4 -6
leaf_value=-0.011354256996509726 0.011680859083132863 -0.070668226838219661 -0.021855421795026968 0.047915440059401328 -0.0049910037143299796
leaf_weight=53 51 48 59 78 57
leaf_count=53 51 48 59 78 57
internal_value=-0.00357102 -0.0258605 -0.0437612 0.0151575 0.0255717
internal_weight=346 158 107 188 135
internal_count=346 158 107 188 135
is_linear=0
shrinkage=0.0389661


Tree=35
num_leaves=6
num_cat=0
split_feature=2 3 7 3 11
split_gain=87.8633 64.6053 38.5897 31.5814 56.1
threshold=15.85 -0.42180583328916638 5836.0000000000009 -0.46801505794253101 1.4714285714285722
decision_type=2 2 2 2 2
left_child=3 -2 -3 -1 -5
right_child=1 2 -4 4 -6
leaf_value=-0.010911845530754411 0.011225723601105122 -0.06397765645689471 -0.017048484458354204 0.046048418174112538 -0.0047965322987724738
leaf_weight=53 51 57 50 78 57
leaf_count=53 51 57 50 78 57
internal_value=-0.00343198 -0.0248528 -0.0420564 0.0145666 0.024575
internal_weight=346 158 107 188 135
internal_count=346 158 107 188 135
is_linear=0
shrinkage=0.0389661


Tree=36
num_leaves=6
num_cat=0
split_feature=3 2 8 1 7
split_gain=56.3786 43.7487 80.2204 87.7547 22.1119
threshold=0.93845596220871974 14.65 0.082999999999999963 54.250000000000007 2173.5000000000005
decision_type=2 2 2 2 2
left_child=1 4 -3 -4 -1
right_child=-2 2 3 -5 -6
leaf_value=-0.0030798703728050084 0.041859324603376866 -0.053672293767882032 0.043757611926905006 -0.028649461609628137 0.03025299933081067
leaf_weight=52 56 53 48 54 72
leaf_count=52 56 53 48 54 72
internal_value=0.00617946 -0.000979567 -0.0147832 0.00541698 0.0162686
internal_weight=335 279 155 102 124
internal_count=335 279 155 102 124
is_linear=0
shrinkage=0.0389661


Tree=37
num_leaves=6
num_cat=0
split_feature=3 9 9 7 3
split_gain=52.0709 42.1256 40.2943 30.059 30.0784
threshold=0.93845596220871974 -0.15000000000000205 -1.5999999999999976 2359.0000000000005 0.39827038710620805
decision_type=2 2 2 2 2
left_child=1 2 -1 -3 -5
right_child=-2 3 -4 4 -6
leaf_value=0.0024010328460261506 0.040228298738225157 -0.011661009378847596 -0.045712062883962908 0.0042499565823671745 0.044450726764127563
leaf_weight=56 56 59 50 62 52
leaf_count=56 56 59 50 62 52
internal_value=0.00593859 -0.000941401 -0.0202869 0.0109075 0.0225946
internal_weight=335 279 106 173 114
internal_count=335 279 106 173 114
is_linear=0
shrinkage=0.0389661


Tree=38
num_leaves=5
num_cat=0
split_feature=0 5 1 7
split_gain=73.9069 55.8114 117.068 32.1773
threshold=42.150000000000013 0.055500000000000008 57.550000000000004 5526.0000000000009
decision_type=2 2 2 2
left_child=-1 2 3 -2
right_child=1 -3 -4 -5
leaf_value=0.028267978352662097 0.0031022729350462718 -0.040007977917675866 -0.052510862311704792 0.042254359621152579
leaf_weight=85 95 83 51 48
leaf_count=85 95 83 51 48
internal_value=-0.00351237 -0.0132675 -0.00182253 0.0162502
internal_weight=362 277 194 143
internal_count=362 277 194 143
is_linear=0
shrinkage=0.0389661


Tree=39
num_leaves=5
num_cat=0
split_feature=0 5 1 7
split_gain=68.2593 51.5471 108.124 29.718
threshold=42.150000000000013 0.055500000000000008 57.550000000000004 5526.0000000000009
decision_type=2 2 2 2
left_child=-1 2 3 -2
right_child=1 -3 -4 -5
leaf_value=0.027166515754030202 0.0029813926928590586 -0.038449066589078408 -0.050464813143524051 0.04060795378507482
leaf_weight=85 95 83 51 48
leaf_count=85 95 83 51 48
internal_value=-0.00337534 -0.0127504 -0.0017512 0.0156172
internal_weight=362 277 194 143
internal_count=362 277 194 143
is_linear=0
shrinkage=0.0389661


Tree=40
num_leaves=4
num_cat=0
split_feature=1 7 2
split_gain=65.969 88.2454 37.1023
threshold=53.20000000000001 2588.0000000000005 17.150000000000002
decision_type=2 2 2
left_child=1 -1 -3
right_child=-2 2 -4
leaf_value=-0.01420985745265621 -0.023646900580141815 0.0179674859425254 0.057530214702024747
leaf_weight=91 87 86 62
leaf_count=91 87 86 62
internal_value=0.00540181 0.0159794 0.034547
internal_weight=326 239 148
internal_count=326 239 148
is_linear=0
shrinkage=0.0389661


Tree=41
num_leaves=4
num_cat=0
split_feature=1 7 2
split_gain=60.9284 81.5038 34.266
threshold=53.20000000000001 2588.0000000000005 17.150000000000002
decision_type=2 2 2
left_child=1 -1 -3
right_child=-2 2 -4
leaf_value=-0.013656169090714152 -0.022725498343416507 0.017267382000549242 0.055288572785431159
leaf_weight=91 87 86 62
leaf_count=91 87 86 62
internal_value=0.00519124 0.0153568 0.0332011
internal_weight=326 239 148
internal_count=326 239 148
is_linear=0
shrinkage=0.0389661


Tree=42
num_leaves=5
num_cat=0
split_feature=2 6 7 6
split_gain=50.0932 44.428 28.6187 30.8358
threshold=19.750000000000004 10.750000000000002 2394.5000000000005 15.550000000000002
decision_type=2 2 2 2
left_child=1 -1 -3 -4
right_child=-2 2 3 -5
leaf_value=-0.014416845910119117 -0.016216629086565664 0.0054731801734870722 0.021896419498835751 0.061334739468621099
leaf_weight=53 93 69 81 48
leaf_count=53 93 69 81 48
internal_value=0.008207 0.0172596 0.0257427 0.0365781
internal_weight=344 251 198 129
internal_count=344 251 198 129
is_linear=0
shrinkage=0.0389661


Tree=43
num_leaves=5
num_cat=0
split_feature=2 6 7 6
split_gain=46.2662 41.0345 26.4314 28.4782
threshold=19.750000000000004 10.750000000000002 2394.5000000000005 15.550000000000002
decision_type=2 2 2 2
left_child=1 -1 -3 -4
right_child=-2 2 3 -5
leaf_value=-0.013855102735584495 -0.015584745286391664 0.005259919140899987 0.021043226009228228 0.058944882537393675
leaf_weight=53 93 69 81 48
leaf_count=53 93 69 81 48
internal_value=0.00788722 0.0165872 0.0247399 0.0351531
internal_weight=344 251 198 129
internal_count=344 251 198 129
is_linear=0
shrinkage=0.0389661


Tree=44
num_leaves=5
num_cat=0
split_feature=2 10 11 8
split_gain=84.9221 52.7326 57.7081 25.0704
threshold=10.15 -0.95000000000000273 1.9357142857142864 0.096500000000000016
decision_type=2 2 2 2
left_child=-1 -2 3 -3
right_child=1 2 -4 -5
leaf_value=0.036349719435068525 -0.041450573821141291 -0.0018644863809827751 -0.030148637667322089 0.031484600225396037
leaf_weight=88 56 66 61 71
leaf_count=88 56 66 61 71
internal_value=0.00336033 -0.0080662 0.00137226 0.0154131
internal_weight=342 254 198 137
internal_count=342 254 198 137
is_linear=0
shrinkage=0.0389661


Tree=45
num_leaves=5
num_cat=0
split_feature=2 1 8 4
split_gain=78.4337 48.8165 85.0168 64.2412
threshold=10.15 53.95000000000001 0.087500000000000008 0.57605713708605399
decision_type=2 2 2 2
left_child=-1 2 3 -2
right_child=1 -3 -4 -5
leaf_value=0.034933350698905921 -0.051751498223889809 -0.035723647505639736 0.034670207453061486 0.0080421371241777527
leaf_weight=88 50 69 75 60
leaf_count=88 50 69 75 60
internal_value=0.00322921 -0.00775203 0.00267671 -0.0191302
internal_weight=342 254 185 110
internal_count=342 254 185 110
is_linear=0
shrinkage=0.0389661


Tree=46
num_leaves=6
num_cat=0
split_feature=2 1 8 6 7
split_gain=70.3672 55.0945 76.4125 40.0512 27.8913
threshold=12.850000000000003 57.050000000000004 0.058500000000000003 14.850000000000003 5211.0000000000009
decision_type=2 2 2 2 2
left_child=3 2 -2 -1 -4
right_child=1 -3 4 -5 -6
leaf_value=0.036855068666316763 -0.046827808168374375 -0.052528601944229758 -0.0061212507571283565 -0.0083130204499353658 0.032365738591275409
leaf_weight=76 50 52 65 49 51
leaf_count=76 50 52 65 49 51
internal_value=-0.00416135 -0.0175276 -0.00655815 0.0191431 0.0107933
internal_weight=343 218 166 125 116
internal_count=343 218 166 125 116
is_linear=0
shrinkage=0.0389661


Tree=47
num_leaves=6
num_cat=0
split_feature=2 1 8 6 6
split_gain=64.9901 50.884 70.5733 36.9916 25.9164
threshold=12.850000000000003 57.050000000000004 0.058500000000000003 14.850000000000003 14.65
decision_type=2 2 2 2 2
left_child=3 2 -2 -1 -4
right_child=1 -3 4 -5 -6
leaf_value=0.035419014665284548 -0.045003197359553895 -0.050481859698381572 -0.0050919294533900749 -0.007989110246982685 0.032295929435264562
leaf_weight=76 50 52 68 49 48
leaf_count=76 50 52 68 49 48
internal_value=-0.0039993 -0.0168448 -0.00630261 0.0183969 0.0103725
internal_weight=343 218 166 125 116
internal_count=343 218 166 125 116
is_linear=0
shrinkage=0.0389661


Tree=48
num_leaves=6
num_cat=0
split_feature=2 12 11 6 1
split_gain=41.1837 31.4953 34.6367 28.6313 22.7321
threshold=22.550000000000001 -0.13928571428571393 0.78571428571428681 14.850000000000003 38.300000000000004
decision_type=2 2 2 2 2
left_child=1 -1 -3 4 -4
right_child=-2 2 3 -5 -6
leaf_value=-0.022131097320070733 -0.029799693835211315 0.035618727477051595 0.032919595357836839 -0.01829261221588073 -0.0031574296400516326
leaf_weight=50 59 67 53 63 53
leaf_count=50 59 67 53 63 53
internal_value=-0.000156866 0.00595571 0.0119098 0.00250538 0.014874
internal_weight=345 286 236 169 106
internal_count=345 286 236 169 106
is_linear=0
shrinkage=0.0389661


Tree=49
num_leaves=5
num_cat=0
split_feature=2 13 6 8
split_gain=38.0363 30.6694 29.5405 41.6524
threshold=22.550000000000001 1.862151666745123 12.350000000000003 0.05050000000000001
decision_type=2 2 2 2
left_child=1 -1 -3 -4
right_child=-2 2 3 -5
leaf_value=-0.019035741518290589 -0.028638563268534926 0.033331641097310155 -0.021927946763979023 0.019214222217606491
leaf_weight=60 59 70 62 94
leaf_count=60 59 70 62 94
internal_value=-0.000150844 0.00572344 0.0123003 0.00285772
internal_weight=345 286 226 156
internal_count=345 286 226 156
is_linear=0
shrinkage=0.0389661


Tree=50
num_leaves=6
num_cat=0
split_feature=5 4 1 8 0
split_gain=48.204 93.7659 75.7056 44.1205 30.457
threshold=0.055500000000000008 1.0000000180025095e-35 53.20000000000001 0.081500000000000017 37.600000000000009
decision_type=2 2 2 2 2
left_child=2 -2 3 4 -1
right_child=1 -3 -4 -5 -6
leaf_value=0.028155600612771819 0.014919654892704404 -0.060594353299174036 -0.022241003174100025 0.046405142250588893 -0.014652647051744145
leaf_weight=52 52 48 75 78 49
leaf_count=52 52 48 75 78 49
internal_value=0.00159356 -0.0213198 0.0106178 0.0243899 0.00737961
internal_weight=354 100 254 179 101
internal_count=354 100 254 179 101
is_linear=0
shrinkage=0.0389661


Tree=51
num_leaves=6
num_cat=0
split_feature=5 4 1 8 0
split_gain=44.5196 86.6021 69.9212 40.7489 28.13
threshold=0.055500000000000008 1.0000000180025095e-35 53.20000000000001 0.081500000000000017 37.600000000000009
decision_type=2 2 2 2 2
left_child=2 -2 3 4 -1
right_child=1 -3 -4 -5 -6
leaf_value=0.027058536872576346 0.014338322211634561 -0.058233343474121693 -0.021374385934685061 0.04459696824997518 -0.014081718327013652
leaf_weight=52 52 48 75 78 49
leaf_count=52 52 48 75 78 49
internal_value=0.00153138 -0.0204888 0.0102039 0.0234396 0.00709176
internal_weight=354 100 254 179 101
internal_count=354 100 254 179 101
is_linear=0
shrinkage=0.0389661


Tree=52
num_leaves=5
num_cat=0
split_feature=5 4 7 6
split_gain=86.6377 111.093 28.5292 28.2073
threshold=0.055500000000000008 -0.6391983530350368 2768.5000000000005 15.050000000000002
decision_type=2 2 2 2
left_child=1 -1 -3 -4
right_child=-2 2 3 -5
leaf_value=-0.043931417377833279 -0.040993933633471286 -0.0070473644421196044 0.013784402616210402 0.050766865741036574
leaf_weight=58 93 51 87 49
leaf_count=58 93 51 87 49
internal_value=-0.00897366 0.00317804 0.0177941 0.0271154
internal_weight=338 245 187 136
internal_count=338 245 187 136
is_linear=0
shrinkage=0.0389661


Tree=53
num_leaves=5
num_cat=0
split_feature=2 5 4 1
split_gain=80.8853 79.3233 46.6829 28.2192
threshold=22.550000000000001 0.055500000000000008 -0.42179730054635828 32.650000000000013
decision_type=2 2 2 2
left_child=1 2 -1 -4
right_child=-2 -3 3 -5
leaf_value=-0.014683752659463886 -0.051861956311803036 -0.032243529787515442 0.007746295887480428 0.043141087722608849
leaf_weight=63 55 83 67 70
leaf_count=63 55 83 67 70
internal_value=-0.008624 -0.000217723 0.0130693 0.0258374
internal_weight=338 283 200 137
internal_count=338 283 200 137
is_linear=0
shrinkage=0.0389661


Tree=54
num_leaves=5
num_cat=0
split_feature=10 7 7 4
split_gain=37.7795 45.2631 71.1756 31.1916
threshold=-1.7499999999999998 1838.0000000000002 3408.5000000000005 -0.34234976856068172
decision_type=2 2 2 2
left_child=-1 -2 -3 -4
right_child=1 2 3 -5
leaf_value=-0.033191480962564211 -0.026416767148175455 0.039982548343593549 -0.021545357089633701 0.014147626551117483
leaf_weight=48 59 86 78 71
leaf_count=48 59 86 78 71
internal_value=-0.00113859 0.00409208 0.0117553 -0.00453206
internal_weight=342 294 235 149
internal_count=342 294 235 149
is_linear=0
shrinkage=0.0389661


Tree=55
num_leaves=5
num_cat=0
split_feature=10 7 7 4
split_gain=34.8925 41.8047 65.7367 28.8083
threshold=-1.7499999999999998 1838.0000000000002 3408.5000000000005 -0.34234976856068172
decision_type=2 2 2 2
left_child=-1 -2 -3 -4
right_child=1 2 3 -5
leaf_value=-0.031898202502179077 -0.02538744972578123 0.038424626968733444 -0.020705844003495063 0.013596366542796381
leaf_weight=48 59 86 78 71
leaf_count=48 59 86 78 71
internal_value=-0.00109424 0.00393253 0.0112972 -0.00435527
internal_weight=342 294 235 149
internal_count=342 294 235 149
is_linear=0
shrinkage=0.0389661


Tree=56
num_leaves=5
num_cat=0
split_feature=2 5 3 7
split_gain=63.2254 52.7795 37.7965 17.3892
threshold=22.950000000000014 0.059500000000000004 0.74443451080969758 3343.0000000000005
decision_type=2 2 2 2
left_child=1 2 3 -1
right_child=-2 -3 -4 -5
leaf_value=0.01533510019788269 -0.043345145803127497 -0.025759402997359637 0.036008102953765726 -0.012350095062789258
leaf_weight=63 58 79 66 76
leaf_count=63 58 79 66 76
internal_value=-0.00627202 0.00129679 0.0117273 0.000192266
internal_weight=342 284 205 139
internal_count=342 284 205 139
is_linear=0
shrinkage=0.0389661


Tree=57
num_leaves=5
num_cat=0
split_feature=2 5 3 7
split_gain=58.3943 48.7466 35.0184 18.0706
threshold=22.950000000000014 0.059500000000000004 0.7090011537757156 3343.0000000000005
decision_type=2 2 2 2
left_child=1 2 3 -1
right_child=-2 -3 -4 -5
leaf_value=0.014737573735619805 -0.041656223256213327 -0.024755690533155902 0.033394958787920877 -0.013931478425574465
leaf_weight=63 58 79 71 71
leaf_count=63 58 79 71 71
internal_value=-0.00602763 0.00124616 0.0112704 -0.000446858
internal_weight=342 284 205 134
internal_count=342 284 205 134
is_linear=0
shrinkage=0.0389661


Tree=58
num_leaves=6
num_cat=0
split_feature=2 5 4 8 4
split_gain=53.908 62.6357 38.6603 23.0613 24.0667
threshold=9.5000000000000018 0.051500000000000011 -0.70289845916694649 0.11450000000000002 0.57605713708605399
decision_type=2 2 2 2 2
left_child=-1 2 -2 4 -4
right_child=1 -3 3 -5 -6
leaf_value=0.030383639181833809 -0.027627827831776464 -0.041353586835964691 -0.01738452919294322 0.032988370265125376 0.018973613742070041
leaf_weight=75 48 62 52 54 59
leaf_count=75 48 62 52 54 59
internal_value=0.00109925 -0.00688474 0.0031451 0.0121023 0.00193388
internal_weight=350 275 213 165 111
internal_count=350 275 213 165 111
is_linear=0
shrinkage=0.0389661


Tree=59
num_leaves=6
num_cat=0
split_feature=2 5 4 8 4
split_gain=49.7889 57.8495 35.7064 21.2991 22.2278
threshold=9.5000000000000018 0.051500000000000011 -0.70289845916694649 0.11450000000000002 0.57605713708605399
decision_type=2 2 2 2 2
left_child=-1 2 -2 4 -4
right_child=1 -3 3 -5 -6
leaf_value=0.029199744658846494 -0.026551332597771926 -0.039742260460416366 -0.016707152695246506 0.031702998636754229 0.018234315845940173
leaf_weight=75 48 62 52 54 59
leaf_count=75 48 62 52 54 59
internal_value=0.00105633 -0.00661648 0.00302241 0.0116307 0.00185825
internal_weight=350 275 213 165 111
internal_count=350 275 213 165 111
is_linear=0
shrinkage=0.0389661


Tree=60
num_leaves=6
num_cat=0
split_feature=2 6 10 13 7
split_gain=47.985 48.3822 47.6142 33.0313 18.6194
threshold=19.250000000000004 14.15 1.5999999999999981 2.4960909518158814 3100.5000000000005
decision_type=2 2 2 2 2
left_child=2 -2 3 -1 -4
right_child=1 -3 4 -5 -6
leaf_value=0.00042996802089915971 -0.00016534017186718605 -0.053614608285908291 0.0015969109149135676 0.041679862720388129 -0.03083236045597362
leaf_weight=54 53 50 61 65 48
leaf_count=54 53 50 61 65 48
internal_value=-0.0040451 -0.0261199 0.00592399 0.0229684 -0.012677
internal_weight=331 103 228 119 109
internal_count=331 103 228 119 109
is_linear=0
shrinkage=0.0389661


Tree=61
num_leaves=6
num_cat=0
split_feature=2 6 10 13 1
split_gain=44.3198 44.6843 43.9762 30.5065 18.0613
threshold=19.250000000000004 14.15 1.5999999999999981 2.4960909518158814 34.350000000000001
decision_type=2 2 2 2 2
left_child=2 -2 3 -1 -4
right_child=1 -3 4 -5 -6
leaf_value=0.00041321538839621979 -0.00015889758863963543 -0.05152555490002899 0.0053557731410324031 0.040055819939442135 -0.026518692146839173
leaf_weight=54 53 50 49 65 60
leaf_count=54 53 50 49 65 60
internal_value=-0.0038874 -0.0251024 0.0056933 0.0220737 -0.0121828
internal_weight=331 103 228 119 109
internal_count=331 103 228 119 109
is_linear=0
shrinkage=0.0389661


Tree=62
num_leaves=6
num_cat=0
split_feature=13 2 8 3 0
split_gain=61.9748 80.1428 82.7069 38.767 31.0536
threshold=4.5436213486145185 14.350000000000003 0.079500000000000015 -0.42180583328916638 47.650000000000013
decision_type=2 2 2 2 2
left_child=1 4 -3 -4 -1
right_child=-2 2 3 -5 -6
leaf_value=0.034202290263534905 0.039072678028041152 -0.069337373269447125 0.018260772885557296 -0.028215626516770821 -0.0032488202235672679
leaf_weight=63 50 48 48 63 72
leaf_count=63 50 48 48 63 72
internal_value=-0.00102916 -0.00785214 -0.0265999 -0.00811068 0.0142228
internal_weight=344 294 159 111 135
internal_count=344 294 159 111 135
is_linear=0
shrinkage=0.0389661


Tree=63
num_leaves=6
num_cat=0
split_feature=13 2 8 6 0
split_gain=57.2394 74.0185 76.387 37.3236 28.6813
threshold=4.5436213486145185 14.350000000000003 0.079500000000000015 13.750000000000002 47.650000000000013
decision_type=2 2 2 2 2
left_child=1 4 -3 -4 -1
right_child=-2 2 3 -5 -6
leaf_value=0.032869609681017264 0.037550239801559374 -0.066635699877910862 -0.032306051632758868 0.013027909080647056 -0.0031222303512374399
leaf_weight=63 50 48 51 60 72
leaf_count=63 50 48 51 60 72
internal_value=-0.000988974 -0.00754619 -0.0255635 -0.00779438 0.0136684
internal_weight=344 294 159 111 135
internal_count=344 294 159 111 135
is_linear=0
shrinkage=0.0389661


Tree=64
num_leaves=5
num_cat=0
split_feature=2 7 9 9
split_gain=58.6807 52.8147 31.1236 28.9929
threshold=16.450000000000006 5150.5000000000009 0.40000000000000219 3.2999999999999994
decision_type=2 2 2 2
left_child=2 -2 -1 -4
right_child=1 -3 3 -5
leaf_value=0.025902498981691099 -0.050511421730847085 -0.0022820526541128408 -0.020875827447343502 0.017098595594685483
leaf_weight=76 70 68 76 51
leaf_count=76 70 68 76 51
internal_value=-0.00714657 -0.0267524 0.0061778 -0.00562003
internal_weight=341 138 203 127
internal_count=341 138 203 127
is_linear=0
shrinkage=0.0389661


Tree=65
num_leaves=5
num_cat=0
split_feature=13 2 2 4
split_gain=55.9325 114.071 32.8368 19.8335
threshold=4.4022126968785891 19.150000000000009 9.5000000000000018 0.18281312110578127
decision_type=2 2 2 2
left_child=1 2 -1 -4
right_child=-2 -3 3 -5
leaf_value=0.025995537296010313 0.031198056369359645 -0.053031989712004061 -0.022678221360428925 0.0055750525475003754
leaf_weight=60 50 80 73 78
leaf_count=60 50 80 73 78
internal_value=-0.0068681 -0.0134116 0.00160708 -0.00807875
internal_weight=341 291 211 151
internal_count=341 291 211 151
is_linear=0
shrinkage=0.0389661


Tree=66
num_leaves=5
num_cat=0
split_feature=2 7 4 1
split_gain=53.4232 18.417 37.1348 23.9731
threshold=19.150000000000009 1838.0000000000002 -0.34234976856068172 32.650000000000013
decision_type=2 2 2 2
left_child=1 -1 -3 -4
right_child=-2 2 3 -5
leaf_value=-0.013039930355076203 -0.030034245165068942 -0.01155600842703295 0.0073122807239121845 0.044222457671277096
leaf_weight=64 93 66 54 53
leaf_count=64 93 66 54 53
internal_value=-0.00500539 0.00481295 0.0114221 0.0256028
internal_weight=330 237 173 107
internal_count=330 237 173 107
is_linear=0
shrinkage=0.0389661


Tree=67
num_leaves=5
num_cat=0
split_feature=2 6 7 3
split_gain=49.3408 18.0463 23.1379 18.2194
threshold=19.150000000000009 11.050000000000002 2173.5000000000005 0.7210268013660811
decision_type=2 2 2 2
left_child=1 -1 -3 -4
right_child=-2 2 3 -5
leaf_value=-0.016162382028548 -0.028863956925160219 -0.0092652796978782478 0.0078842464463964885 0.038373544134043189
leaf_weight=50 93 62 76 49
leaf_count=50 93 62 76 49
internal_value=-0.00481035 0.00462529 0.0101878 0.0198428
internal_weight=330 237 187 125
internal_count=330 237 187 125
is_linear=0
shrinkage=0.0389661


Tree=68
num_leaves=6
num_cat=0
split_feature=13 2 13 3 11
split_gain=47.4986 59.7113 44.0094 39.0495 19.7672
threshold=4.5436213486145185 19.150000000000009 1.8710805061728644 0.69676570133721638 1.0285714285714278
decision_type=2 2 2 2 2
left_child=1 2 -1 4 -4
right_child=-2 -3 3 -5 -6
leaf_value=-0.027240024910250592 0.036860067349123254 -0.034160971053595252 0.017474655518338822 0.038994518288764497 -0.016666527367142702
leaf_weight=48 48 78 51 64 52
leaf_count=48 48 78 51 64 52
internal_value=0.000928598 -0.00495536 0.00563678 0.0150914 0.000230714
internal_weight=341 293 215 167 103
internal_count=341 293 215 167 103
is_linear=0
shrinkage=0.0389661


Tree=69
num_leaves=5
num_cat=0
split_feature=6 11 12 3
split_gain=47.2206 52.6309 48.0577 22.7651
threshold=12.250000000000002 1.6571428571428581 1.1392857142857147 0.46800856592688467
decision_type=2 2 2 2
left_child=3 2 -2 -1
right_child=1 -3 -4 -5
leaf_value=0.006491339597880611 -0.011817783756080459 -0.033862439714526765 0.035336997420461924 0.041776277866101774
leaf_weight=66 92 84 51 48
leaf_count=66 92 84 51 48
internal_value=0.000892329 -0.00938104 0.00499447 0.0213556
internal_weight=341 227 143 114
internal_count=341 227 143 114
is_linear=0
shrinkage=0.0389661


Tree=70
num_leaves=5
num_cat=0
split_feature=9 9 4 11
split_gain=28.0176 44.3263 51.4262 36.0452
threshold=2.2999999999999994 -0.74999999999999989 -0.32613736746952132 1.5857142857142861
decision_type=2 2 2 2
left_child=1 -1 -3 -2
right_child=3 2 -4 -5
leaf_value=0.013584992674749436 0.040643343764424938 -0.04952760867511799 -0.0021495722245305766 -0.0029287460943678819
leaf_weight=91 50 58 87 68
leaf_count=91 50 58 87 68
internal_value=2.27688e-05 -0.00772649 -0.0211067 0.0155278
internal_weight=354 236 145 118
internal_count=354 236 145 118
is_linear=0
shrinkage=0.0389661


Tree=71
num_leaves=6
num_cat=0
split_feature=11 12 9 9 4
split_gain=26.7549 45.0235 34.4328 47.2833 30.9999
threshold=1.6785714285714286 1.4607142857142856 0.65000000000000047 -1.2499999999999998 0.16587474750015926
decision_type=2 2 2 2 2
left_child=1 2 3 -1 -2
right_child=4 -3 -4 -5 -6
leaf_value=0.010505342222796031 -0.037667861842047796 0.04078731683487951 0.016502148753718575 -0.043082908720955534 0.0028257629961104518
leaf_weight=49 52 49 89 51 64
leaf_count=49 52 49 89 51 64
internal_value=2.17083e-05 0.00750265 -0.00112296 -0.0168172 -0.0153202
internal_weight=354 238 189 100 116
internal_count=354 238 189 100 116
is_linear=0
shrinkage=0.0389661


Tree=72
num_leaves=6
num_cat=0
split_feature=7 6 6 7 0
split_gain=52.7353 81.8942 64.9907 56.5543 47.3802
threshold=2588.0000000000005 15.550000000000002 16.050000000000004 5936.5000000000009 56.350000000000001
decision_type=2 2 2 2 2
left_child=1 -1 3 4 -2
right_child=2 -3 -4 -5 -6
leaf_value=0.010817178248437946 0.011163403346469087 -0.057070540814441323 0.047230011406258821 0.033939648160607162 -0.041744713788045097
leaf_weight=60 49 49 62 50 54
leaf_count=60 49 49 62 50 54
internal_value=0.00238086 -0.0196945 0.0135763 -5.65074e-05 -0.0165675
internal_weight=324 109 215 153 103
internal_count=324 109 215 153 103
is_linear=0
shrinkage=0.0389661


Tree=73
num_leaves=6
num_cat=0
split_feature=7 6 6 7 0
split_gain=48.7055 75.6374 60.0241 52.2323 43.7605
threshold=2588.0000000000005 15.550000000000002 16.050000000000004 5936.5000000000009 56.350000000000001
decision_type=2 2 2 2 2
left_child=1 -1 3 4 -2
right_child=2 -3 -4 -5 -6
leaf_value=0.010395691159367336 0.01072843000510648 -0.054846831864136601 0.045389711875548237 0.032617215526481863 -0.040118155053657671
leaf_weight=60 49 49 62 50 54
leaf_count=60 49 49 62 50 54
internal_value=0.00228819 -0.0189269 0.0130475 -5.39026e-05 -0.0159217
internal_weight=324 109 215 153 103
internal_count=324 109 215 153 103
is_linear=0
shrinkage=0.0389661


Tree=74
num_leaves=5
num_cat=0
split_feature=13 4 6 11
split_gain=29.4915 34.7808 33.4167 57.7697
threshold=4.6536177564878587 -0.78324956448884031 12.350000000000003 1.6785714285714286
decision_type=2 2 2 2
left_child=1 -1 -3 -4
right_child=-2 2 3 -5
leaf_value=-0.031485152402447411 0.031088547257922722 0.023489430457130304 0.01401072125082599 -0.032189059784432733
leaf_weight=50 48 88 94 73
leaf_count=50 48 88 94 73
internal_value=0.00269766 -0.00176805 0.004056 -0.00617986
internal_weight=353 305 255 167
internal_count=353 305 255 167
is_linear=0
shrinkage=0.0389661


Tree=75
num_leaves=6
num_cat=0
split_feature=7 6 6 13 2
split_gain=29.3926 37.1415 40.3494 24.2106 20.6697
threshold=1838.0000000000002 16.050000000000004 12.350000000000003 2.4573447112934068 16.550000000000001
decision_type=2 2 2 2 2
left_child=-1 2 3 -2 -4
right_child=1 -3 4 -5 -6
leaf_value=-0.021763185027527072 -0.0024148925104505504 0.029456317399719684 -0.0002012644417728428 0.035009092780338369 -0.035515990567139902
leaf_weight=62 54 85 48 51 53
leaf_count=62 54 85 48 51 53
internal_value=0.00259254 0.00778457 -0.00115407 0.0157554 -0.0187409
internal_weight=353 291 206 105 101
internal_count=353 291 206 105 101
is_linear=0
shrinkage=0.0389661


Tree=76
num_leaves=5
num_cat=0
split_feature=2 6 1 6
split_gain=32.3359 52.6694 35.3082 28.9853
threshold=10.15 13.750000000000002 36.95000000000001 11.750000000000002
decision_type=2 2 2 2
left_child=-1 3 -3 -2
right_child=1 2 -4 -5
leaf_value=0.025531172858231314 -0.0041635076656900997 -0.006784829574466085 0.034590030494328128 -0.04279922189388298
leaf_weight=87 70 58 68 51
leaf_count=87 70 58 68 51
internal_value=0.00510191 -0.00209081 0.0155385 -0.020455
internal_weight=334 247 126 121
internal_count=334 247 126 121
is_linear=0
shrinkage=0.0389661


Tree=77
num_leaves=5
num_cat=0
split_feature=2 6 1 6
split_gain=29.8656 48.645 32.6108 26.7697
threshold=10.15 13.750000000000002 36.95000000000001 11.750000000000002
decision_type=2 2 2 2
left_child=-1 3 -3 -2
right_child=1 2 -4 -5
leaf_value=0.024536349434614531 -0.0040012765695161701 -0.0065204626298897119 0.033242238864065486 -0.041131580587281877
leaf_weight=87 70 58 68 51
leaf_count=87 70 58 68 51
internal_value=0.00490293 -0.00200947 0.0149328 -0.0196582
internal_weight=334 247 126 121
internal_count=334 247 126 121
is_linear=0
shrinkage=0.0389661


Tree=78
num_leaves=5
num_cat=0
split_feature=7 3 10 6
split_gain=44.2506 53.6159 30.9792 26.0489
threshold=5836.0000000000009 0.81925054981890411 -0.34999999999999959 12.350000000000003
decision_type=2 2 2 2
left_child=1 2 -1 -4
right_child=-2 -3 3 -5
leaf_value=0.03605291496927731 0.032975141778284617 -0.02786158210826932 0.019077531809954064 -0.014571802266816238
leaf_weight=49 68 85 62 80
leaf_count=49 68 85 62 80
internal_value=0.00481927 -0.00211506 0.0093389 0.000114701
internal_weight=344 276 191 142
internal_count=344 276 191 142
is_linear=0
shrinkage=0.0389661


Tree=79
num_leaves=5
num_cat=0
split_feature=7 3 10 6
split_gain=40.8692 49.5192 28.6121 24.0585
threshold=5836.0000000000009 0.81925054981890411 -0.34999999999999959 12.350000000000003
decision_type=2 2 2 2
left_child=1 2 -1 -4
right_child=-2 -3 3 -5
leaf_value=0.034648141308425286 0.031690274371739519 -0.026775954627602787 0.018334183255120245 -0.014004012955932175
leaf_weight=49 68 85 62 80
leaf_count=49 68 85 62 80
internal_value=0.00463149 -0.00203253 0.00897502 0.000110018
internal_weight=344 276 191 142
internal_count=344 276 191 142
is_linear=0
shrinkage=0.0389661


Tree=80
num_leaves=5
num_cat=0
split_feature=6 3 7 7
split_gain=27.927 29.0059 26.4218 21.5453
threshold=14.850000000000003 0.46800856592688467 2930.0000000000005 3039.0000000000005
decision_type=2 2 2 2
left_child=1 3 -2 -1
right_child=2 -3 -4 -5
leaf_value=0.021334133307833708 -0.027401169957625055 0.03185238342687037 0.0071515547657010816 -0.013114703895254959
leaf_weight=49 59 88 78 63
leaf_count=49 59 88 78 63
internal_value=0.00582594 0.0151111 -0.0077233 0.00194978
internal_weight=337 200 137 112
internal_count=337 200 137 112
is_linear=0
shrinkage=0.0389661


Tree=81
num_leaves=5
num_cat=0
split_feature=6 3 8 7
split_gain=25.7928 26.7894 24.8337 19.8991
threshold=14.850000000000003 0.46800856592688467 0.079500000000000015 3039.0000000000005
decision_type=2 2 2 2
left_child=1 3 -2 -1
right_child=2 -3 -4 -5
leaf_value=0.020502866019876376 -0.022732614292487702 0.030611253318413672 0.01054929574611559 -0.01260369377821388
leaf_weight=49 74 88 63 63
leaf_count=49 74 88 63 63
internal_value=0.00559893 0.0145223 -0.00742214 0.00187354
internal_weight=337 200 137 112
internal_count=337 200 137 112
is_linear=0
shrinkage=0.0389661


Tree=82
num_leaves=4
num_cat=0
split_feature=7 1 2
split_gain=40.7007 46.1197 58.891
threshold=2394.5000000000005 52.550000000000004 14.900000000000004
decision_type=2 2 2
left_child=-1 2 -2
right_child=1 -3 -4
leaf_value=-0.016303170014373685 -0.0020943002532104824 -0.0093161157566513646 0.046028294328903957
leaf_weight=91 65 83 95
leaf_count=91 65 83 95
internal_value=0.00592037 0.0142461 0.0264738
internal_weight=334 243 160
internal_count=334 243 160
is_linear=0
shrinkage=0.0389661


Tree=83
num_leaves=4
num_cat=0
split_feature=7 1 2
split_gain=37.5903 42.5956 54.61
threshold=2394.5000000000005 52.550000000000004 15.650000000000006
decision_type=2 2 2
left_child=-1 2 -2
right_child=1 -3 -4
leaf_value=-0.015667915387801153 0.0017962001509686824 -0.0089531129777847586 0.047368491114604429
leaf_weight=91 77 83 83
leaf_count=91 77 83 83
internal_value=0.00568941 0.0136907 0.0254421
internal_weight=334 243 160
internal_count=334 243 160
is_linear=0
shrinkage=0.0389661


Tree=84
num_leaves=6
num_cat=0
split_feature=12 12 8 11 10
split_gain=27.9477 51.1155 25.5191 19.5132 20.6333
threshold=2.0821428571428573 0.83214285714285852 0.10250000000000001 0.99285714285714133 2.6500000000000008
decision_type=2 2 2 2 2
left_child=1 2 -1 -3 -5
right_child=-2 3 -4 4 -6
leaf_value=-0.029093845320603204 -0.023033675098594397 0.043247579602643381 0.0041716522013230143 -0.0048637239465379664 0.02971018981731299
leaf_weight=60 56 48 84 50 55
leaf_count=60 56 48 84 50 55
internal_value=0.00221223 0.00697519 -0.00968377 0.0226593 0.0132392
internal_weight=353 297 144 153 105
internal_count=353 297 144 153 105
is_linear=0
shrinkage=0.0389661


Tree=85
num_leaves=6
num_cat=0
split_feature=12 12 8 11 10
split_gain=25.8123 47.2093 23.5701 18.0217 19.0572
threshold=2.0821428571428573 0.83214285714285852 0.099500000000000019 0.99285714285714133 2.6500000000000008
decision_type=2 2 2 2 2
left_child=1 2 -1 -3 -5
right_child=-2 3 -4 4 -6
leaf_value=-0.028229406279237666 -0.022136179923243932 0.041562472238295949 0.0038198564103674674 -0.0046742123664184291 0.028552548694050665
leaf_weight=59 56 48 85 50 55
leaf_count=59 56 48 85 50 55
internal_value=0.00212595 0.00670341 -0.00930623 0.0217764 0.0127231
internal_weight=353 297 144 153 105
internal_count=353 297 144 153 105
is_linear=0
shrinkage=0.0389661


Tree=86
num_leaves=6
num_cat=0
split_feature=2 9 5 4 13
split_gain=34.0385 32.7626 50.415 26.0218 36.2871
threshold=8.1500000000000004 -0.74999999999999989 0.037500000000000006 0.59003219687534991 2.7555997606637614
decision_type=2 2 2 2 2
left_child=-1 -2 3 4 -3
right_child=1 2 -4 -5 -6
leaf_value=0.029578100527586283 0.018275255831943345 -0.036284135128363239 -0.046393280052969797 0.022113858845934298 0.0078619721478913798
leaf_weight=57 78 50 48 51 65
leaf_count=57 78 50 48 51 65
internal_value=0.00203422 -0.00334001 -0.0112223 -0.00104706 -0.0113255
internal_weight=349 292 214 166 115
internal_count=349 292 214 166 115
is_linear=0
shrinkage=0.0389661


Tree=87
num_leaves=5
num_cat=0
split_feature=2 9 5 9
split_gain=31.4373 30.259 46.5631 24.0463
threshold=8.1500000000000004 -0.74999999999999989 0.037500000000000006 2.0999999999999983
decision_type=2 2 2 2
left_child=-1 -2 3 -3
right_child=1 2 -4 -5
leaf_value=0.028425604874365535 0.017563161757016232 -0.015487510575652556 -0.044585603507190971 0.014181161663649897
leaf_weight=57 78 85 48 81
leaf_count=57 78 85 48 81
internal_value=0.00195504 -0.00320966 -0.0107848 -0.0010059
internal_weight=349 292 214 166
internal_count=349 292 214 166
is_linear=0
shrinkage=0.0389661


Tree=88
num_leaves=5
num_cat=0
split_feature=3 10 2 3
split_gain=34.1588 33.8285 48.1702 64.2723
threshold=0.91248814248966259 2.2500000000000004 12.850000000000003 -0.35041564478062465
decision_type=2 2 2 2
left_child=1 2 -1 -4
right_child=-2 -3 3 -5
leaf_value=0.017561429612185982 0.027918435787111867 0.019195664321147877 0.0050341017642331811 -0.048847668841224538
leaf_weight=63 74 82 63 72
leaf_count=63 74 82 63 72
internal_value=0.00437318 -0.00184687 -0.0105656 -0.0236974
internal_weight=354 280 198 135
internal_count=354 280 198 135
is_linear=0
shrinkage=0.0389661


Tree=89
num_leaves=5
num_cat=0
split_feature=3 10 2 3
split_gain=31.5481 31.243 44.4894 59.3621
threshold=0.91248814248966259 2.2500000000000004 12.850000000000003 -0.35041564478062465
decision_type=2 2 2 2
left_child=1 2 -1 -4
right_child=-2 -3 3 -5
leaf_value=0.01687715486104609 0.026830597718161004 0.018447705389908194 0.0048379501857804723 -0.046944328115003653
leaf_weight=63 74 82 63 72
leaf_count=63 74 82 63 72
internal_value=0.00420295 -0.00177458 -0.0101536 -0.0227738
internal_weight=354 280 198 135
internal_count=354 280 198 135
is_linear=0
shrinkage=0.0389661


Tree=90
num_leaves=5
num_cat=0
split_feature=2 11 11 2
split_gain=45.031 42.628 46.4902 18.5067
threshold=8.3500000000000032 1.6785714285714286 0.24999999999999897 16.950000000000003
decision_type=2 2 2 2
left_child=-1 2 -2 -4
right_child=1 -3 3 -5
leaf_value=0.030989499806142465 -0.016280705466198676 -0.029306950012226541 0.0053328778811831696 0.038885889453130741
leaf_weight=57 95 89 51 49
leaf_count=57 95 89 51 49
internal_value=-0.000614531 -0.00696057 0.00323476 0.0217822
internal_weight=341 284 195 100
internal_count=341 284 195 100
is_linear=0
shrinkage=0.0389661


Tree=91
num_leaves=5
num_cat=0
split_feature=2 11 11 8
split_gain=41.5899 39.371 42.9387 17.789
threshold=8.3500000000000032 1.6785714285714286 0.24999999999999897 0.090500000000000011
decision_type=2 2 2 2
left_child=-1 2 -2 -4
right_child=1 -3 3 -5
leaf_value=0.029782010367701402 -0.015646326086482733 -0.028165002842561574 0.0048064371454185524 0.037702384709422665
leaf_weight=57 95 89 51 49
leaf_count=57 95 89 51 49
internal_value=-0.000590397 -0.00668923 0.00310872 0.0209338
internal_weight=341 284 195 100
internal_count=341 284 195 100
is_linear=0
shrinkage=0.0389661


Tree=92
num_leaves=5
num_cat=0
split_feature=3 3 1 11
split_gain=39.2105 45.579 24.0469 32.8722
threshold=0.79904096188274243 0.93845596220871974 54.250000000000007 1.5500000000000012
decision_type=2 2 2 2
left_child=2 -2 3 -1
right_child=1 -3 -4 -5
leaf_value=0.034087973332591621 -0.047154848790547987 0.0057354259751300441 -0.0067018104801227019 -0.0033043478057699881
leaf_weight=88 48 51 89 60
leaf_count=88 48 51 89 60
internal_value=0.000691902 -0.0199009 0.0092974 0.0189238
internal_weight=336 99 237 148
internal_count=336 99 237 148
is_linear=0
shrinkage=0.0389661


Tree=93
num_leaves=5
num_cat=0
split_feature=3 3 1 11
split_gain=36.213 42.0971 22.2094 30.3611
threshold=0.79904096188274243 0.93845596220871974 54.250000000000007 1.5500000000000012
decision_type=2 2 2 2
left_child=2 -2 3 -1
right_child=1 -3 -4 -5
leaf_value=0.032759733127992907 -0.045317498405634406 0.0055119499534601064 -0.0064406735439481808 -0.0031755957569939552
leaf_weight=88 48 51 89 60
leaf_count=88 48 51 89 60
internal_value=0.000664754 -0.0191252 0.00893487 0.0181862
internal_weight=336 99 237 148
internal_count=336 99 237 148
is_linear=0
shrinkage=0.0389661


Tree=94
num_leaves=6
num_cat=0
split_feature=1 0 10 13 6
split_gain=39.9758 65.8797 31.9295 74.6354 26.9602
threshold=33.45000000000001 37.600000000000009 -1.1500000000000019 2.5431195261378288 13.450000000000001
decision_type=2 2 2 2 2
left_child=1 -1 -2 -4 -5
right_child=2 -3 3 4 -6
leaf_value=0.012824102488141847 0.034172668127730274 -0.045810642087671799 0.03104474727327625 -0.042522875216283666 -0.0016302035834661745
leaf_weight=52 54 66 68 49 49
leaf_count=52 54 66 68 49 49
internal_value=-0.00166574 -0.0199652 0.00814596 -0.000316196 -0.0220851
internal_weight=338 118 220 166 98
internal_count=338 118 220 166 98
is_linear=0
shrinkage=0.0389661


Tree=95
num_leaves=6
num_cat=0
split_feature=1 0 9 2 9
split_gain=36.9202 60.8465 31.4246 47.2389 27.6793
threshold=33.45000000000001 37.600000000000009 -0.74999999999999989 10.15 1.4500000000000031
decision_type=2 2 2 2 2
left_child=1 -1 -2 -4 -5
right_child=2 -3 3 4 -6
leaf_value=0.012324420166637562 0.031076677773615387 -0.044025643746261368 0.028870346730097467 -0.038343594604972442 0.0018040642839508905
leaf_weight=52 63 66 52 48 57
leaf_count=52 63 66 52 48 57
internal_value=-0.00160075 -0.019187 0.00782841 -0.00149583 -0.0165421
internal_weight=338 118 220 157 105
internal_count=338 118 220 157 105
is_linear=0
shrinkage=0.0389661


Tree=96
num_leaves=5
num_cat=0
split_feature=11 5 4 2
split_gain=30.1903 31.9746 19.859 18.0704
threshold=0.86428571428571455 1.0000000180025095e-35 0.28313308994381586 14.350000000000003
decision_type=2 2 2 2
left_child=1 -1 3 -2
right_child=2 -3 -4 -5
leaf_value=-0.0062714620367636297 -0.0095551283108594783 0.031075126018327459 -0.00078684494038316942 -0.04207016041579921
leaf_weight=81 53 61 94 51
leaf_count=81 53 61 94 51
internal_value=-0.00394117 0.00976651 -0.0137759 -0.0255082
internal_weight=340 142 198 104
internal_count=340 142 198 104
is_linear=0
shrinkage=0.0389661


Tree=97
num_leaves=5
num_cat=0
split_feature=11 5 7 7
split_gain=27.8838 29.5317 19.1788 43.4767
threshold=0.86428571428571455 1.0000000180025095e-35 2573.0000000000005 3628.5000000000005
decision_type=2 2 2 2
left_child=1 -1 -2 -4
right_child=2 -3 3 -5
leaf_value=-0.0060270952539282514 -0.028939296566345842 0.029864296263752317 0.024197796765135053 -0.022834540118647998
leaf_weight=81 74 61 50 74
leaf_count=81 74 61 50 74
internal_value=-0.00378778 0.00938575 -0.0132394 -0.00386345
internal_weight=340 142 198 124
internal_count=340 142 198 124
is_linear=0
shrinkage=0.0389661


Tree=98
num_leaves=5
num_cat=0
split_feature=3 11 0 11
split_gain=49.7989 30.1787 26.1541 19.8738
threshold=0.83849049182116964 -0.11428571428571588 67.40000000000002 1.4714285714285722
decision_type=2 2 2 2
left_child=1 -1 3 -3
right_child=-2 2 -4 -5
leaf_value=0.029643521692939993 -0.026127183143852439 0.02474036411672903 -0.024949609334796837 -0.0054306875040866318
leaf_weight=67 93 60 50 74
leaf_count=67 93 60 50 74
internal_value=-0.00176931 0.00725275 -0.000896418 0.00807307
internal_weight=344 251 184 134
internal_count=344 251 184 134
is_linear=0
shrinkage=0.0389661


Tree=99
num_leaves=5
num_cat=0
split_feature=3 11 4 7
split_gain=45.9934 27.873 24.356 32.3449
threshold=0.83849049182116964 -0.11428571428571588 -0.6391983530350368 2588.0000000000005
decision_type=2 2 2 2
left_child=1 -1 -3 -4
right_child=-2 2 3 -5
leaf_value=0.028488470214211338 -0.025109134585790165 -0.024727912184988717 -0.01116082280922321 0.026843909122153484
leaf_weight=67 93 48 69 67
leaf_count=67 93 48 69 67
internal_value=-0.00170037 0.00697003 -0.00086149 0.00755646
internal_weight=344 251 184 136
internal_count=344 251 184 136
is_linear=0
shrinkage=0.0389661


Tree=100
num_leaves=5
num_cat=0
split_feature=10 5 4 0
split_gain=32.2084 42.4118 20.5156 29.5561
threshold=-0.95000000000000273 0.18600000000000003 -0.27694043983797378 44.250000000000007
decision_type=2 2 2 2
left_child=-1 2 -2 -4
right_child=1 -3 3 -5
leaf_value=-0.017571708200291029 0.0028464062344768577 -0.022211941154236321 0.0063478319457554661 0.045059604009181173
leaf_weight=84 80 49 53 69
leaf_count=84 80 49 53 69
internal_value=0.00331008 0.0103016 0.0181927 0.0282491
internal_weight=335 251 202 122
internal_count=335 251 202 122
is_linear=0
shrinkage=0.0389661


Tree=101
num_leaves=5
num_cat=0
split_feature=10 5 4 0
split_gain=29.7477 39.1721 18.9477 27.2966
threshold=-0.95000000000000273 0.18600000000000003 -0.27694043983797378 44.250000000000007
decision_type=2 2 2 2
left_child=-1 2 -2 -4
right_child=1 -3 3 -5
leaf_value=-0.016887026760757717 0.0027354967080666318 -0.021346470278199768 0.0061004927643022828 0.043303866970302335
leaf_weight=84 80 49 53 69
leaf_count=84 80 49 53 69
internal_value=0.00318111 0.00990036 0.0174841 0.0271486
internal_weight=335 251 202 122
internal_count=335 251 202 122
is_linear=0
shrinkage=0.0389661


Tree=102
num_leaves=6
num_cat=0
split_feature=9 4 1 3 12
split_gain=25.9586 46.4696 34.1574 24.8976 21.9134
threshold=-0.34999999999999959 -0.022575793296316444 52.300000000000004 0.099822040462190911 0.96071428571428708
decision_type=2 2 2 2 2
left_child=4 2 -2 -3 -1
right_child=1 3 -4 -5 -6
leaf_value=-0.025240165143010689 0.056477698879913052 0.018402789765606119 0.010205683589443019 -0.016014995563818663 0.0096176496303133924
leaf_weight=62 49 54 48 78 49
leaf_count=62 49 54 48 78 49
internal_value=0.0056151 0.0131126 0.0335891 -0.00192896 -0.00984553
internal_weight=340 229 97 132 111
internal_count=340 229 97 132 111
is_linear=0
shrinkage=0.0389661


Tree=103
num_leaves=5
num_cat=0
split_feature=4 1 3 2
split_gain=24.1851 81.2138 47.2575 13.6937
threshold=-0.03976928634766979 54.250000000000007 0.83849049182116964 15.200000000000001
decision_type=2 2 2 2
left_child=1 -1 3 -2
right_child=2 -3 -4 -5
leaf_value=0.045279580459933438 -0.0015513528165805933 -0.0099605026567083539 -0.03494134413103573 0.025024116499864146
leaf_weight=77 76 85 54 48
leaf_count=77 76 85 54 48
internal_value=0.00539641 0.016291 -0.00451458 0.00872987
internal_weight=340 162 178 124
internal_count=340 162 178 124
is_linear=0
shrinkage=0.0389661


end of trees

feature_importances:
forecast_diurnal_range=83
forecast_radiation=53
forecast_wind=40
day_sin=37
forecast_low=29
roll_high_7d_mean=29
lag_high_1d=28
day_cos=27
forecast_high=23
forecast_precip=23
roll_high_7d_std=22
forecast_evap=21
lag_high_2d=15
roll_high_14d_mean=14

parameters:
[boosting: gbdt]
[objective: regression]
[metric: l2]
[tree_learner: serial]
[device_type: cpu]
[data_sample_strategy: bagging]
[data: ]
[valid: ]
[num_iterations: 104]
[learning_rate: 0.0389661]
[num_leaves: 15]
[num_threads: 2]
[seed: 42]
[deterministic: 0]
[force_col_wise: 0]
[force_row_wise: 0]
[histogram_pool_size: -1]
[max_depth: -1]
[min_data_in_leaf: 48]
[min_sum_hessian_in_leaf: 0.001]
[bagging_fraction: 0.713196]
[pos_bagging_fraction: 1]
[neg_bagging_fraction: 1]
[bagging_freq: 2]
[bagging_seed: 400]
[bagging_by_query: 0]
[feature_fraction: 0.997153]
[feature_fraction_bynode: 1]
[feature_fraction_seed: 30056]
[extra_trees: 0]
[extra_seed: 12879]
[early_stopping_round: 0]
[early_stopping_min_delta: 0]
[first_metric_only: 0]
[max_delta_step: 0]
[lambda_l1: 0.0201661]
[lambda_l2: 0.00238859]
[linear_lambda: 0]
[min_gain_to_split: 0]
[drop_rate: 0.1]
[max_drop: 50]
[skip_drop: 0.5]
[xgboost_dart_mode: 0]
[uniform_drop: 0]
[drop_seed: 17869]
[top_rate: 0.2]
[other_rate: 0.1]
[min_data_per_group: 100]
[max_cat_threshold: 32]
[cat_l2: 10]
[cat_smooth: 10]
[max_cat_to_onehot: 4]
[top_k: 20]
[monotone_constraints: ]
[monotone_constraints_method: basic]
[monotone_penalty: 0]
[feature_contri: ]
[forcedsplits_filename: ]
[refit_decay_rate: 0.9]
[cegb_tradeoff: 1]
[cegb_penalty_split: 0]
[cegb_penalty_feature_lazy: ]
[cegb_penalty_feature_coupled: ]
[path_smooth: 0]
[interaction_constraints: ]
[verbosity: -1]
[saved_feature_importance_type: 0]
[use_quantized_grad: 0]
[num_grad_quant_bins: 4]
[quant_train_renew_leaf: 0]
[stochastic_rounding: 1]
[linear_tree: 0]
[max_bin: 255]
[max_bin_by_feature: ]
[min_data_in_bin: 3]
[bin_construct_sample_cnt: 200000]
[data_random_seed: 175]
[is_enable_sparse: 1]
[enable_bundle: 1]
[use_missing: 1]
[zero_as_missing: 0]
[feature_pre_filter: 1]
[pre_partition: 0]
[two_round: 0]
[header: 0]
[label_column: ]
[weight_column: ]
[group_column: ]
[ignore_column: ]
[categorical_feature: ]
[forcedbins_filename: ]
[precise_float_parser: 0]
[parser_config_file: ]
[objective_seed: 16083]
[num_class: 1]
[is_unbalance: 0]
[scale_pos_weight: 1]
[sigmoid: 1]
[boost_from_average: 1]
[reg_sqrt: 0]
[alpha: 0.9]
[fair_c: 1]
[poisson_max_delta_step: 0.7]
[tweedie_variance_power: 1.5]
[lambdarank_truncation_level: 30]
[lambdarank_norm: 1]
[label_gain: ]
[lambdarank_position_bias_regularization: 0]
[eval_at: ]
[multi_error_top_k: 1]
[auc_mu_weights: ]
[num_machines: 1]
[local_listen_port: 12400]
[time_out: 120]
[machine_list_filename: ]
[machines: ]
[gpu_platform_id: -1]
[gpu_device_id: -1]
[gpu_use_dp: 0]
[num_gpu: 1]

end of parameters

pandas_categorical:[]
