{"learner":{"attributes":{"scikit_learn":"{\"_estimator_type\": \"regressor\"}"},"feature_names":["forecast_low","forecast_high","forecast_diurnal_range","day_sin","day_cos","forecast_precip","forecast_wind","forecast_radiation","forecast_evap","lag_low_1d","lag_low_2d","roll_low_7d_mean","roll_low_14d_mean","roll_low_7d_std"],"feature_types":["float","float","float","float","float","float","float","float","float","float","float","float","float","float"],"gradient_booster":{"model":{"cats":{"enc":[],"feature_segments":[],"sorted_idx":[]},"gbtree_model_param":{"num_parallel_tree":"1","num_trees":"108"},"iteration_indptr":[0,1,2,3,4,5,6,7,8,9,10,11,12,13,14,15,16,17,18,19,20,21,22,23,24,25,26,27,28,29,30,31,32,33,34,35,36,37,38,39,40,41,42,43,44,45,46,47,48,49,50,51,52,53,54,55,56,57,58,59,60,61,62,63,64,65,66,67,68,69,70,71,72,73,74,75,76,77,78,79,80,81,82,83,84,85,86,87,88,89,90,91,92,93,94,95,96,97,98,99,100,101,102,103,104,105,106,107,108],"tree_info":[0,0,0,0,0,0,0,0,0,0,0,0,0,0,0,0,0,0,0,0,0,0,0,0,0,0,0,0,0,0,0,0,0,0,0,0,0,0,0,0,0,0,0,0,0,0,0,0,0,0,0,0,0,0,0,0,0,0,0,0,0,0,0,0,0,0,0,0,0,0,0,0,0,0,0,0,0,0,0,0,0,0,0,0,0,0,0,0,0,0,0,0,0,0,0,0,0,0,0,0,0,0,0,0,0,0,0,0],"trees":[{"base_weights":[-4.3509025E-2,-1.7343701E0,7.0074034E-1,-2.3468134E0,-9.661648E-1,4.0476146E0,4.60389E-1,-4.8411706E-1,-2.511758E0,-2.1247344E0,-5.5233854E-1,1.3648645E0,7.069229E0,9.120715E-1,-9.653595E-1,-7.350456E-2,4.3515254E-2,-1.0648225E-1,-1.91777E-1,-1.1486727E-1,-4.6797205E-2,-7.234118E-2,9.464483E-3,9.285795E-2,-7.609554E-2,3.6991107E-1,-1.88341E-2,7.0436276E-4,7.553615E-2,-3.007658E-2,-9.797709E-2],"categories":[],"categories_nodes":[],"categories_segments":[],"categories_sizes":[],"default_left":[0,0,0,0,0,0,0,0,0,0,0,0,0,0,0,0,0,0,0,0,0,0,0,0,0,0,0,0,0,0,0],"id":0,"left_children":[1,3,5,7,9,11,13,15,17,19,21,23,25,27,29,-1,-1,-1,-1,-1,-1,-1,-1,-1,-1,-1,-1,-1,-1,-1,-1],"loss_changes":[8.1581525E2,9.2856995E1,3.6177704E2,3.362567E1,4.205484E1,2.4284628E2,2.7068387E2,1.5822326E1,2.0223267E1,1.0888329E1,5.3521957E1,3.62762E1,1.3201605E2,2.244432E2,3.595574E1,0E0,0E0,0E0,0E0,0E0,0E0,0E0,0E0,0E0,0E0,0E0,0E0,0E0,0E0,0E0,0E0],"parents":[2147483647,0,0,1,1,2,2,3,3,4,4,5,5,6,6,7,7,8,8,9,9,10,10,11,11,12,12,13,13,14,14],"right_children":[2,4,6,8,10,12,14,16,18,20,22,24,26,28,30,-1,-1,-1,-1,-1,-1,-1,-1,-1,-1,-1,-1,-1,-1,-1,-1],"split_conditions":[1.16E1,8.7E0,1.34E1,2.45E1,1.91E3,5.8E0,4.4E-2,2.042E3,6.43E1,3.5142858E0,1.4E0,2.06E1,1.5E1,3.1E0,8.6763364E-1,-7.350456E-2,4.3515254E-2,-1.0648225E-1,-1.91777E-1,-1.1486727E-1,-4.6797205E-2,-7.234118E-2,9.464483E-3,9.285795E-2,-7.609554E-2,3.6991107E-1,-1.88341E-2,7.0436276E-4,7.553615E-2,-3.007658E-2,-9.797709E-2],"split_indices":[2,2,0,0,7,9,5,7,0,12,9,2,6,9,4,0,0,0,0,0,0,0,0,0,0,0,0,0,0,0,0],"split_type":[0,0,0,0,0,0,0,0,0,0,0,0,0,0,0,0,0,0,0,0,0,0,0,0,0,0,0,0,0,0,0],"sum_hessian":[6.48E2,1.98E2,4.5E2,1.1E2,8.8E1,3E1,4.2E2,9E0,1.01E2,2.3E1,6.5E1,1.6E1,1.4E1,3.19E2,1.01E2,5E0,4E0,9.5E1,6E0,1.6E1,7E0,2.7E1,3.8E1,1.3E1,3E0,1.2E1,2E0,1.49E2,1.7E2,8.2E1,1.9E1],"tree_param":{"num_deleted":"0","num_feature":"14","num_nodes":"31","size_leaf_vector":"1"}},{"base_weights":[-5.7429213E-2,-1.9021424E0,7.1356475E-1,-2.5193975E0,-1.0092168E0,5.743854E0,5.0216424E-1,-2.3296313E0,-4.87972E0,-1.914184E0,-2.1048224E-1,1.6811606E0,9.718017E0,9.299709E-1,-8.1289804E-1,-4.2666965E-3,-1.09832674E-1,-5.529425E-1,-1.593888E-1,-1.5241276E-1,-6.2122148E-2,-6.0997836E-2,3.112895E-2,1.4956045E-3,2.1477896E-1,2.9210156E-1,5.339837E-1,2.9143514E-3,7.755425E-2,5.7946876E-2,-5.2991647E-2],"categories":[],"categories_nodes":[],"categories_segments":[],"categories_sizes":[],"default_left":[0,0,0,0,0,0,0,0,0,0,0,0,0,0,0,0,0,0,0,0,0,0,0,0,0,0,0,0,0,0,0],"id":1,"left_children":[1,3,5,7,9,11,13,15,17,19,21,23,25,27,29,-1,-1,-1,-1,-1,-1,-1,-1,-1,-1,-1,-1,-1,-1,-1,-1],"loss_changes":[9.078057E2,1.0329004E2,4.7818628E2,4.809961E1,5.566987E1,2.9042548E2,2.4322392E2,3.164917E1,7.334856E1,2.7562576E1,4.354943E1,4.7234932E1,5.4528503E1,2.289632E2,8.4944954E1,0E0,0E0,0E0,0E0,0E0,0E0,0E0,0E0,0E0,0E0,0E0,0E0,0E0,0E0,0E0,0E0],"parents":[2147483647,0,0,1,1,2,2,3,3,4,4,5,5,6,6,7,7,8,8,9,9,10,10,11,11,12,12,13,13,14,14],"right_children":[2,4,6,8,10,12,14,16,18,20,22,24,26,28,30,-1,-1,-1,-1,-1,-1,-1,-1,-1,-1,-1,-1,-1,-1,-1,-1],"split_conditions":[1.12E1,8.7E0,9.8E0,2.34E1,2.65E0,8.2E0,3.2E-2,2.35E1,1.4E0,1E-1,2.316E3,5.4671127E-1,4.364286E0,3.1E0,-5.6990105E-1,-4.2666965E-3,-1.09832674E-1,-5.529425E-1,-1.593888E-1,-1.5241276E-1,-6.2122148E-2,-6.0997836E-2,3.112895E-2,1.4956045E-3,2.1477896E-1,2.9210156E-1,5.339837E-1,2.9143514E-3,7.755425E-2,5.7946876E-2,-5.2991647E-2],"split_indices":[2,2,0,6,12,9,5,0,11,9,7,3,12,9,3,0,0,0,0,0,0,0,0,0,0,0,0,0,0,0,0],"split_type":[0,0,0,0,0,0,0,0,0,0,0,0,0,0,0,0,0,0,0,0,0,0,0,0,0,0,0,0,0,0,0],"sum_hessian":[6.38E2,1.88E2,4.5E2,1.11E2,7.7E1,1.8E1,4.32E2,1.03E2,8E0,3.6E1,4.1E1,9E0,9E0,3.26E2,1.06E2,6E0,9.7E1,1E0,7E0,9E0,2.7E1,1.8E1,2.3E1,6E0,3E0,4E0,5E0,1.58E2,1.68E2,1.6E1,9E1],"tree_param":{"num_deleted":"0","num_feature":"14","num_nodes":"31","size_leaf_vector":"1"}},{"base_weights":[5.9168483E-3,-1.6370234E0,6.8211097E-1,-1.0164713E0,-2.6106305E0,4.7298665E0,4.9538746E-1,-2.151866E0,-6.651116E-1,-2.2813299E0,-3.6673563E0,2.5854707E0,1.0917515E1,9.505322E-1,-9.076041E-1,-1.5911178E-1,-8.386428E-2,-6.2510744E-2,1.9136154E-3,-8.063334E-2,-1.2879784E-1,-5.313172E-1,-1.3585345E-1,1.9870527E-1,-5.2849036E-2,3.474224E-1,5.587904E-1,5.92893E-2,-2.3073362E-2,5.9103504E-2,-5.4237187E-2],"categories":[],"categories_nodes":[],"categories_segments":[],"categories_sizes":[],"default_left":[0,0,0,0,0,0,0,0,0,0,0,0,0,0,0,0,0,0,0,0,0,0,0,0,0,0,0,0,0,0,0],"id":2,"left_children":[1,3,5,7,9,11,13,15,17,19,21,23,25,27,29,-1,-1,-1,-1,-1,-1,-1,-1,-1,-1,-1,-1,-1,-1,-1,-1],"loss_changes":[7.1685394E2,1.1324658E2,3.4510718E2,4.5691856E1,2.4204346E1,2.6310364E2,2.792607E2,9.329025E0,4.615969E1,1.5351166E1,8.195799E1,1.0805533E2,1.2307861E1,1.8503964E2,7.465417E1,0E0,0E0,0E0,0E0,0E0,0E0,0E0,0E0,0E0,0E0,0E0,0E0,0E0,0E0,0E0,0E0],"parents":[2147483647,0,0,1,1,2,2,3,3,4,4,5,5,6,6,7,7,8,8,9,9,10,10,11,11,12,12,13,13,14,14],"right_children":[2,4,6,8,10,12,14,16,18,20,22,24,26,28,30,-1,-1,-1,-1,-1,-1,-1,-1,-1,-1,-1,-1,-1,-1,-1,-1],"split_conditions":[1.15E1,6E-2,9.8E0,6E-1,6.7E-1,2.4E1,4.3E-2,1.1642857E0,8.9E0,3E0,-7E-1,1.56E1,5.135714E0,5.96E1,-7.7313834E-1,-1.5911178E-1,-8.386428E-2,-6.2510744E-2,1.9136154E-3,-8.063334E-2,-1.2879784E-1,-5.313172E-1,-1.3585345E-1,1.9870527E-1,-5.2849036E-2,3.474224E-1,5.587904E-1,5.92893E-2,-2.3073362E-2,5.9103504E-2,-5.4237187E-2],"split_indices":[2,5,0,9,5,2,5,12,2,10,10,6,12,0,3,0,0,0,0,0,0,0,0,0,0,0,0,0,0,0,0],"split_type":[0,0,0,0,0,0,0,0,0,0,0,0,0,0,0,0,0,0,0,0,0,0,0,0,0,0,0,0,0,0,0],"sum_hessian":[6.45E2,1.88E2,4.57E2,1.15E2,7.3E1,2E1,4.37E2,2.7E1,8.8E1,5.6E1,1.7E1,1.5E1,5E0,3.3E2,1.07E2,4E0,2.3E1,4.3E1,4.5E1,3.2E1,2.4E1,1E0,1.6E1,1E1,5E0,2E0,3E0,2.62E2,6.8E1,1.3E1,9.4E1],"tree_param":{"num_deleted":"0","num_feature":"14","num_nodes":"31","size_leaf_vector":"1"}},{"base_weights":[1.2914713E-2,-1.372287E0,6.43364E-1,-2.3589296E0,-8.096992E-1,2.2577953E-1,2.43168E0,-2.1307576E0,-4.199369E0,-5.4938525E-1,-2.2529302E0,4.942599E-1,-1.0517691E0,5.777282E0,1.7711136E0,-1.0148272E-1,-1.1966444E-2,-5.1053756E-1,-1.3162175E-1,-6.3822903E-3,-6.091343E-2,-1.5885001E-1,-6.736602E-2,3.684723E-2,-2.7800303E-2,-5.264452E-2,2.813916E-1,4.5049772E-1,1.4451224E-1,4.095389E-2,1.2852448E-1],"categories":[],"categories_nodes":[],"categories_segments":[],"categories_sizes":[],"default_left":[0,0,0,0,0,0,0,0,0,0,0,0,0,0,0,0,0,0,0,0,0,0,0,0,0,0,0,0,0,0,0],"id":3,"left_children":[1,3,5,7,9,11,13,15,17,19,21,23,25,27,29,-1,-1,-1,-1,-1,-1,-1,-1,-1,-1,-1,-1,-1,-1,-1,-1],"loss_changes":[5.78356E2,1.1466489E2,3.3976883E2,3.0220795E1,4.9429947E1,1.2667659E2,1.8883633E2,1.8500488E1,6.860663E1,3.723825E1,1.8770416E1,1.1392076E2,6.2835213E1,1.5065497E2,6.810127E1,0E0,0E0,0E0,0E0,0E0,0E0,0E0,0E0,0E0,0E0,0E0,0E0,0E0,0E0,0E0,0E0],"parents":[2147483647,0,0,1,1,2,2,3,3,4,4,5,5,6,6,7,7,8,8,9,9,10,10,11,11,12,12,13,13,14,14],"right_children":[2,4,6,8,10,12,14,16,18,20,22,24,26,28,30,-1,-1,-1,-1,-1,-1,-1,-1,-1,-1,-1,-1,-1,-1,-1,-1],"split_conditions":[1.18E1,7.6E0,4.042857E0,2.34E1,5.213E3,6.32E1,1.34E1,4.408E3,-7E-1,3.2E-2,8.7E0,4.4E-2,6.7E0,9.7E0,5.5657554E-1,-1.0148272E-1,-1.1966444E-2,-5.1053756E-1,-1.3162175E-1,-6.3822903E-3,-6.091343E-2,-1.5885001E-1,-6.736602E-2,3.684723E-2,-2.7800303E-2,-5.264452E-2,2.813916E-1,4.5049772E-1,1.4451224E-1,4.095389E-2,1.2852448E-1],"split_indices":[2,2,12,6,7,0,0,7,10,5,2,5,10,6,4,0,0,0,0,0,0,0,0,0,0,0,0,0,0,0,0],"split_type":[0,0,0,0,0,0,0,0,0,0,0,0,0,0,0,0,0,0,0,0,0,0,0,0,0,0,0,0,0,0,0],"sum_hessian":[6.62E2,2.07E2,4.55E2,7.5E1,1.32E2,3.69E2,8.6E1,6.7E1,8E0,1.12E2,2E1,3.05E2,6.4E1,1.4E1,7.2E1,6.2E1,5E0,1E0,7E0,7.5E1,3.7E1,7E0,1.3E1,2.35E2,7E1,6.3E1,1E0,5E0,9E0,4.1E1,3.1E1],"tree_param":{"num_deleted":"0","num_feature":"14","num_nodes":"31","size_leaf_vector":"1"}},{"base_weights":[8.783169E-2,-1.3246222E0,7.172348E-1,-2.8694487E0,-9.717294E-1,5.0910926E-1,5.146643E0,-2.5647056E0,-6.0533147E0,-6.7706406E-1,-2.2173727E0,-1.7746904E-1,1.2116095E0,2.721242E0,8.674883E0,-9.449733E-2,-1.4868885E-1,-1.3403097E-1,-4.9057066E-1,-6.770674E-2,-1.3721617E-2,-1.890168E-1,-8.440785E-2,-3.0876182E-3,-2.0624416E-1,6.953997E-2,-4.437829E-2,1.786905E-1,3.7414117E-3,2.648855E-1,4.9438012E-1],"categories":[],"categories_nodes":[],"categories_segments":[],"categories_sizes":[],"default_left":[0,0,0,0,0,0,0,0,0,0,0,0,0,0,0,0,0,0,0,0,0,0,0,0,0,0,0,0,0,0,0],"id":4,"left_children":[1,3,5,7,9,11,13,15,17,19,21,23,25,27,29,-1,-1,-1,-1,-1,-1,-1,-1,-1,-1,-1,-1,-1,-1,-1,-1],"loss_changes":[5.772079E2,1.0866345E2,4.1360065E2,3.375757E1,5.9628235E1,2.0702795E2,1.6889551E2,1.0635757E1,4.262519E1,4.1035904E1,1.9085632E1,1.0447818E2,1.6446533E2,4.127867E1,4.450836E1,0E0,0E0,0E0,0E0,0E0,0E0,0E0,0E0,0E0,0E0,0E0,0E0,0E0,0E0,0E0,0E0],"parents":[2147483647,0,0,1,1,2,2,3,3,4,4,5,5,6,6,7,7,8,8,9,9,10,10,11,11,12,12,13,13,14,14],"right_children":[2,4,6,8,10,12,14,16,18,20,22,24,26,28,30,-1,-1,-1,-1,-1,-1,-1,-1,-1,-1,-1,-1,-1,-1,-1,-1],"split_conditions":[1.18E1,5.7E0,5.2214284E0,2.51E1,5.79E1,3E0,2.01E1,3.31E-1,3.8E0,1.91E3,6.3E0,7.28E1,1.26E-1,7.306445E-1,7.5E0,-9.449733E-2,-1.4868885E-1,-1.3403097E-1,-4.9057066E-1,-6.770674E-2,-1.3721617E-2,-1.890168E-1,-8.440785E-2,-3.0876182E-3,-2.0624416E-1,6.953997E-2,-4.437829E-2,1.786905E-1,3.7414117E-3,2.648855E-1,4.9438012E-1],"split_indices":[2,2,12,6,0,9,2,5,2,7,2,0,5,3,9,0,0,0,0,0,0,0,0,0,0,0,0,0,0,0,0],"split_type":[0,0,0,0,0,0,0,0,0,0,0,0,0,0,0,0,0,0,0,0,0,0,0,0,0,0,0,0,0,0,0],"sum_hessian":[6.49E2,2E2,4.49E2,3.7E1,1.63E2,4.29E2,2E1,3.4E1,3E0,1.32E2,3.1E1,2.17E2,2.12E2,1.2E1,8E0,2.2E1,1.2E1,2E0,1E0,4E1,9.2E1,4E0,2.7E1,2.12E2,5E0,1.83E2,2.9E1,8E0,4E0,4E0,4E0],"tree_param":{"num_deleted":"0","num_feature":"14","num_nodes":"31","size_leaf_vector":"1"}},{"base_weights":[-7.084491E-2,-1.387437E0,5.317209E-1,-2.1329718E0,-7.813472E-1,3.308363E-1,3.4941368E0,-1.8935329E0,-3.588093E0,-1.5434936E0,-3.77945E-1,1.2799075E0,-8.990536E-2,5.6723704E0,1.4268914E0,-1.3200366E-1,-7.491001E-2,-4.713846E-1,-1.2862524E-1,-2.6884843E-2,-8.63892E-2,-3.6905117E-2,4.7631808E-2,9.687399E-2,3.329045E-2,7.599219E-2,-1.2009217E-2,1.5849698E-1,4.1277575E-1,1.1863274E-1,-1.9853687E-2],"categories":[],"categories_nodes":[],"categories_segments":[],"categories_sizes":[],"default_left":[0,0,0,0,0,0,0,0,0,0,0,0,0,0,0,0,0,0,0,0,0,0,0,0,0,0,0,0,0,0,0],"id":5,"left_children":[1,3,5,7,9,11,13,15,17,19,21,23,25,27,29,-1,-1,-1,-1,-1,-1,-1,-1,-1,-1,-1,-1,-1,-1,-1,-1],"loss_changes":[5.309646E2,9.467883E1,2.7301715E2,3.1776886E1,3.5597176E1,1.7179404E2,1.2998157E2,1.756665E1,5.9828384E1,1.4777786E1,4.985084E1,6.274562E1,9.641076E1,1.02740906E2,3.530104E1,0E0,0E0,0E0,0E0,0E0,0E0,0E0,0E0,0E0,0E0,0E0,0E0,0E0,0E0,0E0,0E0],"parents":[2147483647,0,0,1,1,2,2,3,3,4,4,5,5,6,6,7,7,8,8,9,9,10,10,11,11,12,12,13,13,14,14],"right_children":[2,4,6,8,10,12,14,16,18,20,22,24,26,28,30,-1,-1,-1,-1,-1,-1,-1,-1,-1,-1,-1,-1,-1,-1,-1,-1],"split_conditions":[1.16E1,8.2E0,8E0,6.7E-1,2.266E3,-5.6990105E-1,1.16E1,-7.4944234E-1,-7E-1,-3.9135784E-1,3.6E0,4.64E1,1.52E1,9E0,1.52E1,-1.3200366E-1,-7.491001E-2,-4.713846E-1,-1.2862524E-1,-2.6884843E-2,-8.63892E-2,-3.6905117E-2,4.7631808E-2,9.687399E-2,3.329045E-2,7.599219E-2,-1.2009217E-2,1.5849698E-1,4.1277575E-1,1.1863274E-1,-1.9853687E-2],"split_indices":[2,2,10,5,7,3,6,3,10,3,9,0,0,9,6,0,0,0,0,0,0,0,0,0,0,0,0,0,0,0,0],"split_type":[0,0,0,0,0,0,0,0,0,0,0,0,0,0,0,0,0,0,0,0,0,0,0,0,0,0,0,0,0,0,0],"sum_hessian":[6.69E2,2.1E2,4.59E2,9.4E1,1.16E2,4.3E2,2.9E1,8.1E1,1.3E1,4E1,7.6E1,1.32E2,2.98E2,1.4E1,1.5E1,1.3E1,6.8E1,1E0,1.2E1,1.2E1,2.8E1,5.8E1,1.8E1,4.9E1,8.3E1,2.7E1,2.71E2,9E0,5E0,9E0,6E0],"tree_param":{"num_deleted":"0","num_feature":"14","num_nodes":"31","size_leaf_vector":"1"}},{"base_weights":[1.351271E-2,-1.9703594E0,4.1071388E-1,-1.7174087E0,-3.652172E0,2.6369312E-1,4.0528045E0,-4.3789232E-1,-1.9751426E0,-4.52949E-1,-3.0474863E0,4.8387948E-1,-8.261064E-1,5.364767E0,-1.7390878E-1,-5.9509803E-2,2.0772472E-2,-8.306621E-2,-1.7302072E-1,-1.1187562E-1,-1.834851E-1,-3.3576123E-2,3.3185825E-2,-6.479588E-2,-1.4457307E-3,3.025039E-1,4.385556E-2,1.739843E-2,-9.8795E-2],"categories":[],"categories_nodes":[],"categories_segments":[],"categories_sizes":[],"default_left":[0,0,0,0,0,0,0,0,0,0,0,0,0,0,0,0,0,0,0,0,0,0,0,0,0,0,0,0,0],"id":6,"left_children":[1,3,5,7,9,11,13,15,17,-1,19,21,23,25,27,-1,-1,-1,-1,-1,-1,-1,-1,-1,-1,-1,-1,-1,-1],"loss_changes":[5.1554675E2,4.5480957E1,2.9168823E2,3.121811E1,5.1280487E1,1.2582173E2,1.1742502E2,1.32218895E1,1.5418396E1,0E0,6.009392E0,1.4135126E2,4.400303E1,1.00082E2,6.0830894E0,0E0,0E0,0E0,0E0,0E0,0E0,0E0,0E0,0E0,0E0,0E0,0E0,0E0,0E0],"parents":[2147483647,0,0,1,1,2,2,3,3,4,4,5,5,6,6,7,7,8,8,10,10,11,11,12,12,13,13,14,14],"right_children":[2,4,6,8,10,12,14,16,18,-1,20,22,24,26,28,-1,-1,-1,-1,-1,-1,-1,-1,-1,-1,-1,-1,-1,-1],"split_conditions":[8.7E0,6.7E-1,8.6E0,2.69E1,-7E-1,6.12E1,1.5E1,2.086E3,9.84495E-1,-4.52949E-1,3.8214285E0,1.91E3,6.935E3,5.915436E0,1.95E1,-5.9509803E-2,2.0772472E-2,-8.306621E-2,-1.7302072E-1,-1.1187562E-1,-1.834851E-1,-3.3576123E-2,3.3185825E-2,-6.479588E-2,-1.4457307E-3,3.025039E-1,4.385556E-2,1.739843E-2,-9.8795E-2],"split_indices":[2,5,10,0,10,0,6,7,4,0,12,7,7,13,2,0,0,0,0,0,0,0,0,0,0,0,0,0,0],"split_type":[0,0,0,0,0,0,0,0,0,0,0,0,0,0,0,0,0,0,0,0,0,0,0,0,0,0,0,0,0],"sum_hessian":[6.54E2,1.09E2,5.45E2,9.5E1,1.4E1,5.24E2,2.1E1,1.6E1,7.9E1,1E0,1.3E1,4.36E2,8.8E1,1.6E1,5E0,8E0,8E0,7.5E1,4E0,9E0,4E0,7.6E1,3.6E2,4.9E1,3.9E1,1.2E1,4E0,4E0,1E0],"tree_param":{"num_deleted":"0","num_feature":"14","num_nodes":"29","size_leaf_vector":"1"}},{"base_weights":[-3.428803E-4,-3.4096077E-1,1.7072066E0,8.156792E-2,-1.3721615E0,4.8611054E0,9.303286E-1,2.890404E-1,-1.2886086E0,-1.8301442E0,-9.115581E-1,5.223777E0,-9.493116E-2,1.3075348E0,-1.0023365E0,-6.3200886E-3,4.3664962E-2,-1.09046735E-1,3.5701527E-3,-2.1032623E-3,-9.050774E-2,-3.7515294E-3,-5.788146E-2,1.6716234E-1,3.4826458E-1,-1.7117335E-1,6.1771445E-2,4.7448985E-2,-9.5785744E-2],"categories":[],"categories_nodes":[],"categories_segments":[],"categories_sizes":[],"default_left":[0,0,0,0,0,0,0,0,0,0,0,0,0,0,0,0,0,0,0,0,0,0,0,0,0,0,0,0,0],"id":7,"left_children":[1,3,5,7,9,11,13,15,17,19,21,23,-1,25,27,-1,-1,-1,-1,-1,-1,-1,-1,-1,-1,-1,-1,-1,-1],"loss_changes":[3.747047E2,2.340725E2,2.6179678E2,1.08383995E2,3.266504E1,5.5201447E1,6.298166E1,9.877882E1,7.974552E1,2.8242462E1,2.5090958E1,7.2651184E1,0E0,3.0481308E1,3.3944065E1,0E0,0E0,0E0,0E0,0E0,0E0,0E0,0E0,0E0,0E0,0E0,0E0,0E0,0E0],"parents":[2147483647,0,0,1,1,2,2,3,3,4,4,5,5,6,6,7,7,8,8,9,9,10,10,11,11,13,13,14,14],"right_children":[2,4,6,8,10,12,14,16,18,20,22,24,-1,26,28,-1,-1,-1,-1,-1,-1,-1,-1,-1,-1,-1,-1,-1,-1],"split_conditions":[5.7E0,4.3E-2,1.99E1,6.18E1,4.1E-2,1.26E-1,1.81E-1,3.0714285E0,6.935E3,4.43E2,5.84E1,4.7E0,-9.493116E-2,3.11E2,6.9E0,-6.3200886E-3,4.3664962E-2,-1.09046735E-1,3.5701527E-3,-2.1032623E-3,-9.050774E-2,-3.7515294E-3,-5.788146E-2,1.6716234E-1,3.4826458E-1,-1.7117335E-1,6.1771445E-2,4.7448985E-2,-9.5785744E-2],"split_indices":[9,5,0,0,8,5,5,11,7,7,1,12,0,7,9,0,0,0,0,0,0,0,0,0,0,0,0,0,0],"split_type":[0,0,0,0,0,0,0,0,0,0,0,0,0,0,0,0,0,0,0,0,0,0,0,0,0,0,0,0,0],"sum_hessian":[6.44E2,5.37E2,1.07E2,3.81E2,1.56E2,2.1E1,8.6E1,3.31E2,5E1,7.8E1,7.8E1,2E1,1E0,7.2E1,1.4E1,2.04E2,1.27E2,2.7E1,2.3E1,8E0,7E1,2.5E1,5.3E1,1.3E1,7E0,1E0,7.1E1,5E0,9E0],"tree_param":{"num_deleted":"0","num_feature":"14","num_nodes":"29","size_leaf_vector":"1"}},{"base_weights":[-3.9338343E-2,-1.240011E0,4.879711E-1,-1.7403427E0,-6.497957E-1,3.0831552E0,3.1519914E-1,-1.3278112E0,-2.3973577E0,-1.8740141E0,-2.7934527E-1,1.910414E0,3.6851E-1,-2.7295738E-1,8.949438E-1,-6.519385E-2,3.4092948E-2,-4.3169463E-1,-9.711882E-2,-9.9675655E-2,-2.9996507E-2,-8.021226E-2,6.1921286E-3,3.572863E-3,1.469628E-1,-7.6018823E-3,-1.9330058E-1,-3.1836294E-2,5.3470504E-2],"categories":[],"categories_nodes":[],"categories_segments":[],"categories_sizes":[],"default_left":[0,0,0,0,0,0,0,0,0,0,0,0,0,0,0,0,0,0,0,0,0,0,0,0,0,0,0,0,0],"id":8,"left_children":[1,3,5,7,9,11,13,15,17,19,21,23,-1,25,27,-1,-1,-1,-1,-1,-1,-1,-1,-1,-1,-1,-1,-1,-1],"loss_changes":[4.1108133E2,5.831842E1,2.020934E2,2.8542358E1,4.1227364E1,1.6909442E2,1.443251E2,1.9098007E1,6.1661148E1,9.010475E0,4.4745842E1,5.881624E1,0E0,8.721265E1,1.0521915E2,0E0,0E0,0E0,0E0,0E0,0E0,0E0,0E0,0E0,0E0,0E0,0E0,0E0,0E0],"parents":[2147483647,0,0,1,1,2,2,3,3,4,4,5,5,6,6,7,7,8,8,9,9,10,10,11,11,13,13,14,14],"right_children":[2,4,6,8,10,12,14,16,18,20,22,24,-1,26,28,-1,-1,-1,-1,-1,-1,-1,-1,-1,-1,-1,-1,-1,-1],"split_conditions":[1.16E1,8.7E0,1.34E1,5.08E1,1.91E3,3.16E1,3.1E0,6.8E0,5.14E1,1.5E1,3E-1,2.485E3,3.6851E-1,7.28E1,1.919E3,-6.519385E-2,3.4092948E-2,-4.3169463E-1,-9.711882E-2,-9.9675655E-2,-2.9996507E-2,-8.021226E-2,6.1921286E-3,3.572863E-3,1.469628E-1,-7.6018823E-3,-1.9330058E-1,-3.1836294E-2,5.3470504E-2],"split_indices":[2,2,0,0,7,1,9,10,0,6,9,7,0,0,7,0,0,0,0,0,0,0,0,0,0,0,0,0,0],"split_type":[0,0,0,0,0,0,0,0,0,0,0,0,0,0,0,0,0,0,0,0,0,0,0,0,0,0,0,0,0],"sum_hessian":[6.49E2,1.98E2,4.51E2,1.07E2,9.1E1,2.8E1,4.23E2,6.6E1,4.1E1,2.1E1,7E1,2.3E1,5E0,2.1E2,2.13E2,6.2E1,4E0,1E0,4E1,1.6E1,5E0,1.5E1,5.5E1,1E1,1.3E1,2.05E2,5E0,3.4E1,1.79E2],"tree_param":{"num_deleted":"0","num_feature":"14","num_nodes":"29","size_leaf_vector":"1"}},{"base_weights":[5.242894E-2,-1.0795562E0,5.216451E-1,1.832162E-1,-1.278617E0,4.2836127E0,3.5860884E-1,1.8064675E0,-6.829072E-1,-2.1424546E0,-1.0522777E0,2.5674334E0,8.88765E0,1.1493536E0,-2.3800982E-2,1.9213827E-1,6.334088E-2,-5.65179E-2,3.1987168E-2,-1.4234689E-1,-8.250495E-2,-5.7944175E-2,2.6308218E-4,-3.1237344E-3,1.7865339E-1,4.2819747E-1,2.2861023E-1,8.66195E-2,2.714297E-2,1.47462515E-2,-4.1292626E-2],"categories":[],"categories_nodes":[],"categories_segments":[],"categories_sizes":[],"default_left":[0,0,0,0,0,0,0,0,0,0,0,0,0,0,0,0,0,0,0,0,0,0,0,0,0,0,0,0,0,0,0],"id":9,"left_children":[1,3,5,7,9,11,13,15,17,19,21,23,25,27,29,-1,-1,-1,-1,-1,-1,-1,-1,-1,-1,-1,-1,-1,-1,-1,-1],"loss_changes":[3.4644983E2,4.8095062E1,2.8255066E2,3.6936165E1,3.1927979E1,1.4789066E2,1.3371835E2,7.8612022E0,1.4226944E1,9.517014E0,3.462932E1,5.401735E1,7.051758E0,6.1746826E1,9.57274E1,0E0,0E0,0E0,0E0,0E0,0E0,0E0,0E0,0E0,0E0,0E0,0E0,0E0,0E0,0E0,0E0],"parents":[2147483647,0,0,1,1,2,2,3,3,4,4,5,5,6,6,7,7,8,8,9,9,10,10,11,11,12,12,13,13,14,14],"right_children":[2,4,6,8,10,12,14,16,18,20,22,24,26,28,30,-1,-1,-1,-1,-1,-1,-1,-1,-1,-1,-1,-1,-1,-1,-1,-1],"split_conditions":[1.12E1,2.36E1,9.8E0,9.159778E-1,5.5E0,2.4E1,-4.990686E-1,1.05E1,2.94E1,3.97E1,3.5142858E0,2.6857142E0,3.49E1,4.64E1,4.4E-2,1.9213827E-1,6.334088E-2,-5.65179E-2,3.1987168E-2,-1.4234689E-1,-8.250495E-2,-5.7944175E-2,2.6308218E-4,-3.1237344E-3,1.7865339E-1,4.2819747E-1,2.2861023E-1,8.66195E-2,2.714297E-2,1.47462515E-2,-4.1292626E-2],"split_indices":[2,0,0,4,2,2,3,0,1,1,12,11,1,0,5,0,0,0,0,0,0,0,0,0,0,0,0,0,0,0,0],"split_type":[0,0,0,0,0,0,0,0,0,0,0,0,0,0,0,0,0,0,0,0,0,0,0,0,0,0,0,0,0,0,0],"sum_hessian":[6.52E2,1.91E2,4.61E2,2.6E1,1.65E2,1.9E1,4.42E2,9E0,1.7E1,3.4E1,1.31E2,1.4E1,5E0,1.44E2,2.98E2,1E0,8E0,1.2E1,5E0,7E0,2.7E1,1.06E2,2.5E1,5E0,9E0,4E0,1E0,5.8E1,8.6E1,2.14E2,8.4E1],"tree_param":{"num_deleted":"0","num_feature":"14","num_nodes":"31","size_leaf_vector":"1"}},{"base_weights":[1.0114336E-2,-3.7042302E-1,1.2498088E0,-1.5436531E0,-5.8643553E-2,4.4082885E0,6.8003887E-1,-2.39939E0,-1.1952577E0,5.2048393E-2,-2.3039315E0,5.007205E0,-9.21698E-2,1.0218275E0,-9.650596E-1,-7.542726E-2,-1.8114515E-1,-3.2350093E-2,-8.55622E-2,-4.844764E-2,1.4099653E-2,-2.4649154E-1,-7.3650785E-2,1.3057631E-1,2.9741085E-1,3.6023E-2,1.2994544E-1,9.215523E-2,-7.190024E-2],"categories":[],"categories_nodes":[],"categories_segments":[],"categories_sizes":[],"default_left":[0,0,0,0,0,0,0,0,0,0,0,0,0,0,0,0,0,0,0,0,0,0,0,0,0,0,0,0,0],"id":10,"left_children":[1,3,5,7,9,11,13,15,17,19,21,23,-1,25,27,-1,-1,-1,-1,-1,-1,-1,-1,-1,-1,-1,-1,-1,-1],"loss_changes":[3.176303E2,1.8839517E2,2.840952E2,3.178897E1,1.0123887E2,9.514023E1,7.5559845E1,3.561676E1,2.6036194E1,1.17195724E2,3.8811012E1,7.399963E1,0E0,4.4445747E1,4.611422E1,0E0,0E0,0E0,0E0,0E0,0E0,0E0,0E0,0E0,0E0,0E0,0E0,0E0,0E0],"parents":[2147483647,0,0,1,1,2,2,3,3,4,4,5,5,6,6,7,7,8,8,9,9,10,10,11,11,13,13,14,14],"right_children":[2,4,6,8,10,12,14,16,18,20,22,24,-1,26,28,-1,-1,-1,-1,-1,-1,-1,-1,-1,-1,-1,-1,-1,-1],"split_conditions":[4.9E0,9.3E0,2.08E1,5.4E0,6.9E1,1.26E-1,1.15E-1,3.95E-1,5.9E-2,2.004E3,1.12E1,8.6E0,-9.21698E-2,8E0,3E0,-7.542726E-2,-1.8114515E-1,-3.2350093E-2,-8.55622E-2,-4.844764E-2,1.4099653E-2,-2.4649154E-1,-7.3650785E-2,1.3057631E-1,2.9741085E-1,3.6023E-2,1.2994544E-1,9.215523E-2,-7.190024E-2],"split_indices":[9,2,0,2,0,5,5,5,8,7,6,9,0,10,10,0,0,0,0,0,0,0,0,0,0,0,0,0,0],"split_type":[0,0,0,0,0,0,0,0,0,0,0,0,0,0,0,0,0,0,0,0,0,0,0,0,0,0,0,0,0],"sum_hessian":[6.73E2,5.15E2,1.58E2,1.08E2,4.07E2,2.4E1,1.34E2,3.1E1,7.7E1,3.88E2,1.9E1,2.2E1,2E0,1.11E2,2.3E1,2.2E1,9E0,4.7E1,3E1,7.3E1,3.15E2,3E0,1.6E1,1E1,1.2E1,1E2,1.1E1,4E0,1.9E1],"tree_param":{"num_deleted":"0","num_feature":"14","num_nodes":"29","size_leaf_vector":"1"}},{"base_weights":[-3.5062365E-2,-3.3182713E-1,1.6621606E0,-1.4105937E0,-2.6119957E-2,5.2420335E0,8.17218E-1,-1.7575649E0,-9.0400237E-1,1.5116324E-1,-1.4115994E0,3.2982454E0,8.1714325E0,1.3001665E0,-1.0184513E0,5.2833676E-2,-8.2145065E-2,-1.1817103E-1,-3.1028554E-2,1.969145E-2,-3.760016E-2,-1.4717513E-1,-3.729152E-2,6.260933E-2,1.9270453E-1,3.8540664E-1,2.0220846E-1,-1.5972324E-1,6.1873615E-2,6.314489E-2,-1.1046516E-1],"categories":[],"categories_nodes":[],"categories_segments":[],"categories_sizes":[],"default_left":[0,0,0,0,0,0,0,0,0,0,0,0,0,0,0,0,0,0,0,0,0,0,0,0,0,0,0,0,0,0,0],"id":11,"left_children":[1,3,5,7,9,11,13,15,17,19,21,23,25,27,29,-1,-1,-1,-1,-1,-1,-1,-1,-1,-1,-1,-1,-1,-1,-1,-1],"loss_changes":[3.2197467E2,1.794227E2,2.8708905E2,2.0857132E1,1.0422633E2,9.938272E1,6.857291E1,1.8696518E1,1.7497444E1,1.091165E2,5.1892746E1,2.0790092E1,6.9659424E0,2.7487923E1,5.8042496E1,0E0,0E0,0E0,0E0,0E0,0E0,0E0,0E0,0E0,0E0,0E0,0E0,0E0,0E0,0E0,0E0],"parents":[2147483647,0,0,1,1,2,2,3,3,4,4,5,5,6,6,7,7,8,8,9,9,10,10,11,11,12,12,13,13,14,14],"right_children":[2,4,6,8,10,12,14,16,18,20,22,24,26,28,30,-1,-1,-1,-1,-1,-1,-1,-1,-1,-1,-1,-1,-1,-1,-1,-1],"split_conditions":[5.9E0,9.3E0,1.99E1,2.4E0,6.38E1,4.7E0,1.15E-1,-9.962103E-1,4.3E0,4.4E-2,1.24E1,1.67E1,1.85E1,9E-3,6.9E0,5.2833676E-2,-8.2145065E-2,-1.1817103E-1,-3.1028554E-2,1.969145E-2,-3.760016E-2,-1.4717513E-1,-3.729152E-2,6.260933E-2,1.9270453E-1,3.8540664E-1,2.0220846E-1,-1.5972324E-1,6.1873615E-2,6.314489E-2,-1.1046516E-1],"split_indices":[9,2,0,9,0,12,5,3,2,5,6,2,0,8,9,0,0,0,0,0,0,0,0,0,0,0,0,0,0,0,0],"split_type":[0,0,0,0,0,0,0,0,0,0,0,0,0,0,0,0,0,0,0,0,0,0,0,0,0,0,0,0,0,0,0],"sum_hessian":[6.39E2,5.44E2,9.5E1,1.2E2,4.24E2,1.8E1,7.7E1,7.1E1,4.9E1,3.76E2,4.8E1,1.1E1,7E0,6.1E1,1.6E1,2E0,6.9E1,5E0,4.4E1,2.91E2,8.5E1,1.1E1,3.7E1,4E0,7E0,6E0,1E0,1E0,6E1,6E0,1E1],"tree_param":{"num_deleted":"0","num_feature":"14","num_nodes":"31","size_leaf_vector":"1"}},{"base_weights":[-2.7291426E-3,-1.0775042E0,4.5240435E-1,-1.5481659E0,-6.8438584E-1,1.7808571E-1,1.705755E0,-4.392894E-1,-1.789711E0,-1.223217E0,-1.728819E-1,3.9749435E-1,-1.0629191E0,1.1738789E0,5.128E0,-4.3786824E-2,3.3367764E-2,-5.9650674E-2,-1.1136661E-1,-4.542314E-2,-2.6232162E-1,-2.7481461E-2,4.9902286E-2,3.1276353E-2,-2.2859292E-2,-1.1618921E-1,-2.665161E-2,7.514202E-2,-4.2321146E-2,1.1261545E-1,3.1983906E-1],"categories":[],"categories_nodes":[],"categories_segments":[],"categories_sizes":[],"default_left":[0,0,0,0,0,0,0,0,0,0,0,0,0,0,0,0,0,0,0,0,0,0,0,0,0,0,0,0,0,0,0],"id":12,"left_children":[1,3,5,7,9,11,13,15,17,19,21,23,25,27,29,-1,-1,-1,-1,-1,-1,-1,-1,-1,-1,-1,-1,-1,-1,-1,-1],"loss_changes":[3.225049E2,3.6110382E1,1.5916452E2,2.3732712E1,2.9478462E1,1.035551E2,1.5040161E2,1.0549526E1,2.2898438E1,4.8443832E1,3.1798054E1,8.987109E1,4.0773277E1,7.9031456E1,5.6867126E1,0E0,0E0,0E0,0E0,0E0,0E0,0E0,0E0,0E0,0E0,0E0,0E0,0E0,0E0,0E0,0E0],"parents":[2147483647,0,0,1,1,2,2,3,3,4,4,5,5,6,6,7,7,8,8,9,9,10,10,11,11,12,12,13,13,14,14],"right_children":[2,4,6,8,10,12,14,16,18,20,22,24,26,28,30,-1,-1,-1,-1,-1,-1,-1,-1,-1,-1,-1,-1,-1,-1,-1,-1],"split_conditions":[1.18E1,1.6E0,4.042857E0,3.33E1,2.299E3,6.32E1,2.54E1,4.8E-2,2E0,6.15E1,1.53E1,4.3E-2,1.2E1,4.16E1,4.8314747E-1,-4.3786824E-2,3.3367764E-2,-5.9650674E-2,-1.1136661E-1,-4.542314E-2,-2.6232162E-1,-2.7481461E-2,4.9902286E-2,3.1276353E-2,-2.2859292E-2,-1.1618921E-1,-2.665161E-2,7.514202E-2,-4.2321146E-2,1.1261545E-1,3.1983906E-1],"split_indices":[2,9,12,1,7,0,2,8,10,0,6,5,6,0,4,0,0,0,0,0,0,0,0,0,0,0,0,0,0,0,0],"split_type":[0,0,0,0,0,0,0,0,0,0,0,0,0,0,0,0,0,0,0,0,0,0,0,0,0,0,0,0,0,0,0],"sum_hessian":[6.59E2,1.96E2,4.63E2,8.9E1,1.07E2,3.8E2,8.3E1,1.6E1,7.3E1,5.2E1,5.5E1,3.23E2,5.7E1,7.2E1,1.1E1,1.1E1,5E0,4.5E1,2.8E1,5E1,2E0,4.1E1,1.4E1,2.42E2,8.1E1,1.3E1,4.4E1,5.8E1,1.4E1,5E0,6E0],"tree_param":{"num_deleted":"0","num_feature":"14","num_nodes":"31","size_leaf_vector":"1"}},{"base_weights":[-2.7222322E-2,-1.4067849E0,2.7069104E-1,-1.0903453E0,-1.97197E0,-3.6443302E-1,8.986261E-1,-2.6197946E0,-9.252624E-1,-3.9895442E-1,-1.7665772E0,-1.7758441E-1,-1.4755222E0,2.6860764E0,5.8353466E-1,-1.4127874E-1,2.99282E-2,-1.4727922E-2,-5.5846475E-2,-1.3296477E-2,-9.005014E-2,-1.4690217E-1,-4.039005E-3,-1.3419136E-1,-3.720604E-2,5.9851866E-2,1.8463194E-1,-5.446696E-2,3.9621912E-2],"categories":[],"categories_nodes":[],"categories_segments":[],"categories_sizes":[],"default_left":[0,0,0,0,0,0,0,0,0,0,0,0,0,0,0,0,0,0,0,0,0,0,0,0,0,0,0,0,0],"id":13,"left_children":[1,3,5,7,9,11,13,15,17,-1,19,21,23,25,27,-1,-1,-1,-1,-1,-1,-1,-1,-1,-1,-1,-1,-1,-1],"loss_changes":[2.6644824E2,2.0248596E1,2.1267773E2,1.8330177E1,5.6713562E1,5.4982906E1,1.507521E2,1.3350105E1,1.3059818E1,0E0,1.498423E1,6.1504826E1,3.714119E1,7.784668E1,1.2652371E2,0E0,0E0,0E0,0E0,0E0,0E0,0E0,0E0,0E0,0E0,0E0,0E0,0E0,0E0],"parents":[2147483647,0,0,1,1,2,2,3,3,4,4,5,5,6,6,7,7,8,8,10,10,11,11,12,12,13,13,14,14],"right_children":[2,4,6,8,10,12,14,16,18,-1,20,22,24,26,28,-1,-1,-1,-1,-1,-1,-1,-1,-1,-1,-1,-1,-1,-1],"split_conditions":[8.7E0,5.08E1,3E0,3E0,5.68E1,6.38E1,2.08E1,4.82E1,6.1E0,-3.9895442E-1,-9.9262893E-1,8.79E2,1.24E1,5.2E0,1.919E3,-1.4127874E-1,2.99282E-2,-1.4727922E-2,-5.5846475E-2,-1.3296477E-2,-9.005014E-2,-1.4690217E-1,-4.039005E-3,-1.3419136E-1,-3.720604E-2,5.9851866E-2,1.8463194E-1,-5.446696E-2,3.9621912E-2],"split_indices":[2,0,9,2,1,0,0,0,2,0,3,7,6,9,7,0,0,0,0,0,0,0,0,0,0,0,0,0,0],"split_type":[0,0,0,0,0,0,0,0,0,0,0,0,0,0,0,0,0,0,0,0,0,0,0,0,0,0,0,0,0],"sum_hessian":[6.48E2,1.15E2,5.33E2,7.4E1,4.1E1,2.65E2,2.68E2,7E0,6.7E1,1E0,4E1,2.27E2,3.8E1,4E1,2.28E2,6E0,1E0,2.4E1,4.3E1,6E0,3.4E1,6E0,2.21E2,1.1E1,2.7E1,2.1E1,1.9E1,3.3E1,1.95E2],"tree_param":{"num_deleted":"0","num_feature":"14","num_nodes":"29","size_leaf_vector":"1"}},{"base_weights":[1.00300275E-2,-9.943491E-1,4.3430993E-1,-1.6288632E0,-6.550644E-1,1.245099E-1,1.5597894E0,-1.4468987E0,-3.747249E0,8.9415276E-1,-8.5324955E-1,4.1529563E-1,-6.2093264E-1,2.818434E0,2.7020562E-1,-7.607198E-2,-1.640472E-2,-1.01515055E-1,-3.8335145E-1,8.1774466E-2,-3.578127E-2,2.9202865E-2,-4.400766E-2,2.977421E-2,-2.6386835E-2,-1.1913358E-2,-1.0275574E-1,1.0023482E-1,2.7186444E-1,3.8570296E-2,-1.0175751E-1],"categories":[],"categories_nodes":[],"categories_segments":[],"categories_sizes":[],"default_left":[0,0,0,0,0,0,0,0,0,0,0,0,0,0,0,0,0,0,0,0,0,0,0,0,0,0,0,0,0,0,0],"id":14,"left_children":[1,3,5,7,9,11,13,15,17,19,21,23,25,27,29,-1,-1,-1,-1,-1,-1,-1,-1,-1,-1,-1,-1,-1,-1,-1,-1],"loss_changes":[2.7283838E2,4.0751083E1,1.5689896E2,2.4666397E1,3.821921E1,7.65802E1,1.5751573E2,1.715554E1,3.3782677E1,2.2853905E1,2.2594017E1,6.5014786E1,5.897907E1,8.955972E1,7.3618904E1,0E0,0E0,0E0,0E0,0E0,0E0,0E0,0E0,0E0,0E0,0E0,0E0,0E0,0E0,0E0,0E0],"parents":[2147483647,0,0,1,1,2,2,3,3,4,4,5,5,6,6,7,7,8,8,9,9,10,10,11,11,12,12,13,13,14,14],"right_children":[2,4,6,8,10,12,14,16,18,20,22,24,26,28,30,-1,-1,-1,-1,-1,-1,-1,-1,-1,-1,-1,-1,-1,-1,-1,-1],"split_conditions":[1.18E1,8E-1,5.7E0,2.29E1,2.35E1,2.8E-2,3.78E1,3.2357142E0,4.8314747E-1,9.9630326E-1,-9.8787266E-1,5.93E1,8.33777E-1,2.42E1,1.35E-1,-7.607198E-2,-1.640472E-2,-1.01515055E-1,-3.8335145E-1,8.1774466E-2,-3.578127E-2,2.9202865E-2,-4.400766E-2,2.977421E-2,-2.6386835E-2,-1.1913358E-2,-1.0275574E-1,1.0023482E-1,2.7186444E-1,3.8570296E-2,-1.0175751E-1],"split_indices":[2,9,9,6,0,5,0,12,4,4,3,0,4,2,5,0,0,0,0,0,0,0,0,0,0,0,0,0,0,0,0],"split_type":[0,0,0,0,0,0,0,0,0,0,0,0,0,0,0,0,0,0,0,0,0,0,0,0,0,0,0,0,0,0,0],"sum_hessian":[6.4E2,1.9E2,4.5E2,6.6E1,1.24E2,3.53E2,9.7E1,6.1E1,5E0,1.4E1,1.1E2,2.54E2,9.9E1,4.9E1,4.8E1,4.9E1,1.2E1,4E0,1E0,9E0,5E0,9E0,1.01E2,2.03E2,5.1E1,8.2E1,1.7E1,4.2E1,7E0,3.9E1,9E0],"tree_param":{"num_deleted":"0","num_feature":"14","num_nodes":"31","size_leaf_vector":"1"}},{"base_weights":[-7.850368E-2,-3.9301303E-1,9.7753584E-1,-1.4934337E0,-1.787324E-1,3.2630801E0,5.814939E-1,-1.1110166E0,-2.2622483E0,5.634496E-1,-4.4705597E-1,1.6963425E0,5.4646044E0,-1.6583683E0,7.7315897E-1,-4.1370753E-2,-1.4756835E-1,-1.5677617E-1,-6.1100323E-2,6.0728345E-2,-7.56879E-4,-2.6255256E-2,4.6473846E-2,1.235942E-1,-8.292858E-2,1.610735E-1,3.027718E-1,-8.520085E-2,2.5902845E-2,2.6355969E-2,1.1147067E-1],"categories":[],"categories_nodes":[],"categories_segments":[],"categories_sizes":[],"default_left":[0,0,0,0,0,0,0,0,0,0,0,0,0,0,0,0,0,0,0,0,0,0,0,0,0,0,0,0,0,0,0],"id":15,"left_children":[1,3,5,7,9,11,13,15,17,19,21,23,25,27,29,-1,-1,-1,-1,-1,-1,-1,-1,-1,-1,-1,-1,-1,-1,-1,-1],"loss_changes":[2.17306E2,1.1881301E2,1.3558038E2,2.3750854E1,8.409973E1,7.496977E1,5.5173977E1,2.1585114E1,2.9670197E1,5.2146446E1,6.6090775E1,5.123763E1,1.899649E1,5.9795494E0,3.6779716E1,0E0,0E0,0E0,0E0,0E0,0E0,0E0,0E0,0E0,0E0,0E0,0E0,0E0,0E0,0E0,0E0],"parents":[2147483647,0,0,1,1,2,2,3,3,4,4,5,5,6,6,7,7,8,8,9,9,10,10,11,11,12,12,13,13,14,14],"right_children":[2,4,6,8,10,12,14,16,18,20,22,24,26,28,30,-1,-1,-1,-1,-1,-1,-1,-1,-1,-1,-1,-1,-1,-1,-1,-1],"split_conditions":[4.9E0,8.3E0,2.08E1,1.67E1,-5.1205516E-1,2.941E3,1.152E3,6.43E1,5E-1,5.15E1,7.836E3,1.78E1,2.61E1,5.12E1,8E0,-4.1370753E-2,-1.4756835E-1,-1.5677617E-1,-6.1100323E-2,6.0728345E-2,-7.56879E-4,-2.6255256E-2,4.6473846E-2,1.235942E-1,-8.292858E-2,1.610735E-1,3.027718E-1,-8.520085E-2,2.5902845E-2,2.6355969E-2,1.1147067E-1],"split_indices":[9,2,0,6,3,7,7,0,9,0,7,6,1,1,10,0,0,0,0,0,0,0,0,0,0,0,0,0,0,0,0],"split_type":[0,0,0,0,0,0,0,0,0,0,0,0,0,0,0,0,0,0,0,0,0,0,0,0,0,0,0,0,0,0,0],"sum_hessian":[6.54E2,5.04E2,1.5E2,8.2E1,4.22E2,2.2E1,1.28E2,5.5E1,2.7E1,1.12E2,3.1E2,1.3E1,9E0,1E1,1.18E2,5.1E1,4E0,1.1E1,1.6E1,4.7E1,6.5E1,2.83E2,2.7E1,1E1,3E0,4E0,5E0,9E0,1E0,1.07E2,1.1E1],"tree_param":{"num_deleted":"0","num_feature":"14","num_nodes":"31","size_leaf_vector":"1"}},{"base_weights":[-4.2773902E-2,-3.1509063E-1,1.3147E0,-1.2706624E0,-5.199086E-2,2.2626438E0,-2.2781879E-1,-1.6280556E0,-7.065191E-1,1.8071523E-3,-3.0989406E0,1.8994508E0,5.708391E0,3.5250583E-1,-2.2034693E0,-1.327131E-1,-5.948874E-2,-1.7742516E-2,-7.178447E-2,-1.2522913E-2,2.1193927E-2,-2.2752056E-1,-6.525319E-2,3.6346734E-2,1.0904308E-1,3.13684E-1,1.2207053E-1,7.3460583E-3,2.3417798E-1,-1.5970887E-1,-1.8136654E-2],"categories":[],"categories_nodes":[],"categories_segments":[],"categories_sizes":[],"default_left":[0,0,0,0,0,0,0,0,0,0,0,0,0,0,0,0,0,0,0,0,0,0,0,0,0,0,0,0,0,0,0],"id":16,"left_children":[1,3,5,7,9,11,13,15,17,19,21,23,25,27,29,-1,-1,-1,-1,-1,-1,-1,-1,-1,-1,-1,-1,-1,-1,-1,-1],"loss_changes":[2.3261116E2,1.3174481E2,1.5383736E2,2.261673E1,6.744135E1,7.990491E1,4.615457E1,2.667421E1,1.2196184E1,5.4291737E1,2.2321045E1,3.4906143E1,2.154744E1,2.845088E1,2.245716E1,0E0,0E0,0E0,0E0,0E0,0E0,0E0,0E0,0E0,0E0,0E0,0E0,0E0,0E0,0E0,0E0],"parents":[2147483647,0,0,1,1,2,2,3,3,4,4,5,5,6,6,7,7,8,8,9,9,10,10,11,11,12,12,13,13,14,14],"right_children":[2,4,6,8,10,12,14,16,18,20,22,24,26,28,30,-1,-1,-1,-1,-1,-1,-1,-1,-1,-1,-1,-1,-1,-1,-1,-1],"split_conditions":[5.5E0,9.3E0,4.2E1,2.4E0,7.28E1,2.41E1,1.15E-1,1.035E3,4.5E0,2.9642856E0,1.24E1,3.2285714E0,2.62E1,6.77E1,3.32E-1,-1.327131E-1,-5.948874E-2,-1.7742516E-2,-7.178447E-2,-1.2522913E-2,2.1193927E-2,-2.2752056E-1,-6.525319E-2,3.6346734E-2,1.0904308E-1,3.13684E-1,1.2207053E-1,7.3460583E-3,2.3417798E-1,-1.5970887E-1,-1.8136654E-2],"split_indices":[9,2,0,9,0,2,5,7,10,12,6,12,2,0,5,0,0,0,0,0,0,0,0,0,0,0,0,0,0,0,0],"split_type":[0,0,0,0,0,0,0,0,0,0,0,0,0,0,0,0,0,0,0,0,0,0,0,0,0,0,0,0,0,0,0],"sum_hessian":[6.29E2,5.24E2,1.05E2,1.13E2,4.11E2,6.5E1,4E1,6.9E1,4.4E1,4.04E2,7E0,5.9E1,6E0,3.1E1,9E0,1.2E1,5.7E1,3.3E1,1.1E1,2.53E2,1.51E2,3E0,4E0,2E1,3.9E1,4E0,2E0,3E1,1E0,5E0,4E0],"tree_param":{"num_deleted":"0","num_feature":"14","num_nodes":"31","size_leaf_vector":"1"}},{"base_weights":[3.5542576E-3,-6.83175E-1,5.356797E-1,-4.9039975E-1,-1.5735327E0,4.118504E-1,4.1207094E0,9.409695E-1,-6.26031E-1,-1.3478445E-1,-1.4028314E0,9.916387E-1,-3.9396897E-2,5.6179147E0,1.9269435E0,-2.255773E-2,7.6512024E-2,-5.3971555E-2,-1.8679472E-2,-3.8102984E-2,-9.520923E-2,4.8193894E-2,-2.4663451E-1,-2.4447236E-2,3.2404575E-2,1.6090508E-1,2.8033373E-1,3.6843054E-2,1.517392E-1],"categories":[],"categories_nodes":[],"categories_segments":[],"categories_sizes":[],"default_left":[0,0,0,0,0,0,0,0,0,0,0,0,0,0,0,0,0,0,0,0,0,0,0,0,0,0,0,0,0],"id":17,"left_children":[1,3,5,7,9,11,13,15,17,-1,19,21,23,25,27,-1,-1,-1,-1,-1,-1,-1,-1,-1,-1,-1,-1,-1,-1],"loss_changes":[2.3616411E2,4.8288025E1,1.6134937E2,4.5143593E1,1.1792793E1,9.2149E1,3.8257797E1,2.2815561E1,2.5582016E1,0E0,1.786921E1,9.23884E1,7.756152E1,6.421921E0,7.9155846E0,0E0,0E0,0E0,0E0,0E0,0E0,0E0,0E0,0E0,0E0,0E0,0E0,0E0,0E0],"parents":[2147483647,0,0,1,1,2,2,3,3,4,4,5,5,6,6,7,7,8,8,10,10,11,11,12,12,13,13,14,14],"right_children":[2,4,6,8,10,12,14,16,18,-1,20,22,24,26,28,-1,-1,-1,-1,-1,-1,-1,-1,-1,-1,-1,-1,-1,-1],"split_conditions":[1.42E1,2.83E-1,9.2E0,8.9E0,3.5E0,1.33E1,1.99E1,8.1E0,8E-1,-1.3478445E-1,5.08E1,7.28E1,3E0,2.4E0,2.01E1,-2.255773E-2,7.6512024E-2,-5.3971555E-2,-1.8679472E-2,-3.8102984E-2,-9.520923E-2,4.8193894E-2,-2.4663451E-1,-2.4447236E-2,3.2404575E-2,1.6090508E-1,2.8033373E-1,3.6843054E-2,1.517392E-1],"split_indices":[2,5,9,6,2,6,0,6,9,0,0,0,12,0,2,0,0,0,0,0,0,0,0,0,0,0,0,0,0],"split_type":[0,0,0,0,0,0,0,0,0,0,0,0,0,0,0,0,0,0,0,0,0,0,0,0,0,0,0,0,0],"sum_hessian":[6.46E2,2.82E2,3.64E2,2.32E2,5E1,3.52E2,1.2E1,2E1,2.12E2,5E0,4.5E1,1.54E2,1.98E2,7E0,5E0,7E0,1.3E1,5.5E1,1.57E2,2.6E1,1.9E1,1.52E2,2E0,1.19E2,7.9E1,2E0,5E0,3E0,2E0],"tree_param":{"num_deleted":"0","num_feature":"14","num_nodes":"29","size_leaf_vector":"1"}},{"base_weights":[-2.8883833E-2,-8.496922E-1,3.294356E-1,-1.4832493E0,-5.749039E-1,9.565408E-2,1.3332968E0,-1.7887888E0,-3.7025738E-1,-1.337962E0,-3.0662167E-1,3.3385128E-1,-8.3994424E-1,2.4442282E0,3.625133E-1,-7.086326E-2,-1.6817306E-1,-4.2218234E-2,2.4592781E-2,-4.743101E-2,-1.8479307E-1,-9.5398076E-2,-5.6865453E-3,-2.7531814E-2,2.5027325E-2,-2.8072165E-2,-1.6344702E-1,1.1598289E-2,1.368279E-1,3.8342588E-2,-6.31682E-2],"categories":[],"categories_nodes":[],"categories_segments":[],"categories_sizes":[],"default_left":[0,0,0,0,0,0,0,0,0,0,0,0,0,0,0,0,0,0,0,0,0,0,0,0,0,0,0,0,0,0,0],"id":18,"left_children":[1,3,5,7,9,11,13,15,17,19,21,23,25,27,29,-1,-1,-1,-1,-1,-1,-1,-1,-1,-1,-1,-1,-1,-1,-1,-1],"loss_changes":[1.927303E2,3.451979E1,1.07009186E2,2.0326569E1,2.840208E1,8.251895E1,9.273288E1,1.7548935E1,7.087188E0,2.7009682E1,3.380826E1,6.4235275E1,4.415345E1,5.5015274E1,4.116262E1,0E0,0E0,0E0,0E0,0E0,0E0,0E0,0E0,0E0,0E0,0E0,0E0,0E0,0E0,0E0,0E0],"parents":[2147483647,0,0,1,1,2,2,3,3,4,4,5,5,6,6,7,7,8,8,9,9,10,10,11,11,12,12,13,13,14,14],"right_children":[2,4,6,8,10,12,14,16,18,20,22,24,26,28,30,-1,-1,-1,-1,-1,-1,-1,-1,-1,-1,-1,-1,-1,-1,-1,-1],"split_conditions":[1.18E1,8E-1,5.9E0,3.2237954E0,7.3E0,6.09E1,3.78E1,2.18E1,4.4E-2,6.81E1,1.3782321E0,1.956E3,7.29E1,2.299E3,3.2E-2,-7.086326E-2,-1.6817306E-1,-4.2218234E-2,2.4592781E-2,-4.743101E-2,-1.8479307E-1,-9.5398076E-2,-5.6865453E-3,-2.7531814E-2,2.5027325E-2,-2.8072165E-2,-1.6344702E-1,1.1598289E-2,1.368279E-1,3.8342588E-2,-6.31682E-2],"split_indices":[2,9,9,13,2,0,0,6,8,1,13,7,0,7,5,0,0,0,0,0,0,0,0,0,0,0,0,0,0,0,0],"split_type":[0,0,0,0,0,0,0,0,0,0,0,0,0,0,0,0,0,0,0,0,0,0,0,0,0,0,0,0,0,0,0],"sum_hessian":[6.55E2,1.99E2,4.56E2,6E1,1.39E2,3.7E2,8.6E1,4.7E1,1.3E1,3.6E1,1.03E2,2.95E2,7.5E1,4E1,4.6E1,4.3E1,4E0,8E0,5E0,3.3E1,3E0,9E0,9.4E1,5.7E1,2.38E2,7E1,5E0,9E0,3.1E1,3.6E1,1E1],"tree_param":{"num_deleted":"0","num_feature":"14","num_nodes":"31","size_leaf_vector":"1"}},{"base_weights":[1.0709576E-1,2.8647937E-2,3.8494382E0,2.3135395E-1,-9.5535177E-1,5.6295104E0,9.2356056E-1,1.6975601E-1,2.806128E0,-1.815415E0,-8.1244695E-1,1.4850819E-1,6.299172E0,1.7729595E-1,4.760691E-2,-1.3566927E-2,1.8757781E-2,-4.1563515E-2,1.8027085E-1,-1.1851442E-1,-5.4193188E-2,-1.9792343E-2,-6.3884936E-2,3.0055726E-1,1.5480702E-1,3.0849572E-2,-7.675988E-2],"categories":[],"categories_nodes":[],"categories_segments":[],"categories_sizes":[],"default_left":[0,0,0,0,0,0,0,0,0,0,0,0,0,0,0,0,0,0,0,0,0,0,0,0,0,0,0],"id":19,"left_children":[1,3,5,7,9,11,13,15,17,19,21,-1,23,-1,25,-1,-1,-1,-1,-1,-1,-1,-1,-1,-1,-1,-1],"loss_changes":[1.8785698E2,1.2511025E2,6.760965E1,8.238345E1,1.2924438E1,9.448212E0,1.3682079E1,6.069262E1,5.701956E1,7.160309E0,2.0986618E1,0E0,4.4392548E0,0E0,4.8821807E0,0E0,0E0,0E0,0E0,0E0,0E0,0E0,0E0,0E0,0E0,0E0,0E0],"parents":[2147483647,0,0,1,1,2,2,3,3,4,4,5,5,6,6,7,7,8,8,9,9,10,10,12,12,14,14],"right_children":[2,4,6,8,10,12,14,16,18,20,22,-1,24,-1,26,-1,-1,-1,-1,-1,-1,-1,-1,-1,-1,-1,-1],"split_conditions":[1E1,1.81E-1,1.99E1,6.6E0,3.97E1,2.4E0,-8.867211E-1,1.8E0,3.2E-2,1.6E0,5.08E1,1.4850819E-1,1.85E1,1.7729595E-1,4.03E1,-1.3566927E-2,1.8757781E-2,-4.1563515E-2,1.8027085E-1,-1.1851442E-1,-5.4193188E-2,-1.9792343E-2,-6.3884936E-2,3.0055726E-1,1.5480702E-1,3.0849572E-2,-7.675988E-2],"split_indices":[9,5,0,11,1,0,3,9,8,9,0,0,0,0,0,0,0,0,0,0,0,0,0,0,0,0,0],"split_type":[0,0,0,0,0,0,0,0,0,0,0,0,0,0,0,0,0,0,0,0,0,0,0,0,0,0,0],"sum_hessian":[6.4E2,6.27E2,1.3E1,5.2E2,1.07E2,8E0,5E0,5.08E2,1.2E1,1.5E1,9.2E1,2E0,6E0,1E0,4E0,1.76E2,3.32E2,3E0,9E0,6E0,9E0,5.8E1,3.4E1,5E0,1E0,3E0,1E0],"tree_param":{"num_deleted":"0","num_feature":"14","num_nodes":"27","size_leaf_vector":"1"}},{"base_weights":[-4.235142E-2,-6.553202E-1,4.830583E-1,-1.1409299E0,-3.192562E-1,2.0679553E0,2.1198247E-1,7.4384816E-2,-1.2120124E0,-1.0423208E-1,-1.5932223E0,1.5401272E0,5.986375E0,-8.7086815E-1,5.0565E-1,-9.932721E-3,-6.4144805E-2,-7.0006045E-4,-1.4821516E-1,-8.6070664E-2,4.367552E-2,3.0858485E-2,1.3206445E-1,1.8808287E-1,3.329337E-1,-3.329105E-2,-1.9763517E-1,3.5838634E-2,-4.157566E-3],"categories":[],"categories_nodes":[],"categories_segments":[],"categories_sizes":[],"default_left":[0,0,0,0,0,0,0,0,0,0,0,0,0,0,0,0,0,0,0,0,0,0,0,0,0,0,0,0,0],"id":20,"left_children":[1,3,5,7,9,11,13,-1,15,17,19,21,23,25,27,-1,-1,-1,-1,-1,-1,-1,-1,-1,-1,-1,-1,-1,-1],"loss_changes":[2.136165E2,4.988806E1,1.5334123E2,2.5285507E1,4.9571167E1,1.0644679E2,9.708869E1,0E0,2.758371E1,4.4227757E1,2.317482E1,5.5405174E1,1.1593018E1,2.8058216E1,4.3096813E1,0E0,0E0,0E0,0E0,0E0,0E0,0E0,0E0,0E0,0E0,0E0,0E0,0E0,0E0],"parents":[2147483647,0,0,1,1,2,2,3,3,4,4,5,5,6,6,8,8,9,9,10,10,11,11,12,12,13,13,14,14],"right_children":[2,4,6,8,10,12,14,-1,16,18,20,22,24,26,28,-1,-1,-1,-1,-1,-1,-1,-1,-1,-1,-1,-1,-1,-1],"split_conditions":[2.6E0,1.17E1,2.08E1,-9.962103E-1,6.38E1,2.4E1,1.956E3,7.4384816E-2,3.33E1,1.1E0,5.04E-1,3.0593338E0,5.135714E0,1.91E3,5.53E1,-9.932721E-3,-6.4144805E-2,-7.0006045E-4,-1.4821516E-1,-8.6070664E-2,4.367552E-2,3.0858485E-2,1.3206445E-1,1.8808287E-1,3.329337E-1,-3.329105E-2,-1.9763517E-1,3.5838634E-2,-4.157566E-3],"split_indices":[9,2,0,3,0,2,7,0,1,5,5,13,12,7,0,0,0,0,0,0,0,0,0,0,0,0,0,0,0],"split_type":[0,0,0,0,0,0,0,0,0,0,0,0,0,0,0,0,0,0,0,0,0,0,0,0,0,0,0,0,0],"sum_hessian":[6.63E2,3.06E2,3.57E2,1.25E2,1.81E2,5.2E1,3.05E2,3E0,1.22E2,1.55E2,2.6E1,4.6E1,6E0,6.5E1,2.4E2,2.3E1,9.9E1,1.51E2,4E0,2.3E1,3E0,2.9E1,1.7E1,3E0,3E0,6.3E1,2E0,1.6E2,8E1],"tree_param":{"num_deleted":"0","num_feature":"14","num_nodes":"29","size_leaf_vector":"1"}},{"base_weights":[2.7035244E-2,-7.619761E-1,3.7538657E-1,-4.71603E-1,-1.2452691E0,2.6587033E0,2.8156453E-1,-1.3977901E0,-2.3144466E-1,-1.1296349E0,-2.809775E0,7.642961E-2,3.9330218E0,4.8957294E-1,-5.091549E-1,-2.049226E-2,-9.231405E-2,-2.0995958E-2,3.875181E-2,-3.0196024E-2,-7.745502E-2,-1.9305962E-1,-7.303443E-2,1.3939463E-1,-6.68158E-2,1.4495194E-1,3.0629098E-1,6.731851E-2,1.4875023E-2,-4.8195086E-2,1.7062105E-2],"categories":[],"categories_nodes":[],"categories_segments":[],"categories_sizes":[],"default_left":[0,0,0,0,0,0,0,0,0,0,0,0,0,0,0,0,0,0,0,0,0,0,0,0,0,0,0,0,0,0,0],"id":21,"left_children":[1,3,5,7,9,11,13,15,17,19,21,23,25,27,29,-1,-1,-1,-1,-1,-1,-1,-1,-1,-1,-1,-1,-1,-1,-1,-1],"loss_changes":[1.822993E2,2.8400314E1,9.8425354E1,2.8210186E1,1.3275887E1,5.9584076E1,7.275542E1,1.6393368E1,2.6823147E1,1.939508E1,8.100021E0,3.0253832E1,2.096402E1,5.5554E1,4.7226936E1,0E0,0E0,0E0,0E0,0E0,0E0,0E0,0E0,0E0,0E0,0E0,0E0,0E0,0E0,0E0,0E0],"parents":[2147483647,0,0,1,1,2,2,3,3,4,4,5,5,6,6,7,7,8,8,9,9,10,10,11,11,12,12,13,13,14,14],"right_children":[2,4,6,8,10,12,14,16,18,20,22,24,26,28,30,-1,-1,-1,-1,-1,-1,-1,-1,-1,-1,-1,-1,-1,-1,-1,-1],"split_conditions":[1.18E1,6E-2,9.8E0,6E-1,6.43E1,2.321E3,6.3E-2,7.8E0,1.89E1,1.7647098E-1,2.548015E0,6.523456E-1,2.93E1,9.8E0,2.9642856E0,-2.049226E-2,-9.231405E-2,-2.0995958E-2,3.875181E-2,-3.0196024E-2,-7.745502E-2,-1.9305962E-1,-7.303443E-2,1.3939463E-1,-6.68158E-2,1.4495194E-1,3.0629098E-1,6.731851E-2,1.4875023E-2,-4.8195086E-2,1.7062105E-2],"split_indices":[2,5,0,9,0,7,5,2,6,4,13,4,1,6,12,0,0,0,0,0,0,0,0,0,0,0,0,0,0,0,0],"split_type":[0,0,0,0,0,0,0,0,0,0,0,0,0,0,0,0,0,0,0,0,0,0,0,0,0,0,0,0,0,0,0],"sum_hessian":[6.63E2,2.03E2,4.6E2,1.27E2,7.6E1,1.8E1,4.42E2,2.6E1,1.01E2,7.1E1,5E0,6E0,1.2E1,3.5E2,9.2E1,1.1E1,1.5E1,8.3E1,1.8E1,4.1E1,3E1,2E0,3E0,2E0,4E0,1E1,2E0,4.6E1,3.04E2,5.6E1,3.6E1],"tree_param":{"num_deleted":"0","num_feature":"14","num_nodes":"31","size_leaf_vector":"1"}},{"base_weights":[5.9454464E-3,-8.2944024E-1,3.589223E-1,9.6733755E-1,-9.078846E-1,-2.465329E-1,9.307573E-1,9.886562E-2,-4.9989816E-2,-5.462911E-1,-1.588636E0,-3.885872E-2,-1.2479314E0,3.0269356E0,7.5499505E-1,-3.8629636E-2,3.6261869E-3,-6.394755E-2,-1.9929445E-1,3.001001E-2,-2.1690762E-2,-9.248826E-2,1.3670844E-3,1.8871337E-1,-5.3978935E-2,5.6437522E-2,1.5106015E-2],"categories":[],"categories_nodes":[],"categories_segments":[],"categories_sizes":[],"default_left":[0,0,0,0,0,0,0,0,0,0,0,0,0,0,0,0,0,0,0,0,0,0,0,0,0,0,0],"id":22,"left_children":[1,3,5,7,9,11,13,-1,-1,15,17,19,21,23,25,-1,-1,-1,-1,-1,-1,-1,-1,-1,-1,-1,-1],"loss_changes":[1.9174147E2,2.7342743E1,1.5831267E2,2.1687122E1,4.5420486E1,4.6170715E1,8.625868E1,0E0,0E0,2.4469772E1,2.71987E1,5.891551E1,4.0502796E1,9.398529E1,4.6201202E1,0E0,0E0,0E0,0E0,0E0,0E0,0E0,0E0,0E0,0E0,0E0,0E0],"parents":[2147483647,0,0,1,1,2,2,3,3,4,4,5,5,6,6,9,9,10,10,11,11,12,12,13,13,14,14],"right_children":[2,4,6,8,10,12,14,-1,-1,16,18,20,22,24,26,-1,-1,-1,-1,-1,-1,-1,-1,-1,-1,-1,-1],"split_conditions":[1.16E1,-9.962103E-1,3.1E0,1.4E0,4.77E1,6.18E1,1.32E1,9.886562E-2,-4.9989816E-2,3.0642858E0,2.51E1,3.439806E-2,4E-3,1.75E1,-4.990686E-1,-3.8629636E-2,3.6261869E-3,-6.394755E-2,-1.9929445E-1,3.001001E-2,-2.1690762E-2,-9.248826E-2,1.3670844E-3,1.8871337E-1,-5.3978935E-2,5.6437522E-2,1.5106015E-2],"split_indices":[2,3,9,10,0,0,0,0,0,12,6,3,5,6,3,0,0,0,0,0,0,0,0,0,0,0,0],"split_type":[0,0,0,0,0,0,0,0,0,0,0,0,0,0,0,0,0,0,0,0,0,0,0,0,0,0,0],"sum_hessian":[6.5E2,1.93E2,4.57E2,8E0,1.85E2,2.22E2,2.35E2,5E0,3E0,1.21E2,6.4E1,1.84E2,3.8E1,1.8E1,2.17E2,8E1,4.1E1,6.1E1,3E0,7.1E1,1.13E2,2.3E1,1.5E1,1.4E1,4E0,9.7E1,1.2E2],"tree_param":{"num_deleted":"0","num_feature":"14","num_nodes":"27","size_leaf_vector":"1"}},{"base_weights":[-9.502702E-3,-1.0171778E0,2.0184143E-1,-6.9838536E-1,-1.5392811E0,-6.6822274E-3,1.2117409E0,-3.2424244E-1,-1.3402228E0,-3.309054E-1,-1.3746603E0,-9.259938E-1,1.7692375E-1,1.5307802E0,-7.458767E-1,1.0197572E-2,-4.0117845E-2,-1.295137E-1,-4.2258352E-2,-4.280583E-2,-9.7142E-2,-3.5811275E-2,-2.2327122E-1,3.0043684E-2,-2.5234118E-3,1.3890685E-1,4.4278525E-2,-6.1870396E-2,2.7595663E-1],"categories":[],"categories_nodes":[],"categories_segments":[],"categories_sizes":[],"default_left":[0,0,0,0,0,0,0,0,0,0,0,0,0,0,0,0,0,0,0,0,0,0,0,0,0,0,0,0,0],"id":23,"left_children":[1,3,5,7,9,11,13,15,17,-1,19,21,23,25,27,-1,-1,-1,-1,-1,-1,-1,-1,-1,-1,-1,-1,-1,-1],"loss_changes":[1.4020192E2,1.8815025E1,1.1460827E2,1.6997807E1,4.0312294E1,7.618209E1,5.833983E1,1.4449312E1,1.5593941E1,0E0,1.3718491E1,3.669541E1,4.3772644E1,6.780333E1,5.9880104E1,0E0,0E0,0E0,0E0,0E0,0E0,0E0,0E0,0E0,0E0,0E0,0E0,0E0,0E0],"parents":[2147483647,0,0,1,1,2,2,3,3,4,4,5,5,6,6,7,7,8,8,10,10,11,11,12,12,13,13,14,14],"right_children":[2,4,6,8,10,12,14,16,18,-1,20,22,24,26,28,-1,-1,-1,-1,-1,-1,-1,-1,-1,-1,-1,-1,-1,-1],"split_conditions":[8.7E0,5.08E1,4.1E0,2.9142857E0,5.68E1,3E-1,1.26E-1,7.5792164E-1,3.1285715E0,-3.309054E-1,8E-2,7.28E1,1.22E1,2.45E1,3.67E-1,1.0197572E-2,-4.0117845E-2,-1.295137E-1,-4.2258352E-2,-4.280583E-2,-9.7142E-2,-3.5811275E-2,-2.2327122E-1,3.0043684E-2,-2.5234118E-3,1.3890685E-1,4.4278525E-2,-6.1870396E-2,2.7595663E-1],"split_indices":[2,0,12,11,1,9,5,3,11,0,8,0,6,0,5,0,0,0,0,0,0,0,0,0,0,0,0,0,0],"split_type":[0,0,0,0,0,0,0,0,0,0,0,0,0,0,0,0,0,0,0,0,0,0,0,0,0,0,0,0,0],"sum_hessian":[6.58E2,1.14E2,5.44E2,7.1E1,4.3E1,4.51E2,9.3E1,4.5E1,2.6E1,1E0,4.2E1,7.5E1,3.76E2,8E1,1.3E1,2.3E1,2.2E1,5E0,2.1E1,2.8E1,1.4E1,7.3E1,2E0,1.2E2,2.56E2,2E1,6E1,1.2E1,1E0],"tree_param":{"num_deleted":"0","num_feature":"14","num_nodes":"29","size_leaf_vector":"1"}},{"base_weights":[2.0633716E-2,-1.7479557E-1,1.1356132E0,-9.054031E-1,2.7404806E-2,3.07854E0,6.881264E-1,-4.2668912E-1,-1.5498753E0,3.7142977E-1,-5.6731766E-1,3.7668722E0,-1.0276662E-1,9.19968E-1,-7.373493E-1,-1.0107918E-2,-7.050354E-2,-4.783293E-2,-1.2385338E-1,5.493235E-2,3.6412359E-3,-1.19985856E-1,-2.0782072E-2,1.0356731E-1,2.696934E-1,-1.4648186E-1,4.4055793E-2,-8.617423E-2,6.0138304E-2],"categories":[],"categories_nodes":[],"categories_segments":[],"categories_sizes":[],"default_left":[0,0,0,0,0,0,0,0,0,0,0,0,0,0,0,0,0,0,0,0,0,0,0,0,0,0,0,0,0],"id":24,"left_children":[1,3,5,7,9,11,13,15,17,19,21,23,-1,25,27,-1,-1,-1,-1,-1,-1,-1,-1,-1,-1,-1,-1,-1,-1],"loss_changes":[1.4192476E2,8.187906E1,8.410549E1,3.6943466E1,8.885057E1,6.84828E1,2.625048E1,1.5892927E1,2.9485878E1,6.87047E1,3.380088E1,5.1190826E1,0E0,2.0416546E1,2.8247414E1,0E0,0E0,0E0,0E0,0E0,0E0,0E0,0E0,0E0,0E0,0E0,0E0,0E0,0E0],"parents":[2147483647,0,0,1,1,2,2,3,3,4,4,5,5,6,6,7,7,8,8,9,9,10,10,11,11,13,13,14,14],"right_children":[2,4,6,8,10,12,14,16,18,20,22,24,-1,26,28,-1,-1,-1,-1,-1,-1,-1,-1,-1,-1,-1,-1,-1,-1],"split_conditions":[5.9E0,1.91E3,1.85E1,1.62E1,5.43E1,1.75E1,1.81E-1,3.5490441E0,9.3993753E-1,-5.1205516E-1,6.3E0,4.7E0,-1.0276662E-1,3.11E2,7.12E-1,-1.0107918E-2,-7.050354E-2,-4.783293E-2,-1.2385338E-1,5.493235E-2,3.6412359E-3,-1.19985856E-1,-2.0782072E-2,1.0356731E-1,2.696934E-1,-1.4648186E-1,4.4055793E-2,-8.617423E-2,6.0138304E-2],"split_indices":[9,7,0,6,0,6,5,13,4,3,2,12,0,7,5,0,0,0,0,0,0,0,0,0,0,0,0,0,0],"split_type":[0,0,0,0,0,0,0,0,0,0,0,0,0,0,0,0,0,0,0,0,0,0,0,0,0,0,0,0,0],"sum_hessian":[6.51E2,5.54E2,9.7E1,1.2E2,4.34E2,1.8E1,7.9E1,6.9E1,5.1E1,2.75E2,1.59E2,1.6E1,2E0,6.8E1,1.1E1,5.9E1,1E1,3.7E1,1.4E1,6.9E1,2.06E2,7E0,1.52E2,1E1,6E0,1E0,6.7E1,7E0,4E0],"tree_param":{"num_deleted":"0","num_feature":"14","num_nodes":"29","size_leaf_vector":"1"}},{"base_weights":[-3.3359177E-2,-2.2666864E-1,1.0266701E0,-9.217059E-1,-6.0333326E-2,3.0507965E0,6.1737156E-1,-7.586882E-1,-2.201112E0,4.7549552E-1,-2.7449176E-1,3.767356E0,-9.848767E-2,8.909138E-1,-6.546384E-1,-1.9848585E-2,-5.5802304E-2,-3.1609312E-1,-7.4417606E-2,4.3943275E-2,-1.6024806E-2,4.653069E-2,-1.6956287E-2,9.859293E-2,2.431556E-1,-1.4075302E-1,4.2559646E-2,-5.9091717E-2,8.777207E-2],"categories":[],"categories_nodes":[],"categories_segments":[],"categories_sizes":[],"default_left":[0,0,0,0,0,0,0,0,0,0,0,0,0,0,0,0,0,0,0,0,0,0,0,0,0,0,0,0,0],"id":25,"left_children":[1,3,5,7,9,11,13,15,17,19,21,23,-1,25,27,-1,-1,-1,-1,-1,-1,-1,-1,-1,-1,-1,-1,-1,-1],"loss_changes":[1.3570123E2,6.4734604E1,8.430279E1,2.2278343E1,5.1898884E1,6.58112E1,2.970789E1,1.4778992E1,2.971024E1,5.5262894E1,4.5429512E1,3.8047806E1,0E0,1.8906471E1,2.7102268E1,0E0,0E0,0E0,0E0,0E0,0E0,0E0,0E0,0E0,0E0,0E0,0E0,0E0,0E0],"parents":[2147483647,0,0,1,1,2,2,3,3,4,4,5,5,6,6,7,7,8,8,9,9,10,10,11,11,13,13,14,14],"right_children":[2,4,6,8,10,12,14,16,18,20,22,24,-1,26,28,-1,-1,-1,-1,-1,-1,-1,-1,-1,-1,-1,-1,-1,-1],"split_conditions":[5.9E0,8.7E0,1.99E1,6.7E-1,-5.1205516E-1,1.5E1,1.81E-1,5.4E-2,-7E-1,5.6E1,9.4E0,4.3428574E0,-9.848767E-2,3.11E2,7.12E-1,-1.9848585E-2,-5.5802304E-2,-3.1609312E-1,-7.4417606E-2,4.3943275E-2,-1.6024806E-2,4.653069E-2,-1.6956287E-2,9.859293E-2,2.431556E-1,-1.4075302E-1,4.2559646E-2,-5.9091717E-2,8.777207E-2],"split_indices":[9,2,0,5,3,6,5,8,10,0,6,12,0,7,5,0,0,0,0,0,0,0,0,0,0,0,0,0,0],"split_type":[0,0,0,0,0,0,0,0,0,0,0,0,0,0,0,0,0,0,0,0,0,0,0,0,0,0,0,0,0],"sum_hessian":[6.62E2,5.6E2,1.02E2,1.08E2,4.52E2,1.7E1,8.5E1,9.6E1,1.2E1,1.29E2,3.23E2,1.5E1,2E0,7E1,1.5E1,5.9E1,3.7E1,1E0,1.1E1,8E1,4.9E1,2.4E1,2.99E2,8E0,7E0,1E0,6.9E1,1.2E1,3E0],"tree_param":{"num_deleted":"0","num_feature":"14","num_nodes":"29","size_leaf_vector":"1"}},{"base_weights":[-4.3313265E-2,-5.556436E-1,3.2642397E-1,2.2115837E-1,-7.80874E-1,-7.071258E-2,1.113615E0,3.823738E-1,-6.730009E-2,-4.9177885E-1,-1.3824722E0,6.378302E-1,-3.8182953E-1,2.8874328E0,8.473327E-1,-4.2481446E-3,5.129227E-2,-2.6559118E-2,1.01325706E-1,-5.4946948E-2,-2.581231E-1,3.538835E-2,-2.124034E-1,6.755177E-2,-2.120465E-2,1.4746323E-1,-1.3823676E-1,3.4127027E-2,2.132704E-1],"categories":[],"categories_nodes":[],"categories_segments":[],"categories_sizes":[],"default_left":[0,0,0,0,0,0,0,0,0,0,0,0,0,0,0,0,0,0,0,0,0,0,0,0,0,0,0,0,0],"id":26,"left_children":[1,3,5,7,9,11,13,15,-1,17,19,21,23,25,27,-1,-1,-1,-1,-1,-1,-1,-1,-1,-1,-1,-1,-1,-1],"loss_changes":[1.2072011E2,4.677069E1,1.1574013E2,1.6864681E1,3.5902954E1,5.4288414E1,5.824034E1,2.031371E1,0E0,4.083501E1,4.282225E1,6.433501E1,3.0807161E1,4.255005E1,3.3820328E1,0E0,0E0,0E0,0E0,0E0,0E0,0E0,0E0,0E0,0E0,0E0,0E0,0E0,0E0],"parents":[2147483647,0,0,1,1,2,2,3,3,4,4,5,5,6,6,7,7,9,9,10,10,11,11,12,12,13,13,14,14],"right_children":[2,4,6,8,10,12,14,16,-1,18,20,22,24,26,28,-1,-1,-1,-1,-1,-1,-1,-1,-1,-1,-1,-1,-1,-1],"split_conditions":[1.42E1,2.69E1,3.3357143E0,2.4E-1,2.6037648E-1,1.22E1,1.89E1,3E0,-6.730009E-2,3.5762444E0,5.02E1,7.28E1,-9.011687E-1,1.26E-1,5.97E-1,-4.2481446E-3,5.129227E-2,-2.6559118E-2,1.01325706E-1,-5.4946948E-2,-2.581231E-1,3.538835E-2,-2.124034E-1,6.755177E-2,-2.120465E-2,1.4746323E-1,-1.3823676E-1,3.4127027E-2,2.132704E-1],"split_indices":[2,0,12,5,4,6,0,9,0,13,0,0,3,5,5,0,0,0,0,0,0,0,0,0,0,0,0,0,0],"split_type":[0,0,0,0,0,0,0,0,0,0,0,0,0,0,0,0,0,0,0,0,0,0,0,0,0,0,0,0,0],"sum_hessian":[6.37E2,2.67E2,3.7E2,6E1,2.07E2,2.46E2,1.24E2,5.5E1,5E0,1.4E2,6.7E1,7.5E1,1.71E2,1.6E1,1.08E2,3.4E1,2.1E1,1.35E2,5E0,6.5E1,2E0,7.3E1,2E0,8E0,1.63E2,1.5E1,1E0,1.06E2,2E0],"tree_param":{"num_deleted":"0","num_feature":"14","num_nodes":"29","size_leaf_vector":"1"}},{"base_weights":[-1.0541225E-2,-7.252579E-1,1.9298771E-1,2.6687676E-1,-7.7666676E-1,-1.8386011E-1,6.126578E-1,7.2982347E-1,-8.7565756E-1,-2.536516E0,-1.3879408E-1,2.3801682E0,3.9331272E-1,9.123819E-2,-1.5570776E-2,-2.7849771E-2,-7.708127E-2,-1.6873913E-1,-2.336481E-2,-9.6245995E-3,3.6464553E-2,8.414664E-2,1.969273E-1,1.3441195E-2,1.3794518E-1],"categories":[],"categories_nodes":[],"categories_segments":[],"categories_sizes":[],"default_left":[0,0,0,0,0,0,0,0,0,0,0,0,0,0,0,0,0,0,0,0,0,0,0,0,0],"id":27,"left_children":[1,3,5,-1,7,9,11,13,15,17,19,21,23,-1,-1,-1,-1,-1,-1,-1,-1,-1,-1,-1,-1],"loss_changes":[9.7218475E1,5.1745033E1,8.228282E1,0E0,2.2033066E1,2.8976326E1,9.5255135E1,1.3145365E1,2.9377174E1,1.2622303E1,1.9974678E1,2.5917694E1,5.3988514E1,0E0,0E0,0E0,0E0,0E0,0E0,0E0,0E0,0E0,0E0,0E0,0E0],"parents":[2147483647,0,0,1,1,2,2,4,4,5,5,6,6,7,7,8,8,9,9,10,10,11,11,12,12],"right_children":[2,4,6,-1,8,10,12,14,16,18,20,22,24,-1,-1,-1,-1,-1,-1,-1,-1,-1,-1,-1,-1],"split_conditions":[1.919E3,3.3E0,3E0,2.6687676E-1,9.4E0,-5E-1,2.08E1,2.81E1,9.3993753E-1,3.2E1,7.813E3,2.29E1,2.94E1,9.123819E-2,-1.5570776E-2,-2.7849771E-2,-7.708127E-2,-1.6873913E-1,-2.336481E-2,-9.6245995E-3,3.6464553E-2,8.414664E-2,1.969273E-1,1.3441195E-2,1.3794518E-1],"split_indices":[7,0,9,0,6,11,0,0,4,0,7,2,2,0,0,0,0,0,0,0,0,0,0,0,0],"split_type":[0,0,0,0,0,0,0,0,0,0,0,0,0,0,0,0,0,0,0,0,0,0,0,0,0],"sum_hessian":[6.68E2,1.48E2,5.2E2,1E0,1.47E2,2.74E2,2.46E2,9E0,1.38E2,5E0,2.69E2,2.7E1,2.19E2,4E0,5E0,1.07E2,3.1E1,3E0,2E0,2.49E2,2E1,2.2E1,5E0,2.12E2,7E0],"tree_param":{"num_deleted":"0","num_feature":"14","num_nodes":"25","size_leaf_vector":"1"}},{"base_weights":[-4.5772452E-2,-4.9844193E-1,2.9497784E-1,-3.2749808E-1,-1.2903879E0,1.9887337E-1,2.698278E0,-6.6682436E-2,-7.820895E-1,-9.341254E-1,-1.947175E0,7.744765E-1,-1.3134477E-1,3.7848363E0,-1.2721741E0,-3.0973885E-2,1.9166207E-2,-2.9391862E-2,-1.7154738E-1,-7.242109E-2,-6.245821E-3,-2.9254657E-1,-7.1374856E-2,3.2514438E-2,2.505128E-1,-1.0683912E-2,1.2322964E-1,3.9979994E-2,1.9592798E-1,-1.3174117E-1,-1.267259E-2],"categories":[],"categories_nodes":[],"categories_segments":[],"categories_sizes":[],"default_left":[0,0,0,0,0,0,0,0,0,0,0,0,0,0,0,0,0,0,0,0,0,0,0,0,0,0,0,0,0,0,0],"id":28,"left_children":[1,3,5,7,9,11,13,15,17,19,21,23,25,27,29,-1,-1,-1,-1,-1,-1,-1,-1,-1,-1,-1,-1,-1,-1,-1,-1],"loss_changes":[9.95342E1,3.7435623E1,8.49101E1,2.7029053E1,1.1202782E1,6.7336464E1,6.169758E1,4.544821E1,3.0689327E1,1.7615414E1,2.5668152E1,2.6950531E1,7.098953E1,1.919725E1,5.063346E0,0E0,0E0,0E0,0E0,0E0,0E0,0E0,0E0,0E0,0E0,0E0,0E0,0E0,0E0,0E0,0E0],"parents":[2147483647,0,0,1,1,2,2,3,3,4,4,5,5,6,6,7,7,8,8,9,9,10,10,11,11,12,12,13,13,14,14],"right_children":[2,4,6,8,10,12,14,16,18,20,22,24,26,28,30,-1,-1,-1,-1,-1,-1,-1,-1,-1,-1,-1,-1,-1,-1,-1,-1],"split_conditions":[1.42E1,2.83E-1,5.45E0,4.37E1,5.08E1,-4.20831E-1,1.37E1,2.7071428E0,3.7447366E-1,3.67E1,5.14E1,5.97E-1,7.7E0,1.55E1,6.2E0,-3.0973885E-2,1.9166207E-2,-2.9391862E-2,-1.7154738E-1,-7.242109E-2,-6.245821E-3,-2.9254657E-1,-7.1374856E-2,3.2514438E-2,2.505128E-1,-1.0683912E-2,1.2322964E-1,3.9979994E-2,1.9592798E-1,-1.3174117E-1,-1.267259E-2],"split_indices":[2,5,12,0,0,3,10,12,4,0,0,5,10,2,0,0,0,0,0,0,0,0,0,0,0,0,0,0,0,0,0],"split_type":[0,0,0,0,0,0,0,0,0,0,0,0,0,0,0,0,0,0,0,0,0,0,0,0,0,0,0,0,0,0,0],"sum_hessian":[6.45E2,2.77E2,3.68E2,2.28E2,4.9E1,3.54E2,1.4E1,1.45E2,8.3E1,3.2E1,1.7E1,1.29E2,2.25E2,1.1E1,3E0,6.4E1,8.1E1,8E1,3E0,1.7E1,1.5E1,1E0,1.6E1,1.28E2,1E0,2.17E2,8E0,2E0,9E0,1E0,2E0],"tree_param":{"num_deleted":"0","num_feature":"14","num_nodes":"31","size_leaf_vector":"1"}},{"base_weights":[-5.6043554E-2,1.9834633E-1,-6.352977E-1,4.3050405E-1,-7.583059E-1,-4.0183488E-1,-1.2876965E0,-1.3736802E-1,8.5834473E-1,-1.4506011E0,-3.1133711E-2,-1.0604241E-1,-9.3454784E-1,2.6525998E-1,-1.6128931E0,2.357345E-3,-6.0270835E-2,3.2651257E-2,1.4569789E-1,-4.716184E-2,-1.06435046E-1,7.2694E-2,-2.7074963E-2,8.049428E-2,-1.3867162E-2,-2.8110516E-1,-3.614507E-2,7.064343E-2,-1.8428154E-2,-8.931002E-2,1.8154668E-2],"categories":[],"categories_nodes":[],"categories_segments":[],"categories_sizes":[],"default_left":[0,0,0,0,0,0,0,0,0,0,0,0,0,0,0,0,0,0,0,0,0,0,0,0,0,0,0,0,0,0,0],"id":29,"left_children":[1,3,5,7,9,11,13,15,17,19,21,23,25,27,29,-1,-1,-1,-1,-1,-1,-1,-1,-1,-1,-1,-1,-1,-1,-1,-1],"loss_changes":[9.56787E1,1.0023534E2,3.008152E1,8.8254814E1,4.4341686E1,2.2997917E1,2.641018E1,3.618238E1,6.2056976E1,1.6200699E1,4.1550022E1,3.7083195E1,3.3567715E1,8.312316E0,3.442965E1,0E0,0E0,0E0,0E0,0E0,0E0,0E0,0E0,0E0,0E0,0E0,0E0,0E0,0E0,0E0,0E0],"parents":[2147483647,0,0,1,1,2,2,3,3,4,4,5,5,6,6,7,7,8,8,9,9,10,10,11,11,12,12,13,13,14,14],"right_children":[2,4,6,8,10,12,14,16,18,20,22,24,26,28,30,-1,-1,-1,-1,-1,-1,-1,-1,-1,-1,-1,-1,-1,-1,-1,-1],"split_conditions":[4.3E-2,5.93E1,4.8E0,1.42E1,6.724E3,5.08E1,-6.6045654E-1,5.139E3,9.2E0,8.49E1,3E-1,-3.4336686E-1,5.14E1,2.2381966E0,7.8E0,2.357345E-3,-6.0270835E-2,3.2651257E-2,1.4569789E-1,-4.716184E-2,-1.06435046E-1,7.2694E-2,-2.7074963E-2,8.049428E-2,-1.3867162E-2,-2.8110516E-1,-3.614507E-2,7.064343E-2,-1.8428154E-2,-8.931002E-2,1.8154668E-2],"split_indices":[5,0,10,2,7,0,4,7,9,1,10,3,0,13,10,0,0,0,0,0,0,0,0,0,0,0,0,0,0,0,0],"split_type":[0,0,0,0,0,0,0,0,0,0,0,0,0,0,0,0,0,0,0,0,0,0,0,0,0,0,0,0,0,0,0],"sum_hessian":[6.49E2,4.51E2,1.98E2,3.63E2,8.8E1,1.46E2,5.2E1,1.56E2,2.07E2,4.5E1,4.3E1,9.4E1,5.2E1,9E0,4.3E1,1.35E2,2.1E1,1.97E2,1E1,3.2E1,1.3E1,1.1E1,3.2E1,9E0,8.5E1,1E0,5.1E1,3E0,6E0,3.6E1,7E0],"tree_param":{"num_deleted":"0","num_feature":"14","num_nodes":"31","size_leaf_vector":"1"}},{"base_weights":[6.0182693E-3,-5.150543E-1,2.4806282E-1,-2.6631892E-1,-1.0483085E0,1.3922895E0,1.415422E-1,-6.18513E-1,1.7546877E-1,-9.58141E-1,-2.701113E-1,-5.934268E-2,1.8095206E0,7.1470395E-2,1.9682668E0,-5.2830264E-2,-1.500543E-2,-5.156919E-2,2.1897603E-2,1.9119276E-2,-4.8974898E-2,1.1075294E-2,9.9072665E-2,2.6487548E-2,-9.199124E-3,2.2515395E-1,6.4260796E-2],"categories":[],"categories_nodes":[],"categories_segments":[],"categories_sizes":[],"default_left":[0,0,0,0,0,0,0,0,0,0,0,0,0,0,0,0,0,0,0,0,0,0,0,0,0,0,0],"id":30,"left_children":[1,3,5,7,9,11,13,15,17,19,-1,-1,21,23,25,-1,-1,-1,-1,-1,-1,-1,-1,-1,-1,-1,-1],"loss_changes":[8.276759E1,2.7548794E1,5.457032E1,2.2137697E1,2.9024307E1,4.3708107E1,5.244815E1,1.2578196E1,2.6720444E1,1.2914791E1,0E0,0E0,2.1405373E1,5.7559753E1,2.3433361E1,0E0,0E0,0E0,0E0,0E0,0E0,0E0,0E0,0E0,0E0,0E0,0E0],"parents":[2147483647,0,0,1,1,2,2,3,3,4,4,5,5,6,6,7,7,8,8,9,9,12,12,13,13,14,14],"right_children":[2,4,6,8,10,12,14,16,18,20,-1,-1,22,24,26,-1,-1,-1,-1,-1,-1,-1,-1,-1,-1,-1,-1],"split_conditions":[1.18E1,5.08E1,9.1E0,2.316E3,2.2701082E-1,1.5571429E0,8.075E3,1.29E1,3E-1,-9.962103E-1,-2.701113E-1,-5.934268E-2,7.4E0,-4.990686E-1,8.194E3,-5.2830264E-2,-1.500543E-2,-5.156919E-2,2.1897603E-2,1.9119276E-2,-4.8974898E-2,1.1075294E-2,9.9072665E-2,2.6487548E-2,-9.199124E-3,2.2515395E-1,6.4260796E-2],"split_indices":[2,0,6,7,4,12,7,6,9,3,0,0,6,3,7,0,0,0,0,0,0,0,0,0,0,0,0],"split_type":[0,0,0,0,0,0,0,0,0,0,0,0,0,0,0,0,0,0,0,0,0,0,0,0,0,0,0],"sum_hessian":[6.56E2,2.08E2,4.48E2,1.42E2,6.6E1,3.8E1,4.1E2,7.9E1,6.3E1,6.5E1,1E0,5E0,3.3E1,3.95E2,1.5E1,2.6E1,5.3E1,1.2E1,5.1E1,6E0,5.9E1,7E0,2.6E1,1.37E2,2.58E2,2E0,1.3E1],"tree_param":{"num_deleted":"0","num_feature":"14","num_nodes":"27","size_leaf_vector":"1"}},{"base_weights":[5.0065193E-2,-1.0255536E-1,9.0597475E-1,1.069564E0,-1.9902627E-1,1.6586821E0,7.2169885E-2,1.6227586E0,-3.6048058E-1,-2.7018753E-1,1.3427522E0,1.2825825E0,3.714671E0,1.6213163E0,-3.922996E-1,1.53155895E-2,8.571228E-2,-7.02508E-2,1.1705217E-2,8.994491E-3,-2.0675076E-2,3.8088027E-2,1.9607818E-1,-5.5655865E-3,8.248522E-2,1.2142453E-1,2.2979529E-1,1.6249318E-1,-4.9481504E-3,1.2463599E-1,-2.1890666E-2],"categories":[],"categories_nodes":[],"categories_segments":[],"categories_sizes":[],"default_left":[0,0,0,0,0,0,0,0,0,0,0,0,0,0,0,0,0,0,0,0,0,0,0,0,0,0,0,0,0,0,0],"id":31,"left_children":[1,3,5,7,9,11,13,15,17,19,21,23,25,27,29,-1,-1,-1,-1,-1,-1,-1,-1,-1,-1,-1,-1,-1,-1,-1,-1],"loss_changes":[8.730349E1,6.4145645E1,6.3432724E1,3.422629E1,5.753968E1,4.0355347E1,3.4743454E1,1.19268875E1,9.291652E0,4.5991146E1,3.3912445E1,3.6299072E1,9.560982E0,3.926217E1,1.1946356E1,0E0,0E0,0E0,0E0,0E0,0E0,0E0,0E0,0E0,0E0,0E0,0E0,0E0,0E0,0E0,0E0],"parents":[2147483647,0,0,1,1,2,2,3,3,4,4,5,5,6,6,7,7,8,8,9,9,10,10,11,11,12,12,13,13,14,14],"right_children":[2,4,6,8,10,12,14,16,18,20,22,24,26,28,30,-1,-1,-1,-1,-1,-1,-1,-1,-1,-1,-1,-1,-1,-1,-1,-1],"split_conditions":[5.9E0,9E0,3.84E1,4E-3,7.836E3,2.41E1,6.4E0,7.4E0,-1E-1,-5.1205516E-1,3.7E0,2.266E3,5.135714E0,3E0,1.8071429E0,1.53155895E-2,8.571228E-2,-7.02508E-2,1.1705217E-2,8.994491E-3,-2.0675076E-2,3.8088027E-2,1.9607818E-1,-5.5655865E-3,8.248522E-2,1.2142453E-1,2.2979529E-1,1.6249318E-1,-4.9481504E-3,1.2463599E-1,-2.1890666E-2],"split_indices":[9,6,0,5,7,2,9,6,9,3,9,7,12,12,12,0,0,0,0,0,0,0,0,0,0,0,0,0,0,0,0],"split_type":[0,0,0,0,0,0,0,0,0,0,0,0,0,0,0,0,0,0,0,0,0,0,0,0,0,0,0,0,0,0,0],"sum_hessian":[6.68E2,5.67E2,1.01E2,4.3E1,5.24E2,5.3E1,4.8E1,3.1E1,1.2E1,5.01E2,2.3E1,4.5E1,8E0,1.1E1,3.7E1,6E0,2.5E1,4E0,8E0,1.46E2,3.55E2,2E1,3E0,1.3E1,3.2E1,5E0,3E0,5E0,6E0,1E0,3.6E1],"tree_param":{"num_deleted":"0","num_feature":"14","num_nodes":"31","size_leaf_vector":"1"}},{"base_weights":[-6.1961263E-2,1.6728914E-1,-6.4688444E-1,1.0387033E-1,3.3078625E0,2.2966684E-1,-6.831589E-1,-3.4413424E-1,3.9126086E-1,1.8254045E-1,1.9601896E-2,-3.779872E-1,-1.1286987E0,-7.0408714E-4,-4.374023E-2,1.45790735E-2,1.4181027E-1,-2.2392392E-3,-3.468394E-2,-4.033165E-2,-1.2864721E-1],"categories":[],"categories_nodes":[],"categories_segments":[],"categories_sizes":[],"default_left":[0,0,0,0,0,0,0,0,0,0,0,0,0,0,0,0,0,0,0,0,0],"id":32,"left_children":[1,3,5,7,9,-1,11,13,15,-1,-1,17,19,-1,-1,-1,-1,-1,-1,-1,-1],"loss_changes":[8.626311E1,9.1945595E1,3.8570053E1,5.8361904E1,2.045578E1,0E0,2.4410934E1,3.7114E1,4.89965E1,0E0,0E0,1.4065877E1,2.8264977E1,0E0,0E0,0E0,0E0,0E0,0E0,0E0,0E0],"parents":[2147483647,0,0,1,1,2,2,3,3,4,4,6,6,7,7,8,8,11,11,12,12],"right_children":[2,4,6,8,10,-1,12,14,16,-1,-1,18,20,-1,-1,-1,-1,-1,-1,-1,-1],"split_conditions":[6E-2,1E1,4.7E0,1.43E1,3.32E1,2.2966684E-1,4.179029E-1,4.77E1,5.3285713E0,1.8254045E-1,1.9601896E-2,5.42E1,4.31E1,-7.0408714E-4,-4.374023E-2,1.45790735E-2,1.4181027E-1,-2.2392392E-3,-3.468394E-2,-4.033165E-2,-1.2864721E-1],"split_indices":[5,9,0,2,0,0,4,0,12,0,0,0,0,0,0,0,0,0,0,0,0],"split_type":[0,0,0,0,0,0,0,0,0,0,0,0,0,0,0,0,0,0,0,0,0],"sum_hessian":[6.43E2,4.62E2,1.81E2,4.53E2,9E0,1E0,1.8E2,1.77E2,2.76E2,7E0,2E0,1.07E2,7.3E1,1.17E2,6E1,2.7E2,6E0,5.9E1,4.8E1,6.5E1,8E0],"tree_param":{"num_deleted":"0","num_feature":"14","num_nodes":"21","size_leaf_vector":"1"}},{"base_weights":[4.591608E-3,-7.9834735E-1,1.665323E-1,-6.6243154E-1,-1.591825E0,8.0627024E-2,1.6002839E0,-1.6900996E0,-4.6697238E-1,-2.537074E-1,-1.267454E0,-6.9035846E-1,2.1689078E-1,2.2899678E0,-1.2577909E0,-6.160453E-2,-2.3481558E-1,1.27776E-2,-2.7322829E-2,-1.3155514E-1,-4.3548044E-2,-1.9652463E-2,-1.4045228E-1,1.2793663E-2,-5.6172658E-2,1.246489E-1,-1.7311959E-2,3.4964137E-2,-1.01279676E-1],"categories":[],"categories_nodes":[],"categories_segments":[],"categories_sizes":[],"default_left":[0,0,0,0,0,0,0,0,0,0,0,0,0,0,0,0,0,0,0,0,0,0,0,0,0,0,0,0,0],"id":33,"left_children":[1,3,5,7,9,11,13,15,17,-1,19,21,23,25,27,-1,-1,-1,-1,-1,-1,-1,-1,-1,-1,-1,-1,-1,-1],"loss_changes":[8.610564E1,1.1805977E1,6.783866E1,1.8968414E1,2.0398167E1,5.465789E1,6.179239E1,1.5507111E1,8.900681E0,0E0,6.929634E0,4.768612E1,4.613627E1,3.454373E1,1.3029413E1,0E0,0E0,0E0,0E0,0E0,0E0,0E0,0E0,0E0,0E0,0E0,0E0,0E0,0E0],"parents":[2147483647,0,0,1,1,2,2,3,3,4,4,5,5,6,6,7,7,8,8,10,10,11,11,12,12,13,13,14,14],"right_children":[2,4,6,8,10,12,14,16,18,-1,20,22,24,26,28,-1,-1,-1,-1,-1,-1,-1,-1,-1,-1,-1,-1,-1,-1],"split_conditions":[8.7E0,6.7E-1,8E0,-7.4944234E-1,-7E-1,2.004E3,1.52E1,-7.5086427E-1,-1.754126E-1,-2.537074E-1,3.49E1,6.5E0,7.04E1,8.8E-2,-7.277015E-1,-6.160453E-2,-2.3481558E-1,1.27776E-2,-2.7322829E-2,-1.3155514E-1,-4.3548044E-2,-1.9652463E-2,-1.4045228E-1,1.2793663E-2,-5.6172658E-2,1.246489E-1,-1.7311959E-2,3.4964137E-2,-1.01279676E-1],"split_indices":[2,5,10,3,10,7,6,3,3,0,1,10,0,5,3,0,0,0,0,0,0,0,0,0,0,0,0,0,0],"split_type":[0,0,0,0,0,0,0,0,0,0,0,0,0,0,0,0,0,0,0,0,0,0,0,0,0,0,0,0,0],"sum_hessian":[6.62E2,1.11E2,5.51E2,9.5E1,1.6E1,5.2E2,3.1E1,1.5E1,8E1,1E0,1.5E1,7.8E1,4.42E2,2.5E1,6E0,1.4E1,1E0,1.3E1,6.7E1,2E0,1.3E1,7.1E1,7E0,4.22E2,2E1,2.1E1,4E0,2E0,4E0],"tree_param":{"num_deleted":"0","num_feature":"14","num_nodes":"29","size_leaf_vector":"1"}},{"base_weights":[1.66029E-2,-1.1568462E-1,8.649701E-1,8.357887E-1,-2.0626664E-1,2.5497081E0,4.2736527E-1,-5.654697E-2,1.1331391E0,-8.0924976E-1,-6.6416964E-2,3.131325E0,-8.8931926E-2,1.2938819E0,-3.4700555E-1,6.6431426E-2,3.6187556E-3,-5.481326E-2,1.8066874E-2,-1.9956106E-2,8.199444E-3,9.146875E-2,1.8486345E-1,1.9285254E-2,9.774819E-2,7.616559E-3,-8.630385E-2],"categories":[],"categories_nodes":[],"categories_segments":[],"categories_sizes":[],"default_left":[0,0,0,0,0,0,0,0,0,0,0,0,0,0,0,0,0,0,0,0,0,0,0,0,0,0,0],"id":34,"left_children":[1,3,5,7,9,11,13,-1,15,17,19,21,-1,23,25,-1,-1,-1,-1,-1,-1,-1,-1,-1,-1,-1,-1],"loss_changes":[7.332582E1,4.872152E1,6.4784195E1,3.0969326E1,4.3503708E1,4.88556E1,4.713948E1,0E0,1.6257885E1,4.990259E1,4.0128777E1,1.6473755E1,0E0,2.5553146E1,3.0700323E1,0E0,0E0,0E0,0E0,0E0,0E0,0E0,0E0,0E0,0E0,0E0,0E0],"parents":[2147483647,0,0,1,1,2,2,3,3,4,4,5,5,6,6,8,8,9,9,10,10,11,11,13,13,14,14],"right_children":[2,4,6,8,10,12,14,-1,16,18,20,22,-1,24,26,-1,-1,-1,-1,-1,-1,-1,-1,-1,-1,-1,-1],"split_conditions":[6.1E0,9E0,1.99E1,1.5571429E0,3E-1,1.75E1,7E0,-5.654697E-2,4E-3,2.9928572E0,1.33E1,4.7E0,-8.8931926E-2,1.9E1,1.35E-1,6.6431426E-2,3.6187556E-3,-5.481326E-2,1.8066874E-2,-1.9956106E-2,8.199444E-3,9.146875E-2,1.8486345E-1,1.9285254E-2,9.774819E-2,7.616559E-3,-8.630385E-2],"split_indices":[9,6,0,12,9,6,9,0,5,12,2,12,0,2,5,0,0,0,0,0,0,0,0,0,0,0,0],"split_type":[0,0,0,0,0,0,0,0,0,0,0,0,0,0,0,0,0,0,0,0,0,0,0,0,0,0,0],"sum_hessian":[6.53E2,5.65E2,8.8E1,4.9E1,5.16E2,1.8E1,7E1,6E0,4.3E1,9.7E1,4.19E2,1.6E1,2E0,3.3E1,3.7E1,3.2E1,1.1E1,7.2E1,2.5E1,1.66E2,2.53E2,8E0,8E0,1.7E1,1.6E1,2.8E1,9E0],"tree_param":{"num_deleted":"0","num_feature":"14","num_nodes":"27","size_leaf_vector":"1"}},{"base_weights":[-1.8754397E-2,-3.1986022E-1,3.269359E-1,-2.0704021E0,-2.796915E-1,-7.1159303E-1,5.8995163E-1,-1.5941283E-1,-1.0890929E0,-2.0235188E-1,-1.2157012E0,-2.6809618E-1,-1.7516679E0,4.6329343E-1,2.4451032E0,4.438471E-2,-7.256726E-2,-5.8158506E-2,-5.2865767E-3,-1.1242E-2,-9.338279E-2,-1.1976039E-1,-3.8489182E-3,-3.627969E-2,-1.653559E-1,3.7264537E-2,-1.0403125E-3,3.424042E-2,1.3298322E-1],"categories":[],"categories_nodes":[],"categories_segments":[],"categories_sizes":[],"default_left":[0,0,0,0,0,0,0,0,0,0,0,0,0,0,0,0,0,0,0,0,0,0,0,0,0,0,0,0,0],"id":35,"left_children":[1,3,5,7,9,11,13,-1,15,17,19,21,23,25,27,-1,-1,-1,-1,-1,-1,-1,-1,-1,-1,-1,-1,-1,-1],"loss_changes":[7.091359E1,2.5489532E1,8.668233E1,1.1454857E1,2.5725615E1,2.948956E1,5.927935E1,0E0,6.0341563E0,3.0335728E1,2.2947304E1,1.9784756E1,3.470102E1,4.3157238E1,1.4292023E1,0E0,0E0,0E0,0E0,0E0,0E0,0E0,0E0,0E0,0E0,0E0,0E0,0E0,0E0],"parents":[2147483647,0,0,1,1,2,2,3,3,4,4,5,5,6,6,8,8,9,9,10,10,11,11,12,12,13,13,14,14],"right_children":[2,4,6,8,10,12,14,-1,16,18,20,22,24,26,28,-1,-1,-1,-1,-1,-1,-1,-1,-1,-1,-1,-1,-1,-1],"split_conditions":[3E0,-5E-1,1.956E3,4.79E1,8.63E1,1.74E1,8.6E0,-1.5941283E-1,6.6929036E-1,-1.7E0,2.0285714E0,-4E-1,2.8E-2,3.9E0,1.57E1,4.438471E-2,-7.256726E-2,-5.8158506E-2,-5.2865767E-3,-1.1242E-2,-9.338279E-2,-1.1976039E-1,-3.8489182E-3,-3.627969E-2,-1.653559E-1,3.7264537E-2,-1.0403125E-3,3.424042E-2,1.3298322E-1],"split_indices":[9,11,7,1,1,6,10,0,3,9,12,10,8,10,2,0,0,0,0,0,0,0,0,0,0,0,0,0,0],"split_type":[0,0,0,0,0,0,0,0,0,0,0,0,0,0,0,0,0,0,0,0,0,0,0,0,0,0,0,0,0],"sum_hessian":[6.81E2,3.64E2,3.17E2,8E0,3.56E2,6.4E1,2.53E2,3E0,5E0,3.29E2,2.7E1,4.5E1,1.9E1,2.37E2,1.6E1,1E0,4E0,2.3E1,3.06E2,1.3E1,1.4E1,3E0,4.2E1,1.3E1,6E0,1.34E2,1.03E2,4E0,1.2E1],"tree_param":{"num_deleted":"0","num_feature":"14","num_nodes":"29","size_leaf_vector":"1"}},{"base_weights":[-8.172196E-3,-3.3336207E-1,2.7332658E-1,-4.2546734E-1,1.1162666E0,1.3218915E0,1.1804199E-1,-2.2760029E-1,-1.1065283E0,2.3678263E-1,8.272515E-1,9.539598E-1,1.8507423E-1,2.2465453E-1,-8.923486E-1,2.297285E-2,-2.0850264E-2,1.2149428E-2,-6.491355E-2,5.2691735E-2,-7.757305E-2,5.313664E-2,-3.1520758E-2,2.772941E-2,-5.5643586E-3,-1.6764803E-2,-8.964215E-2],"categories":[],"categories_nodes":[],"categories_segments":[],"categories_sizes":[],"default_left":[0,0,0,0,0,0,0,0,0,0,0,0,0,0,0,0,0,0,0,0,0,0,0,0,0,0,0],"id":36,"left_children":[1,3,5,7,9,11,13,15,17,-1,19,21,-1,23,25,-1,-1,-1,-1,-1,-1,-1,-1,-1,-1,-1,-1],"loss_changes":[5.980213E1,4.0529728E1,5.6968246E1,3.837009E1,2.1331285E1,4.6468697E1,3.288718E1,3.9630905E1,3.119075E1,0E0,1.5974987E1,1.611618E1,0E0,3.847214E1,1.6711082E1,0E0,0E0,0E0,0E0,0E0,0E0,0E0,0E0,0E0,0E0,0E0,0E0],"parents":[2147483647,0,0,1,1,2,2,3,3,4,4,5,5,6,6,7,7,8,8,10,10,11,11,13,13,14,14],"right_children":[2,4,6,8,10,12,14,16,18,-1,20,22,-1,24,26,-1,-1,-1,-1,-1,-1,-1,-1,-1,-1,-1,-1],"split_conditions":[2.6E0,7.813E3,2.08E1,5.91E1,4.69E1,2.29E1,8.6763364E-1,-3.4336686E-1,-7E-1,2.3678263E-1,2.68E1,4.4E-2,1.8507423E-1,4.64E1,4.514102E-2,2.297285E-2,-2.0850264E-2,1.2149428E-2,-6.491355E-2,5.2691735E-2,-7.757305E-2,5.313664E-2,-3.1520758E-2,2.772941E-2,-5.5643586E-3,-1.6764803E-2,-8.964215E-2],"split_indices":[9,7,0,0,0,2,4,3,9,0,2,5,0,0,3,0,0,0,0,0,0,0,0,0,0,0,0],"split_type":[0,0,0,0,0,0,0,0,0,0,0,0,0,0,0,0,0,0,0,0,0,0,0,0,0,0,0],"sum_hessian":[6.53E2,3.03E2,3.5E2,2.85E2,1.8E1,4.5E1,3.05E2,2.21E2,6.4E1,1E0,1.7E1,4E1,5E0,2.76E2,2.9E1,5.4E1,1.67E2,1.3E1,5.1E1,1.5E1,2E0,3.5E1,5E0,1.29E2,1.47E2,2E1,9E0],"tree_param":{"num_deleted":"0","num_feature":"14","num_nodes":"27","size_leaf_vector":"1"}},{"base_weights":[1.898303E-2,-4.0524918E-1,3.443358E-1,2.4807921E-1,-5.9370136E-1,8.0527395E-1,-4.607327E-2,1.242852E0,6.0879856E-2,-1.6779827E0,-4.792678E-1,8.894007E-1,-1.661609E-1,-1.7707726E0,3.5484426E-2,-5.237281E-3,8.0974385E-2,3.7177876E-2,-1.605449E-2,-5.4258946E-2,-1.3674279E-1,-7.813599E-3,-3.6684383E-2,2.350814E-2,7.960378E-2,3.7311239E-3,-1.7886324E-1,3.9269656E-2,-6.2169614E-3],"categories":[],"categories_nodes":[],"categories_segments":[],"categories_sizes":[],"default_left":[0,0,0,0,0,0,0,0,0,0,0,0,0,0,0,0,0,0,0,0,0,0,0,0,0,0,0,0,0],"id":37,"left_children":[1,3,5,7,9,11,13,15,17,19,21,23,-1,25,27,-1,-1,-1,-1,-1,-1,-1,-1,-1,-1,-1,-1,-1,-1],"loss_changes":[9.0995995E1,3.525526E1,6.716449E1,1.1913685E1,2.7418709E1,6.575028E1,2.8468208E1,8.002639E0,1.771903E1,1.2944054E1,2.103135E1,5.4438644E1,0E0,3.8191925E1,2.8668968E1,0E0,0E0,0E0,0E0,0E0,0E0,0E0,0E0,0E0,0E0,0E0,0E0,0E0,0E0],"parents":[2147483647,0,0,1,1,2,2,3,3,4,4,5,5,6,6,7,7,8,8,9,9,10,10,11,11,13,13,14,14],"right_children":[2,4,6,8,10,12,14,16,18,20,22,24,-1,26,28,-1,-1,-1,-1,-1,-1,-1,-1,-1,-1,-1,-1,-1,-1],"split_conditions":[1.42E1,2.69E1,1.33E1,2.7E-2,3.07E1,7.28E1,2.3E-2,7.1E0,8.7812364E-1,4.9E0,4.77E1,5.240103E-1,-1.661609E-1,8.7812364E-1,1.62E1,-5.237281E-3,8.0974385E-2,3.7177876E-2,-1.605449E-2,-5.4258946E-2,-1.3674279E-1,-7.813599E-3,-3.6684383E-2,2.350814E-2,7.960378E-2,3.7311239E-3,-1.7886324E-1,3.9269656E-2,-6.2169614E-3],"split_indices":[2,0,6,8,0,0,8,2,4,10,0,4,0,4,2,0,0,0,0,0,0,0,0,0,0,0,0,0,0],"split_type":[0,0,0,0,0,0,0,0,0,0,0,0,0,0,0,0,0,0,0,0,0,0,0,0,0,0,0,0,0],"sum_hessian":[6.59E2,2.86E2,3.73E2,6.4E1,2.22E2,1.71E2,2.02E2,1E1,5.4E1,2.1E1,2.01E2,1.68E2,3E0,9E0,1.93E2,3E0,7E0,1.9E1,3.5E1,1.6E1,5E0,1.07E2,9.4E1,1.2E2,4.8E1,5E0,4E0,3.3E1,1.6E2],"tree_param":{"num_deleted":"0","num_feature":"14","num_nodes":"29","size_leaf_vector":"1"}},{"base_weights":[4.615507E-2,-2.961488E-1,3.208114E-1,-7.986194E-2,-8.291484E-1,2.4668606E-1,2.8676615E0,-5.818832E-1,1.8634707E-1,-7.2274196E-1,-2.1395065E-1,3.9278328E-1,-5.330226E-1,1.7814592E0,1.9494888E-1,-2.3155127E-2,-1.9146629E-1,-6.390799E-3,3.2161925E-2,2.5285192E-2,-4.0308468E-2,2.8574152E-2,6.8886246E-4,-8.173146E-2,-5.5487603E-3,1.16907164E-1,1.0807134E-3],"categories":[],"categories_nodes":[],"categories_segments":[],"categories_sizes":[],"default_left":[0,0,0,0,0,0,0,0,0,0,0,0,0,0,0,0,0,0,0,0,0,0,0,0,0,0,0],"id":38,"left_children":[1,3,5,7,9,11,13,15,17,19,-1,21,23,25,-1,-1,-1,-1,-1,-1,-1,-1,-1,-1,-1,-1,-1],"loss_changes":[6.08548E1,3.31939E1,6.7655396E1,2.743617E1,3.4619442E1,3.9798286E1,1.5475876E1,1.5947678E1,2.3749691E1,1.921656E1,0E0,2.7635696E1,2.9278732E1,9.062832E0,0E0,0E0,0E0,0E0,0E0,0E0,0E0,0E0,0E0,0E0,0E0,0E0,0E0],"parents":[2147483647,0,0,1,1,2,2,3,3,4,4,5,5,6,6,7,7,8,8,9,9,11,11,12,12,13,13],"right_children":[2,4,6,8,10,12,14,16,18,20,-1,22,24,26,-1,-1,-1,-1,-1,-1,-1,-1,-1,-1,-1,-1,-1],"split_conditions":[1.42E1,5.08E1,5.45E0,1.722E3,3.2614416E-1,1.78E1,2.19E1,8.6E0,3.192857E0,9.7E0,-2.1395065E-1,7.45E1,1.797E3,4.6E-2,1.9494888E-1,-2.3155127E-2,-1.9146629E-1,-6.390799E-3,3.2161925E-2,2.5285192E-2,-4.0308468E-2,2.8574152E-2,6.8886246E-4,-8.173146E-2,-5.5487603E-3,1.16907164E-1,1.0807134E-3],"split_indices":[2,0,12,7,4,6,2,9,12,6,0,1,7,8,0,0,0,0,0,0,0,0,0,0,0,0,0],"split_type":[0,0,0,0,0,0,0,0,0,0,0,0,0,0,0,0,0,0,0,0,0,0,0,0,0,0,0],"sum_hessian":[6.47E2,2.88E2,3.59E2,2.05E2,8.3E1,3.49E2,1E1,7.1E1,1.34E2,8.1E1,2E0,2.94E2,5.5E1,6E0,4E0,7E1,1E0,8.3E1,5.1E1,1E1,7.1E1,1.77E2,1.17E2,1.3E1,4.2E1,4E0,2E0],"tree_param":{"num_deleted":"0","num_feature":"14","num_nodes":"27","size_leaf_vector":"1"}},{"base_weights":[6.6110482E-3,1.3758944E-1,-2.9747168E-2,1.8168098E-1,-4.9498552E-1,-9.400323E-1,3.565055E-1,-4.033533E-1,-1.4728814E0,-1.3969733E-1,-2.9737229E-2,3.1673096E-2,-5.274592E-3,-2.019985E-2,1.0430921E-1,-1.4929038E-1,-2.6067838E-2],"categories":[],"categories_nodes":[],"categories_segments":[],"categories_sizes":[],"default_left":[0,0,0,0,0,0,0,0,0,0,0,0,0,0,0,0,0],"id":39,"left_children":[1,-1,3,5,7,9,11,13,15,-1,-1,-1,-1,-1,-1,-1,-1],"loss_changes":[6.870265E1,0E0,5.9541275E1,8.164345E1,1.6837563E1,3.321859E1,6.0749825E1,2.409615E1,2.6600838E1,0E0,0E0,0E0,0E0,0E0,0E0,0E0,0E0],"parents":[2147483647,0,0,2,2,3,3,4,4,5,5,6,6,7,7,8,8],"right_children":[2,-1,4,6,8,10,12,14,16,-1,-1,-1,-1,-1,-1,-1,-1],"split_conditions":[7.4E0,1.3758944E-1,4.3E-2,3E-1,4.45E0,-9.8091614E-1,4.64E1,4.3071427E0,4.964286E0,-1.3969733E-1,-2.9737229E-2,3.1673096E-2,-5.274592E-3,-2.019985E-2,1.0430921E-1,-1.4929038E-1,-2.6067838E-2],"split_indices":[0,0,5,9,12,4,0,12,12,0,0,0,0,0,0,0,0],"split_type":[0,0,0,0,0,0,0,0,0,0,0,0,0,0,0,0,0],"sum_hessian":[6.12E2,7E0,6.05E2,4.16E2,1.89E2,5.6E1,3.6E2,1.73E2,1.6E1,6E0,5E1,2.06E2,1.54E2,1.7E2,3E0,5E0,1.1E1],"tree_param":{"num_deleted":"0","num_feature":"14","num_nodes":"17","size_leaf_vector":"1"}},{"base_weights":[-8.429947E-3,-7.138945E-1,1.2332399E-1,-9.3557847E-1,-1.17881425E-1,-1.5499917E-1,4.2473397E-1,-1.900664E0,-7.477547E-1,-7.6594114E-2,1.5693972E-1,-1.13625705E-1,-2.4196925E0,-6.590186E-1,6.3499755E-1,-4.5576286E-2,-1.5837969E-1,-2.3614611E-2,-6.979432E-2,-7.7132497E-4,8.716777E-2,-3.4204125E-3,-1.14795856E-1,-1.4367896E-1,3.5537623E-2,-7.681602E-3,-1.0971552E-1,7.951332E-2,1.9894479E-2],"categories":[],"categories_nodes":[],"categories_segments":[],"categories_sizes":[],"default_left":[0,0,0,0,0,0,0,0,0,0,0,0,0,0,0,0,0,0,0,0,0,0,0,0,0,0,0,0,0],"id":40,"left_children":[1,3,5,7,9,11,13,15,17,-1,19,21,23,25,27,-1,-1,-1,-1,-1,-1,-1,-1,-1,-1,-1,-1,-1,-1],"loss_changes":[6.0914707E1,1.3596115E1,4.633171E1,1.3383484E1,1.2455029E1,2.6828001E1,6.0475494E1,1.706519E1,1.110376E1,0E0,7.610894E0,2.5519665E1,1.375234E1,3.7792946E1,4.7953796E1,0E0,0E0,0E0,0E0,0E0,0E0,0E0,0E0,0E0,0E0,0E0,0E0,0E0,0E0],"parents":[2147483647,0,0,1,1,2,2,3,3,4,4,5,5,6,6,7,7,8,8,10,10,11,11,12,12,13,13,14,14],"right_children":[2,4,6,8,10,12,14,16,18,-1,20,22,24,26,28,-1,-1,-1,-1,-1,-1,-1,-1,-1,-1,-1,-1,-1,-1],"split_conditions":[8.7E0,2.9376862E0,3E0,5E-1,4.2E0,7.28E1,1.919E3,0E0,8E-2,-7.6594114E-2,3.987E3,2.7E1,1.74E1,1.722E3,2.08E1,-4.5576286E-2,-1.5837969E-1,-2.3614611E-2,-6.979432E-2,-7.7132497E-4,8.716777E-2,-3.4204125E-3,-1.14795856E-1,-1.4367896E-1,3.5537623E-2,-7.681602E-3,-1.0971552E-1,7.951332E-2,1.9894479E-2],"split_indices":[2,13,9,9,2,0,7,9,8,0,7,6,6,7,0,0,0,0,0,0,0,0,0,0,0,0,0,0,0],"split_type":[0,0,0,0,0,0,0,0,0,0,0,0,0,0,0,0,0,0,0,0,0,0,0,0,0,0,0,0,0],"sum_hessian":[6.55E2,1.03E2,5.52E2,7.5E1,2.8E1,2.87E2,2.65E2,1.2E1,6.3E1,4E0,2.4E1,2.82E2,5E0,4.3E1,2.22E2,8E0,4E0,5E1,1.3E1,2.2E1,2E0,2.78E2,4E0,4E0,1E0,3.4E1,9E0,3.1E1,1.91E2],"tree_param":{"num_deleted":"0","num_feature":"14","num_nodes":"29","size_leaf_vector":"1"}},{"base_weights":[-3.1288546E-2,-9.62778E-2,1.1432471E0,7.161066E-2,-4.6497613E-1,5.5150926E-1,2.3569617E0,2.6215187E-1,-5.9655267E-1,-5.893766E-1,7.389139E-1,9.706959E-1,-9.4013596E-1,2.925111E0,-1.3250037E-1,3.5792396E-3,5.3821888E-2,-6.371821E-4,-6.631482E-2,4.0326558E-2,-2.863432E-2,1.2726808E-1,1.298361E-2,2.6984027E-2,1.19367085E-1,-1.2098519E-1,-1.8523633E-2,-4.863822E-3,1.4514016E-1],"categories":[],"categories_nodes":[],"categories_segments":[],"categories_sizes":[],"default_left":[0,0,0,0,0,0,0,0,0,0,0,0,0,0,0,0,0,0,0,0,0,0,0,0,0,0,0,0,0],"id":41,"left_children":[1,3,5,7,9,11,13,15,17,19,21,23,25,27,-1,-1,-1,-1,-1,-1,-1,-1,-1,-1,-1,-1,-1,-1,-1],"loss_changes":[4.9702187E1,3.8211533E1,2.4294422E1,5.4014717E1,2.8983177E1,1.4594405E1,3.495384E1,5.6783684E1,4.8929417E1,1.4185009E1,1.7035643E1,1.103693E1,4.5827603E0,1.0413689E1,0E0,0E0,0E0,0E0,0E0,0E0,0E0,0E0,0E0,0E0,0E0,0E0,0E0,0E0,0E0],"parents":[2147483647,0,0,1,1,2,2,3,3,4,4,5,5,6,6,7,7,8,8,9,9,10,10,11,11,12,12,13,13],"right_children":[2,4,6,8,10,12,14,16,18,20,22,24,26,28,-1,-1,-1,-1,-1,-1,-1,-1,-1,-1,-1,-1,-1,-1,-1],"split_conditions":[8E0,5.43E1,2.01E1,4.8E0,2.52E1,1.11E1,2.62E1,1.15E-1,3.2E-2,1.2928572E0,2.61E1,1E1,3.3E0,2.4E0,-1.3250037E-1,3.5792396E-3,5.3821888E-2,-6.371821E-4,-6.631482E-2,4.0326558E-2,-2.863432E-2,1.2726808E-1,1.298361E-2,2.6984027E-2,1.19367085E-1,-1.2098519E-1,-1.8523633E-2,-4.863822E-3,1.4514016E-1],"split_indices":[10,0,2,10,2,10,2,8,5,12,2,9,0,0,0,0,0,0,0,0,0,0,0,0,0,0,0,0,0],"split_type":[0,0,0,0,0,0,0,0,0,0,0,0,0,0,0,0,0,0,0,0,0,0,0,0,0,0,0,0,0],"sum_hessian":[6.51E2,6.17E2,3.4E1,4.24E2,1.93E2,2.3E1,1.1E1,3.3E2,9.4E1,1.75E2,1.8E1,1.8E1,5E0,1E1,1E0,2.77E2,5.3E1,5.7E1,3.7E1,6E0,1.69E2,3E0,1.5E1,1.5E1,3E0,1E0,4E0,1E0,9E0],"tree_param":{"num_deleted":"0","num_feature":"14","num_nodes":"29","size_leaf_vector":"1"}},{"base_weights":[-9.85323E-3,-4.2683378E-1,1.7255947E-1,-9.11409E-1,-2.7620667E-1,-1.1666886E-1,5.069517E-1,-6.627816E-2,-1.6500688E0,-1.36167E-1,-2.3622157E-1,-6.6974044E-2,-9.079013E-2,7.330989E-1,-4.5864606E-1,-1.3505387E-2,9.633496E-2,-1.0892025E-1,-2.7460761E-2,-5.3916685E-3,-5.6114424E-2,8.030171E-3,-2.2790868E-2,4.9817596E-2,4.554793E-3,-8.55511E-3,-2.3035026E-1],"categories":[],"categories_nodes":[],"categories_segments":[],"categories_sizes":[],"default_left":[0,0,0,0,0,0,0,0,0,0,0,0,0,0,0,0,0,0,0,0,0,0,0,0,0,0,0],"id":42,"left_children":[1,3,5,7,9,11,13,15,17,-1,19,21,-1,23,25,-1,-1,-1,-1,-1,-1,-1,-1,-1,-1,-1,-1],"loss_changes":[4.976945E1,1.4482365E1,4.403309E1,2.9385616E1,1.677811E1,2.327826E1,4.6156296E1,1.1770309E1,2.0438454E1,0E0,1.7659916E1,2.6231968E1,0E0,4.163655E1,5.0220444E1,0E0,0E0,0E0,0E0,0E0,0E0,0E0,0E0,0E0,0E0,0E0,0E0],"parents":[2147483647,0,0,1,1,2,2,3,3,4,4,5,5,6,6,7,7,8,8,10,10,11,11,13,13,14,14],"right_children":[2,4,6,8,10,12,14,16,18,-1,20,22,-1,24,26,-1,-1,-1,-1,-1,-1,-1,-1,-1,-1,-1,-1],"split_conditions":[1.18E1,5E-1,2.9214287E0,1.2119346E-1,1.1E-2,4.1963134E0,8.4945047E-1,3.2785714E0,2.667619E0,-1.36167E-1,1.13E-1,7.56E1,-9.079013E-2,4.69E1,1.95E1,-1.3505387E-2,9.633496E-2,-1.0892025E-1,-2.7460761E-2,-5.3916685E-3,-5.6114424E-2,8.030171E-3,-2.2790868E-2,4.9817596E-2,4.554793E-3,-8.55511E-3,-2.3035026E-1],"split_indices":[2,9,12,4,8,13,3,12,13,0,8,1,0,0,6,0,0,0,0,0,0,0,0,0,0,0,0],"split_type":[0,0,0,0,0,0,0,0,0,0,0,0,0,0,0,0,0,0,0,0,0,0,0,0,0,0,0],"sum_hessian":[6.54E2,1.99E2,4.55E2,4.7E1,1.52E2,2.44E2,2.11E2,2.2E1,2.5E1,2E0,1.5E2,2.38E2,6E0,1.71E2,4E1,2E1,2E0,1.4E1,1.1E1,1.35E2,1.5E1,1.53E2,8.5E1,1.06E2,6.5E1,3.8E1,2E0],"tree_param":{"num_deleted":"0","num_feature":"14","num_nodes":"27","size_leaf_vector":"1"}},{"base_weights":[1.5521798E-2,-2.3018448E-2,1.5474516E0,8.4729046E-1,-9.8455004E-2,2.0271192E-1,1.0765868E0,5.904876E-1,2.416672E0,1.217918E-1,-3.8184544E-1,1.4038762E-1,1.0198931E-1,6.251937E-2,9.769541E-4,1.236393E-1,7.308777E-3,6.6812396E-2,1.6649747E-3,-1.5573552E-2,-1.318328E-1,1.10006735E-1,-2.9924933E-2],"categories":[],"categories_nodes":[],"categories_segments":[],"categories_sizes":[],"default_left":[0,0,0,0,0,0,0,0,0,0,0,0,0,0,0,0,0,0,0,0,0,0,0],"id":43,"left_children":[1,3,5,7,9,-1,11,13,15,17,19,21,-1,-1,-1,-1,-1,-1,-1,-1,-1,-1,-1],"loss_changes":[3.8826057E1,4.2092915E1,2.2082066E1,2.0367073E1,3.6844334E1,0E0,1.599452E1,2.0400146E1,5.693638E0,3.8623695E1,2.1113625E1,1.5671496E1,0E0,0E0,0E0,0E0,0E0,0E0,0E0,0E0,0E0,0E0,0E0],"parents":[2147483647,0,0,1,1,2,2,3,3,4,4,6,6,7,7,8,8,9,9,10,10,11,11],"right_children":[2,4,6,8,10,-1,12,14,16,18,20,22,-1,-1,-1,-1,-1,-1,-1,-1,-1,-1,-1],"split_conditions":[8.075E3,9.1E0,8.194E3,1.4E-1,4.36E1,2.0271192E-1,2E0,3.05E1,2.37E1,-2.541427E-1,2.44E1,5.43E1,1.0198931E-1,6.251937E-2,9.769541E-4,1.236393E-1,7.308777E-3,6.6812396E-2,1.6649747E-3,-1.5573552E-2,-1.318328E-1,1.10006735E-1,-2.9924933E-2],"split_indices":[7,6,7,8,0,0,10,0,2,4,6,0,0,0,0,0,0,0,0,0,0,0,0],"split_type":[0,0,0,0,0,0,0,0,0,0,0,0,0,0,0,0,0,0,0,0,0,0,0],"sum_hessian":[6.57E2,6.41E2,1.6E1,5.1E1,5.9E2,2E0,1.4E1,4.4E1,7E0,3.32E2,2.58E2,8E0,6E0,1.8E1,2.6E1,6E0,1E0,1.9E1,3.13E2,2.55E2,3E0,2E0,6E0],"tree_param":{"num_deleted":"0","num_feature":"14","num_nodes":"23","size_leaf_vector":"1"}},{"base_weights":[-8.0364E-2,7.2856295E-1,-1.5143149E-1,4.5144972E-1,2.1832235E0,1.6643618E0,-1.8359697E-1,2.4773356E-1,1.3498324E-1,1.2030774E-1,2.4214135E-2,-9.9005777E-1,2.8012333E0,1.7270164E-1,-3.432977E-1,-5.5316716E-2,1.8601507E-2,4.254325E-2,-8.764596E-2,-6.687088E-3,1.463617E-1,3.744245E-2,-8.373638E-3,-1.7757375E-2,3.0902725E-2],"categories":[],"categories_nodes":[],"categories_segments":[],"categories_sizes":[],"default_left":[0,0,0,0,0,0,0,0,0,0,0,0,0,0,0,0,0,0,0,0,0,0,0,0,0],"id":44,"left_children":[1,3,5,7,9,11,13,15,-1,-1,-1,17,19,21,23,-1,-1,-1,-1,-1,-1,-1,-1,-1,-1],"loss_changes":[3.6404625E1,2.043801E1,3.4020115E1,2.252697E1,6.6769447E0,3.1005156E1,3.2566097E1,1.0237083E1,0E0,0E0,0E0,6.2524652E0,1.0369186E1,4.275239E1,2.2831318E1,0E0,0E0,0E0,0E0,0E0,0E0,0E0,0E0,0E0,0E0],"parents":[2147483647,0,0,1,1,2,2,3,3,4,4,5,5,6,6,7,7,11,11,12,12,13,13,14,14],"right_children":[2,4,6,8,10,12,14,16,-1,-1,-1,18,20,22,24,-1,-1,-1,-1,-1,-1,-1,-1,-1,-1],"split_conditions":[9.1E0,1.98E1,4.7E0,6.409E3,1.46E-1,1.67E1,-4.990686E-1,1.5571429E0,1.3498324E-1,1.2030774E-1,2.4214135E-2,2.4E0,9.5E0,4.64E1,7.836E3,-5.5316716E-2,1.8601507E-2,4.254325E-2,-8.764596E-2,-6.687088E-3,1.463617E-1,3.744245E-2,-8.373638E-3,-1.7757375E-2,3.0902725E-2],"split_indices":[6,2,0,7,8,2,3,12,0,0,0,0,6,0,7,0,0,0,0,0,0,0,0,0,0],"split_type":[0,0,0,0,0,0,0,0,0,0,0,0,0,0,0,0,0,0,0,0,0,0,0,0,0],"sum_hessian":[6.33E2,5.1E1,5.82E2,4.3E1,8E0,1E1,5.72E2,4E1,3E0,6E0,2E0,3E0,7E0,1.77E2,3.95E2,4E0,3.6E1,1E0,2E0,1E0,6E0,6.2E1,1.15E2,3.75E2,2E1],"tree_param":{"num_deleted":"0","num_feature":"14","num_nodes":"25","size_leaf_vector":"1"}},{"base_weights":[-6.097259E-2,-4.480955E-1,1.3131219E-1,2.9451072E0,-4.973745E-1,-2.1071202E-1,3.8279834E-1,2.0941918E-1,8.0622256E-2,1.5866028E0,-5.58283E-1,6.776582E-1,-3.4921452E-1,1.0741463E0,1.8105069E-1,1.1251209E-1,-1.4683941E-2,-7.668067E-2,-1.9613622E-2,2.0025445E-2,1.3763484E-1,-2.3246324E-2,2.257347E-2,2.4255617E-2,9.090277E-2,1.613294E-2,-3.0298004E-2],"categories":[],"categories_nodes":[],"categories_segments":[],"categories_sizes":[],"default_left":[0,0,0,0,0,0,0,0,0,0,0,0,0,0,0,0,0,0,0,0,0,0,0,0,0,0,0],"id":45,"left_children":[1,3,5,7,9,11,13,-1,-1,15,17,19,21,23,25,-1,-1,-1,-1,-1,-1,-1,-1,-1,-1,-1,-1],"loss_changes":[4.892888E1,3.6641098E1,3.7785942E1,4.984749E0,2.7414757E1,2.2930466E1,3.5261295E1,0E0,0E0,1.1216978E1,2.8516434E1,1.3579146E1,2.3907883E1,2.907798E1,3.0681206E1,0E0,0E0,0E0,0E0,0E0,0E0,0E0,0E0,0E0,0E0,0E0,0E0],"parents":[2147483647,0,0,1,1,2,2,3,3,4,4,5,5,6,6,9,9,10,10,11,11,12,12,13,13,14,14],"right_children":[2,4,6,8,10,12,14,-1,-1,16,18,20,22,24,26,-1,-1,-1,-1,-1,-1,-1,-1,-1,-1,-1,-1],"split_conditions":[2.006181E0,-9.8334295E-1,1.42E1,1.96E1,-1E0,9.7E0,1.16E1,2.0941918E-1,8.0622256E-2,1.92E1,4E-1,6.73E1,1.93E1,6.3E0,6.09E1,1.1251209E-1,-1.4683941E-2,-7.668067E-2,-1.9613622E-2,2.0025445E-2,1.3763484E-1,-2.3246324E-2,2.257347E-2,2.4255617E-2,9.090277E-2,1.613294E-2,-3.0298004E-2],"split_indices":[13,4,2,2,10,6,6,0,0,2,10,1,6,10,0,0,0,0,0,0,0,0,0,0,0,0,0],"split_type":[0,0,0,0,0,0,0,0,0,0,0,0,0,0,0,0,0,0,0,0,0,0,0,0,0,0,0],"sum_hessian":[6.57E2,2.18E2,4.39E2,3E0,2.15E2,1.86E2,2.53E2,1E0,2E0,6E0,2.09E2,2.5E1,1.61E2,5.7E1,1.96E2,4E0,2E0,1.9E1,1.9E2,2.3E1,2E0,1.34E2,2.7E1,3.7E1,2E1,1.62E2,3.4E1],"tree_param":{"num_deleted":"0","num_feature":"14","num_nodes":"27","size_leaf_vector":"1"}},{"base_weights":[3.2689095E-2,-2.4458264E-1,2.531933E-1,2.6214337E-1,-3.875873E-1,3.4080037E-1,-6.9035304E-1,-4.2192116E-2,1.1686295E0,-1.497795E0,-2.3670281E-1,2.6474595E-1,1.8409437E0,-1.9220157E0,-9.4398804E-2,7.720995E-2,-7.3859235E-3,1.7901768E-1,3.225898E-2,-1.17132336E-1,-4.4701334E-2,-1.1083252E-1,-8.929445E-3,9.312438E-3,6.499041E-2,5.4998606E-2,1.5810296E-1,8.476521E-3,-1.2533762E-1,5.442655E-2,-2.2874601E-2],"categories":[],"categories_nodes":[],"categories_segments":[],"categories_sizes":[],"default_left":[0,0,0,0,0,0,0,0,0,0,0,0,0,0,0,0,0,0,0,0,0,0,0,0,0,0,0,0,0,0,0],"id":46,"left_children":[1,3,5,7,9,11,13,15,17,19,21,23,25,27,29,-1,-1,-1,-1,-1,-1,-1,-1,-1,-1,-1,-1,-1,-1,-1,-1],"loss_changes":[4.018584E1,2.111304E1,3.0292706E1,1.7718046E1,3.797338E1,3.8137543E1,2.2800312E1,1.0597865E1,1.9965185E1,1.476384E1,1.6172762E1,2.1120945E1,1.603608E1,1.925159E1,1.1754032E1,0E0,0E0,0E0,0E0,0E0,0E0,0E0,0E0,0E0,0E0,0E0,0E0,0E0,0E0,0E0,0E0],"parents":[2147483647,0,0,1,1,2,2,3,3,4,4,5,5,6,6,7,7,8,8,9,9,10,10,11,11,12,12,13,13,14,14],"right_children":[2,4,6,8,10,12,14,16,18,20,22,24,26,28,30,-1,-1,-1,-1,-1,-1,-1,-1,-1,-1,-1,-1,-1,-1,-1,-1],"split_conditions":[1.42E1,2.69E1,1.93E1,3.115E3,3.13E1,5.2214284E0,1.813E3,9.42E2,1.34E1,5E-1,3.6E1,8E0,2.19E1,7.39E2,6E-2,7.720995E-2,-7.3859235E-3,1.7901768E-1,3.225898E-2,-1.17132336E-1,-4.4701334E-2,-1.1083252E-1,-8.929445E-3,9.312438E-3,6.499041E-2,5.4998606E-2,1.5810296E-1,8.476521E-3,-1.2533762E-1,5.442655E-2,-2.2874601E-2],"split_indices":[2,0,6,7,0,12,7,7,0,9,1,10,2,7,8,0,0,0,0,0,0,0,0,0,0,0,0,0,0,0,0],"split_type":[0,0,0,0,0,0,0,0,0,0,0,0,0,0,0,0,0,0,0,0,0,0,0,0,0,0,0,0,0,0,0],"sum_hessian":[6.57E2,2.91E2,3.66E2,6.4E1,2.27E2,3.35E2,3.1E1,4.8E1,1.6E1,2.7E1,2E2,3.19E2,1.6E1,1E1,2.1E1,3E0,4.5E1,2E0,1.4E1,8E0,1.9E1,3E0,1.97E2,3.05E2,1.4E1,1.2E1,4E0,3E0,7E0,5E0,1.6E1],"tree_param":{"num_deleted":"0","num_feature":"14","num_nodes":"31","size_leaf_vector":"1"}},{"base_weights":[-1.3216092E-2,-2.2859573E0,1.5125675E-2,-1.6516314E-1,-7.727219E-2,-4.6239632E-1,1.482017E-1,7.198215E-1,-5.9245646E-1,4.377401E-1,-1.4824793E-1,-1.2861469E-2,7.642121E-2,-1.9622894E-2,-8.0563486E-2,-1.1398345E-2,2.864764E-2,-1.2083262E-2,3.890467E-2],"categories":[],"categories_nodes":[],"categories_segments":[],"categories_sizes":[],"default_left":[0,0,0,0,0,0,0,0,0,0,0,0,0,0,0,0,0,0,0],"id":47,"left_children":[1,3,5,-1,-1,7,9,11,13,15,17,-1,-1,-1,-1,-1,-1,-1,-1],"loss_changes":[4.2560955E1,5.4037514E0,4.144597E1,0E0,0E0,2.19121E1,4.3800323E1,1.4308206E1,2.351006E1,3.6888103E1,3.1775646E1,0E0,0E0,0E0,0E0,0E0,0E0,0E0,0E0],"parents":[2147483647,0,0,1,1,2,2,5,5,6,6,7,7,8,8,9,9,10,10],"right_children":[2,4,6,-1,-1,8,10,12,14,16,18,-1,-1,-1,-1,-1,-1,-1,-1],"split_conditions":[-5E-1,-2.4E0,1.91E3,-1.6516314E-1,-7.727219E-2,9.7E0,4.37E1,1.07E1,6.5E0,1.8373117E0,7.836E3,-1.2861469E-2,7.642121E-2,-1.9622894E-2,-8.0563486E-2,-1.1398345E-2,2.864764E-2,-1.2083262E-2,3.890467E-2],"split_indices":[11,10,7,0,0,6,0,2,10,13,7,0,0,0,0,0,0,0,0],"split_type":[0,0,0,0,0,0,0,0,0,0,0,0,0,0,0,0,0,0,0],"sum_hessian":[6.6E2,8E0,6.52E2,2E0,6E0,1.42E2,5.1E2,1.4E1,1.28E2,2.58E2,2.52E2,7E0,7E0,1.14E2,1.4E1,5.9E1,1.99E2,2.25E2,2.7E1],"tree_param":{"num_deleted":"0","num_feature":"14","num_nodes":"19","size_leaf_vector":"1"}},{"base_weights":[8.40092E-3,-1.06638886E-1,5.93971E-1,-1.6743308E-1,1.1391546E0,1.7657924E0,2.6667172E-1,-6.8767595E-1,-5.4059908E-2,1.4571862E0,-5.1179722E-2,2.1528015E0,-9.647366E-2,-2.4042359E-1,8.960705E-1,-2.6833756E-2,-1.8759076E-1,-4.5921905E-3,4.639511E-2,8.712934E-2,-1.1002641E-2,6.2451545E-2,1.4801088E-1,-6.5461164E-3,-1.7363991E-1,-1.4934672E-1,5.1266167E-2],"categories":[],"categories_nodes":[],"categories_segments":[],"categories_sizes":[],"default_left":[0,0,0,0,0,0,0,0,0,0,0,0,0,0,0,0,0,0,0,0,0,0,0,0,0,0,0],"id":48,"left_children":[1,3,5,7,9,11,13,15,17,19,-1,21,-1,23,25,-1,-1,-1,-1,-1,-1,-1,-1,-1,-1,-1,-1],"loss_changes":[4.35425E1,4.0920113E1,4.0612026E1,3.0367308E1,1.853516E1,3.5863518E1,2.657452E1,2.7153206E1,2.277756E1,1.8962708E1,0E0,1.7863556E1,0E0,1.5627604E1,4.085196E1,0E0,0E0,0E0,0E0,0E0,0E0,0E0,0E0,0E0,0E0,0E0,0E0],"parents":[2147483647,0,0,1,1,2,2,3,3,4,4,5,5,6,6,7,7,8,8,9,9,11,11,13,13,14,14],"right_children":[2,4,6,8,10,12,14,16,18,20,-1,22,-1,24,26,-1,-1,-1,-1,-1,-1,-1,-1,-1,-1,-1,-1],"split_conditions":[4.071429E0,7.836E3,2.45E1,3E-1,3.5142858E0,2.13E-1,1.72E1,7.1E0,7.2E0,8.64E1,-5.1179722E-2,2.06E1,-9.647366E-2,1.08E1,1.4579829E0,-2.6833756E-2,-1.8759076E-1,-4.5921905E-3,4.639511E-2,8.712934E-2,-1.1002641E-2,6.2451545E-2,1.4801088E-1,-6.5461164E-3,-1.7363991E-1,-1.4934672E-1,5.1266167E-2],"split_indices":[12,7,0,9,12,5,2,10,10,1,0,2,0,9,13,0,0,0,0,0,0,0,0,0,0,0,0],"split_type":[0,0,0,0,0,0,0,0,0,0,0,0,0,0,0,0,0,0,0,0,0,0,0,0,0,0,0],"sum_hessian":[6.46E2,5.4E2,1.06E2,5.15E2,2.5E1,2.3E1,8.3E1,9.2E1,4.23E2,2.2E1,3E0,2.1E1,2E0,4.6E1,3.7E1,9E1,2E0,4.05E2,1.8E1,1.7E1,5E0,1.3E1,8E0,4.5E1,1E0,2E0,3.5E1],"tree_param":{"num_deleted":"0","num_feature":"14","num_nodes":"27","size_leaf_vector":"1"}},{"base_weights":[2.3937404E-2,-5.517077E-1,1.3857846E-1,-3.9772883E-1,-1.444242E0,1.1854003E-1,1.6205479E-1,-9.7143745E-1,-1.881181E-1,-9.157103E-1,-1.597434E-1,-4.1314128E-1,2.2269037E-1,-2.8364642E-2,-1.4608654E-1,4.4948803E-3,-3.4014247E-2,-1.6043177E-2,-6.848222E-2,1.643617E-1,-2.0703636E-2,1.4665847E-2,-1.7449532E-2],"categories":[],"categories_nodes":[],"categories_segments":[],"categories_sizes":[],"default_left":[0,0,0,0,0,0,0,0,0,0,0,0,0,0,0,0,0,0,0,0,0,0,0],"id":49,"left_children":[1,3,5,7,9,11,-1,13,15,17,-1,19,21,-1,-1,-1,-1,-1,-1,-1,-1,-1,-1],"loss_changes":[4.3766502E1,1.5029186E1,3.8698257E1,1.1277832E1,1.7767452E1,3.0473621E1,0E0,1.9063553E1,1.153317E1,4.4376965E0,0E0,1.9413416E1,3.0214933E1,0E0,0E0,0E0,0E0,0E0,0E0,0E0,0E0,0E0,0E0],"parents":[2147483647,0,0,1,1,2,2,3,3,4,4,5,5,7,7,8,8,9,9,11,11,12,12],"right_children":[2,4,6,8,10,12,-1,14,16,18,-1,20,22,-1,-1,-1,-1,-1,-1,-1,-1,-1,-1],"split_conditions":[8.7E0,8E-2,3.23E1,1.152E3,6.23E1,1.919E3,1.6205479E-1,1.002E3,5.3E-2,4.2E0,-1.597434E-1,3.3E0,6.31E1,-2.8364642E-2,-1.4608654E-1,4.4948803E-3,-3.4014247E-2,-1.6043177E-2,-6.848222E-2,1.643617E-1,-2.0703636E-2,1.4665847E-2,-1.7449532E-2],"split_indices":[2,8,2,7,0,7,0,7,8,10,0,0,0,0,0,0,0,0,0,0,0,0,0],"split_type":[0,0,0,0,0,0,0,0,0,0,0,0,0,0,0,0,0,0,0,0,0,0,0],"sum_hessian":[6.63E2,1.1E2,5.53E2,9.4E1,1.6E1,5.5E2,3E0,2.5E1,6.9E1,1.3E1,3E0,9E1,4.6E2,2.2E1,3E0,4.6E1,2.3E1,7E0,6E0,1E0,8.9E1,3.92E2,6.8E1],"tree_param":{"num_deleted":"0","num_feature":"14","num_nodes":"23","size_leaf_vector":"1"}},{"base_weights":[-3.588044E-2,-3.0778432E-1,1.6968495E-1,7.2688437E-1,-4.000632E-1,2.9582497E-1,-5.904189E-1,-2.0360835E-2,1.057663E0,-2.937896E-1,-1.0338308E0,4.0122247E-1,-8.435939E-1,-6.901554E-1,1.7969026E-1,7.226965E-2,6.7739375E-3,-2.3017505E-2,1.0917073E-2,-3.305665E-2,-1.2574099E-1,1.0268521E-1,1.5121324E-2,-2.2358676E-2,-1.5255155E-1,-2.7943368E-3,-6.067653E-2],"categories":[],"categories_nodes":[],"categories_segments":[],"categories_sizes":[],"default_left":[0,0,0,0,0,0,0,0,0,0,0,0,0,0,0,0,0,0,0,0,0,0,0,0,0,0,0],"id":50,"left_children":[1,3,5,7,9,11,13,-1,15,17,19,21,23,25,-1,-1,-1,-1,-1,-1,-1,-1,-1,-1,-1,-1,-1],"loss_changes":[3.662762E1,2.697325E1,3.5795994E1,9.139953E0,1.7391602E1,3.84861E1,2.4856867E1,0E0,9.232082E0,2.6757523E1,1.9025951E1,3.422266E1,2.363205E1,2.1977589E1,0E0,0E0,0E0,0E0,0E0,0E0,0E0,0E0,0E0,0E0,0E0,0E0,0E0],"parents":[2147483647,0,0,1,1,2,2,3,3,4,4,5,5,6,6,8,8,9,9,10,10,11,11,12,12,13,13],"right_children":[2,4,6,8,10,12,14,-1,16,18,20,22,24,26,-1,-1,-1,-1,-1,-1,-1,-1,-1,-1,-1,-1,-1],"split_conditions":[1.42E1,8.9E0,6.32E1,1.8928572E0,1.06E-1,1.98E1,8.3E0,-2.0360835E-2,4E-3,3.011E3,3.6285715E0,7.4E0,7E0,2.1571429E0,1.7969026E-1,7.226965E-2,6.7739375E-3,-2.3017505E-2,1.0917073E-2,-3.305665E-2,-1.2574099E-1,1.0268521E-1,1.5121324E-2,-2.2358676E-2,-1.5255155E-1,-2.7943368E-3,-6.067653E-2],"split_indices":[2,6,0,12,8,6,10,0,5,7,12,0,10,11,0,0,0,0,0,0,0,0,0,0,0,0,0],"split_type":[0,0,0,0,0,0,0,0,0,0,0,0,0,0,0,0,0,0,0,0,0,0,0,0,0,0,0],"sum_hessian":[6.55E2,2.82E2,3.73E2,2.3E1,2.59E2,3.2E2,5.3E1,5E0,1.8E1,2.22E2,3.7E1,2.93E2,2.7E1,5.2E1,1E0,1.1E1,7E0,1.57E2,6.5E1,3.2E1,5E0,9E0,2.84E2,2.4E1,3E0,2.7E1,2.5E1],"tree_param":{"num_deleted":"0","num_feature":"14","num_nodes":"27","size_leaf_vector":"1"}},{"base_weights":[4.051481E-2,1.8482053E-1,-3.371599E-1,-1.247652E-1,2.1109545E-1,1.5883988E-1,-3.6166164E-1,1.6673861E-1,1.751099E0,-1.0554283E-1,-7.1917284E-1,1.1719062E-2,-1.478715E-2,9.762602E-2,3.1735078E-2,1.8957933E-2,-1.9275572E-2,3.0680072E-2,-5.1850274E-2],"categories":[],"categories_nodes":[],"categories_segments":[],"categories_sizes":[],"default_left":[0,0,0,0,0,0,0,0,0,0,0,0,0,0,0,0,0,0,0],"id":51,"left_children":[1,3,5,-1,7,-1,9,11,13,15,17,-1,-1,-1,-1,-1,-1,-1,-1],"loss_changes":[3.5711746E1,3.7261726E1,1.7462727E1,0E0,3.2045616E1,0E0,1.6471447E1,2.2025398E1,5.7688293E0,1.832214E1,4.727372E1,0E0,0E0,0E0,0E0,0E0,0E0,0E0,0E0],"parents":[2147483647,0,0,1,1,2,2,4,4,6,6,7,7,8,8,9,9,10,10],"right_children":[2,4,6,-1,8,-1,10,12,14,16,18,-1,-1,-1,-1,-1,-1,-1,-1],"split_conditions":[5.6E-2,-5E-1,4.7E0,-1.247652E-1,5.3285713E0,1.5883988E-1,4.179029E-1,6.09E1,7.1127576E-1,5.71E1,-3.4336686E-1,1.1719062E-2,-1.478715E-2,9.762602E-2,3.1735078E-2,1.8957933E-2,-1.9275572E-2,3.0680072E-2,-5.1850274E-2],"split_indices":[5,11,0,0,12,0,4,0,3,1,3,0,0,0,0,0,0,0,0],"split_type":[0,0,0,0,0,0,0,0,0,0,0,0,0,0,0,0,0,0,0],"sum_hessian":[6.55E2,4.74E2,1.81E2,4E0,4.7E2,1E0,1.8E2,4.57E2,1.3E1,1.05E2,7.5E1,3.83E2,7.4E1,9E0,4E0,4E1,6.5E1,1.8E1,5.7E1],"tree_param":{"num_deleted":"0","num_feature":"14","num_nodes":"19","size_leaf_vector":"1"}},{"base_weights":[2.1926584E-2,-4.1360062E-1,1.4353828E-1,-9.7383864E-2,-8.320781E-1,4.253286E-2,7.004018E-1,-3.564026E-1,7.435143E-1,-1.1904213E0,4.8848778E-1,9.3438044E-2,-1.187031E0,1.0009586E0,-6.688551E-1,3.2027267E-2,-2.7429534E-2,5.2639842E-2,-6.864116E-2,-2.6405415E-1,-4.772564E-2,2.8998342E-3,2.1948332E-1,-8.900711E-2,5.5608246E-3,-1.4225943E-1,-2.4068933E-2,2.1276023E-2,8.053374E-2,-1.5774652E-1,-6.836559E-3],"categories":[],"categories_nodes":[],"categories_segments":[],"categories_sizes":[],"default_left":[0,0,0,0,0,0,0,0,0,0,0,0,0,0,0,0,0,0,0,0,0,0,0,0,0,0,0,0,0,0,0],"id":52,"left_children":[1,3,5,7,9,11,13,15,17,19,21,23,25,27,29,-1,-1,-1,-1,-1,-1,-1,-1,-1,-1,-1,-1,-1,-1,-1,-1],"loss_changes":[3.4491783E1,1.878383E1,2.8621746E1,1.770335E1,2.9022568E1,2.698423E1,3.2254513E1,1.7426926E1,1.9448662E1,2.601551E1,2.4586697E1,2.729346E1,2.1955523E1,2.6955963E1,2.081209E1,0E0,0E0,0E0,0E0,0E0,0E0,0E0,0E0,0E0,0E0,0E0,0E0,0E0,0E0,0E0,0E0],"parents":[2147483647,0,0,1,1,2,2,3,3,4,4,5,5,6,6,7,7,8,8,9,9,10,10,11,11,12,12,13,13,14,14],"right_children":[2,4,6,8,10,12,14,16,18,20,22,24,26,28,30,-1,-1,-1,-1,-1,-1,-1,-1,-1,-1,-1,-1,-1,-1,-1,-1],"split_conditions":[1.91E3,1.62E1,4.1E0,1.46E1,9.1380763E-1,4.6857142E0,8.4945047E-1,2.72E1,4.41E-1,1.63E1,1.531E3,-5E-1,1.7410998E0,2.01E1,2.1074698E0,3.2027267E-2,-2.7429534E-2,5.2639842E-2,-6.864116E-2,-2.6405415E-1,-4.772564E-2,2.8998342E-3,2.1948332E-1,-8.900711E-2,5.5608246E-3,-1.4225943E-1,-2.4068933E-2,2.1276023E-2,8.053374E-2,-1.5774652E-1,-6.836559E-3],"split_indices":[7,6,12,6,3,11,3,0,5,6,7,11,13,2,13,0,0,0,0,0,0,0,0,0,0,0,0,0,0,0,0],"split_type":[0,0,0,0,0,0,0,0,0,0,0,0,0,0,0,0,0,0,0,0,0,0,0,0,0,0,0,0,0,0,0],"sum_hessian":[6.51E2,1.42E2,5.09E2,8.1E1,6.1E1,4.31E2,7.8E1,6.2E1,1.9E1,4.8E1,1.3E1,4.14E2,1.7E1,6.4E1,1.4E1,1.2E1,5E1,1.6E1,3E0,1E0,4.7E1,1.2E1,1E0,6E0,4.08E2,4E0,1.3E1,3.9E1,2.5E1,2E0,1.2E1],"tree_param":{"num_deleted":"0","num_feature":"14","num_nodes":"31","size_leaf_vector":"1"}},{"base_weights":[-1.361295E-2,-1.9676313E0,5.074023E-3,-1.3269389E-1,-3.8412344E-2,-3.8741207E-1,8.7382056E-2,1.4711088E-1,-6.439831E-1,1.097168E-1,-1.8192699E0,1.6337436E-2,-9.689057E-2,-2.3624012E-2,-8.4713235E-2,5.576794E-3,-1.10154785E-1,-1.255368E-1,1.0158852E-2],"categories":[],"categories_nodes":[],"categories_segments":[],"categories_sizes":[],"default_left":[0,0,0,0,0,0,0,0,0,0,0,0,0,0,0,0,0,0,0],"id":53,"left_children":[1,3,5,-1,-1,7,9,11,13,15,17,-1,-1,-1,-1,-1,-1,-1,-1],"loss_changes":[2.3661129E1,6.4571667E0,2.0711956E1,0E0,0E0,1.5262453E1,2.2577435E1,1.8548763E1,1.0540691E1,2.1086231E1,1.2706444E1,0E0,0E0,0E0,0E0,0E0,0E0,0E0,0E0],"parents":[2147483647,0,0,1,1,2,2,5,5,6,6,7,7,8,8,9,9,10,10],"right_children":[2,4,6,-1,-1,8,10,12,14,16,18,-1,-1,-1,-1,-1,-1,-1,-1],"split_conditions":[-5E-1,3.2E1,8.7E0,-1.3269389E-1,-3.8412344E-2,2.2214286E0,7.28E1,4.8E0,2.44E1,1.788E0,1.74E1,1.6337436E-2,-9.689057E-2,-2.3624012E-2,-8.4713235E-2,5.576794E-3,-1.10154785E-1,-1.255368E-1,1.0158852E-2],"split_indices":[11,0,2,0,0,12,0,10,6,5,6,0,0,0,0,0,0,0,0],"split_type":[0,0,0,0,0,0,0,0,0,0,0,0,0,0,0,0,0,0,0],"sum_hessian":[6.47E2,6E0,6.41E2,3E0,3E0,1.11E2,5.3E2,3.6E1,7.5E1,5.24E2,6E0,3.3E1,3E0,6.9E1,6E0,5.21E2,3E0,4E0,2E0],"tree_param":{"num_deleted":"0","num_feature":"14","num_nodes":"19","size_leaf_vector":"1"}},{"base_weights":[-1.7006105E-2,-3.613994E-2,1.3230208E-1,9.581392E-1,-8.4712416E-2,1.1658247E0,-8.145337E-2,-8.777736E-1,-3.534954E-2,5.8526333E-2,-1.1188095E-1,-4.423816E-2,1.2449898E-1,-5.927515E-3,1.9596243E-2],"categories":[],"categories_nodes":[],"categories_segments":[],"categories_sizes":[],"default_left":[0,0,0,0,0,0,0,0,0,0,0,0,0,0,0],"id":54,"left_children":[1,3,-1,5,7,9,-1,11,13,-1,-1,-1,-1,-1,-1],"loss_changes":[3.7210686E1,3.1251284E1,0E0,1.7735214E1,2.4141485E1,1.5856396E1,0E0,1.57615185E1,2.7034575E1,0E0,0E0,0E0,0E0,0E0,0E0],"parents":[2147483647,0,0,1,1,3,3,4,4,5,5,7,7,8,8],"right_children":[2,4,-1,6,8,10,-1,12,14,-1,-1,-1,-1,-1,-1],"split_conditions":[3.2E1,1.34E1,1.3230208E-1,1.26E-1,-1E0,8.271893E-1,-8.145337E-2,3.01E1,6.53E3,5.8526333E-2,-1.1188095E-1,-4.423816E-2,1.2449898E-1,-5.927515E-3,1.9596243E-2],"split_indices":[2,0,0,5,9,3,0,6,7,0,0,0,0,0,0],"split_type":[0,0,0,0,0,0,0,0,0,0,0,0,0,0,0],"sum_hessian":[6.51E2,6.47E2,4E0,3E1,6.17E2,2.8E1,2E0,3.6E1,5.81E2,2.7E1,1E0,3.5E1,1E0,4.82E2,9.9E1],"tree_param":{"num_deleted":"0","num_feature":"14","num_nodes":"15","size_leaf_vector":"1"}},{"base_weights":[-3.6749043E-2,2.7305874E-1,-1.729504E-1,1.0002595E0,-1.8392809E-2,3.9521894E-1,-3.360943E-1,6.131499E-1,2.3185556E0,2.7032194E-1,-1.1695755E0,8.317919E-1,-2.391407E-1,-1.2791422E-1,-7.8266954E-1,1.0275073E-1,1.7524246E-2,1.3886994E-1,2.085607E-2,5.597089E-2,-2.6702483E-3,-7.904627E-2,-1.832097E-2,2.507119E-2,9.676376E-2,-2.5585879E-2,6.301181E-2,1.0620022E-2,-1.8989358E-2,-2.8983848E-2,-1.5817234E-1],"categories":[],"categories_nodes":[],"categories_segments":[],"categories_sizes":[],"default_left":[0,0,0,0,0,0,0,0,0,0,0,0,0,0,0,0,0,0,0,0,0,0,0,0,0,0,0,0,0,0,0],"id":55,"left_children":[1,3,5,7,9,11,13,15,17,19,21,23,25,27,29,-1,-1,-1,-1,-1,-1,-1,-1,-1,-1,-1,-1,-1,-1,-1,-1],"loss_changes":[2.8071348E1,4.307128E1,4.2854603E1,2.9428535E1,4.8295937E1,2.8599997E1,3.3360764E1,1.6626501E1,1.9214432E1,3.7892105E1,